,0,1,2,3,4,5,6,7,8,9,10,11,12,13,14,15,16,17,18,19,20,21,22,23,24,25,26,27,28,29,30,31,32,33,34,35,36,37,38,39,40,41,42,43,44,45,46,47,48,49,50,51,52,53,54,55,56,57,58,59,60,61,62,63,64,65,66,67,68,69,70,71,72,73,74,75,76,77,78,79,80,81,82,83,84,85,86,87,88,89,90,91,92,93,94,95,96,97,98,99,100,101,102,103,104,105,106,107,108,109,110,111,112,113,114,115,116,117,118,119,120,121,122,123,124,125,126,127,128,129,130,131,132,133,134,135,136,137,138,139,140,141,142,143,144,145,146,147,148,149,150,151,152,153,154,155,156,157,158,159,160,161,162,163,164,165,166,167,168,169,170,171,172,173,174,175,176,177,178,179,180,181,182,183,184,185,186,187,188,189,190,191,192,193,194,195,196,197,198,199,200,201,202,203,204,205,206,207,208,209,210,211,212,213,214,215,216,217,218,219,220,221,222,223,224,225,226,227,228,229,230,231,232,233,234,235,236,237,238,239,240,241,242,243,244,245,246,247,248,249,250,251,252,253,254,255,256,257,258,259,260,261,262,263,264,265,266,267,268,269,270,271,272,273,274,275,276,277,278,279,280,281,282,283,284,285,286,287,288,289,290,291,292,293,294,295,296,297,298,299,300,301,302,303,304,305,306,307,308,309,310,311,312,313,314,315,316,317,318,319,320,321,322,323,324,325,326,327,328,329,330,331,332,333,334,335,336,337,338,339,340,341,342,343,344,345,346,347,348,349,350,351,352,353,354,355,356,357,358,359,360,361,362,363,364,365,366,367,368,369,370,371,372,373,374,375,376,377,378,379,380,381,382,383,384,385,386,387,388,389,390,391,392,393,394,395,396,397,398,399,400,401,402,403,404,405,406,407,408,409,410,411,412,413,414,415,416,417,418,419,420,421,422,423,424,425,426,427,428,429,430,431,432,433,434,435,436,437,438,439,440,441,442,443,444,445,446,447,448,449,450,451,452,453,454,455,456,457,458,459,460,461,462,463,464,465,466,467,468,469,470,471,472,473,474,475,476,477,478,479,480,481,482,483,484,485,486,487,488,489,490,491,492,493,494,495,496,497,498,499,500,501,502,503,504,505,506,507,508,509,510,511,512,513,514,515,516,517,518,519,520,521,522,523,524,525,526,527,528,529,530,531,532,533,534,535,536,537,538,539,540,541,542,543,544,545,546,547,548,549,550,551,552,553,554,555,556,557,558,559,560,561,562,563,564,565,566,567,568,569,570,571,572,573,574,575,576,577,578,579,580,581,582,583,584,585,586,587,588,589,590,591,592,593,594,595,596,597,598,599,600,601,602,603,604,605,606,607,608,609,610,611,612,613,614,615,616,617,618,619,620,621,622,623,624,625,626,627,628,629,630,631,632,633,634,635,636,637,638,639,640,641,642,643,644,645,646,647,648,649,650,651,652,653,654,655,656,657,658,659,660,661,662,663,664,665,666,667,668,669,670,671,672,673,674,675,676,677,678,679,680,681,682,683,684,685,686,687,688,689,690,691,692,693,694,695,696,697,698,699,700,701,702,703,704,705,706,707,708,709,710,711,712,713,714,715,716,717,718,719,720,721,722,723,724,725,726,727,728,729,730,731,732,733,734,735,736,737,738,739,740,741,742,743,744,745,746,747,748,749,750,751,752,753,754,755,756,757,758,759,760,761,762,763,764,765,766,767
10186968.pdf,-0.4185179,0.28733933,0.38272703,0.11180909,0.6590542,0.24680948,0.19467908,0.30095822,-0.049547218,-0.33657098,0.039786417,-0.37274137,-0.08268447,0.05892976,0.02462365,0.46503752,0.3239994,0.14525509,-0.1986186,0.33168554,0.010656616,-0.38352242,0.12705746,0.66650903,0.4120568,0.14741783,-0.10501999,-0.12893286,-0.26888642,-0.27696294,0.64133084,0.07418718,0.038399704,-0.31765726,-0.0011659339,-0.02691155,-0.17731477,-0.018036854,-0.10720383,0.18050498,-0.44071472,-0.17510223,-0.25113973,-0.16185921,-0.09073883,-0.17179291,0.047992587,-0.16787125,0.120450564,-0.113895476,-0.53026646,0.3758327,-0.22646609,-0.23829049,0.1784537,0.6166192,-0.085905015,-0.48745853,-0.40709418,-0.2901258,0.07517137,-0.13437667,0.2973563,-0.30514133,0.037651166,0.042577118,0.23127972,0.39988923,-0.53563863,-0.24184409,-0.3495345,0.0916012,-0.097993135,-0.107037835,-0.17527995,-0.067072645,0.02567879,0.3443187,0.09177434,-0.037865,-0.34965682,0.35124165,-0.24856213,0.28444323,0.1601515,0.119307324,0.2960814,0.21431142,-0.20551836,0.66315365,0.100047335,-0.27242184,0.25381812,0.15627041,0.07576859,0.083784014,0.17407712,0.03722444,-0.15767868,0.030948766,0.10863164,-0.13918981,0.15353528,0.03595182,-0.11506322,-0.04943257,0.17741698,0.13030839,-0.5004651,0.31649202,0.09194063,-0.30751786,-0.32261652,-0.390704,-0.06748387,0.06636342,0.18747595,0.2660876,0.1289728,0.11622663,0.07242817,-0.20213437,0.15894791,0.7944774,0.10056673,0.07907573,-0.12711342,0.2165137,-0.05627627,-0.059357796,-0.120387614,0.1545186,-0.0028491986,0.06747531,-0.22474605,0.25507683,-0.1809026,-0.2740646,-0.049067575,0.16955712,0.16769001,-0.47049356,0.5289366,-0.12344919,0.1397058,-0.3647483,0.05259434,0.02258549,-0.13099967,0.44414258,0.29562497,0.045206018,0.035371404,-0.23036198,0.03290216,0.141997,-0.31393018,0.13539208,-0.041768152,-0.0565978,0.34924507,0.3535537,-0.5648061,0.14515097,-0.18608327,-0.010894809,-0.2743794,0.3310194,-0.23435906,0.25626415,-0.0034538172,0.13599665,0.55933255,0.090974554,0.1676512,-0.08708861,0.24755535,-0.1745927,0.07036643,0.14782539,-0.46779752,0.34914607,-0.18305421,-0.115528286,0.23051801,-0.2448981,0.41650096,-0.35582083,0.1665703,-0.32105482,-0.16967976,-0.33173478,0.013737494,0.040229127,0.23925775,-0.21008347,0.15059513,0.104144335,-0.36479694,-0.30252448,0.26923347,0.16744918,0.22285159,0.16098946,-0.1695051,-0.4192499,0.099795274,-0.41999656,-0.28891018,0.16462159,-0.25764975,0.14524072,-0.046625674,0.3877879,-0.0024225637,0.084388874,-0.17973319,-0.07350992,0.049993966,0.04572645,-0.010768369,0.14817333,-0.37459797,0.52775276,-0.51426107,0.50521386,0.044303443,-0.9119705,0.30470243,0.48764533,0.07617844,-0.36253935,0.43587863,-0.37510902,0.07872118,-0.040336348,-0.25603393,-0.18735403,0.2853401,-0.34367096,-0.32256144,0.45430222,0.2989536,0.08913104,0.080360025,-0.044746257,-0.019103115,0.056621693,-0.08567111,-0.09036377,-0.70645964,-0.010420084,-0.113998756,-0.28774616,0.26663965,-0.4281208,-0.07666151,-0.4523452,-0.25396958,-0.01579234,0.17773256,0.24482751,0.12798735,-0.073996946,-0.06291312,-0.9006838,0.24920395,0.30989173,0.19694035,0.18060824,0.17589876,-0.1600982,-0.00439544,0.46210438,-0.296516,-0.11376448,0.2067033,0.038697075,0.058766052,-0.30767417,0.15213475,0.42395428,-0.16030917,-0.088160455,-0.03642513,-0.23929109,0.3396191,-0.09229548,-0.3208434,-0.13604619,-0.18962654,0.17415169,-0.4017629,-0.33636576,0.42488334,0.22128639,0.079098046,0.3935495,0.2667748,0.09968323,-0.23003766,-0.46395916,0.2167468,0.078237176,0.07553702,0.09521663,0.006901089,-0.7167988,-3.7058108,0.093408264,0.020917552,-0.2985689,0.32109028,-0.028548758,0.3531062,-0.072785944,-0.38823962,0.31356817,-0.17223296,-0.13808355,0.0987233,0.24359632,0.2451885,-0.113249406,0.07013336,-0.3434051,-0.0029836707,0.2732096,-0.047749728,-0.7903023,0.11066003,0.092914924,0.31551036,0.38347048,-0.33715135,-0.135663,-0.32862252,-0.1471082,0.22115402,-0.114396736,-0.3032387,0.32844764,0.17544086,-0.015597289,-0.0815372,-0.22355308,-0.07468533,-0.6303251,0.19678918,-0.8678735,-0.23573749,0.018819889,0.6223017,0.02894798,0.26267457,-0.15973076,0.020842003,0.10046507,0.29908222,0.07587953,-0.072238564,-0.035771172,-0.004823678,0.047172304,0.4562658,0.16291964,-0.32669535,-0.112757884,0.18758371,-0.21020931,-0.460635,-0.07598024,-0.17600791,-0.26124,-0.77623296,-0.357954,-0.16830578,-0.0726778,-0.21322301,0.7028098,-0.28799474,-0.28115082,-0.11430542,-0.5887848,0.25361234,-0.27912858,-0.049413215,-0.19854993,-0.2343986,-0.2642269,0.19536804,0.088197805,-0.11454873,0.021039963,-0.058241047,-0.0005622022,-0.49060863,-0.53699595,0.3081935,0.14048764,0.16871998,0.08140729,0.36566424,0.02299159,0.4558002,0.02762464,-0.06318118,-0.30347627,0.03695848,0.22304757,0.54835296,-0.29037178,0.022671966,-0.10719217,-0.34189922,-0.16579528,0.21780875,-0.12648772,-0.026149152,-0.26932067,0.20050833,-0.43330675,-0.17945254,0.017231073,0.19420886,0.7913004,-0.046931393,-0.3145726,-0.033582605,0.25801432,-0.009078869,-0.011620745,-0.07745935,-0.048073716,-0.22992203,0.22328472,0.18469337,-0.06257387,-0.0070245285,-0.21409684,-0.15873805,0.29674813,0.27635932,0.06769779,0.032200288,-0.6519309,-0.22291726,0.2675866,-0.0032834094,0.34162784,0.1836381,-0.21301499,0.16612841,0.1779109,-0.15164226,0.3326167,-0.14989416,0.07869854,-0.61253977,-0.26742738,-0.12195113,-0.26690644,0.105300024,0.3926394,0.21920647,-0.052217897,-0.0020450428,-0.5485668,0.2353388,-0.025903422,0.22307649,-0.0960941,-0.3044447,0.6282355,-0.12186876,-0.0893404,-0.05774818,0.06355566,0.0009900704,-0.35186318,0.31344658,-0.22638449,0.015776314,0.4474213,0.25225475,-0.23381823,-0.14341058,0.21593809,-0.14556089,-0.43560955,-0.23923756,-0.14047885,0.25116843,0.15751427,0.26191488,-0.4386374,-0.08065068,0.04110901,0.006967729,0.15374672,-0.124935,0.1300289,-0.09792562,-0.06036219,0.47340623,0.21996285,0.062323038,0.2229869,0.020316498,-0.36169225,-0.44959617,-0.050552737,-0.064934626,-0.22488078,-0.06783003,0.25942773,-0.009143968,0.17092055,-0.37056914,0.13634261,-0.45879525,-0.09771727,0.16870163,-0.5210806,-0.2930511,-0.07275601,-0.47194374,0.048719134,-0.028102104,-0.17806078,0.007850607,-0.04914037,-0.1332404,-0.23771313,0.06574665,-0.11602802,-0.15731096,-0.07907304,0.086005144,-0.96927845,0.12731887,0.08431581,-0.17445049,-0.0049533285,-0.12192948,-0.72879183,0.33964866,-0.20371667,-0.18664144,-0.11383556,-0.279518,-0.25702393,0.19763422,0.07961086,-0.20641884,0.3004524,0.0660934,0.7260378,-0.050938014,0.03702195,0.25828707,-0.06775004,0.06118897,-0.47372028,-0.4069025,-0.11005758,-0.11325689,-0.0071713477,-0.1815952,-0.25562283,-0.29432786,0.20989934,0.4481454,0.18941553,-0.030315842,-0.03466055,0.10837532,-0.5400938,0.22095326,-0.2716989,-0.07174432,-0.21902505,0.0637662,0.062352158,0.2601999,-0.40864182,0.5365541,-0.3453914,-0.322762,-0.08481375,-0.10843724,0.0773534,0.41485667,-0.6125506,-0.13030705,0.27724284,-0.15134977,0.018968854,0.45685804,0.025943402,-0.33240306,0.0980777,-0.55295825,0.23014477,0.6125767,0.4686131,0.03986164,0.2219142,0.14741798,0.26327172,0.2476724,-0.08608526,-0.24787025,0.2979443,0.008552361,-0.6216878,-0.17743826,0.027571436,-0.13142075,-0.637021,0.77264667,0.15588468,-0.52999437,-0.20749855,-0.29686594,-0.14931859,0.3147107,-0.008008542,0.11758975,0.10403898,0.53004277,-0.098382354,0.24108985,0.52232385,0.05333163,-0.24517044,0.067749724,0.22035941,0.10013664,0.3490116,-0.21942551,0.216428,0.12414856,-0.009379275,-0.28106612,-0.025118783,-0.007636081,0.14066939,0.018099751,0.061928622,0.6465428,0.56427795,0.25421634,0.37808853,0.3957262,0.02188322,0.6003779,0.426028,0.11691513,0.043937832,0.07873767,0.19288322,0.18957068,-0.17978428,0.2594795,0.3658471,-0.086630866,0.4116357,0.03524878,0.28825307,0.49148613,-0.6122635,-0.25890362,0.032296307,0.52192056,-0.38370588,0.067624964,0.23927137,-0.045941725,0.28606367,-0.52534175,-0.30721894,-0.103241764,0.01026562,0.12657422,-0.36003214,-0.16615158,0.17685339,0.036314387,-0.27561986,-0.23841766,-0.42477232,-0.16569923,0.2421655,-0.012026271,0.0585738,0.057775732,-0.26655477,0.084940344,-0.014919765,0.30706084,-0.02885321,-0.16856927,0.14179096,0.38216215,0.13961422,0.53438145,-0.14281729,0.19376402,-0.13522342,-0.17435646,-0.06826398,0.18065517,0.006051641,0.11788163,0.18136702,-0.2986644,-0.16647299,0.0076147905,0.37495065,-0.26903892,-0.11473125,-0.001002429,0.10886495,0.29373366,0.1576758,-0.35544384,-0.25226545,-0.023777748,-0.32359442,0.12261084,0.16992335,-0.38934624,-0.12137502,0.3196936,0.07375941,-0.057698235,0.074614,-0.33712715,-0.057538103,-0.17360947,0.22195336,0.036143675,-0.1802504,-0.33114988,0.26022065,0.04416708,0.1708934,0.10844473,0.16929564,-0.041086655,0.13509932,0.5076837,0.009350217,-0.20897144,-0.4378065,-0.24843505,-0.29727215,-0.09521449,-0.14758483,0.036761157,-0.3039866,0.052155234,-0.40375507,-0.22494018,-0.13282357,-0.04319652,0.06404486
10344379.pdf,-0.19848463,0.35747284,0.42838493,0.019228088,0.8176789,0.17025316,0.0832454,0.16076909,-0.031367134,-0.21610674,-0.09893304,-0.23162752,0.00023502484,0.08280749,-0.05347261,0.6518774,0.37705356,0.07221704,-0.18595622,0.43014142,0.025133245,-0.30297455,0.135987,0.5483273,0.26104444,0.03431376,-0.1912218,-0.05175233,-0.32048833,-0.23184529,0.6699485,0.08653711,-0.13970107,-0.33848414,0.10644472,0.087623894,-0.1079189,0.0051467847,-0.2298227,0.1593576,-0.64066494,-0.12955411,-0.078639194,0.056861214,-0.1869678,-0.08547543,0.25164264,-0.25087988,-0.18470435,0.27934006,-0.3303864,0.26202124,-0.3505629,-0.121670984,0.2879031,0.52124655,-0.14138655,-0.62988716,-0.38508528,-0.4173783,0.2034224,-0.09436984,0.31383556,-0.07680194,0.26896787,-0.011160927,0.14735185,0.27444673,-0.6560704,-0.0755675,-0.31247598,0.010580309,-0.14320397,-0.14105001,-0.08552191,0.0076067224,-0.06988864,0.29648098,-0.14189836,0.121723846,-0.22554143,0.29382983,-0.18070877,0.15052468,0.19182444,0.11975618,0.18743551,0.2794658,-0.23408931,0.59005094,0.2803011,-0.22033986,0.3018154,0.06321372,0.078961745,0.104616776,0.10263777,0.10052769,-0.24103123,0.014282608,0.1779786,0.02794951,0.2667144,-0.011864994,0.014329005,-0.055450093,0.1822857,0.29931718,-0.49041566,0.48137033,0.16009672,-0.29606062,-0.06280065,-0.4270411,-0.17626846,0.03299243,0.057759497,0.15779011,0.11075455,0.07352762,0.30580717,-0.221416,0.16900264,0.76296973,0.10162593,0.060019795,-0.08028282,0.2857169,0.033334408,-0.06089095,-0.054627273,0.27365425,-0.100277066,0.028214164,-0.26874307,0.40285945,-0.24905019,-0.26055926,-0.057972297,0.14704786,-0.12175298,-0.6052403,0.44590536,-0.10885759,0.09046467,-0.29979587,0.11712177,0.09101838,-0.096859075,0.45135295,0.23596486,0.05805589,-0.052707583,-0.07187997,0.07287325,0.15575866,-0.1494598,0.055388086,-0.30736434,-0.29042238,0.35999304,0.3884222,-0.49000978,0.27738202,-0.04376784,-0.09046619,-0.23749113,0.33874512,-0.15977474,0.22467779,-0.019258484,-0.064630255,0.6466037,0.0073379534,0.30041322,0.008669354,0.32192975,-0.1428148,0.2635231,-0.051251628,-0.5251703,0.57164145,-0.14539285,0.005542312,0.15566817,-0.24037251,0.49700567,-0.40585104,-0.038718328,-0.389956,-0.1362477,-0.436522,-0.123668596,0.029596359,0.24370664,-0.12998293,0.102779165,0.08005177,-0.61613274,-0.29852188,0.40681762,0.37959024,0.17610359,0.14938799,-0.13744417,-0.53765,0.23255879,-0.49545684,-0.1306647,0.13839501,-0.16321826,0.027085988,-0.11886941,0.19277453,-0.10636729,0.13147768,-0.23054178,-0.061700106,0.13836405,-0.077537805,0.046486385,0.18011415,-0.36115363,0.6132742,-0.37737393,0.5449192,-0.0908837,-0.8144128,0.3168075,0.32802588,0.0898328,-0.23686486,0.51849747,-0.36996147,0.055087924,-0.11981614,-0.23625699,-0.08986883,0.23958957,-0.31863028,-0.38060457,0.51147974,0.27215865,0.17760846,0.21893659,-0.018878274,-0.25620675,0.12119724,-0.09144137,-0.07649523,-0.6154121,-0.036482003,-0.079902954,-0.40460947,0.023527186,-0.47948438,-0.09100297,-0.289734,-0.11282434,-0.12728024,0.072388515,0.15410739,0.035584986,-0.09811,-0.2225138,-0.9151908,0.05526056,0.3358559,0.18291698,0.35434297,0.15426369,-0.054370027,-0.11928463,0.40923977,-0.38246408,-0.09332599,0.26243412,0.10253019,-0.024178205,-0.07859137,0.23008114,0.34664005,0.053935856,0.04839749,-0.11657077,-0.19005771,0.3729484,-0.06433122,-0.24847612,-0.11129829,-0.25427482,0.20286109,-0.4747116,-0.22793812,0.45941532,0.01618632,0.14365499,0.33711272,0.2824605,-0.1397269,-0.20337678,-0.3211242,0.2391223,0.1730061,0.0010582805,0.045049015,-0.07195774,-0.71853125,-3.5540462,-0.099307045,0.11799383,-0.33601013,0.43757027,-0.05273906,0.1579028,0.06721507,-0.4974861,0.2622246,-0.08072945,-0.076501384,0.16440652,0.36110982,0.31309992,-0.08584313,-0.016058916,-0.21559703,0.143768,0.29779512,-0.06638515,-0.9340626,0.08685187,0.12845413,0.10377295,0.4218102,-0.4521147,-0.0723864,-0.33885267,-0.21542495,0.04373088,-0.0865976,-0.40577006,0.26582238,0.13897172,-0.005017774,-0.23574771,-0.3226301,-0.09180709,-0.5450661,0.14239848,-0.6779445,-0.14099151,0.00044658035,0.561968,0.019182084,0.29008847,-0.01611406,0.12557292,0.25377384,0.24606642,0.003217604,-0.082197964,-0.13396108,0.050098844,0.058425516,0.5709295,0.17947665,-0.458578,-0.094384566,0.016485058,-0.27964476,-0.45050663,-0.07878328,-0.24595645,-0.018479954,-0.65855455,-0.33386868,-0.058858342,-0.15079337,-0.12334119,0.82265854,-0.34261703,-0.31400356,-0.10118276,-0.5126894,0.26002938,-0.19281653,-0.065419,-0.3748808,-0.26791096,-0.18702365,0.16478835,0.0061718263,-0.058821477,-0.014670227,-0.040770642,-0.042567525,-0.51157,-0.5319941,0.37378198,0.29014513,0.2456131,-0.05423405,0.2630983,0.0129389,0.50456965,0.07460883,0.21293995,-0.37684312,0.09212263,0.12228671,0.7773955,-0.3659146,-0.11910902,-0.09418412,-0.41802138,-0.12325496,0.22364138,-0.18573615,0.07186529,-0.3803933,0.286672,-0.49457815,-0.22033185,-0.057422224,0.095099464,0.8508508,-0.09236047,-0.22490749,-0.117819205,0.19889107,-0.32612228,-0.1875532,-0.048473418,-0.07829059,-0.24130687,0.32647258,0.17474085,-0.009749233,-0.06464678,-0.03920014,-0.09926975,0.22007537,0.19436151,0.113781035,-0.11149283,-0.3513356,-0.24197884,0.33211583,0.033301372,0.16141108,0.078495026,-0.22393501,0.0719622,0.24439952,-0.17065907,0.37736297,-0.041587558,0.20268384,-0.6673367,-0.3122844,-0.23271388,-0.35187227,0.16550434,0.5098895,0.19048604,-0.04937849,0.07248177,-0.5843286,0.08724804,0.046607215,0.38497072,-0.1331886,-0.4010005,0.49408343,-0.05146252,-0.08633512,-0.11739827,0.030307055,-0.27301565,-0.16712633,0.16049552,-0.2511869,-0.04308806,0.55227673,0.2501347,-0.06764929,-0.036015756,0.2899686,-0.035275474,-0.3337446,-0.2627406,-0.12538275,0.27869618,-0.10992444,0.4071691,-0.51528007,0.009633404,-0.09710881,0.11211554,0.2319389,-0.1533136,0.05290972,-0.034933574,-0.09065884,0.46647674,0.16839498,-0.07659536,0.19899395,0.19038746,-0.30510587,-0.5616602,-0.12797627,-0.030075371,-0.2174933,-0.015766168,0.23362225,-0.04571024,0.071354195,-0.41454977,0.13310668,-0.341545,0.06697116,-0.1804434,-0.5553646,-0.10342246,0.0039431825,-0.38639587,0.053931266,0.04769037,-0.044214334,0.12352365,-0.038925476,-0.14746118,-0.26853275,0.15388066,-0.045699168,-0.106069416,-0.11049053,-0.06791035,-1.0033815,0.034889467,0.002975218,-0.10591757,0.07271368,-0.09178876,-0.7326086,0.11945762,-0.2840792,-0.15966019,-0.012970172,-0.3047037,-0.2070613,0.21286744,0.02374078,-0.12286106,0.14181021,-0.091241606,0.6550915,0.07594696,0.03287295,0.07527048,-0.16883604,0.07035187,-0.34088796,-0.45978925,-0.016282383,-0.13528949,0.11109903,-0.29976773,-0.08967528,-0.1005113,0.04124442,0.44955787,0.17838126,-0.19835705,0.007471637,-0.049971603,-0.49601007,0.30538777,-0.27827707,0.15507025,-0.26074386,0.25921017,0.046617642,0.24702719,-0.4828147,0.6164782,-0.3509457,-0.42278582,-0.110047445,0.095520936,0.14670196,0.29652637,-0.57242715,-0.18492058,0.2548311,-0.33084762,-0.0015765801,0.4597544,-0.021710686,-0.14800163,-0.094948694,-0.44070947,0.25915807,0.6996441,0.4625709,0.19977608,0.1912601,-0.04096283,0.07308503,0.33796394,-0.12484266,-0.17087308,0.34120566,0.0064860918,-0.6389703,-0.31080395,-0.048081554,0.007976051,-0.5383199,0.6848507,0.16868064,-0.31754196,-0.40428457,-0.26311082,-0.17327836,0.2113045,0.09030621,0.14836118,-0.0138019025,0.5121788,-0.0043634456,0.31503117,0.5225948,-0.057187885,-0.18774182,0.03916452,0.1672974,0.21804708,0.33402574,-0.011177871,0.06972277,-0.04932676,0.018401295,-0.24377643,-0.26780987,-0.090172805,0.072587006,-0.13755439,0.048253283,0.6620964,0.49171054,0.2285511,0.38946712,0.34741434,0.00626535,0.5379376,0.5067707,0.004880406,-0.07422984,0.10471658,0.16901824,0.021989273,-0.108624026,0.36686185,0.40909147,0.026928576,0.62920916,0.08594406,0.18938893,0.4385956,-0.5763596,-0.2653501,-0.14473268,0.48255298,-0.48428178,0.07951502,0.25464493,0.02132299,0.23938406,-0.58401316,-0.059717853,-0.032796152,-0.044755004,0.24398835,-0.11549519,-0.184089,0.064048365,-0.02873862,-0.124281466,-0.27902716,-0.35977688,-0.3105844,0.18979502,-0.116384484,0.030792385,0.05537498,-0.1318159,0.013034874,-0.018348139,0.1798512,-0.3077674,-0.17010775,0.053487968,0.32022655,0.0875617,0.5346422,-0.35258675,0.05602877,-0.12481198,-0.0955278,-0.01145525,0.15450378,0.0066428185,0.020959966,0.64398944,-0.38320997,-0.14909635,-0.1878084,0.32715547,-0.27657965,-0.038897578,-0.05386354,-0.13892667,0.039046235,-0.039102606,-0.25242138,-0.23933753,-0.07037869,-0.40512273,0.16167891,0.11407363,-0.36843073,-0.032906458,0.4123007,0.26667643,0.0053310525,0.03570534,-0.17935461,0.058876686,-0.06911788,0.06910078,0.06931802,-0.3031844,-0.33991015,0.22152793,-0.10480638,0.20971283,0.10596225,0.14239836,-0.059507295,0.05902569,0.47444326,-0.06420186,-0.28243703,-0.3421393,-0.19352815,-0.09689822,0.01816012,-0.19102988,0.13492277,-0.23859587,0.045021057,-0.38464254,-0.20896946,-0.024191339,-0.19019364,0.06381025
10659182.pdf,-0.34912807,0.23999202,0.36607134,-0.06222675,0.6136428,0.097871795,0.29427773,0.24932855,-0.107006244,-0.40750623,0.01095406,-0.31979862,0.0702001,0.07110583,0.13178802,0.7315576,0.46476156,0.048813477,-0.28396928,0.3602566,0.10699108,-0.32246166,0.15948722,0.70409745,0.29312578,0.12726893,-0.2061325,-0.03781249,-0.24328665,-0.3904512,0.69935757,0.025099441,0.042221867,-0.25885254,0.20460111,-0.11181046,-0.1343505,0.022872109,-0.08510748,0.2225573,-0.57920665,-0.29960418,0.009551451,-0.1488573,-0.1454896,-0.2286329,0.06647991,-0.16172795,0.15179446,0.06381805,-0.34221408,0.29626912,-0.27845472,-0.24807794,0.15890646,0.632388,-0.039839044,-0.5296465,-0.4485222,-0.4145582,0.09293907,-0.04851804,0.17461383,-0.27448726,0.13474277,0.10406095,0.21402381,0.27891734,-0.55894804,-0.035946883,-0.28189504,0.17058912,-0.014658848,-0.07077337,-0.26836273,-0.0615689,-0.095812425,0.28176093,0.060533993,0.078687996,-0.18973807,0.18688749,-0.2046285,0.34800458,0.077200495,0.1586085,0.31967592,0.20576105,-0.17038617,0.58414865,0.25990957,-0.19374683,0.33347744,0.075984746,0.10263715,-0.032391045,0.19315869,-0.05158773,-0.2527277,0.066527344,0.10772556,-0.061096337,0.20105968,0.04229731,0.029609624,-0.09205098,0.0490586,0.29391634,-0.48429525,0.55601317,0.11063363,-0.2447004,-0.3186775,-0.4612347,0.037267476,0.08348271,0.17066646,0.07819568,0.11157406,0.09556812,0.04372342,-0.14410199,0.22817856,0.945179,-0.09371953,0.0398885,-0.16760628,0.023162011,0.09222996,-0.08473986,8.3190855e-05,0.0672375,-0.03396818,0.0013218473,-0.22569287,0.33938614,-0.23764805,-0.2852354,-0.28333002,0.3267122,-0.06633988,-0.6165032,0.55766404,-0.060017493,0.2085715,-0.1940062,-0.055468503,0.12810194,0.027775548,0.4114746,0.19342822,0.0815247,-0.06918386,-0.21431655,-0.18517137,0.0024970733,-0.2937587,0.10737291,-0.07311191,-0.13978304,0.37848574,0.39081764,-0.4175847,0.26159662,-0.08965256,-0.03334215,-0.42452264,0.2697042,-0.17270426,0.16498394,0.03447512,-0.020924674,0.5868448,-0.034680936,0.17337638,0.020481195,0.19191064,-0.13893987,0.09906864,0.040334,-0.577677,0.4191479,-0.17755884,-0.06023302,0.26704866,-0.24866936,0.26684704,-0.27648276,0.23387665,-0.27778694,-0.13928007,-0.4466505,-0.047441594,0.22143812,0.34911484,-0.1533098,0.049406208,0.10510114,-0.42886755,-0.24105886,0.31020534,0.16490117,0.07542469,0.31738007,-0.30034956,-0.40612146,0.23020214,-0.45222732,-0.2675174,0.052430958,-0.28612304,0.23841208,-0.06840902,0.31769842,-0.026197685,0.0626024,-0.25889087,-0.05041279,0.11158039,-0.08725746,0.062303443,0.061481886,-0.4594025,0.5170449,-0.36052865,0.4129427,-0.07377967,-0.9661108,0.18581362,0.36399192,0.049454235,-0.36402506,0.45225894,-0.3990092,0.07894432,-0.033066925,-0.15837795,-0.14106959,0.3445709,-0.4325761,-0.3721637,0.3577814,0.33064407,0.1806856,0.0120075345,-0.02475139,-0.17917547,0.16209811,-0.07564766,-0.13046578,-0.6010963,-0.04871571,0.09560963,-0.35288775,0.12871122,-0.39914292,-0.054670148,-0.39074957,-0.11531998,-0.098176144,0.1960215,0.29321352,0.10962248,-0.13402054,-0.109129086,-0.8276453,0.0744722,0.32435924,0.29826444,0.21546999,0.07945408,-0.1563142,-0.021659931,0.41204885,-0.3618766,-0.105755225,0.27986386,0.19592866,0.044689916,-0.27792692,0.0799665,0.24844897,-0.07490486,0.14182514,-0.039186403,-0.13308938,0.2965705,0.1065344,-0.3827393,-0.2715581,-0.20543957,0.2115769,-0.4054389,-0.16961439,0.46924657,0.13683772,0.12304698,0.14646296,0.19959255,-0.08569386,-0.36404103,-0.32104802,0.3095345,0.064373836,0.08086839,0.09922404,-0.029766146,-0.6155658,-3.3086638,0.0054744817,-0.04545539,-0.124607906,0.42401814,-0.16521364,0.34911293,0.079371795,-0.4870336,0.3653998,-0.15390164,-0.061820436,0.30318266,0.31629306,0.30471405,0.054102078,0.049016397,-0.43819284,-0.0468386,0.43289822,-0.08531934,-0.6976181,0.16643257,0.033407897,0.3407058,0.25612077,-0.48918912,0.10433766,-0.3466922,-0.24366716,0.19813374,-0.108992696,-0.30916607,0.22116736,0.15787083,-0.16814908,-0.05499153,-0.36232138,-0.2035344,-0.5308809,0.15042609,-0.83381045,-0.18656579,-0.12621784,0.5013423,-0.0056333356,0.23964377,-0.1101192,0.17745644,0.08348893,0.2633816,-0.02774097,-0.07012146,-0.037596785,0.019911004,-0.1207744,0.6727257,0.26956576,-0.42238683,-0.3524381,0.060547873,-0.2646702,-0.48688996,-0.13582212,-0.12708575,-0.0055249864,-0.62214416,-0.30144545,-0.28518027,-0.06072859,-0.0971927,0.50021636,-0.28979534,-0.26911932,-0.1148856,-0.43225396,0.20100781,-0.1824173,-0.042274736,-0.26702702,-0.21164472,-0.30445203,0.2522357,0.15386549,-0.0659561,-0.089738294,0.03090206,-0.057523336,-0.4603072,-0.3944089,0.25676554,0.21198058,0.19925982,0.17416263,0.28409082,0.074494936,0.28620574,-0.09611903,0.2554606,-0.41329902,0.07783552,0.12133083,0.82335556,-0.30071205,0.08693582,0.04255282,-0.21687616,-0.16209146,0.32679963,-0.24102972,0.1468826,-0.2510125,0.23297182,-0.49049288,-0.063657716,-0.07845481,0.25153893,0.757417,-0.032849684,-0.24099964,-0.06738135,0.29239413,-0.1528408,-0.091341026,-0.16197516,-0.0014455989,-0.14629124,0.30482253,0.044485945,-0.029099556,-0.051007252,-0.17158818,-0.13442896,0.34136444,0.23111156,0.14323273,-0.009688647,-0.56840277,-0.26203132,0.2550042,0.04504951,0.23835629,0.04571865,-0.17371538,0.028029256,0.34189534,-0.16144842,0.311579,-0.21166162,0.13146575,-0.5132984,-0.2570923,-0.093615845,-0.3550164,0.022000348,0.49692622,0.08637295,-0.04495198,-0.07092861,-0.3558529,0.11075106,-0.02926691,0.22975151,-0.09225681,-0.21880856,0.58083475,-0.14811473,-0.13192213,-0.026207644,-0.1032762,-0.13797086,-0.13562655,0.082583465,-0.34095138,-0.07817893,0.41428548,0.2945779,-0.084068716,-0.16666815,0.33528936,-0.024081979,-0.32889748,-0.12128344,-0.046204936,0.27616397,-0.08456172,0.25800398,-0.44269094,-0.056218207,0.053288333,0.07767087,0.19495243,-0.13290901,-0.03251213,-0.11940159,-0.08361226,0.4646716,-0.0029628947,-0.047334623,0.21656989,0.091480516,-0.4069184,-0.57379,0.015130927,0.071366854,-0.23908879,0.050749645,0.30065686,-0.0040147975,0.09434782,-0.36792386,0.058511432,-0.1682153,0.034932345,-0.034858078,-0.6308933,-0.25058156,-0.058491394,-0.5253347,0.098988496,0.055903643,-0.083278835,0.030444417,-0.1070058,-0.13356653,-0.22148526,0.22546738,0.0121071525,-0.21823376,-0.033973508,0.009625828,-0.8070526,0.11271037,0.027112901,-0.2522642,0.024489108,-0.09527016,-0.7321707,0.22663075,-0.25448424,-0.19085746,-0.0066441484,-0.28342587,-0.3255853,0.09784195,0.06799857,-0.17690767,0.308317,0.06487421,0.50493014,0.0861418,0.079447314,0.2245389,-0.29254854,0.12463315,-0.3975548,-0.38365957,0.028261397,-0.12132569,-0.107666604,-0.20866776,-0.15548854,-0.20413898,0.022997502,0.25501862,0.24617916,-0.13535327,-0.010325085,-0.09669283,-0.5625626,0.21708271,-0.20512185,0.102144904,-0.25576106,0.2611072,0.021684878,0.11788004,-0.38331765,0.64820576,-0.33292222,-0.2166321,-0.20452134,-0.06106805,0.2574525,0.4579227,-0.4721586,-0.17093605,0.16729757,-0.1758193,0.090978846,0.44575384,-0.20979075,-0.23194653,-0.03110927,-0.5161024,0.33227247,0.58820015,0.3381825,0.054249223,0.16887048,0.039195538,0.1886357,0.3126971,0.065051824,-0.3193717,0.21566588,0.036785044,-0.7097117,-0.13680752,-0.017743327,-0.03465165,-0.5330797,0.81185263,0.27850318,-0.353599,-0.45292354,-0.20467564,-0.034497894,0.21014437,0.025094718,0.14707528,0.0068408772,0.7160462,-0.016191654,0.23425663,0.5127516,-0.10790333,-0.19690573,0.049815472,0.17857715,0.11405571,0.36236507,-0.10147141,0.07973396,0.056693252,0.20479017,-0.20769377,-0.21331812,-0.13111787,0.09155982,-0.23123765,0.13539085,0.65165144,0.47617954,0.38286984,0.27216232,0.2317394,0.11457023,0.65904355,0.32955176,0.08565444,0.0031670704,0.2575153,-0.005353812,0.22695233,0.033839397,0.32248256,0.1851342,-0.054779217,0.5214323,-0.019486684,0.09387717,0.44596106,-0.4930913,-0.32925096,-0.22412525,0.49689317,-0.534891,0.034561284,0.27187562,0.016257528,0.13407695,-0.55153656,-0.25056824,-0.101272285,-0.1157774,0.12156729,-0.31645328,-0.06854804,0.16205613,0.06880088,-0.33911374,-0.32264698,-0.45978773,-0.09657871,0.24617532,-0.042549588,-0.06988473,-0.024802106,-0.15759914,0.019455615,0.14724019,0.28375554,-0.32372022,-0.02291654,0.14910805,0.29988635,0.054190684,0.74286747,-0.32718384,0.11704631,-0.1245939,-0.1451396,-0.04043305,0.25806308,0.019730138,0.042231582,0.29693046,-0.40082076,-0.12551291,-0.18769348,0.38638693,-0.40562126,0.017075483,0.045305472,0.09080967,0.13680047,0.12716515,-0.3607969,-0.2259529,-0.05713571,-0.33695006,0.21029988,0.23824796,-0.471528,-0.11266394,0.10467717,0.09765871,-0.101040706,0.013578665,-0.25697032,-0.03949654,-0.091906965,0.11364176,0.045686558,-0.15620719,-0.43392164,0.4116786,0.008342281,0.1853653,0.14015245,0.21834537,-0.023804331,0.13400176,0.50999546,-0.012051426,-0.30097252,-0.47087336,-0.009485669,-0.37006927,-0.07486702,-0.3267807,0.13252103,-0.2692518,0.025660507,-0.3889524,-0.28935605,-0.014797504,-0.056078963,-0.054978725
10818478.pdf,-0.29959837,0.1445796,0.3324124,0.06116935,0.55007476,0.10623686,0.23774225,0.25112826,0.016884275,-0.18020347,-0.05046521,-0.22543322,0.02013772,0.10840974,-0.025923718,0.38992542,0.23711565,0.044340797,-0.053906046,0.21556601,-0.0161217,-0.25732607,0.0918508,0.34584326,0.30413842,0.16307804,-0.15766706,-0.16632463,-0.2984155,-0.14599286,0.48025393,0.08446707,0.11458698,-0.24364418,0.085385665,-0.053244665,-0.089133486,0.032518126,-0.19246812,0.032600567,-0.39412284,-0.084203996,-0.095380366,-0.18121372,-0.25587043,-0.2537712,0.06368792,-0.18469727,0.008986041,-0.015865609,-0.3883711,0.29201514,-0.16793169,-0.16536357,0.029740201,0.5358907,-0.16911006,-0.44036958,-0.22669747,-0.36473188,0.19531377,-0.0675109,0.1639822,-0.1266785,-0.044474155,-0.07169919,0.22279426,0.42960122,-0.4561172,-0.058037147,-0.21241263,0.12101829,0.090861246,-0.12334414,-0.23045501,-0.07458395,-0.049187645,0.26780352,0.027683608,-0.049941033,-0.27918464,0.22756231,-0.012935065,0.13374484,0.11426352,0.061573222,0.24143392,0.07429861,-0.15225235,0.5928341,0.14278042,-0.16296232,0.32865244,0.033383068,-0.1376314,0.0138969645,0.021868354,0.0415807,-0.14886835,0.08917184,0.10080083,-0.009148862,0.14152947,0.0041620117,-0.026444264,0.019304154,0.090513825,0.12582827,-0.26629823,0.38357648,-0.060353693,-0.3228578,-0.23134997,-0.1666877,-0.029034315,0.21287423,0.11483111,0.066972956,0.049523965,-0.017786277,0.13944836,-0.095560536,0.10927838,0.51853764,0.05902023,-0.0946535,0.031182174,0.100712225,-0.1125127,-0.15953067,-0.12220439,0.12551196,-0.07586556,0.061511178,-0.28364494,0.17090935,-0.13039371,-0.13319215,-0.1238264,0.0898294,-0.036154244,-0.4527025,0.4555776,-0.21264315,0.046079103,-0.22113067,0.1803104,0.07170687,-0.21174332,0.38511947,0.24693285,-0.0034006387,-0.08145754,-0.22327423,0.04706704,0.08075448,-0.25843528,0.1942477,-0.14617458,-0.10071504,0.42083472,0.47191638,-0.4361995,0.15596634,-0.06939731,0.072852895,-0.25563094,0.36500275,-0.2146597,0.0404078,0.044093527,0.17335159,0.4543987,0.05281995,-0.03003262,0.19158736,0.22628653,0.04667354,0.04561391,0.043099903,-0.43728334,0.32313213,0.03182771,-0.013185982,0.25458822,-0.2250131,0.23727337,-0.24635525,0.04841695,-0.34009993,-0.22556497,-0.2744239,0.025517773,0.004375616,0.15252084,-0.03676987,0.12650213,0.145389,-0.22535594,-0.25981066,0.27205336,0.22440642,0.13893078,0.11333038,-0.014764079,-0.41751528,0.13784927,-0.3160948,-0.109180845,0.16591182,-0.30107358,-0.051919177,-0.030989822,0.24367988,0.07676975,0.12444913,-0.056690563,-0.1198035,0.15173665,-0.021448627,0.104503304,0.1327922,-0.2723733,0.50621176,-0.43967652,0.27198654,0.06816136,-0.54405034,0.1359514,0.31145775,0.00012684148,-0.36300242,0.44393915,-0.4163319,0.097382784,0.061035924,-0.23812634,-0.17159045,0.126229,-0.37354946,-0.30816758,0.40535745,0.14574552,0.20605358,0.10647861,-0.044267774,0.026364248,0.0960197,-3.3266842e-05,-0.18284872,-0.47556794,-0.0039123297,0.11049858,-0.29566187,0.21217203,-0.4551563,0.014302495,-0.29837927,-0.14661041,-0.14192465,0.27422768,0.13218236,0.14940777,-0.115079775,-0.09909293,-0.7091054,0.09770492,0.14987838,0.1529138,0.16348219,0.08409952,-0.15633649,0.019219717,0.5079957,-0.23981136,-0.03146283,0.2699951,-0.040443964,0.021396687,-0.18646011,0.05789756,0.27265352,-0.103110194,-0.051174536,0.11109853,-0.30705062,0.24881847,-0.097845346,-0.23591322,-0.27567136,-0.16765183,0.19908634,-0.47366807,-0.17267841,0.34718108,0.1447716,-0.07244686,0.334495,0.17647013,0.051976994,-0.24890237,-0.31706673,0.13668057,0.038915027,0.009962697,-0.085733265,-0.0650092,-0.5306135,-4.3249807,0.0068312725,-0.007684691,-0.2806492,0.2678403,-0.12270683,0.33451968,0.07155883,-0.18520454,0.28144866,-0.07597312,-0.102325626,0.040682573,0.28356645,0.23348486,0.03169869,0.19910768,-0.25755593,0.0050292723,0.22032264,-0.21252719,-0.77749085,0.178603,0.049163394,0.30270267,0.28179708,-0.3818648,-0.115310445,-0.34815156,-0.03502373,0.1065896,-0.062384702,-0.30027544,0.22970146,0.22759187,-0.2144844,0.05019419,-0.29913527,-0.08178248,-0.463655,0.277335,-0.4306236,-0.13101481,0.0054888874,0.61983854,-0.038240142,0.12719014,-0.1219451,0.15698212,0.09735458,0.27740887,-0.021787105,-0.12356691,-0.17892992,0.014875555,-0.123842984,0.41123644,0.09611617,-0.3005045,-0.14557067,0.086358145,-0.24931778,-0.26505956,0.05884424,-0.16146472,0.04351044,-0.4790925,-0.11347755,-0.26471183,0.1012606,0.0027602725,0.6390937,-0.1373032,-0.2237597,-0.08391254,-0.3405264,0.1947774,-0.066073075,0.106442414,-0.17560276,-0.11752021,-0.18792896,0.18684648,0.05060489,-0.047125436,-0.09721794,0.024824042,0.08685126,-0.52504826,-0.38179713,0.24189657,0.07086045,0.18843347,0.074165136,0.23459287,-0.09380101,0.38346064,0.05463638,0.06135743,-0.3588861,0.17549124,0.09695761,0.5707008,-0.23014446,-0.062226847,0.06756662,-0.2959978,-0.2277515,0.24694484,-0.17306513,0.103628404,-0.18485656,0.12037164,-0.24465504,-0.13880529,0.020627623,0.15997198,0.57849354,-0.04230046,-0.19171113,-0.060029935,0.29140413,-0.18869604,-0.0414497,-0.18789065,-0.011206146,-0.16660228,0.2717869,0.123014554,-0.09251968,-0.17250374,-0.08357022,-0.08326399,0.18908538,0.2876481,0.034152187,-0.020883046,-0.5065533,-0.119681366,0.115531,0.061914273,0.20965153,0.124593765,-0.08361799,0.092026584,0.2341149,-0.03754091,0.25176424,-0.2050089,0.13223305,-0.4224444,-0.3705082,-0.0088322675,-0.17712674,0.044297613,0.36740085,0.10273683,-0.07787992,-0.054043807,-0.42212105,0.21154283,0.05035235,0.26338792,-0.0019496707,-0.16227674,0.5397073,-0.12689817,-0.05310083,-0.06617129,0.16765003,-0.13057548,-0.29315817,0.22965223,-0.27781945,0.04542014,0.32402265,0.31636554,-0.19073415,-0.005104322,0.17377746,-0.10040032,-0.33708677,-0.19599076,-0.06584974,0.28091103,0.027247487,0.21393916,-0.21517615,0.11077897,0.06383648,0.04431517,0.14389531,-0.0612021,0.034788683,-0.0211539,-0.02415704,0.43292874,0.32819474,-0.0025019888,0.11640182,0.08403366,-0.2581247,-0.38026118,-0.02756657,0.16495739,-0.041684896,0.08591991,0.24074154,-0.03301681,0.019391079,-0.40070838,0.08718336,-0.38175118,-0.050840713,0.0747482,-0.49237838,-0.25966853,-0.15517473,-0.28253764,0.1316446,-0.029557843,-0.0639,0.01899585,-0.13264534,-0.093547046,-0.19061129,0.20123175,-0.038529538,-0.08145702,-0.06110908,0.035989985,-0.7765056,0.12125691,0.0601253,0.037459854,0.060847655,-0.0938782,-0.634753,0.36607355,-0.13547516,-0.34253883,-0.029704727,-0.22227252,-0.1995815,0.14749548,0.04242345,-0.103508025,0.17842507,0.09189998,0.5225768,-0.06627715,0.114024326,0.033807185,-0.04740399,0.071138345,-0.3134207,-0.21561266,-0.034310702,-0.23929778,-0.06108161,-0.24841344,-0.013727181,-0.12276508,0.18829069,0.36747324,0.31215358,-0.12225944,0.0076708347,0.048198275,-0.41152585,0.28271747,-0.30625734,0.008176036,-0.044173826,0.11446199,0.031420317,0.08005209,-0.36499682,0.3148732,-0.19426423,-0.33271223,-0.30919823,0.08691521,0.10554267,0.3962808,-0.4228071,-0.26164708,0.019935219,-0.13581917,0.032296643,0.38611585,0.062884465,-0.11967172,0.024342619,-0.5773036,0.18983173,0.6165217,0.23302487,-0.030255284,0.27783087,0.12359794,0.05218008,0.36081478,-0.14518727,-0.19244663,0.35248166,-0.053879097,-0.5897518,-0.09287214,-0.07305749,-0.13323599,-0.46526894,0.46064025,0.17289081,-0.41075855,-0.4038623,-0.18624368,-0.20177503,0.09671082,0.14957073,0.19946685,0.05671794,0.4898333,-0.008827297,0.23285984,0.5671855,0.009817446,-0.19306675,-0.029120266,0.11260524,0.028302679,0.29735297,-0.25612298,0.077299036,0.111568555,0.081846915,-0.23657236,-0.1695604,-0.081511155,0.099595144,-0.08221056,0.039686643,0.43710846,0.38913596,0.17816958,0.18670352,0.26407912,-0.043065347,0.5251138,0.43181098,0.09259005,-0.07915985,0.13046697,0.0933465,0.13899401,-0.21013942,0.140149,0.27222252,-0.19329596,0.33263612,0.025629554,0.26035988,0.41634855,-0.47844785,-0.24205543,-0.1328746,0.30823964,-0.4310825,-0.020402653,0.22407626,-0.02850147,0.0823157,-0.3946823,-0.18439475,-0.02650311,0.012544849,0.054620534,-0.10757786,-0.099717185,0.1979776,0.00844387,-0.18561073,-0.16101357,-0.26317966,-0.10844347,0.3297527,-0.15930022,-0.022059213,0.05524862,-0.19178724,0.091135025,-0.09693997,0.1767818,-0.15095502,-0.07737268,0.014688206,0.1953525,0.14399359,0.66763926,-0.09307304,0.088601805,-0.2528019,-0.11650394,0.044827215,0.13605922,0.061053313,0.045296423,0.32855374,-0.3771553,-0.06355448,-0.14961168,0.2378024,-0.25149304,-0.057054684,0.082202196,-0.07831702,0.17329033,0.042659946,-0.11475929,-0.2411934,-0.04923708,-0.27621198,0.11852043,0.24650952,-0.45016164,-0.11898732,0.12178182,0.10652611,-0.13982818,-0.02908043,-0.2178194,-0.090721995,-0.014640758,0.07389276,0.056167245,-0.21372852,-0.28382158,0.19458556,0.051867824,0.09558967,0.15293506,0.15978228,-0.13095763,-0.029628817,0.3130346,0.038447257,-0.18739536,-0.21242024,-0.25974846,-0.08529231,-0.08699007,-0.22121139,0.093155265,-0.17156236,0.10148497,-0.41741043,-0.13111857,-0.015066396,-0.016302135,-0.13691688
11174187.pdf,-0.2692444,0.10378559,0.39992252,-0.21519655,0.5178273,0.050358273,0.14306244,0.42106032,0.08743866,-0.31851748,0.12849405,-0.37935412,0.05302845,0.1407628,0.029206883,0.47109717,0.35638902,0.04623676,-0.27538148,0.20512769,0.16294155,-0.3124463,0.16586517,0.64104235,0.08602458,0.06979145,-0.1212555,-0.16657867,-0.24627116,-0.3446627,0.51598597,-0.0032073557,-0.06279077,-0.24301095,0.21619411,-0.15760666,-0.056727327,-0.012894925,-0.13712241,0.16302416,-0.52689946,-0.41623205,-0.10482594,-0.011990342,-0.286801,-0.15463598,0.29887387,-0.22522344,0.25941065,-0.0144005995,-0.3518713,0.097571276,0.0045685656,-0.2481842,0.123423204,0.8301958,0.018349119,-0.5445717,-0.67035115,-0.34418267,0.4691994,-0.098685026,0.20502964,-0.17396095,0.18541741,0.018723898,0.25499123,0.20419978,-0.56392527,-0.09517644,-0.16537744,0.1199464,0.0888354,-0.09924236,-0.14976229,-0.08682576,0.12572116,0.2829333,0.19245493,0.06294431,-0.22580038,0.24041037,-0.39632905,0.33647123,0.13334548,0.10502905,0.008521974,-0.019157432,-0.19474858,0.6309109,0.29011142,-0.27478355,0.3025841,-0.0021155328,0.088467516,0.027407598,0.26388586,0.15311845,-0.23135349,0.27478755,0.15331464,0.013489045,0.10925004,0.04485631,0.030057272,-0.2061794,0.19683339,0.3337316,-0.3793541,0.41557145,-0.09016015,-0.2368392,-0.15162739,-0.41410244,-0.06382332,0.054273963,0.22110966,-0.010887821,-0.061695002,0.17186162,0.03515373,-0.08400756,0.32487923,0.94298404,-0.069817156,0.006995244,-0.13994715,0.11508636,-0.15038499,-0.11876602,0.085384734,0.25747636,0.0008362904,-0.16589925,-0.032616727,0.1972126,-0.2258308,-0.29566222,-0.23080952,0.31769067,0.09102623,-0.3754785,0.3634088,0.19242765,-0.052973256,-0.24357295,0.008153141,0.017649561,-0.15566637,0.36669436,0.06670159,0.14152671,0.072022125,-0.22861499,-0.2650407,0.058669727,-0.2807663,0.020920549,-0.1113812,-0.0839257,0.515537,0.38275295,-0.11829527,0.21256794,-0.04315623,0.12510487,-0.21442437,0.122808926,-0.2579986,0.312271,-0.25607523,-0.047989592,0.5371988,-0.17253843,0.115005605,-0.21209945,0.25906795,-0.12887745,0.049868707,0.029702729,-0.5198755,0.30641276,0.0044204555,0.066331476,0.3307022,-0.31686455,0.3205307,-0.07045397,0.33286935,-0.08312949,-0.15897548,-0.4058661,-0.11610555,0.048469998,0.24284908,-0.29948208,-0.022527765,0.04482273,-0.59110343,-0.17773418,0.3636207,0.17122161,0.10468276,0.2655828,-0.23882592,-0.30046344,0.19010942,-0.39252403,-0.056209706,0.44381472,-0.11706635,0.39270157,-0.2124486,0.30195412,-0.033035487,-0.023913713,-0.14451125,-0.10339383,0.36430296,-0.11230027,0.19872597,0.073838905,-0.46768895,0.5040377,-0.25232226,0.40935454,0.07554251,-0.98485994,0.10670464,0.41387528,0.018229146,-0.23314834,0.58610404,-0.34068877,0.08224116,0.14282632,-0.3628468,-0.27049482,0.07839408,-0.38167122,-0.35780895,0.40747046,0.42433527,0.04123575,0.20427814,0.078008056,-0.16917321,-0.006345175,-0.14922811,-0.20408136,-0.51342666,-0.16262908,0.07271215,-0.4734488,0.1660712,-0.3463409,-0.098663196,-0.30328137,-0.07423211,0.00047957152,0.27742738,0.26710862,0.11775244,-0.10550246,-0.34839517,-0.667734,-0.040702853,0.4484285,0.16756995,0.08398622,0.07470594,-0.05957456,-0.0064126933,0.48437637,-0.4015241,-0.073226765,0.11780479,0.40101084,0.07808706,-0.20147076,0.27058536,0.34251612,-0.028352465,0.21513592,-0.14311713,-0.1660167,0.12563924,0.19560775,-0.31308323,-0.36621478,-0.22276852,0.09467889,-0.4189853,-0.17903966,0.32802826,-0.05973045,-0.069976725,0.18437573,0.33870953,-0.14595053,-0.22569516,-0.15915619,0.291717,0.14167196,-0.05771187,0.04852757,-0.08080713,-0.5917411,-3.6899323,-0.0008144276,0.029238537,-0.34225404,0.41947585,-0.24289306,0.15650423,0.014943382,-0.3958555,0.25580186,0.08501951,-0.07803121,0.4220152,0.35027003,0.3491246,0.14833783,0.090423346,-0.2292481,0.044549324,0.4421652,-0.029177083,-0.64616024,0.35988456,-0.0308161,0.32314727,0.42780346,-0.3797352,0.019773103,-0.38160908,-0.17302728,0.236646,-0.0058421707,-0.15349203,0.33504203,0.24601209,0.10018743,0.11925414,-0.32123947,-0.17504084,-0.60096353,0.069159284,-0.9307868,-0.28905195,-0.12954174,0.45793852,-0.05125314,0.03974532,-0.043805093,0.18343857,0.33317995,0.22652625,-0.07279256,-0.26665384,0.08348816,-0.04143376,-0.23055935,0.3529426,0.5051439,-0.43318698,-0.40527555,-0.05145935,-0.24262978,-0.5474191,-0.35153547,-0.222987,-0.105606504,-0.47905147,-0.1695141,0.018378615,6.760564e-05,0.017166372,0.32103983,-0.3604752,-0.38298357,-0.12006148,-0.35561138,0.13917255,-0.14778076,-0.13198589,-0.10163295,-0.01174039,-0.24882525,0.08848488,0.06741644,-0.17934391,-0.21758606,0.06745246,-0.051056806,-0.40292144,-0.45769918,0.26310003,0.17461193,0.217771,0.12655681,0.32669815,0.0841246,0.3652086,-0.31717482,0.18122223,-0.47544932,0.24066305,0.27856773,0.67866325,-0.38819262,0.10268595,-0.11993019,-0.44508895,-0.15307224,0.09640017,-0.02599278,0.16360444,-0.619807,0.4927882,-0.507787,-0.2896756,-0.054328904,0.335801,0.56911343,-0.102747,-0.14806712,-0.16128545,0.14476734,-0.2427173,-0.4588778,-0.22778416,0.019445281,-0.21240221,0.29273897,-0.036796488,0.3797663,-0.17944513,-0.046303123,-0.0635387,0.42957783,0.053528763,0.03916118,-0.011277574,-0.4974302,0.13031693,0.2419546,-0.06005858,0.15158838,-3.8585626e-05,-0.015956573,-0.0926698,0.32320637,-0.09636576,0.18485448,-0.23855953,0.082662135,-0.57408965,-0.36839646,-0.0042792447,-0.16982129,0.15620677,0.51179534,0.2093553,-0.19705042,-0.13214207,-0.45776102,-0.017888872,-0.010389645,0.4770881,0.08489904,-0.30391914,0.51677716,0.0062542073,-0.13111097,0.03426069,0.07496712,-0.2150617,-0.28820035,-0.09940003,-0.19482812,-0.06937902,0.6307472,0.25340438,-0.1164858,-0.184977,0.24074426,-0.004612293,-0.24316038,-0.15398546,-0.17056003,0.44690746,0.17955905,0.2894634,-0.55628645,-0.05407104,0.31791443,0.09565391,0.3832394,-0.2102904,0.07654779,-0.123118214,-0.095960066,0.5671294,0.16094264,0.0032928847,0.17219302,0.21919012,-0.3203442,-0.5041819,0.047925964,-0.019249355,-0.3131433,0.022121618,0.28769916,0.10836998,0.11335685,-0.44194418,0.06707016,-0.2643936,0.046255138,-0.122556545,-0.4353367,-0.14103255,-0.069055066,-0.3932837,0.147853,-0.0222658,-0.0073002395,-0.058536164,-0.16240913,-0.47109932,-0.29119825,0.16967067,-0.21625352,-0.30314702,-0.11570643,0.14259715,-0.9146342,0.0585385,-0.1165408,-0.106439084,0.1682709,0.07009736,-0.6688247,0.16497135,-0.26928678,-0.30098462,0.1584782,-0.25276572,-0.37564546,0.22195055,0.082475424,-0.21794203,0.25100014,-0.07330894,0.7266636,0.13567016,0.008625241,0.3010376,-0.35764134,0.089043,-0.39796555,-0.5653184,0.15248239,-0.029415919,0.052958153,-0.08974473,-0.043457583,-0.2039833,-0.025329681,0.39471984,0.12494905,-0.106464386,0.17697063,-0.14476898,-0.47260773,0.1598132,-0.1564725,0.24103054,-0.30773705,0.17233482,0.10412624,0.022582466,-0.42539304,0.7613466,-0.307962,-0.20489146,-0.077607766,-0.10682471,0.07042802,0.35339224,-0.40255427,-0.09036018,0.33309647,-0.17215714,0.09203544,0.7861939,-0.14360383,-0.2879448,0.07186506,-0.40381354,0.16772059,0.6744092,0.25644645,0.21145386,0.09400232,0.079148546,-0.039454237,0.13058716,0.19695011,-0.25852308,0.27115667,0.043198798,-0.58456063,0.112608254,0.06993036,-0.2206614,-0.51742816,0.6948824,0.34938505,-0.40666616,-0.43872297,-0.23573676,0.008792523,0.14027227,-0.1511352,0.183732,0.17786412,0.5122722,-0.059313837,0.1663664,0.42677987,-0.07019259,-0.14018142,0.073816836,0.1030893,0.22950532,0.2508658,-0.15774144,0.11208338,0.03667853,0.22152047,-0.4160272,-0.111940205,0.041788466,-0.078254975,-0.2283161,0.13474832,0.6168958,0.49999133,0.52466893,0.37198573,0.39886075,-0.11732783,0.9519655,0.347384,0.035552103,0.14629933,0.03122158,-0.14437532,-0.15187702,0.14470896,0.30835193,0.20876825,-0.08662693,0.56381106,0.24249366,-0.123712376,0.2894525,-0.363357,-0.26399806,-0.16230068,0.41198373,-0.65925074,-0.1609569,0.038664524,0.04911717,0.115846515,-0.39894682,-0.14200255,-0.23953253,0.050181985,0.10109306,-0.25997072,-0.222267,-0.064340875,-0.009417774,-0.05717417,-0.38996953,-0.33405203,-0.14909223,-0.16215244,-0.1595726,-0.043635048,0.02128587,-0.09998685,0.022001797,0.14843506,0.07206564,-0.2500397,-0.08089765,-0.19285434,0.39270508,-0.12946439,0.65533364,-0.06512349,-0.0017834529,-0.27269566,-0.012111913,-0.029966054,0.17733276,0.0923039,0.044682417,0.44033796,-0.26734215,-0.05682312,-0.09810008,0.57290727,-0.5042236,0.098981574,0.27063194,0.03945017,0.22166002,-0.021849593,-0.34629807,0.08983806,-0.2721663,-0.38209254,0.029637521,0.205134,-0.29514506,-0.21102536,0.1323266,0.16006264,0.053039588,-0.017803064,-0.13764091,0.19850716,0.0788379,-0.07220821,-0.07740973,-0.22132282,-0.4625438,0.28888667,-0.07453348,0.13858095,0.14670992,0.055056088,-0.15019932,0.0967391,0.52003455,-0.29729033,-0.13044505,-0.49588522,-0.20895371,-0.585791,-0.16718468,-0.20407316,0.12125838,-0.19642797,-0.02624243,-0.20836382,-0.40975022,-0.17484465,0.0414942,-0.1873459
11188218.pdf,-0.42239958,0.3100958,0.39673692,0.024249451,0.7618315,0.15254459,0.27509454,0.15075576,-0.016686212,-0.31805882,0.046524547,-0.24593094,-0.0673777,0.0071942657,0.057909492,0.5389997,0.38302824,0.15730911,-0.23884985,0.39384001,-0.04421835,-0.22459766,0.1646302,0.6495159,0.44087458,0.10325992,-0.32556823,-0.2034482,-0.30203325,-0.2953351,0.601647,-0.13142844,-0.028355408,-0.35626122,0.048051853,-0.11398058,-0.13877691,-0.027038906,-0.29036188,0.23913042,-0.45062402,-0.20146137,-0.020176653,-0.01497836,-0.21574965,-0.25885925,-0.04864057,-0.06932075,0.10860048,0.041778907,-0.46781248,0.3684845,-0.30982906,-0.19507083,0.2004278,0.7759394,-0.011168543,-0.66327584,-0.41171473,-0.38831434,0.06891247,-0.17450902,0.25206482,-0.23432285,0.15746336,-0.07534531,0.18418759,0.38226944,-0.5229539,0.09421416,-0.26349717,0.052409258,-0.12115296,-0.0076725944,-0.4614225,-0.167597,-0.059185952,0.40892535,-0.014633694,-0.005923992,-0.42850232,0.27460122,-0.24753508,0.2552285,0.14201963,0.14948508,0.33470315,0.13248357,-0.31469935,0.5454619,0.30486792,-0.3497237,0.26942763,0.16881543,0.10051805,0.06197722,-0.02058271,0.21331072,-0.21772553,0.031876914,0.23554638,-0.08142182,0.10788825,-0.10745815,0.04402452,0.006431966,0.19371709,0.25611132,-0.39528182,0.43390447,0.066219546,-0.33344793,-0.25850487,-0.34432,-0.14160132,-0.021914657,0.08730261,0.15740068,0.23544708,-0.019488232,0.07877115,-0.04980973,0.21035773,0.8972573,0.014755864,0.048060916,-0.17476712,0.24013492,0.017919345,-0.084004745,-0.13831547,0.11170825,-0.14581062,0.09040152,-0.3158245,0.32560715,-0.3036615,-0.26948148,-0.18298294,0.20942456,-0.09497319,-0.5716415,0.54852176,-0.009746281,0.1998077,-0.25748706,0.18973145,0.04515573,0.01453344,0.33091748,0.26859045,-0.078507036,-0.15548626,-0.2587804,-0.030957984,0.06648839,-0.35096514,0.08263163,-0.106631204,-0.16655895,0.34368303,0.41229582,-0.62365204,0.35542792,-0.08504635,-0.013123859,-0.10715763,0.4522081,-0.16524208,0.26318255,0.056015365,0.11665348,0.6216669,0.19395244,0.18634339,0.10755117,0.20899661,-0.02786031,-0.02417488,0.014270761,-0.5109924,0.48875064,-0.09197876,-0.23099652,0.29269093,-0.10153189,0.34280974,-0.25999105,-0.08608016,-0.34322822,-0.30256444,-0.47636756,-0.0606651,0.0016749501,0.3110282,-0.2719944,0.084378324,0.051474266,-0.40434963,-0.1713748,0.36092365,0.2054249,0.2048599,0.21425653,-0.113885954,-0.5718609,0.108989894,-0.49140507,-0.30434197,0.14635938,-0.395209,0.053403065,-0.0439016,0.25250205,-0.12982419,0.07574717,-0.3467926,-0.049307387,0.016692353,0.11135573,0.03263391,0.18319255,-0.40898672,0.76189166,-0.36995852,0.53494847,0.037945542,-1.036259,0.26718885,0.36045343,0.025043486,-0.29948837,0.38927752,-0.54922295,-0.020213628,0.021377463,-0.14953718,-0.2317363,0.20500858,-0.34790194,-0.32874644,0.5413555,0.25737253,0.23406269,0.23426652,-0.12810884,-0.2634273,-0.023443881,0.021584272,-0.14708334,-0.74446964,0.055410698,-0.019863047,-0.50756097,0.18789755,-0.505353,-0.050008714,-0.34187576,-0.24057367,-0.073750906,0.2575364,0.22824752,0.08063076,0.10790762,-0.008124871,-0.92182004,0.04263365,0.21558698,0.337923,0.2676661,0.08607438,-0.22291699,-0.047923006,0.68433523,-0.22056256,-0.27631646,0.1708737,0.0027477015,0.026632424,-0.255337,0.23077862,0.37634563,-0.16323821,0.00027306937,0.15843938,-0.15090194,0.3392344,-0.024046134,-0.30406624,-0.11381772,-0.21030712,0.09871009,-0.5152369,-0.15748163,0.6716955,0.17138034,0.16389626,0.35009068,0.3110221,-0.07743068,-0.24613623,-0.354404,0.19333825,0.10303632,-0.004956208,-0.081839815,0.013761567,-0.7156107,-3.1345644,-0.0395384,0.13609388,-0.42620665,0.30503595,-0.13818015,0.1910499,0.111925684,-0.29637167,0.28284922,-0.17505923,-0.10267655,0.19055328,0.21758175,0.06342454,0.02908453,0.07270849,-0.30787802,0.011742391,0.24746358,-0.08417345,-0.91937876,0.20629269,0.13730882,0.26187527,0.24971232,-0.50652117,-0.13472869,-0.28487337,-0.097976506,0.094253995,-0.106732205,-0.3473921,0.27522388,0.114617795,-0.1049605,0.039526384,-0.4048553,-0.057322633,-0.6462951,0.28679603,-0.83739376,-0.09558307,0.05737291,0.7305957,-0.026963046,0.17053866,-0.053405073,0.20350271,0.10837634,0.11325985,0.04983057,-0.22847992,-0.15776832,0.029370096,-0.029423049,0.5737783,0.13521805,-0.32208854,-0.048536472,0.17520815,-0.255296,-0.3723821,-0.18505575,-0.122124255,-0.06559053,-0.8049278,-0.30493778,-0.27324852,-0.086830325,-0.09258137,0.80346394,-0.2633008,-0.18370639,-0.09233558,-0.61239684,0.36022714,-0.0039872983,0.070221506,-0.28255957,-0.23131946,-0.18798041,0.15221377,-0.052874602,-0.22339137,0.14683254,-0.041990377,-0.008628344,-0.45585808,-0.36242646,0.43524057,0.10623002,0.24827163,0.22250326,0.47874296,0.07146322,0.45022166,-0.07165679,0.11318485,-0.5027771,0.025424885,0.22983685,0.7301711,-0.30277586,-0.038745426,-0.012582045,-0.38890594,-0.16693968,0.25194198,-0.11476831,0.0295518,-0.24416848,0.13713437,-0.33601362,-0.21391062,0.005619316,0.22291616,0.7721507,-0.008667575,-0.37662506,-0.14324065,0.23642257,-0.035360146,-0.015588384,-0.4381011,-0.004435423,-0.27179736,0.44047487,0.072987884,-0.16937351,-0.14433467,-0.19213243,-0.19376187,0.2965219,0.28378323,0.02715993,0.026729556,-0.57520103,-0.20032726,0.30135682,-0.023276424,0.3039863,0.1124075,-0.22423604,0.0486899,0.12088401,-0.29292887,0.18967728,-0.15851109,0.219482,-0.75541115,-0.35703033,-0.14373112,-0.3395659,0.027774867,0.59282917,0.18757185,-0.11579049,-0.11191648,-0.47873974,0.35710752,0.024305115,0.21300417,0.009965623,-0.19930032,0.5306169,-0.22249225,-0.22289553,-0.08903419,-0.0010537356,-0.18364644,-0.3059506,0.16927566,-0.4038173,-0.025970966,0.62343097,0.29081988,-0.081828386,-0.066634774,0.21896845,0.024307508,-0.32465678,-0.3026229,-0.043174166,0.38792962,0.08164082,0.381519,-0.44820136,0.05902121,-0.13210884,0.056439523,0.38080624,-0.0911104,0.024035946,-0.009286892,-0.07009184,0.63803726,0.11307378,-0.07524653,0.17958564,0.036015693,-0.3102753,-0.439401,-0.092423126,0.064579666,-0.20843887,0.029393649,0.21724704,-0.110543065,0.051107023,-0.4849919,0.112562835,-0.40675935,-0.032065623,0.16588652,-0.5669191,-0.16859743,0.006862823,-0.67696196,0.16259871,0.08053035,-0.08062719,-0.018792419,-0.06858213,-0.16598365,-0.15167175,0.225788,0.13999695,-0.20922706,-0.10874846,-0.1678968,-0.93694144,0.22700724,0.1565938,-0.1378043,0.11856145,-0.052781854,-0.90557444,0.29757574,-0.1993663,-0.2196075,-0.044561923,-0.19623578,-0.28167123,0.2752796,0.1452274,-0.17800105,0.33297148,-0.1352309,0.66154516,0.11813253,0.14361864,0.23363651,-0.049700357,-0.0017955713,-0.51698506,-0.37092608,-0.11986258,-0.348925,-0.20252419,-0.2965426,-0.27679485,-0.12357904,0.12750359,0.4680185,0.37403578,-0.046058953,-0.091430865,0.003226405,-0.4548027,0.34204692,-0.32602268,-0.01893642,-0.3231213,0.18340504,0.12995118,0.29379404,-0.3742562,0.5248394,-0.2832238,-0.4167922,-0.29305154,-0.030299885,0.13842544,0.3503976,-0.48879436,-0.18929732,0.08164884,-0.08889284,0.014057405,0.40853477,-0.08935189,-0.14456184,0.04867124,-0.5866391,0.26552603,0.68378097,0.3272692,0.028823644,0.26830477,0.1530895,0.16600277,0.3732813,-0.15871221,-0.33703464,0.4190104,0.040581122,-0.6862324,-0.3139599,-0.35245806,-0.19695976,-0.5583564,0.7085283,0.18936087,-0.37352163,-0.49323404,-0.23624307,-0.09513049,0.14584817,0.05341865,0.06244406,0.040835276,0.6393245,-0.056898586,0.44937608,0.62583846,-0.026893407,-0.18370318,-0.08002223,0.24753329,0.12121582,0.42170608,-0.1753074,0.15291634,0.14173159,0.12622297,-0.321638,-0.23050892,0.07038386,0.10885653,0.09043914,0.11643283,0.6957443,0.5269649,0.1387304,0.47934812,0.4116574,0.07150549,0.6353972,0.59020185,0.18345183,0.08683685,0.2190072,0.13050315,0.23429155,-0.065899074,0.15113287,0.4415861,0.10264348,0.67498434,0.0867619,0.24585076,0.6844835,-0.6404207,-0.41659594,-0.033991233,0.51782423,-0.50827533,0.049299315,0.21858859,-0.09980483,0.36276323,-0.6154964,-0.30855736,-0.11607356,-0.07731208,0.12425751,-0.21910483,-0.059410557,0.14764844,-0.10459295,-0.23982073,-0.2448828,-0.31648716,-0.3776568,0.28072435,-0.0833342,-0.07033485,0.14094266,-0.36966866,0.08507782,-0.12169175,0.22913845,-0.090700686,-0.033245534,0.10804695,0.27391303,0.1304021,0.85213447,-0.14241242,0.08244083,-0.25155994,-0.07205907,0.048873514,0.22553901,0.0035572164,0.087109685,0.3349623,-0.52753437,-0.36075515,-0.18869232,0.38472086,-0.39998704,-0.13031054,-0.028523175,0.01003982,0.12968928,0.27750176,-0.2374013,-0.09373307,-0.045761548,-0.3951961,0.16301885,0.008762643,-0.34453157,-0.10168184,0.24499115,0.16240963,-0.05412613,0.04672688,-0.22403824,0.05278382,0.052537303,0.117734745,0.016508363,-0.22573447,-0.30780652,0.22222134,0.020648956,0.19732103,-0.021416008,0.29774672,-0.0961641,0.22803998,0.33858007,-0.0032793134,-0.31329268,-0.5247151,-0.18729746,-0.31430623,-0.17790575,-0.24248531,0.20657751,-0.246202,-0.021425173,-0.33256975,-0.28719592,-0.24614361,-0.14592035,-0.06497003
11773767.pdf,-0.27807233,0.23437211,0.5295737,0.09247096,0.79107153,0.054518193,0.0011743456,0.21425769,0.07076172,-0.3733673,-0.022760328,-0.19941907,0.2004893,0.21793418,0.1659729,0.5801189,0.10411756,0.10394469,-0.2845412,0.2907992,0.09303583,-0.37666416,0.19914302,0.8392856,0.23201534,0.028549505,-0.15147461,-0.19428873,-0.37430665,-0.24966444,0.5421947,0.03390283,-0.2684939,-0.4043004,0.099086866,-0.0732746,-0.15746887,0.031736612,-0.034254294,0.21245462,-0.4698741,-0.20124695,-0.13697937,0.19220541,-0.106899336,-0.16905469,-0.03212763,-0.24183097,0.069348,-0.13710068,-0.54397887,0.27316368,-0.21555647,-0.32743782,0.16438784,0.6781653,0.08097985,-0.6196964,-0.3830517,-0.3379663,0.048497044,-0.1896706,0.31945106,-0.04760736,0.203587,-0.13777165,0.074754104,0.17061985,-0.62667876,-0.14628853,-0.16794342,0.06314503,-0.06793867,-0.0032449067,-0.19363776,-0.13265881,0.059931982,0.34274703,0.110590644,0.1078628,-0.13407543,0.30996257,-0.09925922,0.23765802,0.13012597,0.21886182,0.24109015,0.17735595,-0.31847215,0.5164963,0.16844027,-0.1525364,0.3663791,0.09968592,0.12214085,-0.0800439,0.22817713,0.1334317,-0.13864557,0.101312585,0.021532234,-0.23432094,0.05951579,-0.071980275,-0.051958803,-0.07022845,-0.028802644,0.27823755,-0.38364062,0.53069794,0.062227152,-0.08899042,-0.019238085,-0.5257833,-0.030757397,0.032527603,0.098998345,0.20861128,0.05624269,0.086689174,0.31085908,-0.119783655,0.2609057,0.7736794,0.071034245,0.20190261,-0.09391782,0.2755498,0.062417097,-0.17559564,-0.027020153,0.054041646,-0.16694686,0.11342903,-0.16933459,0.27261996,-0.2847966,-0.35525402,-0.07264399,-0.014547119,-0.045034587,-0.58094823,0.23710284,0.0016089671,0.103323415,-0.33538824,0.0631507,0.13612491,-0.048912138,0.58364606,0.21946624,0.07249261,0.026421634,-0.15714087,-0.047344558,-0.100099735,-0.1633126,0.040796306,-0.120735556,-0.03143228,0.34682035,0.27887154,-0.35429335,0.31060576,-0.07931379,-0.10383128,-0.2194771,0.11015619,-0.2986545,0.28862244,-0.12469354,-0.080075786,0.4771476,0.03561371,0.30387732,0.11899938,0.2631482,-0.22665557,-0.043083467,0.056501202,-0.4438427,0.4222051,0.017131705,-0.14030367,0.23538196,-0.23144975,0.5380733,-0.26139066,0.2021257,-0.2718937,-0.23866385,-0.54219264,-0.09715074,0.043717936,0.15158068,-0.15031843,0.066520646,0.019418623,-0.5523951,-0.11917573,0.28408486,0.2321745,-0.0129983835,0.11267075,-0.12255682,-0.25713634,0.116397426,-0.39234915,-0.08962186,0.14186744,-0.1315057,0.17391694,-0.21755783,0.27889568,-0.072610356,-0.027452404,-0.08829282,-0.09865351,0.15494578,-0.04378295,0.3322339,0.15228844,-0.51579165,0.47554702,-0.29498875,0.71411836,-0.076622255,-1.0478146,0.3316269,0.36071545,0.15898636,-0.16130564,0.49335974,-0.49964857,0.23339446,0.027720315,-0.26588303,-0.16448662,0.42984796,-0.207237,-0.29694772,0.55264145,0.41847408,-0.029536298,0.17481166,-0.0027202442,-0.12393038,-0.004639755,-0.057105456,-0.24945049,-0.7092712,0.02854697,-0.18408379,-0.3031547,-0.085329965,-0.41670915,-0.06721417,-0.21476826,-0.30113414,0.07190094,0.14085586,0.2535091,0.08935371,0.013227247,-0.041965958,-0.7758471,-0.018840548,0.35450405,0.18586443,0.314987,0.2125941,-0.026876196,-0.02147289,0.37935418,-0.31827807,-0.16813119,0.20157248,0.24551451,-0.018366316,-0.025046993,0.26680237,0.23959519,-0.06552476,0.053035878,-0.073642075,0.097824275,0.3386072,0.036807,-0.42597,-0.11354056,-0.061151683,0.3409424,-0.47464448,-0.12567706,0.4616047,0.09079296,0.13027382,0.28211027,0.10908453,-0.13184994,-0.072479695,-0.3453132,0.4559458,0.060800977,0.293243,-0.04573281,0.05297008,-0.849926,-3.629528,-0.21526693,0.021772891,-0.27830893,0.3953062,-0.23789196,0.13109699,0.09088706,-0.4999658,0.26957124,-0.16776398,-0.24074803,0.23603968,0.05684965,0.1938625,0.20649019,0.11681226,-0.14394307,0.14985873,0.48022896,-0.010497455,-1.0131061,0.20001808,0.20455134,0.19815893,0.32632953,-0.42076793,-0.009537119,-0.3217058,-0.19365413,0.14255854,-0.1256984,-0.16392356,0.3732826,0.14885117,-0.09592529,-0.099313125,-0.3841537,-0.2100583,-0.61076605,0.2689991,-0.64798737,-0.19127336,-0.057811044,0.4506113,-0.12042784,0.22529829,0.055502534,0.21588168,0.34984988,0.19354524,0.0036263242,-0.24227902,0.014700721,-0.09363784,-0.3123134,0.4367484,0.23654248,-0.34107628,0.20242314,0.08080579,-0.15513256,-0.32902792,-0.15732077,-0.2262636,-0.22526392,-0.563634,-0.40554744,-0.15182164,-0.14832146,-0.114965156,0.5600208,-0.28565407,-0.3246335,-0.15401478,-0.56986964,0.41360602,-0.15434177,-0.16452017,-0.2204934,-0.1604956,-0.39039215,0.2447603,0.16919632,-0.27494168,-0.047367886,-0.06472652,-0.16035444,-0.48495483,-0.67301106,0.3819567,0.25714085,0.11190717,0.0003748089,0.29469478,0.027338054,0.478158,-0.06768781,0.22679102,-0.5747626,-0.0022713225,0.13575119,0.57583654,-0.35235292,-0.17010763,-0.011468962,-0.30316615,-0.14315443,0.28852284,-0.065090165,0.067170724,-0.12302778,0.23430374,-0.54295695,-0.32840514,0.024767557,0.14178768,0.8040483,-0.026499545,-0.19706607,-0.098170996,0.25118384,-0.21001196,-0.15244359,-0.21343905,0.006770281,-0.2906813,0.4911475,0.10065543,-0.0706072,-0.1071454,-0.19379903,-0.27022737,0.20861492,0.23452213,0.09666875,-0.046683334,-0.4455856,-0.24672635,0.32542294,0.050231766,0.47534066,0.08916256,-0.13169,0.021291465,0.19090194,-0.108904645,0.351138,-0.23827294,0.09687067,-0.6973306,-0.16861273,-0.25227982,-0.42555565,0.034127735,0.44330767,0.32495293,-0.121571645,-0.13813974,-0.53529227,0.14333405,-0.10720931,0.23126414,-0.14975584,-0.2201815,0.5508718,-0.11018896,-0.08782612,-0.1431519,-0.11470787,-0.20998535,-0.03307104,0.12881371,-0.37709916,-0.041085474,0.60653704,0.30928367,-0.29706007,-0.07380493,0.24287845,-0.009160494,-0.10884818,-0.2856798,-0.16380262,0.2809242,-0.061011367,0.3272879,-0.6323391,-0.1093719,0.059547186,0.18198758,0.30350453,-0.22187555,0.18665929,-0.102271125,-0.24845931,0.44060004,0.024472306,-0.0466347,0.25976798,0.071991496,-0.17838341,-0.57699454,0.07316611,-0.1419132,-0.5084958,0.044998705,0.3038116,0.046610415,0.014344638,-0.5602317,0.001062504,-0.46296418,-0.076517545,-0.008994436,-0.45182642,-0.15327623,-0.06458751,-0.4099329,0.060903285,0.13209891,-0.14967754,0.07076549,0.0038791224,-0.20551467,0.041312713,0.23182836,0.17389211,-0.32076988,-0.07150181,0.116863124,-1.0271928,0.059605733,-0.080058746,-0.1503063,0.16345629,-0.17436431,-0.6172204,0.305309,-0.42657572,-0.14648655,-0.17220916,-0.30154225,-0.29464692,0.19890626,0.05157239,-0.17617774,0.41144335,-0.26180547,0.65599924,-0.0176539,0.01977781,0.07302975,-0.15940511,0.1589346,-0.4186309,-0.37339115,0.007532859,-0.2691332,-0.02029515,-0.12348972,-0.10346337,-0.14586496,0.047206856,0.4255054,0.16090903,-0.077480875,-0.1379905,-0.13730606,-0.4452027,0.23778221,-0.14978209,-0.06975366,-0.2783462,0.113907516,0.113127165,0.13552195,-0.44799033,0.5158542,-0.29187533,-0.2972622,-0.2792121,-0.13601984,0.3415851,0.1988521,-0.70565814,-0.15139888,0.25513116,-0.24824542,0.1222025,0.4046988,-0.12636411,-0.3177998,-0.029554937,-0.5876427,0.1736002,0.87831676,0.3168744,-0.06536873,0.35899532,0.2719596,0.18957038,0.30990782,0.05612072,-0.27096316,0.20661306,-0.07636891,-0.68560654,-0.09886825,-0.061428208,0.063666895,-0.55918723,0.7959104,0.25605118,-0.44340858,-0.42414784,-0.28854805,-0.026108053,0.08733335,-0.22069968,0.0045405994,0.032570515,0.61432874,-0.15335444,0.26820317,0.5289809,-0.1759502,-0.10464716,0.12940192,0.26570928,0.30495495,0.26288003,-0.15571825,0.05446451,-0.077979594,0.048887018,-0.16730405,0.0057937885,0.012336744,0.026228648,-0.053428978,-0.07274276,0.7062428,0.53255373,0.28700364,0.39482507,0.60446954,0.0077836495,0.62436503,0.3915983,0.060292628,-0.08739471,0.111885935,0.18523586,0.20227087,-0.058005597,0.2530815,0.284446,0.025281802,0.7185934,0.1648746,0.046795443,0.6080637,-0.6956624,-0.50050527,-0.09047227,0.6727724,-0.50931525,0.08729683,0.37829715,0.036452547,0.3093436,-0.4805904,-0.025797639,0.15073973,-0.016174328,0.26198468,-0.20378828,-0.23933256,0.11383971,-0.004320114,-0.025429998,-0.4579137,-0.45139062,-0.11652163,-0.022793707,-0.19210236,0.0005757257,-0.0075509865,-0.16040516,-0.093307704,-0.05436348,0.13756257,0.07724014,0.05030942,0.029532902,0.43062675,-0.041517556,0.59160566,-0.29119474,0.17694074,-0.073710404,-0.058201022,-0.06915186,0.29568923,-0.07650276,0.13765377,0.54153955,-0.43480346,-0.17519528,-0.08216919,0.42321664,-0.26383057,-0.024275623,0.12691508,0.08926265,0.17891458,0.11030064,-0.4651206,-0.20242403,-0.2029342,-0.44772395,0.06050022,0.12767437,-0.3109716,0.005985407,0.34711036,0.2725392,-0.040421806,0.18646319,-0.15736365,-0.0009133015,0.07901853,0.25858727,-0.042066075,-0.26917315,-0.4496513,0.27302063,-0.12094642,0.1940126,0.10983333,0.09184534,-0.021922013,0.30082482,0.3891855,-0.089103766,-0.21727982,-0.42998102,-0.18619858,-0.13737018,-0.070130646,-0.15473522,0.11520268,-0.35007387,0.03597953,-0.33113217,-0.46333548,-0.18288253,-0.01336482,0.010863813
11963737.pdf,-0.4104905,0.13402322,0.31873256,0.012918433,0.60973954,0.19550751,0.054065682,0.032078337,0.052090432,-0.26034647,0.044256546,-0.29321688,0.06955914,0.015622226,0.042762794,0.48220748,0.27607605,-0.008701911,-0.050609037,0.30639493,0.119988814,-0.25396264,-0.0017471835,0.778597,0.3216033,0.13871315,-0.09411314,-0.12651345,-0.2517879,-0.20270921,0.5206034,0.11153731,-0.12631337,-0.4069639,0.07840577,0.09899397,-0.3104197,-0.063333146,-0.22625723,0.1590229,-0.5507181,-0.19276698,-0.10736784,0.028868388,-0.22403765,-0.16701174,-0.013257518,-0.15726425,0.078849964,0.036910433,-0.5117409,0.39479238,-0.38421237,-0.16180305,0.1489535,0.8005522,0.16995293,-0.56969965,-0.47499186,-0.35208946,0.22111458,-0.087589085,0.20581266,-0.17411055,0.07188898,-0.061832946,0.07562722,0.42533255,-0.65099,-0.10492578,-0.35910016,0.20689587,-0.26304626,-0.022108143,-0.3333614,-0.11800841,-0.011701406,0.42014447,-0.0026288754,0.025010917,-0.24911898,0.17976688,-0.37232065,0.15644221,0.16989216,0.11925176,0.4206379,0.1637872,-0.39605337,0.6055839,0.114319816,-0.3048054,0.34079713,0.2048051,0.099159904,0.033347145,0.11990847,0.1172927,-0.15725493,0.06601496,0.19282,-0.15579653,0.037318483,-0.0038443208,-0.05551718,-0.103938915,0.13960406,0.09251689,-0.49502528,0.30146235,0.09596186,-0.26007137,-0.15066408,-0.4848949,-0.030552436,-0.0029683802,-0.044318285,0.13657036,0.24637885,0.15393454,0.23388577,0.05747936,0.08672173,0.84490883,0.035039343,0.027775757,-0.08425397,0.30208725,-0.019598812,0.006407354,-0.002153661,0.11239952,-0.122170575,-0.019821445,-0.40216452,0.3080963,-0.09332757,-0.16426332,-0.14877956,0.23186785,0.053891867,-0.5925679,0.5120281,-0.16937874,0.03995661,-0.24387926,0.06949111,-0.06033554,-0.059550107,0.3897671,0.26841095,0.12698105,-0.01754274,-0.1782169,0.10836674,0.2301963,-0.3233583,0.080786094,-0.13417263,-0.13600378,0.38058645,0.3552904,-0.46690518,0.18505122,0.026411774,0.014453279,-0.073123895,0.30536732,-0.20073433,0.10081641,-0.036589473,-0.09443016,0.6481031,0.10058626,0.23420632,0.03984782,0.29496205,-0.12877391,0.15559423,0.13590169,-0.53261644,0.3199641,-0.058786266,-0.11770104,0.21615538,-0.09808913,0.4902651,-0.39148217,0.11604452,-0.14211051,-0.2719922,-0.48730916,-0.11949982,-0.049456157,0.30355987,-0.39369187,0.061960347,0.18576661,-0.47234136,-0.36879677,0.24398482,0.20256504,0.27838042,0.16070008,-0.04448505,-0.5387758,0.12682772,-0.48339033,-0.3071096,0.19753677,-0.26715368,0.12087093,-0.04360406,0.19151253,0.06331696,0.023313943,-0.23730053,-0.057686716,0.11838828,0.008656703,0.219412,0.18654454,-0.36441,0.47076756,-0.37772623,0.4502973,0.16355702,-0.9769057,0.5159955,0.3459258,-0.013921684,-0.38421285,0.40726575,-0.47317353,0.08595865,0.073126346,-0.33908793,-0.15547305,0.24896249,-0.2180472,-0.3061151,0.586216,0.17576626,0.11547131,0.22891705,-0.17625538,-0.08303445,0.012374342,-0.18125622,-0.14882651,-0.64895916,0.12978852,-0.06545302,-0.35532507,0.044311956,-0.36207587,-0.13242657,-0.45543164,-0.34238717,-0.031854764,0.19092475,0.21737158,0.047484882,-0.001308661,0.07985823,-0.69713557,0.05300072,0.16256362,0.28687942,0.253771,0.10819045,-0.1057189,-0.0028358027,0.51118326,-0.37893027,-0.24384949,0.29017976,0.10290173,-0.040060475,-0.10844051,0.073109955,0.3291986,-0.27001876,-0.04313264,0.052028224,-0.019600391,0.30522704,-0.06611469,-0.16563036,-0.12277859,-0.25516552,0.31249702,-0.5625509,-0.18714912,0.42517048,0.1099972,0.07039791,0.37926736,0.18007046,0.12782806,-0.2764926,-0.43053636,0.39509264,0.097009994,0.049360916,0.02315476,-0.041960992,-0.5455396,-3.1109953,-0.17304504,0.12525469,-0.3572021,0.34830034,-0.08056302,0.23609093,-0.00065993704,-0.37204432,0.16908337,-0.121654734,-0.10320217,-0.08974728,0.18175767,0.1897879,0.079814404,0.056468256,-0.3738454,0.16028322,0.35562742,-0.12458003,-0.89605033,-0.019277522,-0.013636006,0.14801928,0.23666649,-0.5949346,0.05423836,-0.38690683,-0.19378859,0.1401496,-0.3077249,-0.11457696,0.2821174,0.25492048,-0.1008324,-0.20535755,-0.3076272,-0.05904647,-0.54780614,0.17979647,-0.68792605,-0.1220853,0.028955417,0.6068056,-0.07253394,0.28388944,0.042121235,0.18768272,0.09749603,0.23302121,0.061663553,-0.17160815,-0.101077765,-0.086851925,-0.09127536,0.5011282,0.25793907,-0.3426072,0.045149133,0.13551684,-0.31001133,-0.49389255,-0.2238344,-0.26818007,-0.11498839,-0.6775062,-0.38915002,-0.26521176,-0.06836752,-0.055586543,0.8190024,-0.33347327,-0.29969683,-0.21631105,-0.587082,0.4067071,-0.25499368,0.060153253,-0.25382522,-0.19266231,-0.41122964,0.2843491,0.04442924,-0.18006143,-0.011177015,0.009527271,-0.058342632,-0.46303153,-0.52263474,0.26707098,0.06904357,0.3644998,0.04772765,0.3509278,-0.053900797,0.48925197,-0.0020030686,-0.073024645,-0.3259947,-0.019614909,0.09181571,0.5102279,-0.24160922,-0.08380017,0.005397616,-0.35842386,-0.13027644,0.31690735,-0.22302875,0.018658377,-0.09545945,0.35679394,-0.38279003,-0.20033562,0.106669806,0.10547449,0.7691561,-0.0012224941,-0.2827133,-0.00024460442,0.2476961,-0.012160491,-0.2153569,-0.16083726,-0.071154326,-0.36808145,0.4002729,0.02706926,-0.015931299,-0.2523462,-0.12597108,-0.1493768,0.27456594,0.25857076,-0.082319036,-0.07334176,-0.36197275,-0.16877261,0.27714875,0.055800777,0.3627363,0.32591453,-0.2421781,0.11749172,0.21523201,-0.14127366,0.365678,-0.16135994,0.17371,-0.59141666,-0.21617156,-0.25576103,-0.3122425,0.019288775,0.46713242,0.251029,-0.1808918,0.08518669,-0.5276667,0.27001825,0.027546972,0.13669702,-0.055859335,-0.1409514,0.7339983,-0.0771025,-0.1981971,-0.027858496,-0.038330846,-0.20736133,-0.4460997,0.21862857,-0.5015367,-0.033772096,0.51479983,0.20847327,-0.267397,-0.13718417,0.48004836,0.02373645,-0.22955015,-0.3878281,-0.07397488,0.24732688,0.1719425,0.15331468,-0.4901244,0.029806914,0.05437359,0.06392896,0.2268048,0.043080177,0.14030784,-0.17615929,-0.021798283,0.53808486,0.12014036,-0.05008108,0.010145661,0.17270024,-0.37809247,-0.44407523,-0.051671423,0.036370136,-0.2847063,-0.10873541,0.3238637,-0.017458502,0.017901104,-0.47756603,-0.12564215,-0.5230259,-0.04764122,0.1479016,-0.50006396,-0.18230191,-0.14413776,-0.5248281,0.17531508,0.07968775,-0.08695683,0.0575338,0.018473834,-0.14087775,-0.16265489,0.13872944,0.00097443163,-0.369533,-0.135903,0.054282293,-1.0765501,0.02466106,0.090979286,-0.09093394,0.05964695,-0.120927244,-0.6712222,0.3480237,-0.26916593,-0.18925947,0.1075451,-0.26413292,-0.21152565,0.21176544,-0.003474039,-0.15258674,0.24346128,-0.13365586,0.5271378,-0.14596324,0.013901804,0.18199,-0.14479622,0.28983635,-0.3112039,-0.39904696,-0.2571692,-0.41037247,-0.20674762,-0.13668928,-0.22530141,-0.056032628,-0.03294885,0.4880655,0.196748,0.024691667,-0.0892949,0.07878703,-0.61752576,0.2595659,-0.28924045,0.012910294,-0.11224134,0.058849756,0.037883572,0.20638807,-0.3847745,0.62197816,-0.21821557,-0.38491023,-0.25273654,-0.027837371,0.24288554,0.47912633,-0.50303435,-0.10806373,0.20225427,0.0897025,-0.006379638,0.49686012,-0.14007555,-0.19204776,0.12305639,-0.6627022,0.19083372,0.5470787,0.27054024,0.032615237,0.29200107,0.18364602,0.27109987,0.5181454,-0.078195214,-0.20344067,0.37751883,0.07789614,-0.5446923,-0.275306,-0.16869162,-0.032437667,-0.41132948,0.51927376,0.25560856,-0.57321477,-0.35078454,-0.31832147,-0.11417173,0.35264945,-0.037079155,-0.103386015,0.16929254,0.65560925,-0.16388667,0.31643358,0.53388774,-0.031460322,-0.25649595,0.1035327,0.26263732,0.19150601,0.38048142,-0.12427006,0.1067293,0.006129419,0.17355207,-0.1349919,-0.18012872,0.09183072,0.02968062,0.09182227,0.031154908,0.6119101,0.49930024,0.19926837,0.2858055,0.36057585,-0.07473348,0.60268307,0.6333902,0.040315162,0.009454867,0.012131148,0.17924087,0.15489969,-0.024461132,0.20461342,0.5404232,-0.07589261,0.5903611,0.14339137,0.29090947,0.55973005,-0.59190357,-0.35652778,0.010332424,0.5428808,-0.34010458,0.12024804,0.13923648,-0.08649397,0.36884302,-0.35438052,-0.20907904,-0.011374582,0.023533717,0.1267143,-0.11705169,-0.07899284,0.20641957,-0.09645604,-0.2050615,-0.40067706,-0.35519052,-0.41256148,0.21766438,0.04751435,0.124538064,0.1234447,-0.2655909,0.012578603,-0.04622261,0.3502858,-0.14246687,-0.19911718,0.043020107,0.2733973,0.05928073,0.7498096,-0.075138,0.21105593,-0.29444164,-0.23441102,0.08794438,0.18223631,0.16694197,0.031365447,0.44891638,-0.3299857,-0.18842775,0.046830844,0.3131252,-0.32976365,-0.06851645,-0.07044972,-0.01297896,0.18932402,0.16123879,-0.35083884,-0.14100721,-0.22963342,-0.50593936,0.19576988,-0.098917976,-0.38286057,-0.08032666,0.39659375,0.2734631,0.004107652,0.11734784,-0.27697498,0.037821904,-0.09036449,0.22892606,-0.09227426,-0.24836016,-0.35980582,0.34752148,-0.051867522,0.22132045,0.12531205,0.20918323,-0.08231814,0.08167924,0.39296073,-0.06147273,-0.23629984,-0.46408653,-0.060796563,-0.13030085,-0.0029457477,-0.120730534,0.06136252,-0.29456884,0.0059032217,-0.3438458,-0.3371776,-0.28493485,-0.022472966,-0.05129929
12171093.pdf,-0.49361676,0.20831624,0.237524,-0.042214576,0.3479912,0.065038994,0.42954138,0.18639734,0.117098615,-0.40470615,-0.05738602,-0.563359,-0.08022183,0.18093924,0.14816065,0.45916587,0.43375,0.12686497,-0.081579894,0.35598326,0.040198736,-0.30967516,0.06554049,0.71530616,0.6490414,0.1452114,-0.11599836,-0.07416399,-0.12060222,-0.12405511,0.6422576,0.15160084,-0.046168428,-0.4456754,-0.17081639,-0.11048263,-0.09075314,-0.035229664,-0.27022594,0.14859474,-0.46601465,-0.22287591,-0.10112141,-0.102691494,-0.23563747,-0.31117776,-0.035378672,-0.08821123,0.15846017,-0.025442237,-0.45781898,0.23058471,-0.26450804,-0.13113004,0.10380672,0.64985275,0.048268892,-0.55706036,-0.42448077,-0.48625895,0.14310032,-0.15288553,0.27637404,-0.22415039,0.05035405,0.18520981,0.005518824,0.20772322,-0.55147624,0.0028628996,-0.2816504,0.07290259,0.06601818,-0.19817698,-0.42713267,-0.16876617,-0.0027779741,0.4831556,0.05931115,-0.080440015,-0.49455774,0.33311296,-0.228328,0.40475583,-0.028432805,0.033017598,0.3777991,0.08328606,-0.38788438,0.77060425,0.11292879,-0.41648638,0.30893302,0.13640615,0.19994724,0.08627193,0.19813013,0.1361271,-0.03623133,-0.041710556,0.12900944,-0.07783896,0.1114286,-0.06284113,-0.089933746,0.039400265,0.17492783,-0.0126235485,-0.44324875,0.4553229,0.018388866,-0.28566474,-0.29234546,-0.22998747,0.005916068,-0.036655754,0.13827017,0.17703645,0.17621166,0.104332685,0.20918414,-0.12357553,0.003437668,0.7770716,0.08756122,-0.09205292,-0.29493946,0.10067385,-0.1796457,0.14394733,0.031385336,-0.02794281,-0.14465109,0.07388119,-0.43974727,0.16003048,-0.105245456,-0.4733994,-0.17583585,0.2865867,0.06453094,-0.44990557,0.516226,-0.19594926,0.15092793,-0.34231138,0.15652558,-0.00014664489,0.071700506,0.30889076,0.2226249,-0.10604304,-0.11454226,-0.37256643,-0.12044926,0.09129037,-0.44840592,0.3832983,-0.17340493,-0.066230245,0.4058872,0.46411547,-0.3536343,0.25598016,0.18902865,0.10150252,-0.30557916,0.4119091,-0.40208942,0.10859203,0.14120486,-0.006766946,0.6151992,0.20414561,-0.021480244,0.08450329,0.306934,-0.10573776,0.044615902,0.03205569,-0.4675042,0.43294725,-0.15074198,-0.092762634,0.37090826,-0.26372427,0.2526078,-0.38805124,0.10711571,-0.049906954,-0.2700429,-0.41449448,-0.11456142,-0.053173512,0.38194782,-0.3251961,0.018671354,0.12956375,-0.49946937,-0.15532453,0.27924243,0.20046869,0.24381028,0.15013315,-0.14486748,-0.34259075,0.2714821,-0.34297097,-0.1957913,0.24411775,-0.3605706,0.12481417,0.12709321,0.3214767,0.02877643,-0.008189566,0.028432816,0.12515146,0.064659216,-0.037857328,0.10656051,0.035668917,-0.51381975,0.56851965,-0.3237608,0.5906532,0.056885175,-0.94659406,0.40183485,0.25751328,-0.056869306,-0.28193033,0.38413236,-0.43823737,-0.11504922,0.15939178,-0.17065457,-0.17336729,0.17382176,-0.51746726,-0.32091665,0.62232685,0.08385937,0.26348904,0.20328778,-0.07310453,-0.07806273,0.001407275,-0.2671268,-0.23708126,-0.7215875,-0.045699254,0.024798717,-0.32641298,0.26422834,-0.6028762,-0.08250998,-0.48952878,-0.1257422,-0.13804395,0.26303986,0.11360608,0.140649,0.061319135,-0.043331075,-0.6918568,0.22120902,0.32023364,0.24580616,0.22895527,-0.0065869004,-0.1147797,0.17032875,0.64028484,-0.4290771,-0.011974299,0.3502165,-0.10224375,0.010923907,-0.23507486,0.110248,0.3106504,-0.34751913,0.026375424,0.21354361,-0.29204005,0.37613168,-0.080169514,-0.4233433,-0.06632306,-0.099677324,0.20768134,-0.5310371,-0.3598343,0.5730964,-0.027755568,-0.063432224,0.33097216,0.11808777,0.053132318,-0.55464256,-0.2932135,0.07140174,0.22629553,0.27477357,0.04825518,-0.0722158,-0.6576281,-3.1516945,0.1795497,0.2449913,-0.17693633,0.26947623,-0.06597836,0.1650318,0.09676908,-0.49831954,0.22394188,-0.11332108,-0.14389265,0.16587596,0.26646197,0.22703573,-0.015474506,0.002258215,-0.18587704,0.062266987,0.39717758,-0.18044522,-0.7115083,0.2445534,-0.03526321,0.549556,-0.07259766,-0.5710399,-0.13716444,-0.34296274,-0.23296681,0.2579261,-0.113867275,-0.34166127,0.26538777,0.3236707,-0.0307053,-0.07922399,-0.5479164,-0.19395393,-0.5283669,0.20155057,-0.80428314,-0.17675564,0.14420219,0.5809897,0.055110794,0.22738102,-0.07393452,0.16889341,0.21750367,0.18579361,0.07770507,-0.28451455,-0.11426998,0.07635544,0.10167202,0.6446315,0.13283457,-0.21678632,-0.17029133,-0.14439017,-0.2261515,-0.5787558,-0.0943083,-0.18898901,-0.20848857,-0.5976284,-0.25184384,-0.2611935,-0.067018494,-0.095950395,0.8137898,-0.29751042,-0.08480506,0.010721849,-0.5398035,0.26881543,-0.15408558,0.032408457,-0.0799004,-0.28982884,-0.38010126,0.25363404,0.1228129,-0.11231498,0.08769891,0.17874748,0.059813023,-0.49532637,-0.37853894,0.28284615,0.23925057,-0.010659441,0.3012615,0.38458994,-0.14415477,0.49292547,-0.18416116,0.0489189,-0.49140984,0.012817664,0.14425263,0.5316175,0.03391879,0.033588078,0.10707486,-0.42880493,-0.16800919,0.26504624,-0.035258636,0.08803684,-0.37301093,0.26595223,-0.109417334,-0.18004498,-0.30955976,0.17685688,0.80115104,-0.15754423,-0.36170173,-0.035561293,0.37604883,-0.16208401,-0.12111669,-0.375684,0.16317487,-0.2549497,0.28664768,-0.10289884,-0.10432093,-0.12625743,-0.34227312,-0.2945324,0.251823,0.22964585,0.052516248,-0.10582872,-0.6290235,-0.17611164,0.3018944,-0.01909124,0.376203,0.19809684,-0.38926902,0.10340652,0.28283972,-0.023254119,-0.017181292,-0.34292835,0.16147892,-0.65530884,-0.27141553,-0.18155015,-0.5059179,0.19250134,0.45054412,0.12810469,-0.10731429,0.07637523,-0.3766784,0.4187674,0.07070339,0.14678699,-0.046150673,-0.01159364,0.724992,-0.052307077,-0.02584356,-0.017254202,-0.084901,-0.09050337,-0.3378054,0.25498864,-0.3913527,-0.08444907,0.6045685,0.11415385,-0.134488,-0.21651748,0.060323954,0.010769799,-0.22097085,-0.15100673,-0.24805279,0.3516848,-0.006215403,0.19996963,-0.32483506,0.24775067,-0.037126653,0.08229439,0.2660085,-0.08091921,0.18429235,-0.15639338,0.010137672,0.66729665,-0.0418413,0.1267411,0.13985883,0.037648425,-0.46940887,-0.52172685,0.11065407,0.10621914,-0.26808608,-0.08328114,0.39862698,-0.08423187,0.13040087,-0.44206366,-0.079210274,-0.40057415,0.12937947,0.18621263,-0.64812195,-0.22323613,-0.05361525,-0.43630177,0.109858125,0.03809074,-0.21436721,-0.039176337,-0.1777322,-0.13999666,-0.15165016,0.15662982,0.021301381,-0.229962,-0.17502771,0.086818784,-0.7987301,0.29202273,0.112192005,-0.28789616,0.13776046,-0.2704708,-0.8568661,0.30536616,-0.22326292,-0.21662328,-0.11771841,-0.25595233,-0.38999134,0.20427087,0.113915116,-0.30817407,0.3740084,-0.05613537,0.6329107,-0.13882051,-0.015555754,0.16581976,-0.27527225,0.03647261,-0.70010304,-0.31875056,0.02321608,-0.3682833,-0.026680723,-0.18042019,-0.24743712,-0.012834434,0.2651925,0.26636967,0.21897793,-0.023073614,-0.10190885,-0.05830748,-0.63479763,0.30984706,-0.3523364,0.0031036846,-0.30303133,0.18284322,0.10307999,0.1868076,-0.4922868,0.44818678,-0.22093798,-0.32889324,-0.23890452,-0.18491599,0.118992105,0.55238956,-0.5036989,-0.21611756,0.14087212,-0.051704273,-0.18067965,0.19228595,-0.07441983,-0.017488291,-0.08669832,-0.44315758,0.2650367,0.534346,0.32032007,0.04985922,0.09240354,0.05709696,0.17177178,0.44451278,0.050430626,-0.31072542,0.42030716,0.0726687,-0.6324827,-0.17935959,-0.08192803,-0.40122542,-0.4465338,0.7254356,0.12080387,-0.6157614,-0.36846107,-0.27744016,-0.24033457,0.478863,0.13245802,0.09304029,0.09427663,0.7089176,0.08857727,0.26658282,0.36302096,0.09811277,-0.263286,-0.18367867,0.47903007,0.016622888,0.28820962,-0.11679301,0.25174648,0.22181329,0.12150115,-0.27156714,-0.13398448,0.0070627127,-0.014224638,0.033246536,0.0846354,0.90158033,0.49802575,0.38480514,0.30264676,0.42244235,-0.05643101,0.6831301,0.64982855,0.2043576,0.03134553,0.31469113,0.10185551,0.13231249,0.21896638,0.22163759,0.4807467,-0.3317122,0.6229007,0.15783173,0.31520012,0.5579331,-0.70189875,-0.3693108,-0.060922734,0.40646717,-0.48015818,0.06090532,0.282647,-0.0023545828,0.176828,-0.2350837,-0.090606056,0.009212257,0.2739675,0.106668755,-0.21173617,-0.08558321,0.34438017,-0.14859606,-0.12570691,-0.26221663,-0.33786976,-0.15154421,0.03971412,-0.08828053,0.017533422,-0.12396746,-0.3401102,-0.10303628,-0.04287328,0.31728458,-0.25143388,-0.15833151,0.035237163,0.44356054,0.1997803,0.7988993,-0.1204793,0.12527081,-0.27958775,-0.18435982,-0.020028513,0.16916135,-0.052196365,-0.042303093,0.3557528,-0.2999944,-0.25902945,0.014310866,0.37840778,-0.3249129,0.024222448,0.082022406,-0.04760571,0.27422196,0.34465575,-0.19041348,-0.18356875,-0.057760052,-0.4631562,0.12953915,0.26090303,-0.41173762,-0.11604768,0.05293361,0.2347701,-0.122672856,-0.019745061,-0.21514033,-0.0600686,-0.18256277,0.22845572,-0.0752894,-0.3417079,-0.37101126,0.08684884,-0.11572458,0.16426139,0.10890068,0.22420809,-0.03178125,0.06320338,0.3858223,0.2070971,-0.1568766,-0.32368967,-0.16426939,-0.2720403,-0.2484663,-0.28346023,0.18887162,-0.13971202,0.044783764,-0.47821754,-0.29609758,-0.23628289,0.07416596,-0.120070875
12544735.pdf,-0.33586538,0.30265447,0.3991666,-0.07914446,0.68843555,0.092217214,0.15625007,0.06126751,0.050537128,-0.16535252,0.045114513,-0.25864995,-0.0016159527,0.16111982,0.13596228,0.5788212,0.31184036,0.0349567,-0.24740878,0.2678023,0.120557055,-0.38703313,0.029807959,0.59820235,0.14081407,0.14402536,-0.17757252,-0.21583144,-0.31427553,-0.26687214,0.6103581,-0.0017024279,-0.13690372,-0.19961159,0.107477345,0.18390757,-0.15066163,0.1223501,-0.26311958,0.20171475,-0.4919154,-0.2510597,-0.16498345,-0.018050654,-0.13874717,-0.27793252,0.2217077,-0.22434081,0.07641758,0.07189721,-0.28309864,0.09995025,-0.34387958,-0.12248872,0.2361771,0.5784606,-0.073531814,-0.6329968,-0.449463,-0.31595096,0.24700166,-0.098846465,0.37045616,-0.06053914,0.18118797,0.070314,0.25522536,0.41512832,-0.58450115,-0.20059049,-0.35423046,0.108462274,0.009787375,-0.103918925,-0.17798254,0.019128487,-0.06675736,0.2602856,0.03362571,0.033967182,-0.19998756,0.25188673,-0.29807764,0.29555678,0.14969012,0.13126656,0.21787585,0.15678443,-0.2600066,0.5163526,0.24960469,-0.17202318,0.23918448,0.15492415,-0.029207084,0.09779893,0.08007283,0.062079817,-0.18628061,-0.00030338578,0.1075065,-0.007614117,0.20329314,-0.048451558,-0.020546328,-0.043080617,0.0751871,0.20977719,-0.40966284,0.47902405,0.07395873,-0.19281104,-0.23928201,-0.41878676,-0.06248543,0.06365107,0.09609333,0.101107486,0.116166785,0.1454794,0.065011054,-0.15833654,0.20531577,0.7635444,0.08475843,0.139869,-0.0654092,0.18583412,-0.14145243,-0.10023119,-0.1625078,0.20979181,0.026978213,-0.03412517,-0.19986925,0.3332487,-0.3158332,-0.21713933,-0.06607803,0.16178869,0.12151569,-0.5236687,0.35420436,-0.031992458,0.06364727,-0.2498203,0.029244727,-0.06586002,-0.12524706,0.39512742,0.3122574,0.08109003,0.12481151,-0.21624759,0.067828335,0.15560395,-0.20440927,0.12323803,-0.09759818,-0.20129412,0.49980974,0.49641383,-0.4683141,0.25919202,-0.08286821,0.04716737,-0.3640102,0.27074248,-0.23918891,0.20457238,-0.19430324,-0.061733477,0.6135014,-0.052529402,0.31647545,0.045705076,0.25227267,-0.12684256,0.12855573,-0.039309997,-0.5122516,0.33729228,-0.21409968,-0.15034714,0.21494673,-0.19129083,0.478544,-0.19391024,0.27107117,-0.27666378,-0.18262728,-0.26983982,-0.04417305,-0.04208699,0.19118676,-0.075211555,0.06668723,0.2005086,-0.60539335,-0.36889574,0.37024054,0.27378356,0.26253912,0.1985648,-0.12503675,-0.45484096,0.18942484,-0.6044611,-0.19117697,0.24779156,-0.16789874,0.14556333,-0.13292518,0.27245474,-0.07764527,0.03508077,-0.124166206,-0.08235086,0.20074189,-0.070626944,0.03933164,0.12255199,-0.40907595,0.5212196,-0.39450705,0.5422532,-0.13072166,-0.786466,0.22210382,0.35723457,0.02623086,-0.3099606,0.5117465,-0.4238807,0.118499905,-0.008746065,-0.2719138,-0.13750297,0.24609774,-0.3406878,-0.2679134,0.47576976,0.30600873,0.0019684043,0.13311875,-0.0038654916,-0.14441548,-0.026959954,-0.087158464,-0.065931186,-0.5702547,-0.11074163,-0.05602718,-0.30431753,0.23359264,-0.3556611,-0.0016619135,-0.38264358,-0.14577754,-0.08490196,0.065816805,0.25578585,0.16611904,-0.036611527,-0.08284033,-0.8672925,0.15254053,0.2759397,0.14656384,0.3331694,0.23243862,-0.03702968,-0.08840441,0.41661292,-0.3520263,-0.071450934,0.22146118,0.0854802,0.0300111,-0.14886294,0.23714042,0.36755055,-0.024186818,-0.06469627,-0.10607426,-0.22089085,0.20448743,-0.027058976,-0.24596003,-0.14186352,-0.21353899,0.26690727,-0.4873231,-0.28219473,0.42072725,0.078477435,0.050619125,0.42409527,0.1786824,-0.028180437,-0.2244836,-0.3779822,0.3410704,0.08397331,0.04595763,-0.00047729956,-0.057389133,-0.65912485,-3.4626987,-0.06718305,0.04251259,-0.29090223,0.43850845,0.021554632,0.29606915,0.08441745,-0.41407707,0.27027482,0.024777632,-0.12170716,0.06101215,0.32134843,0.20491445,0.04068269,0.014596248,-0.29799092,0.05363863,0.27534473,-0.042861715,-0.89378315,0.051508762,0.074531816,0.22079428,0.44032788,-0.5267271,-0.07366416,-0.46174407,-0.2739633,0.092286915,-0.08006509,-0.19844836,0.32357615,0.007858401,-0.10110568,-0.09973247,-0.20101917,-0.07507843,-0.73717654,0.13924848,-0.74515367,-0.14874533,-0.08910563,0.48846543,-0.046048515,0.34203032,0.13795635,0.09324464,0.20672011,0.28107685,0.015878852,-0.11545476,0.014101408,-0.17524517,-0.08346957,0.47127992,0.2954895,-0.41577274,-0.065097645,0.24140495,-0.30031365,-0.45822835,-0.114339486,-0.12841141,-0.02344283,-0.62353516,-0.32534283,-0.14912271,0.0112367235,-0.042251598,0.7456162,-0.35649067,-0.25869018,-0.15503424,-0.51356316,0.2863211,-0.26683572,-0.04681502,-0.32156342,-0.2156797,-0.3214547,0.325903,0.023368483,-0.06704549,0.037452247,-0.02053069,-0.015511677,-0.49938092,-0.5346037,0.19043972,0.16826536,0.2740469,0.0665241,0.22846495,-0.12437178,0.3909856,0.1228804,0.20882638,-0.35151708,0.057396512,0.16643144,0.6205733,-0.284999,-0.08827711,0.005600024,-0.37859568,-0.19042209,0.24289116,-0.27462646,-0.03686001,-0.289944,0.27696714,-0.46716374,-0.20786694,-0.037219394,0.27403927,0.7457338,0.019854236,-0.24114016,-0.096634984,0.3525892,-0.2455636,-0.08221516,0.012193877,-0.076687686,-0.22540411,0.28845757,0.07112904,0.054041393,-0.124683574,-0.13771805,-0.058501072,0.15569872,0.27484885,0.10758489,-0.17354535,-0.3666529,-0.21934794,0.337898,0.11787583,0.2931889,0.080167495,-0.07954813,0.124751985,0.11047309,-0.06330692,0.32928693,-0.221682,0.18464395,-0.5604771,-0.2498073,-0.1570414,-0.23725371,0.015162554,0.44824278,0.23711155,-0.14708552,0.016100317,-0.54044557,0.026375633,-0.07849998,0.27346107,-0.11936337,-0.30036888,0.5736388,-0.03382712,-0.15832007,-0.06945056,0.04494144,-0.084915325,-0.1706382,0.119236425,-0.21270472,-0.0772238,0.4917435,0.29725096,-0.13124171,-0.029978978,0.3040315,-0.077591166,-0.3263867,-0.2975884,-0.10004129,0.13340248,-0.044544242,0.21324378,-0.44289133,-0.05296649,0.04861888,0.123096146,0.2718491,-0.10110616,-0.0021435805,-0.118680954,-0.044355746,0.3869564,0.1100924,0.026432391,0.22855899,0.15274714,-0.19466865,-0.40890715,-0.11850228,-0.09544529,-0.2376037,-0.16262504,0.21433845,0.08444955,0.05927989,-0.4498876,0.09233144,-0.4782812,0.048429906,0.011660513,-0.50635666,-0.18997034,-0.08689138,-0.5095694,0.12107579,0.17040181,-0.037870366,0.11619803,-0.04495331,-0.22647424,-0.28787753,0.073542304,-0.007340202,-0.20802397,-0.08873719,-0.043599878,-1.0102623,-0.05869629,0.08139515,-0.16166766,-0.021955598,-0.07139557,-0.71118957,0.21222174,-0.2990666,-0.20712149,0.03696342,-0.36854753,-0.26584208,0.17470202,0.119206354,-0.12237615,0.26411256,-0.04959089,0.70626175,-0.08575921,0.027622582,0.20049646,-0.1649524,0.19234923,-0.2927636,-0.40847185,0.017664015,-0.13496625,0.03576439,-0.17619485,-0.031689413,-0.116661236,0.061105456,0.5001336,0.16777349,-0.1254785,0.06906615,0.006914526,-0.5684182,0.17853028,-0.38530812,0.068698436,-0.25154975,0.18172115,0.06914091,0.20422477,-0.43739846,0.77111673,-0.30360457,-0.41541967,-0.1444851,-0.075419396,0.16340466,0.16935211,-0.56438696,-0.22865282,0.20734887,-0.29740196,-0.06810889,0.54850256,0.028291773,-0.3004373,0.10667455,-0.46579102,0.23052666,0.580356,0.4522239,0.097257465,0.11091438,0.15070856,0.1849832,0.33094767,-0.10486503,-0.1903668,0.38105363,-0.027906002,-0.6559413,-0.18667708,0.04176244,0.00019418728,-0.58182454,0.73458064,0.21233469,-0.3047282,-0.34812856,-0.39606833,-0.25769132,0.2645523,-0.045609973,0.22279419,0.05955917,0.5914681,-0.080611184,0.29720646,0.5387216,-0.107323654,-0.1023211,0.06864622,0.2963724,0.26301175,0.32359236,-0.13566394,0.074080996,-0.08159097,0.078535914,-0.29326838,-0.13614832,-0.005307953,-0.0038560834,-0.032970894,0.002043208,0.6561582,0.5807789,0.27902132,0.3190155,0.24314177,0.008921644,0.61120224,0.36434686,0.0864016,-0.005390346,0.11270407,0.16469692,0.09131164,-0.12633249,0.28557408,0.25451022,-0.07908395,0.5001081,0.0011010072,0.097570375,0.39336294,-0.54285675,-0.33191743,-0.15198591,0.49047688,-0.48703864,0.05418931,0.3212871,0.03182146,0.24270219,-0.63232696,-0.20162156,-0.06868771,-0.073048495,0.18075939,-0.3977626,-0.12810665,0.09067549,-0.062243998,-0.27010268,-0.23938632,-0.40414014,-0.23734921,0.07723597,-0.14351769,-0.008946347,0.18297198,-0.19222745,-0.0302592,-0.05471511,0.312947,-0.32278174,-0.051163044,0.037085135,0.4136489,0.09465403,0.6886031,-0.2236043,0.07578616,-0.18217549,-0.12672804,-0.008330706,0.143029,0.14815882,0.06050828,0.4630729,-0.2599277,-0.1099105,-0.12971736,0.39477968,-0.34709924,-0.036425285,-0.011934621,-0.046025388,0.18515301,0.0037218854,-0.25756383,-0.18523638,-0.13838097,-0.27409798,0.09732924,0.0499753,-0.52369606,-0.09085785,0.42623913,0.34202474,-0.013759995,0.098711096,-0.26152694,0.0017269945,-0.10106134,0.065832496,0.0682422,-0.19032326,-0.3264252,0.38077217,-0.17233585,0.20923567,0.0894037,0.20209488,-0.10806329,0.18771267,0.39022547,-0.06386041,-0.20292436,-0.3970797,-0.14155851,-0.13741378,-0.04969813,-0.16386838,0.08600199,-0.34342748,-0.053282827,-0.36167985,-0.2417103,-0.10151573,-0.09633682,0.10964745
