,0,1,2,3,4,5,6,7,8,9,10,11,12,13,14,15,16,17,18,19,20,21,22,23,24,25,26,27,28,29,30,31,32,33,34,35,36,37,38,39,40,41,42,43,44,45,46,47,48,49,50,51,52,53,54,55,56,57,58,59,60,61,62,63,64,65,66,67,68,69,70,71,72,73,74,75,76,77,78,79,80,81,82,83,84,85,86,87,88,89,90,91,92,93,94,95,96,97,98,99,100,101,102,103,104,105,106,107,108,109,110,111,112,113,114,115,116,117,118,119,120,121,122,123,124,125,126,127,128,129,130,131,132,133,134,135,136,137,138,139,140,141,142,143,144,145,146,147,148,149,150,151,152,153,154,155,156,157,158,159,160,161,162,163,164,165,166,167,168,169,170,171,172,173,174,175,176,177,178,179,180,181,182,183,184,185,186,187,188,189,190,191,192,193,194,195,196,197,198,199,200,201,202,203,204,205,206,207,208,209,210,211,212,213,214,215,216,217,218,219,220,221,222,223,224,225,226,227,228,229,230,231,232,233,234,235,236,237,238,239,240,241,242,243,244,245,246,247,248,249,250,251,252,253,254,255,256,257,258,259,260,261,262,263,264,265,266,267,268,269,270,271,272,273,274,275,276,277,278,279,280,281,282,283,284,285,286,287,288,289,290,291,292,293,294,295,296,297,298,299,300,301,302,303,304,305,306,307,308,309,310,311,312,313,314,315,316,317,318,319,320,321,322,323,324,325,326,327,328,329,330,331,332,333,334,335,336,337,338,339,340,341,342,343,344,345,346,347,348,349,350,351,352,353,354,355,356,357,358,359,360,361,362,363,364,365,366,367,368,369,370,371,372,373,374,375,376,377,378,379,380,381,382,383,384,385,386,387,388,389,390,391,392,393,394,395,396,397,398,399,400,401,402,403,404,405,406,407,408,409,410,411,412,413,414,415,416,417,418,419,420,421,422,423,424,425,426,427,428,429,430,431,432,433,434,435,436,437,438,439,440,441,442,443,444,445,446,447,448,449,450,451,452,453,454,455,456,457,458,459,460,461,462,463,464,465,466,467,468,469,470,471,472,473,474,475,476,477,478,479,480,481,482,483,484,485,486,487,488,489,490,491,492,493,494,495,496,497,498,499,500,501,502,503,504,505,506,507,508,509,510,511,512,513,514,515,516,517,518,519,520,521,522,523,524,525,526,527,528,529,530,531,532,533,534,535,536,537,538,539,540,541,542,543,544,545,546,547,548,549,550,551,552,553,554,555,556,557,558,559,560,561,562,563,564,565,566,567,568,569,570,571,572,573,574,575,576,577,578,579,580,581,582,583,584,585,586,587,588,589,590,591,592,593,594,595,596,597,598,599,600,601,602,603,604,605,606,607,608,609,610,611,612,613,614,615,616,617,618,619,620,621,622,623,624,625,626,627,628,629,630,631,632,633,634,635,636,637,638,639,640,641,642,643,644,645,646,647,648,649,650,651,652,653,654,655,656,657,658,659,660,661,662,663,664,665,666,667,668,669,670,671,672,673,674,675,676,677,678,679,680,681,682,683,684,685,686,687,688,689,690,691,692,693,694,695,696,697,698,699,700,701,702,703,704,705,706,707,708,709,710,711,712,713,714,715,716,717,718,719,720,721,722,723,724,725,726,727,728,729,730,731,732,733,734,735,736,737,738,739,740,741,742,743,744,745,746,747,748,749,750,751,752,753,754,755,756,757,758,759,760,761,762,763,764,765,766,767
10953078.pdf,-0.5375006,0.19095771,0.34770632,-0.18552446,0.6160574,0.09527777,0.265671,0.075317346,-0.044739492,-0.311253,0.07450086,-0.26524234,0.2011883,0.15248527,0.11846881,0.6040746,0.45709494,-0.08689562,-0.24388477,0.37024346,0.1289001,-0.31702128,0.09028508,0.773162,0.14017068,0.070452765,-0.14600244,-0.16438714,-0.13078061,-0.31175262,0.6476136,-0.105030626,0.035621922,-0.21135618,0.2064298,-0.054288235,-0.2036337,0.17322445,-0.09155604,0.14078587,-0.47130203,-0.29490083,-0.13840583,-0.018068518,-0.13137335,-0.23374587,0.05541014,-0.15062362,0.21993515,0.12162042,-0.383892,0.24539338,-0.11440869,-0.26760203,0.03648889,0.5742396,0.029572591,-0.48655412,-0.4276137,-0.33868158,0.1738055,-0.096989356,0.35657042,-0.11676422,0.22583026,-0.023516154,0.2491033,0.3725256,-0.5849891,-0.010328537,-0.27567598,0.15951979,-0.035624932,-0.11100118,-0.23654276,-0.24488944,0.050005317,0.1791594,0.136419,0.052419078,-0.25134364,0.26323742,-0.31193644,0.28095752,0.08719651,0.19619304,0.2822706,0.14978708,-0.40791598,0.6289159,0.2360608,-0.2782029,0.2850368,0.1549511,0.067714535,-0.041134495,0.23016843,0.19808188,-0.21264938,-0.06801861,0.17607945,-0.064814046,0.21113092,0.119008414,0.049400922,-0.027762363,0.0788061,0.1916773,-0.49688643,0.47342634,0.0069778413,-0.24675664,-0.29745263,-0.49557084,-0.07767267,0.058229327,0.23795632,-0.033163592,0.030486755,0.11698119,0.029234443,-0.14046405,0.20094809,0.9738879,-0.010199379,0.021876007,-0.1455597,0.20572439,-0.037292905,-0.04216756,-0.042369604,0.21537814,-0.0625165,-0.050427184,-0.271312,0.42661217,-0.19508922,-0.24323714,-0.1428003,0.3233481,0.07043859,-0.69699705,0.37935284,0.029267086,0.14496131,-0.24853113,-0.0648492,0.120212734,-0.08148646,0.35218948,0.15105611,0.19164006,0.05558505,-0.21068761,-0.12785468,0.16559386,-0.3919067,0.09477282,-0.13740493,-0.15118746,0.36696815,0.38344696,-0.41681343,0.29688638,-0.06364,0.16767621,-0.3589272,0.23698613,-0.23761575,0.19874786,-0.13344891,-0.07365282,0.5420065,-0.0346964,0.24057105,-0.040771965,0.2133368,-0.1172408,0.029913435,-0.021846239,-0.50974244,0.4606195,-0.15018488,-0.23063798,0.19412157,-0.38089436,0.40552688,-0.1852308,0.18151692,-0.18910939,-0.12682058,-0.43466467,-0.053266056,0.16380939,0.35517338,-0.25552034,0.074631914,0.14727959,-0.49926668,-0.15954159,0.46496832,0.18436402,0.16264088,0.28505152,-0.15608184,-0.44280326,0.14161025,-0.50815064,-0.29648173,0.23572856,-0.33407938,0.19466865,-0.12467593,0.33214194,0.11116943,0.01132223,-0.18074211,0.014427552,0.22036032,-0.1401752,0.11945635,0.0429336,-0.40761536,0.49788886,-0.3200124,0.4369042,0.026602704,-0.9133661,0.24803919,0.42442453,0.055029772,-0.44726038,0.49890262,-0.41527125,0.047547795,0.061775386,-0.2923591,-0.102266364,0.20725644,-0.4870375,-0.28965557,0.39690167,0.4061687,0.11207645,0.22812721,-0.040537626,-0.15824912,0.08489164,-0.19592291,-0.22698501,-0.6451193,0.003892094,0.05375666,-0.3805083,0.05057757,-0.41126424,-0.056099627,-0.42149174,-0.18467891,-0.06581992,0.23517665,0.3420344,0.17440602,-0.14852414,-0.10713701,-0.7444098,0.055841096,0.26233464,0.24716987,0.15570658,0.079331994,-0.21148759,0.0061514317,0.40214697,-0.4243226,-0.04340087,0.22593042,0.19102114,-0.06846204,-0.13943923,0.2558954,0.2665734,-0.057760656,0.07894104,0.018113794,-0.036001105,0.21315672,-0.027129386,-0.21923189,-0.2959962,-0.17334707,0.2512534,-0.5022488,-0.22403039,0.42571348,0.078017205,0.057704605,0.16854718,0.14194912,0.038092725,-0.31358546,-0.2591136,0.33009684,0.033474106,0.09836829,0.019772038,-0.025968619,-0.5945873,-3.3612313,-0.06326365,-0.02423075,-0.2766901,0.44734728,-0.14345077,0.16370773,0.07007239,-0.46062654,0.32486424,-0.09176837,-0.13441974,0.20509502,0.29675967,0.3132429,0.026749348,0.008632802,-0.3323142,0.09452721,0.34932098,0.0060776863,-0.7621269,0.092982605,0.041042004,0.20750001,0.34064505,-0.43000948,0.0907591,-0.46742922,-0.23221469,0.20044167,-0.090282634,-0.18592303,0.33185968,0.12494904,-0.10374173,-0.06823225,-0.31173533,-0.12762561,-0.6582088,0.19280452,-0.7952848,-0.16546126,-0.14165752,0.4829559,0.05618223,0.35726842,0.10328012,0.16872138,0.22315195,0.2668666,-0.032501765,-0.09195617,0.03456995,-0.049557492,-0.24572183,0.51679605,0.33733538,-0.4798718,-0.23771152,-0.01357881,-0.21765736,-0.4561983,-0.25581506,-0.13362274,-0.103260964,-0.5981828,-0.33934397,-0.20452026,-0.07096086,0.011601803,0.54030794,-0.36852616,-0.25272474,-0.1595603,-0.5251994,0.23675027,-0.21307331,-0.046862382,-0.2580468,-0.18527699,-0.31523985,0.252546,0.13500518,-0.18809927,0.010874,0.10170732,0.022354161,-0.5623647,-0.35325748,0.13432628,0.19310133,0.14697923,0.16923036,0.30721664,-0.066373914,0.3922212,0.033209916,0.26329464,-0.482549,0.13863052,0.1723441,0.6886014,-0.33007723,-0.042286716,-0.0130659975,-0.3800609,-0.22919543,0.35321212,-0.19750786,0.03570671,-0.26833594,0.42338622,-0.47024184,-0.11547737,-0.012644606,0.19424835,0.71064174,-0.0012858752,-0.22637025,-0.08488798,0.22948349,-0.14710721,-0.13905331,0.055157047,0.027361717,-0.21352579,0.3870478,-0.021613792,0.1652081,-0.094086856,-0.0438332,-0.09259685,0.32969487,0.27834728,0.036780793,-0.08519508,-0.46423516,-0.16075498,0.30232155,0.08516751,0.236611,0.08521082,-0.12969196,-0.05972845,0.24614497,-0.17317444,0.28304267,-0.2931946,0.184518,-0.5882755,-0.2510222,-0.22128698,-0.19881745,-0.017303798,0.5278175,0.10658296,-0.11683071,0.07775663,-0.37552872,0.06912504,0.03692536,0.27959767,-0.19740462,-0.29825956,0.61908424,-0.13359907,-0.13611099,0.013805093,-0.10801821,-0.12547499,-0.2681367,0.06387575,-0.25103545,-0.062232487,0.55925536,0.30381775,-0.0832607,-0.08379063,0.4587336,-0.033371814,-0.3114913,-0.25670955,-0.08231697,0.22527248,-0.030157544,0.2602052,-0.56400394,-0.02851522,0.1735887,0.19415006,0.32434464,-0.18689698,0.10722986,-0.15474203,-0.09922077,0.45939532,0.0839649,0.060613405,0.24680127,0.03108008,-0.33860224,-0.4458735,-0.024807127,0.154193,-0.31338826,0.03900618,0.3360651,-0.006273873,0.09021038,-0.43515038,0.063756555,-0.36757115,0.024157794,0.110271506,-0.6030042,-0.28159785,-0.15007766,-0.4759314,0.21953014,0.15024784,-0.07154428,-0.035863794,-0.15252998,-0.30613944,-0.21217111,0.14914837,-0.035245754,-0.28754333,0.02176417,0.051290326,-1.0308543,0.062780105,-0.006600788,-0.1583228,-0.0051447526,-0.2342259,-0.7035388,0.29591292,-0.32403994,-0.107303545,0.023206748,-0.3619538,-0.3018575,0.13049196,0.068750426,-0.14252615,0.25648993,-0.013389619,0.78405464,-0.19383869,-0.069729656,0.3680232,-0.3738925,0.26381397,-0.3635381,-0.47150743,0.005187518,-0.13020888,-0.0117622,-0.21823946,-0.14760265,-0.26069936,-0.046791255,0.44851553,0.25936884,-0.14575997,-0.046791904,-0.17194474,-0.52039695,0.24684855,-0.41988832,-0.055095024,-0.37906522,0.15286395,0.006901769,0.11610159,-0.46183717,0.7684274,-0.23061985,-0.29645827,-0.20683452,-0.15386787,0.28439972,0.42054352,-0.53534925,-0.18565376,0.15219632,-0.10709891,0.0157052,0.66665584,-0.20243087,-0.29291794,0.07469166,-0.48336872,0.26482582,0.5913509,0.50036407,0.014355246,0.1722481,0.16789232,0.19559687,0.25473294,0.012348637,-0.3391602,0.25969055,0.03393025,-0.5553396,-0.08626223,0.028078783,0.053645115,-0.53724253,0.71991205,0.29695445,-0.49975255,-0.30902827,-0.32283244,-0.012192455,0.39436918,-0.021274637,0.1423131,0.056048132,0.58946633,-0.019158073,0.18810043,0.5307795,-0.17472783,-0.14371774,0.09058264,0.34089595,0.30875635,0.3576235,-0.09777846,0.07841203,-0.0076867025,0.19998795,-0.29953825,-0.07770917,0.005184897,-0.038927533,-0.049022958,0.0885346,0.6528653,0.4437313,0.45019877,0.3128671,0.26527116,0.004539052,0.723505,0.31913128,0.07263517,0.019371731,0.21387574,0.05722606,0.13116053,0.0014063502,0.28868464,0.2257762,-0.17109998,0.5383246,0.09889257,-0.05228676,0.37430504,-0.5450825,-0.32700056,-0.20723826,0.5230404,-0.5542748,0.06488784,0.3009355,0.06635681,0.25070834,-0.49685764,-0.15854776,-0.1167952,-0.10825856,0.12619373,-0.3042943,-0.10123636,0.113792956,0.14265567,-0.21270926,-0.35782537,-0.4289296,-0.27598143,0.12972687,-0.031162988,0.0012252368,0.18458016,-0.1398172,-0.056358367,0.09295179,0.18037474,-0.26896226,-0.08793264,0.06609212,0.37550074,-0.067077085,0.7872781,-0.21056473,0.011060238,-0.14088213,-0.22687471,0.024636313,0.20120615,0.08924324,0.020621616,0.33863375,-0.38842183,-0.16269478,-0.05875905,0.45631886,-0.40361688,0.07987137,0.1444225,0.013775224,0.20654686,0.06131648,-0.4017801,-0.25341532,-0.15910664,-0.4717229,0.14756666,0.2254191,-0.4771142,-0.17625955,0.25675535,0.2519915,-0.031940036,-0.07438676,-0.26996547,-0.05351892,-0.11214938,-0.0073046163,0.0042644264,-0.073164,-0.4243923,0.36803207,-0.076650426,0.1799632,0.19534472,0.08194196,-0.16378674,0.32844996,0.36168075,-0.12975632,-0.18822251,-0.48757195,-0.026264008,-0.3254106,-0.1056372,-0.26736897,0.13905114,-0.325553,0.07942788,-0.32034475,-0.41679075,-0.13967358,-0.032620464,-0.03888505
11197262.pdf,-0.50923693,0.14223543,0.16269109,0.04243555,0.694693,0.024549272,0.097807154,0.28591046,-0.058275122,-0.2859719,0.059159376,-0.30541754,-0.08876091,0.24147162,0.11200048,0.6924282,0.2830962,-0.051314242,-0.18727118,0.47517437,0.25727552,-0.40296057,0.20578869,0.6471832,0.3012325,0.036163032,0.000785131,-0.024179861,-0.19245669,-0.033412002,0.43716997,0.17195475,0.110226974,-0.2763553,0.10648393,-0.107275546,-0.21626505,-0.11091104,-0.07794079,0.2641486,-0.42135915,-0.280512,-0.13573493,0.028007016,-0.17548417,-0.0561371,0.04929009,0.019889291,-0.018875804,-0.10734226,-0.3736622,0.37469473,-0.13273436,-0.15261775,0.099629745,0.6257471,-0.06426207,-0.5710477,-0.18334265,-0.28790623,-0.04448406,-0.2044755,0.14668068,-0.10635559,-0.045467038,0.19559224,0.16790295,0.30876237,-0.6075518,-0.088564515,-0.18745387,0.2114262,-0.050945126,0.06915308,-0.14437632,-0.19029911,0.06949741,0.26858145,0.024936894,0.03878675,0.011014115,0.26314437,-0.15360394,0.3741752,0.036477983,0.16171378,0.094219595,0.22525933,-0.33553153,0.39313126,0.13060299,-0.26339012,0.3634501,0.20292062,0.061302554,-0.022226896,0.10387592,0.12109622,-0.21755612,0.009082617,0.08649062,0.116719395,0.35298893,0.2072072,-0.22823822,-0.03493859,-0.17034662,0.30616307,-0.35555834,0.4482568,0.13606647,-0.15981632,-0.27827394,-0.3935246,0.044188015,0.04453058,0.103740074,0.018416604,0.2891976,0.07458118,0.030651089,-0.1279996,0.17320314,0.97028023,-0.047382876,-0.04442404,-0.19080406,0.11689113,0.0068374434,0.21138644,-0.018952856,0.14730637,0.0036901645,0.06843368,-0.29049307,0.18219355,-0.31719545,-0.26528752,-0.018586207,0.27094764,-0.2973619,-0.7414286,0.30742717,-0.05879922,0.07971762,-0.19540352,-0.1583949,0.05485421,0.13339251,0.35383213,0.26265633,0.03663372,-0.10036585,-0.25552437,-0.1286431,-0.01417678,-0.25287488,0.1514712,0.063432775,-0.22289473,0.42310613,0.20881109,-0.44429135,0.30818802,-0.069924675,-0.065021686,-0.30788532,0.22679198,-0.3599421,0.15555069,-0.00038917921,-0.15013012,0.5115273,-0.038425025,0.24659188,-0.008021409,0.2463972,-0.23437737,0.12786154,0.15480307,-0.41440552,0.2652127,-0.11130534,0.08062327,0.06937722,-0.2165756,0.3614356,-0.1778701,0.1781618,-0.3266431,-0.25749865,-0.4514349,-0.07224338,0.12582883,0.20266882,-0.0081347935,0.12000961,-0.022130895,-0.2907188,-0.19761842,0.19035491,0.13372286,0.048950568,0.08491391,-0.35488373,-0.35267735,0.09463693,-0.47281158,-0.094432704,0.005580982,-0.41904756,0.12686163,0.05637866,0.3187467,0.08187587,0.19417502,-0.25552046,-0.060002692,0.25859028,-0.13894132,-0.020098021,0.083267674,-0.37540448,0.43313587,-0.42336288,0.58796984,0.07820841,-0.7963675,0.29829958,0.3209418,-0.057227626,-0.39024228,0.42154664,-0.544366,0.08996724,0.021422926,-0.19943933,0.07868197,0.3604369,-0.31099564,-0.20040368,0.45314234,0.25022134,0.02688586,0.186724,-0.1370604,0.0037926212,-0.038555253,-0.13695458,-0.2394146,-0.49010423,0.24263102,-0.02115271,-0.379108,0.046023313,-0.29383796,-0.15675278,-0.41013318,0.029522482,-0.120427564,0.2680123,0.2862127,0.16726238,-0.11535172,0.01547121,-0.6043064,0.17373359,0.09908994,0.27805156,0.17226002,0.09386006,0.07461606,0.01788732,0.45753002,-0.34450012,0.033062782,0.19881815,-0.048865087,-0.07506272,-0.22691543,0.11459922,0.3952824,-0.29810533,0.06019507,-0.12388816,-0.05496098,0.34353352,0.14619663,-0.16810602,-0.37534305,-0.041729458,0.2935684,-0.47921532,0.061446197,0.27864057,0.12010181,0.17226556,0.032952443,0.366381,-0.14979586,-0.3098674,-0.28599167,0.12534693,0.1429731,0.22232632,0.0811301,0.067179576,-0.5149257,-3.2711167,0.12884614,0.027475046,-0.23764591,0.4105921,-0.055143237,-0.018895496,0.14533216,-0.50917196,0.31974465,0.07853305,-0.10240018,0.038843155,0.19062841,0.42240873,-0.29274675,-0.014020722,-0.48738563,0.034305826,0.37807482,-0.177815,-0.7018306,0.06956476,-0.014872156,0.28085917,0.3026666,-0.4967901,-0.106611006,-0.3038612,-0.1530489,-0.04897976,-0.374875,-0.22056773,0.3832924,0.016860554,-0.16816486,-0.09544405,-0.31059203,-0.252684,-0.3268752,0.09913617,-0.8683182,-0.23695979,0.026253114,0.573606,0.05083552,0.29058158,-0.1186731,0.18727912,0.0779119,0.19058539,-0.019549722,-0.0021781418,-0.026292112,0.0026007127,-0.12526044,0.51997715,0.14769337,-0.23252462,-0.21057832,0.13207223,-0.25422767,-0.5218733,-0.07369132,-0.10147108,-0.11930981,-0.6596317,-0.18192993,-0.13765259,-0.15755653,-0.11614847,0.5169919,-0.44437456,-0.1519056,-0.22229385,-0.49067163,0.234074,-0.15306334,-0.20645943,-0.13384712,-0.1971828,-0.47158307,0.4114511,0.123597056,-0.059325323,-0.2226229,-0.08099319,-0.19711725,-0.32585126,-0.5374819,0.2477227,0.06590332,0.20757103,-0.015345067,0.50483894,-0.022810465,0.4726559,-0.045193467,0.3121981,-0.25176966,0.14253725,0.101395994,0.5386652,-0.23069465,-0.088916406,-0.04097567,-0.293787,-0.0040669776,0.28065288,-0.04417033,0.077729955,-0.20424785,0.34530133,-0.37738565,-0.044055503,-0.0050702123,0.2810475,0.6265401,0.121171966,-0.2613296,-0.23477772,0.27123696,0.04499601,-0.30330238,-0.14761494,-0.10257316,-0.12563182,0.36795968,-0.07301357,-0.21062203,-0.19820352,-0.060422238,-0.28361773,0.1875397,0.23045954,0.07393623,-0.20013067,-0.68633914,-0.3657109,0.24284685,-0.15656157,0.057505105,0.16961375,-0.10754372,0.16401629,0.19945985,-0.11323227,0.21569966,-0.2295076,0.10870503,-0.5630402,-0.37462306,-0.07876755,-0.22455591,-0.055534586,0.31357872,0.3127609,-0.098621644,0.15070182,-0.44138736,0.42391202,-0.057480603,0.23906787,-0.14656314,-0.14263496,0.7177908,0.08301085,-0.06486276,0.017741205,-0.13442138,-0.20525897,-0.3226038,0.012887173,-0.2452923,-0.21065213,0.42708156,0.037420884,-0.1917516,-0.24441965,0.36221254,0.06631686,-0.1783615,-0.33546054,0.048652932,0.34479973,-0.017302684,0.23746178,-0.4370517,0.033767194,0.078373075,0.034781773,0.12001689,0.104925044,0.1462704,-0.18157637,-0.07390249,0.5305121,-0.100325555,-0.043307796,0.050435122,0.061627436,-0.4034297,-0.28050464,0.18596247,0.06963363,-0.21989375,-0.0043061497,0.3936994,-0.10534438,-0.04428113,-0.2572629,-0.004605184,-0.18831262,0.09896594,0.12232156,-0.44358552,-0.19605,-0.1530326,-0.399315,0.07745232,0.07486246,0.048894472,0.073139325,-0.17465961,-0.07187339,-0.15827413,0.34047905,0.08071164,-0.27799356,-0.112547725,0.094434924,-0.89491105,0.077795185,0.07550407,-0.06332299,0.092974216,-0.06036508,-0.8405546,0.18938398,-0.05993506,0.084060304,0.04257308,-0.28324074,-0.20097935,0.10212082,-0.029680334,-0.1069029,0.30197948,-0.105654135,0.35395145,-0.029640192,0.09923689,0.15329726,-0.17702731,0.40715432,-0.46438938,-0.28336895,0.07155257,-0.28244346,-0.08900918,-0.21619321,0.10093319,-0.22487779,0.10578802,0.31583965,-0.10500205,-0.16962063,-0.017418316,0.10217298,-0.58056337,0.36103454,-0.33007175,-0.022142384,-0.11944052,-0.049637698,0.054436654,0.11572945,-0.3996768,0.6119238,-0.3875015,-0.4282623,-0.20966119,-0.111985154,0.08964669,0.35153317,-0.3038705,-0.10571112,0.10987221,0.013729693,-0.12338428,0.44898966,-0.12985289,-0.21178885,-0.21159714,-0.48382896,0.191975,0.5737021,0.4471023,0.100752935,0.1047968,-0.067078836,0.19626829,0.29019213,0.052093707,-0.101997435,0.15861312,0.017152524,-0.42728233,-0.25613958,-0.19874978,0.018665176,-0.33664212,0.6719348,0.20221095,-0.1958126,-0.16923344,-0.1480093,-0.020532131,0.38261974,-0.16471629,0.08356172,0.19156206,0.5621957,0.07497633,0.1389415,0.46723726,-0.090114385,-0.1811882,0.027460087,0.23656407,0.27302313,0.2589603,-0.29144067,0.2405055,-0.08724728,0.22157961,-0.18949844,-0.2841575,-0.10621745,0.04593531,0.011612754,0.056396235,0.5965779,0.44625413,0.26894924,0.14939931,0.20012182,-0.199514,0.5735624,0.34768173,0.07870826,-0.07646699,0.11021865,-0.09220249,0.113206334,0.08065858,0.18590131,0.2100537,-0.042305313,0.41268468,-0.04333073,0.31830278,0.39178842,-0.4406947,-0.500821,-0.11927495,0.40784782,-0.52354765,-0.02891758,0.045077298,0.21997218,0.026517047,-0.23529054,-0.15156238,0.07691179,0.08449722,0.0033328114,-0.13298193,0.17490889,0.20031916,-0.1268125,-0.21865562,-0.1740228,-0.34765798,-0.1981958,0.09676486,-0.08156615,0.14628959,0.012218604,-0.33294493,0.020982822,0.0037897448,0.48534796,-0.1427142,-0.24047694,-0.07405973,0.30859536,0.10118969,0.60381144,-0.073128164,0.29962683,-0.27223748,-0.36404103,0.012758911,0.31771737,0.14582863,-0.03374166,0.38636035,-0.4497229,0.075215034,-0.016780986,0.24769439,-0.26548457,-0.10534914,-0.018561753,-0.09804875,0.12919462,0.049504306,-0.27716446,-0.29563427,-0.13308994,-0.54426974,0.10690682,0.17977028,-0.23737112,0.005540438,0.2562515,0.030160928,-0.11322141,-7.572025e-05,-0.18804991,0.14208853,-0.17810087,0.06866809,-0.032630548,-0.14704496,-0.249753,0.38522038,-0.07531561,0.108926184,0.14785694,0.327043,-0.0376492,-0.08385058,0.45261428,-0.00783265,-0.051290266,-0.49380785,-0.042940322,-0.28979415,-0.19328375,-0.19034591,0.07244632,-0.16623507,-0.016157035,-0.4022498,-0.15698929,-0.095633656,-0.08965828,-0.16477704
11676151.pdf,-0.44599807,0.17730714,0.34559965,-0.005277225,0.75494695,0.11074378,0.021778263,0.3054627,0.05004868,-0.28140843,-0.0100634005,-0.34036714,0.0061285077,0.06984733,0.024979504,0.43935806,0.3573928,-0.005016189,-0.26495647,0.43715096,0.13433631,-0.3443734,0.18188705,0.6498001,0.12637083,-0.021963,-0.1630289,-0.1776014,-0.33986336,-0.12706666,0.52178264,0.05221524,-0.062556736,-0.39830595,0.08262125,-0.08112498,-0.19218004,0.14026627,-0.18935356,0.28576878,-0.4144258,-0.2835702,-0.12010035,-0.034309916,-0.19237056,-0.26527295,0.29942304,-0.09922716,0.028164625,0.12753595,-0.44086134,0.37676188,-0.3040431,-0.2720095,0.15503356,0.6653312,0.041329667,-0.56098765,-0.40629745,-0.31166974,0.1540581,-0.074524336,0.22324099,-0.15642543,0.16663426,-0.028953401,0.23482397,0.42262065,-0.6671867,-0.05829493,-0.2667803,0.16457593,-0.064095095,-0.052341618,-0.11741078,-0.09820333,-0.00017617643,0.43248278,0.10666421,0.098668605,-0.21793784,0.28093174,-0.14401776,0.22273284,0.19696471,-0.006712026,0.16417602,0.073415205,-0.4210669,0.49675423,0.2827859,-0.2722299,0.26515943,0.14183578,0.0378487,0.1370907,-0.025583785,0.14886689,-0.10403617,-0.045230195,0.1340616,-0.04743865,0.09276115,0.015259534,0.09100442,-0.04713825,0.05374182,0.36083144,-0.4887817,0.42567632,-0.030074343,-0.23140642,-0.06813106,-0.512935,-0.16571808,0.032918274,0.12485141,0.1204952,0.2883702,0.043207925,0.16578764,-0.050850682,0.13389301,1.0476878,0.024373151,0.12824553,-0.13424964,0.22359982,-0.0038208887,-0.022049427,0.004831707,0.21268135,-0.088908516,0.15588942,-0.1650823,0.44588175,-0.13291731,-0.22389188,-0.18012829,0.26380146,-0.080996744,-0.5560099,0.42234167,0.08674401,0.041112788,-0.1797261,-0.093750045,0.038435474,-0.02133026,0.44080836,0.11556207,0.048074204,-0.019998543,-0.18418542,-0.076048404,0.26798847,-0.26814526,0.058395676,-0.015671555,-0.17543896,0.50165933,0.39157474,-0.4632063,0.2368331,-0.0013123434,-0.015210206,-0.2552361,0.15150754,-0.17235526,0.070955865,-0.09791674,-0.115216225,0.6068759,-0.0093060555,0.0983794,-0.017607797,0.27686572,-0.16471292,0.10700196,0.103265986,-0.5063995,0.43604195,-0.196767,-0.20049363,0.17545888,-0.10531022,0.49330586,-0.23550092,0.17263046,-0.17959613,-0.2658345,-0.41354603,-0.0055254567,0.10932795,0.35462993,-0.21382166,-0.03324092,0.0464291,-0.4790359,-0.21223721,0.46095824,0.023976764,0.20641974,0.16508143,-0.3140691,-0.39248323,0.20387676,-0.558017,-0.1411088,0.17488381,-0.24423712,0.10296209,-0.12680413,0.3707496,0.0759785,0.09276273,-0.279657,-0.23646718,0.26385623,-0.0008971393,0.09139217,0.06537885,-0.39944237,0.6326469,-0.37051052,0.5375351,0.03118731,-0.95143867,0.33018327,0.2121073,-0.042826694,-0.43109313,0.54986954,-0.5204235,0.07503617,-0.026020536,-0.23284453,-0.07489343,0.14798301,-0.2588549,-0.39462018,0.5544379,0.2488869,0.06643821,0.23652643,-0.14127721,-0.10620707,-0.15747346,-0.06415693,-0.20719333,-0.5482341,0.14956531,-0.0057072043,-0.45290276,0.039171264,-0.32754052,-0.081397384,-0.3801098,-0.26062307,0.023327183,0.014651753,0.20776354,0.13641572,-0.05845409,-0.10513277,-0.94766045,0.1284271,0.3334278,0.2398428,0.20979294,0.17580688,-0.18623488,0.09257159,0.47449058,-0.2540361,-0.11745252,0.22937992,0.19729587,0.029452235,-0.281829,0.22076139,0.45157468,-0.09654518,0.04086743,-0.004589781,-0.14538962,0.23048458,-0.008530309,-0.26179513,-0.285168,-0.1595526,0.28175554,-0.5985603,-0.046171248,0.49584293,0.14531471,0.02736988,0.2590329,0.27669203,-0.08416113,-0.33969888,-0.16710103,0.2099923,0.00898021,0.1465726,-0.10771965,-0.11374663,-0.6440506,-3.193334,-0.12659606,0.048174158,-0.32756704,0.45293552,-0.09071773,0.32562745,0.14190975,-0.4134511,0.24363768,-0.06871007,-0.060236212,0.123967856,0.26589915,0.25678188,0.11847226,0.053993024,-0.36227328,0.07292015,0.3321839,-0.2304,-0.81565714,0.09488158,-0.0106028635,0.23884384,0.37321678,-0.52094007,0.011547331,-0.3674875,-0.218945,0.08559941,-0.10787068,-0.25561506,0.22462712,0.15483257,-0.16454695,0.042711414,-0.34533578,-0.02409226,-0.63214064,0.14150937,-0.9143792,-0.12647027,-0.018730862,0.595065,-0.080774054,0.36562318,0.05447775,0.21669215,0.22569326,0.16892305,-0.032684606,-0.15639487,-0.06729017,-0.13860841,-0.21094504,0.54071295,0.4145304,-0.5008481,-0.070974335,0.10289905,-0.30753574,-0.4585669,-0.31135774,-0.14788961,-0.055589434,-0.67900574,-0.40610132,-0.1592435,-0.025258152,-0.11931799,0.7139987,-0.2592848,-0.284999,-0.23425682,-0.419767,0.16621049,-0.22548951,-0.07870195,-0.3108936,-0.22287053,-0.33804983,0.26299495,-0.07505819,-0.2451483,-0.06084647,0.047990575,-0.19324192,-0.46433923,-0.4701178,0.33197793,0.14519015,0.3985125,0.06719008,0.4319131,0.1244306,0.5022203,-0.04715391,0.18276079,-0.48058748,0.15620716,0.0843407,0.62518895,-0.34887555,-0.12952837,-0.09065599,-0.32433146,-0.19721428,0.2390467,-0.118804134,0.06896553,-0.4253502,0.3147593,-0.40709084,-0.2824502,0.023241583,0.30211067,0.75743294,-0.02465719,-0.4290437,-0.1160396,0.19607376,-0.039405063,-0.30526668,-0.06369968,-0.01734924,-0.29594532,0.30661967,0.118862055,-0.012062993,-0.3290344,-0.061442617,0.015184651,0.3093464,0.30567545,-0.009580949,-0.132478,-0.47020382,-0.114465654,0.27436417,0.059175998,0.18174763,0.10725811,-0.09951092,0.10650287,0.22604655,-0.110578254,0.3909189,-0.103010826,0.14961462,-0.7169359,-0.36184508,-0.06687798,-0.15418464,-0.06825371,0.35954282,0.21347186,-0.16940254,0.07709302,-0.46754664,0.21599084,-0.060129642,0.21358407,-0.043463588,-0.092363134,0.72602594,0.014613983,-0.16243389,-0.07468766,-0.02258487,-0.21531945,-0.28220624,0.0845045,-0.3027432,0.009836629,0.4839738,0.1696823,-0.16893429,-0.082337715,0.5159538,-0.013006587,-0.21448988,-0.2642408,-0.056386434,0.39697474,0.12854478,0.17738715,-0.53758764,-0.017494911,0.18761349,0.0779388,0.28802115,-0.11832793,0.1249201,-0.01225175,-0.0406278,0.5173599,0.22388703,-0.017504886,0.09412586,0.10637286,-0.32431123,-0.450091,0.055137232,0.10405234,-0.11233077,0.0062907995,0.25962293,0.14577286,0.025052495,-0.38935012,0.0015473552,-0.44051158,-0.06818835,-0.03353846,-0.61047304,0.016130101,-0.046475686,-0.5716884,0.119260125,-0.13113162,0.124829605,0.0062974207,-0.083559036,-0.23105767,-0.24966791,0.27999935,0.008196052,-0.26463115,-0.24232185,0.03073292,-0.89754486,0.0701547,-0.047094803,-0.104358286,0.10190522,0.042089194,-0.8865564,0.2975471,-0.3650158,-0.23136595,-0.15538828,-0.39199245,-0.34184203,0.22758302,0.034922987,-0.11254206,0.31305537,-0.05690235,0.64312243,0.18155268,0.063294835,0.24088734,-0.17516102,0.16179848,-0.5737517,-0.4103155,-0.009070913,-0.22982268,-0.18965071,-0.23509383,-0.14830953,-0.13365532,0.019412208,0.45065024,0.17186189,-0.12961811,-0.03982167,0.10772654,-0.6035372,0.14895877,-0.33840615,0.044484384,-0.1755662,0.08131236,-0.056178417,0.107825145,-0.40083644,0.73004293,-0.1978769,-0.40693355,-0.09965391,-0.035120375,0.19432434,0.3896228,-0.48752075,-0.02242154,0.26090592,0.011829115,-0.036475852,0.42434263,-0.0834368,-0.14309616,-0.022734657,-0.68561375,0.16093588,0.48737568,0.27308217,0.107079715,0.23226461,0.04189657,0.17939216,0.36224377,0.0005692579,-0.26389992,0.35518742,0.101814516,-0.68166083,-0.17444329,-0.11128847,-0.08383222,-0.5116261,0.6924945,0.27323714,-0.49545762,-0.4381895,-0.24548496,-0.162839,0.25609288,-0.08254034,0.0602353,0.06701377,0.55150956,-0.065361366,0.2497069,0.6272095,-0.048185535,-0.22459914,0.12382739,0.24358678,0.29424608,0.22665408,-0.08164854,0.14677331,0.043058593,0.21269196,-0.19349831,-0.13706522,-0.05381295,0.025828945,0.0026762038,0.09984651,0.5674846,0.5246394,0.21926388,0.44439584,0.33824557,-0.006999885,0.7543391,0.5393117,0.17149857,-0.033484235,-0.017872818,0.0746879,0.10321699,-0.07855586,0.123283125,0.3338065,-0.07215658,0.62378293,0.15566641,0.21405308,0.56834733,-0.48543257,-0.37247264,-0.017714951,0.6012455,-0.4624706,-0.055585757,0.12212748,-0.06128875,0.25680682,-0.471788,-0.1612838,0.010336744,-0.15993676,0.20943263,-0.1455467,-0.18386456,0.1052587,-0.07647194,-0.21997467,-0.33685046,-0.38018608,-0.1743016,-0.009986391,-0.09094915,0.034334887,0.20956692,-0.29794508,-0.0665143,-0.056972723,0.3275889,-0.32178974,-0.19370142,0.017861977,0.20737243,0.13569176,0.67506087,-0.08551851,0.28275895,-0.34892148,-0.1800923,-0.05253469,0.109474204,0.12998733,0.017768621,0.5256004,-0.50226235,-0.10185525,-0.15789972,0.50109774,-0.32323617,-0.036997013,-0.036517516,0.08500695,0.2771535,0.114242464,-0.34746712,-0.05653723,-0.18418646,-0.45139956,0.25103498,-0.088985644,-0.3010551,-0.27157524,0.30227244,0.17132443,-0.027790084,0.017681923,-0.20444103,0.027871095,-0.023195466,0.12163857,-0.042122,-0.12891881,-0.39815798,0.45407173,-0.13318425,0.16822907,0.104880124,0.1767422,-0.11491947,0.22035345,0.32985836,-0.27820295,-0.33028162,-0.47463948,-0.19144446,-0.3466094,-0.018275743,-0.10127995,0.1423142,-0.347498,0.0045371614,-0.2587563,-0.34835958,-0.17373711,0.030045185,-0.07179882
11813872.pdf,-0.44167042,0.10352361,0.53646183,-0.022840552,0.6104326,-0.015581083,-0.14562717,0.2935418,-0.005663509,-0.27198476,-0.042175714,-0.30708268,-0.007968042,0.19747257,0.16042584,0.38193825,0.23595534,0.0589052,-0.24869937,0.33153194,0.15791354,-0.16857441,0.13088267,0.7360352,0.36598933,-0.035082027,-0.15452239,-0.11812936,-0.26038018,-0.15356398,0.50641924,0.080559626,-0.16830458,-0.26081783,0.23882288,0.027511079,-0.31151232,-0.024353858,-0.2957312,0.24372831,-0.43468392,-0.28782648,0.028755995,0.06549586,-0.40642625,-0.352954,-0.043437894,0.004670593,0.05583632,0.041492093,-0.48784804,0.32043815,-0.21838194,-0.40382236,0.29101795,0.81206274,0.06319209,-0.6099277,-0.43534717,-0.3741179,0.15214825,-0.1907298,0.1008538,-0.3311317,0.29429653,-0.0473193,0.05321163,0.32186776,-0.74811363,-0.05147858,-0.2587795,0.03880193,-0.30263227,0.014768727,-0.4250525,-0.17406061,-0.04429255,0.5679748,0.0709415,0.09002834,-0.24539413,0.2223879,-0.2862712,0.40321654,0.13719137,0.27961785,0.3279171,0.3504718,-0.44818014,0.49411416,0.34471774,-0.3906473,0.26846075,0.22599825,0.24118304,0.12578055,0.16572852,0.09114614,-0.1593176,0.094757944,0.16399835,-0.30536768,0.04111319,-0.1086971,0.02868672,0.054908596,-0.019936286,0.17681342,-0.27304056,0.37273866,0.043883357,-0.21942818,-0.11540007,-0.55404425,-0.062196873,0.059920527,0.03576329,0.2248602,0.2773032,0.11115316,0.16142528,-0.032684892,0.16383526,0.9534317,-0.057660397,0.03804388,-0.19074926,0.3978384,0.11138393,-0.01864107,0.044369362,0.17994133,-0.13153164,-0.015938852,-0.32963383,0.3761812,-0.2002618,-0.32304004,-0.27903858,0.21407916,-0.06476885,-0.5536937,0.56819105,0.046704862,0.11960176,-0.11099391,0.006758338,-0.075051405,-0.06226688,0.22622202,0.0922206,0.0070465878,-0.23969693,-0.30747998,-0.15664661,0.12881865,-0.3543839,0.08341225,-0.107831605,-0.093571395,0.2992156,0.21377689,-0.30555546,0.18908316,-0.026012924,-0.16397995,-0.04789132,0.2434319,-0.36020058,0.17844433,-0.036536485,-0.02816251,0.6702993,0.18510354,0.2795502,0.09880093,0.2767132,-0.18046086,0.14861196,0.14070311,-0.6274756,0.29450107,0.012126019,-0.19475517,0.18780535,0.05958078,0.21974362,-0.31846407,0.22085664,-0.23026797,-0.45408094,-0.3944726,-0.17660153,-0.07043602,0.35725564,-0.5435109,0.08241342,0.034431398,-0.49533918,-0.15961842,0.22572927,0.16681297,0.042626027,0.08044393,-0.15987416,-0.52961385,0.11684529,-0.48549205,-0.34624156,0.07128831,-0.30155733,0.141438,-0.07292962,0.1003366,-0.027221724,0.021925814,-0.25942054,-0.104123645,0.17724025,0.08587356,0.32943538,0.07991907,-0.47836947,0.6617688,-0.32870233,0.52465993,0.13673887,-1.1253538,0.54242873,0.31982872,-0.005289778,-0.34645236,0.5312064,-0.5401904,-0.0006841142,0.08235073,-0.29257214,-0.23105545,0.24029803,-0.29302013,-0.33206508,0.6238932,0.133838,0.051667392,0.2678346,-0.23458083,-0.1862998,-0.15173386,-0.20183234,-0.30379158,-0.55050266,0.10595675,0.0472424,-0.4816664,-0.15599258,-0.37621677,-0.2146862,-0.44177303,-0.23097995,0.05011626,0.1528939,0.22262731,-0.06562987,-0.03834081,0.030066878,-0.59472454,-0.0483975,0.18864274,0.3445151,0.19353451,0.06222828,-0.03377557,0.0570428,0.6782919,-0.20295373,-0.33389875,0.16920324,0.07989633,-0.046488028,-0.2597936,0.23993295,0.4088583,-0.34882432,0.09460839,0.047187038,-0.0008615162,0.31123754,0.107500404,-0.24282672,-0.18786703,-0.048636485,0.1307269,-0.6681268,-0.14211164,0.5815622,0.2260148,0.094144,0.19453554,0.15659772,-0.018490931,-0.31953812,-0.22746494,0.28154027,0.084689155,0.20506895,0.13050792,-0.016605914,-0.56511766,-2.8247135,-0.2627319,0.05003339,-0.29692525,0.24589205,-0.21363485,0.16707706,0.051278077,-0.4190597,0.030333288,-0.051837873,-0.17990816,0.10809389,0.099706054,0.15443528,0.2141248,0.07600649,-0.18499109,0.05585672,0.40177977,-0.18578431,-0.75927407,0.08176361,-0.052586813,0.2480428,0.22785386,-0.5870185,-0.015796179,-0.27978766,-0.29181433,0.083695315,-0.3380335,-0.19778636,0.30503252,0.097365856,-0.1391518,0.07294469,-0.35614932,-0.22765934,-0.516832,0.1642411,-0.73721266,-0.023387644,0.09213483,0.758957,-0.3534817,0.2271094,0.069918916,0.124763444,0.08179874,0.22242066,-0.0037380774,-0.40467682,-0.34252667,0.030696433,-0.21346718,0.4932273,0.44450215,-0.22477204,0.14649299,0.0913611,-0.20667177,-0.38206583,-0.3736921,-0.15449917,-0.12270406,-0.67826843,-0.3846053,-0.16945155,-0.15865637,-0.05088748,0.56544757,-0.21046612,-0.27486342,-0.12918437,-0.52713865,0.4086584,-0.09648018,-0.047713798,-0.32994395,-0.23973073,-0.4577108,0.30882436,-0.06875877,-0.17802183,-0.023377169,0.043909833,-0.24547914,-0.36269557,-0.48763934,0.3016254,0.06674224,0.4097084,0.13968417,0.5211507,-0.100563824,0.36141604,0.015848344,0.03315738,-0.45733422,0.041854117,0.18019307,0.5414931,-0.18251255,0.011092136,0.07203862,-0.2679791,-0.04077392,0.3361094,-0.029814448,0.22573797,-0.15154338,0.2781244,-0.3404423,-0.15564921,0.10698825,0.08482267,0.6945729,0.08618131,-0.28251773,-0.13483249,0.38371378,-0.08361291,-0.13734463,-0.2869894,0.06294763,-0.22964025,0.42583272,-0.019781392,-0.17841145,-0.2674871,-0.117181644,-0.21238714,0.24682984,0.2879998,0.023308802,-0.00271241,-0.40472084,-0.010410831,0.19992897,0.22298384,0.3821758,0.19063964,-0.23235112,-0.030350383,0.28527248,-0.16646707,0.42057177,-0.18864419,0.15502934,-0.69664156,-0.33273715,-0.15700915,-0.39778966,0.067863,0.40159446,0.16297819,-0.15213387,-0.013260928,-0.47534513,0.37774456,0.18864769,0.14636962,-0.025161564,-0.038105153,0.75651014,-0.041763414,-0.09565449,0.012580849,0.008453701,-0.2223208,-0.3559373,0.054303955,-0.54570055,-0.1404775,0.41792786,0.100669734,-0.30370492,-0.2034309,0.2878328,-0.017375186,-0.14601694,-0.3315792,-4.7128182e-05,0.43631622,0.14252374,0.26693332,-0.51981497,0.07372964,0.10039086,-0.026373884,0.48556328,0.038200624,0.16320279,-0.046029318,-0.19939975,0.62726563,-0.1420473,-0.15258327,-0.04836923,0.07483457,-0.24499755,-0.33060598,0.12609369,-0.013346799,-0.36567056,-0.02050472,0.24362884,0.22392409,-0.013598778,-0.44314232,-0.2605907,-0.34854653,0.061445188,0.15985325,-0.45618582,0.03476707,-0.0677121,-0.57523686,0.19133756,-0.034896977,-0.10746869,0.14700389,0.065246776,-0.23785496,-0.12107149,0.18646982,0.19711924,-0.34969813,-0.264813,-0.031215943,-0.87657475,0.17948288,0.13458017,-0.12546526,0.27534616,-0.07523428,-0.7804447,0.20176834,-0.34426284,-0.24928443,-0.016223894,-0.19921848,-0.4738366,0.016150605,0.026786186,-0.24308744,0.50557715,-0.27640438,0.44978607,-0.05314032,0.06379698,0.12294941,-0.12028761,0.24367505,-0.42357,-0.33733398,-0.25381115,-0.4456314,-0.31155014,0.014438388,-0.313404,-0.14013085,-0.036195457,0.4875912,0.185563,-0.15117316,-0.25209847,0.17203489,-0.49314886,0.10868649,-0.31998828,0.04292611,-0.19444944,0.13610274,0.026159186,0.1612303,-0.44914493,0.52705944,-0.20530826,-0.5011403,-0.19196638,0.0991114,0.14650194,0.3763548,-0.44245976,-0.04583164,0.16385941,0.15110739,-0.0834965,0.18875463,-0.12892932,-0.14439821,0.17347452,-0.5215446,0.08698727,0.7882496,0.11107805,0.13002294,0.31002098,0.26983577,0.32490653,0.48574966,0.069256514,-0.10224709,0.3382355,0.05739392,-0.50268704,-0.045147836,-0.2785478,-0.16339171,-0.3550688,0.6966071,0.30750793,-0.43439502,-0.36901754,-0.20987529,-0.08322556,0.32972056,-0.050829545,-0.08953281,0.034543756,0.4829387,-0.1086234,0.4412742,0.54578614,-0.16044255,-0.19186033,0.0058648833,0.25498873,0.06259325,0.35712695,-0.3052674,0.3312842,0.070517525,0.24857149,-0.055184126,-0.010290026,0.16444716,0.056751646,0.2725676,-0.03633699,0.41107833,0.49759537,0.12680572,0.342287,0.4095118,-0.037194073,0.49411014,0.6084738,0.33157474,0.13827643,0.125931,-0.060395874,0.10834583,0.08970642,0.16633832,0.45817363,0.15985394,0.90514696,0.3670254,0.27041498,0.7751783,-0.6950097,-0.45983243,-0.025139544,0.58643115,-0.54846025,0.021203972,0.16305998,-0.15901625,0.36331964,-0.4651971,-0.1633783,-0.0071513467,-0.09420868,0.032034256,-0.17403701,-0.12916563,0.24410659,-0.118471175,-0.16428247,-0.35280472,-0.16441116,-0.25915888,-0.17934392,-0.041754164,0.039446358,-0.2136309,-0.37686712,-0.048574686,-0.057262883,0.41087234,-0.16219535,-0.103495196,-0.22492431,0.24875242,0.18728584,0.7120194,0.16133863,0.19805178,-0.26738027,-0.1475186,0.11292985,0.1583403,0.09605022,-0.05110568,0.50080264,-0.39295387,-0.22764587,0.065590255,0.27657035,-0.44762176,-0.06965993,-0.12968367,0.054760277,0.099419236,0.30286703,-0.36065415,-0.034918405,-0.16702665,-0.5788283,0.32864624,-0.152112,-0.38289618,-0.0089857355,0.28734392,0.27487263,-0.17154588,-0.07598237,-0.16235414,0.07772282,0.0024329145,0.296472,-0.1193545,-0.118405215,-0.28584248,0.23871902,-0.1657468,0.27523836,0.0746299,0.41688246,0.022944033,0.019389842,0.25678152,0.081751265,-0.27052498,-0.37605953,-0.14741634,-0.11880215,0.014104631,-0.16725747,0.17005858,-0.3644215,0.06739293,-0.2558566,-0.13024157,-0.41742826,-0.1525694,-0.19991726
12341902.pdf,-0.508252,0.21954252,0.22310251,-0.03487382,0.43706554,-0.07509715,0.06481361,0.46155787,-0.21655312,-0.4889138,0.09964953,-0.19716913,0.10866868,0.21695805,0.1542046,0.38323045,0.44537696,-0.021196706,-0.33154052,0.19141659,0.01918178,-0.22393283,0.1974679,0.773849,0.42201883,0.21608911,-0.060314678,-0.06522544,-0.04496078,-0.16628307,0.60775596,-0.16998008,-0.024921294,-0.14694929,-0.058751203,-0.15277669,-0.18293503,-0.19449213,-0.105292946,0.106934294,-0.3980438,-0.2724095,-0.11675411,-0.20052212,-0.20814836,-0.28436077,0.2036457,-0.08420269,0.16929549,-0.018173352,-0.48314488,0.20386153,-0.043762784,-0.35147303,0.26875156,0.6004846,-0.15285808,-0.25158596,-0.59872377,-0.3353832,0.26659757,-0.12485683,0.16345441,-0.36388955,0.13244149,0.09498158,0.21427563,0.3260898,-0.64425373,-0.07829541,-0.17428012,-0.027699169,-0.11501704,-0.0055560907,-0.34992838,-0.3183029,0.021504812,0.25222734,-0.0699667,0.10138627,-0.12736104,0.407111,-0.28765434,0.368276,-0.007224489,0.1766651,0.24550545,0.15850474,-0.18044528,0.5637919,0.07175736,-0.27397007,0.1546984,0.15221469,0.268606,-0.11356159,0.43652484,0.09259604,-0.2405508,0.35984772,0.26545143,-0.13149041,0.059684195,-0.099469334,0.0895166,-0.08788559,0.33549106,0.19681582,-0.510049,0.264521,-0.11831338,-0.3183442,-0.27570087,-0.318259,-0.011434684,0.06334418,0.24375609,0.13853711,0.0077639204,0.12385784,0.13896042,-0.10835756,0.28498447,0.68827045,-0.04466971,-0.07972205,-0.21677929,0.108297646,-0.22854397,-0.1760594,0.16560736,0.1482205,-0.007175781,-0.041530587,-0.32005382,0.20366165,-0.22394389,-0.3135413,-0.44484484,0.3750934,-0.034650758,-0.32730645,0.4496547,-0.1220696,-0.017093426,-0.23585406,0.046031978,-0.0013306001,-0.103111446,0.1663022,0.23922884,-0.06036304,-0.08425653,-0.28389996,-0.16273361,-0.012033671,-0.5887824,0.32149243,-0.051260844,0.04018712,0.22353318,0.020666266,-0.19917648,0.2732902,-0.14598095,0.2124899,-0.21256238,0.30082124,-0.25294727,0.31418434,-0.070236936,-0.04252763,0.4833024,-0.07657701,0.0150169805,-0.13147436,0.29805833,0.02625912,0.03967999,-0.033288196,-0.66360414,0.24821106,-0.06758781,-0.05028405,0.22147532,-0.21190976,0.070292845,-0.1687928,0.17076184,-0.08806514,-0.2062231,-0.47389713,0.010235938,-0.060605317,0.30746967,-0.17680559,-0.010313693,0.05930324,-0.48714155,-0.058181707,0.20051333,0.050952088,0.15206589,0.2195208,-0.18774405,-0.33175698,0.0836172,-0.12298013,-0.11962219,0.35323963,-0.37963557,0.20672232,-0.049062494,0.16985297,-0.033580005,0.04101149,-0.16385192,-0.09193033,0.22912374,-0.11117682,0.1337499,0.15002431,-0.4322211,0.47321248,-0.123020075,0.39157066,0.030636415,-0.89472157,0.3670404,0.48838443,0.14267024,-0.4528951,0.69770956,-0.2278902,-0.020226054,0.072910324,-0.4121908,-0.2832527,0.06586716,-0.32573354,-0.19549312,0.46632862,0.19695517,0.17946239,0.19435778,-0.04860071,-0.059132114,0.08809741,-0.022977363,-0.16585743,-0.57757235,-0.15539931,0.039489493,-0.30888495,0.0061929133,-0.35499415,-0.23285067,-0.396132,-0.02892155,-0.1960107,0.3113531,0.06757396,0.040129438,0.20007876,-0.13801922,-0.54956335,0.17096248,0.20181048,0.21322906,0.14697036,0.08249928,-0.13968873,0.2840119,0.54736316,-0.29577306,-0.103852615,0.17967981,0.13324465,0.0021364707,-0.34656486,0.26464874,0.32416826,-0.35508728,0.13873324,0.035188943,-0.100897424,0.28339,-0.098348446,-0.20597419,-0.2235018,-0.079252645,-0.06438526,-0.43692678,-0.29906565,0.37147492,-0.065806895,0.098510176,0.16355664,0.20905074,0.08877638,-0.30439556,-0.29518002,0.082295805,0.07492818,-0.007215053,0.23449937,-0.009784482,-0.53036284,-3.5586147,0.18385787,-0.061306164,-0.34672022,0.27987775,-0.11921324,0.18808053,-0.14852801,-0.3058404,0.21307793,-0.09809235,-0.1339542,0.41571528,0.30771542,0.12512541,0.09865302,0.1471778,-0.367952,-0.019462338,0.41771233,0.02718158,-0.76338446,0.12771505,-0.2027326,0.37816703,0.33046046,-0.40622705,-0.09186787,-0.42022026,-0.20213231,0.18085694,-0.26540253,-0.03208488,0.22169203,0.122348204,-0.048998535,0.11917108,-0.3371905,-0.23424229,-0.65753543,0.14061202,-1.0016005,-0.15401685,-0.0047739353,0.5845027,-0.05685775,0.15568662,-0.15865457,0.044038415,0.2211515,0.096236214,0.1155314,-0.21293584,-0.059462164,-0.14232674,-0.19755352,0.47301608,0.32118154,-0.29411262,-0.2817738,0.07712898,-0.2889071,-0.4643222,-0.2124907,-0.1385312,-0.09082537,-0.50683206,-0.10689762,-0.03439531,-0.13435733,-0.054267384,0.44430548,-0.37113202,-0.34882933,-0.14024311,-0.5364734,0.3340637,-0.11364101,-0.06023969,-0.13802853,-0.044925667,-0.28823733,0.18200833,0.15055254,-0.079034954,-0.20592408,0.14455593,-0.04159428,-0.38009065,-0.5741024,0.36868986,0.15708831,0.15558857,0.20608051,0.34251606,-0.038715728,0.2131414,-0.06868436,0.048410933,-0.56703055,0.19289811,0.2336567,0.52252597,-0.026778534,0.11375768,-0.122025885,-0.16761996,-0.090375364,0.21054369,-0.051655598,0.24309939,-0.3650748,0.37974226,-0.28466433,-0.06522048,-0.011826098,0.16285923,0.47960317,-0.009446317,-0.10898485,-0.020131547,0.35924965,-0.07008127,0.16835058,-0.2638233,-0.056900434,-0.19705927,0.24859694,-0.14066282,0.053316027,-0.0029991772,-0.0836675,-0.20648427,0.4037305,0.11904397,0.0146911945,-0.04768981,-0.6571394,0.019247193,0.23699433,-0.0046349913,0.2871392,0.04930587,-0.15101779,0.100586236,0.38224456,-0.03933713,0.26520488,-0.22455509,0.07020385,-0.50343347,-0.21513373,-0.28155828,-0.29445177,0.06316869,0.38066122,0.13748589,-0.21550018,-0.03581325,-0.28439844,0.14187068,0.07935946,0.15259182,0.11321063,-0.076909974,0.68778324,-0.069070786,-0.12311642,0.09078334,0.1720938,-0.06497198,-0.3042373,-0.08383781,-0.4897188,-0.023856994,0.33201864,0.08238876,-0.16385128,-0.13563529,0.23494443,-0.09883389,-0.21762516,-0.20885222,-0.13369015,0.40193856,0.16947776,0.18424842,-0.50612634,-0.023542704,0.04275363,0.106496274,0.17853951,-0.22008573,0.18279785,-0.38750094,-0.09407481,0.3725225,-0.22508843,0.0473927,0.24289602,0.14014708,-0.2582746,-0.25800657,0.105050154,-0.05277874,-0.19374134,-0.05085584,0.18824187,0.05168332,0.014481518,-0.48020065,0.070168234,-0.19006673,0.09039148,0.08072521,-0.5580057,-0.07956045,-0.19321759,-0.44627684,0.030240204,-0.14937608,-0.09746756,0.20469676,-0.14199771,-0.45511365,-0.18076731,0.10947238,-0.032282375,-0.099879,-0.150455,0.0047618244,-0.98223865,0.2304078,0.007197216,-0.27119076,0.14945263,0.005808346,-0.6114447,0.29661003,-0.111172386,-0.14789426,-0.008759522,-0.06549178,-0.2845644,0.16787854,-0.13497683,-0.16141343,0.32486236,-0.049003765,0.6327665,-0.19340202,0.056249313,0.11632157,-0.2657665,0.17093644,-0.3753844,-0.31420237,0.017573826,-0.044682875,-0.26813608,-0.07811876,-0.205375,-0.24188839,0.18223111,0.41279674,0.07621211,-0.2897355,-0.08127218,0.08252323,-0.5576834,0.19960389,-0.055754986,-0.11471747,-0.18402787,0.35697216,0.026675541,0.12706195,-0.31013688,0.59078795,-0.46763736,-0.2815034,0.066823035,-0.08007311,-0.050427232,0.3407753,-0.479096,-0.17537484,0.31117588,-0.00015387684,-0.13075173,0.40649617,-0.17370051,-0.18836048,0.14670987,-0.40988308,0.04805663,0.6978229,0.25672448,-0.05201918,0.16444236,0.11543992,0.13211885,0.21838325,0.12305187,-0.41397342,0.054506388,0.32941598,-0.4485144,-0.009467024,0.15748137,-0.08785805,-0.45705068,0.640472,0.28049284,-0.51406914,-0.43332744,-0.13802895,-0.03468222,0.20894724,-0.0611786,0.15452455,0.022755913,0.4394502,0.02825531,0.20967849,0.5838984,-0.04075894,-0.33008224,0.07292929,0.29025662,-0.08197777,0.36661595,-0.27800536,0.2737139,0.05671899,0.111811,-0.06003647,-0.016109187,0.12584493,0.20324837,-0.02660924,0.3443342,0.6762598,0.45490077,0.48358828,0.27899185,0.3474483,-0.02960736,0.82504344,0.27840686,0.15412682,0.15134779,0.15638846,-0.04479595,0.21037388,0.2924676,0.1830144,0.16681282,-0.11059367,0.6687249,0.15380228,0.11796281,0.52756,-0.42898494,-0.05968195,-0.08259799,0.46593446,-0.47118032,0.011931419,0.16668394,0.031439975,0.024396889,-0.37740123,-0.44886875,-0.13710645,0.41640386,0.004004255,-0.25941092,0.023855243,0.14551218,0.0473598,-0.09649029,-0.29621482,-0.38328195,-0.07258959,-0.09214242,0.05068301,-0.11399393,-0.07529848,-0.26021332,0.12973058,-0.04554552,0.19042972,-0.063063964,-0.029864918,-0.05820628,0.4790928,0.105891645,0.6180616,0.004665848,-0.010891568,-0.07508692,-0.20114642,0.11269671,0.030868191,0.010837205,0.18425739,0.25020975,-0.15256003,-0.15573354,0.076596804,0.5337605,-0.45770028,-0.11750308,0.044077337,0.19372582,0.094611175,0.20009574,-0.28583303,0.11238201,-0.21021006,-0.43120572,-0.06140335,0.27069303,-0.25372842,-0.0836579,0.05523853,0.1148785,-0.11564835,0.123239,-0.043069214,0.102926865,0.02543154,0.12762643,-0.03633207,-0.30224982,-0.3460092,0.07820628,-0.124686286,0.088745415,0.11246249,0.35364905,-0.0096855145,-0.027068086,0.51805294,-0.20598894,-0.05443807,-0.33906323,-0.003355287,-0.32802683,-0.24268454,-0.2689653,0.17103025,-0.38904977,-0.051031344,-0.4686243,-0.146259,-0.081841186,0.039449826,-0.1491508
12674256.pdf,-0.3064878,0.113995925,0.47320205,-0.075511724,0.49321902,0.13908997,0.14048678,0.19357942,-0.051282287,-0.22714081,0.006159321,-0.33033848,0.11096501,0.20491761,0.1030217,0.39162534,0.21966799,-0.1000436,-0.18263921,0.29462925,0.011833299,-0.21232817,0.22800054,0.7035398,0.38090324,0.11496603,-0.0039816266,-0.14255641,-0.22202376,-0.35197806,0.5896105,-0.035396535,0.10478604,-0.33632416,0.19042176,-0.09808585,-0.15285048,-0.17485102,-0.12065301,0.19043773,-0.3619098,-0.20191711,-0.0009456035,-0.03763673,-0.34276283,-0.29409707,0.07102419,-0.1173138,0.14493601,-0.030500002,-0.42257035,0.36042506,-0.25749418,-0.47581083,0.22876936,0.9631252,-0.043931708,-0.46539962,-0.4737733,-0.4057507,0.17721389,-0.14513974,0.15528433,-0.074349195,-0.022478297,-0.101883575,0.13776022,0.44115642,-0.53777105,-0.24769521,-0.24855533,0.16293141,-0.13966268,-0.14025566,-0.26311833,-0.11855444,-0.04230576,0.45502535,0.103677854,-0.06428855,-0.20021655,0.29673105,-0.4490468,0.2763493,0.10402292,0.21718387,0.40703076,0.13298663,-0.35103843,0.82979643,0.30714482,-0.27619442,0.3398504,0.053126626,0.13678251,-0.034563705,0.21587765,0.037082456,-0.100815296,-0.024363764,0.25494525,0.0015119575,0.003485009,0.052975196,-0.088576905,0.09025806,0.06951158,0.17526285,-0.3942449,0.25638145,0.090518825,-0.3003132,-0.28076354,-0.38466316,0.05405951,-0.09982411,0.12118066,0.075231805,0.005901765,0.10872592,0.067211926,0.08672759,0.2208457,0.8756403,0.0012201378,0.006049663,-0.14438456,0.1705241,-0.09355963,-0.15052128,-0.03957713,-0.047370788,-0.19409013,-0.015352234,-0.14936428,0.20377299,-0.2970577,-0.25608587,-0.1801092,0.16637293,-0.09388348,-0.5651839,0.47908074,-0.10947341,0.121923365,-0.22916037,0.09401354,-0.02854257,-0.26844728,0.37883455,0.23779842,0.020179307,-0.024934445,-0.24180815,-0.11011876,0.14607805,-0.29713905,0.043854255,-0.18627626,0.023587171,0.4563437,0.3349858,-0.3989936,0.22566986,-0.10657467,0.113203555,-0.17717256,0.24670461,-0.28622973,0.08686201,-0.0108699445,-0.034896806,0.5620009,0.050655153,0.2319917,-0.06355014,0.13895258,-0.09718622,-0.013124177,0.15981154,-0.5171072,0.3053408,-0.06766918,-0.09064338,0.21992984,-0.14750794,0.103359476,-0.28028172,0.25114045,-0.25437593,-0.20006499,-0.5309236,-0.070495225,0.0263507,0.24856937,-0.34045687,0.1318659,-0.076167606,-0.34245762,-0.21589509,0.16910541,0.23274134,0.15002783,0.13842905,-0.15820876,-0.36942965,0.31799334,-0.3576703,-0.19086342,0.080427386,-0.27085093,0.13844189,-0.043831352,0.1213806,-0.01871956,0.03666056,-0.1753603,-0.10968576,0.021943664,-0.021030877,0.090729386,0.150304,-0.3893971,0.57154083,-0.36387303,0.48424894,0.09296465,-1.0370905,0.22185877,0.38533998,0.048980158,-0.34479308,0.42847043,-0.4221085,0.13154456,0.08719232,-0.3211518,-0.07370484,0.27518433,-0.18017837,-0.15320913,0.5880548,0.27611667,0.18855059,0.08803303,0.10008137,-0.0448635,0.04585259,-0.06680822,-0.11768816,-0.6477492,-0.12134348,-0.010963187,-0.36583203,0.1048049,-0.42575762,-0.12581266,-0.6274985,-0.13459039,-0.058485836,0.33968577,0.1857982,0.032381646,-0.07588509,0.052335583,-0.63931787,0.10651609,0.22340065,0.232696,0.15206423,0.11398241,0.03901272,0.080611,0.4708379,-0.16949376,-0.18993431,0.31378454,0.107887015,0.021713506,-0.3227283,-0.067849085,0.15206361,-0.17892377,-0.014010628,0.1399768,-0.0712812,0.24914303,0.26544228,-0.14349309,-0.14926237,-0.043880444,0.18892741,-0.5659517,-0.21131422,0.5441582,0.11480911,-0.09716747,0.23129216,0.27485728,-0.037009712,-0.21864508,-0.22703233,0.17665166,0.06883245,0.12147349,0.10772314,-0.1507768,-0.56281006,-3.480239,-0.008223062,-0.0743729,-0.20240489,0.3487773,-0.22518429,0.19926696,0.0006157402,-0.32727718,0.04069594,-0.18146877,-0.14879143,0.20318688,0.15759978,0.2331262,0.10229167,0.1848338,-0.2527002,0.0706796,0.34437022,-0.19955339,-0.80470514,0.2521752,0.040155977,0.32098794,0.36832476,-0.4965323,-0.11588885,-0.23375559,0.02588613,0.16940066,-0.07408354,-0.15242784,0.3487798,0.1939967,-0.0631747,-0.026977327,-0.48607314,-0.3050018,-0.5562533,0.23373479,-0.70187974,-0.14949788,-0.08819805,0.6920591,-0.11721874,0.1920574,-0.09096578,0.086478546,0.0057916427,0.22953594,0.051187374,-0.3129676,-0.115228325,-0.0649325,-0.12590295,0.5073869,0.2203275,-0.386245,-0.118345216,0.09660767,-0.21494448,-0.24280529,0.012996387,-0.21399927,-0.11411895,-0.5580105,-0.19645478,-0.1814318,-0.21038112,-0.084233895,0.5886224,-0.19481964,-0.31618923,-0.21171248,-0.5011353,0.3428885,-0.053932156,-0.07551062,-0.16543537,-0.193546,-0.24997151,0.18942982,0.021459034,-0.1580273,-0.039827228,0.1555919,-0.07495271,-0.59202015,-0.5138801,0.17123522,0.026390715,0.24951464,0.14200237,0.31493592,-0.07338866,0.26478183,-0.22262639,-0.011102015,-0.32781017,0.031308353,0.24818379,0.6702609,-0.31952226,0.049475186,-0.10980557,-0.2280606,-0.13728414,0.19395277,-0.13515025,0.21375585,-0.29701957,0.17755955,-0.4256534,-0.07422503,0.055656217,0.19879232,0.7071594,-0.023113089,-0.17187746,-0.093076184,0.260089,-0.19840452,-0.15904115,-0.3755186,-0.03671883,-0.19818674,0.2687479,0.05610602,-0.06859785,-0.23197046,-0.20413527,-0.24099445,0.3240168,0.22859018,0.2294593,0.013530587,-0.48801297,-0.12197839,0.10080372,-0.002642287,0.30200267,0.17196326,-0.1259084,0.030461218,0.22289935,-0.1321438,0.37047327,-0.19653329,0.14382905,-0.6354963,-0.2862966,-0.11288309,-0.40019965,0.11958462,0.51446104,0.18026389,-0.18005091,-0.12172431,-0.5131413,0.25935498,-0.02200177,0.22567119,0.019304058,-0.111077376,0.7440383,-0.1848831,-0.048414033,-0.015829522,0.005212605,-0.22318791,-0.30293122,0.03300974,-0.45729864,-0.10441521,0.4820829,0.20281821,-0.19893406,0.003200693,0.25527087,-0.15882298,-0.24601603,-0.16461378,-0.0062673856,0.34668598,0.1958391,0.16765666,-0.4456761,0.026249295,0.25989705,-0.0407152,0.31296363,0.033476405,0.081125334,-0.007914079,-0.111415766,0.47843266,0.12590824,-0.09358276,0.17578806,0.107742816,-0.2774712,-0.46592748,0.022147447,0.023954997,-0.24814606,0.13984253,0.3753096,0.06572526,0.08035604,-0.31729525,-0.025650017,-0.42843175,0.15084283,0.0313717,-0.6353711,-0.18396717,-0.054073952,-0.4106074,0.040567458,0.17778464,-0.13928035,-0.018479828,-0.09687196,-0.14680666,-0.2202958,0.19295122,-0.014550663,-0.25868207,-0.10941075,0.17967805,-0.8307252,0.16390066,0.12230791,-0.14748313,0.09358522,-0.09327591,-0.79448974,0.3977311,-0.24553502,-0.3112705,0.05548031,-0.26301736,-0.3614257,0.13356917,0.03133433,-0.14767951,0.43155617,-0.00034439773,0.589981,0.15079865,0.08070462,0.2646246,-0.124788836,0.11001031,-0.32443327,-0.42549387,-0.0053294674,-0.23068872,-0.30816448,-0.115003034,-0.03290775,-0.1931555,0.023356471,0.31604475,0.24822581,-0.12188324,-0.090942666,-0.049794734,-0.3959254,0.28870812,-0.15226904,0.028934743,-0.0584791,0.17453893,0.08050439,0.116620585,-0.42093208,0.47808835,-0.28531992,-0.36368638,-0.15881333,0.06539928,0.24358927,0.3890085,-0.43170837,-0.26380396,0.35120958,-0.05468752,-0.02149459,0.5147519,-0.20596424,-0.24807923,0.026563592,-0.5909159,0.25483653,0.72851896,0.09871445,0.05219933,0.29497802,0.018742286,0.12521195,0.303662,-0.04720551,-0.396744,0.29653066,-0.012505854,-0.6801079,-0.16911566,-0.11638977,-0.1444282,-0.5887555,0.6182607,0.18989515,-0.40693855,-0.38961828,-0.22990423,-0.017225448,0.16228351,-0.041092157,0.065423936,0.1953355,0.63839483,-0.1671749,0.31876308,0.45531592,-0.0640211,-0.20380893,0.037704557,0.21502635,0.050148983,0.34583357,-0.25417882,0.2578228,0.08875109,0.13600127,-0.19196287,-0.11301442,0.052754313,0.09367532,-0.11960111,0.06955305,0.5701412,0.4175247,0.40679175,0.24624881,0.3073881,-0.16240656,0.73839176,0.55567837,0.19277522,-0.017185526,0.21922381,0.036970578,0.14822921,-0.0013775551,0.17912796,0.39533666,0.028611965,0.51379687,0.13821372,0.19198588,0.50461423,-0.5639161,-0.41896594,-0.046846896,0.46580207,-0.27760208,0.0037406795,0.31220514,0.009350218,0.14827223,-0.4168597,-0.26580825,-0.106777005,0.015278779,0.088524245,-0.30917954,-0.018724266,0.2620442,0.004988064,-0.38679203,-0.39771265,-0.28975046,-0.29236335,0.08996744,-0.07539954,-0.011478066,-0.06636742,-0.29587317,0.085874595,-0.046176217,0.21188551,-0.084695786,-0.18735158,0.040290635,0.16856167,0.08866705,0.67825437,-0.02348781,0.08088279,-0.24211383,-0.111933425,0.11752954,0.44539696,0.015112044,0.059924114,0.38658398,-0.3662591,-0.020227527,-0.011774972,0.20690238,-0.43742788,0.11034775,0.002978541,0.06584805,0.19245005,0.23466182,-0.36836356,-0.10567253,-0.08277948,-0.28876558,0.16902024,0.1827021,-0.35344675,0.040763177,0.115615085,0.13164124,-0.118727885,-0.06575003,-0.277132,-0.013072032,-0.044784844,0.20193133,-0.21720459,-0.20964766,-0.24765329,0.30286855,-0.08947146,0.38465583,0.24464016,0.16553122,0.10525698,-0.008176277,0.5108692,-0.05848844,-0.13067591,-0.4710355,-0.22694904,-0.3416342,-0.10638427,-0.13451391,0.16444224,-0.2128,0.129929,-0.39587772,-0.43139753,-0.26617527,0.034525402,-0.08855115
14140903.pdf,-0.3962293,0.21080138,0.07397299,-0.17039423,0.38827693,0.10699807,0.11339025,0.20240688,-0.09078616,-0.0333179,0.07650942,-0.32994497,-0.06363912,0.4818232,0.11825171,0.48883727,0.34782535,-0.033119407,-0.23573619,0.22788447,0.30861828,-0.1564272,0.24737129,0.82411456,0.37214768,0.028046783,0.015539279,0.03187293,-0.08033135,-0.21162504,0.5575737,0.2979796,-0.21149155,-0.04698146,0.09623821,0.042062275,-0.12153794,-0.30082804,0.007104721,0.36210933,-0.44855756,-0.22768559,-0.34460643,0.13954787,-0.25976408,-0.27415973,0.2615365,-0.0768413,-0.16974175,-0.16267759,-0.461351,0.07968483,-0.13577312,-0.34121746,0.20712052,0.8408555,0.01693337,-0.33374047,-0.35445425,-0.29451084,0.13308221,-0.115191266,0.17450829,-0.17070016,0.170736,0.07341477,0.106429875,0.27072313,-0.6706064,-0.058198553,-0.47787815,-0.042971864,-0.25987425,0.06292849,-0.040361166,-0.40184686,0.29830003,0.43564564,0.22044522,-0.067669466,-0.009686649,0.15980537,-0.19608021,0.25674295,0.1686394,0.3207926,0.09849222,0.19591726,-0.48813254,0.48826468,-0.055198528,0.0674576,0.023517821,0.17423539,0.27436495,-0.17872961,-0.061390415,0.060447037,-0.1609762,0.21908523,0.12579727,-0.2835663,0.1358893,0.2670833,-0.46510404,-0.15732437,0.032700315,0.13747619,-0.35799676,0.43334725,0.10244738,-0.1142326,-0.14721414,-0.3694551,-0.043264255,-0.20072125,-0.068692274,0.1642825,0.012839641,0.23812833,-0.024934873,0.03772438,-0.012641259,0.98077506,-0.110447496,0.17744759,-0.26583278,-0.0020638686,-0.115128264,0.07319393,0.41727686,0.17079085,0.08299946,0.05049965,-0.17048866,0.2189317,-0.013483458,-0.38630477,-0.13663122,0.015949816,-0.22767246,-0.50516784,0.23143847,0.0006870162,0.14089988,-0.17677394,-0.18918335,0.08203364,0.18169913,0.38912815,0.19939062,-0.03698498,-0.049147658,-0.016618185,-0.21336088,-0.122756295,-0.45055902,0.25472507,0.03991173,-0.04426631,0.35221064,0.07704699,-0.2091563,0.22615336,-0.055482354,0.0015259078,-0.016948428,0.19075784,-0.3262306,0.099565536,-0.06551564,-0.42992774,0.44116032,-0.21333821,0.010258138,-0.011811011,0.27690357,-0.16062884,0.2105411,0.28578728,-0.6316384,0.20597348,-0.052505083,-0.16410246,0.05934322,-0.2550454,0.278987,-0.26389262,-0.026419587,0.05473704,-0.30659306,-0.47936314,-0.23315237,0.19506924,0.29237488,-0.23909542,-0.047985844,-0.06923769,-0.44210488,-0.10507519,-0.11923689,0.04645084,0.2993613,0.017616566,-0.13919738,-0.08187485,0.048065573,-0.3304312,0.078177154,0.36127985,-0.13183558,0.24433222,0.16672407,0.18678449,0.10962285,-0.008968603,0.018061932,0.101808764,0.23530638,0.031038007,0.065156184,0.17664172,-0.3518948,0.5872133,-0.058729094,0.5568212,0.27798945,-0.7938434,0.23406304,0.4711663,0.19183189,-0.45191714,0.8065394,-0.21135677,-0.18257366,0.09963064,-0.15018693,0.06825781,0.14835462,-0.40339553,-0.15297665,0.47110522,0.21707016,0.1351057,0.020435836,-0.058089018,0.30609483,0.15732862,-0.38709348,-0.1970469,-0.21310207,0.05400435,0.048090227,-0.44618005,-0.060132544,-0.48648536,-0.21788841,-0.5106485,0.13988839,-0.071911186,0.2218595,0.10277818,0.06539918,-0.0182857,-0.05365543,-0.5533118,0.22087516,-0.11682359,0.2740432,0.12216074,0.16761094,0.18454732,0.09353402,0.5435831,-0.44828764,-0.2090883,0.21607462,0.19549002,-0.16130322,-0.13045387,0.22696729,0.30666238,-0.17439432,-0.04462681,-0.33181792,-0.028992776,-0.043525666,-0.043606184,-0.29968196,-0.5014012,-0.15172926,0.3857516,-0.33066913,-0.1169269,0.14430422,0.016746908,0.18993793,0.07411412,0.15724474,-0.05377399,-0.08048244,-0.27980366,0.15588446,0.34847754,0.18480611,-0.04767981,0.1894664,-0.4286163,-3.2378566,-0.057617754,0.082166746,-0.11662088,0.5587281,-0.23242435,0.16706112,-0.10197429,-0.3622235,0.18032691,-0.22139044,-0.1885358,0.05696302,0.22725795,0.26284716,-0.19759652,-0.0031390805,-0.39234447,0.0019097365,0.61000407,-0.12661603,-0.6187498,-0.10216585,0.07862246,0.21018526,0.35488826,-0.45694494,-0.048445776,-0.39439595,-0.34729016,-0.049743596,-0.36443594,-0.07769248,0.17646876,0.35094512,0.28847066,0.004691217,-0.11829325,-0.21306387,-0.18569583,0.13664557,-0.9128176,-0.17161702,0.050921366,0.6668441,0.002752412,0.1599293,-0.08809002,-0.060312383,0.01886892,0.08897977,0.100499295,-0.10058422,0.03444748,-0.06118884,-0.12062024,0.29601884,0.32036644,-0.20417964,-0.44530755,-0.018386185,-0.0548312,-0.43254977,-0.07631208,-0.19084299,-0.09360099,-0.45237488,-0.2146753,0.03845037,-0.13401942,-0.17238197,0.31444764,-0.3267933,-0.30370808,-0.187824,-0.5713251,0.22683892,-0.1514805,-0.14947136,0.059743613,-0.18967941,-0.4129879,0.1568152,-0.020631885,-0.017176256,-0.48447078,0.18370773,-0.2095404,-0.34019455,-0.52482283,0.2411809,0.1642272,0.18891361,0.23010594,0.26256302,-0.11636326,0.26226467,0.29564855,0.28190678,-0.42915368,0.20046604,-0.11926033,0.529127,-0.34259292,0.23009443,-0.046700288,-0.40257078,-0.19038257,0.048475068,-0.24195878,0.18409276,-0.28375491,0.28323126,-0.16931242,0.12078403,0.09842175,0.13498327,0.6184788,-0.16391593,-0.07571788,-0.228706,0.48697096,-0.16014165,-0.2741045,0.023688138,0.105570555,-0.3246613,0.08866525,-0.22320202,-0.12129319,-0.08086913,-0.0165474,-0.1192555,0.23614606,0.20396207,0.107407,-0.17338434,-0.57313347,-0.36295348,0.21262601,0.07470922,-0.10695805,0.32215768,-0.10441208,0.13250276,0.3421911,-0.095441274,0.19530407,-0.19719923,0.15063627,-0.33185753,-0.28103018,-0.24798939,-0.3653326,0.02681498,0.305677,0.3363291,-0.14538224,0.03223632,-0.62983847,0.33478397,-0.046659682,0.19218245,-0.09170241,-0.14342561,0.72273743,-0.2098612,0.017025853,-0.011440115,-0.068942204,-0.23342192,-0.32617968,-0.14390288,-0.53454655,-0.09908056,0.3374194,0.0791087,-0.18866971,-0.27011228,0.2408436,-0.009287901,-0.19389284,-0.05175788,-0.23751035,0.34344727,0.21141127,0.13821153,-0.5246217,0.16027653,0.017239615,-0.0074588964,0.23390001,0.26659828,-0.019311361,-0.2730679,-0.11952818,0.3449043,-0.10179137,-0.07791815,0.022402972,0.070422746,-0.0825331,-0.31167072,0.32279584,0.089775756,-0.28198755,-0.10461216,0.33763868,0.10225353,-0.07545263,-0.5213166,-0.1747129,-0.29001015,0.015560694,0.105559535,-0.24488984,-0.10197504,-0.2933812,-0.2764295,0.25814477,-0.163645,-0.14518481,0.07567629,0.04000628,-0.2481956,0.013550866,0.17090343,0.09366651,-0.23366973,-0.17914267,0.12675117,-1.0090283,0.04948623,0.22283272,-0.01689972,0.08731581,0.08933303,-0.50880826,0.16541371,-0.12776747,-0.033781864,-0.007830127,-0.27667433,-0.27447048,0.048564434,0.18185614,-0.119305536,0.39681435,-0.017576216,0.43125796,0.08594382,-0.012974805,0.029436631,-0.27015266,0.18021987,-0.38057303,-0.03214558,0.11363588,-0.15093699,-0.25367963,-0.17258587,0.060183078,-0.08829642,0.0845532,0.07752589,-0.031965204,-0.20796931,-0.023013327,0.35947877,-0.32404768,0.05830783,-0.26569992,0.013045289,-0.04939037,0.06569503,0.15406975,-0.091073915,-0.41528326,0.24495217,-0.4393527,-0.33898586,0.040171925,-0.01448511,0.08242483,0.44080973,-0.56005263,-0.15241471,0.23439157,-0.027336903,-0.06863686,0.48087454,-0.12952211,-0.14929385,0.033096984,-0.5070704,0.09870143,0.4247601,0.2226494,0.041791555,0.026332278,-0.014614012,0.2504499,0.20818426,0.30686554,-0.14585587,0.13950771,0.06537826,-0.56102514,-0.14377967,-0.04592038,-0.031490162,-0.3455124,0.6061962,0.16377686,-0.30586612,-0.13154534,-0.30044198,-0.2211588,0.12813546,-0.08151979,0.26092854,0.0077826306,0.5370672,0.041305467,0.44239825,0.44116288,-0.18729791,-0.17333832,-0.19599608,0.45598012,-0.06407775,0.42660683,-0.1800794,0.4066171,0.15760747,0.22446261,0.00047768652,-0.14082083,-0.009968411,0.050057217,-0.026100844,0.2252408,0.28877273,0.32687747,0.4784912,0.25141513,0.1515702,-0.049497455,0.5098326,0.501828,0.10150231,-0.06506245,0.05177012,-0.091606505,-0.042630192,0.22083052,0.2706754,0.15257424,-0.30414417,0.6665742,-0.0028017424,0.15301119,0.78425705,-0.35782695,0.048304588,0.061457068,0.35740018,-0.3571982,-0.033912964,0.11032488,0.044832528,-0.09071034,-0.02697552,-0.11604179,0.15357648,0.37733585,0.02120774,-0.22011633,-0.123523585,0.28914025,-0.29718593,-0.28628814,-0.39818096,-0.11421626,-0.19176319,-0.352058,-0.35672098,0.06547608,-0.3890233,-0.30735087,0.060251772,0.013746664,0.2573157,-0.069434635,-0.2972759,-0.0990841,0.5369425,0.046560276,0.41943038,-0.049239416,0.20517743,-0.24136057,-0.19719455,-0.04198077,0.14423546,0.025352417,0.015089953,0.4627647,-0.35914886,0.16180888,-0.040164642,0.37116873,-0.43651837,-0.05347828,0.058535367,0.30797198,0.06860651,0.04132879,-0.49455935,-0.09007811,-0.16759443,-0.63958305,0.07208553,0.07475493,-0.20388609,0.2647894,0.09780444,0.20777974,-0.1578114,0.06780167,-0.13705961,0.30877608,-0.024441043,-0.12114225,-0.047034897,-0.024502546,-0.1199754,0.49896693,-0.39583313,-0.052038893,0.05030261,0.2270722,0.0353733,-0.052969214,0.29154333,-0.2217106,-0.08427446,-0.5151226,-0.048401084,-0.35934395,-0.120229766,-0.11560801,-0.013863947,-0.15270361,0.0065708924,-0.5438342,-0.14918128,-0.112388976,-0.11249603,-0.066627905
15053703.pdf,-0.37617916,0.21988219,0.3338539,0.033744723,0.58499795,-0.03895927,0.25643426,0.2721114,-0.13148153,-0.2839015,0.076846205,-0.24456945,0.011943696,0.09650628,0.14000136,0.4936365,0.48982626,0.04293862,-0.27044183,0.36791378,0.15166333,-0.17314161,0.10938078,0.6526793,0.444754,0.07153939,-0.09815149,-0.20054609,-0.20024633,-0.24317743,0.51566243,0.030403573,-0.036623817,-0.31360012,0.20172405,-0.16699782,-0.08644711,-0.08122559,0.040538847,0.31661868,-0.4088084,-0.2626015,-0.18970521,-0.084645204,-0.20530719,-0.18340264,0.09732725,-0.009116359,0.08008959,-0.034979105,-0.50967515,0.35654092,-0.12791573,-0.2818799,0.06606027,0.68864834,-0.05821695,-0.55250674,-0.3883546,-0.51892114,-0.040370703,-0.079681374,0.16097844,-0.14064822,0.1346374,-0.021208385,0.16940673,0.36061004,-0.5689349,0.044256784,-0.28252792,0.07057834,-0.030641142,-0.040130205,-0.2602352,-0.15850021,0.06845639,0.3156005,0.112426355,0.0594131,-0.04825873,0.29934144,-0.05117386,0.38114235,0.22094133,0.18348725,0.287842,0.16430594,-0.44651034,0.3904541,0.0553153,-0.29985863,0.3980209,0.16770068,0.29806674,0.019215781,0.12273018,0.041968964,-0.25548306,0.06065282,0.12030262,-0.17082925,0.2670985,0.12428172,-0.19398056,-0.018024111,0.15268108,0.29031017,-0.57864213,0.49139568,0.153974,-0.30272335,-0.3326581,-0.49387217,0.061871104,0.13054265,0.28247058,0.33165315,0.060143743,0.07913523,0.14936548,-0.11995725,0.1803032,0.8647975,0.016410075,0.15022446,-0.108568616,0.029829938,0.037256323,-0.29748386,0.053982224,-0.048664156,-0.11887266,0.022356309,-0.17409137,0.22201107,-0.3539833,-0.18190455,-0.23948224,0.18214244,-0.08805093,-0.4509194,0.5313045,-0.0065561123,0.37486202,-0.1422743,-0.12223225,0.16101271,-0.095958315,0.45562556,0.25497532,-0.06706712,0.012870986,-0.1378245,-0.2874589,0.028037569,-0.27777502,0.16504127,0.11733227,0.0575516,0.33794057,0.11744851,-0.44124457,0.35818732,-0.10067414,0.032456066,-0.3269366,0.20994455,-0.21216239,0.18595281,0.13859482,-0.15025951,0.5822935,0.045094203,0.10527273,-0.116712,0.11082569,-0.18103147,0.05336035,0.13880968,-0.52792144,0.22592254,-0.19802187,-0.1413495,0.20607767,-0.19706158,0.07916201,-0.26978338,0.05589331,-0.2827918,-0.0572431,-0.36366078,-0.12570179,0.18256858,0.3056456,-0.059387967,-0.034573622,-0.15487772,-0.37569284,-0.14639921,0.29354495,0.013616944,0.17549096,0.20270926,-0.27127218,-0.4616192,0.34064347,-0.2723115,-0.34616664,0.08863434,-0.36840892,0.09861419,-0.10615528,0.41101968,-0.080573454,0.1227278,-0.097549245,-0.120443225,0.10989648,0.047542617,-0.0030122958,0.15075342,-0.42566836,0.4885909,-0.32692084,0.58746964,0.20041424,-0.82626474,0.057283238,0.43885374,0.054991014,-0.258227,0.36110055,-0.32170194,0.14339285,-0.1259958,-0.11901364,-0.17079146,0.47301462,-0.28757393,-0.31181347,0.39595538,0.28697702,0.22931693,0.09456709,-0.009508954,0.09313478,0.1459228,0.056866303,-0.24095327,-0.6968653,0.044428606,0.13189611,-0.30009314,-0.009930205,-0.5041186,-0.08002302,-0.5382018,-0.1520028,-0.06257445,0.1956228,0.28535116,0.10761498,-0.052526455,-0.13789025,-0.832484,0.18877499,0.25141513,0.41964126,0.11358896,0.06552894,-0.10527646,0.16439895,0.35494024,-0.3072284,-0.10787166,0.077750236,0.14008501,0.016470049,-0.4560691,0.06905359,0.4094775,-0.11444169,0.020659227,0.0133448,-0.05919862,0.36748928,0.14846419,-0.40841234,-0.23305705,-0.15165299,0.19050461,-0.46910495,-0.23407027,0.5077606,0.23588733,0.1778892,0.049848326,0.28662494,-0.089955926,-0.20796353,-0.31076634,0.10279733,0.07082417,0.17906111,0.26214892,-0.03498993,-0.6444911,-3.4499474,-0.054686427,0.008085374,-0.042116757,0.22910553,-0.2794352,0.34716117,-0.07949628,-0.44105282,0.31345224,-0.24773085,-0.1712334,0.22077608,0.3873737,0.25698274,0.057356022,0.16348717,-0.38839024,-0.22317989,0.31637985,-0.15602767,-0.5937593,0.087603115,0.12003073,0.48035425,0.26715606,-0.42834514,-0.062860146,-0.27953988,-0.13163465,0.1981897,-0.06681578,-0.3928559,0.14863393,0.02449158,-0.14606628,0.06781707,-0.32007733,-0.39584723,-0.3222584,0.15498999,-0.96406853,-0.17134544,-3.2894313e-06,0.6576928,0.02897545,0.2397244,-0.32409942,0.22864097,-0.011955529,0.07272695,0.08664121,-0.007507883,-0.17194518,0.04977434,-0.13036099,0.5222652,0.18114069,-0.39219028,-0.23252115,0.2519424,-0.06444655,-0.26775712,-0.092352286,-0.30553705,-0.2189483,-0.57503366,-0.16300097,-0.1902986,-0.10411533,-0.20323133,0.5529363,-0.34576118,-0.31400836,-0.014470093,-0.37192243,0.25285915,-0.21052915,-0.08986471,-0.11554249,-0.27618805,-0.39957976,0.009999558,0.192022,-0.18441518,-0.17865083,0.07854646,0.100577846,-0.3275056,-0.33842456,0.30277774,0.26978484,0.059428614,0.24674305,0.36329907,-0.024426147,0.27942613,-0.07361718,0.24900568,-0.44130772,0.10358314,0.20350435,0.72774994,-0.24025719,0.039562874,-0.08443167,-0.23728907,-0.09078994,0.28408468,-0.05662566,0.15554355,-0.3144744,0.20446333,-0.48442227,-0.04188867,-0.072425246,0.31112367,0.99196494,-0.07741739,-0.3433391,-0.09172987,0.36832952,-0.038531307,0.0073234513,-0.27012426,0.029489458,-0.25063446,0.229884,0.014321771,-0.0016517043,-0.13769636,-0.17230543,-0.11334582,0.39065152,0.37156624,0.08520043,0.0054832213,-0.6557642,-0.21038902,0.22967246,0.045843408,0.1658647,0.040060073,-0.27102968,0.11811717,0.26131964,-0.24998783,0.36610776,-0.29042637,0.3007769,-0.49862134,-0.20514034,-0.14939345,-0.31348464,0.17780244,0.35110062,-0.017940044,-0.12543154,-0.14962314,-0.3761475,0.19784574,0.008147929,0.22812828,0.14321603,-0.14886512,0.40407133,-0.2045422,0.014482832,-0.20418616,-0.0017719883,-0.049816467,-0.23738326,0.09435261,-0.44371635,-0.1519143,0.35664552,0.21711577,-0.16568725,-0.119928546,0.20276672,0.007677964,-0.38149166,-0.1563498,-0.15927806,0.22504239,-0.09198809,0.25953612,-0.3661641,-0.009238053,0.075086705,0.0034626005,0.0852141,-0.24856256,0.11854657,-0.1587672,-0.21252148,0.55383706,-0.086442694,-0.010371022,0.117240734,-0.08392778,-0.36958772,-0.5009346,0.06542747,-0.11133418,-0.26417252,0.025816564,0.30367455,0.16303581,0.054312922,-0.47856328,-0.044061255,-0.23597208,-0.18851909,0.2205036,-0.5159587,-0.3251245,-0.10686505,-0.4720923,0.03753368,-0.19188653,-0.09580976,-0.040810827,-0.035262946,-0.14410527,-0.17162855,0.06889099,0.060907,-0.18188143,-0.23814315,0.18474445,-0.8558439,0.012445301,0.08878896,-0.16272958,0.007931286,-0.12157951,-0.7638581,0.17334086,-0.09519424,-0.24431965,-0.1496845,-0.34557337,-0.5085695,0.15682594,0.022455782,-0.25319523,0.49391758,-0.0067034103,0.398557,0.21172786,0.044564188,0.12138538,-0.071028575,0.17589912,-0.4324992,-0.28266054,0.07374026,-0.16025606,-0.35495394,-0.15869367,-0.13760972,-0.36916143,0.0071445107,0.23889735,0.20125382,-0.17335823,-0.12492994,-0.06450167,-0.5279405,0.10280296,-0.33836788,-0.042407133,-0.12613131,-0.013202205,0.077138774,-0.011475181,-0.33408695,0.5692779,-0.39369047,-0.2299254,0.0051369593,-0.21121937,0.21641797,0.3805546,-0.5338741,-0.14384003,0.4017884,-0.188433,0.010103701,0.40899915,-0.16614962,-0.35631084,0.069227114,-0.47087634,0.21494639,0.652768,0.26447004,-0.09044312,0.15374044,0.11349292,0.17489369,0.25834098,0.055931922,-0.29320627,0.15629323,-0.052371252,-0.75890297,-0.103302896,0.058757044,-0.12945776,-0.6277361,0.77624273,0.3083914,-0.5056705,-0.31741413,-0.13219668,-0.07533385,0.26531535,0.035883244,0.21701157,0.00020323507,0.56459713,0.041031707,0.35445738,0.62114406,-0.14523907,-0.23849013,-0.11453449,0.21534112,0.015241958,0.4689346,-0.34699732,0.1436295,0.019480757,0.06895148,-0.054685637,0.08742273,0.13817999,0.055828348,-0.12338833,0.0027068965,0.53093356,0.4607502,0.339101,0.31753862,0.23719056,0.054642834,0.49646562,0.43682605,0.25210917,0.19253597,0.29782084,0.04208344,0.28775847,-0.085796535,0.32651868,0.3336171,0.08049922,0.46625823,0.07976734,0.19231969,0.48971042,-0.5417279,-0.439053,-0.23102751,0.66904676,-0.29346728,-0.15405743,0.39657348,0.043836176,0.12752989,-0.37662464,-0.22391583,0.037403136,-0.062977724,0.24511543,-0.44935885,-0.14478391,0.22791146,-0.090716034,-0.17908338,-0.40819573,-0.27043217,-0.1321448,0.06871428,-0.12664676,0.076536745,-0.033451043,-0.24834791,0.11150895,0.112109214,0.052347936,-0.10742764,-0.19236386,0.022655187,0.28752124,0.10739136,0.57179177,-0.16988446,0.18421482,-0.061842855,-0.24451712,-0.057490125,0.19417977,-0.035868682,0.092627354,0.29055038,-0.22338676,-0.08203741,-0.13507618,0.2935527,-0.33722603,0.07359886,-0.023464393,0.38278538,0.21541193,0.24956775,-0.26545224,-0.074811,-0.13026176,-0.2798916,0.12911013,0.36801392,-0.34095424,-0.08670637,0.08958892,0.16823298,-0.16148429,-0.2602734,-0.18753973,-0.0727568,0.090668485,0.22574568,-0.00278344,-0.20342976,-0.38908166,0.3983907,0.033409115,0.16160089,0.18701816,0.18795419,0.04032921,0.059360415,0.4547974,0.019567477,-0.23775071,-0.3796236,0.044758797,-0.2814195,-0.05721735,-0.08819465,0.05687942,-0.2843176,0.023032587,-0.36720043,-0.20544802,-0.07869598,-0.04713488,-0.005199953
15546686.pdf,-0.34484166,0.20993233,0.21940759,0.023928683,0.75237453,-0.0024453849,0.02511091,0.2755263,-0.13164735,0.08590737,0.017843556,-0.3866548,-0.08453399,0.21809639,0.10200021,0.7313859,0.31660488,-0.0221546,0.057546265,0.6217003,0.071912326,-0.35243416,0.058430146,0.7202474,0.1817568,0.17068556,-0.05853238,-0.20822829,-0.32587764,-0.015025577,0.6731614,0.14051974,-0.2494966,-0.31740892,0.14782643,0.056080423,-0.22083749,0.06457266,-0.32383108,0.32676026,-0.6535258,-0.40036386,-0.20480597,-0.040526062,-0.16981485,-0.3694808,0.1682135,0.087210014,0.0986623,0.115361586,-0.4683391,0.025440339,-0.176631,-0.3311068,0.4608173,0.77908957,-0.1473846,-0.6810771,-0.4593525,-0.50258183,-0.0794202,-0.10554364,0.25778282,-0.24064618,0.2597344,0.111031055,0.10267311,0.3465632,-0.6139428,-0.30110845,-0.23055242,0.16796304,-0.061368346,0.004116714,-0.088164106,-0.19367519,-0.030245077,0.42929298,0.020071555,0.0727562,-0.23526643,0.27578452,-0.27822334,0.43761137,0.18698338,0.14247942,0.22471273,0.3917647,-0.49606162,0.4552519,0.25767046,-0.3232336,0.19009186,0.2265196,0.11243539,0.19977412,0.1773045,0.20684293,-0.40064928,0.12173647,0.1854339,-0.0895802,0.2688052,-0.0035985801,-0.03051361,-0.0408709,-0.12030526,0.043524235,-0.35511857,0.66073215,0.279157,-0.29957706,-0.31589568,-0.6768367,-0.02060426,0.08161236,-0.03698746,0.029875586,0.33311415,0.15131617,0.15004387,-0.23439476,0.038238868,0.92250943,-0.12203569,-0.16442397,-0.18671364,0.26815945,-0.016906459,0.30118668,-0.005577462,0.28323528,-0.024306364,0.11197613,-0.3407937,0.18306035,-0.21132623,-0.43923068,-0.06885088,0.38796556,-0.087994255,-0.7671822,0.43711638,-0.13538495,0.07950218,-0.33044362,-0.14995456,0.108360305,0.072087,0.23291713,0.4109396,0.051998526,-0.10186193,-0.33461905,-0.082359694,-0.05690936,-0.31093326,0.2842084,-0.053189486,-0.151096,0.32200015,0.3355731,-0.37784195,0.26273963,-0.02914197,0.035186,-0.23760901,0.51321995,-0.5187763,0.1800955,-0.14865828,-0.25995493,0.57777804,-0.017236128,0.27922967,0.086126424,0.28139615,-0.22583549,0.27935487,0.13062057,-0.49794915,0.42033082,-0.037355233,-0.018237151,0.3746583,-0.28052562,0.6486579,-0.2708233,-0.016515907,-0.2676273,-0.30903512,-0.41149485,-0.046080496,-0.024389673,0.2415024,-0.18010579,0.06325565,0.15544723,-0.5716938,-0.3126103,0.22670963,0.2957537,0.24569556,0.09122363,-0.1628795,-0.64742553,0.18263192,-0.73696387,0.07273434,0.17464045,-0.3697234,0.10544661,-0.29980123,0.32888323,0.0074016107,0.048378654,-0.2668014,0.13892351,0.23159282,-0.1550515,-0.014453015,0.026876668,-0.5665102,0.5280718,-0.4003315,0.76433766,-0.015576546,-0.8591431,0.35802028,0.67108107,-0.09750557,-0.31252432,0.6080264,-0.7132616,-0.073883206,0.11274131,-0.3115309,0.07124139,0.07020058,-0.47412014,-0.3254165,0.7152313,0.21377248,-0.16576831,0.35497785,0.0059533664,0.015280737,-0.16267797,-0.22714725,-0.3449168,-0.5404199,-0.09248757,0.09588758,-0.5507546,-0.11583116,-0.3324587,-0.03828172,-0.36844873,0.10939756,-0.10519205,0.29708946,0.08912666,0.1531924,0.0057240333,-0.11395016,-0.6662949,0.16808215,0.08087908,0.09179232,0.2526082,0.2082488,0.09081033,0.009022206,0.6396255,-0.38898814,-0.13041958,0.24052796,0.017642207,-0.0814543,-0.17515427,0.16542539,0.3903039,-0.2684697,0.15484509,-0.12622055,0.004666373,0.2524643,0.10594738,-0.2340934,-0.31006467,-0.112217784,0.08411053,-0.68589294,-0.2600104,0.27276945,-0.15876627,0.15846913,0.10794155,0.48315525,-0.08046535,-0.24644476,-0.29929587,0.17887135,0.20099398,0.14957908,-0.057206742,0.0995273,-0.72388405,-2.190024,-0.0067977738,0.12164821,-0.25752202,0.5075301,-0.17824644,-0.12429342,0.1614484,-0.6333083,0.1690827,0.038263567,-0.36722684,0.16095798,-0.09066725,0.32035586,-0.21611962,-0.018382331,-0.3865169,0.25952432,0.50487906,-0.17287357,-0.9284886,0.15685557,0.062161747,0.424676,0.31390095,-0.86454034,-0.058964014,-0.42890972,-0.2299543,0.12997831,-0.3383156,-0.314009,0.311568,-0.010376708,-0.033248123,-0.10782916,-0.509681,-0.21238767,-0.44213605,0.14458077,-0.8619698,-0.03280268,-0.097510815,0.6053083,-0.0832791,0.2293281,-0.013045102,0.2432804,0.42102617,0.1775018,-0.031016532,-0.28456458,-0.086737245,-0.009960381,-0.051772557,0.48802888,0.3145432,-0.30161905,-0.06934495,0.17631954,-0.35370952,-0.6556697,-0.14015594,-0.20236467,-0.19779769,-0.6892725,-0.395128,-0.23704459,-0.10123202,-0.0070781074,0.79336536,-0.5626191,0.036011737,-0.22710405,-0.6167218,0.37112528,-0.21278486,-0.15871632,-0.11524756,-0.19261439,-0.4695887,0.40857905,0.05042147,-0.107454255,-0.1484494,-0.19506896,-0.1984171,-0.45153874,-0.5805603,0.32283738,0.20397034,0.2704162,-0.027224766,0.38606894,-0.2562354,0.5413766,0.2027007,0.23427166,-0.57848394,-0.028859839,0.15124801,0.5486618,-0.25272354,-0.049726315,-0.08482532,-0.47468758,-0.025120765,0.05714463,-0.020198926,-0.02100705,-0.18572164,0.29286256,-0.22306317,-0.20464441,-0.012437521,0.2882148,0.7465633,-0.028625485,-0.14156805,-0.12495253,0.4681999,-0.05205085,-0.19115023,0.16906936,-0.11203864,-0.046095278,0.45459062,-0.044726554,-0.24657592,-0.18022817,0.040438823,-0.34088415,0.21619652,0.22374836,0.35702634,-0.2604281,-0.49383783,-0.2607636,0.5067357,0.008148074,0.19980396,0.3287111,-0.13974178,0.020345083,0.26601905,0.013270087,0.4185977,-0.20504054,0.04612326,-0.7754775,-0.27093184,-0.17413409,-0.2948654,0.014698843,0.49474716,0.42843306,-0.16806608,0.15285835,-0.6934721,0.23325872,-0.017302502,0.34719345,-0.2499049,-0.22293612,0.7614176,0.1427545,-0.12039116,0.08813518,-0.16224436,-0.19988325,-0.41556385,-0.024515426,-0.24771899,-0.32463038,0.49090514,0.13382243,-0.30143267,-0.27498764,0.43271792,0.0937573,-0.21210155,-0.35029632,-0.033476867,0.29605457,0.10817143,0.1296432,-0.6129801,0.15861061,-0.0924849,0.032698803,0.36310327,0.057074096,-0.05399375,-0.30359066,-0.2580158,0.5095061,-0.05337444,-0.04454486,0.20223433,0.1767716,-0.24302572,-0.30608934,0.07987657,0.03250416,-0.22905727,-0.18381964,0.4204145,0.03433175,0.021149237,-0.42727792,-0.10599059,-0.2894804,0.16183096,-0.14018631,-0.49627593,-0.24450602,0.09072123,-0.38060358,0.048977748,-0.035772014,0.05532451,0.27027848,-0.22760513,-0.3609321,-0.14010331,0.17904559,0.04272418,-0.45023054,-0.0026877057,-0.0336381,-0.816249,0.065163165,-0.11571604,-0.16090137,0.31688246,0.075447895,-0.89292705,0.288932,-0.2228939,-0.1416572,-0.112018995,-0.3584311,-0.18460694,0.18927038,0.1220852,0.0017932644,0.2676986,-0.21757984,0.64598894,-0.22100745,0.0159798,0.13143055,-0.32310462,0.3192414,-0.43682978,-0.2565583,0.11710261,-0.29553658,-0.04755283,-0.38892072,0.21461582,-0.008897143,0.08718835,0.48077095,-0.016533954,-0.27655527,0.030345917,0.2360975,-0.5610546,0.2626713,-0.46034306,0.09668648,-0.1881262,0.11771378,0.26343164,0.1661855,-0.48182932,0.46780354,-0.40798885,-0.60053974,-0.30970722,0.07071312,-0.023033733,0.39634833,-0.44610634,-0.17537266,0.07919584,-0.037958797,-0.09633929,0.39064968,-0.17043678,-0.15755613,-0.11015232,-0.5340569,0.069049485,0.6014931,0.6221088,0.043984257,0.1637481,0.17117903,0.16939002,0.4518296,0.052426726,-0.09980051,0.4081012,0.1666768,-0.40391278,-0.23637351,-0.05394428,-0.121998884,-0.5962795,0.76897013,0.20407072,-0.39750233,-0.31259722,-0.37287638,-0.3040647,0.42687184,-0.054445274,0.18622811,0.157026,0.580207,0.06779604,0.2920094,0.7936872,-0.14350252,-0.21172772,-0.20791402,0.41777024,0.0494616,0.34028983,-0.20792829,0.27224606,-0.11010976,0.16392817,-0.20346212,0.046916403,0.061996102,-0.082429476,-0.10503076,0.05188485,0.57657343,0.53798974,0.42827266,0.2434434,0.34922528,-0.2136563,0.9421796,0.51424754,0.12373575,-0.1822371,0.16225708,0.28212437,0.041215327,0.030355956,0.24027987,0.14278749,-0.08173654,0.8255031,0.058856424,0.32148725,0.50470304,-0.50142896,-0.33741087,0.05158175,0.6853,-0.7666575,0.04402334,0.18669206,0.1663338,0.27821475,-0.1895079,-0.1820214,0.19825244,0.35162187,0.04560657,-0.13535756,-0.12843448,0.054401085,-0.3103712,-0.2717025,-0.3374722,-0.48476565,-0.23744583,0.10564457,-0.20325398,-0.01391542,0.052998986,-0.15000504,0.09983292,-0.20927387,0.56922084,-0.31446546,-0.13291752,-0.07084247,0.5692672,0.16806911,0.7536135,-0.20737839,0.15894708,-0.5646468,-0.23244756,0.048064668,0.09693973,0.06907268,0.0977382,0.6347251,-0.35793775,-0.12105863,-0.1422354,0.3718593,-0.31564632,-0.12634815,-0.11753608,-0.11267014,-0.016640943,-0.027770305,-0.33572978,-0.27540004,-0.087467484,-0.55982697,0.08791706,0.033857804,-0.3760373,-0.0074867997,0.6329366,0.29702753,-0.20090282,-0.02072718,-0.16360562,0.1969634,0.05915036,0.15783726,-0.0060044825,-0.19780505,-0.26624942,0.33911252,-0.46553987,0.025996488,0.3400897,0.37982544,-0.026336877,-0.024573773,0.43033147,-0.070113555,-0.26983956,-0.5462371,0.07534695,-0.362069,-0.2704315,-0.3117376,0.028220126,-0.11843188,-0.12208769,-0.46679366,-0.13690192,-0.1448385,-0.10577601,-0.015654206
15603319.pdf,-0.45393503,0.1419138,-0.0012797453,-0.06868495,0.58752966,-0.09346017,0.14977151,0.26875803,-0.15107802,-0.22654721,0.120569184,-0.44147813,-0.11652391,0.21469423,-0.0480882,0.6564796,0.28126705,-0.059629172,-0.13968886,0.38709515,0.32695186,-0.43175977,0.11816521,0.7055304,0.2642681,-0.19587037,0.056241713,0.1797832,-0.06507809,-0.19949251,0.5414046,0.1084035,-0.0007857494,-0.11102762,0.05921015,0.023895998,-0.2696495,-0.1653562,-0.023601782,0.12115276,-0.379408,-0.29255152,-0.18151745,-0.026345305,-0.16491309,-0.08436628,0.13625446,0.04201701,-0.03013383,0.040961068,-0.32732224,0.33039662,0.008129358,-0.24878779,0.16343659,0.71518075,-0.05981494,-0.35369313,-0.40399185,-0.3650307,0.0048541576,-0.19191596,0.24637474,-0.15590557,0.25490445,0.21812594,0.23053677,0.32260627,-0.5605358,-0.105656624,-0.36176512,0.023896014,-0.07090349,0.15371124,-0.24468271,-0.29504338,0.050292227,0.23209907,0.14853358,-0.06513622,-0.11687613,0.07092266,-0.35644084,0.19172333,0.06468664,0.31891608,0.20336759,0.19553477,-0.6578224,0.41153148,0.18911457,-0.012712373,0.23292866,0.1711339,0.113102384,-0.036387168,0.0010621669,0.11983614,-0.17219831,0.17140555,0.087200895,0.15445042,0.020887695,0.2785228,-0.2983682,-0.10453449,-0.15380889,0.3177149,-0.47059476,0.4512816,0.14034691,-0.22158578,-0.21053614,-0.43417507,-0.18821311,0.17845112,0.010482151,-0.03612498,0.2579195,0.2608836,-0.01155212,-0.0984594,0.1567847,1.118438,-0.20397851,-0.021925965,-0.10241185,0.053489514,0.15916072,0.1602267,0.09725943,0.27623034,-0.13915913,-0.14795823,-0.2509918,0.05894531,-0.3387966,-0.3494352,0.014809862,0.36292204,-0.28180957,-0.70314914,0.43882927,0.102574736,-0.059871297,-0.121423244,-0.32313538,-0.0099492455,0.08621314,0.345502,0.27852574,0.011545533,-0.16308102,-0.3048217,-0.36274165,-0.051551104,-0.28098267,0.024571162,-0.19060558,-0.14781258,0.2969467,-0.11734003,-0.29114002,0.297513,-0.040239245,-0.1065622,-0.10044189,0.35626298,-0.15669116,0.20634736,-0.15600155,-0.24657863,0.5179116,-0.041908145,0.19972132,-0.26851702,0.13415828,-0.2858581,0.17052034,0.2756006,-0.4944579,0.4735129,-0.11412111,0.09268062,0.1008393,-0.11249478,0.576183,-0.17135546,0.20167229,-0.099561974,-0.15650755,-0.35850105,-0.17550087,0.16449593,0.19774202,-0.16340855,-0.002285283,-0.01892078,-0.3280991,-0.22241339,0.046121825,0.19017234,0.3284163,0.15929627,-0.35083255,-0.41843736,0.0022965074,-0.3683081,0.018637594,0.2832198,-0.38260198,0.13069524,0.09833343,-0.030555781,0.048563503,-0.030700177,-0.2964816,0.08051588,0.25955817,-0.11620948,0.049620043,0.04831558,-0.32109752,0.55989397,-0.30550408,0.5374938,0.12960057,-0.9528594,0.31449193,0.44979176,0.0715174,-0.17221662,0.6820208,-0.38788164,-0.07585092,0.15262589,-0.31782967,0.009550175,0.17453521,-0.18386686,-0.26531094,0.5594971,0.34694195,0.024699558,0.08800728,-0.09323132,-0.064130455,-0.06683005,-0.2245772,-0.18065892,-0.30956608,0.3064304,0.15502933,-0.5146656,-0.08832106,-0.22252971,-0.21961856,-0.44002146,0.03366246,0.027732365,0.08457676,0.2217988,0.1350773,0.09125634,-0.0032288702,-0.50207067,0.02283891,0.17029351,0.24960051,0.03128164,0.1643453,-0.0017764978,0.056044098,0.31749746,-0.2917902,-0.21733862,0.15932587,0.06057804,-0.08491547,-0.17784363,0.108396634,0.4153678,-0.2830839,0.08541013,0.031709377,-0.09664467,0.15873869,-0.09304396,-0.1094981,-0.45323953,-0.2606125,0.26250368,-0.53710365,-0.008166097,0.008802298,0.049689353,0.07648547,0.017059382,0.39324856,-0.069100656,-0.23559356,-0.18838519,0.078628376,0.22768342,0.09770803,0.12695375,0.10679729,-0.5252849,-3.2987785,0.00051157083,0.09269943,-0.2267834,0.45045134,-0.07741253,0.01937043,-0.026132226,-0.55694187,0.13799804,0.05628675,-0.2732568,0.089729235,0.04741442,0.43061078,-0.1678324,-0.184521,-0.72335106,0.05509573,0.40040475,-0.08655393,-0.56464684,0.0799405,-0.038322464,0.17264593,0.1505715,-0.46595755,-0.028175512,-0.4295425,-0.12309328,0.078562945,-0.30555308,-0.02151718,0.27303863,0.07896438,0.08907732,-0.016399195,-0.30366182,-0.25558245,-0.35089165,-0.10518336,-0.85344815,-0.13118595,0.18016922,0.5629828,-0.032988098,0.22118714,-0.004367076,-0.031662934,0.2451455,0.28679872,-0.12431995,-0.20634878,0.13771191,0.024917781,-0.100937255,0.44658667,0.28877628,-0.276049,-0.37571597,-0.07583016,-0.15266806,-0.45679343,-0.048980664,-0.015944183,-0.11698702,-0.6805837,-0.26620635,0.17410849,-0.33683944,0.0020366032,0.30931175,-0.3995012,-0.21143514,-0.35882312,-0.3466384,0.16932797,-0.17286196,-0.09503187,-0.0010737204,-0.04491105,-0.41362327,0.28656298,0.000888756,-0.07309919,-0.40935346,-0.023077331,-0.1799538,-0.49318475,-0.68469787,0.29073033,-0.015812315,0.23374063,-0.02772092,0.48199338,0.05758119,0.43378457,-0.042431038,0.35576603,-0.4393922,0.19668704,-0.094053105,0.6466032,-0.33347303,0.3096998,-0.27822816,-0.25761682,0.068378896,0.14136082,-0.22953781,0.45782846,-0.42864892,0.31872222,-0.3698617,-0.052050475,-0.03432142,0.4236359,0.7776417,0.040937584,-0.11208548,-0.24098071,0.2910388,-0.15402272,-0.2866882,-0.25435096,-0.045560297,-0.29357988,0.40794006,0.048293963,-0.25176066,-0.2983832,0.059471678,-0.2765713,0.11206709,0.18751094,0.08354779,-0.17828384,-0.43447953,-0.2626552,0.31103253,-0.09615295,-0.013052809,0.2512874,-0.13070755,0.110528484,0.25510365,-0.07699844,0.11367451,-0.13762656,0.015428599,-0.39949858,-0.2963447,-0.23908062,-0.29628152,-0.00943397,0.2150023,0.34295225,-0.11697309,0.029980745,-0.5013031,0.2088756,-0.12447436,0.32286298,-0.09327887,-0.12611386,0.7038427,0.21431121,-0.18755221,-0.016297655,0.058111396,-0.110607386,-0.24178702,-0.1702174,-0.34239763,-0.21982878,0.35009006,-0.06543217,-0.13926332,-0.12144725,0.51071197,-0.11931966,-0.18045785,-0.26038098,-0.080292694,0.24690098,-0.0692043,0.18543196,-0.7992815,0.07609761,-0.023436286,0.08345398,0.35963786,0.110591605,0.051813163,-0.13283266,-0.11597751,0.38917398,-0.0071334355,-0.09810066,-0.10800795,0.119975075,-0.32150203,-0.21064603,0.11057992,0.17089847,-0.26297885,0.06756738,0.2505816,0.005930638,-0.004317214,-0.3312396,-0.1752017,-0.4244619,0.14198646,0.1394884,-0.3875113,-0.10404767,-0.13522586,-0.320225,0.2798163,0.22983012,0.19422843,0.21697772,-0.18241361,-0.17176798,-0.095225535,0.34794223,-0.08300076,-0.29357764,0.0107905865,0.117006235,-0.88465387,0.2698558,-0.029603334,-0.123276524,0.14867139,0.02856452,-0.6220189,0.30686903,-0.08546877,-0.047588576,0.17172205,-0.2633376,-0.21896741,0.24381801,0.15425026,-0.044727135,0.4905671,-0.23362596,0.51971626,-0.1124338,0.1021359,0.096634895,-0.11040674,0.12197424,-0.44258654,-0.3411165,0.1688445,-0.22724101,-0.066373594,-0.12186485,0.15787464,-0.052518744,0.16293913,0.2553298,-0.17240575,-0.2580043,-0.025667977,0.20086163,-0.48982674,0.49274,-0.2798105,0.08192522,-0.2181694,0.19564906,0.15372476,0.15588745,-0.32826334,0.51856744,-0.4316701,-0.29284656,-0.16366884,-0.028610092,-0.030187365,0.3606406,-0.3873135,-0.22976291,0.20325163,0.21053614,-0.16310717,0.44018918,-0.19685103,-0.053730972,-0.15505078,-0.3584478,0.14608034,0.52537143,0.37604272,0.26684064,-0.021822844,-0.20949142,0.06099896,0.4614989,0.08382429,-0.13451068,0.23274684,0.18847716,-0.28973243,-0.47446668,0.01159934,-0.066712305,-0.33726183,0.61149454,0.04974914,-0.27384567,-0.058488384,-0.3747036,-0.046801332,0.43715754,0.014618092,0.22675762,0.14824584,0.47827974,-0.056340665,0.30576319,0.4053438,-0.1953504,-0.109543055,-0.05409956,0.22130504,0.09751362,0.24902296,-0.2565174,0.3220247,-0.009603575,0.31453294,-0.20821829,-0.21565805,-0.020299196,-0.00019753724,0.23804119,0.053579602,0.54737407,0.43589252,0.42435735,0.17935207,0.18118608,-0.26799864,0.6557332,0.47268766,0.19832286,-0.11508431,0.15624222,-0.055101946,0.21059766,0.18983638,0.17510638,0.15908344,-0.15896988,0.5838884,0.0568615,0.38259092,0.22462733,-0.22966993,-0.40095448,0.24464059,0.37715697,-0.4633637,-0.1539495,0.028371189,0.2001215,-0.25170732,-0.10339165,-0.15019047,0.13440128,0.17787628,-0.034921106,-0.10976328,0.05897595,0.0644655,-0.22952616,-0.18141074,-0.31402886,-0.26162818,-0.22583722,-0.19882128,-0.20598158,0.090351194,-0.16594866,-0.34793276,-0.020294085,0.22739488,0.3784895,-0.062136967,-0.2659829,-0.012605977,0.42190027,0.1243312,0.44196862,-0.061011627,0.18169765,-0.21212432,-0.342802,-0.04227653,0.1545155,0.17479613,-0.03538197,0.42592174,-0.2552785,0.14225468,-0.060328312,0.46664995,-0.40184718,-0.15382063,-0.0006294027,0.088684484,-0.0073752124,0.03425361,-0.424798,-0.07638867,-0.18114322,-0.665521,0.17240642,0.043277033,-0.25883728,-0.03531036,0.33546096,0.1624557,-0.06376438,0.052868403,-0.012823345,0.34328243,0.10934674,-0.092762165,-0.24760228,-0.29022992,-0.066424824,0.4745443,-0.34452313,0.2959491,0.1926806,0.2500124,0.19929056,-0.07963892,0.4625911,-0.19095701,0.021356255,-0.386558,-0.0007951781,-0.42252648,-0.14119743,-0.14296901,0.10791619,-0.042921767,-0.057084866,-0.40280372,-0.25584003,-0.30382568,-0.08188274,-0.15274332
