,0,1,2,3,4,5,6,7,8,9,10,11,12,13,14,15,16,17,18,19,20,21,22,23,24,25,26,27,28,29,30,31,32,33,34,35,36,37,38,39,40,41,42,43,44,45,46,47,48,49,50,51,52,53,54,55,56,57,58,59,60,61,62,63,64,65,66,67,68,69,70,71,72,73,74,75,76,77,78,79,80,81,82,83,84,85,86,87,88,89,90,91,92,93,94,95,96,97,98,99,100,101,102,103,104,105,106,107,108,109,110,111,112,113,114,115,116,117,118,119,120,121,122,123,124,125,126,127,128,129,130,131,132,133,134,135,136,137,138,139,140,141,142,143,144,145,146,147,148,149,150,151,152,153,154,155,156,157,158,159,160,161,162,163,164,165,166,167,168,169,170,171,172,173,174,175,176,177,178,179,180,181,182,183,184,185,186,187,188,189,190,191,192,193,194,195,196,197,198,199,200,201,202,203,204,205,206,207,208,209,210,211,212,213,214,215,216,217,218,219,220,221,222,223,224,225,226,227,228,229,230,231,232,233,234,235,236,237,238,239,240,241,242,243,244,245,246,247,248,249,250,251,252,253,254,255,256,257,258,259,260,261,262,263,264,265,266,267,268,269,270,271,272,273,274,275,276,277,278,279,280,281,282,283,284,285,286,287,288,289,290,291,292,293,294,295,296,297,298,299,300,301,302,303,304,305,306,307,308,309,310,311,312,313,314,315,316,317,318,319,320,321,322,323,324,325,326,327,328,329,330,331,332,333,334,335,336,337,338,339,340,341,342,343,344,345,346,347,348,349,350,351,352,353,354,355,356,357,358,359,360,361,362,363,364,365,366,367,368,369,370,371,372,373,374,375,376,377,378,379,380,381,382,383,384,385,386,387,388,389,390,391,392,393,394,395,396,397,398,399,400,401,402,403,404,405,406,407,408,409,410,411,412,413,414,415,416,417,418,419,420,421,422,423,424,425,426,427,428,429,430,431,432,433,434,435,436,437,438,439,440,441,442,443,444,445,446,447,448,449,450,451,452,453,454,455,456,457,458,459,460,461,462,463,464,465,466,467,468,469,470,471,472,473,474,475,476,477,478,479,480,481,482,483,484,485,486,487,488,489,490,491,492,493,494,495,496,497,498,499,500,501,502,503,504,505,506,507,508,509,510,511,512,513,514,515,516,517,518,519,520,521,522,523,524,525,526,527,528,529,530,531,532,533,534,535,536,537,538,539,540,541,542,543,544,545,546,547,548,549,550,551,552,553,554,555,556,557,558,559,560,561,562,563,564,565,566,567,568,569,570,571,572,573,574,575,576,577,578,579,580,581,582,583,584,585,586,587,588,589,590,591,592,593,594,595,596,597,598,599,600,601,602,603,604,605,606,607,608,609,610,611,612,613,614,615,616,617,618,619,620,621,622,623,624,625,626,627,628,629,630,631,632,633,634,635,636,637,638,639,640,641,642,643,644,645,646,647,648,649,650,651,652,653,654,655,656,657,658,659,660,661,662,663,664,665,666,667,668,669,670,671,672,673,674,675,676,677,678,679,680,681,682,683,684,685,686,687,688,689,690,691,692,693,694,695,696,697,698,699,700,701,702,703,704,705,706,707,708,709,710,711,712,713,714,715,716,717,718,719,720,721,722,723,724,725,726,727,728,729,730,731,732,733,734,735,736,737,738,739,740,741,742,743,744,745,746,747,748,749,750,751,752,753,754,755,756,757,758,759,760,761,762,763,764,765,766,767
10182582.pdf,-0.41155857,0.2116022,0.39099643,0.06989493,0.5795741,0.17563146,0.1676664,0.23441258,0.00233284,-0.17422783,-0.00082185585,-0.20282282,0.04106774,0.05791135,0.13908276,0.46397987,0.182917,0.04699493,-0.09550251,0.36819005,-5.301833e-05,-0.40398198,0.08532514,0.41151565,0.32094654,0.041735172,-0.2124604,-0.23195517,-0.387739,-0.19779404,0.48579705,0.063192464,-0.028972536,-0.30703723,0.08851563,-0.088421255,-0.09562948,0.09579827,-0.21985471,0.11716025,-0.40174446,-0.11024011,0.009080708,-0.13888526,-0.17116374,-0.25199288,0.03386098,-0.10744093,-0.04529225,-0.0659294,-0.4128938,0.2932538,-0.084267125,-0.25316578,0.038302395,0.5050781,-0.17962976,-0.61390615,-0.31871977,-0.44793117,0.1522695,-0.1902947,0.34812453,-0.050814547,0.10002959,-0.11877236,0.15990324,0.30973196,-0.43364835,-0.079016075,-0.2902089,0.10780799,0.04258503,-0.09650248,-0.30957663,-0.11542858,0.042576484,0.3626598,0.04220946,0.07998336,-0.28882372,0.186984,-0.11320259,0.21923524,0.07971682,0.058485195,0.28743255,0.09400074,-0.20100905,0.5763403,0.20530736,-0.28111148,0.35795176,0.109749,-0.06972683,0.16294302,0.13038097,0.12298209,-0.12358282,-0.10142577,0.06673719,-0.083537616,0.068115085,-0.04652895,0.016912479,0.01081183,0.061385736,0.15614653,-0.22803336,0.41632515,-0.07060374,-0.25725067,-0.21224916,-0.30553398,0.009625497,0.12234658,0.073133655,0.1357197,0.14343128,0.08553248,0.11828582,-0.074071005,0.1015369,0.6384553,0.025802935,-0.09275263,-0.11532412,0.1700398,-0.1257215,-0.063974105,-0.07473455,0.12409586,-0.082557164,0.19798595,-0.27977353,0.29234847,-0.11583537,-0.20662421,-0.05844354,0.084549285,0.04722243,-0.59424275,0.37417638,-0.074865535,0.07031779,-0.17472377,0.20063609,0.032972787,-0.06689517,0.38264215,0.28540432,-0.023130864,-0.04860889,-0.13813609,0.010748388,0.1192444,-0.35750252,0.13785233,-0.11505067,-0.09377226,0.35614654,0.4104159,-0.42775255,0.3173399,-0.06465632,0.036280796,-0.23768379,0.332834,-0.24261147,-0.023258505,0.029769093,0.12464641,0.5121394,0.1408137,0.16861275,0.24104735,0.1404016,-0.00091046095,0.09581812,-0.034323968,-0.32245043,0.36923552,-0.07031256,0.0076291515,0.26702195,-0.1350916,0.21380708,-0.22710378,0.026063483,-0.22059557,-0.276569,-0.2639632,-0.00064425543,-0.040468678,0.16823703,-0.17336592,0.17508808,0.14238858,-0.3893971,-0.16141534,0.36177132,0.22608995,0.12037225,0.17788248,-0.045458715,-0.49566507,0.12553483,-0.37358946,-0.085748434,0.20888382,-0.31402537,-0.0129535645,-0.05516975,0.39010412,0.13312142,0.120233476,-0.09956342,-0.1661863,0.12711331,0.0037274957,0.19630092,0.17211533,-0.34062865,0.5968299,-0.39291078,0.33572927,0.12192918,-0.6799599,0.1983637,0.29914424,0.0589105,-0.29462916,0.41582423,-0.44118464,0.09586557,0.02430787,-0.1509108,-0.11399074,0.23761143,-0.41990364,-0.33274305,0.49354526,0.21888536,0.16771315,0.14183594,0.002491016,-0.05925267,-0.063555986,-0.21031764,-0.22277078,-0.60124433,0.26100668,0.07564191,-0.3908344,0.17427099,-0.5223988,-0.017886642,-0.21303627,-0.124246314,-0.1056301,0.28858846,0.25351104,0.12158773,-0.1631004,-0.061576184,-0.69585407,0.04775798,0.24599124,0.10717565,0.14875531,0.07734085,-0.20111832,0.06185398,0.6051645,-0.17787167,-0.057508968,0.19528326,-0.016752273,0.030233394,-0.19889164,0.107680134,0.27416974,-0.25115937,-0.09124189,0.07059153,-0.18133545,0.20916939,-0.04467521,-0.3125433,-0.16707426,-0.079903856,0.17535838,-0.44501942,-0.15179737,0.5310358,0.1637519,0.07518095,0.4271708,0.23756814,0.107216924,-0.18912524,-0.16824414,0.1472202,-0.013617329,0.118573114,-0.071893126,-0.065900594,-0.55207837,-4.1874332,-0.030113835,0.038542055,-0.2763576,0.24612853,-0.08878282,0.22753793,0.14892456,-0.37832496,0.29055747,-0.027565006,-0.18842854,0.035660066,0.25522974,0.20687144,0.09947282,0.14620307,-0.25108773,0.0616805,0.29079294,-0.3091609,-0.83623177,0.08272231,0.07106139,0.25485888,0.19548973,-0.28061458,-0.18215919,-0.34991944,-0.09307293,0.14756216,-0.123479575,-0.35696128,0.29612663,0.077513516,-0.16671573,-0.021750212,-0.3704325,-0.10660727,-0.4861263,0.20103088,-0.5822353,-0.15040493,0.14938134,0.5988847,-0.042230997,0.32396296,-0.060679786,0.10866744,0.09551851,0.23389828,-0.10801908,-0.13139373,-0.26192233,0.03382695,-0.0030834116,0.43994805,0.075959444,-0.24691129,0.0026622638,0.16323183,-0.2779029,-0.26774096,-0.052057892,-0.28007644,-0.027093502,-0.561536,-0.20511714,-0.20643792,-0.058958225,-0.12235538,0.64036274,-0.20931505,-0.1214024,-0.17159374,-0.39337957,0.20633645,-0.058727294,0.008428978,-0.23012796,-0.087570384,-0.13662915,0.21938944,0.09447907,-0.24792507,0.039335474,0.046143793,-0.024073016,-0.4694081,-0.32616016,0.350274,0.068887174,0.13867964,0.06509775,0.3034898,-0.04781139,0.4877351,-0.016956659,0.054579496,-0.44853085,0.10381298,0.12996466,0.5337634,-0.12199132,-0.08382566,0.0543281,-0.27790898,-0.1201537,0.28653732,-0.10443992,0.08903141,-0.15695524,0.045822702,-0.2983349,-0.18465963,-0.037508816,0.17935485,0.6710329,-0.03953822,-0.17406581,-0.1616555,0.19291784,-0.22476897,-0.083868966,-0.16294518,-0.024000004,-0.21483445,0.33896178,0.031184735,-0.07576361,-0.059624497,-0.119162485,-0.1566031,0.2059441,0.3759303,0.048538655,0.063936695,-0.5939959,-0.20773783,0.18712613,0.051878214,0.20301196,0.15522067,-0.022773609,0.09970128,0.1858607,-0.15283725,0.31700718,-0.19745518,0.1455006,-0.5005108,-0.44776908,-0.09678233,-0.19354886,0.051578242,0.3438018,0.082715884,-0.1433841,0.002549395,-0.4381609,0.22453685,-0.12704627,0.22562706,-0.07108316,-0.28411984,0.5022721,-0.11498651,-0.020607166,-0.10237332,0.054183215,-0.18774974,-0.32313025,0.15828842,-0.31573004,-0.040387347,0.3737405,0.2692852,-0.16659433,0.04665183,0.20106044,-0.01657242,-0.33027467,-0.18538184,-0.09335078,0.25505248,0.011283822,0.32429028,-0.27335787,0.083830014,0.036139887,0.045056142,0.24727947,-0.026270859,0.16628364,0.043910332,-0.12664416,0.48747787,0.2834601,-0.07495888,0.15286607,0.07354956,-0.33633953,-0.39608675,-0.013671416,0.116012305,-0.02415828,0.05723372,0.23698789,-0.044199213,0.07561778,-0.3561232,0.039263055,-0.54614043,-0.026327223,0.05825175,-0.48694107,-0.22568029,-0.1305129,-0.34858075,0.18992984,0.012236813,0.05905941,-0.0070114173,-0.12309249,-0.054919712,-0.23391908,0.16056222,0.025182834,-0.2294451,-0.24376096,-0.006840848,-0.86747503,0.17426336,0.043507226,-0.06126135,0.123158865,-0.07808373,-0.71740085,0.3298268,-0.2359756,-0.21152505,-0.16026512,-0.3097069,-0.36850482,0.10405546,0.0799488,-0.13984025,0.25776124,-0.0029166033,0.576036,-0.058126077,0.07767043,0.18977496,-0.15266195,0.0425739,-0.4471693,-0.17639546,-0.071407884,-0.22547194,-0.023128808,-0.283901,-0.007961202,-0.09694188,0.09665276,0.41484082,0.3751285,-0.07592605,-0.07798669,0.03622619,-0.41361365,0.21494403,-0.38708642,-0.05504664,-0.22585729,0.1728682,0.092979185,-0.034281284,-0.43280366,0.41652024,-0.12503645,-0.32774866,-0.27452454,-0.020224525,0.18981421,0.39078438,-0.6023307,-0.18937391,0.0562082,-0.16877338,0.093015246,0.3414588,0.10593946,-0.08078649,-0.018638354,-0.6533098,0.12678072,0.5544189,0.34551126,-0.081809476,0.24610412,0.06888658,0.052945595,0.31590936,-0.048307773,-0.13927974,0.36934066,-0.056115855,-0.5872696,-0.06387402,-0.08554855,-0.053366184,-0.41714013,0.5650156,0.1310902,-0.39183486,-0.48375976,-0.13438007,-0.2235463,0.2658333,0.08775608,0.13782322,0.023690969,0.5361178,-0.022182135,0.25877658,0.5314361,0.013872439,-0.13348562,0.05112731,0.23539795,0.04746571,0.28567988,-0.19491717,0.0881464,0.10436809,0.17892176,-0.22237176,-0.17939307,-0.025547858,0.0660357,-0.016828071,0.09344491,0.56377214,0.36669713,0.1988152,0.29965267,0.3197714,-0.033778388,0.554886,0.42752278,0.083267,-0.052430477,0.07259223,0.047007553,0.049480215,-0.1817203,0.12476416,0.3545332,-0.14687978,0.5125138,0.13687399,0.2350045,0.42515385,-0.6092729,-0.22750016,-0.18513978,0.5901083,-0.43209147,0.025820233,0.20919317,-0.113284476,0.29215378,-0.42763615,-0.18502499,0.08507829,-0.011557503,0.23301938,-0.0944438,-0.11854029,0.21163118,0.01907475,-0.15011567,-0.24259588,-0.3207257,-0.15784335,0.27384833,-0.13248181,-0.058085397,0.0934255,-0.31184062,-0.007411133,-0.10552752,0.32187247,-0.15765804,-0.053293202,-0.009889606,0.12060661,0.16322124,0.69196373,-0.16623539,0.19682795,-0.25205973,-0.12326418,0.046379864,0.11140503,0.094594955,0.061566044,0.4437433,-0.42576635,-0.14919654,-0.22672945,0.27457622,-0.2743977,-0.07072959,-0.05421863,-0.017511984,0.23690909,0.08497545,-0.22987434,-0.3389705,-0.064544804,-0.30345055,0.051374257,0.12096748,-0.47869265,-0.080416575,0.17938976,0.17499515,0.002947594,-0.04383906,-0.23785853,-0.090430886,-0.030823216,0.18606612,0.03048144,-0.06513279,-0.35644984,0.30199406,-0.039747678,0.25264528,0.18328358,0.13133493,-0.08028491,0.12869059,0.24646604,0.10982082,-0.23555,-0.24105747,-0.26472163,-0.10912632,-0.13435316,-0.30558908,0.18319753,-0.11323632,0.024254855,-0.39253622,-0.32510537,-0.19092187,-0.14021863,-0.11606287
10562768.pdf,-0.44311994,0.115498066,0.4986644,0.12808825,0.84505594,0.001289675,-0.12971424,0.23096079,-0.07105574,-0.12571426,-0.08388886,-0.05689339,0.018643212,0.062861785,0.25976214,0.4781314,0.19419688,0.039392274,-0.21429384,0.3645283,0.0918719,-0.15927285,0.09091575,0.6256452,0.17379145,0.1050553,-0.19679266,-0.22498497,-0.4729694,-0.16650108,0.5621956,0.051870156,-0.15349773,-0.36351135,0.19649082,-0.047984693,-0.28884873,-0.018040255,-0.20299132,0.24048296,-0.4147245,-0.15368211,-0.08970182,0.22082369,-0.13715422,-0.1452335,0.014856271,-0.103010364,-0.02742251,-0.08910993,-0.5706049,0.39897472,-0.17271748,-0.30641484,0.24722305,0.61980426,-0.03499124,-0.5845052,-0.20039588,-0.47336894,-0.004839357,-0.1724217,0.27051818,-0.1561439,0.16186534,-0.08775142,0.16188332,0.38036865,-0.7276759,-0.11999915,-0.0483342,0.100090414,-0.12024942,0.030304682,-0.25717813,-0.18266621,0.09497537,0.3385303,-0.08807746,0.21643808,-0.044086784,0.30122185,0.069289446,0.17126772,0.19182068,0.1355968,0.25713485,0.23156741,-0.34646398,0.472611,0.22836411,-0.21027261,0.26940322,0.15175253,0.17021114,-0.045629874,0.05180531,0.11412856,-0.18432663,-0.017397612,0.0737384,-0.18153144,0.2553388,-0.066479355,-0.048086412,0.025255853,-0.19206606,0.18304124,-0.32246992,0.39454228,0.033122946,-0.117235795,-0.08677984,-0.6350037,0.00040195137,0.08200978,0.13138835,0.25030485,0.31553406,0.0661288,0.4390577,-0.09113147,0.30957732,0.72645503,0.12521282,0.07056214,0.08054947,0.22446238,0.117603794,-0.106675096,-0.097461954,0.09369312,-0.106254876,0.18771796,-0.22822174,0.20700324,-0.34815004,-0.26300207,-0.07360279,0.21411821,-0.127626,-0.71720266,0.32148886,-0.063695684,0.07469723,-0.2981863,-0.0023812111,0.10666771,-0.07842124,0.49090984,0.16969791,0.0950016,-0.030775338,-0.22777829,-0.10208859,-0.010730472,-0.2127276,0.12946261,-0.08443146,-0.067795485,0.29954702,0.30802357,-0.41988352,0.26508886,-0.13886176,-0.16645896,-0.14768593,0.29501802,-0.19238795,0.17428623,-0.08438693,-0.17930223,0.5601803,0.05790592,0.2746575,0.09034397,0.16565622,-0.1612865,0.2551334,0.07994467,-0.537763,0.35721484,-0.022598471,-0.28449488,0.2975939,-0.039796203,0.5217742,-0.2547875,0.22003448,-0.38645416,-0.24828866,-0.47485673,-0.106444776,0.07660483,0.20696107,-0.19367534,0.0591039,0.021289635,-0.34804815,-0.15780441,0.21330291,0.11390434,0.046027318,0.165039,-0.12742017,-0.44344795,0.19375035,-0.4455134,-0.12942922,-0.054237224,-0.24522653,-0.09486608,-0.28680158,0.24972516,0.059822924,0.075064555,-0.2996409,-0.058214813,0.19453236,-0.14037798,0.30700687,0.010801343,-0.36951888,0.5146723,-0.39880398,0.7284845,0.09658563,-0.8579916,0.44456583,0.26523313,-0.023861466,-0.29853648,0.45937282,-0.7173573,0.1614772,-0.01793319,-0.21279123,-0.1872703,0.40993038,-0.21228808,-0.30496427,0.5678171,0.35649794,0.052692756,0.24378353,-0.15527458,-0.06420626,-0.10903645,0.0018793317,-0.27985126,-0.5437593,0.13749734,-0.051975977,-0.42936143,-0.017874395,-0.30092704,0.045080133,-0.27611008,-0.17849904,0.1073864,0.12744622,0.28734487,0.07934519,-0.016573403,0.03416519,-0.80651045,0.044897635,0.2183527,0.36346573,0.3861195,0.3399278,-0.122107826,0.049764507,0.43586767,-0.23990533,-0.22597572,0.24370551,0.025365975,-0.061659828,-0.107775375,0.22424182,0.331968,-0.057415843,-0.0017719027,-0.105604686,-0.007056038,0.4821936,-0.06935841,-0.21583319,-0.10612835,-0.08231059,0.30219626,-0.45035464,-0.12541597,0.42424402,0.14089333,0.11456433,0.23462665,0.26216444,-0.10518093,-0.12918377,-0.27288556,0.25510424,-0.023299238,0.18664855,0.0013709161,-0.14130247,-0.61460847,-3.4475217,-0.27895972,-0.07561103,-0.4089151,0.29601008,-0.2258169,0.13481104,0.17793727,-0.5483087,0.22386333,-0.07755995,-0.26820546,0.16256073,0.08088705,0.087923095,-0.006253111,0.021591695,-0.26488376,0.0694859,0.45516285,-0.07475394,-0.9995668,0.107528806,0.14464742,0.15849113,0.33544058,-0.5279528,-0.061038032,-0.29119644,-0.19438344,0.05161781,-0.13555104,-0.32264605,0.48954573,0.052238356,-0.18678385,-0.049174912,-0.3139456,-0.1804073,-0.59071875,0.25480685,-0.6362757,0.010149617,-0.02354119,0.5985369,-0.15610218,0.34902978,0.09646706,0.26753724,0.30689842,0.13381073,-0.03839149,-0.21227276,-0.21220958,-0.108643435,-0.29730505,0.4176579,0.27592373,-0.37124246,0.21910207,0.29131806,-0.21491873,-0.18593237,-0.27958003,-0.14229117,-0.13558578,-0.6352224,-0.4505263,0.018462919,-0.066794515,-0.030458458,0.6587821,-0.31344593,-0.28644714,-0.18507715,-0.5414164,0.4614113,-0.20521796,-0.1353083,-0.23088372,-0.2194897,-0.48846018,0.30219454,-0.011436212,-0.3995837,0.0085048145,-0.14802478,-0.04560973,-0.4384923,-0.6817806,0.36042258,0.057550017,0.24523157,-0.05071397,0.42429528,-0.00907509,0.40618926,-0.073259875,0.35197872,-0.53464466,0.042539563,0.19627118,0.65339446,-0.374334,-0.14549962,0.0058226436,-0.23340501,-0.03132972,0.24521092,-0.010867687,0.03718539,-0.15478987,0.31096056,-0.48143268,-0.24460453,0.16562809,0.16728884,0.7226257,0.114711896,-0.15579365,-0.18257663,0.3536604,-0.010096034,-0.19380344,-0.15880346,-0.08373545,-0.16948926,0.40199006,0.13668385,-0.18307152,-0.1934628,-0.107866,-0.29676586,0.17949298,0.3730185,0.10721876,-0.13337448,-0.36528105,-0.079646885,0.27674097,0.18072361,0.35266393,0.16501299,-0.12030324,-0.007942701,0.17847005,-0.14438555,0.53001666,-0.2170178,0.008084327,-0.62810606,-0.20784637,-0.1367493,-0.34937924,-0.027578264,0.4527424,0.2789188,-0.11105363,-0.12245584,-0.5057175,0.39523917,-0.10957591,0.24787942,-0.17386828,-0.17520332,0.52703315,-0.12370006,-0.04775068,-0.033952963,-0.02531396,-0.28318912,-0.21453744,0.2143362,-0.3037213,-0.09749937,0.4175301,0.2681648,-0.27827135,-0.07675453,0.32465544,0.06243874,-0.22580263,-0.2856027,-0.010805422,0.20070693,0.07761698,0.21050835,-0.45559013,-0.0032142447,0.102518275,0.09204675,0.21574098,-0.2397652,-0.009377589,-0.10909359,-0.2475977,0.42033237,-0.06154202,-0.10383723,0.17382489,0.0595284,-0.31462067,-0.5527905,-0.07389702,-0.038365133,-0.3521809,0.022317104,0.33484468,0.09513231,-0.13882098,-0.47452277,-0.049994547,-0.40949357,-0.047176324,0.065585956,-0.3957101,-0.12839036,-0.023524277,-0.51433736,-0.009320043,0.019328283,-0.022237223,0.07581298,-0.011848437,-0.12931296,0.13213095,0.25811338,0.12792633,-0.22518621,0.052771945,-0.013865432,-0.8958477,0.044943582,0.000626307,-0.08893465,0.053774215,-0.10348591,-0.76040477,0.1870639,-0.23566103,-0.12701996,-0.23379447,-0.29926997,-0.26215482,0.17053103,0.069374345,-0.08526389,0.28826237,-0.20507145,0.54574996,0.0029592663,0.03287054,0.10243259,-0.14558788,0.32567555,-0.26218027,-0.13579367,-0.020486452,-0.36686617,-0.15239087,-0.25513327,-0.023170326,-0.09464942,0.03271467,0.47964042,0.16648981,-0.14313069,-0.21357937,0.036211908,-0.51767755,0.25442827,-0.35952574,-0.03490967,-0.0039059436,0.11176987,-0.0849145,0.2080476,-0.41248947,0.6433573,-0.27497005,-0.41772974,-0.18103102,0.03102769,0.18153507,0.23550586,-0.47955865,-0.098611176,0.19540325,-0.13044903,0.08304958,0.34226137,-0.09815443,-0.33337805,-0.011941318,-0.61019725,0.09706563,0.851226,0.3347543,-0.07940094,0.2765441,0.28189793,0.19415015,0.25113964,0.036372628,-0.10809019,0.16936098,-0.0418412,-0.60508347,-0.16180775,-0.27872887,-0.12757139,-0.504079,0.7623986,0.20193723,-0.407512,-0.44587016,-0.12851839,-0.10496442,0.16101675,-0.08555033,0.05910851,-0.0087381415,0.51552725,-0.113360025,0.27820832,0.680195,-0.086204566,-0.17195186,0.038587283,0.20676799,0.31255955,0.45162907,-0.21831195,0.11275706,-0.09774331,0.03194275,-0.13599622,-0.09607915,0.09038471,0.08896363,-0.0294849,-0.034437023,0.5356103,0.39692038,0.004841878,0.46239194,0.36187705,0.008981541,0.44090718,0.44167018,0.07785446,-0.074971564,0.055639267,0.23082754,0.166189,-0.15366933,0.1992827,0.168744,0.18312673,0.70527625,0.12006877,0.33563098,0.7637754,-0.6712611,-0.60969603,-0.1838391,0.61420286,-0.47517508,0.102462724,0.2907079,-0.05633955,0.45963454,-0.552812,0.0046356684,0.17188415,-0.016936006,0.080826044,-0.07209221,-0.15158233,0.20604017,-0.10630658,-0.1830568,-0.34253973,-0.540969,-0.120132886,0.029751187,-0.15915298,0.11140379,0.053947218,-0.13930218,0.0051368265,-0.16242084,0.38435614,-0.17417254,0.05030285,-0.09338445,0.30569565,0.04168064,0.70581734,-0.19091485,0.21751395,-0.17554033,-0.1634962,-0.103448555,0.14866719,0.085904315,0.15182637,0.52163243,-0.5476999,-0.2509883,-0.10183906,0.26092738,-0.25653085,-0.11049427,-0.013523534,0.07296726,0.24797791,0.111834824,-0.3878554,-0.14945075,-0.20101327,-0.6238088,0.22792195,0.026021022,-0.31003743,0.018529879,0.4824809,0.17305209,-0.033822857,0.06440513,-0.13113533,0.025149025,0.028099732,0.27117273,0.018962739,-0.24011913,-0.3194834,0.32592303,-0.17943752,0.28713775,0.09829285,0.21854475,-0.13749512,0.19483276,0.22823304,-0.12815826,-0.37932712,-0.5223163,-0.106511176,-0.16274914,-0.07317643,-0.2381931,0.06822444,-0.33822608,-0.011111051,-0.39142156,-0.2147439,-0.0900172,-0.034930855,0.026560396
10738095.pdf,-0.2886801,0.23194277,0.38824803,-0.027724486,0.5992244,0.10701623,0.17096096,0.39346144,0.03026182,-0.13094799,0.0094309645,-0.28318197,-0.01647298,0.05472035,0.09581742,0.43309033,0.25471157,0.10687832,-0.017354872,0.31952262,0.12230732,-0.28546056,0.14548779,0.4991042,0.3259551,0.09886865,-0.14605874,-0.15910044,-0.33620408,-0.22481976,0.68385065,0.0788289,-0.072261415,-0.24552801,0.018237418,0.017872948,-0.10332091,-0.116744846,-0.38644713,0.15792042,-0.5465671,-0.20621228,-0.10796555,-0.008142009,-0.19106987,-0.33791775,0.24853349,-0.17193297,0.08081352,0.033027533,-0.39466944,0.16253304,-0.22520576,-0.11868216,0.3190296,0.6818731,0.029081905,-0.69649076,-0.41327375,-0.37917286,0.14263317,-0.12817831,0.35707322,-0.1253303,0.13003851,0.14448585,0.20852304,0.2891474,-0.59207255,-0.21422414,-0.19160159,0.0403385,0.04537841,-0.12638329,-0.18282959,-0.07183418,-0.06641662,0.3825841,0.13993502,0.04242748,-0.33736256,0.23147547,-0.32974523,0.3628527,0.054775506,0.04952887,0.23264253,0.08212572,-0.2964061,0.5652978,0.16317198,-0.2878862,0.28247017,0.15295145,-0.053176843,0.064425156,0.15398154,0.04794187,-0.06537996,-0.013264562,0.19516146,0.11441542,0.07817307,-0.1421237,-0.059687264,0.0460152,0.017808903,0.025706604,-0.37351137,0.48222095,0.025672551,-0.22608833,-0.16512653,-0.4310844,-0.075145334,-0.12912716,0.046740226,0.113902315,0.051029652,0.18427368,0.14466366,-0.19806722,0.17584383,0.6889261,0.042876758,-0.08899771,-0.13467824,0.26236492,-0.18850832,-0.035136316,-0.15845269,0.05325214,-0.09315172,0.10806952,-0.16387364,0.237465,-0.25739032,-0.37899143,-0.04526033,0.28415897,0.11181081,-0.46030307,0.31159073,-0.14806521,0.11688106,-0.35505652,0.090998486,-0.070974834,-0.2402481,0.2522534,0.27430952,-0.09179911,0.17155047,-0.2289576,-0.02846834,0.00063069025,-0.26496103,0.16690394,-0.13252155,-0.13120261,0.44389382,0.567199,-0.3780109,0.12203242,-0.03907495,0.17985173,-0.31846845,0.35208702,-0.3334081,0.14890257,-0.03947933,0.06549406,0.62777877,-0.008224132,0.008857043,0.123370774,0.27144954,-0.07757898,0.12490597,-0.012523346,-0.4351902,0.35882062,-0.075858675,-0.005163972,0.37528867,-0.18168698,0.27455816,-0.2526936,0.032516677,-0.22420457,-0.24136208,-0.37672532,-0.045320574,-0.15634574,0.19166249,-0.24083027,0.054176703,0.1960192,-0.7192208,-0.24554987,0.308889,0.29414904,0.20857999,0.17314476,-0.16523373,-0.46758312,0.321644,-0.5349692,-0.029451253,0.25901684,-0.33144182,0.07098151,-0.12547667,0.37169448,-0.07814634,0.07912843,-0.12279122,0.0021103304,0.20041183,-0.022979341,0.1637404,0.24835023,-0.5526525,0.5277326,-0.3976977,0.62723726,0.021298729,-0.9403535,0.19953251,0.40272433,0.09996551,-0.32581794,0.4874556,-0.5410987,-0.022985965,0.10872786,-0.31598127,-0.15360732,0.13908285,-0.34226164,-0.3121381,0.52099234,0.28971797,0.18515223,0.11290501,0.06505208,-0.120819345,-0.12544514,-0.2376835,-0.2145298,-0.7315382,0.009521518,-0.045702644,-0.4165392,0.2121414,-0.44527218,-0.15330756,-0.29847074,-0.021916589,0.012251396,0.29752827,0.119035855,0.19343333,0.14662161,-0.16527414,-0.8160768,0.28278086,0.27683,0.07731643,0.27563378,0.14517646,0.12136417,-0.10840085,0.72092617,-0.27196008,-0.038581382,0.31489813,0.000576403,0.07190209,-0.14222904,0.1388744,0.46042806,-0.14877008,0.0022707789,-0.03943725,-0.20346287,0.25094166,0.05197307,-0.25735793,-0.05360475,-0.09638195,0.31486884,-0.5543443,-0.3182698,0.5031581,0.008319485,0.034272075,0.37966436,0.21559358,-0.01861448,-0.30900317,-0.27155966,0.097245544,0.11124483,0.15491311,0.09743176,-0.068889365,-0.7016093,-3.0649347,-0.024018565,0.080510035,-0.36135298,0.32327402,-0.11196865,0.05417136,-0.008006664,-0.48443207,0.32149142,-0.01950668,-0.23956442,0.10535024,0.2017053,0.20715554,-0.085628,0.021841042,-0.28449097,0.11899193,0.35589638,-0.22267263,-0.8718955,0.21280251,0.13787617,0.41403484,0.42071372,-0.53899086,-0.21214232,-0.30787724,-0.21820171,0.14592381,-0.23438522,-0.17732975,0.31405464,0.1394844,-0.107922755,-0.028216515,-0.4226339,-0.1740631,-0.58326894,0.17790101,-0.73612106,-0.18828866,0.02334904,0.6762078,-0.1004408,0.2183168,0.019454893,0.081109725,0.22170454,0.2759402,0.017580077,-0.35748565,-0.039539754,-0.03647403,0.060270704,0.45867464,0.2523654,-0.33108583,-0.06825559,0.12420721,-0.38798916,-0.5182388,-0.045533285,-0.16168645,-0.14907196,-0.6622165,-0.19807723,-0.09458987,0.071502194,-0.07118368,0.84916717,-0.322099,-0.094435364,-0.10031308,-0.5787798,0.36141843,-0.1928651,-0.0647787,-0.1759342,-0.054599646,-0.2997185,0.2559407,0.02943972,-0.08792049,-0.04480666,0.08815505,-0.054899372,-0.4437285,-0.6784171,0.368636,0.23058952,0.13808697,0.038974024,0.3015337,0.039573915,0.3641268,-0.06174075,0.060032733,-0.53433156,-0.0012461729,0.2166926,0.60674655,-0.17754927,-0.056606088,-0.05249104,-0.31701684,-0.15683618,0.011120647,-0.2299343,0.04579151,-0.35578167,0.207947,-0.2445417,-0.24396323,-0.112239026,0.20827633,0.75847864,-0.06419663,-0.17963633,0.013261791,0.3082342,-0.16271898,-0.19999163,-0.2765302,-0.10859035,-0.18956941,0.2993592,0.015651671,-0.0037294347,-0.041109413,-0.21920949,-0.21600352,0.18921243,0.32844537,0.21550274,-0.07770447,-0.61725247,-0.1947166,0.2795837,0.054808725,0.38048902,0.124441266,-0.10148764,0.16898951,0.19980608,0.10939296,0.26850408,-0.25249454,0.15517822,-0.6803136,-0.27675134,-0.06514941,-0.3646319,0.08126095,0.46148127,0.19197722,-0.19819684,0.05749369,-0.50554466,0.21169904,-0.040668417,0.29069006,-0.11351192,-0.23814416,0.6086899,-0.14241481,-0.047824685,0.033465043,0.025911324,-0.124756455,-0.30053282,0.08446483,-0.30151287,-0.07624394,0.64673674,0.27287075,-0.21792758,-0.051822975,0.11290692,-0.04995811,-0.24597523,-0.16883913,-0.23511958,0.381819,0.062391013,0.25739375,-0.28319412,0.04668012,0.03691892,0.10893037,0.36404014,0.03872715,-0.09896178,-0.20039329,-0.08516502,0.47139657,0.07352786,0.045561653,0.17149857,0.1468493,-0.3316554,-0.5180956,0.073266394,0.059484728,-0.2439583,-0.108597055,0.32873908,-0.105574295,0.1648511,-0.44564754,0.057546478,-0.45211923,0.11352882,0.09164111,-0.5340363,-0.20908439,-0.042186197,-0.48589385,0.10665561,0.0022957183,-0.09951942,0.052493718,-0.0679635,-0.26148415,-0.18895401,0.2080608,0.00537299,-0.35848185,-0.093679585,0.07169971,-0.8430717,0.11586173,0.005274453,-0.10985004,0.10049343,-0.052910727,-0.96583056,0.39118874,-0.19240579,-0.20252109,-0.059700135,-0.3547125,-0.26736218,0.17963544,0.104655236,-0.07058118,0.21093678,-0.045892168,0.5889021,-0.07401704,0.060187146,0.09757764,-0.3508726,-0.0212693,-0.48705864,-0.28041482,0.11437696,-0.23739654,0.008320259,-0.22587374,-0.08452995,-0.120505854,0.023712892,0.46397483,0.19092524,-0.19478306,0.034254313,0.042823464,-0.5376158,0.22796896,-0.26020792,0.020480445,-0.19548246,0.23409641,0.15416294,0.07123794,-0.5040613,0.41190165,-0.3026892,-0.43703294,-0.1502391,-0.17807743,0.05413696,0.36154696,-0.5398329,-0.2742319,0.13253893,-0.08199384,-0.057231724,0.43865597,0.12503518,-0.14465089,0.10469358,-0.48790047,0.21192113,0.634251,0.33047774,-0.06202066,0.23856533,0.15565512,0.118876755,0.23292588,-0.026273843,-0.16226521,0.4774667,0.023115192,-0.7109927,-0.17473528,0.14207153,-0.15917361,-0.45154783,0.7198029,0.17429543,-0.36832583,-0.55422044,-0.3353719,-0.31244618,0.27776754,0.062427886,0.20330778,0.21233165,0.54413444,0.045368556,0.21980432,0.5524474,0.07407381,-0.13253391,-0.04669617,0.3176946,0.12491195,0.39221907,-0.10294245,0.17811783,0.02017515,0.036698215,-0.27762818,-0.10332594,-0.014483392,0.031376775,-0.03479742,0.0050675496,0.59488994,0.46454227,0.32925254,0.36122173,0.37120867,-0.007666771,0.83905864,0.4359892,0.17182311,-0.029204724,0.2636897,0.055392068,0.13486007,-0.16632299,0.09961082,0.37055495,-0.22689292,0.646953,0.09843194,0.2711582,0.5488914,-0.70103824,-0.26100838,0.013370205,0.4064751,-0.41190973,0.12934962,0.18606472,-0.002968219,0.25410485,-0.45292008,-0.33634874,-0.034151662,0.15476072,0.1802109,-0.22881769,-0.19466966,0.11245538,-0.07954265,-0.2203321,-0.41062748,-0.36436373,-0.15306765,0.03969372,-0.11637977,-0.022902515,0.04314957,-0.3707022,-0.027778909,-0.1783907,0.5755016,-0.095910385,-0.15627828,-0.031091888,0.3792709,0.14579359,0.7881827,-0.19848461,0.066008724,-0.26352218,-0.1668503,0.038149454,0.07491232,-0.0459962,0.02640148,0.5252504,-0.4224558,-0.14543737,-0.20500812,0.3629508,-0.2782214,-0.08445634,0.043124594,-0.04325016,0.28008625,0.09798902,-0.2598319,-0.13890979,-0.09685424,-0.3342301,0.12880266,0.061235417,-0.3013237,-0.21058837,0.27561063,0.17192522,-0.016857497,-0.0033244814,-0.25054842,-0.022720434,-0.053306952,0.309382,-0.022663336,-0.23920396,-0.29057217,0.3511685,-0.12192871,0.1592297,0.17190002,0.30926594,0.07332778,0.059339114,0.45908982,0.0047584446,-0.23753603,-0.43611312,-0.3600691,-0.2604435,-0.24072957,-0.37054828,0.1128355,-0.22841737,-0.099087074,-0.5488409,-0.2867948,-0.14540958,-0.050126493,-0.16299279
10876132.pdf,-0.4760092,0.18381408,0.31645405,0.009283621,0.59340334,0.052445408,0.10494844,0.11634308,-0.047896743,-0.19950083,0.05117802,-0.17738608,-0.008187041,0.043516114,0.16722451,0.47706282,0.424936,-0.053262036,-0.33788335,0.26717687,0.2352711,-0.31036016,0.00029554218,0.67577815,0.26723474,0.1359974,-0.14292218,-0.09069378,-0.2414819,-0.20728561,0.5764383,-0.064033374,-0.028983613,-0.1882522,0.15930918,0.109736286,-0.1958301,-0.0075286515,-0.19682643,0.17752765,-0.32324865,-0.040556867,-0.29255617,0.053298485,-0.17291924,-0.2722481,0.15857589,-0.15616399,0.08095087,0.088843726,-0.41139245,0.27866435,-0.31404403,-0.23577398,0.2216565,0.7059479,-0.0555488,-0.60723996,-0.41051108,-0.36881506,0.20519066,-0.16362724,0.3719424,-0.2542113,0.18639894,0.10345551,0.13294151,0.44639996,-0.57696795,-0.20237239,-0.21442685,0.08110553,-0.18090454,-0.015103256,-0.30920994,-0.03037028,0.0414017,0.22075516,-0.045203403,0.14106502,-0.20175585,0.2535013,-0.288611,0.27098826,0.1521945,0.1292118,0.25646108,0.17514408,-0.16057804,0.6121203,0.19371988,-0.16565882,0.28608954,0.3013575,0.079908624,0.02187593,0.33796537,0.111785874,-0.15202433,0.017831853,0.12018195,0.0978819,0.079774484,0.102354445,0.012952231,0.14797997,0.17122631,0.1893593,-0.59313637,0.3945945,0.11135664,-0.221966,-0.32581258,-0.4523108,-0.19285607,0.01786723,0.1494348,0.070352435,0.112919174,0.063099496,0.09611758,-0.17145756,0.24382135,0.75864613,0.05113208,-0.027902631,-0.07170197,0.20035434,-0.08072698,-0.15707174,-0.12053792,0.17126068,-0.05351223,0.043339066,-0.22224587,0.3175596,-0.2850855,-0.1856431,-0.17859067,0.21885419,0.020374961,-0.65758985,0.5472297,-0.14562112,0.0025095325,-0.25883448,0.08590201,-0.0050742123,-0.15402314,0.32545507,0.32359496,0.011374761,0.004723563,-0.18932626,-0.10322058,0.08628707,-0.2853985,0.052565984,-0.18841872,-0.056495845,0.39969665,0.2589845,-0.40257478,0.21054679,-0.057404254,0.061166734,-0.24270472,0.32759854,-0.25096992,0.287025,-0.13654776,0.16565436,0.7254256,0.044102002,0.18696305,0.08525291,0.22405957,-0.12902866,0.20404628,-0.018437132,-0.5559759,0.32223105,-0.044395715,-0.14923677,0.18178734,-0.20299247,0.25975493,-0.3888809,0.15362811,-0.26228473,-0.23031913,-0.3153172,-0.10745171,-0.07654234,0.25317502,-0.1562851,0.21384391,0.009453056,-0.42970222,-0.28363955,0.33912674,0.3235373,0.13191333,0.23223937,-0.15834919,-0.5224447,0.25521365,-0.42581835,-0.26695606,0.2868214,-0.25446296,0.19560754,-0.1670233,0.12860495,-0.088761576,0.16512774,-0.12900919,-0.0649642,0.1598821,-0.014813051,0.16173747,0.15675321,-0.45901415,0.5446546,-0.32108343,0.46238306,-0.09261173,-0.8073069,0.3649867,0.23571277,0.044074252,-0.34775776,0.5107609,-0.37319624,0.02331322,-0.02490543,-0.40426317,-0.225966,0.26677778,-0.3889893,-0.24486198,0.49733478,0.29816747,0.16542311,0.11974227,-0.03428743,-0.069020055,0.07912948,-0.16541392,-0.037241023,-0.58494246,-0.07665497,-0.029962715,-0.4653831,0.108997315,-0.52774745,-0.13754305,-0.3725769,-0.22121552,-0.100401215,0.28556016,0.24529353,-0.0018939134,0.004889235,-0.08865146,-0.7428541,0.18092918,0.2819197,0.09639311,0.14807174,0.14489077,-0.13555501,0.0836791,0.46590543,-0.44701195,-0.115839295,0.18258435,0.057793766,0.083910435,-0.22132078,0.10240895,0.38517708,-0.22493008,0.071578614,-0.030835979,-0.16223106,0.24032444,-0.10326356,-0.23452644,-0.1574615,-0.2535575,0.115963444,-0.49610782,-0.19491765,0.41621685,0.0802178,0.14197236,0.3564846,0.24906439,-0.04377288,-0.31330788,-0.3578035,0.09292532,0.043010693,0.0042956024,0.1511415,-0.080667034,-0.5528698,-3.4460018,0.06382553,-0.018349767,-0.3246434,0.28918165,-0.10883086,0.28405792,-0.05365867,-0.4273886,0.14963996,-0.047676437,-0.256802,0.20713727,0.20265976,0.14890307,-0.08973729,0.05918379,-0.22067398,-0.066960156,0.2800682,-0.1199566,-0.84375757,0.08968299,0.0054158205,0.31961066,0.41240668,-0.47489202,-0.056540377,-0.37611756,-0.17421249,0.22075465,-0.1792717,-0.1623545,0.36416882,0.111071214,-0.004726696,-0.07898469,-0.3451391,-0.23847839,-0.5321874,0.10499439,-0.78426945,-0.24518232,-0.10848513,0.6353429,-0.08234659,0.25337285,-0.15916288,0.1582556,0.10789217,0.2526223,-0.018347789,-0.26983273,0.016505994,-0.001759896,-0.08342151,0.5336111,0.23013002,-0.3657593,-0.03911283,0.07543115,-0.32235813,-0.39863244,-0.030045565,-0.17309898,-0.13026877,-0.5187317,-0.33987623,-0.08574532,-0.08864008,0.066082336,0.7760261,-0.38671058,-0.3480398,-0.25314713,-0.41789114,0.33505833,-0.24788433,0.036050323,-0.18495038,-0.17071083,-0.3378589,0.16264087,-0.09654297,-0.10560332,-0.028794996,0.111033306,0.08284074,-0.5642982,-0.6033103,0.28098863,0.11148464,0.1853236,0.12586498,0.22543027,-0.008936533,0.31819448,-0.016406786,0.07448422,-0.3795005,0.09925909,0.12944205,0.6615863,-0.31025785,-0.015521948,-0.096590884,-0.2467839,-0.14005974,0.33354992,-0.21363346,0.19684134,-0.22479141,0.39303607,-0.36596948,-0.028241374,-0.059823215,0.22731578,0.65853715,0.048751578,-0.13501817,0.021866001,0.26749325,-0.23128703,0.006515337,-0.16030817,-0.06583615,-0.12398255,0.26324078,0.10462178,0.057979517,-0.17989264,-0.09561236,-0.2466912,0.32585573,0.32394361,0.05945193,-0.022978164,-0.49878457,-0.1889422,0.24688876,0.16306613,0.30328733,-0.002754284,-0.09349445,0.106246114,0.25983793,-0.11211969,0.35186625,-0.28870377,0.21029642,-0.6494459,-0.2785762,-0.1783541,-0.38637412,0.035724062,0.49562317,0.0029944703,-0.16789418,0.022326566,-0.39079607,0.21839365,0.042728715,0.28486973,-0.11976092,-0.22536656,0.5204841,-0.2353895,-0.11566515,-0.030567706,0.046683423,-0.30178726,-0.3256891,0.13592914,-0.44881397,0.052440688,0.5157663,0.15283883,-0.15658943,-0.10341974,0.30642158,-0.09870751,-0.28069338,-0.25389123,0.049754832,0.3120048,0.019056482,0.3520091,-0.41350803,-0.037748933,0.096501574,0.08804237,0.13879809,-0.19085558,0.19068551,-0.1543913,-0.08671735,0.4765663,0.03009808,-0.027843315,0.2146501,0.026906444,-0.3004877,-0.32645854,-0.11616792,-0.0332741,-0.2817997,-0.09840202,0.22620413,-0.016990978,0.0902216,-0.3859765,0.1074689,-0.5176695,0.02675671,0.20057401,-0.5733264,-0.14671713,-0.23493278,-0.44545072,0.18402755,0.03288159,-0.050289314,0.1620627,-0.064598836,-0.159246,-0.24139652,0.13997586,0.013488688,-0.27166545,-0.024580829,-0.0029671788,-1.0062286,0.17238419,-0.023822727,-0.1799991,0.01654832,-0.014964584,-0.7651361,0.40641183,-0.24707454,-0.10792766,0.029256366,-0.23230062,-0.22016296,0.27824357,-0.0018941723,-0.11125995,0.2832027,-0.036733415,0.71820974,-0.04512173,0.06709789,0.07432859,-0.12689045,0.1304391,-0.43632603,-0.3218438,-0.10738434,-0.13245007,0.1059403,-0.14734857,-0.22321573,-0.10440075,-0.08121154,0.4949656,0.065491945,-0.11969203,0.04835864,0.014219513,-0.617457,0.06712802,-0.3130328,0.06192383,-0.28338653,0.0362263,0.2555685,0.16382948,-0.5139566,0.56440926,-0.3309313,-0.4033196,-0.20732108,-0.055256747,0.04866587,0.25730908,-0.45547777,-0.2778984,0.24274597,-0.21748894,-0.13469036,0.49487555,-0.05353573,-0.2015332,0.11065118,-0.3690061,0.07800099,0.7360235,0.48040158,-0.004062934,0.34452826,0.07972203,0.039445244,0.24647108,-0.20617062,-0.16088803,0.2703899,-0.000976569,-0.54070413,-0.033656053,-0.15972082,-0.021806415,-0.42149973,0.6220412,0.24213088,-0.3359325,-0.41194004,-0.27882493,-0.21753909,0.22952063,-0.012314852,0.24890018,0.20228277,0.58407086,-0.011641827,0.2878375,0.58880055,-0.14139749,-0.10307309,-0.0077808434,0.37600896,0.1955593,0.3814303,-0.29282135,0.17061695,-0.06645226,0.12330689,-0.14511159,-0.2276313,-0.008634474,0.08288644,-0.0029008677,0.108487554,0.62557584,0.5543947,0.23176292,0.30874795,0.39150566,-0.084496185,0.76563954,0.43426445,0.15728179,-0.010147138,0.27330863,0.07459842,0.10862364,0.027628073,0.1918782,0.39967954,-0.19601968,0.50929725,0.17756107,0.2464824,0.51801956,-0.5260508,-0.24342018,-0.15466176,0.5936582,-0.3541746,0.047946036,0.12011966,-0.010164796,0.1534345,-0.6197705,-0.2731201,0.06903548,-0.09680581,0.21374825,-0.1408012,-0.09621764,0.12045259,-0.038924318,-0.22107396,-0.2966603,-0.38547778,-0.17634043,0.07544811,0.03852056,0.036221135,0.1514157,-0.26364815,-0.0060257944,-0.0722093,0.21900982,-0.031616844,-0.09347207,0.04971551,0.40437132,-0.024062926,0.6533927,-0.12164387,0.07671435,-0.1741463,-0.12963629,0.11337505,0.10041585,0.08153786,0.12640454,0.4304843,-0.477309,-0.2253532,-0.081919335,0.36900672,-0.33718276,0.014004819,0.1402816,-0.13308424,0.14678721,0.06865163,-0.2155382,-0.2643252,-0.10045463,-0.40617442,0.13876337,0.2086842,-0.42669317,-0.04228689,0.33689916,0.20902905,0.055418096,0.025155416,-0.2944662,-0.00030820258,-0.14276221,0.1910446,0.12966916,-0.32967696,-0.29607344,0.25799406,-0.17807662,0.24168003,0.25654387,0.17985432,-0.018946437,0.03988288,0.46657997,0.05769964,-0.22545166,-0.33136958,-0.08813988,-0.26201636,-0.012662314,-0.16796592,0.10822444,-0.3449931,-0.10867971,-0.4308685,-0.16606788,-0.14842726,-0.11836319,-0.12422903
11232471.pdf,-0.28581503,0.2031578,0.24901754,0.02387464,0.3840661,-0.0044728443,0.23664065,0.2297085,0.08713178,-0.28744864,-0.114964455,-0.17496632,0.021703728,0.09859551,-0.019022152,0.37883586,0.25304785,0.08648726,-0.094383724,0.30610958,-0.09873551,-0.2965332,0.08525419,0.4088664,0.25774056,0.17315331,-0.05241043,0.020103302,-0.2895619,-0.0148267625,0.5017847,-0.040125072,0.08306923,-0.32005632,0.015731413,-0.110776894,-0.045104258,0.08428973,-0.2180061,0.05777868,-0.41209388,-0.05356577,-0.004655458,-0.14051145,-0.16776091,-0.23913513,-0.032616988,-0.18679512,-0.052863672,-0.09819677,-0.35502273,0.26636916,-0.27189535,-0.16125387,0.10776746,0.51399875,-0.09040629,-0.3541187,-0.22502081,-0.33369088,0.09797151,-0.121374875,0.2173486,-0.05985722,0.12203211,-0.026208103,0.13874567,0.34238106,-0.5016154,-0.1285015,-0.38083723,0.12459481,0.051694494,-0.20099017,-0.21981345,-0.12830818,-0.07922165,0.294949,0.10286197,-0.06538616,-0.1802764,0.27172732,-0.13847905,0.19915302,-0.024001997,0.14131662,0.29658294,0.120316766,-0.0822563,0.78433585,0.07472361,-0.23143592,0.29674548,0.0012227532,-0.08902612,-0.08841855,0.08770068,-0.02399539,-0.025655132,-0.012032929,0.03195244,-0.16837353,0.04431505,0.04774553,-0.14120843,-0.00042837858,0.09864089,0.11049755,-0.36465544,0.39112964,0.04615174,-0.27777344,-0.15204787,-0.18197921,-0.012407889,0.2672544,0.04527221,0.06180974,-0.046629027,0.0929968,0.1913879,-0.14148916,0.0385439,0.53111863,0.06692348,-0.001803237,-0.033891946,0.102217875,-0.12726732,-0.06290072,-0.0699427,0.021536972,-0.09039951,0.06897261,-0.2967019,0.22972926,-0.118857965,-0.19293691,-0.14412151,0.042356152,-0.09795245,-0.39945912,0.36413783,-0.27099246,0.08417209,-0.19388786,0.09480758,0.04578632,-0.1941435,0.4329177,0.3364786,-0.03125328,-0.085657515,-0.28692406,-0.002837861,0.057670727,-0.124585755,0.20931894,-0.19069043,-0.07310352,0.37398928,0.29354522,-0.47035518,0.18408562,-0.13245255,0.06397701,-0.27388674,0.30003494,-0.17076321,0.06694632,0.098869115,0.07286984,0.39685184,0.07980615,0.01153294,0.13431408,0.16169286,0.009410122,-0.016293442,0.032007128,-0.41208506,0.2794773,0.09578898,0.057858642,0.20508581,-0.2655348,0.27033016,-0.35625303,0.07186674,-0.3188366,-0.22974294,-0.30729967,0.07942262,-0.023839619,0.07746691,0.020874491,0.056140535,0.06734675,-0.37774432,-0.1516922,0.27656132,0.18084006,0.08117758,0.16143629,-0.12372082,-0.3688961,0.15192741,-0.29400355,-0.11432644,0.19904004,-0.19068088,-0.06540418,0.006388236,0.24810573,0.13324082,0.0514363,-0.1328778,-0.07285051,0.09743661,-0.14136653,0.12476064,0.18635005,-0.49462798,0.32708377,-0.36616683,0.23790309,-0.07952487,-0.69432664,0.15375593,0.33396214,0.12890157,-0.27811134,0.41620937,-0.33099437,0.059865918,-0.0511719,-0.25833964,-0.039222952,0.19742583,-0.32244828,-0.24992219,0.42854542,0.087959744,0.15172693,0.07811259,-0.02183937,0.11539292,0.09305811,0.0022157952,-0.15764001,-0.4579757,-0.09046552,0.13059713,-0.218229,0.097588,-0.37161475,-0.042723507,-0.18249255,-0.080444634,-0.13931015,0.2808259,0.15083045,0.16647972,-0.058017027,-0.09330835,-0.5693344,0.14913025,0.119787656,0.012770958,0.1129501,0.04569663,-0.1535551,0.007933548,0.3553551,-0.28123328,-0.051795494,0.3970792,-0.025139283,0.004481446,-0.269402,0.11874684,0.26125464,-0.15278903,-0.067447215,0.056751877,-0.24938105,0.25487834,-0.14441511,-0.21511255,-0.16120832,-0.11040461,0.27458447,-0.40235192,-0.1437225,0.27880263,0.08116907,-0.15333644,0.20313361,0.088074684,0.019828618,-0.26732492,-0.35034376,0.28449947,0.0018418282,0.057743795,0.032414332,0.024391716,-0.48979455,-4.5153112,0.0511596,-0.03315097,-0.1806384,0.23492502,-0.12107462,0.17038913,0.0332691,-0.273377,0.13987193,-0.06396617,-0.11787829,0.04401826,0.25266308,0.15679842,0.02174015,0.15756923,-0.25627396,0.028941423,0.33890313,-0.073822126,-0.7663578,0.07642817,-0.06656728,0.2833398,0.22791773,-0.45569158,0.04455417,-0.38302985,-0.067161724,0.18759042,-0.073541984,-0.26936227,0.23361102,0.1517271,-0.23661157,-0.023435956,-0.20637737,-0.109185316,-0.47273213,0.34301424,-0.25707382,-0.12524693,0.14904752,0.6162819,-0.042445377,0.20631963,-0.083856046,0.11082475,0.05068528,0.31910503,-0.043485854,-0.15250503,-0.07270944,-0.038743313,-0.07511049,0.49095288,-0.0006415695,-0.22740595,-0.1258064,0.119938664,-0.26494873,-0.26628092,0.18256924,-0.16852292,-0.0668751,-0.42195687,-0.2004087,-0.30457988,0.020668475,0.06687783,0.49203992,-0.26543254,-0.22179522,-0.14835101,-0.3490647,0.18761069,-0.15331656,0.14368632,-0.26648864,-0.091511175,-0.21712656,0.24169749,0.16667068,-0.110399194,-0.0652408,0.12235145,0.11113631,-0.44201708,-0.36701745,0.2618047,0.07760757,0.13653018,0.07875469,0.20131484,-0.21523105,0.44035482,-0.013714774,0.03280323,-0.32134676,0.0075473636,-0.008798491,0.45544535,-0.07726343,0.010845467,0.08125898,-0.14664733,-0.2476494,0.3655921,-0.20512995,0.18219507,-0.13989735,0.16924615,-0.18370703,-0.025436353,-0.041114345,0.06874722,0.6520053,-0.050085858,-0.11129372,-0.0778607,0.258921,-0.1787799,0.019532531,-0.2076483,-0.058308326,-0.15315062,0.22948316,0.08361879,-0.06845462,-0.113010645,-0.04856586,-0.060292535,0.092678525,0.34799758,0.06624475,-0.03434696,-0.47283316,-0.23038255,0.10928224,0.08758034,0.31440032,0.22595017,-0.110700324,0.11848932,0.1651136,-0.04958871,0.2964346,-0.15745068,0.16973144,-0.3232637,-0.27230397,-0.04351583,-0.24246421,-0.018656023,0.2500438,0.08573828,-0.085263155,0.034444414,-0.39002162,0.25742888,0.078101486,0.15964408,-0.03790602,-0.053049646,0.6381978,-0.08318777,-0.08760039,-0.103671126,0.099419564,0.0049758214,-0.24245006,0.07174549,-0.4335646,-0.0598645,0.35143816,0.2794655,-0.15354736,-0.04799898,0.28507012,-0.020966433,-0.407519,-0.1704317,-0.13872625,0.19759071,-0.012214076,0.08355382,-0.27670664,0.0058014174,0.090430446,0.14905816,0.14885053,-0.08571123,0.10838937,-0.14721155,-0.05630558,0.32292625,0.19867757,-0.032337274,0.09793417,0.025718914,-0.26730967,-0.3558441,0.03336417,0.14879209,-0.08516353,0.0687061,0.35684073,-0.040081427,0.054610867,-0.3166362,0.014231644,-0.35749498,0.014090132,0.04635199,-0.538275,-0.26148835,-0.09099919,-0.19594358,-0.005265724,0.08248825,-0.15801632,0.019237842,-0.07321074,0.022497416,-0.025736643,0.22859676,0.019645635,-0.07498327,-0.11745301,0.060165003,-0.6052772,0.17474137,0.1375038,0.011339391,0.08173017,-0.16668053,-0.40732867,0.37483436,-0.16921905,-0.23846114,-0.068183504,-0.27758563,-0.16859107,0.1262279,-0.010572967,-0.11912504,0.27408063,0.041268088,0.5564858,-0.20308751,-0.036043692,0.0108948015,-0.09366355,0.11006561,-0.4055633,-0.220417,-0.004321115,-0.17704588,-0.07514104,-0.18504462,0.056210157,-0.16887772,0.13506895,0.21511526,0.18372077,-0.21683793,0.030027013,0.044178233,-0.36775038,0.16248965,-0.28580302,0.07247633,-0.11360407,0.07042432,-0.09577268,0.12816536,-0.45169765,0.32105702,-0.14045556,-0.3480318,-0.20983395,0.09272836,0.15051453,0.39373863,-0.47696477,-0.19411488,0.080579504,-0.18826194,0.049243,0.21694323,0.0063587115,-0.07823587,-0.026998507,-0.5144519,0.13163915,0.5328877,0.23334973,0.057181336,0.21877891,0.17777967,0.22875205,0.38385367,0.0075816996,-0.17073825,0.35951084,-0.016413525,-0.6487621,-0.014887065,0.018020265,-0.15531746,-0.38090616,0.5173076,0.18535891,-0.4425316,-0.34573776,-0.16756478,-0.23857728,0.20245951,0.071605116,0.16497454,-0.06665953,0.52590793,-0.015892569,0.15211198,0.5338486,-0.021679856,-0.16682819,0.098601826,0.16820803,-0.061690178,0.26864862,-0.1578739,0.140957,0.0531509,0.056082487,-0.09883135,-0.16700551,-0.072070286,-0.025208669,-0.030864399,0.046505697,0.42422315,0.35815558,0.20075308,0.066805616,0.21732429,-0.08322157,0.46135664,0.39403337,0.05709723,-0.17587507,0.08988267,0.03392038,0.30316052,0.030133143,0.22647834,0.28874028,-0.1635957,0.4306355,0.03698045,0.26677126,0.49402744,-0.43439144,-0.18509248,-0.1581799,0.30544502,-0.3935266,0.037703276,0.22461553,-0.048905283,0.16688102,-0.30612683,-0.14854473,0.002538994,0.20738074,0.13719553,-0.16229606,0.069846526,0.23475951,0.04872662,-0.18019377,-0.17089453,-0.3311055,-0.13889429,0.23232496,-0.09192555,0.024726596,0.08647406,-0.17727229,0.059939034,-0.052981555,0.3136253,-0.11823491,-0.049649384,0.09654027,0.21757534,0.16767462,0.45932263,-0.0352064,0.11584974,-0.18775457,-0.13002494,0.08567509,0.15206136,0.011992203,0.02946885,0.41763285,-0.35379893,-0.10564004,-0.08241002,0.1540941,-0.27432662,-0.1307168,0.080493376,-0.018871516,0.052631687,0.094934896,-0.14455415,-0.17610061,-0.08950007,-0.3159338,0.07297025,0.39343193,-0.4518207,0.024372838,0.11120551,0.14654043,-0.17377985,0.006203359,-0.18463406,-0.06985736,-0.1614418,0.17904751,0.021020655,-0.19177184,-0.26322198,0.18376543,-0.051366057,0.1286703,0.060127,0.09927651,-0.010784682,0.043110333,0.28023216,0.0015452099,-0.19778793,-0.16072984,-0.037456144,-0.012764774,-0.05274385,-0.21852507,0.17733565,-0.14632738,0.043062393,-0.31674597,-0.076522306,-0.12170296,-0.0035450016,-0.166933
11409460.pdf,-0.39358267,0.24882403,0.30595738,-0.006154405,0.81298196,0.14864835,0.068026856,0.31261313,-0.07733718,-0.18304491,-0.022523247,-0.15458852,5.9077516e-05,0.11636912,0.016311418,0.5351875,0.26121575,-0.09751207,-0.050928567,0.41153476,0.14159684,-0.22905102,0.117161505,0.6489147,0.28750056,-0.021647874,-0.14817916,-0.0671207,-0.43025833,-0.20918262,0.37604898,0.050164036,-0.11202866,-0.321459,0.13997005,0.02979473,-0.31489766,-0.042046256,-0.14318532,0.24822235,-0.52873266,-0.19762617,-0.11090338,0.0011600293,-0.2621188,-0.17840482,0.18731047,-0.20558956,-0.023378644,-0.0032498091,-0.38815045,0.30809432,-0.131131,-0.2582603,0.21060482,0.65620357,-0.17304051,-0.53126,-0.43907326,-0.40277737,0.20747206,-0.09530288,0.39605397,0.027936278,0.13284239,-0.088088095,0.08108958,0.2840954,-0.6974747,-0.19924822,-0.330072,0.18176006,-0.1881395,0.07900694,-0.20894356,-0.14024708,-0.017541593,0.2731217,-0.15320991,0.26085824,-0.16244382,0.34929818,-0.042659197,0.12464487,0.18944436,0.14801937,0.20214346,0.25902617,-0.35842946,0.68164283,0.33594537,-0.22732547,0.2867204,0.15244496,0.08729483,0.23886177,0.084107436,0.2109611,-0.16230446,-0.029484125,0.026097864,0.02582372,0.23145522,0.060228676,0.017666075,-0.16631392,-0.011878273,0.22032252,-0.40149882,0.3615448,0.07263292,-0.18943855,-0.18878996,-0.47935075,0.065966964,-0.035665102,0.023841733,0.06074574,0.10477542,0.14080597,0.18880013,-0.06456451,0.20671313,0.7097502,0.05134523,-0.0021166224,0.052151818,0.2627835,-0.07067365,-0.103267156,-0.035938244,0.27979717,-0.11478028,0.07359943,-0.46267527,0.19035813,-0.19853084,-0.10000815,-0.04633124,0.15344806,-0.25470507,-0.6311902,0.39550245,-0.123728186,0.047117025,-0.3072483,0.029604618,0.10293704,-0.119958736,0.4917543,0.29656577,-0.020534623,-0.105842,-0.25391388,-0.12691435,0.08269979,-0.25447312,0.13301536,-0.20114306,-0.1855589,0.315688,0.33067188,-0.4444713,0.27132913,-0.104299694,-0.007086357,-0.24930102,0.32747,-0.35622704,0.112109974,0.007838795,0.03205146,0.5992299,0.20354025,0.24561252,0.10059513,0.20049627,-0.04532921,0.19239306,0.0069516916,-0.44946146,0.42963785,-0.06109491,-0.122271776,0.12986456,-0.1642201,0.37144583,-0.3907995,0.090510264,-0.2820668,-0.3459798,-0.38927683,-0.008907665,-0.04145816,0.23670131,-0.13713747,0.08310279,0.1469794,-0.55136335,-0.26330307,0.30788046,0.21559612,0.15873575,0.10116795,-0.006122918,-0.47085434,0.23146474,-0.35533467,-0.12590472,0.16967642,-0.29847836,-0.089291915,-0.09821367,0.27446514,0.020911966,0.10020325,-0.19398576,-0.16516997,0.24207988,-0.083117574,0.25180674,0.19907264,-0.4271099,0.4662705,-0.49541825,0.441822,0.05531141,-0.7309318,0.3471441,0.32056051,0.0026856922,-0.36475646,0.39933297,-0.41620228,0.08610487,0.09743614,-0.28359744,-0.022885798,0.21207932,-0.3124044,-0.25932032,0.5371913,0.1875891,0.057334088,0.16726892,-0.056020346,0.026374886,-0.14255734,-0.19484144,-0.22838163,-0.6548691,0.1260038,-0.057814248,-0.49106392,-0.06412242,-0.4474426,0.002533093,-0.38573647,-0.11742754,-0.13428292,0.3412823,0.15511493,0.08222083,-0.060378656,-0.07827141,-0.70150673,0.08387542,0.20971051,0.13385513,0.36895233,0.33815885,-0.1328143,0.0893351,0.49577153,-0.5009601,-0.121936545,0.26476786,-0.0142665375,-0.06637926,-0.21197195,0.22163594,0.2614141,-0.14541757,0.044748195,0.0026465096,-0.09576346,0.3130876,-0.015118767,-0.09646529,-0.35169345,-0.14001271,0.17968328,-0.56143916,-0.2555768,0.37844175,0.008303648,0.04631161,0.26325905,0.32974494,-0.012578773,-0.23158246,-0.24934912,0.23196891,0.13841389,0.07456593,-0.06594668,-0.07687456,-0.6318778,-3.4486907,-0.04197948,0.03521659,-0.29651326,0.3539394,-0.053490076,0.07019206,0.07458578,-0.3718499,0.18042096,-0.12263428,-0.22578874,0.07510872,0.28072244,0.23360318,-0.058117285,0.16110303,-0.16456434,0.01937897,0.37975672,-0.305836,-0.8435305,0.19203028,0.08042708,0.35692197,0.26656586,-0.577088,-0.07621959,-0.3820793,-0.091222376,0.018704556,-0.19121057,-0.24291056,0.29339626,0.080529675,-0.12882555,-0.057607673,-0.3768049,-0.11417852,-0.52836144,0.08540573,-0.6523627,-0.13742472,0.028405072,0.64873445,0.004917547,0.30459446,-0.16705501,0.2087503,0.20975041,0.16194183,-0.02311424,-0.11017883,-0.116588265,-0.024283204,0.0026550405,0.47754958,0.26390314,-0.34269845,-0.023045808,0.1784774,-0.35901886,-0.3333336,-0.13990143,-0.339477,0.033640947,-0.5611973,-0.22109675,-0.04227131,-0.15991807,-0.08600579,0.6407206,-0.27282646,-0.19005218,-0.1048365,-0.4403134,0.16348012,-0.25475883,-0.026752148,-0.2722201,-0.16069762,-0.35836324,0.4355495,0.054050975,-0.20682508,0.029362239,0.019344354,-0.07841432,-0.50799966,-0.46782118,0.36707565,0.03370022,0.26265186,-0.09537487,0.2949602,-0.09850513,0.47260368,-0.047104817,0.2236397,-0.41617996,0.030678857,0.13678311,0.52169925,-0.22527936,-0.0500892,-0.078340426,-0.24924192,0.060135424,0.2545481,-0.026601084,0.13965368,-0.13218147,0.3071888,-0.46879148,-0.13368931,-0.010352752,0.19385645,0.6949229,-0.07650514,-0.16538806,-0.1543357,0.053975698,-0.3299425,-0.2333186,0.053167053,-0.123254,-0.17477563,0.36843032,0.04565481,-0.1307286,-0.18594213,-0.09024468,-0.14974596,0.19476588,0.27712283,-0.034515265,-0.16752881,-0.5396826,-0.013060875,0.28118518,0.032717932,0.21372661,0.11434116,-0.12192512,0.14603214,0.3236805,-0.067514315,0.4888709,-0.16461736,0.1588332,-0.73462105,-0.3670833,-0.14828236,-0.15258516,0.07239828,0.48045754,0.20942551,-0.12294617,0.048003986,-0.546277,0.22341304,-0.07644516,0.34452248,-0.2086408,-0.22364578,0.6981458,0.006573338,-0.13089012,-0.073503554,0.1004551,-0.28243744,-0.36567697,0.20615266,-0.31778157,-0.07564827,0.4294685,0.28150645,-0.20532565,-0.027873525,0.3751388,-0.12798527,-0.24454473,-0.19876957,0.056231767,0.16795278,-0.009371646,0.38210028,-0.48527813,-0.0059903604,-0.012932667,0.02916184,0.1699466,0.09493987,0.18559925,-0.03954091,-0.06984722,0.48323703,0.17012838,-0.07902326,0.22755015,0.14802063,-0.31367424,-0.4575152,-0.035245344,0.07727379,-0.119995415,-0.06733818,0.22479777,0.12387133,-0.07258653,-0.45652625,0.023264319,-0.49511224,0.08457479,0.011017464,-0.6658014,-0.19153042,-0.13277192,-0.34749866,0.0145816635,0.0533894,0.04725081,0.089453846,-0.013453158,-0.16551758,-0.13949428,0.23141055,0.0022117645,-0.1875487,-0.12232794,0.14407638,-0.9544357,0.057794042,0.13563663,0.033912733,0.008162245,0.07211542,-0.8832699,0.3330246,-0.29525802,-0.13441595,0.00708819,-0.24796295,-0.28779933,0.11908111,-0.13122582,-0.083509654,0.21688056,-0.029663764,0.56909883,0.02043219,-0.054117378,0.15618278,-0.1760807,0.18507062,-0.31921762,-0.31503066,0.050482314,-0.16750582,0.0438388,-0.34300607,-0.0006630942,-0.1690064,0.08017192,0.52228945,0.23612586,-0.26218504,-0.056130297,0.10545317,-0.55488384,0.21906501,-0.37885094,-0.034742642,-0.21895054,0.2708059,-0.004991047,0.16510706,-0.3393177,0.70731354,-0.33625957,-0.49086183,-0.27286017,-0.05294633,0.1078662,0.3558733,-0.42870075,-0.19475499,0.1381719,-0.239364,0.07660242,0.51304275,-0.061827138,-0.23592396,-0.02373793,-0.64674175,0.14702272,0.8425715,0.40122926,-0.028477341,0.3534042,0.10568335,0.0021741167,0.15498835,-0.15292352,-0.14154428,0.3036075,-0.0046250783,-0.4932717,-0.138622,0.024162024,0.021424472,-0.4483201,0.6219063,0.10582335,-0.3253578,-0.3810951,-0.23767091,-0.18235981,0.29992956,-0.04396291,0.11877066,0.009574445,0.48771864,0.060115464,0.28136095,0.7160136,-0.03430403,-0.15628625,0.12826605,0.23405218,0.05175773,0.33262414,-0.13642383,0.06994955,-0.17215338,0.1285968,-0.19583601,-0.24727088,0.14460233,0.1230269,-0.12132096,0.10451621,0.503189,0.39794928,0.2732398,0.22863051,0.22556949,-0.038155925,0.55743694,0.58090353,-0.014028031,-0.048982974,0.121623345,0.13849233,0.13083065,-0.060356405,0.24703519,0.36528087,-0.042393178,0.5641192,0.19106661,0.4014628,0.51026267,-0.49861652,-0.28574187,-0.25312486,0.6041708,-0.37457794,0.06436178,0.19563235,0.060058936,0.1989903,-0.53514385,-0.22768837,0.09508585,0.10669199,0.25103277,-0.08498435,-0.105457805,0.20585008,-0.05720068,-0.08875607,-0.2429682,-0.4015202,-0.22970688,0.20442754,-0.09629611,-0.014947306,0.11549303,-0.11803511,0.034539983,-0.11867924,0.24323827,-0.215399,-0.21726626,-0.10438334,0.29627872,0.13370478,0.7094954,-0.12927662,0.105603084,-0.1719155,-0.26051265,0.044410713,0.25041965,0.013884544,-0.0018673707,0.6430233,-0.3479539,-0.053904265,-0.24569765,0.19105197,-0.23140997,0.007641445,0.018455291,-0.18459545,0.0347314,-0.052755572,-0.19526136,-0.254467,-0.14134112,-0.452582,0.04565034,0.13889062,-0.43856674,-0.08474761,0.34224778,0.14053336,-0.20284978,-0.02647836,-0.1690005,0.013073944,-0.057396345,0.12861107,0.04272288,-0.10768108,-0.32837796,0.30662385,-0.016208228,0.14513537,0.30707157,0.25069445,-0.2091237,0.024325665,0.38925517,-0.14890292,-0.25266632,-0.35094643,-0.22302115,-0.03643535,0.04515355,-0.28161338,0.16635951,-0.26407242,-0.03758554,-0.51208156,-0.2669319,-0.11432684,-0.01828595,-0.0984904
11677077.pdf,-0.28005135,0.31737334,0.46824503,0.15428439,0.7459408,0.12647669,0.22342327,0.3275121,-0.12800555,-0.18778537,-0.14935562,-0.2659001,-0.05240972,0.18503946,-0.12411237,0.40498966,0.29187262,0.03187228,-0.14792484,0.42655426,0.16147488,-0.26405627,0.19954304,0.38035497,0.3574288,0.055159505,-0.18098544,-0.0037386008,-0.4318874,-0.3273699,0.5787334,0.18945467,0.05065582,-0.21061571,0.14610983,-0.09240958,-0.08123706,0.015167473,-0.2405169,0.087736495,-0.55421746,-0.13002235,-0.11115195,-0.073444344,-0.22593868,-0.2223659,0.20824648,-0.29844475,-0.22238179,0.02536041,-0.35117397,0.316519,-0.27713317,-0.14695558,0.24444261,0.51597446,-0.3123663,-0.52812004,-0.4436993,-0.4364437,0.29167953,-0.055063874,0.23544402,-0.21232733,0.22020152,-0.03238938,0.18032236,0.27422202,-0.5320391,-0.22758183,-0.2994518,-0.088117234,-0.10110422,-0.21648511,-0.16406928,0.001552552,-0.026629163,0.31237733,0.008881073,0.009156534,-0.3568253,0.261508,-0.018365307,0.20864713,0.19612004,0.016937872,0.07092023,0.11054414,-0.13423711,0.6639904,0.1684403,-0.18134171,0.3187396,0.072422415,-0.07159889,0.06917776,0.10382106,0.12608078,-0.121117145,0.020169757,0.100180194,-0.10648051,0.3353973,0.056790758,0.03809242,-0.081299104,0.02135619,0.28130397,-0.2642671,0.5412145,0.18659255,-0.4051047,-0.09826353,-0.21319824,-0.052597627,-0.035238154,0.18113613,0.1466001,0.0070564393,0.12585276,0.2654013,-0.24937502,0.23250529,0.61395067,0.020004883,-0.011986598,-0.054302458,0.28948453,-0.096136436,-0.04923591,0.04956847,0.26990843,-0.0076865815,0.044121794,-0.35183623,0.14661811,-0.30300936,-0.31170952,-0.019258054,0.075806454,0.06140139,-0.47043848,0.4266606,-0.049179368,0.09456481,-0.29197133,0.12933713,-0.0038461527,-0.17487577,0.5153494,0.2890113,-0.02953145,-0.028668625,-0.23395741,-0.039064873,0.10180001,-0.44639045,0.0382766,-0.19891514,-0.21089965,0.30937582,0.46603793,-0.5778371,0.12528135,-0.08704265,0.081057824,-0.15348285,0.42877313,-0.30549926,0.16355322,0.030399559,0.1616705,0.63851583,0.15038384,0.22746514,0.15487123,0.21179232,0.018208455,0.20990783,-0.11198102,-0.6569382,0.6084741,-0.13871363,-0.0054869447,0.31501517,-0.17022835,0.26658893,-0.42719197,0.0041021165,-0.45341364,-0.3115331,-0.25402874,-0.13751817,0.07512124,0.09245579,-0.17339861,0.17014596,0.1441171,-0.59592944,-0.288329,0.15437302,0.33073246,0.23448363,0.10630858,-0.011044029,-0.53490114,0.25450388,-0.32858765,0.03041457,0.16219619,-0.36417156,0.033555407,0.04405543,0.38004297,-0.100063205,0.15630177,-0.10661426,-0.2015877,0.15668577,-0.10468627,0.06987591,0.16956149,-0.4262534,0.567764,-0.40069473,0.5030857,0.034104314,-0.6109965,0.2857318,0.33381236,0.11193315,-0.18180203,0.56197363,-0.41513136,-0.08766251,0.04340694,-0.0882697,-0.2562043,0.18120709,-0.43288285,-0.389131,0.33747667,0.41384697,0.04882649,0.17601058,0.02181936,-0.12291905,0.07613148,-0.1366454,-0.20127696,-0.5608844,0.08183081,-0.15467767,-0.44378924,0.18288566,-0.41295645,-0.07691186,-0.34843886,-0.13335021,-0.013115565,0.20641859,0.105941504,0.119068265,-0.15706888,-0.3034837,-0.75594556,0.03840069,0.5025354,0.14480053,0.325654,0.14764772,-0.08183555,-0.016597502,0.5912057,-0.46787846,-0.11124843,0.3778048,0.06149447,0.012644687,-0.23385985,0.11790359,0.37368792,-0.12046672,0.107416354,-0.0358728,-0.3375119,0.3440796,-0.06730209,-0.27412605,-0.25352976,-0.2625332,0.2853592,-0.43862236,-0.302961,0.48502946,0.118547976,0.056412768,0.3572691,0.43701655,-0.1904872,-0.11504629,-0.3051381,0.25043988,0.23297948,0.02512765,-0.0886655,-0.08364329,-0.85370564,-3.302823,0.069149524,0.05446077,-0.27245575,0.33692384,-0.15624498,0.24980748,0.086401306,-0.44998413,0.3933463,-0.08505355,-0.21617794,0.058416612,0.3374757,0.31712037,-0.07353831,0.1792329,-0.23193386,0.012979643,0.26894867,-0.25361988,-0.86591536,0.21792704,0.25425094,0.14025666,0.5031589,-0.2941189,-0.17068984,-0.3376993,0.0097359,0.10505559,-0.14897124,-0.3907382,0.20501226,0.22882247,-0.092851676,-0.12000543,-0.43302447,-0.2022554,-0.4447934,0.22656769,-0.49015915,-0.07653398,-0.09257512,0.6354972,0.022076491,0.11281547,-0.2247986,0.07770488,0.23766023,0.3724516,-0.021443438,-0.21529171,-0.16890366,0.08062953,0.12734528,0.51680857,0.19350079,-0.35859814,-0.12893632,-0.015747529,-0.28430843,-0.28704622,0.035558123,-0.17191234,-0.13580193,-0.6884238,-0.14978218,-0.033656422,-0.083045706,-0.19846714,0.6719916,-0.2944684,-0.1452241,-0.08868767,-0.36964184,0.19632664,0.0013507381,-0.0042417776,-0.156517,-0.14266391,-0.27981848,0.12277937,-0.061794285,-0.14870358,-0.15793447,-0.18361422,0.07118513,-0.56228924,-0.5213362,0.3223751,0.2851832,0.1646978,-0.07475967,0.2766462,-0.060281064,0.5360599,-0.08085606,0.19174792,-0.46394497,0.04800701,0.04635834,0.8316972,-0.41427255,-0.052189924,-0.0060003866,-0.34550998,-0.008063354,0.13790238,-0.14337514,0.072007194,-0.38740942,0.231937,-0.44173416,-0.14213902,0.029831184,0.30262065,0.72600925,-0.19985488,-0.09378719,-0.03390493,0.333432,-0.3988369,-0.21125634,-0.051231176,-0.04236804,-0.2057065,0.24437615,0.25598806,-0.07457839,0.034519665,-0.14815234,-0.12808202,0.17036982,0.26846075,0.08058405,-0.10091387,-0.64064837,-0.18890747,0.2704048,0.07083347,0.072488345,0.023130566,-0.16357712,0.12119736,0.33471957,-0.11074765,0.17488211,-0.15248936,0.14449407,-0.6737739,-0.4040025,-0.19289728,-0.3176592,0.2809075,0.43480018,0.18774283,-0.02268808,0.060378455,-0.63979566,0.11602154,0.042847693,0.280733,-0.058896244,-0.46937189,0.44332248,-0.08891344,-0.12230775,0.00067515485,0.24871811,-0.16331224,-0.21259704,0.24456152,-0.15665315,-0.030252332,0.41386315,0.29149836,-0.1877443,0.00079687685,0.03106247,-0.22921959,-0.4057394,-0.21076158,-0.17995769,0.27645713,0.060157448,0.41489166,-0.34589088,0.07773928,-0.22819912,-0.002570081,0.1614219,-0.07681288,0.069035806,-0.1504271,-0.115534574,0.47049809,0.18398792,-0.1972138,0.3295122,0.124827884,-0.31247994,-0.5917824,-0.111928865,0.12445517,-0.20921753,0.055566177,0.30743796,0.038907856,0.071513,-0.4994972,0.10002853,-0.4503379,-0.024603281,0.015840122,-0.6013607,-0.097769484,-0.17010148,-0.22075969,-0.0067158192,-0.11185043,0.08053219,-0.016432786,-0.08254012,-0.107248254,-0.22552407,0.30702174,-0.012151085,-0.042989872,-0.042447157,-0.039550696,-0.9988382,0.124165416,0.13873044,0.037140146,0.15354396,-0.0931404,-0.77936566,0.0890375,-0.2572501,-0.2744301,-0.11821305,-0.24393162,-0.21509576,0.2557611,0.10313597,-0.26128614,0.20446205,0.026631586,0.6769723,-0.008903986,0.081918076,0.058468357,-0.029170323,-0.018496208,-0.40921295,-0.38316482,0.08667654,-0.07304425,0.14208771,-0.22828254,-0.10069096,0.03159713,0.112689756,0.45123702,0.26386863,-0.22340044,0.06522326,0.075934246,-0.4656335,0.41134578,-0.36614373,0.04773031,-0.2624199,0.19791509,0.15421137,0.13388589,-0.5217114,0.35160398,-0.49637973,-0.41577026,-0.1272322,0.10185391,0.13908666,0.403795,-0.45363855,-0.17043683,0.28363454,-0.30811125,0.1162983,0.44711146,0.15637295,-0.07539573,0.076317064,-0.4521379,0.19590667,0.7655908,0.42356667,0.062423162,0.21944153,0.16968751,0.06311261,0.14060718,-0.23941845,-0.06861456,0.37814128,0.007069229,-0.654999,-0.26587677,-0.012551457,-0.112482354,-0.50474495,0.6490923,0.13968892,-0.33243817,-0.48253024,-0.15645523,-0.1615999,0.21571977,0.23833251,0.1192057,-0.066656515,0.48163635,0.092040025,0.14842921,0.49320927,0.033272777,-0.12829074,0.042254463,0.112726286,0.042909894,0.41111472,-0.2079036,0.003957698,-0.02421431,0.019461595,-0.37628177,-0.29585615,-0.0001241155,0.1595749,-0.10854041,1.3347715e-05,0.58336306,0.40766832,0.109861776,0.38676465,0.3214172,-0.049564697,0.6631182,0.5682736,0.0023368597,0.056327604,0.07384527,0.21376309,0.053835947,-0.23276702,0.27772355,0.34013394,-0.14611033,0.53711486,0.11911415,0.35466692,0.4077621,-0.60638016,-0.37968415,-0.056440745,0.4284662,-0.49982107,0.018609982,0.29328114,-0.058431175,0.3305173,-0.505129,-0.12787363,0.11677022,0.051523678,0.13928351,-0.057324976,-0.21722195,0.14285679,0.023279948,-0.1012187,-0.2743887,-0.35366702,-0.14110982,0.1727469,-0.08526333,0.008281654,0.010997345,-0.17363724,0.006511965,-0.1472514,0.115188494,-0.33600914,-0.07717559,-0.12141094,0.24368846,0.14376512,0.6180649,-0.34636226,0.10420062,-0.24779087,-0.1570042,-0.11388777,0.074459374,0.040399916,0.058034368,0.5355841,-0.45432058,-0.13918537,-0.14267628,0.1793735,-0.23376556,-0.19690633,9.687478e-05,-0.23133475,0.094423614,0.06788232,-0.19400837,-0.3084898,-0.06474948,-0.42922068,0.15601334,0.21693075,-0.24500418,-0.04070037,0.26452768,0.03878909,-0.16203603,-0.01736179,-0.22276193,-0.057422213,0.0013700277,0.1254823,0.18437958,-0.25892082,-0.25415164,0.14604494,-0.06524691,0.17826897,0.24271461,0.11996186,-0.093266085,0.02761744,0.5290283,0.15585943,-0.3086195,-0.26769462,-0.27078435,-0.051962256,-0.085577816,-0.32375544,0.14163032,-0.12354608,0.022848682,-0.2763189,-0.20995972,-0.061285235,-0.112904646,0.013869591
12059610.pdf,0.008216375,0.45323062,0.31035838,0.15536745,0.8775753,-0.066903256,0.20124231,0.33507043,-0.14582077,-0.23164248,-0.1978304,-0.3309033,-0.23147893,0.12867124,-0.10975802,0.52181286,0.38517144,-0.075145796,-0.13933083,0.42387247,0.13109656,-0.1186994,0.144232,0.49202722,0.17607376,-0.07228026,-0.12255884,-0.017435055,-0.3658031,-0.12556571,0.4903111,0.23945552,-0.10582933,-0.37539598,0.26172078,0.058477692,-0.021006355,0.00031388365,-0.23293602,0.2467657,-0.58524936,-0.27309602,-0.04223194,-0.15001519,-0.072935686,-0.1986821,0.51132405,-0.12626542,-0.2169913,0.12494801,-0.2961588,0.18673664,0.032736886,-0.12154145,0.3559807,0.63010633,-0.1928717,-0.54528785,-0.48201084,-0.39145622,0.007766354,-0.12749675,0.24757978,-0.12740032,0.38956666,0.079395056,0.086882055,0.19717914,-0.7523886,-0.2542515,-0.13044,0.024401609,-0.12597673,-0.1740209,-0.14091986,-0.07877076,-0.092344895,0.21234685,-0.022407815,0.16698793,-0.21590258,0.25760624,-0.058162887,0.4735906,0.20500466,0.07316166,-0.02634768,0.19651747,-0.29189205,0.39373547,0.12436414,-0.065358214,0.33130354,0.20721298,0.08803247,0.16880399,0.15380004,0.12252162,-0.23519915,0.14856869,-0.07295872,-0.0007049702,0.23190309,0.12770396,-0.080259204,-0.18704331,0.14904894,0.16183557,-0.33316538,0.5690053,0.40141606,-0.31657046,0.027801774,-0.49116516,-0.08918744,-0.169649,0.18942365,-0.026071317,0.027278798,0.21485664,0.35225558,-0.2873047,0.16937543,0.77731395,-0.100903876,0.07035211,-0.06352288,0.251638,-0.096673876,-0.010762773,0.13683203,0.47825474,0.051040396,-0.015631016,-0.359582,0.34411937,-0.32942688,-0.31431842,-0.044346347,0.26405305,0.0796801,-0.55127764,0.40402633,-0.010984024,0.12284586,-0.29204944,0.038886763,0.041631192,-0.15409656,0.4876893,0.36057258,0.06698981,-0.027175186,-0.27138564,-0.15303442,-0.039503828,-0.34024876,0.14396739,-0.17209664,-0.25934476,0.10620729,0.21877378,-0.4073515,0.31722665,0.061908454,0.07508521,-0.27412784,0.42842948,-0.19428371,0.31208313,0.013188179,-0.031236753,0.65164506,0.06514448,0.31029823,0.11261079,0.3757226,-0.16360183,0.30649254,-0.07918462,-0.6865512,0.44444534,-0.24365102,0.07272339,0.47358567,-0.0063504926,0.5623665,-0.47760653,-0.009033253,-0.42566544,-0.32248986,-0.5331386,-0.040152922,0.15335178,0.17198212,-0.18533114,0.049340725,-0.029763162,-0.6071763,-0.22051969,0.20215829,0.34541586,0.2795502,0.027537659,-0.13487016,-0.6501354,0.22289428,-0.3976831,-0.0803371,0.027099807,-0.2932238,-0.008636598,0.0147057455,0.36313188,-0.12857297,-0.042127736,-0.2554928,-0.19928873,0.14117765,-0.21024162,0.042677637,0.1098707,-0.616264,0.5217072,-0.41585165,0.65919936,-0.17180723,-0.6342074,0.35067552,0.42702523,0.043874163,-0.09172253,0.4499254,-0.35721606,-0.10257227,0.11101484,-0.15024687,-0.1171241,0.23277918,-0.56879306,-0.35603404,0.26710778,0.5286124,0.0015994916,0.3052312,-0.02356773,0.110748366,0.00136822,-0.09558967,-0.1995605,-0.5137562,-0.044214524,-0.026410237,-0.43709904,0.0014353213,-0.31464878,-0.19048959,-0.39084524,-0.03126125,-0.067302085,0.114498936,-0.08798568,0.24052364,-0.048330657,-0.20361811,-0.66516775,0.0879301,0.44597343,0.15194367,0.15034148,0.12580016,0.056082033,-0.022058481,0.5442934,-0.45698857,-0.07077182,0.2890545,0.091807485,-0.13814583,-0.26394254,0.1343811,0.39364225,-0.20021346,0.2724889,-0.25250202,-0.21750204,0.27378568,-0.11782096,-0.23110113,-0.22598127,-0.233888,0.038676325,-0.4159937,-0.2847256,0.17161387,-0.054896116,-0.0054436848,0.047024924,0.3438073,-0.1912111,-0.2758866,-0.3216039,0.09814204,0.30960765,0.032714583,0.149295,-0.13144724,-0.7697239,-2.7474074,-0.06579515,0.22640829,-0.26615578,0.43537202,-0.1374223,-0.07471,0.06510644,-0.60630596,0.36108732,-0.15496077,-0.3479883,0.20866928,0.4251091,0.31028914,-0.27605426,0.120588794,-0.39643145,0.036443416,0.28013343,-0.34446806,-0.6658207,0.20006965,0.021058911,0.3343991,0.60810035,-0.28792015,-0.10049501,-0.21663707,-0.2416862,0.013094211,-0.15675697,-0.32326478,0.28774288,0.13524017,0.09908489,-0.12715906,-0.41591182,-0.3476944,-0.43684864,0.14929914,-0.6263164,-0.3882378,-0.2646575,0.5605751,-0.019491566,0.21632037,-0.22429514,0.07046217,0.30819952,0.2934494,0.15893906,-0.183734,-0.16798612,-0.007433677,0.22590768,0.63725185,0.32230365,-0.42693967,-0.22882846,0.0411143,-0.20823559,-0.34600565,-0.059016347,0.114180036,-0.3410102,-0.7344256,-0.28475246,0.01093966,-0.21288908,-0.13791883,0.61094433,-0.41284132,-0.112715825,-0.04813493,-0.3017283,0.10637578,-0.24641657,-0.14945385,-0.21501638,-0.26356393,-0.3126017,0.039648548,-0.048617717,-0.24720718,-0.21825753,-0.05271087,0.009952065,-0.4707891,-0.60078156,0.3563137,0.35368776,0.20020057,-0.07060445,0.3160029,-0.026917078,0.4927566,-0.0063331677,0.26196152,-0.48463374,-0.042655274,0.0274277,0.71733004,-0.39686102,-0.070833534,-0.01757484,-0.2653606,-0.047280528,0.1028816,-0.14681365,0.14247623,-0.43244252,0.24573027,-0.42080018,-0.09240236,-0.2078786,0.2990108,0.9240372,-0.23930785,-0.17312309,-0.12149806,0.39895856,-0.3826545,-0.22669856,0.045592885,-0.06458795,0.06710146,0.25261354,0.0053570895,0.0023386232,0.11751736,-0.08881673,-0.01928564,0.1662341,0.21448769,0.23978439,-0.2462503,-0.7279402,-0.42240334,0.4560817,-0.07617393,0.20010638,0.080695495,-0.21033183,0.001166963,0.52085936,0.1530343,0.1987772,-0.11629615,0.1454156,-0.8100982,-0.35467535,-0.45410696,-0.396192,0.18683359,0.5075602,0.17549971,0.05591749,0.22485337,-0.6554971,0.095386654,0.12247119,0.28882438,-0.09830605,-0.46059638,0.51382095,0.18221194,-0.020183343,-0.21946588,0.00206168,-0.27642918,-0.08915104,0.012498658,-0.12516005,-0.28042153,0.67043984,0.14289474,-0.16055521,-0.1252389,0.1335048,-0.049941204,-0.32319736,-0.32469085,-0.29887342,0.116016485,-0.14160214,0.33790612,-0.43021068,0.031964023,-0.2065629,0.13116637,0.1422104,-0.04799505,0.0023838542,-0.2700642,-0.17095725,0.5757412,0.04702427,-0.18876515,0.27798396,0.096360296,-0.2525867,-0.6283839,-0.012537347,-0.026360966,-0.3599488,-0.023934523,0.39910227,0.07925606,0.12497892,-0.3041912,0.18010972,-0.39724398,-0.016978553,-0.2129932,-0.52244455,-0.01936835,-0.05645428,-0.1556777,-0.17857838,-0.14599127,0.08015773,0.23202938,-0.09783393,-0.31704307,-0.3984121,0.09906725,0.08450055,-0.21643211,-0.22224648,0.11969744,-0.7924855,0.10453297,0.13023196,0.107369386,0.25990772,0.02130743,-0.85628396,0.113223806,-0.16303131,-0.091860816,-0.13805363,-0.29609266,-0.18978179,0.28847563,0.035830613,-0.2643367,0.24348956,-0.15182519,0.53250545,0.111468054,-0.029256728,-0.05049766,-0.35172084,0.03287256,-0.56019926,-0.32318664,0.125503,-2.7433038e-05,0.12933616,-0.4129731,-0.15607698,0.1534722,0.08190977,0.381912,0.24163762,-0.23353103,0.080505505,0.15088685,-0.6293459,0.26056513,-0.25235283,0.10578817,-0.34776568,0.23648903,0.2221568,0.046054654,-0.5448137,0.5606735,-0.65437055,-0.52146393,-0.06316475,-0.14292601,-0.066276245,0.3096586,-0.56305283,0.017168092,0.30456525,-0.26473513,-0.04684393,0.33025533,0.027179312,-0.058134843,-0.049842138,-0.4021635,0.28784543,0.59806526,0.6693683,0.06720784,0.27222815,0.053927384,-0.06939838,0.18442725,-0.04441373,-0.050842784,0.24297944,0.04454863,-0.64754725,-0.26951304,0.15268272,-0.12797752,-0.4408905,0.50318277,0.15101472,-0.388052,-0.3143283,-0.08653097,-0.14688079,0.2946192,0.16256747,0.24480402,-0.14899883,0.4342422,0.19565415,0.26010197,0.6251615,-0.10843134,-0.06561124,0.041763783,0.24285102,0.0043900795,0.39397484,-0.115559116,0.038355146,-0.16137673,-0.048374806,-0.41793627,0.009541165,-0.1042918,0.0538128,-0.0014099539,0.15516442,0.70570487,0.19955233,0.4010378,0.31327188,0.23862328,-0.18967295,0.58749783,0.47315383,-0.0068279426,0.025270913,0.18899405,0.26634127,0.06778864,0.0072725005,0.4329164,0.3438661,0.0040922817,0.6700976,0.1575272,0.24542648,0.33673397,-0.51036,-0.2067697,-0.16294515,0.37929535,-0.4988019,-0.050597355,0.1843777,0.19434005,0.34453452,-0.45381635,-0.13112228,0.16664302,0.35450837,0.22658564,-0.062210254,-0.17706347,0.056960143,-0.10136501,0.10925628,-0.35348523,-0.45258513,-0.273876,0.12227453,-0.09513554,0.06941359,-0.09231567,-0.15402324,0.04019107,-0.17404808,-0.0076755695,-0.24827161,-0.25566372,-0.022967044,0.43026012,0.1524112,0.543135,-0.32338664,0.226979,-0.17903996,-0.20477758,0.043513697,-0.10205409,0.020262938,-0.017923653,0.5125751,-0.11246267,-0.04959927,-0.19409212,0.15910786,-0.2285336,-0.07786456,0.05068997,-0.14183646,-0.011667389,-0.15048553,-0.3092779,-0.018285515,-0.12248112,-0.5109663,0.10951802,0.2338334,-0.21435098,0.09401936,0.4840917,0.021692298,-0.05427717,0.024969425,-0.04780519,0.14902826,-0.122243,0.21018751,-0.03625007,-0.32704005,-0.26519647,0.30761495,-0.23769936,0.081208505,0.4594225,0.20197597,-0.059777617,0.0647217,0.5864636,-0.074639246,-0.23708093,-0.22311878,0.052650418,-0.12520693,-0.101114444,-0.12973958,0.0684142,-0.08245119,0.110094294,-0.41335368,-0.015689403,-0.101635784,-0.16209944,0.044304438
12122372.pdf,-0.29139736,0.23947382,0.30251738,0.016862962,0.5178573,0.06092744,0.1408008,0.24142289,-0.04367543,-0.15813099,-0.10311599,-0.40426224,0.110055715,0.19957936,0.051232837,0.36227357,0.13729867,-0.05120084,-0.010767493,0.44293365,0.18556881,-0.25167364,0.15392192,0.54261285,0.23099568,0.03842805,-0.13206905,-0.1654895,-0.3180035,-0.09085372,0.43316615,0.006561145,0.02858563,-0.2588506,0.10888753,-0.17696181,-0.20594093,-0.1342462,-0.11928935,0.22922118,-0.4982437,-0.2100056,-0.034758773,-0.025495578,-0.21776992,-0.26522747,0.08262958,0.12987748,-0.16199295,-0.01641196,-0.38843077,0.35750777,-0.005946203,-0.25825125,0.12485714,0.7387223,0.03751036,-0.5129432,-0.388624,-0.41547102,0.11177545,-0.0073153046,0.31352967,0.04826559,0.20079598,-0.09168337,0.13258792,0.41437185,-0.7371921,-0.17560856,-0.27060446,0.24949256,0.11078179,-0.0755226,-0.110642314,-0.19064254,0.07013803,0.3840884,0.15055116,-0.027702086,-0.17459685,0.19485189,-0.17322509,0.25617605,0.1158507,0.20224303,0.15790716,0.04763267,-0.3221773,0.6585271,0.12766795,-0.32360506,0.39267814,0.03978192,0.07229266,0.028159035,0.08590167,0.06291829,-0.113140576,-0.10979469,0.036662817,-0.06357528,0.22622022,0.17146969,-0.03444469,-0.09359518,0.08313237,0.2369587,-0.2517452,0.46491128,0.087626524,-0.25585723,-0.12952085,-0.467467,0.00034822244,-0.0016937815,0.102562726,0.111214474,-0.059306987,0.15788013,0.08910173,-0.1477698,0.23712611,0.77106786,0.0649197,0.097229205,-0.0771696,0.24715452,-0.058848165,-0.07169775,-0.019947937,0.25089413,-0.1288209,0.07246938,-0.17931964,0.22000965,-0.2240564,-0.26378286,-0.07944889,0.16387758,-0.08552691,-0.42069227,0.35785872,-0.06067728,0.108672336,-0.20527881,-0.11140989,0.05914873,-0.1687251,0.32628486,0.2955253,-0.0689294,0.047008872,-0.2725907,-0.047971807,0.13217281,-0.15356188,0.044506498,-0.07788403,-0.07276402,0.37740514,0.43719995,-0.49638587,0.46168143,-0.16869959,0.065414466,-0.24046376,0.17421125,-0.3785909,-0.051007792,0.093046986,-0.06493796,0.5067189,0.0030231178,0.24054469,0.15030405,0.20929083,-0.15298685,0.032282073,0.14452711,-0.5635712,0.25338045,-0.09657097,-0.07955776,0.37548348,-0.166428,0.44734365,-0.23291966,-0.061768726,-0.28654253,-0.2904021,-0.4385081,-0.1171076,0.014371411,0.22848937,-0.04711432,0.044884734,-0.0051355343,-0.42155057,-0.1615985,0.25384682,0.23130709,0.22606887,0.12929101,-0.16622353,-0.497868,0.2704336,-0.25065365,-0.19363384,0.11891269,-0.31378156,0.008777311,-0.007116623,0.2900046,0.05414397,-0.009277007,-0.15057948,-0.16613126,0.08763121,-0.08432475,0.16176456,0.12401262,-0.5305365,0.45890513,-0.42553553,0.4567006,0.06389516,-0.92932755,0.1948094,0.28674537,0.0018456699,-0.2907372,0.5339095,-0.3882785,0.10061619,-0.019291444,-0.15103367,-0.024045078,0.24515712,-0.34759834,-0.21891259,0.46944848,0.39529476,0.1055619,0.14388126,0.019325467,0.10143361,-0.099019095,-0.07871837,-0.2810806,-0.60829055,0.107582904,0.091502294,-0.35501447,0.011032138,-0.29797584,0.035629526,-0.41856286,0.0027112104,0.02636913,0.33102086,0.1452901,0.16883555,0.03455884,-0.2579582,-0.5143955,0.0690217,0.30751336,0.18943855,0.24330173,0.051744707,-0.047717523,-0.08296786,0.46141666,-0.23712493,-0.16635402,0.25464606,0.104074754,-0.0007852558,-0.33681434,0.07875322,0.41626674,-0.028856618,-0.01617473,-0.057761986,-0.05663939,0.13226408,0.19835106,-0.12821408,-0.30337352,-0.04663402,0.2747463,-0.5045653,-0.11352742,0.3902328,0.008931385,-0.044473466,0.11646648,0.21713993,-0.03518161,-0.20636964,-0.07298774,0.22873718,-0.037511602,0.17023546,-0.0033116695,-0.0037511545,-0.55793095,-3.3264084,-0.115260124,0.091315195,-0.27621195,0.3691522,-0.19636902,0.07587397,0.05820736,-0.40678912,0.1896841,-0.18398121,-0.24567875,0.014428403,0.20441914,0.28852633,0.021164566,0.025614506,-0.29062447,0.029066216,0.3911082,-0.20371374,-0.6074213,0.24334547,-0.05756784,0.3446765,0.25065768,-0.6126186,0.011234009,-0.26761407,-0.18604958,0.12788025,-0.091459565,-0.24684784,0.4711249,0.056662798,-0.3195309,-0.057172373,-0.37654555,-0.19541009,-0.51169646,0.19934286,-0.6325533,-0.12770712,-0.0019221529,0.7284001,-0.09874958,0.1339802,-0.13759029,0.061924744,0.1642651,0.33723158,-0.16910574,-0.2810555,-0.060051188,-0.015042283,-0.2608094,0.46831512,0.23148066,-0.40665042,-0.14940794,0.12845632,-0.31380177,-0.26866633,-0.1919502,-0.24829495,-0.17552716,-0.58648264,-0.13586192,-0.13039371,-0.05786547,-0.0027540512,0.6028483,-0.23988253,-0.17509325,-0.11531927,-0.2846133,0.32500088,-0.23272404,-0.041919865,-0.2482996,-0.13791601,-0.3183412,0.22176191,0.13286303,-0.3635773,-0.103645846,0.109034255,-0.14257276,-0.43439192,-0.3540808,0.39498037,0.22032142,0.10256951,-0.012445847,0.33139935,-0.08375866,0.46666303,-0.07442148,0.14774364,-0.4679678,-0.049288567,0.14305317,0.5944251,-0.35020524,-0.11385885,-0.14713556,-0.2713339,-0.13107814,0.19809487,-0.054632347,0.20596552,-0.29492047,0.06063983,-0.3068837,-0.17158565,-0.020886317,0.19839725,0.69272435,-0.0048767445,-0.15578435,-0.14262794,0.15034638,-0.2195167,-0.3269468,-0.08603141,0.025482573,-0.24816856,0.21893126,0.0833123,0.049374945,-0.23037145,-0.081213064,-0.09137503,0.05226736,0.3843961,0.18743126,-0.034595907,-0.5645198,-0.13416363,0.20713215,0.12205959,0.19056311,0.2942162,-0.12634377,0.09196857,0.3365962,-0.042243354,0.38653058,-0.10113708,0.22273439,-0.76987267,-0.32752046,-0.068113655,-0.12071267,-0.027589954,0.32863444,0.28814188,-0.11203385,-0.115523875,-0.5326463,0.22281788,-0.15629764,0.3414476,0.050757717,-0.19480485,0.65451044,-0.051394407,-0.11274171,-0.0918052,-0.22365695,-0.14939052,-0.22804339,0.023759272,-0.42527318,-0.16585347,0.4668986,0.3054456,-0.23569426,-0.021478102,0.31326896,-0.024720587,-0.2946049,-0.097419046,-0.10639669,0.14950557,0.16507983,0.10660594,-0.41909242,-0.019642012,0.16088304,-0.046087027,0.23317271,-0.04924388,0.05862201,-0.13578203,-0.11042309,0.53088814,0.22339821,-0.10857117,0.1275328,0.049605418,-0.3096464,-0.5305465,0.05430462,0.14039518,-0.15016529,0.040732075,0.29423738,0.19025517,-0.11600949,-0.37335375,0.06448388,-0.36180437,0.02547627,0.034798183,-0.5840039,-0.19527581,-0.089326754,-0.27930066,-0.0067963875,0.043184847,-0.059842877,-0.1039018,-0.10203755,-0.16970363,-0.07668256,0.19456255,0.06774184,-0.21374145,-0.22272238,0.23085862,-0.7997947,0.04109539,0.13525066,0.1921474,-0.023610665,-0.016217396,-0.7448524,0.3278535,-0.1586533,-0.2493146,-0.15911373,-0.41313857,-0.28164113,0.0797305,0.010152401,-0.15250602,0.28966993,-0.09349968,0.55638456,-0.059553448,0.04480709,0.12724492,-0.20543525,0.1811657,-0.3371006,-0.42085707,0.14311849,-0.27126452,-0.09145275,-0.26890606,0.13135812,-0.19212602,-0.08215236,0.26416934,0.2993951,-0.32506704,-0.0065413825,-0.02443264,-0.41871858,0.17295277,-0.30767187,-0.003166971,-0.179806,0.003232129,0.011575688,-0.03542783,-0.36458313,0.58891016,-0.21518418,-0.33615738,-0.089904815,0.10279346,0.2715667,0.5623708,-0.4515658,-0.14667602,0.17568135,-0.17301595,0.10194682,0.52399164,-0.069070145,-0.24092272,0.030482965,-0.72587,-0.02502986,0.6930041,0.28220677,-0.028634105,0.35306054,0.14294243,-0.055478215,0.2549612,0.057673987,-0.10241617,0.3148665,-0.07300422,-0.59226215,-0.12942158,-0.0125742555,-0.059489388,-0.46976548,0.64089584,0.049594045,-0.53667605,-0.2869833,-0.10948945,-0.17678474,0.25695726,-0.067876376,0.14756428,-0.0016081687,0.5652232,0.018130593,0.2874002,0.54998523,-0.012589016,-0.03834303,0.087596804,0.17026435,0.053909883,0.38069555,-0.19245186,0.11754942,-0.0044064857,0.05868493,-0.20741065,-0.1762259,0.039719287,-0.022756174,-0.1061616,0.2527231,0.40251762,0.42854553,0.31928188,0.18708137,0.29585433,-0.13016354,0.67731786,0.46644112,-0.007650908,0.027504053,0.08558532,0.07051264,0.16474888,-0.08119846,0.2848782,0.32019395,-0.065347746,0.6365278,0.17146666,0.17455274,0.47132444,-0.43692657,-0.31017244,-0.06885183,0.3472795,-0.42050934,-0.03896388,0.24449308,0.059261546,0.2153581,-0.31917894,-0.1300786,-0.11306192,-0.022597475,0.31896263,-0.11021876,-0.09555875,0.10477215,-0.050816104,-0.2493268,-0.3747992,-0.29919672,-0.22657177,0.08693194,-0.07846145,0.13465941,0.12291928,-0.17859289,0.024277564,-0.15368615,0.37645668,-0.10260248,-0.19037673,-0.060994614,0.2718361,0.1355525,0.6146394,-0.023349142,0.17295694,-0.30520797,-0.30710205,0.107016854,0.25923952,0.05760518,0.06729908,0.43482226,-0.4432604,-0.0060614347,-0.34922248,0.22401544,-0.34427494,0.02986236,0.04992555,-0.006397824,0.054242242,0.20293054,-0.3257633,-0.16196346,-0.26474297,-0.4455073,-0.004294684,0.2724346,-0.33087236,-0.04335987,0.15424275,0.14516822,-0.09229703,-0.065235674,-0.17248653,0.0067344243,-0.0015528966,0.3315823,-0.078632824,-0.030619692,-0.3280263,0.39141157,-0.09145211,0.08937071,0.20925334,0.18398091,-0.039870158,0.11983533,0.27741045,-0.07839151,-0.20719981,-0.36171526,-0.1607576,-0.25431356,-0.07537803,-0.19269186,0.17957827,-0.25344336,0.02750826,-0.34248954,-0.35367167,-0.20833932,-0.03539356,-0.1448704
12668625.pdf,-0.13981315,0.30018756,0.27605748,0.07661119,0.516471,0.045333058,0.2366797,0.4673348,-0.09160223,-0.38594615,0.112373054,-0.30049992,0.026704885,0.1545496,-0.12163477,0.37366173,0.39601955,0.079175316,-0.18902278,0.4788143,0.030698724,-0.17934494,0.13592166,0.6490283,0.4003514,0.021328088,-0.1038174,0.009658612,-0.158703,-0.3601293,0.5631467,0.04896386,-0.061619423,-0.22255869,0.12046403,-0.25280327,-0.057143174,-0.117951795,-0.07484949,0.12166639,-0.47303572,-0.17542768,-0.17765036,-0.12976809,-0.17705008,-0.15034631,0.22873764,-0.13991322,0.1544469,-0.07480891,-0.30744392,0.24961935,0.0385732,-0.23069921,0.21615736,0.54438156,-0.22446626,-0.3847227,-0.57185566,-0.26092196,0.3260124,-0.10981884,0.22908208,-0.26963583,0.22390056,-0.086346075,0.15742408,0.13724108,-0.61679965,-0.008144617,-0.31049955,-0.051793274,-0.10797696,-0.18515661,-0.192152,-0.025992317,0.020109627,0.17643942,0.10890919,0.0883538,-0.22198187,0.3153779,-0.13345182,0.34478688,0.1791374,0.09765259,0.124216326,0.11065763,-0.099247575,0.45873368,0.14268294,-0.13191682,0.24374786,0.0896814,0.1666145,-0.08391209,0.21340421,0.07049945,-0.26691172,0.33921888,0.07579286,-0.17690288,0.121067,0.03096976,0.092225134,-0.13001373,0.3198612,0.24165052,-0.29478335,0.41133952,0.08504898,-0.28845382,-0.15743373,-0.27461913,-0.078374155,0.13865457,0.2234449,0.1617312,0.027412502,0.27893114,-0.02352019,-0.24244837,0.20191377,0.7246165,-0.12493567,0.054370683,-0.2786402,0.088231355,-0.07450098,-0.353998,0.26074243,0.2875578,0.08482612,-0.15160394,-0.2234455,0.21712422,-0.17240757,-0.2784566,-0.3149168,0.17638086,0.06398917,-0.36679435,0.39591956,0.019735899,0.12290092,-0.2274303,0.058370948,0.001451958,-0.06448689,0.4516124,0.27748734,-0.014383487,-0.11950344,-0.24245457,-0.18851808,-0.10148394,-0.548775,0.21575996,-0.14083973,-0.014620302,0.32678768,0.2166357,-0.36585432,0.29161966,-0.06597121,0.10410793,-0.23595282,0.42483836,-0.28143185,0.27085152,-0.0020468254,0.04338567,0.6049607,0.02328249,0.036769412,-0.02769835,0.19574608,-0.03087892,0.045055352,0.06334375,-0.6017053,0.2857496,-0.031195262,0.11375083,0.24584632,-0.17832506,0.23057306,-0.33819163,0.03687492,-0.22064587,-0.2919361,-0.29919642,-0.045442697,0.13299933,0.28008273,-0.16218592,-0.019834664,0.028687945,-0.62480474,-0.11117653,0.037867114,0.12663457,0.15329511,0.22373664,-0.01782889,-0.45014113,0.08500509,-0.22376376,-0.100278735,0.20576206,-0.30387115,0.292319,0.11092327,0.3400342,-0.09617884,0.03684246,-0.050904788,-0.07091381,0.23982003,-0.022532932,0.07542118,0.16965851,-0.62367094,0.37911293,-0.23035204,0.37874293,-0.046452586,-0.7910593,0.1794186,0.46509516,0.040280838,-0.2890675,0.5363687,-0.20126235,0.114946045,-0.011772728,-0.16589841,-0.2366947,0.06526056,-0.388271,-0.324605,0.41581452,0.2742285,0.1227029,0.13850361,-0.012128969,-0.00851849,0.1973171,-0.071537994,-0.19674096,-0.5336745,-0.16911995,0.10335053,-0.315483,0.05571149,-0.42438126,-0.17895836,-0.27408576,-0.06713265,0.0434351,0.25259122,0.1795743,0.10467522,-0.025373323,-0.41354984,-0.6355475,0.10348125,0.24831954,0.25011265,0.075332575,0.16766295,-0.22067517,0.15599087,0.5362432,-0.35547674,-0.2332787,0.24570666,0.27951387,0.07012496,-0.21885565,0.08176691,0.55315125,-0.07843354,0.10078066,-0.01147512,-0.1897457,0.35660028,0.06865058,-0.30169132,-0.38044366,-0.04735131,0.22522652,-0.48890287,-0.32667422,0.38886267,0.19677715,0.094576105,0.06760243,0.26016808,-0.045872565,-0.10034846,-0.32516062,0.33570617,0.13478938,0.015532754,0.08130775,0.049040765,-0.7964485,-3.7847278,0.15160179,0.029666465,-0.22346318,0.31126255,-0.0997732,0.21037433,-0.071750484,-0.37962097,0.3935169,-0.15969478,-0.17783312,0.30429217,0.27708283,0.29715222,0.06959251,0.2477498,-0.28354603,-0.18485573,0.46905208,-0.120256685,-0.48177478,0.19899961,-0.012247801,0.4133386,0.44067228,-0.2946601,-0.15161529,-0.41352993,-0.077053934,0.14769635,-0.13292572,-0.27774933,0.15938568,0.27576274,-0.03394413,0.05320812,-0.42012453,-0.27905864,-0.3990308,0.10873756,-0.73620474,-0.10955332,-0.07743402,0.67216516,-0.004705368,0.059375655,-0.32201493,0.109016515,0.20001706,0.25685385,0.038788706,-0.2504431,0.023940885,0.05425831,-0.18854377,0.61410743,0.30507153,-0.26207054,-0.41027915,-0.040574905,-0.20040962,-0.43152058,-0.23205471,-0.05616585,-0.24131432,-0.46973467,-0.2555456,-0.18324754,0.05783733,-0.054381788,0.3132336,-0.38173294,-0.325868,-0.007285543,-0.18293771,0.18605058,-0.06630528,-0.040222313,-0.09390859,-0.10230366,-0.38925156,0.0010915156,0.105269596,-0.11117052,-0.25564685,-0.08707552,-0.08455451,-0.49098027,-0.33527416,0.49644423,0.28269947,0.10311868,0.15628523,0.35152417,-0.11627541,0.35650915,-0.19639061,0.1466617,-0.5387782,0.1498382,0.2849909,0.62602586,-0.17346752,0.17952742,-0.049986623,-0.15975702,0.032198504,0.21059975,-0.05946013,0.13557437,-0.4896282,0.35111833,-0.34666276,-0.19719273,-0.10691818,0.35355413,0.63461465,-0.21166888,-0.20459701,-0.06451938,0.2840258,-0.28174207,-0.21854284,-0.21024793,-0.03534814,-0.21652463,0.17499307,-0.014974926,0.18484016,-0.04504417,-0.1692012,-0.2009024,0.26809436,0.12188418,-0.012584347,-0.0805926,-0.7147093,-0.08926433,0.1628758,-0.018357754,0.13135912,0.055517323,-0.28429228,-0.004866779,0.38559908,0.07851822,0.069968954,-0.23923042,0.14232577,-0.5743086,-0.30565995,-0.24483079,-0.1724411,0.20566744,0.37093025,0.24057814,-0.07565192,-0.04873448,-0.4187538,0.10311853,-0.10347803,0.2329358,0.1343503,-0.24765962,0.4944993,-0.18197554,-0.11223549,-0.084225684,0.15375525,-0.04777863,-0.26888156,0.04104588,-0.2748035,-0.049010422,0.3443656,0.28473902,-0.3585208,-0.2165614,0.026736595,-0.174803,-0.37966222,-0.20798056,-0.29295844,0.17607372,-0.031633217,0.3376567,-0.46936613,-0.114744335,0.015133865,0.0723264,0.17035739,-0.13305867,0.10495822,-0.18379545,-0.13427582,0.4938263,0.009532948,-0.11651935,0.15431172,0.11138091,-0.32168913,-0.66052794,-0.006060747,0.14484331,-0.34635603,0.03737666,0.33817357,0.0058092102,0.2084782,-0.4918987,-0.02122978,-0.32101202,-0.19934942,0.0053746253,-0.62270564,-0.0866122,-0.0971344,-0.36823466,-0.04290517,-0.09032792,-0.07782932,-0.04710342,-0.14339003,-0.3392846,-0.17977506,0.0661605,0.037470106,-0.05589476,-0.101891756,0.11980073,-0.9620327,0.30046922,0.09318269,-0.1927773,0.037489273,-0.08402541,-0.693745,0.22259688,-0.2141572,-0.08666381,-0.1034977,-0.1905472,-0.15462454,0.25041592,-0.087149516,-0.34491807,0.2881431,-0.06420891,0.52831244,-0.102837786,0.12786196,0.12407556,-0.13897945,0.013968445,-0.4433726,-0.46028107,0.096202634,0.0015725344,0.003906893,-0.1435745,-0.20902905,-0.13461751,0.114506826,0.45105788,0.24629296,-0.26291823,-0.0019689547,-0.11149091,-0.5189282,0.20479,-0.2133647,0.01317266,-0.3522628,0.21899942,0.03386568,-0.02912052,-0.47200063,0.5207311,-0.5199995,-0.1450674,-0.06939357,0.026552755,0.067334265,0.32292145,-0.54841435,-0.057449657,0.3277508,-0.1276151,0.10390372,0.36800677,0.012095546,-0.20951067,0.15149,-0.32390058,0.119379014,0.6877619,0.30290645,0.13085456,0.11894582,0.093196645,0.014590137,0.21652657,0.1905368,-0.21784446,0.1509152,0.1747042,-0.46318653,-0.006112607,0.15756723,-0.1625368,-0.5028237,0.72095454,0.2715971,-0.4802541,-0.41441232,-0.089775816,-0.11501121,0.10563606,0.0040718718,0.20678413,-0.2379891,0.5195129,0.040050462,0.078831345,0.61749667,-0.15055431,-0.18779069,-0.0064542536,0.11304601,-0.081881486,0.4503491,-0.16060075,0.21961358,-0.00014723372,0.06492816,-0.2937463,-0.10315675,0.05935403,0.093378045,-0.0880545,0.047809213,0.58307195,0.52965474,0.42470753,0.36916584,0.39894736,-0.069913104,0.74768555,0.46053842,0.08727154,0.14217763,0.14603649,0.046009317,0.28724933,0.059181284,0.3963059,0.17273206,-0.10351541,0.6038412,0.11235252,0.12929317,0.41268295,-0.41906297,-0.22102284,0.11287843,0.42858994,-0.4703809,-0.10007265,0.22980374,0.012769014,0.15144998,-0.28999108,-0.21687317,-0.15373872,0.2057739,0.15463719,-0.26479667,-0.09623316,0.043241795,0.036257774,-0.04600248,-0.40042415,-0.4176376,-0.19538516,0.025280066,-0.08549754,-0.14614913,-0.07570425,-0.17278829,0.03833458,0.03797733,0.164433,-0.30705008,-0.11880258,-0.10909389,0.30032587,0.1314855,0.58879274,-0.15709156,0.017800974,-0.043786958,-0.14965515,0.020040125,0.009050792,0.021775454,0.07346296,0.28342545,-0.2120121,-0.13779,-0.0016537197,0.42579514,-0.37408605,-0.06938149,0.10900532,0.061241366,0.055834267,0.03004387,-0.31861255,-0.030374903,-0.052092098,-0.38354486,-0.044528607,0.35476524,-0.2754916,-0.017398518,-0.02464797,0.07769547,-0.1936444,0.016268548,-0.11376933,0.117436215,0.10054367,0.09323253,-0.0072781877,-0.15058707,-0.3298045,0.16858885,0.05052651,0.06310389,0.16334613,0.184983,-0.019736676,0.07078138,0.47476283,0.03077602,-0.041295547,-0.3191815,-0.10578892,-0.3138777,-0.18668911,-0.20356442,0.203742,-0.16243637,0.00058184937,-0.22837648,-0.153316,-0.09009036,0.07026477,-0.034761027
