,0,1,2,3,4,5,6,7,8,9,10,11,12,13,14,15,16,17,18,19,20,21,22,23,24,25,26,27,28,29,30,31,32,33,34,35,36,37,38,39,40,41,42,43,44,45,46,47,48,49,50,51,52,53,54,55,56,57,58,59,60,61,62,63,64,65,66,67,68,69,70,71,72,73,74,75,76,77,78,79,80,81,82,83,84,85,86,87,88,89,90,91,92,93,94,95,96,97,98,99,100,101,102,103,104,105,106,107,108,109,110,111,112,113,114,115,116,117,118,119,120,121,122,123,124,125,126,127,128,129,130,131,132,133,134,135,136,137,138,139,140,141,142,143,144,145,146,147,148,149,150,151,152,153,154,155,156,157,158,159,160,161,162,163,164,165,166,167,168,169,170,171,172,173,174,175,176,177,178,179,180,181,182,183,184,185,186,187,188,189,190,191,192,193,194,195,196,197,198,199,200,201,202,203,204,205,206,207,208,209,210,211,212,213,214,215,216,217,218,219,220,221,222,223,224,225,226,227,228,229,230,231,232,233,234,235,236,237,238,239,240,241,242,243,244,245,246,247,248,249,250,251,252,253,254,255,256,257,258,259,260,261,262,263,264,265,266,267,268,269,270,271,272,273,274,275,276,277,278,279,280,281,282,283,284,285,286,287,288,289,290,291,292,293,294,295,296,297,298,299,300,301,302,303,304,305,306,307,308,309,310,311,312,313,314,315,316,317,318,319,320,321,322,323,324,325,326,327,328,329,330,331,332,333,334,335,336,337,338,339,340,341,342,343,344,345,346,347,348,349,350,351,352,353,354,355,356,357,358,359,360,361,362,363,364,365,366,367,368,369,370,371,372,373,374,375,376,377,378,379,380,381,382,383,384,385,386,387,388,389,390,391,392,393,394,395,396,397,398,399,400,401,402,403,404,405,406,407,408,409,410,411,412,413,414,415,416,417,418,419,420,421,422,423,424,425,426,427,428,429,430,431,432,433,434,435,436,437,438,439,440,441,442,443,444,445,446,447,448,449,450,451,452,453,454,455,456,457,458,459,460,461,462,463,464,465,466,467,468,469,470,471,472,473,474,475,476,477,478,479,480,481,482,483,484,485,486,487,488,489,490,491,492,493,494,495,496,497,498,499,500,501,502,503,504,505,506,507,508,509,510,511,512,513,514,515,516,517,518,519,520,521,522,523,524,525,526,527,528,529,530,531,532,533,534,535,536,537,538,539,540,541,542,543,544,545,546,547,548,549,550,551,552,553,554,555,556,557,558,559,560,561,562,563,564,565,566,567,568,569,570,571,572,573,574,575,576,577,578,579,580,581,582,583,584,585,586,587,588,589,590,591,592,593,594,595,596,597,598,599,600,601,602,603,604,605,606,607,608,609,610,611,612,613,614,615,616,617,618,619,620,621,622,623,624,625,626,627,628,629,630,631,632,633,634,635,636,637,638,639,640,641,642,643,644,645,646,647,648,649,650,651,652,653,654,655,656,657,658,659,660,661,662,663,664,665,666,667,668,669,670,671,672,673,674,675,676,677,678,679,680,681,682,683,684,685,686,687,688,689,690,691,692,693,694,695,696,697,698,699,700,701,702,703,704,705,706,707,708,709,710,711,712,713,714,715,716,717,718,719,720,721,722,723,724,725,726,727,728,729,730,731,732,733,734,735,736,737,738,739,740,741,742,743,744,745,746,747,748,749,750,751,752,753,754,755,756,757,758,759,760,761,762,763,764,765,766,767
11152490.pdf,-0.47754532,0.39411283,0.3739586,0.11882533,0.7307446,-0.025345106,0.3274424,0.2978668,-0.106164254,-0.4747718,-0.09411135,-0.14527968,0.10615443,-0.009658601,0.19216722,0.51838815,0.52291644,0.070443034,-0.16465974,0.33501944,-0.07946952,-0.3348518,0.12307899,0.8147638,0.37180915,0.24099734,-0.024153383,-0.03378444,-0.21841764,-0.22606799,0.62119216,-0.027389206,0.10075766,-0.15042113,0.14846542,0.03539272,-0.17944685,0.12994811,-0.15683785,0.32534832,-0.491671,-0.114960484,-0.26938713,-0.30604774,-0.20688397,-0.41235602,0.25217903,0.009159899,0.21174662,0.06384521,-0.47044417,0.40222314,-0.4975939,-0.30582887,0.22291231,0.53699076,0.0036697648,-0.6643454,-0.4639517,-0.47468618,0.05611766,-0.010940887,0.261798,-0.20252109,0.22735174,-0.016996184,0.33774585,0.39265078,-0.72019947,-0.1952581,-0.5431264,0.25869417,-0.13010088,-0.17340563,-0.44100112,-0.223284,-0.0716815,0.29067683,-0.08917227,-0.038804542,-0.2272234,0.35649443,-0.12664089,0.3887022,-0.0053273393,0.14492306,0.42608583,0.20208357,-0.37184107,0.59078825,0.18617398,-0.08206956,0.291519,0.25090373,0.13751772,0.08078472,0.190703,0.04060911,-0.291391,-0.08569312,0.10810423,-0.07995721,0.13577947,0.03965128,-0.13272628,-0.024369933,-0.022324163,0.0051259436,-0.55239904,0.5806239,0.078859255,-0.2910177,-0.37208813,-0.62974703,0.03680029,0.21797672,0.15249577,0.19706239,0.116408564,0.20108058,0.031010244,-0.10722655,0.122399,0.7462019,0.06945266,0.0648621,0.0008060485,0.0618933,-0.033567198,-0.24079451,-0.019080963,0.09951775,-0.034300935,0.17348976,-0.35249683,0.3158036,-0.2894979,-0.4156595,-0.2572958,0.36418483,-0.0058237053,-0.8042711,0.5394504,-0.22234485,0.24057013,-0.3451782,0.12399614,0.17694288,-0.04439533,0.48403782,0.38040587,0.15171406,-0.13984644,-0.31296617,-0.095582336,0.09240842,-0.28041598,0.2714997,-0.19502145,-0.16488527,0.207333,0.3368534,-0.7052545,0.349491,-0.08761447,0.15183449,-0.33495396,0.30215627,-0.21847573,0.14406817,-0.00037731335,-0.016235426,0.62622786,0.1030261,0.26254347,0.0061198752,0.24003229,-0.18270841,0.14633079,-0.04286127,-0.47626442,0.41435027,-0.22488737,-0.13389614,0.059784185,-0.13291767,0.49380863,-0.49579763,0.024080208,-0.2844704,-0.061638653,-0.5312376,0.055687986,0.15114656,0.3999046,-0.2156184,0.10660128,0.04094769,-0.5610571,-0.24035728,0.3915922,0.10876578,0.23491704,0.2178184,-0.1598468,-0.58334327,0.20968407,-0.46950024,-0.3185407,0.054698803,-0.41808653,0.041631464,-0.08655578,0.35548955,-0.089068845,0.18732552,-0.31965625,0.06943137,0.10689888,-0.17795193,0.20665488,0.05230782,-0.49370837,0.44782513,-0.43131047,0.4622916,0.0005202107,-0.73528063,0.2756629,0.5532185,0.06800732,-0.3376401,0.34212613,-0.35218525,0.08542924,0.009670179,-0.4630968,-0.11821377,0.43156445,-0.44256774,-0.3580915,0.5609406,0.2843469,0.111062944,0.20057571,0.05942839,-0.0380044,0.26064315,-0.03567154,-0.164328,-0.6416521,-0.075332135,0.098333195,-0.3676064,-0.070650235,-0.3280604,-0.080680005,-0.4546446,-0.28775656,-0.16473927,0.17818354,0.22839114,0.15973571,-0.16094393,0.0721557,-0.8746167,0.3270606,0.23054752,0.15010394,0.30879405,0.041447412,-0.27088302,0.07251154,0.44703645,-0.52335244,-0.08602791,0.34400785,-0.061388023,-0.09014082,-0.3276803,0.12643248,0.3408906,-0.3942419,-0.030480906,0.05884359,-0.12262316,0.48145288,-0.16713154,-0.25949943,-0.11264551,-0.15195116,0.21425365,-0.5951513,-0.39752918,0.5442058,0.18232137,-0.040194057,0.32064942,0.22371654,0.16146867,-0.4509083,-0.53404415,0.13089631,0.100540414,0.34085536,0.22364283,-0.096983984,-0.7398794,-2.9853806,-0.0026797382,-0.05450755,-0.19881904,0.33771014,-0.16303705,0.26226023,-0.008779526,-0.6025624,0.26490206,-0.27568725,-0.21798518,0.050417215,0.45815116,0.29369175,0.0063559487,0.13261254,-0.6074468,0.069509506,0.39647537,-0.005300494,-0.8603655,-0.040042795,0.11145876,0.3924417,0.42748106,-0.5758244,-0.04207512,-0.38548562,-0.302454,0.29104006,-0.17927639,-0.34659845,0.25198314,0.1877062,-0.17199755,-0.1819028,-0.2924247,-0.29546332,-0.62255955,0.3583417,-0.7766904,-0.38855064,-0.02353885,0.5270139,0.17888713,0.40105927,-0.2023816,0.08032041,0.15174516,0.29310104,0.104486324,-0.02808325,-0.14197694,-0.19495866,-0.018597296,0.8201623,0.2010808,-0.44350773,-0.1424979,0.18449396,-0.33970356,-0.4138374,0.00015379861,-0.117437534,-0.1807771,-0.5961213,-0.40061438,-0.33148485,-0.2038127,-0.0047830585,0.71128213,-0.37362355,-0.18699132,-0.2589674,-0.6157677,0.21663573,-0.18559861,-0.08722398,-0.25643185,-0.37508467,-0.37112784,0.19095987,0.13457064,-0.1297394,0.06182155,0.090106905,0.20405716,-0.46105608,-0.66046906,0.35030913,0.05270982,0.2949732,0.15486273,0.3460079,-0.066391855,0.4610734,0.0470931,0.060950972,-0.3476658,-0.09675181,0.19961528,0.6448183,-0.22311047,-0.08949483,0.131961,-0.14447302,-0.1648869,0.3369893,-0.102699436,0.15761402,-0.22794679,0.1864512,-0.3952238,0.051265284,-0.047619373,0.2311342,0.9445367,-0.12954924,-0.14088447,-0.083673306,0.37854445,-0.118378945,0.1743003,-0.21114792,-0.17201634,-0.27649397,0.19983132,0.10432118,-0.13646884,-0.028732652,-0.02342464,-0.27176586,0.23549365,0.29588953,0.18844837,0.0016487781,-0.6670496,-0.36402366,0.21763402,0.09341955,0.53420556,0.06494099,-0.30031687,0.21385232,0.13363376,-0.14768247,0.56595796,-0.41285545,0.23145506,-0.6373148,-0.19457395,-0.27721,-0.41267717,-0.037301343,0.53521585,0.13746786,0.027024068,0.21821779,-0.43964827,0.19619304,0.10598335,0.14618294,-0.06177448,-0.30285442,0.7718351,-0.16218418,-0.07879915,-0.08895447,0.08208793,-0.06738838,-0.3397892,0.41430458,-0.43511117,-0.11248295,0.27591944,0.30824167,-0.088435,-0.08812285,0.21691777,-0.06412245,-0.4730737,-0.3319804,-0.04584903,0.095172726,-0.02321534,0.10061091,-0.43601394,0.012001893,0.013068479,-0.075148955,0.005869694,-0.16231506,0.12825574,-0.22635268,-0.15621933,0.5331557,-0.15992434,0.0733782,0.29031685,0.17830974,-0.47228158,-0.38761103,-0.035987545,-0.085416354,-0.051306598,0.017102623,0.2742151,-0.029142028,0.12021321,-0.43499288,0.115679815,-0.43406418,-0.086260155,0.08692407,-0.675765,-0.33760446,-0.1431989,-0.5598142,0.14636236,0.06632249,-0.054547135,0.22242758,-0.015608506,-0.083960265,-0.37316734,0.17144379,0.007342994,-0.24866462,-0.09113316,0.04253394,-0.9420462,0.14098087,-0.0018592924,-0.17498806,0.025895996,-0.23205219,-0.72201675,0.4440111,-0.26680666,-0.30339926,-0.101932146,-0.2988088,-0.17828721,0.125111,0.0142720295,-0.17081904,0.5058478,0.18238038,0.5753794,-0.052911535,-0.027135462,0.045609865,-0.030694712,0.1542696,-0.44300473,-0.26403832,-0.16079485,-0.08958128,-0.052543264,-0.236296,-0.22239861,-0.18987045,0.07869198,0.17089736,0.23260677,-0.02573416,-0.21926193,0.11147517,-0.6738443,0.14530504,-0.3971184,0.02816884,-0.27792573,0.18467015,0.047827948,0.28145787,-0.4447293,0.49719125,-0.29124016,-0.40999013,-0.06503282,-0.18025778,0.08042977,0.4354536,-0.5525516,-0.22225817,0.3613925,-0.21311602,-0.016203875,0.25349692,-0.17271057,-0.26583165,0.019869175,-0.67846155,0.3938143,0.6509385,0.41471535,-0.057811514,0.20867899,0.27816498,0.29480278,0.37541056,-0.07097175,-0.23161392,0.33414114,-0.00070880447,-0.64324296,-0.065339565,0.037156273,-0.073770896,-0.4329332,0.7742914,0.2721212,-0.54711574,-0.33709383,-0.2508769,-0.13618957,0.5303836,0.027912624,0.20867532,-0.07558163,0.65424263,0.11152295,0.3312015,0.5853917,-0.082034834,-0.2814299,0.17312711,0.29978728,-0.043139502,0.33130264,-0.2803678,0.024931157,-0.020287106,0.102405086,-0.25745982,-0.13254082,0.05102192,0.2530571,-0.049004085,0.17706576,0.8148534,0.49255323,0.2779657,0.20340429,0.24300349,-0.0023203725,0.48563617,0.35818076,0.021530276,-0.1923585,0.24662344,0.26176733,0.3493387,-0.023293506,0.30666155,0.4066542,-0.13036871,0.43332538,0.020656407,0.23561785,0.54737055,-0.7614218,-0.26532546,-0.13385446,0.52984416,-0.41069978,0.0070242044,0.41988495,-0.06750099,0.36595044,-0.3942649,-0.34131974,0.025279034,-0.010008298,0.18591896,-0.35384163,0.08902529,0.17310947,0.027187182,-0.28251487,-0.3029319,-0.50777495,-0.17099538,0.33461103,0.03265378,0.013027484,0.11859826,-0.3285526,0.07438408,-0.024483627,0.2107205,-0.010749146,-0.14201243,0.1893203,0.39329344,0.16275555,0.78994805,-0.3027116,0.17764838,-0.1591842,-0.31829482,0.12900929,0.05816258,-0.038964868,0.1392598,0.3494513,-0.42895705,-0.31463176,-0.08801248,0.33571315,-0.30918828,0.031257592,0.185705,0.21142453,0.20827645,0.20594776,-0.27340046,-0.1856834,0.024534147,-0.32880902,0.21769837,0.48537165,-0.40831363,-0.072146475,0.27565223,0.20654212,-0.20104772,-0.025339656,-0.24228546,-0.26072222,-0.024447102,0.32995203,0.13704902,-0.28091362,-0.42055166,0.36829212,0.0023186188,0.1415192,0.05187776,0.1774275,-0.119632915,0.10629845,0.51541495,0.035731904,-0.26543868,-0.43780082,0.040203955,-0.09479655,-0.006423313,-0.16892456,0.24184942,-0.37824476,-0.09424482,-0.4904266,-0.25280607,-0.15509151,-0.029057179,0.04347445
11257723.pdf,-0.38685948,0.3058188,0.4077747,0.005904032,0.6575709,0.06990499,0.18342936,0.06848603,0.022057217,-0.26434264,0.008305302,-0.22409889,0.04901011,0.09685844,0.029569007,0.48033017,0.30125943,0.09012261,-0.19396774,0.36098504,0.16867255,-0.25013548,-0.022143118,0.66847146,0.3785744,0.18941161,-0.121128574,0.014058309,-0.2894775,-0.24293302,0.47153512,-0.0055793524,-0.025269609,-0.26499897,0.15568143,0.119796276,-0.1427579,-0.05130334,-0.2676222,0.2520848,-0.37293223,-0.08862493,-0.23893902,-0.0865155,-0.13608015,-0.24296375,0.20949584,-0.18951882,0.16581172,0.25378108,-0.38932925,0.26665908,-0.3765738,-0.113910384,0.23810643,0.6549207,0.045203835,-0.68883824,-0.39975917,-0.47947657,0.15133557,-0.10567006,0.3986985,-0.1915417,0.22240959,0.027674899,0.1493345,0.40099728,-0.7067735,-0.18250394,-0.32401592,0.011693617,-0.17213891,-0.033582106,-0.2720529,-0.0890831,-0.062108148,0.3126042,0.015256276,0.047833934,-0.2594386,0.25509644,-0.24451765,0.29314178,0.15917625,0.031944036,0.3138563,0.16011067,-0.39303422,0.6241122,0.21498057,-0.20038947,0.2938806,0.2442928,0.0044794497,0.037071206,0.2915079,0.07268953,-0.10298925,-0.0742359,0.14216295,-0.008465469,-0.015996128,0.053223915,-0.02543143,0.08915,0.12890387,0.042496778,-0.5923051,0.47643575,0.114145964,-0.25652164,-0.22637975,-0.4154896,-0.15766953,-0.058813054,0.14314444,0.06409596,0.10167962,0.103602886,0.11921981,-0.1611115,0.129552,0.7623657,0.107006274,-0.013092894,-0.08043066,0.2025815,-0.0745329,-0.13579221,-0.04515066,0.032250546,-0.14785634,0.1115165,-0.38000447,0.3118177,-0.27964425,-0.2623292,-0.20624876,0.19593973,0.04967378,-0.6212164,0.42726356,-0.08532861,0.093454145,-0.27983874,0.050442405,0.051617254,-0.25354522,0.44315338,0.22267063,0.085188076,-0.027591646,-0.27574342,0.0004033628,0.11745386,-0.26297876,0.13023365,-0.09097659,-0.03122415,0.33347726,0.40824687,-0.5495666,0.19118577,-0.0003994205,0.14411381,-0.21577916,0.26894408,-0.23104563,0.20026505,-0.09771408,0.10303162,0.7140437,0.06823647,0.21504545,0.10015978,0.21927367,-0.09912768,0.21778016,-0.028354626,-0.57015777,0.363908,-0.069856666,-0.086178884,0.20762992,-0.21504134,0.24221331,-0.4449255,0.07857002,-0.2552358,-0.23336898,-0.33519322,-0.042341065,-0.0959485,0.17754982,-0.22730029,0.022503821,-0.020986963,-0.51937,-0.28121287,0.3598761,0.303636,0.23049383,0.15452464,-0.121722996,-0.41207463,0.36749077,-0.48224017,-0.31231344,0.1425765,-0.27687147,0.15289617,-0.11369465,0.12637922,-0.09285387,0.07231857,-0.15355165,-0.04405731,0.1343531,-0.033353545,0.16058427,0.14834762,-0.5225506,0.54032594,-0.3514529,0.5072842,-0.04652457,-0.7193656,0.37380153,0.35985392,0.056256942,-0.30402568,0.4819214,-0.37710708,-0.033900116,0.009352345,-0.3005411,-0.08342333,0.2589028,-0.33822578,-0.29042947,0.49319208,0.28636795,0.2271263,0.16643651,0.009689411,-0.015211977,0.09440847,-0.1373623,-0.04216622,-0.59356606,-0.089441374,0.017746517,-0.46247795,0.11793479,-0.5634619,-0.097923264,-0.38225925,-0.31853908,-0.19862689,0.26340878,0.1519993,0.13149983,0.0050730966,-0.098384,-0.75025177,0.2700793,0.36108908,0.025586091,0.2265844,0.03088943,-0.100395024,0.06516555,0.5360199,-0.4074316,-0.066403314,0.16517168,0.040294398,0.0049665943,-0.24363811,0.069072284,0.36604363,-0.20176557,0.11155502,0.0007261103,-0.17668739,0.27715015,-0.13744286,-0.33332634,-0.13466734,-0.2664252,0.15374784,-0.45303613,-0.13491824,0.50349045,0.06899703,0.02110882,0.3568867,0.25162742,-0.008273399,-0.3508802,-0.41032696,0.10588447,0.083666034,0.09024925,0.08177625,-0.08479898,-0.6951662,-3.185491,-0.066735625,-0.06186965,-0.2864077,0.36335582,-0.14310974,0.3230387,0.020222701,-0.46834412,0.2374258,-0.034909908,-0.20696661,0.12033899,0.21759994,0.16855231,-0.086498626,0.1932151,-0.39237046,0.07892936,0.21995091,-0.16284195,-0.90731764,0.05112811,0.08576112,0.30187213,0.4621427,-0.42424482,-0.07783931,-0.41617352,-0.19338533,0.19965148,-0.16612124,-0.25611475,0.33261192,0.15706393,-0.033370003,-0.104885876,-0.4209462,-0.18024966,-0.5789803,0.16382931,-0.65153325,-0.28141055,-0.046571784,0.6324028,-0.04655449,0.24872878,0.019679276,0.16547938,0.24260199,0.2989815,0.05853731,-0.24643314,0.033425063,0.08436703,0.03292231,0.6509403,0.18198149,-0.3378459,-0.02680635,0.116167426,-0.28600138,-0.38569602,0.04727972,-0.18531515,-0.17132893,-0.5228512,-0.26890218,-0.18758193,-0.13000327,0.06330467,0.8541922,-0.29769087,-0.20724776,-0.22160074,-0.47609952,0.32157508,-0.14449105,0.04604996,-0.16014533,-0.22286017,-0.33946025,0.118663535,-0.10900868,-0.16630578,-0.052601155,0.15971574,0.18792138,-0.5326549,-0.6110079,0.3137645,0.18591246,0.1608901,0.19515108,0.31814057,-0.09849081,0.41919148,0.05954223,0.018942012,-0.39389992,-0.050571334,0.013173807,0.6982325,-0.23270634,0.037458077,-0.004670243,-0.22722882,-0.21820855,0.29749793,-0.10573,0.25567132,-0.3186238,0.29177836,-0.3565827,0.0029930603,-0.09211613,0.29424536,0.88264334,-0.04515589,-0.219253,0.024367206,0.26098996,-0.31938228,-0.04686854,-0.1722243,-0.036817484,-0.22939272,0.31598988,0.07329293,0.043149725,-0.07993825,-0.057839636,-0.2591724,0.31638402,0.24697374,0.10078479,0.0027844156,-0.5123567,-0.27386868,0.22071707,0.16201298,0.3516823,-0.028357608,-0.18416604,0.014315546,0.25033897,-0.19803119,0.32138944,-0.3078114,0.29967868,-0.6371031,-0.31075972,-0.15537995,-0.39123547,0.053565703,0.48863137,-0.015360752,-0.15999818,0.0930178,-0.43332583,0.104300894,0.11677644,0.19007802,-0.14577882,-0.24400112,0.5628895,-0.120016776,-0.18735802,-0.07970567,0.021673467,-0.19985989,-0.37574977,0.18955216,-0.51490384,-0.027985955,0.55875814,0.23033676,-0.118352026,0.0532213,0.2593602,-0.08918835,-0.29529244,-0.34370413,-0.02382559,0.17472552,-0.12818417,0.37741306,-0.43032032,0.03214532,0.09008369,-0.0356805,0.15175274,-0.10970348,0.13827257,-0.092895076,-0.07590145,0.5671837,-0.0057049897,-0.0872069,0.23333733,0.07548371,-0.47837237,-0.48651642,-0.15313345,0.04405094,-0.25144744,0.0225715,0.27820748,-0.044300653,0.07556984,-0.50917614,0.08699085,-0.56029165,0.041205585,0.11583659,-0.66062903,-0.13246866,-0.13139091,-0.47974017,0.19720545,0.079290405,-0.08783667,0.16861284,-0.020432,-0.070715286,-0.27278668,0.11430339,0.093310624,-0.22350039,-0.035414048,0.006455154,-1.0028411,0.11353612,-0.038224235,-0.07982981,-0.020552728,-0.04096606,-0.79562855,0.3233498,-0.28260005,-0.15898019,-0.041824967,-0.30281126,-0.27880585,0.27151215,-0.03214718,-0.15188995,0.30996674,0.035804003,0.7128183,0.030730926,0.054856203,0.025127927,-0.12753457,0.052846152,-0.5388158,-0.34553465,-0.12912989,-0.24199831,0.030522034,-0.19046184,-0.1581894,-0.0049128477,-0.080082186,0.3384669,0.2377516,-0.18737161,0.03635057,0.036230534,-0.6659049,0.23521739,-0.33528322,0.024937553,-0.28196543,0.09146447,0.21018785,0.18244019,-0.41493267,0.5410466,-0.22157285,-0.43754688,-0.23536539,-0.1333934,0.09502809,0.34297264,-0.50079083,-0.21764404,0.1872212,-0.29078835,-0.09918219,0.46056107,-0.078635074,-0.126203,0.10632753,-0.50065047,0.1167657,0.7100723,0.38197255,0.0012191162,0.43122733,0.18049455,0.148736,0.31361267,-0.21682489,-0.17937922,0.349052,-0.00506652,-0.5804307,-0.10022478,-0.11199154,0.015309928,-0.41182482,0.6173339,0.31180778,-0.3617357,-0.36075693,-0.3344853,-0.302545,0.29840964,0.05873749,0.13400555,0.055008896,0.63541996,-0.006935464,0.31320006,0.44885138,-0.04090836,-0.12875408,0.077443734,0.39006916,0.14832716,0.33040565,-0.2453103,0.10656199,-0.04112974,0.20710656,-0.20442244,-0.15731508,-0.017022198,0.0111962855,-0.01116156,0.03958549,0.66380316,0.47116256,0.22340892,0.24411386,0.39472574,-0.1720335,0.6855593,0.5677036,0.16115806,-0.19791707,0.34634835,0.2509238,0.1976873,0.006303057,0.20097911,0.48753887,-0.19567895,0.6036031,0.22495818,0.24075873,0.5906655,-0.66089463,-0.3390746,-0.22837958,0.53389347,-0.40990642,0.038405035,0.18363708,0.052999593,0.31291726,-0.51936364,-0.27872425,-0.0027361014,0.012610802,0.29676557,-0.20460439,-0.033175696,0.11716772,-0.028520752,-0.2323055,-0.44230098,-0.4379981,-0.22655511,0.19264153,-0.028579883,0.07478699,0.18197106,-0.29655534,0.07396407,-0.07524149,0.11855431,-0.071450345,-0.11170145,0.14705345,0.43008006,0.051796928,0.7291418,-0.23487669,0.0993763,-0.18354276,-0.114042,0.049289085,0.108365044,0.05471444,0.023645278,0.48570216,-0.4855246,-0.2769869,-0.14371687,0.2798206,-0.30229086,-0.012503869,0.032279864,-0.09974676,0.14653355,0.052296624,-0.14220887,-0.2227335,-0.09082373,-0.3835376,0.19468993,0.16603504,-0.48191553,-0.013018619,0.32020354,0.2038197,-0.11358629,0.028517226,-0.29123926,-0.08719245,-0.12646084,0.3637426,0.14171088,-0.44584015,-0.3224899,0.2663562,-0.13037774,0.19365315,0.18246439,0.1932835,-0.028478324,0.046713684,0.42369473,-0.024994263,-0.3663298,-0.27877414,-0.07669127,-0.21939346,-0.049278703,-0.16063969,0.17511323,-0.28090787,-0.05677152,-0.3566016,-0.24222124,-0.21822333,-0.07404081,-0.0845442
11797122.pdf,-0.38443512,0.16193634,0.30680847,0.09303887,0.66803503,0.06982952,0.16063648,0.2847197,-0.027229324,-0.19546482,0.12270165,-0.29662085,-0.14470369,0.03245804,-0.06788532,0.54842734,0.3286841,0.0090046385,-0.22010432,0.34004226,0.19172889,-0.2785148,0.14094186,0.56455296,0.18052877,0.17501213,-0.27075756,-0.04861932,-0.35830653,-0.19037125,0.5234767,0.17333917,-0.005188551,-0.18649821,0.11677303,-0.020567346,-0.12110579,-0.00823105,-0.2503615,0.26709443,-0.38194495,-0.17422983,-0.19521654,-0.06332051,-0.16575596,-0.12986967,0.2849889,-0.20503159,0.04352959,-0.09092551,-0.35848397,0.33190084,-0.33208525,-0.034535006,0.19781373,0.70447767,-0.12353219,-0.6648021,-0.39177203,-0.39086792,0.23734215,-0.100629285,0.32696128,-0.1563768,0.1417185,-0.030804379,0.14445832,0.41241068,-0.5252006,-0.079871885,-0.3743289,0.18242702,0.022108022,-0.078358464,-0.18341376,-0.14266779,-0.06619645,0.31446397,-0.114999145,0.04592805,-0.27893132,0.2051788,-0.23188299,0.2552992,0.15568615,0.10704469,0.18405679,0.14084883,-0.2651598,0.6154674,0.24805841,-0.2574997,0.2737084,0.17237264,-0.09875186,0.09178423,0.05832229,0.13971028,-0.11438401,-0.03397549,0.18864417,0.042389277,0.29839462,0.08684598,0.054281734,-0.009030236,0.00043540075,0.21200386,-0.25431263,0.46648872,0.10203868,-0.26777533,-0.20470802,-0.40554428,-0.00886165,-0.060247056,0.0281542,-0.06415737,0.21559925,0.095188044,0.037453786,-0.17923588,0.1458638,0.765417,-0.028489828,0.042666838,-0.13659085,0.31008506,-0.12847202,0.015665388,-0.16455664,0.19508612,-0.047812283,0.11046187,-0.36912447,0.30198008,-0.19625911,-0.23933402,-0.1397132,0.21581961,-0.105688855,-0.7039,0.5460391,-0.14034063,0.02332143,-0.25563413,0.13529566,0.042390272,-0.04647191,0.4986983,0.2948117,-0.02354386,-0.032669753,-0.22717589,-0.042296354,0.094487935,-0.30863708,0.22310536,-0.15890159,-0.22149718,0.28212458,0.5105151,-0.55446005,0.19471385,-0.087615885,0.08492422,-0.28941905,0.43422577,-0.2469551,0.017424408,0.044466693,0.13089037,0.74397683,0.18431742,0.13618875,0.13619971,0.25638875,-0.103522584,0.20950723,-0.009612668,-0.46829888,0.40406227,0.03850383,0.0703707,0.28711718,-0.14953744,0.29675975,-0.47084278,0.018220589,-0.41958067,-0.19225931,-0.32775348,-0.10986181,-0.059336603,0.20774719,-0.19915454,0.11907024,0.047622416,-0.5008207,-0.27316368,0.31903183,0.27458668,0.21069446,0.09892993,-0.050421193,-0.47526923,0.3026684,-0.38558653,-0.12876803,0.13047735,-0.34969968,0.081694916,-0.046131402,0.38813317,-0.16713937,0.13898349,-0.18099804,-0.13490626,0.26938513,-0.14859329,0.10314708,0.17734767,-0.5492472,0.5389137,-0.5571244,0.46824533,0.019434247,-0.6659973,0.21058747,0.35584965,0.061212767,-0.4259653,0.41316903,-0.47266734,0.035783906,0.032269634,-0.25685024,-0.14651766,0.21824726,-0.35703346,-0.3243943,0.61412585,0.30249804,0.0886955,0.12512414,-0.063054875,-0.003541159,-0.02418939,-0.25558227,-0.2587614,-0.6072439,0.051390424,0.12558004,-0.5079787,0.09671739,-0.5786818,-0.064314574,-0.37957752,-0.1614562,-0.102345884,0.40487656,0.073822655,0.084460765,-0.109695785,-0.13913761,-0.8380861,0.27571255,0.3254642,0.17190546,0.35498405,0.16118732,-0.010923959,0.124859795,0.7073242,-0.3077513,0.034721248,0.32666326,0.09508249,-0.029274179,-0.047428016,0.19153371,0.46562928,-0.1623109,0.056363955,-0.10688081,-0.2988495,0.29103652,0.07751903,-0.21312562,-0.30151984,-0.14558491,0.2073601,-0.49907783,-0.15504116,0.44806054,0.120577425,0.06766616,0.3350988,0.30917752,-0.06615952,-0.29679823,-0.38613135,0.16306931,0.119201824,0.058684237,0.01695149,-0.13273431,-0.72110486,-3.110519,0.039410427,0.009339493,-0.43659908,0.43992898,0.03001673,0.2074801,0.028824698,-0.3499956,0.35127148,0.08769379,-0.1827187,0.07626928,0.26375535,0.29933077,-0.20285252,0.19512883,-0.33498418,0.018363623,0.21621644,-0.19817096,-1.0025824,0.11782986,0.020497756,0.27288193,0.30793208,-0.5904541,-0.1057012,-0.29700696,-0.07702233,0.073120646,-0.29725072,-0.236311,0.26759794,0.20994051,-0.18569857,-0.13210587,-0.3876406,-0.023829238,-0.5037613,0.06230198,-0.7641471,-0.116203,-0.058979906,0.7034847,-0.013216544,0.27540195,-0.19288075,0.23581287,0.27244276,0.30900615,0.038441703,-0.035033807,-0.18043739,-0.04730379,0.004562132,0.66328,0.28949672,-0.3144536,-0.12678108,0.09195963,-0.38831437,-0.34626874,-0.114261664,-0.21782775,-0.034925207,-0.5716619,-0.2731109,-0.24933198,-0.015799366,-0.0919044,0.84059477,-0.25056052,-0.17569956,-0.04577956,-0.48399177,0.19938742,-0.23913619,-0.058256198,-0.24985561,-0.1440702,-0.4773472,0.25405866,-0.03698082,-0.06594664,0.029562166,0.026908718,0.008392146,-0.5375809,-0.69517577,0.34299475,0.10898478,0.27424866,0.036559045,0.38627774,0.009100882,0.4624836,0.06785479,0.21764922,-0.45943284,-0.052657533,0.18566436,0.71557474,-0.2640751,-0.070892364,-0.047189295,-0.23882309,-0.059418403,0.0791156,-0.041654203,0.042914413,-0.23938426,0.42675072,-0.34953076,-0.23063555,-0.028647091,0.3807556,0.6634722,-0.0753669,-0.1988033,-0.032015666,0.2527678,-0.34979615,-0.1885356,0.011084665,-0.0089592,-0.16823757,0.33036873,0.17431854,-0.1757637,-0.22948182,-0.06251348,-0.10031957,0.28454584,0.19643925,0.025130771,-0.080261365,-0.52474433,-0.19040374,0.24156374,-0.04334248,0.22478327,0.0017607259,-0.25802612,0.18114142,0.27976722,-0.07109836,0.30064625,-0.23510656,0.10454959,-0.64068186,-0.4794711,-0.17651299,-0.35967776,-0.031471454,0.5686506,0.21557748,-0.12097257,0.12767585,-0.5857854,0.24562722,-0.027649984,0.33910796,-0.11305486,-0.3971953,0.7641847,0.058746103,-0.19164851,-0.07442467,0.0694136,-0.275137,-0.3233496,0.20590934,-0.29895696,-0.042250145,0.5565031,0.24276571,-0.32063714,0.012583364,0.26928347,-0.18121354,-0.22414607,-0.23463719,-0.07658865,0.1503271,-0.10084438,0.31548584,-0.3555067,0.124207094,-0.07871201,0.110677496,0.24665985,-0.018410172,0.056016304,-0.12980172,-0.103478804,0.5750773,0.005558826,-0.034332987,0.24524826,0.09867224,-0.39690125,-0.4120115,-0.05742984,0.013937816,-0.06858203,-0.07067092,0.3587528,0.00424961,0.015906356,-0.45110142,0.083543666,-0.4374984,0.07842292,0.11794217,-0.5237227,-0.09885056,-0.07042518,-0.4878164,0.087536454,-0.07996009,0.10972752,0.13415654,-0.050569464,-0.19609536,-0.2586046,0.22782284,0.027356997,-0.1906937,-0.10398953,-0.05731673,-1.0254967,0.06677918,0.06574432,-0.05847349,0.094231546,-0.08057122,-0.9368274,0.2394161,-0.25844747,-0.106252715,0.08432215,-0.29253787,-0.15864149,0.15652427,-0.035726532,-0.15450571,0.2699578,0.027324444,0.61731124,-0.054715473,0.13726072,0.13219315,-0.09349144,0.1278417,-0.5374009,-0.30075574,0.013970878,-0.13955905,-0.0057476684,-0.3062604,-0.051033087,-0.056352552,0.06307083,0.34200913,0.2955612,-0.26726907,-0.045786913,0.06694077,-0.5499174,0.3513031,-0.4085677,0.015467081,-0.3048957,0.10569358,0.0657298,0.18133083,-0.51679003,0.5980557,-0.23588434,-0.52253187,-0.15928209,-0.06105291,0.12609889,0.22610086,-0.4802423,-0.25813234,0.050009385,-0.223785,-0.03734868,0.5125436,0.099219106,-0.17279616,-0.01281313,-0.62934554,0.18525082,0.6518945,0.4859022,-0.058443498,0.3323081,0.16399103,-0.04057364,0.21435253,-0.12098663,-0.24240232,0.29415518,0.0022796644,-0.57672673,-0.15433563,-0.0025849007,-0.024092872,-0.47602022,0.650447,0.3529336,-0.34047243,-0.4539679,-0.31086427,-0.17756131,0.21394572,0.16334862,0.2555089,0.11104324,0.4814688,0.040710382,0.32296762,0.6223184,0.015774585,-0.23047386,0.009302333,0.24773535,0.10193566,0.28117818,-0.2828847,0.12576213,-0.04174685,0.16320226,-0.37582985,-0.23014076,0.048000306,0.028845519,-0.16855948,-0.036469802,0.64882755,0.48304516,0.33018965,0.36347452,0.24268663,-0.14284152,0.6592597,0.6069411,0.034069553,0.0048832074,0.17463198,0.031876594,0.11215252,-0.2732047,0.2148357,0.3977325,-0.18875697,0.5288182,0.19031584,0.35879552,0.5124538,-0.6964588,-0.29213563,-0.23613214,0.48593754,-0.47449422,-0.035153914,0.25141585,-0.029722475,0.21701846,-0.47362185,-0.19341925,-0.070678875,0.15005475,0.12472531,0.039952967,-0.10327297,0.19852418,-0.13857973,-0.20791537,-0.35010016,-0.43666953,-0.27267832,0.124204144,-0.1471942,0.034334354,0.177162,-0.31647927,0.017639933,-0.11348162,0.1889814,-0.24048321,-0.08347885,-0.11357214,0.31076446,0.115999505,0.7864524,-0.13887264,0.15239763,-0.24425408,-0.20860377,-0.031325366,0.18704303,-0.03378734,0.06665004,0.5669683,-0.27021998,-0.18032083,-0.20903784,0.37796053,-0.28734988,-0.010965146,-0.024222588,-0.21420053,0.14758654,-0.034117192,-0.15399219,-0.2678346,-0.10446596,-0.3310848,0.16140768,0.082030386,-0.44461995,-0.07955493,0.32533655,0.07097232,-0.13628684,0.060225975,-0.25525236,-0.07298778,-0.13846667,0.00097227003,0.14486586,-0.18385173,-0.29568517,0.26122537,-0.039009884,0.19089423,0.34186137,0.14723584,-0.15267739,-0.010047119,0.4946207,-0.020064976,-0.28457654,-0.2824037,-0.21861038,0.017283726,-0.11874251,-0.18800461,0.09596411,-0.27236357,0.029571654,-0.52872187,-0.23010506,-0.10781419,-0.09503697,-0.14743203
11887930.pdf,-0.4380744,0.303966,0.4670866,0.030614752,0.5713503,0.052957043,0.037325107,0.18356948,-0.04444078,-0.2496411,-0.092235476,-0.28003374,0.11347234,0.08582801,0.10374296,0.39118713,0.28820616,0.014032967,-0.23857637,0.28846645,0.13311847,-0.15867312,0.07919511,0.6836468,0.44544798,0.15319745,-0.14989722,-0.028682262,-0.23675713,-0.29378128,0.5546958,0.046501078,-0.13654895,-0.2777349,0.016035842,0.08101787,-0.29075277,0.030932948,-0.16468884,0.24049212,-0.31910926,-0.15485775,-0.14306392,-0.0023833308,-0.28364995,-0.23371509,0.036139995,-0.073998526,0.14106116,-0.024199903,-0.5265514,0.43243706,-0.25770053,-0.30599743,0.22599293,0.7847152,0.056402393,-0.47176266,-0.5033523,-0.35870004,0.034323744,-0.11531822,0.19740784,-0.15673298,0.27029046,-0.020774784,0.14291635,0.42828894,-0.76330876,-0.022131188,-0.29905474,0.1489247,-0.23989701,-0.043869816,-0.3751123,-0.18278739,-0.09976402,0.499828,0.013431575,0.021602381,-0.14995721,0.22764422,-0.3322662,0.24314715,0.13301449,0.17668073,0.36806726,0.18957746,-0.43005937,0.5122173,0.25808483,-0.32363904,0.2566176,0.22113639,0.23958503,0.124960154,0.053183697,0.18690147,-0.09746236,0.052013315,0.25839666,-0.12102547,0.10909197,0.002746595,0.07329907,0.009375203,-0.076087624,0.06733857,-0.45968646,0.49323678,0.10677306,-0.3464061,-0.23794228,-0.5354583,-0.008119108,-0.13676392,0.13422823,0.21221867,0.18151543,0.13057098,0.17390108,-0.09685894,0.16841066,0.82406306,0.007381499,0.061563008,-0.19058748,0.2171384,0.028899312,-0.078305334,-0.01297031,0.059772946,-0.18099307,0.12146649,-0.29404843,0.29614407,-0.13186061,-0.39949277,-0.21274416,0.28584173,-0.08250566,-0.56689286,0.46914828,-0.2259846,0.116652034,-0.27181423,-0.109837875,-0.04619947,-0.036315814,0.36299515,0.35302198,0.16984129,-0.07156468,-0.27545032,-0.07776576,0.18549202,-0.30704862,0.12532757,-0.16264093,-0.122133,0.3161097,0.39501426,-0.55712223,0.21584365,-0.08501205,0.002975095,-0.16298455,0.27659848,-0.25193876,0.1236218,-0.028480064,-0.112283595,0.6785467,0.1308703,0.14043987,0.061895374,0.34467447,-0.09160268,0.18912597,0.04945942,-0.47637618,0.36167294,-0.11284491,-0.24910417,0.26683486,-0.14597063,0.41652825,-0.4224549,0.1104202,-0.12889352,-0.32025146,-0.4322828,-0.11359109,0.05351469,0.35060126,-0.44978797,0.05303246,0.21160561,-0.45370346,-0.23167624,0.26338166,0.24813467,0.17958005,0.18087009,-0.14140579,-0.5347818,0.30297935,-0.38884807,-0.26301926,0.15793213,-0.36922643,0.13092688,-0.015413865,0.17284659,-0.0071736313,-0.02140821,-0.24882933,-0.09595457,0.17956638,-0.043306217,0.29037094,0.124585874,-0.50864935,0.6198218,-0.41449648,0.5087205,0.11990301,-0.9833795,0.5225189,0.32314748,0.025158735,-0.34245706,0.54090154,-0.47162497,0.02500904,0.09500727,-0.34605908,-0.081616215,0.22054088,-0.19122691,-0.19271477,0.6047785,0.16447805,0.11823001,0.27901173,-0.013313547,-0.1382233,-0.014815942,-0.16008529,-0.19825613,-0.6188841,0.13555646,-0.08109564,-0.46159217,-0.12936571,-0.32073855,-0.21222433,-0.43019652,-0.20766142,0.03183667,0.22606826,0.15751658,0.009120662,-0.10882585,-0.012586536,-0.71608746,0.24340884,0.22581589,0.27442092,0.24355039,0.017654229,-0.06584637,0.08497518,0.5320673,-0.42523196,-0.2051248,0.2167042,-0.009210901,-0.10730811,-0.20779511,0.110939905,0.2740413,-0.18625894,0.057422794,0.030109717,-0.0013417266,0.2852598,-0.049683996,-0.15181822,-0.12310441,-0.19277307,0.20281397,-0.5657378,-0.19008444,0.61458707,0.046052977,-0.021434743,0.22246379,0.0836265,0.07012153,-0.4095719,-0.26808488,0.3293296,0.046367146,0.27201334,0.17656717,-0.0992471,-0.5646868,-2.9573598,-0.14642614,-0.071776435,-0.32502627,0.36522242,-0.26609647,0.20181054,-0.054613076,-0.405514,0.07654528,-0.12357129,-0.147728,0.020829301,0.2579531,0.18783103,0.02801698,0.019308656,-0.30223334,0.09157741,0.5312009,-0.04828349,-0.83782876,0.10751875,0.007908526,0.24551058,0.24492672,-0.5912751,0.08454907,-0.35163444,-0.27854657,0.18351528,-0.2066087,-0.2656938,0.31682205,0.21130972,-0.23824522,-0.083435684,-0.43204015,-0.16333151,-0.57548714,0.17936617,-0.8708441,-0.06310565,-0.0078088567,0.6938838,-0.1137935,0.28962135,0.0614205,0.12704231,0.1625031,0.19831464,-0.063347146,-0.26215965,-0.2330233,-0.13901527,-0.15984505,0.63300765,0.29752657,-0.34404165,-0.04516702,0.13352546,-0.33776394,-0.37950355,-0.20930195,-0.31372076,-0.12805013,-0.64472973,-0.43724698,-0.26291218,-0.1662525,-0.08159096,0.7712977,-0.34671894,-0.21993782,-0.1460613,-0.56989264,0.4091584,-0.16909741,-0.09452521,-0.19018388,-0.23187411,-0.43530115,0.26320866,0.070258915,-0.20763151,-0.014596283,0.083705515,-0.05662726,-0.48908013,-0.6740545,0.29611188,-0.028428271,0.24166015,0.08891104,0.47400182,0.012785718,0.56843793,-0.012306542,0.014058275,-0.4063072,-0.05670958,0.0546043,0.67873585,-0.24944746,0.009697232,-0.076826476,-0.35620326,-0.045296766,0.29244417,-0.084712744,0.097659856,-0.21828887,0.26929826,-0.25443342,-0.18512383,0.06703994,0.16973934,0.80200094,-0.11378977,-0.3022953,-0.14944933,0.35083985,-0.16759606,-0.13420537,-0.19397485,0.02136863,-0.33581674,0.29145908,0.12739708,-0.08409684,-0.3180347,-0.117607296,-0.10771111,0.33466297,0.33378,0.0378392,-0.030632855,-0.38625887,-0.13997357,0.25846317,0.13710909,0.3513181,0.18950984,-0.3065412,0.043351445,0.17480904,-0.23021068,0.45264405,-0.21484247,0.24256031,-0.66742146,-0.3112296,-0.23489513,-0.38362452,0.04360834,0.47504348,0.12279837,-0.100150555,0.16244867,-0.43166253,0.20899445,0.023885822,0.15127152,-0.056940373,-0.03209992,0.7039015,-0.0485228,-0.12672153,0.0058500767,-0.029163055,-0.2819452,-0.3281392,0.115108386,-0.54298145,-0.13726023,0.52781606,0.25600645,-0.13013478,-0.080927014,0.47017705,-0.07499765,-0.3105827,-0.21216339,-0.11654923,0.25763866,0.21959698,0.16712062,-0.5346546,0.09251637,0.053453527,0.0355249,0.3417494,-0.071289934,0.17343599,-0.12769625,-0.11326652,0.5984924,0.06940875,-0.03476076,0.13470735,0.17794862,-0.42637086,-0.3900652,0.071297094,0.006020747,-0.26426953,-0.06363725,0.34115916,0.11115906,-0.07645599,-0.44740802,-0.03601096,-0.47996932,0.061273284,0.10269688,-0.65375996,-0.17992193,-0.10524883,-0.5080516,0.1186095,0.0045231692,-0.03180326,0.19532037,0.012157913,-0.061874054,-0.15425517,0.24665704,0.080539,-0.3144788,-0.20235857,0.17439902,-0.9080167,0.07437955,0.070160925,-0.16159081,-0.010097942,-0.06483655,-0.7764252,0.27888072,-0.3674512,-0.1779519,-0.111255236,-0.317485,-0.33355993,0.17632428,0.021626696,-0.21157283,0.3391384,-0.12482472,0.6387793,0.022035092,0.009901233,0.16275027,-0.2535489,0.1398337,-0.36614984,-0.33527857,-0.1516848,-0.37960613,-0.20092446,0.016111534,-0.12168894,-0.056364775,0.028133761,0.32882026,0.23388204,-0.13818336,-0.21013759,0.055388514,-0.6216197,0.15024106,-0.3185016,-0.048227064,-0.1799469,0.22129753,0.015067633,0.22423053,-0.35602304,0.6910754,-0.12753695,-0.399056,-0.18218432,-0.05236058,0.16181463,0.5323123,-0.4414963,-0.120038085,0.2768132,0.040999915,0.025369827,0.36240625,-0.17922398,-0.2586365,0.113597296,-0.74595976,0.12579367,0.66527253,0.2846456,-0.017080119,0.27121067,0.3161556,0.13992523,0.45896238,-0.06684628,-0.28686988,0.4087013,0.07598363,-0.5184259,-0.0829349,-0.11619504,-0.09643556,-0.43458837,0.7312417,0.19839737,-0.4740913,-0.45132306,-0.2867226,-0.1739493,0.4554026,0.025941378,-0.0058124904,0.1451759,0.47520524,-0.077487275,0.37586373,0.50977457,-0.03120502,-0.21522325,0.038105432,0.13723107,0.103827715,0.47336334,-0.19638142,0.107844576,0.027087618,0.13939206,-0.17653942,-0.21550661,0.25167647,-0.08089895,0.053852938,0.09427565,0.60471654,0.42029098,0.3031798,0.34093177,0.2635124,-0.14917016,0.60795426,0.7044127,0.16290964,0.031904012,0.08779514,0.06986836,0.16035925,-0.082102165,0.2379258,0.4599581,-0.09561271,0.7066064,0.22447428,0.34450254,0.6516904,-0.5705761,-0.4349177,0.033723343,0.68136907,-0.37018597,0.107488826,0.19245052,-0.1759108,0.30060503,-0.44740257,-0.19721514,0.026419956,-0.03727169,0.24490935,-0.042863153,-0.040300246,0.27448443,-0.07065824,-0.28002715,-0.4560998,-0.34413233,-0.32745618,-0.017239466,-0.048359565,0.046907626,0.09613148,-0.25599313,-0.039310418,-0.04816399,0.43849695,-0.13930202,-0.25064024,-0.027291879,0.26022178,0.18156925,0.6352416,-0.047236267,0.17042767,-0.21423452,-0.28675187,0.01662599,0.1804588,-0.018906575,0.07845675,0.44343862,-0.391739,-0.28923255,-0.04948898,0.25009543,-0.38463736,-0.09268157,-0.034779586,0.10011039,0.18165296,0.3065352,-0.23579025,-0.1069825,-0.15933838,-0.40812883,0.35440403,0.030413102,-0.25912958,-0.06896981,0.3316151,0.21565202,-0.13166049,-0.1117426,-0.25629824,0.05494598,-0.035002567,0.30450556,-0.06439239,-0.22922131,-0.3512017,0.28056088,-0.12867573,0.24046434,0.08345086,0.33884573,-0.102574505,0.08121091,0.33341423,0.030115046,-0.37417087,-0.4450242,-0.12402832,-0.1527433,-0.045983665,-0.18687536,0.06887005,-0.36801493,-0.08156749,-0.36888665,-0.4155246,-0.26772287,0.02882389,-0.13352017
14455622.pdf,-0.38538334,0.2534894,0.32892603,0.030922227,0.55304277,0.07961684,-0.034091376,0.2543182,0.11862082,-0.25266305,-0.1319116,-0.25722414,0.14709684,0.16567154,0.05550396,0.58493185,0.14611499,0.059004158,-0.016004626,0.49662107,-0.023581892,-0.3189089,0.21168108,0.5888069,0.25107223,-0.09466332,-0.17210223,-0.14140496,-0.32829803,0.039401524,0.41779152,0.16661423,-0.20330968,-0.40159535,0.10969276,0.048067003,-0.15915231,-0.043252073,-0.14794958,0.15817615,-0.5896594,-0.26310778,-0.03845955,-0.046066582,-0.33592933,-0.2321519,0.40832046,-0.13081673,0.095983595,0.09761345,-0.4518798,0.15668069,-0.23746008,-0.17110085,0.44447684,0.64743125,0.11386578,-0.61244655,-0.52404475,-0.42011446,0.18968064,0.078898326,0.26656947,-0.12946229,0.10223909,-0.0892978,0.24001834,0.4274098,-0.72096133,-0.09954499,-0.2458378,0.14827189,0.07135253,0.018282756,-0.04751106,-0.20778632,-0.0046479506,0.34157646,0.0068909787,0.072436355,-0.13731456,0.29892465,0.03451882,0.30925602,0.061251707,0.19957975,0.07094953,0.11160591,-0.36941844,0.5508932,0.24428532,-0.25640142,0.29822618,0.10110904,-0.038800806,0.14584732,0.30141854,0.09993422,-0.12114826,-0.041739777,0.13208124,0.09881642,0.21389486,-0.07001628,0.10311901,-0.09510855,-0.042224083,0.05229315,-0.20156486,0.6269366,0.060822163,-0.4005939,-0.20552053,-0.45243278,-0.11509487,-0.053022694,-0.21283698,-0.040085502,0.1533903,0.13249913,0.20709062,-0.23026398,0.15742388,0.7205812,0.096903995,-0.03441486,0.05675307,0.47027946,-0.13481747,-0.09284778,0.11581695,0.231953,-0.20122296,0.085091665,-0.31152582,0.27842814,-0.1497379,-0.37269324,0.026511226,0.14631447,-0.22951159,-0.6112588,0.18403591,-0.14588766,0.03484089,-0.21353336,0.044256028,0.08307734,-0.22160482,0.2516865,0.31994188,-0.09042293,-0.050790988,-0.10279147,-0.013630971,0.0596971,-0.141991,0.065311514,-0.16125493,-0.1733135,0.48731261,0.33480284,-0.46864936,0.47666723,-0.18530133,0.11944524,-0.4458949,0.23489179,-0.37413156,-0.22821179,-0.095608056,-0.094843656,0.60909784,-0.059130754,0.32748896,0.085492834,0.26268932,-0.20078847,0.1698035,0.038684342,-0.4867387,0.43003318,-0.034077737,0.07703703,0.2932601,-0.15921941,0.51092154,-0.28369173,0.03204588,-0.41373062,-0.4007895,-0.41143703,0.016730968,-0.09085717,0.08386231,-0.056822978,0.05317344,0.10164841,-0.48711133,-0.19941555,0.34132996,0.33999687,0.13288322,0.07921774,-0.09658818,-0.35322833,0.1518789,-0.52090967,0.0017936919,0.13088448,-0.29687923,-0.0953342,-0.25320408,0.42030686,0.06711265,-0.08527643,-0.2630142,-0.23775265,0.19063006,-0.2127973,0.17289273,0.29517695,-0.5379374,0.45555323,-0.5274551,0.50939703,-0.09770531,-0.79337156,0.22719982,0.53386694,0.01403209,-0.33081752,0.41061175,-0.61304736,0.21677214,-0.0051748827,-0.35278943,-0.023933716,0.28712428,-0.27633703,-0.2857361,0.7268257,0.22765175,0.033472277,0.20406845,-0.051438123,-0.13018724,-0.25961238,-0.09062823,-0.14931718,-0.64187014,0.15822443,-0.054778107,-0.5155691,-0.076993406,-0.39401013,-0.029342087,-0.3834698,-0.12647992,-0.11580852,0.25982413,0.09147178,-0.08072967,0.052888818,-0.23382252,-0.7152017,0.014586197,0.17131165,0.21386473,0.43922466,0.084125504,-0.10177198,0.09075637,0.5093503,-0.4243862,0.082219414,0.20998317,0.06898344,-0.00683333,-0.10546683,0.35752928,0.3835621,-0.24264014,-0.008382689,-0.12784618,0.13331896,0.2711017,-0.052709773,-0.29003465,-0.306907,0.10358241,0.026540302,-0.50942886,-0.12628525,0.34977493,-0.0808601,0.116393,0.38217258,0.26469052,-0.057625804,-0.39541554,-0.29479757,0.13092059,0.06124363,0.098335035,-0.056855235,-0.12910627,-0.7136897,-3.0411015,-0.15688948,-0.10415891,-0.38066113,0.446154,-0.08934295,0.2227231,0.16889858,-0.5481876,0.3279768,0.043389693,-0.18479224,0.075758,0.28638154,0.30058852,-0.11491906,0.09496995,-0.33786428,0.11772591,0.49363652,-0.18068233,-0.9658841,0.24676187,-0.056463435,0.35370374,0.27453697,-0.5615523,-0.06438131,-0.3505665,-0.12717617,0.100397006,-0.13326426,-0.3268269,0.39873376,-0.068044916,-0.3358929,-0.06829339,-0.35425517,-0.112474754,-0.560194,0.09336467,-0.77303123,-0.1403304,-0.06486942,0.6240798,-0.058190987,0.14149475,-0.051480804,0.14419222,0.3932493,0.39904743,0.07533363,-0.10144774,-0.100319855,0.08551474,-0.2104497,0.44749367,0.20354424,-0.31820196,-0.0063972073,0.12132439,-0.29675052,-0.5131544,-0.11008724,-0.29922384,0.033223487,-0.60640395,-0.3358369,-0.015959335,-0.27140728,-0.06904252,0.81973445,-0.40904504,-0.18171686,-0.07948302,-0.6366006,0.3711928,-0.23032188,-0.043600656,-0.3203988,-0.034741323,-0.43714875,0.25276935,-0.03683521,-0.28219685,-0.012417182,0.036057986,-0.12205849,-0.3596748,-0.5013096,0.45226967,0.1507444,0.26074636,-0.046781264,0.35367474,-0.23698738,0.5679899,0.061130803,0.12139255,-0.51329815,-0.043318003,0.0056123026,0.5923418,-0.16354415,-0.23023811,-0.1975035,-0.27351397,-0.071274325,0.30893436,0.09993145,0.2376064,-0.3108158,0.2282058,-0.32027152,-0.22033322,-0.03291391,0.19251163,0.78443825,-0.10596047,-0.14529105,-0.13626531,0.11175802,-0.22185212,-0.13930336,-0.10584957,0.07655522,-0.37461182,0.43849957,0.0021405853,-0.096267134,-0.122688845,-0.018304702,-0.16270286,0.24502394,0.189641,0.14289658,-0.097326875,-0.5772729,-0.063902475,0.33435676,0.009797536,0.34466785,0.07180205,-0.23871133,0.08724917,0.31105724,-0.2108894,0.45142776,-0.016970718,0.23925753,-0.7848085,-0.45787203,-0.15646932,-0.22346297,-0.07813783,0.34268385,0.26987413,-0.20329791,0.056404658,-0.49228483,0.25975132,-0.01810965,0.3370732,-0.093035966,-0.06966811,0.68693614,0.041481078,-0.2528597,-0.022628885,-0.14614168,-0.20567791,-0.3400542,0.15763214,-0.22359866,-0.072619304,0.46084142,0.3389356,-0.25466454,0.0008199364,0.47588038,-0.08763251,-0.09534853,-0.36541277,0.053960577,0.21452728,-0.041081525,0.34682253,-0.38756508,0.13928509,-0.05921003,0.23555946,0.28348503,-0.10187361,0.10379985,-0.059011776,-0.2304039,0.56904685,0.22525613,-0.07766476,0.22081544,0.12470341,-0.43568376,-0.34484416,0.12764955,-0.05297063,-0.0962288,0.15061967,0.28938138,0.09939134,-0.093043774,-0.3124606,0.008719308,-0.47030914,0.2102882,-0.10068859,-0.5790699,-0.14845356,-0.052673426,-0.4258883,0.024727456,-0.048237037,-0.092233054,0.09609002,-0.062278673,-0.28941682,-0.10354247,0.09351098,-0.09775019,-0.3948701,-0.33422226,0.15069383,-0.736379,-0.027068485,0.0068453643,0.17794904,0.30421323,-0.23737791,-0.98936737,0.28655058,-0.21241888,-0.17118397,-0.0109321065,-0.26402736,-0.33397532,0.009379157,-0.11266675,-0.028777461,0.19135243,0.03890892,0.48651803,-0.08689523,0.05103939,0.16103587,-0.11053519,0.3030213,-0.46453863,-0.40367395,-0.04766853,-0.27171272,-0.009289715,-0.3741688,0.10830767,-0.2416529,0.12178018,0.48026848,0.263376,-0.30644357,0.17016941,0.109877266,-0.5201976,0.21705846,-0.28404462,0.091410354,-0.33004797,0.110188216,-0.0063296203,0.11142659,-0.45403308,0.5876829,-0.12749757,-0.5760179,-0.31005326,-0.0029906873,0.16812542,0.33383942,-0.373461,-0.2932103,0.15717813,-0.30236888,-0.034721475,0.44009852,-0.11297989,-0.18092513,-0.07023364,-0.7337602,0.03419569,0.8784058,0.443986,0.06508304,0.34518963,-0.044715002,-0.084225275,0.21410224,0.03591326,-0.22341193,0.4072494,0.10227109,-0.48765588,-0.14488982,0.026443705,0.1184458,-0.5835127,0.61761826,0.23813617,-0.35177237,-0.27200437,-0.18823421,-0.22105971,0.3279835,-0.09281714,0.047455598,-0.05082795,0.56172025,0.11937184,0.2670108,0.6127218,-0.102684274,-0.057734147,0.18009442,0.16788955,0.1675565,0.3402773,-0.05504677,0.17441013,-0.01899819,0.02642091,-0.074994594,-0.051683888,-0.028702516,-0.002000887,-0.14863527,0.16603132,0.5515547,0.44748673,0.29056278,0.20040846,0.3542983,-0.11815831,0.83819115,0.44347465,0.051162075,-0.088484935,0.26856178,0.14632118,0.28073716,0.038448762,0.24556406,0.369043,0.024337247,0.6866465,0.14960432,0.33164424,0.5814528,-0.45564356,-0.293107,-0.16571835,0.4744304,-0.5062555,0.16480933,0.13432899,-0.13511005,0.24164015,-0.4328928,-0.20149365,0.0034736805,-0.008486968,0.16610152,-0.06045983,-0.024904728,0.31335437,-0.15341485,-0.19614497,-0.29393822,-0.38899052,-0.14306699,0.20652714,-0.13036743,-0.091063626,0.11992608,-0.11834386,0.042346545,-0.095398694,0.36232197,-0.005507961,-0.04810136,-0.13301894,0.30302712,0.12446528,0.6626886,-0.12568316,0.20890042,-0.19611359,-0.13529465,-0.037842885,0.41752642,0.015644029,0.07126758,0.593972,-0.49823567,-0.053705785,-0.44947731,0.33172083,-0.21526062,-0.027985297,0.03166987,-0.40033776,-0.018415336,0.11890102,-0.16253302,-0.07233253,-0.047794845,-0.51891595,0.14277174,0.03331427,-0.17780769,-0.26412472,0.22100845,0.28132206,-0.16642737,0.2015478,-0.13889948,-0.061376616,-0.08773749,0.20988289,-0.05106204,-0.09500775,-0.44720858,0.33236158,-0.0056319376,0.14474447,0.20047797,0.30898547,-0.17476462,0.023876503,0.46197915,-0.20785728,-0.33662876,-0.6015309,-0.31155145,0.034446366,-0.058844984,-0.222888,0.17728314,-0.3133679,-0.011046413,-0.50951725,-0.22845992,0.01815306,0.007487323,-0.1169734
14508237.pdf,-0.29221338,0.31729832,0.3965466,-0.039901294,0.6957177,0.06859617,0.17307474,0.18182947,0.015165059,-0.40200055,-9.918772e-05,-0.24306914,-0.021102801,0.042690776,0.14179446,0.6542683,0.35222527,0.06428148,-0.3002678,0.46159893,0.0874885,-0.2728461,0.22256887,0.55931413,0.32537207,0.054732177,-0.18376543,-0.06527445,-0.3305479,-0.41100836,0.5326905,-0.13408694,-0.0076992437,-0.41756162,0.052480597,-0.015478697,-0.10333442,-0.024397647,-0.072484896,0.1474129,-0.4972589,-0.20783088,-0.099276945,-0.1282848,-0.17325498,-0.18573037,0.0863327,-0.27334386,0.112229325,0.057513513,-0.39923382,0.32417893,-0.22338898,-0.16797492,0.23116696,0.6201618,-0.05945801,-0.5753586,-0.50384533,-0.33421966,0.15176967,-0.142349,0.2925046,-0.17598559,0.112690486,-0.045104854,0.195952,0.27028468,-0.563671,-0.036108524,-0.094420284,0.121890694,-0.10027103,-0.03705875,-0.22291669,-0.17337297,-0.0575542,0.31690022,0.017606132,0.07847012,-0.2135616,0.2507708,-0.15562232,0.20453902,0.14616357,0.109006315,0.29247996,0.18578035,-0.22020325,0.5228158,0.32060748,-0.20555305,0.20907685,0.083587274,0.14946902,-0.033778757,0.099318795,0.16417956,-0.20609522,0.09230226,0.15958881,-0.1433769,0.10426049,0.0075710565,0.054991532,-0.07784573,0.1551849,0.3142839,-0.44001788,0.511579,0.02797364,-0.32663563,-0.15748048,-0.430799,-0.09411696,-0.07724726,0.21347886,0.21607506,0.10891603,0.1341172,0.13929707,-0.067434825,0.23258515,0.861668,-0.0042966846,0.03254096,-0.1751776,0.19707526,-0.030278709,-0.19792578,-0.06889104,0.04832229,-0.02981683,0.1066593,-0.20928514,0.29798853,-0.3153596,-0.27484083,-0.18282364,0.27375937,-0.103751875,-0.50166005,0.38795495,-0.04175906,0.097956166,-0.27403086,-0.050571404,0.09601554,-0.055633046,0.44259274,0.18968746,0.054990146,-0.13174875,-0.12288013,-0.22700754,0.07410741,-0.32376367,0.07499589,-0.17001852,-0.110021934,0.43878847,0.3294779,-0.5534018,0.2920075,-0.08776408,-0.009546584,-0.21453902,0.2846698,-0.26980525,0.23605329,-0.0823084,0.014070911,0.5934043,0.055681758,0.08083177,0.03495776,0.23222011,-0.051349774,0.115933344,0.079873666,-0.53733283,0.43842244,-0.14843428,-0.17493281,0.16039343,-0.22244285,0.30239177,-0.321184,-0.028323703,-0.31931335,-0.11591397,-0.38036606,-0.008606706,0.13957149,0.26315582,-0.20801333,-0.002260683,0.09814972,-0.53004134,-0.15175068,0.4154024,0.1538248,0.16829686,0.22472778,-0.17388718,-0.4092016,0.14330573,-0.40444154,-0.1090901,0.22830093,-0.26404318,0.10195167,-0.10098225,0.22129557,-0.08709093,0.19390804,-0.2083557,-0.09037002,0.18267773,0.032848552,0.10811009,0.18533307,-0.45023847,0.49399355,-0.32025462,0.4896242,0.046421725,-0.9385786,0.28821957,0.32120708,0.010344519,-0.34881064,0.49780038,-0.3785733,0.011926734,0.056787923,-0.19572593,-0.20303366,0.23464315,-0.29024497,-0.2917971,0.44897974,0.3466344,0.22015399,0.15134096,0.010838615,-0.15728402,0.11057791,-0.035933703,-0.18546566,-0.5876641,0.03998499,-0.019250892,-0.46662217,0.13412206,-0.47429544,-0.15486367,-0.407296,-0.1380653,-0.09532146,0.27079567,0.34780765,0.13425602,0.0028820895,-0.12565355,-0.85942566,0.012453064,0.20149851,0.21498293,0.27501354,0.17754528,-0.08344487,-0.027031187,0.40722752,-0.40180802,-0.06638283,0.26071426,0.13310042,-0.025760915,-0.2684598,0.1653654,0.3450402,0.04278369,0.14309666,0.012979746,-0.113140844,0.3335752,-0.1021935,-0.37519857,-0.2691425,-0.21005827,0.11053511,-0.44163042,-0.12050608,0.4151725,0.07861402,0.18487477,0.27459097,0.25207478,-0.14489433,-0.20658976,-0.31815642,0.19761461,0.14651853,0.0017161518,-0.038544532,-0.0016914615,-0.75759286,-3.5501142,-0.09363064,0.059720226,-0.36595577,0.40396506,-0.17052872,0.26598507,0.06863214,-0.39377868,0.27483782,-0.10094453,-0.107446656,0.2677764,0.19468683,0.27576277,0.05169028,-0.010553589,-0.37766683,0.028488154,0.36849114,-0.12116774,-0.7843129,0.22935092,0.09552154,0.22582659,0.4523768,-0.5088333,-0.1464176,-0.43590173,-0.13627334,0.10080883,-0.06010415,-0.33391315,0.3613779,0.13829058,-0.09707176,0.05302538,-0.4087023,-0.09776993,-0.56651986,0.1735955,-0.760319,-0.12146182,-0.0913831,0.5066114,-0.07556883,0.22293648,-0.11878939,0.18523172,0.23096299,0.10764778,-0.03632794,-0.09919475,-0.032625407,-0.030209728,-0.10491421,0.58187044,0.42402017,-0.33359236,-0.21181639,-0.010192115,-0.33891845,-0.48120728,-0.112242416,-0.093374655,-0.01488211,-0.63578486,-0.24868098,-0.1201542,-0.08496176,-0.01682791,0.70152605,-0.31808183,-0.37113637,-0.08992994,-0.48872477,0.12928638,-0.14955181,-0.08996792,-0.2865169,-0.21638447,-0.3740216,0.2678268,0.064844914,-0.14245453,-0.10244626,-0.01656871,-0.12090612,-0.3900169,-0.46348545,0.42349172,0.1841313,0.21720661,0.11089057,0.3087231,0.15255854,0.48431888,-0.20439586,0.2745093,-0.5555544,0.067375794,0.26073205,0.7518995,-0.4075114,0.023874672,-0.12123874,-0.2862633,-0.1331505,0.3158767,-0.1265908,0.047386725,-0.4042418,0.21711394,-0.3867936,-0.19177821,0.04368898,0.19259071,0.7738625,-0.017484441,-0.31233954,-0.09887704,0.19436279,-0.113321126,-0.08896572,-0.15583397,0.008881949,-0.23590487,0.3626656,0.10981825,-0.005810202,-0.05958485,-0.041626886,-0.16100454,0.37184358,0.17356667,0.19170329,-0.013912128,-0.45346826,-0.1809131,0.25523335,0.027732285,0.18196535,0.015449903,-0.18812591,-0.025936112,0.24349193,-0.16704792,0.26701182,-0.2439672,0.16602331,-0.5210398,-0.35177118,-0.22036636,-0.30938393,0.067840785,0.49445665,0.21537867,-0.054815877,-0.026947508,-0.38092417,0.15907745,-0.056384727,0.1534616,-0.015815228,-0.25983253,0.51861835,-0.123978615,-0.2016105,-0.0027918406,0.011863202,-0.2456017,-0.28737876,0.15591908,-0.24569884,0.04422517,0.5009671,0.22091284,-0.09104523,-0.03464245,0.18638927,-0.0057846345,-0.3835733,-0.27997187,-0.121903285,0.27961385,-0.07572226,0.36205196,-0.56596494,-0.029231165,-0.06216981,0.091699265,0.26532966,-0.14194377,0.073923044,-0.10938092,-0.004662584,0.48443347,0.2273849,-0.026538737,0.27729386,0.13050835,-0.39197707,-0.581761,-0.07515414,-0.07225758,-0.18327197,0.071621336,0.2590052,-0.01823873,-0.0010500383,-0.388658,0.12498133,-0.2141282,0.02742366,-0.051042274,-0.6115205,-0.22370434,-0.055296436,-0.45785463,0.13712184,0.06744109,-0.07406942,0.03048088,-0.042446304,-0.18422799,-0.16217057,0.25597435,0.0049880594,-0.2138477,-0.0037028622,0.013979667,-0.9555333,0.095465764,-0.0093190195,-0.10200071,0.09227714,-0.03614272,-0.8125377,0.22412486,-0.3356346,-0.11705603,0.011299547,-0.2534323,-0.152355,0.17724827,0.009445522,-0.20696405,0.1255345,-0.035430335,0.67157173,0.10912645,0.14558455,0.23036048,-0.19322625,0.049664244,-0.40618858,-0.40486807,0.11322954,-0.1561791,0.014332591,-0.15281537,-0.1116259,-0.18808894,0.03896599,0.39525884,0.18466932,-0.15871078,-0.089768514,-0.010696965,-0.4759633,0.16990459,-0.1343146,0.030807331,-0.1330034,0.2488923,0.06904254,0.2056342,-0.32120845,0.5518867,-0.2950546,-0.20578893,-0.13618052,-0.07750207,0.12016436,0.4462846,-0.3826229,-0.21591975,0.2019014,-0.17896023,0.16343191,0.43906343,-0.10640122,-0.27101305,0.047143087,-0.48897278,0.2516668,0.74004936,0.38870323,0.06866154,0.180232,0.13318878,0.22395226,0.2587022,-0.007058941,-0.37213278,0.29911798,0.10266954,-0.7090209,-0.30363405,0.023528665,-0.09704526,-0.5216933,0.7057476,0.2637688,-0.3614846,-0.43063122,-0.28020597,0.027995005,0.13965613,-0.06372467,0.13581344,0.013612593,0.61837864,-0.035365973,0.15153883,0.49437356,-0.029461257,-0.19857848,-0.00451703,0.14262089,0.12021208,0.3485055,-0.16664383,0.13790049,0.005714981,0.20997667,-0.16952923,-0.12149446,0.0309111,0.042543817,-0.23190314,0.1501559,0.65722704,0.51315093,0.42583007,0.3353098,0.38500017,-0.10644828,0.68368775,0.38401353,0.10207154,0.048831623,0.029109696,0.10125823,0.16243084,-0.070500255,0.3448723,0.28799045,0.02220413,0.5710569,0.09857264,0.15479156,0.5762025,-0.6290403,-0.33560273,-0.19824624,0.561893,-0.5394269,0.025208788,0.21235338,-0.12764859,0.21364537,-0.585904,-0.2033548,-0.053522807,-0.046697192,0.08532952,-0.19361173,-0.13325483,0.11763625,0.015324554,-0.20601837,-0.46582985,-0.4749263,-0.24388644,0.1810504,-0.0052304296,-0.08976777,0.050595537,-0.17052478,0.0066144923,-0.07949462,0.094912544,-0.27366185,-0.085438214,-0.011219256,0.35551167,0.08714721,0.7357839,-0.2740091,0.113727726,-0.12916985,-0.14325386,-0.04879269,0.24720773,0.05879547,0.119739294,0.44260162,-0.3765685,-0.16387825,-0.10093364,0.4057864,-0.34074503,-0.03320968,0.11910725,-0.0053788666,0.1518161,0.051755965,-0.25981766,-0.20925635,-0.09011865,-0.32843173,0.14573315,0.23562405,-0.40207404,-0.083933264,0.21608686,0.13409251,-0.020460108,0.04805042,-0.10755326,0.04817721,-0.017020755,0.08100397,0.0572849,-0.3150801,-0.34026402,0.31381962,-0.051512696,0.18172242,0.13134137,0.23273541,-0.07217233,0.3155882,0.41131544,-0.13592121,-0.22580653,-0.39524677,-0.12724634,-0.25099048,-0.18213475,-0.21701342,0.18247464,-0.24221593,-0.035726707,-0.30702546,-0.21514335,-0.12171361,-0.05096116,-0.060341198
15100547.pdf,-0.5035912,0.1140338,0.4223168,-0.08812754,0.646621,0.10966724,0.073802635,0.124863505,-0.05020491,-0.27706426,0.15815446,-0.27002838,0.12790847,0.09057618,0.12920858,0.38061717,0.40115702,-0.055409655,-0.3462121,0.3040095,0.30367288,-0.3104658,0.052591346,0.72231835,0.33828783,0.19606961,-0.25736722,0.0029875971,-0.30009562,-0.15708923,0.53826815,3.3713877e-07,-0.10866839,-0.24024849,-0.016028907,-0.013232451,-0.13692054,0.0030214526,-0.17868228,0.29335105,-0.25898722,-0.038339388,-0.20958394,-0.015551826,-0.18966302,-0.18101814,0.07938123,-0.11299804,0.14757247,0.109991014,-0.32147002,0.20866208,-0.37329394,-0.31123775,0.15949315,0.76322985,-0.07044501,-0.6090533,-0.36525774,-0.40252414,0.25639826,-0.1037226,0.37331912,-0.33135387,0.072068006,0.18491438,0.18620548,0.48341164,-0.6633135,-0.015971484,-0.16624434,0.12472968,-0.08678725,-0.014913992,-0.2101528,-0.09173393,0.11007147,0.3688076,-0.002541665,0.055824213,-0.1941993,0.18054387,-0.37095547,0.302373,0.17068678,0.11112861,0.2677108,0.14223069,-0.25707385,0.7336174,0.16805792,-0.18526113,0.20772862,0.41963714,0.09997909,-0.0423963,0.32569706,0.07644977,-0.14285393,0.048989043,0.108623825,-0.027332589,0.100793004,0.16159187,0.090323426,0.11583562,0.09068743,0.2516392,-0.60334516,0.3220842,0.101874046,-0.2646272,-0.28970462,-0.3421259,-0.1601305,0.063113295,0.14682755,0.110774755,0.10659794,0.026729967,0.12061868,-0.25752023,0.22351347,0.92719185,0.14076352,-0.032208595,-0.1503179,0.18116191,-0.06164983,0.00049679354,-0.11667933,0.096774206,0.0013873987,0.07450482,-0.20093122,0.27291068,-0.23839101,-0.4514736,-0.23399003,0.18512852,-0.074040204,-0.57613003,0.50625557,-0.14301178,0.04399026,-0.36773962,0.13385329,0.01081169,-0.20704605,0.3703977,0.20488319,0.05339179,-0.013693513,-0.2156766,-0.08282605,0.053315267,-0.2559018,0.046303786,-0.033066932,-0.021097388,0.39172155,0.2332032,-0.39333284,0.2299611,0.0036173388,0.028916527,-0.2498284,0.17039329,-0.34506136,0.21913424,-0.042304337,0.13995346,0.6184344,-0.06896006,0.12272671,0.019251911,0.17916028,-0.07744488,0.15012924,0.06013477,-0.4901272,0.2691931,-0.07616073,-0.06798851,0.18245485,-0.3747716,0.11987078,-0.3826637,0.36326987,-0.1980941,-0.33751634,-0.35410464,-0.036550425,-0.05058111,0.1989761,-0.12838008,0.14321917,-0.037944853,-0.4756822,-0.22423819,0.37978095,0.2632792,0.17148295,0.15439701,-0.19440714,-0.3417338,0.23777503,-0.34045875,-0.2352621,0.20312661,-0.17751206,0.30650282,-0.20850608,0.11540438,-0.035092704,0.08436904,-0.0839981,-0.10474096,0.16043364,0.0068396535,0.1971257,0.22160736,-0.34780347,0.49765804,-0.47263736,0.40095356,-0.14787607,-0.83005,0.22555768,0.38454896,0.04045228,-0.44073454,0.55205256,-0.51595473,0.12295209,-0.15614587,-0.3379105,-0.069562584,0.3206392,-0.36378384,-0.2720766,0.5468612,0.28037438,0.16015905,0.15536413,-0.06504481,-0.08121298,-0.008490186,-0.09795713,-0.066185206,-0.60242176,-0.14455156,-0.08568769,-0.52358747,0.079180904,-0.5146613,-0.20760965,-0.36881346,-0.25246152,-0.27444947,0.25029814,0.16754112,0.040232558,-0.064443246,-0.19422966,-0.7256882,0.2416982,0.2831177,0.1587094,0.20804566,0.028371096,-0.10336157,0.2079429,0.42081684,-0.34178603,0.01948252,0.09413865,0.0026492253,0.088388376,-0.31757393,0.1631484,0.38768435,-0.26250702,0.13573149,0.080243744,-0.068620525,0.28549072,-0.068725996,-0.28733933,-0.1579439,-0.23574236,0.120016545,-0.44094935,-0.085320026,0.4706335,0.019277163,0.046735555,0.25636655,0.21066453,-0.08251258,-0.460064,-0.33412114,0.02474859,0.12282111,0.08663808,0.18115054,-0.09002365,-0.46434042,-3.532365,0.051962897,-0.14478424,-0.33194065,0.29002672,-0.23836368,0.31575504,-0.027117414,-0.2559362,0.20208228,-0.14076555,-0.11132805,0.2759547,0.33205286,0.20399192,0.03274638,0.1011471,-0.20720704,-0.025226094,0.2700968,-0.06987138,-0.84878784,0.14125207,-0.04988071,0.37243634,0.46105343,-0.62621033,-0.014319756,-0.30838153,-0.2652412,0.24334675,-0.1036139,-0.19828588,0.31623757,0.1791431,-0.057402834,0.019449145,-0.4108641,-0.26338682,-0.42080852,0.12992136,-0.8238323,-0.34543777,0.06646,0.68993926,-0.18354571,0.15930845,-0.081107296,0.19352658,0.083252475,0.2139651,-0.07972154,-0.17472641,0.00038822275,-0.06555672,-0.06012969,0.46398073,0.17809519,-0.367287,-0.11164603,0.07403597,-0.4077323,-0.40701306,0.0063559227,-0.2646312,-0.17250545,-0.6105341,-0.31105906,-0.15851153,-0.0040540174,0.06867722,0.7994174,-0.37894714,-0.4069211,-0.2511515,-0.30571526,0.2411797,-0.22255847,-0.09907846,-0.20444113,-0.13367899,-0.24079454,0.090813026,-0.09564335,-0.0797548,0.013722582,0.15285459,0.11554133,-0.49703038,-0.463017,0.25307435,0.088106304,0.17268896,0.18151203,0.31614816,0.0003232248,0.3164342,0.002299795,0.020173904,-0.29019552,0.12777838,0.11615974,0.781937,-0.3052013,0.051546503,-0.11290916,-0.2924375,-0.12397583,0.3114028,-0.121528074,0.1916568,-0.34052482,0.33253378,-0.21810351,-0.08381508,-0.105629005,0.20742454,0.6617718,-0.04659508,-0.2665285,0.06662431,0.19509067,-0.21890372,-0.06469543,-0.24250937,-0.049665198,-0.21788797,0.37370938,0.0053407336,0.16982758,-0.15608653,-0.17234531,-0.20237668,0.37321812,0.28241408,-0.00037040375,0.070106395,-0.5885433,-0.06496108,0.15610315,0.11870949,0.16009435,0.027161753,-0.18165886,0.15538827,0.25912026,-0.068563834,0.3655362,-0.34107393,0.37081164,-0.59663343,-0.34784454,-0.10683254,-0.2884742,0.01820837,0.40781492,-0.01331111,-0.15666892,0.088401034,-0.3594709,0.15222034,0.09677175,0.41573787,-0.11512287,-0.192317,0.4061275,-0.2288471,0.0012067985,-0.0985336,0.030162387,-0.25836897,-0.43552876,0.10217902,-0.53215694,-0.01683088,0.47486493,0.24852881,-0.17576322,-0.10937955,0.3328081,-0.06417277,-0.28580058,-0.26615345,0.1242819,0.43554872,-0.06367311,0.34044644,-0.45348603,-0.052986074,0.15581204,-0.106256574,0.14411108,-0.26704755,0.19956937,-0.15989392,-0.10864942,0.5420797,0.010558583,0.029598618,0.11071047,-0.0022012957,-0.31687874,-0.3724283,0.016481992,0.15824689,-0.27992797,-0.0753921,0.33418396,0.16563217,0.05037146,-0.34592205,0.13645685,-0.4365343,0.01843366,0.2380618,-0.61649716,-0.058437176,-0.15135768,-0.49606836,0.18846813,0.042464703,-0.11849668,0.2285242,-0.09733409,-0.18848649,-0.18708077,0.09706618,0.14175117,-0.2615037,-0.07751655,0.07417546,-1.0571721,0.15048549,-0.09132999,-0.13827832,-0.021432323,0.0032980293,-0.80556524,0.34925783,-0.27199507,-0.14056677,-0.1175026,-0.28895468,-0.24680266,0.20578116,-0.029476734,-0.048063554,0.43326676,0.00030201767,0.7662318,0.05895206,0.03488573,0.034230843,-0.099150196,0.0828374,-0.44297865,-0.40265763,-0.11560847,-0.27150053,0.08578607,-0.14837912,-0.10251134,-0.22230327,-0.12946346,0.36245131,0.0795779,-0.12228348,0.06072577,0.0844401,-0.5389389,0.0585974,-0.4316761,0.08674011,-0.29371676,0.040982652,0.22169918,0.16960138,-0.41717494,0.57449806,-0.23638552,-0.45065373,-0.14721717,-0.1503962,0.1049474,0.34220946,-0.3242675,-0.24357033,0.28399056,-0.22235012,-0.16674468,0.4531657,-0.09060517,-0.1636307,0.13139635,-0.50321305,0.0052287076,0.7575935,0.35737312,0.03814008,0.30125958,0.045502618,0.092155546,0.2907185,-0.23436151,-0.16859856,0.3141442,0.047344714,-0.50333714,0.03972037,-0.16049016,-0.049287885,-0.5790049,0.671482,0.1817876,-0.26983166,-0.31831414,-0.32786447,-0.22379583,0.2050668,-0.08429271,0.18533152,0.15837878,0.6698008,-0.052564766,0.37554935,0.4968563,-0.12785894,-0.2226843,-0.03126178,0.3329249,0.23056635,0.32319203,-0.3491472,0.07661099,0.053786468,0.24577841,-0.09201972,-0.13933423,0.059946023,0.008841792,-0.034763977,-0.008973569,0.48908988,0.54597807,0.29431295,0.2544918,0.32931986,0.0091597885,0.86110127,0.5611782,0.097280346,0.08395235,0.34168842,0.025320088,0.19247666,0.012426097,0.1514829,0.32525092,-0.19750631,0.5645426,0.21694675,0.19304702,0.6263664,-0.50745463,-0.34942994,-0.18299119,0.5711733,-0.35003778,-0.029163059,0.08030728,-0.007970756,-0.017325427,-0.48809987,-0.21768399,0.012283377,-0.15673018,0.16812801,-0.23114778,-0.106399626,0.2966445,-0.00079838187,-0.3880868,-0.41317928,-0.24314316,-0.106703386,0.10695909,-0.024448318,0.14991587,0.07191014,-0.26285866,-0.08756925,0.07316354,0.1539414,0.03664257,-0.11960627,0.18363321,0.422459,0.010909542,0.62881666,-0.06665095,0.10516315,-0.27590954,-0.11228065,0.108867645,0.18252681,0.09962071,0.067746475,0.39634478,-0.4490311,-0.12961265,-0.12449008,0.33923987,-0.37234545,-0.048052993,0.035945076,0.015627239,0.25099266,0.19178791,-0.016941335,-0.17927499,-0.10763675,-0.38297096,0.040488854,0.19440007,-0.4911924,-0.09321997,0.24428576,0.25515166,-0.015530709,0.07485943,-0.20357555,0.03932288,-0.15288909,0.17745093,0.21787064,-0.39719772,-0.4909876,0.26202622,-0.28317493,0.16891217,0.24075264,0.10387544,-0.005363345,-0.038050145,0.4651183,0.060156457,-0.23553589,-0.37020963,-0.05721846,-0.44337136,-0.10376709,-0.12726165,0.20675203,-0.29626453,-0.09956275,-0.336922,-0.18972331,-0.03303772,0.010977538,-0.20020577
15210069.pdf,-0.39557925,0.223444,0.4275895,0.0042748433,0.68702483,0.18430343,0.25750536,0.1364848,0.013734942,-0.29774112,-0.029627549,-0.27705535,0.019478828,0.036466114,-0.09640072,0.3485947,0.46277753,0.06771436,-0.1828726,0.35755327,0.009229522,-0.2701407,0.23640876,0.516768,0.2895047,0.1628978,-0.17039207,-0.08233811,-0.30249384,-0.28859702,0.5613011,0.0027613118,0.0774952,-0.31194,-0.07031435,-0.073033184,-0.12249932,0.0241449,-0.19317102,0.17097294,-0.33177352,-0.114481665,-0.18743226,-0.03884071,-0.21740435,-0.26265904,0.07479894,-0.074396245,0.15371671,-0.027905993,-0.39800137,0.42746505,-0.25948486,-0.1855555,0.22270763,0.6416986,0.026975758,-0.6170845,-0.32513443,-0.345193,0.23249072,-0.1800462,0.38894504,-0.1743914,0.10044831,0.0040643606,0.2318982,0.33047873,-0.5254762,-0.04042288,-0.219008,0.15611435,-0.10057846,-0.14875422,-0.16442272,-0.21029538,-0.0011078357,0.3755588,0.008317754,0.015643127,-0.2968488,0.32536882,-0.30194438,0.10088266,0.060625277,0.09718508,0.35054904,0.16582018,-0.40871876,0.6749775,0.23544611,-0.21401387,0.31417817,0.15151644,-0.05377884,0.11913493,0.1327452,0.10084452,-0.07180922,-0.018756226,0.12527585,-0.03947062,0.008383123,0.10132428,0.06519174,-0.007533037,0.030993339,0.26317328,-0.5477034,0.48252785,0.009268343,-0.32125616,-0.11629816,-0.401306,-0.16313848,0.062427375,0.087271795,0.074193224,0.05766888,0.21079358,0.12929493,-0.025889251,0.17722821,0.849532,0.013466872,0.027746534,-0.037719578,0.30035114,-0.15095145,-0.10985761,-0.094240665,0.14054015,-0.120885864,0.27252793,-0.22907105,0.23954648,-0.1606743,-0.2825026,-0.18908224,0.16272385,0.0014266032,-0.6278899,0.481252,-0.09532398,-0.008097531,-0.32592934,0.13952118,0.0658133,-0.08076243,0.5632187,0.236539,-0.0072365226,-0.07691489,-0.086299986,-0.058150247,0.15918007,-0.3148805,0.00349484,-0.14931907,-0.028771836,0.35727504,0.40925702,-0.57989526,0.24342805,-0.043183688,0.0070274137,-0.26208982,0.32354802,-0.10059653,0.12508987,-0.0052479915,0.123559915,0.63442886,0.03230065,0.09986904,0.013188515,0.22877899,-0.10921611,0.05232134,0.05218524,-0.59480464,0.4340394,-0.16547215,-0.09265689,0.213368,-0.17828369,0.29736918,-0.36460468,0.13759422,-0.36829168,-0.16403458,-0.3988402,-0.05053934,0.029995333,0.3421341,-0.19932507,0.07442947,-0.038608536,-0.4400497,-0.22563061,0.42665428,0.1772358,0.16889618,0.16580951,-0.07761723,-0.44071105,0.24139452,-0.39815795,-0.08427641,0.21196328,-0.25914937,0.16069053,-0.032463185,0.23563126,0.048804026,0.1711266,-0.24006274,-0.007831369,0.23489076,0.041549154,0.10213288,0.20482448,-0.39570904,0.61890626,-0.44688523,0.3899374,0.011884503,-0.9186232,0.22903787,0.32806706,0.14582303,-0.41609955,0.5080948,-0.45613042,0.04451906,0.0173908,-0.2746653,-0.12813312,0.20177644,-0.2587992,-0.41653386,0.58982915,0.2879783,0.06248086,0.1951052,-0.024609981,-0.01974867,0.008200165,-0.101271376,-0.22460037,-0.76924795,0.17061922,0.035344422,-0.41387045,0.10858156,-0.49316722,-0.13659386,-0.45372283,-0.21877524,-0.08998728,0.15305461,0.15595701,0.09535235,-0.058802307,-0.08691653,-0.8056267,0.22133775,0.34594053,0.21787328,0.15801385,0.14540075,-0.25037044,0.012366271,0.57789016,-0.26240683,-0.082569174,0.3112831,0.09001188,-0.02607644,-0.25890604,0.096323416,0.4080262,-0.15763552,0.012241598,0.070191,-0.25617874,0.262039,-0.14695689,-0.21665591,-0.25259915,-0.30831808,0.3108263,-0.5001369,-0.19391838,0.5383937,0.095082864,-0.043292455,0.38733843,0.24177898,-0.023016056,-0.33530077,-0.37953195,0.054537572,0.07490428,0.12943277,0.014052153,-0.0865094,-0.54243803,-3.585847,-0.12685618,0.03599221,-0.32713112,0.37945902,-0.16337967,0.33203864,0.060992252,-0.41577905,0.41119534,-0.1507143,-0.20294991,0.22488415,0.30665615,0.22528736,-0.07226339,0.10741629,-0.32822266,0.016865483,0.30878884,-0.17801473,-0.8689171,0.15191853,0.10826617,0.29395372,0.25788233,-0.49774247,-0.011013018,-0.325643,-0.16445792,0.19573583,-0.093823925,-0.2452832,0.30673254,0.24313825,-0.04504666,-0.06788343,-0.3033617,-0.056068666,-0.56995547,0.19093227,-0.77070785,-0.24713469,0.12725812,0.6520053,-0.03022679,0.16773209,-0.09643557,0.13857338,0.16184315,0.38481277,-0.033475265,-0.120677665,-0.023897538,-0.0087945415,-0.07831282,0.54106593,0.25920594,-0.4416349,-0.046729602,0.020280294,-0.30699396,-0.32425815,-0.16738066,-0.1983768,-0.1058688,-0.64046335,-0.301933,-0.19893804,-0.028111394,-0.08316448,0.8393723,-0.2224355,-0.25491354,-0.21600851,-0.42744604,0.27792192,-0.19174027,-0.1275422,-0.08565386,-0.06459057,-0.2901538,0.20994267,0.037142046,-0.10927083,0.013664566,0.2036353,0.039016724,-0.579086,-0.47255668,0.3743946,0.10517925,0.18674874,0.100895286,0.3813852,0.11202444,0.49030888,-0.14213924,-0.0075836387,-0.460884,0.08736515,0.093447424,0.6194825,-0.31817284,0.024217864,-0.14086151,-0.22267655,-0.17669907,0.26682788,-0.13265878,0.114094526,-0.4133918,0.26565424,-0.33235508,-0.20710099,-0.011325844,0.21099314,0.67954785,-0.057537567,-0.20216867,-0.0359396,0.19445795,-0.0713445,-0.17137486,-0.24040154,-0.062426638,-0.42383343,0.34430388,0.1870009,-0.028368158,-0.15272431,-0.057950035,-0.1894191,0.27683792,0.3002251,-0.02429348,0.06941089,-0.54884636,-0.08331398,0.079689495,-0.012404827,0.22921136,0.14319196,-0.14759845,0.15296681,0.24589156,-0.110617094,0.2869268,-0.14952272,0.107033715,-0.6665869,-0.40877926,-0.07974964,-0.1859085,-0.040203545,0.3847552,0.1311931,-0.18204993,-0.036774762,-0.4724586,0.21671219,-0.046881877,0.30101326,-0.032294504,-0.24375877,0.6327333,-0.2515409,-0.1676137,-0.03527897,0.11473218,-0.03843625,-0.34154376,0.23143098,-0.39992595,0.10647845,0.522707,0.21904597,-0.1864252,-0.07239014,0.22380573,-0.1689732,-0.27925804,-0.26528218,-0.057220347,0.3974657,0.08860768,0.22948015,-0.45644525,0.039572537,0.08784038,0.12837222,0.10316955,-0.056761775,0.057265073,0.07687689,-0.07083606,0.5395743,0.2788968,-0.09228293,0.15914886,0.109759875,-0.36131287,-0.51371825,-0.13824725,0.13903563,-0.18136257,-0.02084328,0.311701,-0.017131843,0.07479704,-0.42276502,0.091231965,-0.55932975,-0.12399933,0.07515632,-0.51297677,-0.07744444,-0.057254903,-0.5108259,0.095486626,0.0983849,-0.054791775,-0.014309,-0.08151327,-0.14245312,-0.23161882,0.26481077,-0.07052995,-0.19021852,-0.050536342,0.08366306,-0.9269264,0.12752368,-0.11583938,-0.07977632,0.02466127,-0.10221399,-0.7752533,0.37663066,-0.42551488,-0.2700796,0.013321943,-0.32568797,-0.23759761,0.16269171,0.10183048,-0.15748659,0.38694602,0.03962127,0.7676809,0.0329414,0.090092614,0.19286776,-0.085217796,-0.08509946,-0.5753386,-0.38156432,-0.0635735,-0.16202402,-0.07113958,-0.30082303,-0.18077889,-0.15261227,0.009197701,0.3540059,0.27501723,-0.08078082,-0.019419642,0.100045964,-0.5469376,0.28577065,-0.37035412,-0.0055266772,-0.1710824,0.10563056,0.048479635,0.2151056,-0.43583444,0.45425412,-0.16120963,-0.30684933,-0.21078336,0.01057538,0.16751008,0.40498132,-0.51631874,-0.20404756,0.17341103,-0.20063615,-0.06456524,0.44533902,-0.030861741,-0.21872206,0.014577009,-0.60337675,0.27540195,0.5651171,0.25069585,0.04946647,0.33748972,0.1348766,0.10404707,0.23639312,-0.13771072,-0.33148676,0.48482007,0.0077997157,-0.6010688,-0.17151287,-0.03810066,-0.10512771,-0.5018423,0.66055477,0.1741677,-0.51536816,-0.4667652,-0.4077047,-0.12716365,0.20353985,0.038680226,0.17070946,-0.025429418,0.60512936,0.001484979,0.2581696,0.48710376,-0.07317947,-0.075691424,0.025751265,0.22005853,0.19328132,0.18938977,-0.12908822,0.13899319,0.07558362,0.17020285,-0.25188968,-0.27924633,-0.08185787,0.011854485,-0.014654696,0.0599356,0.68342316,0.5030945,0.27877444,0.364588,0.35907453,-0.0557385,0.74976397,0.58668524,0.022664327,-0.045981765,0.15473817,0.077157676,0.20204882,-0.20506364,0.15201521,0.41892487,-0.23112594,0.51637995,0.19442175,0.29139197,0.5188852,-0.537117,-0.3011676,-0.0014666412,0.41429904,-0.4536231,0.07335679,0.20261492,-0.054748055,0.211961,-0.4633332,-0.20284523,-0.057780374,-0.055731043,0.15467837,-0.16611123,-0.19376129,0.117446706,0.05018376,-0.12288642,-0.3110435,-0.44424677,-0.19374672,0.19298121,-0.038487397,0.04811137,0.1717497,-0.3218022,0.0024185032,-0.078596786,0.18726993,-0.23609129,-0.15855192,0.06432651,0.35645217,0.059021242,0.8455826,-0.20529947,0.19950622,-0.25869107,-0.054280505,-0.11277625,0.19163671,0.055108104,0.03252528,0.48586732,-0.4970957,-0.18451165,-0.09755127,0.3936018,-0.22833982,-0.03208411,0.20030949,0.04474451,0.18289587,0.18074472,-0.32428065,-0.14024694,-0.064940155,-0.3453386,0.14198317,0.15116715,-0.3572087,-0.26050335,0.14373665,0.15159838,-9.185821e-05,0.0032162406,-0.30388808,-0.17213374,-0.061011367,0.10650914,0.076278225,-0.23002157,-0.32012558,0.36733222,-0.06732246,0.23236531,0.1279773,0.09534398,-0.030216608,0.25329542,0.3652224,-0.035590097,-0.20719019,-0.48968786,-0.22397614,-0.20740883,-0.04785368,-0.2533206,0.16361631,-0.19753264,-0.00645289,-0.36828312,-0.23852131,-0.17320102,-0.1322024,-0.1074184
15484011.pdf,-0.28943485,0.18477574,0.44970444,0.08012363,0.5630331,0.1958702,0.20010692,0.28516823,-0.022415705,-0.2627841,-0.010964509,-0.30881923,0.06737368,0.100467086,-0.018693581,0.5266961,0.3633722,0.1786878,-0.24726947,0.44980657,0.12050895,-0.33887923,0.20015623,0.5769135,0.22055182,0.12069684,-0.1120792,-0.025303695,-0.26213175,-0.26235995,0.61849785,0.050188176,0.12979402,-0.2673319,-0.026413053,-0.09647246,-0.07507691,-0.07179516,-0.10564422,0.09640755,-0.4728399,-0.1571288,-0.1668235,-0.14497644,-0.10790651,-0.2428854,0.14417405,-0.11736938,0.14765213,-0.0077181496,-0.48980138,0.29049933,-0.14701606,-0.19946393,0.15708968,0.57367337,-0.027295185,-0.5116327,-0.35897914,-0.4490333,0.20464271,-0.08596093,0.28541678,-0.15998569,0.010536581,0.009130383,0.19266081,0.39572057,-0.5910138,-0.120867394,-0.24717107,0.17800096,-0.037446693,-0.2298421,-0.15227962,-0.01880302,0.045346543,0.33032402,0.027818106,0.06842468,-0.26824516,0.18608859,-0.20853052,0.29700977,0.11479455,0.12335904,0.32395273,0.06925128,-0.13329199,0.6174848,0.06525969,-0.18116763,0.3221156,0.063543245,0.09035729,-0.00906384,0.09422484,0.03838176,-0.110950015,0.043442853,0.12321477,-0.060906302,0.072920665,0.05807071,-0.064729154,-0.014242015,0.14991301,0.18477045,-0.40140063,0.43130672,0.080950916,-0.3097713,-0.23305288,-0.28889537,-0.031953182,0.03779848,0.1413844,0.20978928,0.0069791116,0.12796342,-0.047679268,-0.11861533,0.18761879,0.7175276,0.046717174,0.1143601,-0.14907001,0.073913425,-0.23110339,-0.09941518,0.034885123,0.091667086,-0.077652164,0.087279335,-0.25497648,0.30332276,-0.2896311,-0.3187936,-0.15134926,0.16737792,0.012932703,-0.50443363,0.38765556,-0.11881398,0.04928204,-0.35805848,0.10297035,0.09563023,-0.22515923,0.47712344,0.26021546,0.0025788601,0.01656124,-0.26785707,0.041860756,0.1330426,-0.3225326,0.07997261,-0.1832629,-0.09799212,0.39028424,0.43233195,-0.5086688,0.2796291,-0.0088365255,0.16241059,-0.2569632,0.33310506,-0.18755393,0.17608768,0.06090264,0.1002614,0.61745965,-0.0009409543,0.056734238,0.07157966,0.11977653,-0.046307165,0.04951662,0.053346287,-0.4785201,0.42508692,-0.19893512,-0.02568014,0.18187934,-0.29865432,0.36745742,-0.36867502,0.0078054126,-0.2524295,-0.18221532,-0.30998838,0.00952048,0.02884854,0.27738404,-0.12225176,0.103417225,0.13862857,-0.4731921,-0.24667248,0.28207254,0.2208476,0.2444674,0.22961731,-0.1363931,-0.41842917,0.17900532,-0.35758555,-0.17770569,0.15161541,-0.31465214,0.12570189,-0.10290034,0.36307597,-0.09509573,0.09121588,-0.113626376,-0.009540338,0.12566774,-0.0635084,-0.029416133,0.17281023,-0.45271417,0.4725858,-0.4096166,0.48313293,-0.040352814,-0.8935232,0.19713199,0.40414786,0.07047451,-0.34344947,0.46251017,-0.32832175,0.03494127,-0.01918073,-0.19677296,-0.111415714,0.25101283,-0.43501252,-0.38023627,0.5347638,0.27912122,0.20084134,0.09164695,0.048234962,-0.037461698,0.23553777,-0.11327432,-0.0720924,-0.65457743,0.022094572,-0.07003248,-0.28992426,0.20030275,-0.46712515,-0.15871888,-0.4095592,-0.14024106,0.008370884,0.2861715,0.20482877,0.11462664,-0.061329264,-0.16941795,-0.85593534,0.18165408,0.39905483,0.15515503,0.20738757,-0.04059018,-0.21449617,-0.121156916,0.44177476,-0.41508472,-0.11365536,0.2929659,-0.0033165403,0.09171117,-0.20665236,-0.013913497,0.3306918,-0.12108666,-0.0017844616,0.00046554208,-0.24491006,0.27110377,0.04979056,-0.35112983,-0.19986671,-0.18651101,0.22177732,-0.45686907,-0.20383579,0.4655323,0.12847254,0.027581692,0.25296453,0.27242494,-0.03964527,-0.3107178,-0.3365386,0.17096509,0.044283573,0.06055889,0.06310431,-0.07297258,-0.65487146,-3.5084772,-0.077405885,0.11282125,-0.234467,0.33887982,-0.13978113,0.24518566,-0.022920959,-0.40195748,0.35811377,-0.13524958,-0.08057293,0.1532302,0.33246985,0.30026016,-0.086834684,0.047832213,-0.3702479,0.06488876,0.31655696,-0.19690397,-0.73084927,0.143441,0.039256163,0.23767881,0.421058,-0.38189197,-0.15675469,-0.36748493,-0.16800667,0.21866128,-0.063597634,-0.32253653,0.42114452,0.2543845,-0.028939433,-0.08781648,-0.36086166,-0.17330271,-0.4562714,0.2045926,-0.7944821,-0.26056346,-0.07147805,0.7054904,0.041593898,0.25078517,-0.18617801,0.1843504,0.14532477,0.32918087,-0.07337458,-0.184677,0.03641563,0.009346799,0.014024712,0.5612062,0.15943383,-0.43678385,-0.24037492,-0.036600657,-0.27695203,-0.46051934,-0.06276154,-0.21535274,-0.12632515,-0.6545888,-0.23652035,-0.21342736,-0.05780751,-0.06259591,0.6455062,-0.2995705,-0.29354644,-0.21136679,-0.4183315,0.21926129,-0.2199846,-0.09046304,-0.16340216,-0.26303375,-0.28597838,0.13125291,0.06098379,-0.06886387,-0.071088865,0.048812225,-0.037326932,-0.48108435,-0.45188248,0.35314745,0.2080748,0.031297855,0.10276678,0.22570838,0.14163207,0.35483646,-0.01773606,0.1021065,-0.3768246,0.0040804893,0.18531942,0.736464,-0.31014645,-0.009431619,-0.033506613,-0.25573644,-0.21299906,0.2357803,-0.1885694,0.1148583,-0.39973903,0.21455987,-0.23493463,-0.17480397,-0.08097559,0.1400529,0.77155256,-0.083026886,-0.24268526,-0.082378015,0.20543547,-0.25010097,-0.115128994,-0.19488046,-0.056111373,-0.2782163,0.23745267,0.12713571,0.06882851,-0.037234567,-0.13607825,-0.088208914,0.29264775,0.28644606,0.022975609,-0.03535062,-0.5738462,-0.23528904,0.17851299,-0.00012819283,0.29769132,0.13562766,-0.1365677,0.20671654,0.23019296,-0.025814753,0.26350617,-0.21602231,0.16687459,-0.5791667,-0.30490232,-0.16215128,-0.2551598,0.16633329,0.44454205,0.13285328,0.0025985558,0.040155903,-0.413795,0.17521665,0.029984433,0.2996961,-0.027490012,-0.28649515,0.52687216,-0.28561231,-0.057566617,0.047902107,-0.054494426,-0.09533992,-0.24520281,0.09936924,-0.28391075,0.06854747,0.4500667,0.3040014,-0.22563827,-0.14115387,0.19537199,-0.17579888,-0.4246671,-0.19123763,-0.24445808,0.3526339,0.046698056,0.24883132,-0.42444026,0.04580275,0.0940775,0.04286599,0.12550074,-0.17359754,0.046558067,-0.16601866,-0.03596501,0.43437588,0.27145314,0.025098989,0.2506193,-0.052600294,-0.3981074,-0.6667499,-0.04455641,-0.0009619668,-0.17251132,0.06877975,0.33166066,-0.19354632,0.0874325,-0.41853806,0.1248389,-0.41866136,0.006058556,0.12929189,-0.6717921,-0.21829394,-0.12875502,-0.3740545,0.14119518,0.09196845,-0.032538686,-0.04834117,-0.09167776,-0.06840527,-0.2402803,0.24907792,-0.07939063,-0.22545095,-0.0014614929,0.1359674,-1.0039191,0.11232645,-0.015469428,-0.1818546,-0.038174696,-0.098264806,-0.72929204,0.37352684,-0.27876794,-0.058969565,-0.14897612,-0.35164142,-0.11432358,0.25337777,0.039429292,-0.19846049,0.19747657,0.04562045,0.7226826,0.0770015,0.02036021,0.12872705,-0.13160981,-0.056400023,-0.47310382,-0.36266774,0.0041294256,-0.05828437,0.15378726,-0.19403727,-0.11182065,-0.16388895,0.09082447,0.40058726,0.262818,-0.09337081,-0.041309763,-0.037544385,-0.5410315,0.25735092,-0.24050467,0.0043726563,-0.19643745,0.15884301,0.118360326,0.18624479,-0.43688494,0.52889514,-0.40553856,-0.3085479,-0.15340643,-0.07192192,0.1968552,0.30939054,-0.4739645,-0.19593912,0.25582072,-0.15820259,0.025315698,0.46955085,-0.014492977,-0.23882228,0.037015468,-0.49265468,0.24803087,0.59781724,0.38334638,-0.006501965,0.19427562,0.094962746,0.02945067,0.28505304,0.043639466,-0.25132585,0.3176933,0.07766636,-0.6553949,-0.1718159,-0.012098514,-0.10529639,-0.5186067,0.64565265,0.15933165,-0.45227262,-0.38453716,-0.2449746,-0.06281901,0.29731905,0.0134529825,0.24896911,0.1561103,0.64410496,-0.06529907,0.16832367,0.42640746,0.053095024,-0.19591166,0.01169101,0.2277778,0.081442066,0.28944364,-0.108666636,0.10083751,0.20727149,0.10146728,-0.2446078,-0.2325227,-0.18209207,0.11589733,-0.118599,0.021991055,0.6090143,0.5011427,0.38882673,0.448079,0.39543638,0.045658357,0.73234946,0.45986083,0.060095288,-0.027172405,0.14558472,0.116219625,0.12750342,-0.08903299,0.38490278,0.3369066,-0.2710605,0.48860574,0.034101993,0.21833965,0.4441347,-0.50103426,-0.33626598,-0.07770814,0.49821818,-0.23210283,-0.0030192994,0.30004507,0.080630526,0.21017487,-0.50048524,-0.24519207,-0.05957393,-0.08515631,0.228621,-0.23169765,-0.095908426,0.21765555,0.08940545,-0.19701415,-0.3492082,-0.38103145,-0.16644402,0.18686344,-0.026133046,0.09033389,0.08028054,-0.284766,-0.004042983,-0.07997662,0.24268858,-0.21510845,-0.25000265,0.10978026,0.32852787,0.08969967,0.62380636,-0.2747744,0.1277667,-0.24324013,-0.10268174,-0.05122814,0.22860534,0.041341003,0.039150335,0.3364219,-0.43306202,-0.0964281,-0.12637821,0.39715588,-0.27489543,-0.10613692,0.031521294,-0.053385258,0.2704912,0.01647744,-0.3013357,-0.20681098,-0.057814606,-0.23584284,0.2059823,0.24106193,-0.36167657,-0.030406386,0.2655893,0.13342285,-0.012655774,0.020655096,-0.16482487,-0.11515821,-0.14481512,0.086736515,-0.0103302635,-0.2675182,-0.3494652,0.24150792,-0.047794975,0.10594885,0.09836195,0.096037656,0.03206916,0.073684715,0.42776376,-0.004411595,-0.22924182,-0.26666573,-0.33070213,-0.41388786,-0.15184575,-0.179551,0.13083728,-0.18776149,0.09080024,-0.3367678,-0.33999717,-0.032233506,-0.077361226,-0.101959884
15790602.pdf,-0.37949368,0.1338478,0.32283145,0.01129465,0.5620078,-0.056963697,-0.014176491,0.1358892,0.05970189,-0.20686993,-0.010537601,-0.27836466,0.13475889,0.063022256,0.18680884,0.45775616,0.0798652,-0.06718229,-0.12764841,0.30655056,0.009371126,-0.21004313,0.048083458,0.7555975,0.35754997,0.14914067,-0.13134052,-0.23941916,-0.31818223,-0.21659508,0.5711709,-0.022150474,-0.020692902,-0.36073726,0.08773062,-0.041628268,-0.168284,-0.14701205,-0.11200486,0.17142858,-0.5412438,-0.18598396,-0.06556696,0.015620245,-0.14150581,-0.18944208,0.06618038,-0.012990246,0.10278584,-0.044216875,-0.44162342,0.3532104,-0.25888234,-0.26983663,0.26773,0.7777735,0.14938109,-0.58253545,-0.40009576,-0.37200293,0.001651926,0.110692695,0.3618039,-0.18828332,0.12723374,-0.095788404,0.09981696,0.6066873,-0.74173546,-0.2701556,-0.21018928,0.21483406,-0.17722803,-0.10557654,-0.24398671,-0.1239527,0.021753397,0.4513185,0.096782945,-0.034126166,-0.338287,0.36981416,-0.24261566,0.40959918,0.14017409,0.15596035,0.44238558,0.13015574,-0.37000123,0.7205254,0.1657482,-0.33391547,0.45710337,0.10123837,0.16153213,-0.12821423,0.22179541,0.15578644,-0.09690185,-0.053715333,0.16728362,-0.03592479,0.027329959,-0.04494789,-0.043564603,-0.0039060842,0.071935594,0.15902337,-0.3627775,0.40573227,0.21982192,-0.2295819,-0.31558776,-0.51383656,0.042149477,-0.035945527,-0.015614921,0.2086379,0.13185301,0.012426022,0.20586064,-0.009824006,0.17886277,0.8434533,0.08783729,0.055091552,0.054164395,0.12726477,-0.08147946,-0.18410763,0.03502301,0.021305941,-0.18447591,-0.011391884,-0.18329862,0.3448835,-0.23106351,-0.15412486,-0.021616103,0.22352654,-0.17005178,-0.5128768,0.47094813,-0.16759846,0.1438476,-0.19087657,0.08325448,-0.14743853,-0.3084047,0.24107662,0.36817858,-0.012354968,-0.041629426,-0.16953364,0.0032251328,0.12073228,-0.13060051,0.084840186,-0.1530644,-0.09638717,0.3828721,0.33904195,-0.4933945,0.3071064,-0.25838464,0.09873497,-0.36789006,0.24541679,-0.2020772,0.0153905675,0.030122597,-0.05020366,0.5978063,0.10258669,0.31102046,-0.03190104,0.13600951,-0.1853295,-0.01119857,0.24903834,-0.61132145,0.26622996,-0.07442912,-0.16396466,0.26917985,-0.19973743,0.4803845,-0.276367,0.062079344,-0.22072643,-0.2778927,-0.45641798,-0.3110752,0.04994204,0.34348118,-0.28793308,0.029728696,0.08573457,-0.242245,-0.20998722,0.25112364,0.29407477,0.19551647,0.119902,-0.18956229,-0.53666836,0.10874933,-0.4746132,-0.27206123,0.1629076,-0.4378509,0.012323789,-0.10175809,0.15828791,0.102976784,0.010975741,-0.27815253,0.032028943,0.06946272,0.06765342,0.1712279,0.19549236,-0.48537394,0.44061327,-0.37709758,0.6080486,0.024349045,-0.9168087,0.33020663,0.44995135,0.09326638,-0.33976936,0.39172894,-0.5348112,0.234606,-0.002711798,-0.37107497,-0.1271946,0.28125784,-0.29121426,-0.11518386,0.6119789,0.31145427,0.11114558,0.16097876,-0.018553112,-0.03544209,-0.08299175,0.07751177,-0.17638677,-0.5640644,0.031386014,-0.11901515,-0.41331774,0.06569083,-0.3671167,-0.14472567,-0.5589585,-0.16895196,-0.0631363,0.47166786,0.18086836,0.04322496,0.019554637,0.059126694,-0.6799199,0.102937765,0.16680461,0.2408446,0.22145426,0.030110462,-0.05830015,0.010308217,0.3883357,-0.46313357,-0.21036391,0.31962106,-0.0046790913,0.0060283393,-0.35665604,0.01142891,0.16283235,-0.30099255,-0.08125284,-0.04485991,-0.08149798,0.23482081,0.048474517,-0.19906044,-0.1423383,-0.010338299,0.21961689,-0.5552825,-0.047329046,0.42994964,0.12613313,-0.007532954,0.31715477,0.08231854,0.06737523,-0.3232121,-0.37513444,0.28042912,0.07078503,0.23822954,0.006714642,-0.027052265,-0.6236621,-3.1433687,-0.0975418,0.03790283,-0.28695878,0.27948916,-0.10001015,0.17542301,-0.03137103,-0.366926,0.0956465,-0.34168312,-0.20204118,0.031667296,0.14802435,0.1922496,0.09014729,0.005115606,-0.20966683,-0.032290615,0.34247556,-0.16472216,-0.943653,0.14656189,0.045401298,0.2194652,0.23996165,-0.5339725,0.0114899,-0.2992093,-0.18852392,0.30178306,-0.19935794,-0.15345094,0.35202146,0.09386989,-0.20335384,0.00618645,-0.38174635,-0.2062825,-0.6524268,0.25353283,-0.5839434,-0.030009942,-0.05018627,0.73307896,-0.15679933,0.25151995,0.011164455,0.035700966,0.14307028,0.27726054,0.11150709,-0.27357304,-0.050045345,-0.112406164,-0.27944338,0.41814673,0.07993331,-0.33880883,0.0022196304,0.16770442,-0.28043476,-0.2985051,-0.03393384,-0.17581937,-0.17384169,-0.6420389,-0.30813158,-0.19933316,-0.07147386,-0.13095847,0.8484113,-0.3529491,-0.28451338,-0.19393396,-0.44602457,0.40479857,-0.2889248,-0.07551151,-0.18817993,-0.16909549,-0.33268863,0.16685046,0.035412427,-0.35289228,-0.071598604,0.043727748,-0.042619288,-0.41866678,-0.6248088,0.2807055,0.15949994,0.19685107,0.013201558,0.35857314,-0.14420184,0.3566863,0.05320502,0.0133203715,-0.33199582,0.09888336,0.14409092,0.6443982,-0.26293546,0.0068088644,-0.03284322,-0.23053296,-0.27543792,0.28685206,-0.08692177,0.038001098,-0.16382806,0.11960858,-0.5135381,-0.17233752,0.13966104,0.18269964,0.72048384,-0.10256348,-0.24488331,-0.012672385,0.32532257,0.070989944,-0.07104346,-0.112668596,-0.019085653,-0.34340823,0.22246568,0.2076331,-0.0691787,-0.24663523,-0.1631512,-0.2346587,0.15605508,0.3068031,0.13826793,-0.14036712,-0.371338,-0.079511836,0.30330175,-0.011070766,0.43386716,0.30171546,-0.22167301,0.005508147,0.2696721,-0.16084902,0.508677,-0.28528592,0.069046006,-0.80826235,-0.17716795,-0.17342617,-0.36640483,-0.009457633,0.34912384,0.29347384,-0.111007586,-0.07354212,-0.45991915,0.17385066,-0.12431719,0.24091458,0.049210157,-0.06063701,0.74525154,-0.057236753,-0.20375067,-0.039924998,-0.18234032,-0.20684057,-0.34463176,0.11079083,-0.505763,-0.14772697,0.50755584,0.21651407,-0.3180729,-0.11266031,0.4227813,0.037371494,-0.17934847,-0.30563223,0.02391641,0.3272153,0.07136115,0.09017034,-0.4985764,0.055605635,0.13178983,0.125684,0.35693663,0.004928114,0.07036577,-0.15797606,-0.16375205,0.51157326,0.13429329,-0.15454839,0.026247524,0.13757618,-0.41060975,-0.3895874,0.10130756,-0.041298144,-0.27878648,0.09898284,0.18838575,0.086982906,-0.058917083,-0.46077996,-0.07850967,-0.3879051,0.019812316,0.19754869,-0.4842531,-0.23116043,-0.163022,-0.48558193,0.07969118,0.16620225,-0.124575324,0.054098073,0.023228792,-0.111230284,0.12405017,0.08802092,0.0361064,-0.40995276,-0.17606136,0.17345479,-1.0197808,0.053856984,0.12542574,-0.028361917,0.06794184,-0.058735073,-0.83279765,0.40736127,-0.17507198,-0.24785617,-0.093341395,-0.26048812,-0.2825626,0.1685369,-0.09773478,-0.23409389,0.46525702,-0.10384886,0.5467585,-0.042785037,-0.08271998,0.15100506,-0.21633042,0.23363674,-0.21698359,-0.37581104,-0.10527113,-0.3223763,-0.22363545,-0.19463676,0.02219609,-0.28068995,-0.001082398,0.32810616,0.23184352,-0.12452033,-0.20343429,0.024485309,-0.5817765,0.33701825,-0.24659961,-0.002413014,-0.02575324,0.08891317,0.0926316,0.21458724,-0.42006546,0.5937608,-0.3151111,-0.4010445,-0.16950357,0.0012565702,0.22241056,0.4695827,-0.44308835,-0.25166136,0.23487636,-0.031487703,-0.002556406,0.44172668,-0.14608428,-0.19681357,0.09549259,-0.6759744,0.10738164,0.7870202,0.11414577,-0.052644588,0.36275086,0.23171312,0.1687417,0.4673862,-0.0875732,-0.324471,0.36469907,-0.039497823,-0.5473496,-0.086394526,-0.17575039,0.029202042,-0.56595194,0.66344595,0.21699132,-0.6653045,-0.19761164,-0.121362604,-0.089700416,0.2954758,-0.048860542,0.061664153,0.17250301,0.67333764,-0.12171505,0.46356314,0.4713469,-0.037116587,-0.18334284,0.05068913,0.15354198,0.15233779,0.31803527,-0.14285646,0.23800607,0.016857665,0.028645074,-0.18936762,-0.13717797,-0.053311277,0.031887285,-0.07714485,0.1545772,0.50868696,0.47004452,0.29698575,0.28006545,0.43715703,-0.19196305,0.6898493,0.5192572,0.23227704,0.014890894,0.057365797,0.09228225,0.3686775,0.036883052,0.29688668,0.41584486,0.12221376,0.5698093,0.09903456,0.40944082,0.6965889,-0.57988405,-0.41499403,-0.012142168,0.46244824,-0.4230898,0.07639341,0.20784163,0.08067347,0.2505439,-0.5791079,-0.32055974,-0.06696833,0.1005984,0.21869606,-0.2036921,-0.061465017,0.3408457,-0.017840473,-0.42085588,-0.2694801,-0.31001037,-0.23278601,0.055707723,-0.016471474,0.1769868,0.14261928,-0.21378356,0.015485799,-0.091845155,0.3757983,-0.04914213,-0.22758737,-0.054015346,0.4281755,0.1299465,0.62138915,-0.07046081,0.19838938,-0.31699115,-0.22171704,0.11134961,0.3250778,0.22318435,-0.015750833,0.2814459,-0.30566892,0.01802465,-0.16094556,0.22406833,-0.38300306,-0.028223196,0.036411043,-0.010988908,0.12649353,0.30088526,-0.22605953,-0.11267336,-0.11400577,-0.37462094,0.1577551,0.049441785,-0.37168476,-0.045431625,0.31062353,0.24683699,-0.014173295,6.911531e-05,-0.23526311,-0.04531773,-0.041275967,0.28779292,-0.016407588,-0.138546,-0.37419248,0.39921367,0.009553936,0.26770845,0.109146625,0.35583907,-0.12552685,0.03479266,0.30105847,-0.113128155,-0.124917254,-0.5394608,-0.13250801,-0.23845431,-0.14502104,-0.2210909,0.08696167,-0.24048567,0.04266951,-0.41672617,-0.29982203,-0.17602187,0.05994975,-0.04941025
