,0,1,2,3,4,5,6,7,8,9,10,11,12,13,14,15,16,17,18,19,20,21,22,23,24,25,26,27,28,29,30,31,32,33,34,35,36,37,38,39,40,41,42,43,44,45,46,47,48,49,50,51,52,53,54,55,56,57,58,59,60,61,62,63,64,65,66,67,68,69,70,71,72,73,74,75,76,77,78,79,80,81,82,83,84,85,86,87,88,89,90,91,92,93,94,95,96,97,98,99,100,101,102,103,104,105,106,107,108,109,110,111,112,113,114,115,116,117,118,119,120,121,122,123,124,125,126,127,128,129,130,131,132,133,134,135,136,137,138,139,140,141,142,143,144,145,146,147,148,149,150,151,152,153,154,155,156,157,158,159,160,161,162,163,164,165,166,167,168,169,170,171,172,173,174,175,176,177,178,179,180,181,182,183,184,185,186,187,188,189,190,191,192,193,194,195,196,197,198,199,200,201,202,203,204,205,206,207,208,209,210,211,212,213,214,215,216,217,218,219,220,221,222,223,224,225,226,227,228,229,230,231,232,233,234,235,236,237,238,239,240,241,242,243,244,245,246,247,248,249,250,251,252,253,254,255,256,257,258,259,260,261,262,263,264,265,266,267,268,269,270,271,272,273,274,275,276,277,278,279,280,281,282,283,284,285,286,287,288,289,290,291,292,293,294,295,296,297,298,299,300,301,302,303,304,305,306,307,308,309,310,311,312,313,314,315,316,317,318,319,320,321,322,323,324,325,326,327,328,329,330,331,332,333,334,335,336,337,338,339,340,341,342,343,344,345,346,347,348,349,350,351,352,353,354,355,356,357,358,359,360,361,362,363,364,365,366,367,368,369,370,371,372,373,374,375,376,377,378,379,380,381,382,383,384,385,386,387,388,389,390,391,392,393,394,395,396,397,398,399,400,401,402,403,404,405,406,407,408,409,410,411,412,413,414,415,416,417,418,419,420,421,422,423,424,425,426,427,428,429,430,431,432,433,434,435,436,437,438,439,440,441,442,443,444,445,446,447,448,449,450,451,452,453,454,455,456,457,458,459,460,461,462,463,464,465,466,467,468,469,470,471,472,473,474,475,476,477,478,479,480,481,482,483,484,485,486,487,488,489,490,491,492,493,494,495,496,497,498,499,500,501,502,503,504,505,506,507,508,509,510,511,512,513,514,515,516,517,518,519,520,521,522,523,524,525,526,527,528,529,530,531,532,533,534,535,536,537,538,539,540,541,542,543,544,545,546,547,548,549,550,551,552,553,554,555,556,557,558,559,560,561,562,563,564,565,566,567,568,569,570,571,572,573,574,575,576,577,578,579,580,581,582,583,584,585,586,587,588,589,590,591,592,593,594,595,596,597,598,599,600,601,602,603,604,605,606,607,608,609,610,611,612,613,614,615,616,617,618,619,620,621,622,623,624,625,626,627,628,629,630,631,632,633,634,635,636,637,638,639,640,641,642,643,644,645,646,647,648,649,650,651,652,653,654,655,656,657,658,659,660,661,662,663,664,665,666,667,668,669,670,671,672,673,674,675,676,677,678,679,680,681,682,683,684,685,686,687,688,689,690,691,692,693,694,695,696,697,698,699,700,701,702,703,704,705,706,707,708,709,710,711,712,713,714,715,716,717,718,719,720,721,722,723,724,725,726,727,728,729,730,731,732,733,734,735,736,737,738,739,740,741,742,743,744,745,746,747,748,749,750,751,752,753,754,755,756,757,758,759,760,761,762,763,764,765,766,767
10329506.pdf,-0.35848957,0.18441778,0.5027061,0.014479779,0.60768276,-0.1152399,0.06937493,0.38766378,-0.051691864,-0.2524096,0.004619088,-0.23246525,0.15457082,0.22415386,0.0377643,0.25679004,0.37591523,0.15886764,-0.10141385,0.22426534,-0.035271063,-0.278984,0.31204525,0.64011705,0.3427583,0.09703162,-0.117009275,-0.04085659,-0.28941488,-0.26904923,0.59862924,-0.07300174,0.009726007,-0.3957736,0.13939852,-0.1295738,-0.043360323,-0.05662769,-0.20986599,0.08500795,-0.33886567,-0.07083026,-0.02910877,0.09813536,-0.23953062,-0.22538064,0.07134532,-0.059512578,0.18196248,-0.044397462,-0.35459852,0.31292957,-0.30194807,-0.33557916,0.2199376,0.69950837,0.007372182,-0.5426866,-0.45083913,-0.378257,0.20824684,-0.24686454,0.2183192,-0.23999977,0.3198548,-0.01414765,0.2049172,0.37963995,-0.69843996,-0.07561309,-0.20718752,0.09044113,-0.20322534,-0.20993042,-0.29443884,-0.1572202,-0.14897281,0.42126048,0.14817041,-0.0034528906,-0.27364624,0.31897128,-0.25478795,0.25117838,-0.007274218,0.13957661,0.3766142,0.040690415,-0.34448338,0.8705443,0.17623633,-0.25346947,0.28774482,0.1782637,0.00018645823,-0.14453551,0.13174003,0.07652584,-0.14698565,0.121144764,0.2152473,-0.16578336,-0.09209061,-5.5632554e-05,0.05393759,0.10582325,0.030836552,0.13571234,-0.4476775,0.44990894,0.06931618,-0.3043612,-0.22068216,-0.3380845,-0.09719269,0.061851904,0.064536974,0.05823722,0.057101198,0.051222157,0.2832512,0.00015133526,0.17291616,0.8672365,0.05944634,-0.004778454,-0.13356146,0.35535666,-0.12838411,-0.15318894,-0.0468572,0.03602895,-0.1554303,0.17680289,-0.15443154,0.21939476,-0.1538938,-0.37604088,-0.21535756,0.18016931,-0.029554887,-0.54068696,0.44956988,-0.04951616,0.14365876,-0.3072063,0.06859717,-0.042054493,-0.24877033,0.42752808,0.22156367,0.06710088,-0.19642437,-0.11965675,-0.1266242,0.048396844,-0.28432316,0.0943889,-0.12591462,-0.021298794,0.32995117,0.2630142,-0.41219497,0.09215616,-0.14163834,0.13509423,-0.12998275,0.2873434,-0.31177267,0.1996882,-0.123268254,0.13313572,0.47471946,0.024417121,0.070000395,-0.0754124,0.1793187,-0.16925132,0.1010408,0.066146865,-0.5782448,0.4632917,-0.05901304,-0.104503684,0.27078685,-0.23915899,0.29346666,-0.25197592,0.18519217,-0.25110427,-0.15663676,-0.41693997,-0.02805429,0.010209704,0.26639748,-0.39651638,0.062101617,0.067140006,-0.5149915,-0.16374384,0.182039,0.19290398,0.07751497,0.14675021,-0.13279133,-0.43177396,0.2131338,-0.39305866,-0.011893425,0.14274123,-0.3031569,0.1888057,-0.100640334,0.14681172,0.08299407,0.08036299,-0.23346204,-0.043221187,0.15719742,0.070084535,0.22546563,0.14634773,-0.49786615,0.58971006,-0.42290336,0.5976001,0.02634009,-1.0301528,0.18209916,0.55758977,0.047364637,-0.35481474,0.56305784,-0.46251816,-0.005951993,0.01947591,-0.44349992,-0.16077438,0.13712971,-0.23282456,-0.27975655,0.5720517,0.161288,0.09094333,0.20869747,-0.103224605,-0.084123746,-0.0007786341,-0.20601428,-0.28782022,-0.6976851,-0.17552963,0.030458076,-0.48941463,-0.00165415,-0.3776772,-0.2117733,-0.3320888,-0.3064153,-0.08396272,0.2430751,0.1740934,0.068739116,0.16256809,-0.14810833,-0.64764005,0.15644157,0.2344873,0.20881686,0.13610575,0.08203302,-0.14203942,0.11607343,0.568861,-0.2845079,-0.19255924,0.29091752,0.11480783,-0.08515391,-0.2905357,0.124827236,0.43278095,-0.13478109,0.011035167,0.020586109,-0.15366203,0.31627056,-0.033835243,-0.2603469,-0.27307913,-0.107809395,0.031429444,-0.47343996,-0.17187226,0.405228,0.030560113,-0.035501897,0.25231615,0.2090329,0.022365406,-0.25787622,-0.35948747,0.2024488,0.00929291,0.13691679,0.058209833,-0.15788402,-0.60488176,-3.343399,-0.10207176,-0.039879374,-0.39420354,0.36823046,-0.22975516,0.21669942,-0.03633676,-0.33737427,0.23541516,-0.21552566,-0.2536833,0.31975704,0.10834052,0.17189306,0.052367672,0.1617133,-0.27119356,0.15098709,0.35242113,-0.19513607,-0.90173805,0.16288573,0.11808106,0.48291132,0.4575743,-0.46527672,-0.10981956,-0.3063236,-0.09498616,0.13264237,-0.13323173,-0.14634067,0.29106224,0.24905218,-0.11999862,0.02992043,-0.34819123,-0.07243055,-0.5496756,0.30455256,-0.6118436,-0.19254625,0.021681555,0.7685231,-0.26471764,0.17150821,-0.025201902,0.19295448,0.19985744,0.269149,-0.08705043,-0.27362865,-0.060100153,-0.113110214,-0.17290156,0.42732668,0.28188688,-0.35543805,0.063256405,0.07169407,-0.266389,-0.284948,-0.039865073,-0.20234203,-0.2854308,-0.5892163,-0.33772412,-0.1633696,0.019659866,0.017324232,0.6592218,-0.2625141,-0.27298826,-0.116818845,-0.53275704,0.34492487,-0.040461324,-0.04255926,-0.10833215,-0.07523924,-0.3465609,0.107024506,0.02223524,-0.13623141,-0.16619872,0.19055721,0.082855776,-0.57978904,-0.57180816,0.30649716,0.11268214,0.31165326,0.1359592,0.21322817,-0.019344836,0.40243202,-0.19667676,0.025054473,-0.47446266,0.22840437,0.20203647,0.59635663,-0.360834,-0.058434572,-0.10039358,-0.09960519,-0.1281881,0.16390806,-0.08472838,0.12746482,-0.37808394,0.21037655,-0.346782,-0.16236518,0.077858075,0.13760829,0.6406766,-0.0803484,-0.15320951,-0.11281376,0.26107955,-0.10604178,-0.1205179,-0.18561,-0.04337064,-0.38128558,0.36873186,0.06357672,-0.07098011,-0.0874578,-0.10099173,-0.120657936,0.24575838,0.25981486,0.20618138,0.004539702,-0.57303274,-0.025132779,0.17434107,0.109606214,0.4228861,0.06867569,-0.16204058,0.060050838,0.24588229,-0.08105795,0.30432647,-0.24722075,0.17752948,-0.7095336,-0.3092138,-0.13805488,-0.41306728,0.005403362,0.43148667,0.16546747,-0.1427224,-0.04353607,-0.42565233,0.302798,-0.041187596,0.18603954,0.03409417,-0.14733002,0.5549345,-0.21994452,-0.12687334,-0.13200016,0.09515109,-0.10137066,-0.2749593,0.14218187,-0.4874607,-0.019760164,0.48221138,0.23787104,-0.15780415,-0.08556583,0.21652403,-0.11638869,-0.20685962,-0.2988109,-0.11232747,0.44196194,0.2089225,0.17855227,-0.5298664,-0.019927567,0.2273232,0.06357339,0.31493694,-0.16132806,0.024430167,-0.12817788,-0.1932033,0.5213922,0.28568166,-0.11748181,0.11274644,0.12732725,-0.23932874,-0.4670052,0.03400368,0.15651049,-0.20684038,0.08786348,0.41345018,0.084821805,0.09048219,-0.32430205,0.045403693,-0.42977408,-0.042323582,0.15649706,-0.5180638,-0.07674225,-0.13342327,-0.48002338,0.102454394,-0.00160327,-0.14133814,0.06608159,-0.11972976,-0.27455094,-0.09070395,0.24980608,0.12629303,-0.2928214,-0.20454887,0.16232939,-0.9903801,0.25058767,-0.112031564,-0.1189751,0.17590916,-0.13503717,-0.73473954,0.3975567,-0.34258085,-0.40725112,-0.043632373,-0.277772,-0.299941,0.14687422,0.06581071,-0.18883495,0.41964194,0.046516526,0.67769706,0.04086392,0.04290636,0.25859877,-0.15999913,-0.034716852,-0.40598136,-0.3750685,-0.018573109,-0.25884977,-0.1652534,-0.11168815,-0.14828287,-0.14966638,0.095975645,0.42170668,0.24062851,-0.14204755,-0.08534556,-0.02543547,-0.531598,0.21516027,-0.21047984,-0.08941767,-0.14750524,0.1676879,0.12864849,-0.009841129,-0.55449784,0.39745778,-0.25965816,-0.46002457,-0.23417994,-0.022976942,0.060515393,0.35558468,-0.51638913,-0.24916819,0.35077485,-0.041346062,-0.012094307,0.27314648,-0.06791605,-0.18732813,0.14328694,-0.5410124,0.22665593,0.87474585,0.23359242,0.02449862,0.37158257,0.21923625,0.28565693,0.3176592,0.057486776,-0.38101774,0.39366156,0.07088638,-0.5670358,-0.07633954,-0.06791081,-0.15613882,-0.5484598,0.68715304,0.2871418,-0.46666646,-0.453685,-0.3474398,-0.05129283,0.19474341,-0.050713383,0.08018647,-0.019816257,0.48426485,-0.07299399,0.22978035,0.5157995,-0.08080685,-0.3439257,0.017552882,0.14457744,0.19025081,0.37535226,-0.28667557,0.1638742,0.052336805,0.13878758,-0.2253837,-0.01746291,0.02227068,0.021130137,0.10105358,-0.00025625713,0.5849284,0.42041492,0.26348364,0.3368212,0.3942099,-0.01897216,0.7090957,0.59204984,0.1941221,-0.074187644,0.15089744,-0.01543658,0.24547386,-0.0726117,0.19330457,0.46611083,-0.06696812,0.7139229,0.24938412,0.32326692,0.72414017,-0.5867166,-0.33066475,-0.06674743,0.4435628,-0.36369926,-0.07477293,0.14472818,-0.08169556,0.2709002,-0.3919149,-0.2613325,-0.09521189,0.051361196,0.0831324,-0.093760245,-0.119150855,0.2604608,0.082359605,-0.1363536,-0.46136507,-0.3255763,-0.18347976,0.08059846,-0.012835519,0.024590923,0.013626923,-0.51332045,0.0910985,-0.16924757,0.28510025,-0.010759344,-0.08985135,-0.09723139,0.3801423,0.119994536,0.6972258,-0.024253987,0.117938295,-0.24438304,-0.10715477,0.07842636,0.24114992,-0.030922454,-0.020383546,0.41539147,-0.443785,-0.17960674,0.07200582,0.32362872,-0.31027907,-0.031550832,0.11815354,0.06992558,0.17850606,0.19868636,-0.32841966,-0.08645052,-0.13969696,-0.33567274,0.10459183,0.06797225,-0.19790378,-0.04628474,0.15361056,0.19203831,-0.06149539,-0.0755948,-0.22182867,-0.12584485,0.089038946,0.37436515,0.08100353,-0.32021576,-0.36638975,0.24189988,-0.06943846,0.24322805,0.099311545,0.29898804,-0.07458536,0.15322022,0.40186,-0.0771133,-0.27815557,-0.48272765,-0.21718396,-0.21924381,-0.10392091,-0.21182859,0.18433215,-0.25032783,0.09870802,-0.19909418,-0.2656867,-0.1990447,0.04574278,-0.26093274
10909673.pdf,-0.42932767,0.053776816,0.37767673,0.003855845,0.6231874,-0.0889073,-0.09493938,0.16216025,0.049086247,-0.21190283,-0.03551054,-0.29957336,0.07230928,0.08697682,0.07254538,0.3453055,0.24295656,-0.002150748,-0.050643884,0.23913574,-0.0029886737,-0.22475941,0.14354844,0.6732867,0.22579816,0.07919195,-0.0004904412,-0.08405177,-0.25182015,-0.15351756,0.57750964,0.08553838,-0.07979334,-0.3536483,0.15775916,0.052981403,-0.19506148,-0.055989124,-0.17779678,0.11123177,-0.3993865,-0.21712989,-0.13993073,0.09076659,-0.14466627,-0.18919683,0.19126353,-0.1756666,0.13307111,-0.11693415,-0.43570995,0.28000814,-0.25375304,-0.24261573,0.2195783,0.7111647,0.049758837,-0.62094617,-0.49497092,-0.3153524,0.23088416,-0.10025513,0.19503334,-0.14850505,0.18034184,-0.034451734,0.14588067,0.43367526,-0.723113,-0.13904275,-0.3454893,0.17370874,-0.09080847,-0.0043876395,-0.24566913,-0.13949057,0.032007005,0.28518456,0.052177526,-0.020435251,-0.30547768,0.28533527,-0.2381433,0.14000612,0.1668311,0.027857697,0.40550205,-0.010858135,-0.30767882,0.82941115,0.21621177,-0.26196584,0.25803238,0.14040214,0.03887776,0.05510146,0.14735547,0.20571652,-0.07359727,0.09336014,0.07844869,-0.04469578,-0.003391245,0.016132552,0.028801491,-0.068868995,0.03608932,0.09902915,-0.45222127,0.3216868,0.1739955,-0.15337035,-0.18870817,-0.42638016,0.020381022,-0.04261428,0.048234325,0.07797219,0.11155434,0.110271275,0.26795503,-0.04026443,0.16822997,0.7599309,0.116706684,0.068124846,-0.013998071,0.2633175,-0.08586934,-0.17441516,-0.0046663927,0.17058796,-0.19873269,0.038101107,-0.34781253,0.32169962,-0.11023497,-0.28463346,-0.105704844,0.16166605,0.07429874,-0.62745774,0.4158147,-0.057658583,-0.056091353,-0.17086604,0.015344933,-0.073562644,-0.2733126,0.37275743,0.2662828,0.102491826,-0.017455598,-0.14535259,0.03466855,0.1069794,-0.1766106,0.18872344,-0.29376182,-0.09465195,0.34381422,0.39046603,-0.4390269,0.1940983,-0.02086351,-0.021793779,-0.18752235,0.25069565,-0.2986829,0.097283274,-0.10645874,-0.08099603,0.5841478,0.044829343,0.24484646,-0.0213837,0.20319799,-0.13752347,0.15843019,0.057977464,-0.5009039,0.3898117,0.021688635,-0.13286948,0.32814962,-0.103084326,0.49062672,-0.37682998,0.15275112,-0.21860579,-0.37858784,-0.36171457,-0.077516705,-0.058034435,0.205739,-0.30474484,0.075625315,0.02673129,-0.47242773,-0.2826934,0.18372211,0.22614202,0.28087744,0.07945974,-0.15856281,-0.3129547,0.21600538,-0.5092378,-0.14720996,0.091976844,-0.21019813,0.21209228,-0.117590345,0.23368627,-0.010230154,-0.050743263,-0.19991322,-0.053048633,0.30348003,-0.052135613,0.249422,0.05553078,-0.44138673,0.533357,-0.41091233,0.47811925,-0.011422594,-0.94289184,0.42289254,0.4597039,0.09605692,-0.42894518,0.43732202,-0.48110777,0.11578694,0.09060493,-0.46289688,-0.14092134,0.22406337,-0.16425154,-0.21171707,0.604632,0.19587883,-0.020520212,0.13915841,-0.069321476,0.00095767155,-0.039667934,-0.16091664,-0.16760373,-0.5737264,0.07259263,0.027399123,-0.49911892,0.002032018,-0.29658243,-0.1681059,-0.5402185,-0.22438876,-0.018877918,0.16665572,0.19768646,-0.0057456754,0.01998125,-0.036504246,-0.7027917,0.17454933,0.24131186,0.15986766,0.2517464,0.088844106,-0.08134329,-0.005554002,0.44027412,-0.33843106,-0.19334242,0.3531433,0.121532045,-0.024074968,-0.15083387,0.11482829,0.371472,-0.27290842,-0.067354664,-0.0041812174,-0.109247,0.28670686,0.053155437,-0.2162387,-0.22693212,-0.15876575,0.22664174,-0.58413005,-0.20845637,0.38560465,0.07256402,-0.051579934,0.35915402,0.20462446,0.11125302,-0.35854948,-0.4002266,0.3507263,-0.009179685,0.06099789,0.088039294,-0.1343326,-0.5165932,-3.4499145,-0.14343162,-0.17671773,-0.2697332,0.25806177,-0.15567622,0.23404437,-0.057420727,-0.35141385,0.06309548,-0.15099466,-0.19400325,0.045245327,0.17441002,0.08129421,0.036943797,-0.02343869,-0.22964412,0.081534676,0.3799857,-0.08950321,-0.950746,0.042020578,0.0025696538,0.21476562,0.31831187,-0.51577663,0.033891797,-0.41080698,-0.17242058,0.2101005,-0.22148782,-0.04541961,0.30627298,0.21940556,-0.11429935,-0.127444,-0.19199754,-0.08482556,-0.5337055,0.2536242,-0.8284936,-0.14876579,0.06730735,0.6599901,-0.060085557,0.28078145,0.060422383,0.07882713,0.3257916,0.38119918,-0.015874235,-0.21273045,-0.14348477,-0.098731436,-0.101694904,0.4634559,0.23893073,-0.317531,0.07158155,0.2018772,-0.32121712,-0.4293588,-0.16393916,-0.1800558,-0.15779305,-0.73025,-0.3473907,-0.3020838,0.030309392,0.022659559,0.74801266,-0.41990915,-0.28563538,-0.1764387,-0.52504706,0.46699736,-0.22041482,0.014180571,-0.17156608,-0.10054424,-0.38791603,0.15443718,0.028103346,-0.20301662,-0.071941316,0.047653638,0.04396788,-0.56552464,-0.6777398,0.23190033,0.10153139,0.30265462,-0.09320788,0.3105202,-0.19236028,0.43274513,0.014425546,0.05066865,-0.46465296,-0.01630293,0.09711895,0.55150646,-0.3404707,-0.09282221,-0.009469204,-0.24494636,0.03779673,0.25598046,-0.057716016,0.18380532,-0.22744414,0.27765024,-0.48161957,-0.23774499,0.10912153,0.17596056,0.679374,0.03160916,-0.16830312,-0.10225755,0.25450724,-0.037912354,-0.18038891,-0.065604955,-0.083435915,-0.30672255,0.2728216,0.13849032,-0.019936945,-0.21349795,-0.06377664,-0.1705065,0.15045768,0.26881316,0.086660385,-0.1474671,-0.32675987,-0.09649645,0.1299801,0.047338337,0.40127587,0.20874625,-0.24862671,-0.08551492,0.2499404,-0.0408922,0.43042403,-0.12133356,0.023839552,-0.5645889,-0.18048887,-0.26193604,-0.28976464,-0.11743714,0.4530576,0.26298562,-0.17702526,0.041967597,-0.54327977,0.36824507,-0.06947397,0.2648205,-0.054448612,-0.12933278,0.7880943,0.03161481,-0.16624412,-0.031851508,-0.03480622,-0.2599113,-0.27388966,0.25002995,-0.48502547,-0.10061124,0.44467908,0.32731864,-0.27885905,-0.0785947,0.4438555,-0.09291704,-0.30301854,-0.26992923,0.028598495,0.13734606,0.15622959,0.17415741,-0.321171,-0.049505092,0.16234183,0.08068444,0.27018595,0.01725161,0.17100982,-0.111903556,-0.1342154,0.4780478,0.28567153,-0.11107002,0.0804117,0.1482867,-0.21349886,-0.40036553,-0.026669834,0.001774352,-0.19955856,0.024978025,0.29643095,0.07010943,-0.028845418,-0.38835704,-0.030287366,-0.5530076,-0.030000627,0.10665891,-0.60298145,-0.010161756,-0.12425116,-0.4027562,0.122579224,0.05572949,0.029983316,0.14504601,-0.04702619,-0.18148614,-0.0027463716,0.060716074,-0.06435902,-0.35145128,-0.11538261,0.07131108,-0.98939276,0.077881575,-0.041251726,-0.1294891,0.03948677,-0.03482619,-0.7335646,0.3116926,-0.23233257,-0.24796961,-0.034661315,-0.26406765,-0.25229317,0.17353234,-0.0107348785,-0.13375425,0.3385694,-0.059369907,0.72649515,0.0013435129,0.0051986817,0.20638894,-0.13687047,0.21949165,-0.241232,-0.4213664,-0.20683587,-0.29883397,-0.041192964,-0.031677604,-0.024415532,-0.19037831,0.048004348,0.48943612,0.26354438,-0.10925175,-0.044443037,0.0010650521,-0.6620225,0.29321003,-0.26478672,0.04176367,-0.15665743,0.14986849,-0.00062220916,0.18383667,-0.46659732,0.65360343,-0.29679447,-0.44161868,-0.15748718,0.0018453933,0.13609451,0.38079396,-0.4624675,-0.26700062,0.27529332,-0.06590978,-0.08394666,0.41023916,-0.12430292,-0.26263684,0.10516408,-0.6897968,0.18181384,0.6941055,0.36873204,0.06289792,0.3204118,0.2701641,0.23880953,0.3963624,-0.024683522,-0.15035953,0.40016156,0.016991392,-0.4553442,-0.1169789,-0.09493954,-0.08757128,-0.6031456,0.61639416,0.23993193,-0.49755585,-0.30575186,-0.28989723,-0.18374294,0.29474097,-0.07010986,0.10050081,0.14120525,0.5422164,-0.09244278,0.28144088,0.49827343,-0.13027984,-0.20797297,0.08852059,0.14941591,0.12364965,0.3789338,-0.16472092,0.10620959,-0.05374293,0.15610515,-0.30934796,-0.08427471,0.04526174,-0.03231982,-0.035737947,0.022435822,0.50625575,0.45875555,0.2578304,0.27913877,0.31161618,-0.11940815,0.58205795,0.5882566,0.1330066,-0.11262354,0.03202045,0.14897251,0.23496684,-0.029179208,0.21683381,0.41301686,0.13313825,0.55637044,0.16620682,0.42148876,0.5214813,-0.4936028,-0.3835253,-0.013776084,0.46851957,-0.29774398,0.101806015,0.21238847,0.0076505877,0.25053778,-0.3779848,-0.14591017,0.044247016,0.0071175843,0.16315806,-0.048204757,0.014316694,0.15211529,-0.12822399,-0.28005564,-0.27564895,-0.41853076,-0.364101,0.017211836,0.059479848,0.09165977,0.04473617,-0.32913256,-0.04156131,-0.17515583,0.20086499,-0.08581598,-0.17211092,-0.13296157,0.33145106,0.14085595,0.6997025,0.039514106,0.17040056,-0.27951157,-0.16519362,0.06613389,0.29560688,0.13668764,0.06861702,0.44934297,-0.28481388,-0.11514653,0.10421538,0.28130907,-0.253549,0.0738837,0.012786857,0.07696257,0.12879442,0.15812325,-0.3124774,-0.08336917,-0.1821199,-0.46923468,0.13002847,0.04110702,-0.30430534,-0.16593249,0.3247043,0.24607936,-0.06532418,0.031500053,-0.24035597,-0.036291074,-0.0026056562,0.38989034,-0.09093867,-0.2458907,-0.2566523,0.25747716,-0.080592036,0.3031808,0.16696791,0.26727024,-0.15451147,0.17488903,0.3602858,-0.07996197,-0.27423733,-0.41341674,-0.30988342,-0.15169032,-0.015921304,-0.11755167,0.0067655556,-0.2686598,-0.00064023957,-0.20906222,-0.33377704,-0.21931027,-0.032352626,-0.09811824
11065180.pdf,-0.5202783,0.20027594,0.35197562,0.007867699,0.67129135,0.074773006,0.07753539,0.1680516,-0.04402359,-0.2753645,0.0009148647,-0.21540771,0.102262035,0.0022963474,0.098759204,0.46879655,0.29245886,0.045297943,-0.12626117,0.31288368,0.06714777,-0.33137435,0.059921354,0.740782,0.3170504,0.14577368,-0.18263029,-0.19425313,-0.26292133,-0.21306461,0.5003312,-0.05157537,-0.07235632,-0.3506981,0.10746596,0.08641155,-0.22533318,0.015875235,-0.2240287,0.19013737,-0.41024834,-0.0691361,-0.08122147,-0.103408605,-0.19803965,-0.24508359,0.1281979,-0.1315304,0.15507573,0.0074146464,-0.44562453,0.33297154,-0.28464702,-0.34412676,0.22642647,0.73662376,0.013455363,-0.62824476,-0.42491218,-0.4001586,0.10815457,-0.09258051,0.34353942,-0.18434861,0.14086056,-0.028483901,0.17104289,0.39064813,-0.6948374,-0.030448612,-0.28141665,0.20868497,-0.16029137,-0.06962867,-0.40464008,-0.14888315,-0.07183672,0.32216853,-0.12695892,0.1902565,-0.3012402,0.33396792,-0.18970858,0.28345463,0.08641831,0.15890756,0.39852554,0.15066583,-0.32512206,0.69406366,0.18225193,-0.22633144,0.3188674,0.17169903,0.10870658,0.06965992,0.25976652,0.24360609,-0.20835903,0.007611585,0.051414825,-0.053297654,0.052124903,-0.07480839,-0.0026490018,0.00827891,0.07188314,0.06800577,-0.5228249,0.37596792,0.12525569,-0.277484,-0.28499764,-0.3505419,0.0012059798,-0.015910093,0.024566254,0.1466993,0.22653125,0.062846504,0.1670063,-0.057457354,0.20527539,0.7613364,0.053004786,-0.03849516,-0.07192338,0.24322231,-0.004678974,-0.15932754,-0.115386754,0.14410686,-0.16416174,0.115203515,-0.34827507,0.2743926,-0.25215515,-0.24612205,-0.18906632,0.15387928,-0.0078526065,-0.6971469,0.533169,-0.13637382,0.14168262,-0.27627265,0.25810245,-0.05526151,-0.11418767,0.26936537,0.26485816,0.04975261,-0.03176115,-0.22780463,0.018547524,0.13363148,-0.27349907,0.10462263,-0.24613744,-0.11693456,0.32647645,0.34674424,-0.4828928,0.17451471,0.010353856,0.08291963,-0.2467221,0.3175947,-0.24486145,0.26954007,-0.07785013,0.07949639,0.6013596,0.07241661,0.24643588,0.046048515,0.19657269,-0.019497966,0.16468601,0.06617375,-0.48404616,0.3011656,-0.075822026,-0.20213118,0.3183797,-0.122680165,0.49109775,-0.34000766,0.10205923,-0.23181412,-0.2517288,-0.4323497,-0.037742227,0.07534245,0.23972279,-0.30073076,0.09497471,0.12464309,-0.38775292,-0.23740475,0.3195188,0.16048501,0.106572405,0.080470845,-0.10765943,-0.41899186,0.13076329,-0.44736755,-0.29014102,0.15233046,-0.32128054,0.051590167,-0.21646719,0.26701304,0.01605878,0.11751666,-0.1964126,-0.026647039,0.09289537,-0.03557293,0.22251964,0.16796552,-0.38732874,0.5811952,-0.42689103,0.4321851,-0.02964474,-0.9044378,0.4351551,0.3707896,0.0034554787,-0.42340952,0.42271736,-0.45671093,0.06542608,0.08154897,-0.39508885,-0.13471946,0.31679064,-0.39190406,-0.2805326,0.61634624,0.17530611,0.09445083,0.22298674,-0.07947016,-0.07230499,-0.0010433719,-0.13429801,-0.07286036,-0.6814009,-0.020138804,-0.07671244,-0.46678317,0.041707635,-0.424622,-0.05196646,-0.43510705,-0.30712327,-0.11916151,0.25734428,0.23740141,0.009607282,0.04391288,0.03568163,-0.7970536,0.108653575,0.257568,0.2147873,0.26880726,0.098740295,-0.13976845,0.050213307,0.54175365,-0.25367263,-0.22834642,0.25517157,0.008851878,-0.0148768155,-0.16426931,0.26025906,0.28302088,-0.1601725,0.028500777,0.061992787,-0.17238602,0.30335134,-0.17503616,-0.2534203,-0.14883673,-0.09413846,0.091447145,-0.5351421,-0.19447881,0.57207566,0.16757797,0.037494183,0.3301262,0.21353558,0.1062993,-0.2772971,-0.434894,0.16715494,0.0035473518,0.099379614,0.07149993,-0.12931779,-0.70605826,-3.268052,-0.057931103,0.043822713,-0.30606592,0.321289,-0.11243943,0.3401454,0.005567869,-0.3634588,0.1903229,-0.16453731,-0.20215246,0.16757068,0.21832427,0.17907876,0.058352586,0.090625,-0.3243521,0.10212901,0.32128704,-0.17945972,-0.9064916,0.10377397,0.054960422,0.3110444,0.24645004,-0.5304744,-0.061446495,-0.36179203,-0.1389018,0.109122135,-0.16095597,-0.32175392,0.26328468,0.17597792,-0.11112887,-0.08355928,-0.4184656,-0.10941095,-0.63619804,0.26948887,-0.7142783,-0.19815442,-0.13126044,0.6706028,-0.030885005,0.24484926,-0.20049925,0.18730202,0.084275514,0.2063161,0.026280109,-0.19103222,-0.15261,-0.027874287,-0.14455616,0.62625253,0.1846966,-0.34507823,0.03371014,0.25967345,-0.28698784,-0.32233024,-0.084290266,-0.09110089,-0.061646182,-0.6699486,-0.37886208,-0.25994927,-0.16227433,0.04429962,0.7362516,-0.23675957,-0.260509,-0.2608446,-0.6303315,0.35500026,-0.1846593,0.035161883,-0.25399423,-0.14063454,-0.3177713,0.19693238,-0.022009721,-0.15361029,0.06379544,0.17823204,0.102528416,-0.619047,-0.45906585,0.24406166,0.12324935,0.2530799,0.1317369,0.29220796,-0.12088096,0.47706318,-0.007614542,-0.043489046,-0.35238296,0.07402794,0.12902898,0.58893156,-0.29617855,-0.117452025,0.05909712,-0.32422408,-0.14426225,0.34136817,-0.045333415,0.09257363,-0.19241379,0.31351689,-0.39510846,-0.105191804,0.072222464,0.14894758,0.7567917,0.008396961,-0.19035244,-0.07529256,0.28638387,-0.03985695,0.005889278,-0.2251704,-0.078028835,-0.25309384,0.33569312,0.042746127,-0.1188607,-0.16376889,-0.10462189,-0.20291641,0.3400197,0.28273696,0.11391618,-0.08931498,-0.53469706,-0.18173027,0.2260571,0.059321888,0.4847405,0.14595936,-0.25837976,0.08998102,0.244597,-0.19708896,0.39373904,-0.21840462,0.25876105,-0.6847995,-0.2641591,-0.18463898,-0.3653886,0.06351871,0.49007714,0.14852124,-0.13603073,0.03437192,-0.47392303,0.24198851,0.035424005,0.16711958,-0.08677317,-0.15810175,0.60466594,-0.073878534,-0.1788956,-0.122117385,-0.021853294,-0.18720818,-0.3183263,0.2318928,-0.49735588,-0.0571604,0.46480078,0.27988017,-0.14333743,-0.07341125,0.36725742,-0.028400864,-0.29946136,-0.21291411,-0.061480705,0.21405622,0.12541324,0.26307434,-0.42676315,-0.024125163,0.073155195,0.080234125,0.19837874,-0.14839713,0.13372439,-0.09973653,-0.08058118,0.6006322,0.22928514,-0.078608386,0.2327839,0.10189383,-0.2860905,-0.44245893,-0.046003234,-0.020309394,-0.19831994,0.045447174,0.25679862,-0.022986744,0.098536804,-0.36282164,0.0011247937,-0.50446033,0.011647508,0.16478367,-0.51806223,-0.15119708,-0.118762694,-0.6088674,0.18499224,-0.017296787,-0.106232315,0.15220816,-0.035116952,-0.14074138,-0.1708864,0.086509734,0.1299144,-0.38096088,-0.12199153,0.0049976194,-1.0038476,0.22011417,0.0066483226,-0.105420716,0.041207843,-0.14703456,-0.85897243,0.41124338,-0.24668403,-0.21587877,-0.01304636,-0.2504278,-0.26891753,0.13052806,-0.033686876,-0.22448878,0.30207366,-0.003298318,0.57722354,0.022360962,0.04446231,0.24446124,-0.06910373,0.15346456,-0.35441703,-0.33506632,-0.24148679,-0.31976724,-0.09623709,-0.23013547,-0.19334608,-0.18906152,0.05742832,0.42803985,0.24294245,-0.083353594,-0.07450786,0.039786346,-0.557804,0.19024613,-0.22904947,-0.009804094,-0.21146746,0.09062708,0.12502399,0.21984386,-0.40036878,0.56682646,-0.35115892,-0.5216334,-0.2281249,-0.067894,0.086999215,0.4362261,-0.58895576,-0.21809278,0.23012345,-0.1333119,-0.014843621,0.4031383,-0.15450883,-0.21866214,0.081940375,-0.7130804,0.19356498,0.7590207,0.40064347,-0.048095603,0.4416721,0.16859579,0.11193563,0.3677603,-0.020774907,-0.26266477,0.34374523,-0.054994054,-0.5791321,-0.089727774,-0.2568805,-0.09186541,-0.5114536,0.7149909,0.19723451,-0.5515389,-0.40576908,-0.30742192,-0.08937757,0.33768985,0.02672247,0.101224706,0.028592244,0.5588854,-0.07032672,0.3555066,0.61097753,-0.02051879,-0.17488676,0.00224459,0.317512,0.16815904,0.3517121,-0.17593563,-0.014090112,0.00573921,0.10525036,-0.19752067,-0.0866054,0.12132697,0.06959452,0.048935223,0.16445503,0.61277413,0.43147472,0.23140189,0.29091266,0.3924933,-0.1284168,0.6234927,0.5802533,0.22209866,-0.08381511,0.20841077,0.19789626,0.19196749,-0.1017291,0.20116171,0.4596569,-0.14531842,0.57317746,0.1571888,0.27398843,0.66214716,-0.6876691,-0.3279469,-0.14470676,0.53669786,-0.399447,0.066518,0.2169082,-0.09126836,0.3746593,-0.551968,-0.2636521,0.022320852,-0.16373509,0.19238745,-0.16255242,-0.07064717,0.2113974,0.0040727835,-0.22394502,-0.24894796,-0.3902551,-0.2265155,0.3217824,0.05217464,0.0401314,0.12432878,-0.33035553,0.10155589,-0.12644365,0.21879385,0.0119533315,-0.04293518,0.06493656,0.3418008,0.12628111,0.7436316,-0.10933578,0.12425641,-0.21054758,-0.14886938,0.15956463,0.20861942,0.079400495,-0.0053773774,0.40607774,-0.3776222,-0.25701195,-0.07465565,0.25320408,-0.38400924,-0.010116583,-0.009395175,0.00894604,0.22931969,0.16364247,-0.21149108,-0.20107195,-0.082550965,-0.41390556,0.19084293,0.14314991,-0.36920905,-0.062301427,0.34519762,0.20242453,-0.06407888,0.0655234,-0.22170958,-0.061822806,-0.032118276,0.21559812,0.08153303,-0.2272911,-0.38394636,0.28520894,-0.082431994,0.1032845,0.16644864,0.20720157,-0.11281761,0.07233408,0.39716542,-0.036204036,-0.33938038,-0.4657507,-0.17622343,-0.21083602,-0.04476868,-0.18785453,0.13206835,-0.3194561,0.029126436,-0.40488905,-0.26297522,-0.19859111,-0.08742908,-0.06650701
11262933.pdf,-0.45851004,0.20161822,0.4311255,0.09510151,0.76330227,0.18121052,0.10099627,0.30034408,-0.101830825,-0.2063972,0.011847841,-0.2873525,0.09809523,0.18910173,0.12671629,0.3036627,0.31412727,0.10990684,-0.004678162,0.21230981,0.05357912,-0.34556544,0.16832495,0.5939474,0.3638798,0.17450547,-0.16100746,-0.20356746,-0.32260215,-0.28413746,0.5934762,0.020154405,-0.09156263,-0.33690393,0.1321123,-0.003504096,-0.1972776,0.026764743,-0.30270308,0.07380383,-0.37830493,-0.06913553,0.00215742,0.010904785,-0.24448489,-0.22477607,0.08687385,-0.14155768,0.05093942,0.056268834,-0.3986364,0.4084158,-0.31195265,-0.3974495,0.2553999,0.6935518,-0.1187246,-0.533564,-0.38979477,-0.37155598,0.19143093,-0.198981,0.27540392,-0.12907606,0.18826205,-0.08149765,0.23366001,0.38087034,-0.59490764,-0.0075911954,-0.24469897,0.16886634,-0.20177487,-0.09090433,-0.38544232,-0.14715242,-0.059670273,0.4068659,0.012648236,0.075834595,-0.25765735,0.27029753,-0.19575863,0.18326001,0.1322815,0.12960465,0.35224575,0.15084043,-0.22894412,0.6895664,0.21740054,-0.16976395,0.2510761,0.20682228,-0.060301296,0.0015024766,0.03439015,0.16965611,-0.10722505,0.040894974,0.18181297,-0.17162472,0.10886748,-0.08395151,0.049805716,0.07481365,-0.08245638,0.15020649,-0.3093732,0.3445193,0.09503032,-0.2930759,-0.31090564,-0.39423454,-0.07110099,0.0011143014,-0.010971196,0.034773227,0.15494181,-0.017386712,0.28767058,0.048239768,0.17976967,0.75106823,0.12072994,-0.057881013,-0.08916146,0.31056288,-0.09052007,-0.034142867,-0.1550909,0.19375545,-0.20691657,0.16212541,-0.3318238,0.23037745,-0.19857702,-0.35263062,-0.16038847,0.17413208,-0.07239932,-0.6171557,0.46603185,-0.00935057,0.17525141,-0.18011367,0.22026491,0.05137947,-0.1733936,0.38327417,0.20210001,-0.0136114275,-0.07737021,-0.12676261,-0.088735014,0.0636538,-0.3123824,0.0887799,-0.13681641,-0.074677244,0.33637193,0.42743605,-0.45397004,0.21447119,-0.11287641,-0.019670945,-0.1103841,0.29900753,-0.31090307,0.15119259,-0.04973443,0.09356958,0.60124195,0.08179478,0.2870489,0.09877657,0.122106045,-0.108817115,0.09251309,0.08947253,-0.56240845,0.47065973,-0.02805753,-0.16550115,0.36607447,-0.095217615,0.38342202,-0.21071285,0.15809652,-0.21720591,-0.33859247,-0.32938838,-0.04668673,0.049785003,0.24645053,-0.40490085,0.08471333,0.102689,-0.34292796,-0.15269054,0.17535172,0.1827052,-0.016283516,0.052400663,-0.12648515,-0.42228395,0.25484112,-0.40839186,-0.07248762,0.03567925,-0.26420468,0.08449796,-0.23694982,0.1499499,0.037016228,0.09812966,-0.202505,-0.087482594,0.093365744,-0.010895712,0.27787018,0.1555722,-0.24519017,0.6823122,-0.4383424,0.4800619,-0.053587306,-0.95273995,0.339018,0.3390336,0.022869788,-0.36565405,0.5330687,-0.53256154,0.02450206,0.03524121,-0.33149272,-0.10849161,0.2758531,-0.18582617,-0.34687427,0.5019945,0.17026596,0.12079032,0.25817412,-0.048124697,-0.15383507,-0.027384918,-0.20026886,-0.15974651,-0.6712674,0.0023259982,-0.11300186,-0.49404877,0.06376841,-0.45073497,-0.0800066,-0.41074222,-0.30631506,-0.060547777,0.12160569,0.20426288,0.046586253,-0.037677824,0.0149329025,-0.7346656,0.06897529,0.2901675,0.23836014,0.27419692,0.15972078,-0.07633593,-0.047334682,0.6032553,-0.16381937,-0.2722022,0.23472816,0.037809294,-0.07154742,-0.17492196,0.18449622,0.39481294,-0.2208229,-0.064714454,0.15029499,-0.13921848,0.30615076,-0.05719193,-0.29359478,-0.15930638,-0.09839694,0.14610404,-0.55276227,-0.17989188,0.5158478,0.15325525,0.09426597,0.44743443,0.2641545,0.07600267,-0.19654979,-0.3175254,0.2496295,0.007936129,0.115122266,-0.022500174,-0.15221936,-0.6178658,-3.4429166,-0.12959926,-0.011009553,-0.34674078,0.40125218,-0.14393455,0.4048273,0.09388443,-0.3627327,0.1777628,-0.17390534,-0.20121005,0.17215663,0.12565282,0.09069766,0.08449678,0.025613563,-0.22261491,0.12636963,0.36592126,-0.2427469,-0.99621516,0.04313322,0.13570178,0.18545038,0.37712657,-0.46674567,-0.06737978,-0.2726694,-0.097872615,0.0817847,-0.19982305,-0.27237064,0.17003664,0.19826648,-0.18295358,-0.039156333,-0.3373384,-0.08155681,-0.6302303,0.3430729,-0.74028313,-0.09604469,0.011485791,0.7535309,-0.103244156,0.22109425,-0.056155942,0.10115142,0.11250654,0.30976197,-0.099886365,-0.13726635,-0.30330476,-0.07619444,-0.065290466,0.38838637,0.14495435,-0.38869858,0.10808894,0.22235557,-0.22502692,-0.25360343,-0.0968674,-0.17197794,-0.10748789,-0.6979148,-0.22008613,-0.117554404,-0.14414762,-0.00043594278,0.7604953,-0.18602479,-0.23789644,-0.29328144,-0.57308626,0.4316397,-0.08792018,-0.10223451,-0.19072065,-0.20646727,-0.2908616,0.20602578,-0.036174413,-0.16313595,-0.04963632,0.07509275,0.01244639,-0.63286185,-0.54946554,0.28113052,0.05414808,0.26481217,0.08338843,0.31116778,-0.03840239,0.42283845,0.0004553795,-0.0039993776,-0.32599235,0.1062901,0.11879821,0.70917344,-0.48806697,-0.11305968,0.025750743,-0.27831373,-0.10774976,0.109315746,-0.08598274,0.042583574,-0.2221012,0.20878947,-0.36377478,-0.12358279,0.10643329,0.14442497,0.5444057,0.013008801,-0.2737201,-0.07865473,0.32847536,-0.056401186,-0.09408745,-0.22928452,-0.085440524,-0.29948497,0.45262045,0.087163135,-0.1957021,-0.08179149,-0.14129838,-0.19826618,0.2579682,0.3377936,0.093523085,-0.027646251,-0.4847368,-0.14284605,0.21709332,0.16567692,0.38877445,0.15279894,-0.10151085,0.08192997,0.13586706,-0.22438371,0.38433838,-0.14378294,0.18038371,-0.68911624,-0.40577492,-0.1292794,-0.309847,0.038104553,0.53217494,0.15609139,-0.1515785,-0.03752041,-0.43402892,0.2535978,0.048165835,0.22990313,-0.113762714,-0.27723503,0.4833064,-0.13416165,-0.15563893,-0.003393354,0.1336713,-0.19770908,-0.22485945,0.19736831,-0.46398044,0.026004937,0.5413748,0.2546699,-0.22037715,-0.03541974,0.36200684,-0.11161832,-0.22467078,-0.19395402,0.042475056,0.40845144,0.17092636,0.31280327,-0.3210037,-0.015129443,0.09365128,0.0022159694,0.30722743,-0.075357564,0.070026286,-0.034313213,-0.20707574,0.49246657,0.33756697,-0.19255777,0.19801638,0.113202244,-0.25047404,-0.40353364,-0.032710902,0.075161844,-0.25271535,0.01989885,0.3229282,0.1129401,0.06575814,-0.34440565,-0.086648874,-0.60107315,-0.021839444,0.16268799,-0.40741405,-0.060700364,-0.18360445,-0.49277574,0.11029729,0.033561103,-0.07260913,0.14297575,0.060409777,-0.1654087,-0.19519763,0.2309427,0.11662808,-0.25796205,-0.030151164,-0.09657128,-0.9674227,0.20683077,-0.030576762,-0.07667061,0.09987562,-0.012080998,-0.7954981,0.2708906,-0.27986187,-0.37064806,-0.08223037,-0.35794687,-0.2830121,-0.016302127,0.11474779,-0.11363996,0.39866126,-0.010735173,0.70869035,0.10744317,0.017801555,0.25677177,-0.11686216,0.052836426,-0.23712002,-0.21134728,-0.19171861,-0.3498279,-0.17542796,-0.17769325,-0.095166564,-0.10863338,0.04609887,0.43628153,0.27756268,-0.09201545,-0.13539654,0.08193675,-0.48806494,0.39837557,-0.42295027,0.06038495,-0.21440427,0.09389806,0.124856815,0.1216189,-0.46250275,0.48596433,-0.22408505,-0.47349197,-0.24042785,0.096716315,0.16589421,0.33306754,-0.4818775,-0.16499555,0.14691664,-0.084988534,0.0035678428,0.35523716,-0.026891338,-0.2294472,0.022202926,-0.68456155,0.23251706,0.66064644,0.28589183,-0.020686578,0.36257136,0.2315525,0.17660218,0.36384875,-0.037856717,-0.23856208,0.44861567,-0.042625993,-0.5276747,-0.11110079,-0.28288686,-0.09048907,-0.6120061,0.6604699,0.10739017,-0.5359811,-0.4634629,-0.2611934,-0.21859248,0.18217391,0.09635821,-0.021689901,-0.0345487,0.4906237,-0.05297836,0.35738432,0.58075345,-0.08315139,-0.31208542,5.8065634e-05,0.21232016,0.18074518,0.34685087,-0.26138556,0.015046259,0.12162699,0.18788847,-0.20085818,-0.22116315,0.039658185,0.11957869,0.0031789048,0.0033840276,0.5310387,0.42516983,0.035850804,0.40852922,0.3782917,0.03188158,0.6108755,0.6121858,0.1780704,-0.046633117,0.16104054,0.109990284,0.22750148,-0.20475847,0.111119114,0.45017907,-0.013775169,0.59778965,0.12387562,0.36828044,0.5795754,-0.60455465,-0.46192816,-0.11029017,0.5326538,-0.42570648,0.063173406,0.309533,-0.113282114,0.35145488,-0.5018401,-0.19861081,-0.024756316,-0.21629615,0.12849489,-0.09649788,-0.1174893,0.26009816,0.021401744,-0.20257303,-0.28235584,-0.408692,-0.28069872,0.15451966,-0.09204299,0.03018929,0.14886856,-0.32831037,0.03629945,-0.10692519,0.26239333,0.024635136,-0.0984648,-0.07329913,0.27684623,0.16716,0.7683668,-0.038582444,0.14535756,-0.23571078,-0.06652415,0.0009228699,0.1969944,0.11216013,0.008515075,0.4737504,-0.5857296,-0.26803043,0.010315515,0.17382684,-0.32840914,-0.0810004,-0.043934193,-0.055452835,0.13919461,0.17737797,-0.22162133,-0.27303618,-0.0771505,-0.35169342,0.24073961,0.026909657,-0.35961807,-0.089001425,0.31162557,0.19919276,-0.02472867,-0.0016898047,-0.30339518,-0.15822649,0.096799776,0.3589334,0.028293116,-0.15321064,-0.32141215,0.30273494,-0.1553199,0.2342059,0.05724835,0.31923938,-0.11772962,0.06846044,0.34743088,0.009887349,-0.43042642,-0.5019005,-0.30064344,-0.09940996,0.02984142,-0.243068,0.118672326,-0.30810034,0.067690246,-0.35509843,-0.26446217,-0.18552065,-0.14743742,-0.11417225
11266906.pdf,-0.31603795,0.34356827,0.5632663,-0.048771992,0.6416198,0.037927374,-0.053282157,0.11042195,0.13248372,-0.16476351,-0.13882168,-0.13505884,0.1771737,0.19240332,0.11869687,0.3704515,0.2927612,0.04384655,-0.032929376,0.17632146,-0.12898625,-0.19407567,0.19737959,0.5865551,0.4268552,0.11785874,-0.010792107,-0.10038632,-0.2094762,-0.2825027,0.66912806,-0.0050456673,-0.14997585,-0.44428036,0.18526411,0.09600959,-0.1622386,-0.049831852,-0.24132831,0.036399744,-0.4100638,-0.052896615,-0.013781527,0.19351342,-0.36659718,-0.29877865,0.011435252,-0.23053701,0.07149951,-0.110778786,-0.4410246,0.21549273,-0.22063051,-0.26253533,0.31751704,0.70076925,-0.002629092,-0.77043414,-0.28924823,-0.41926017,0.16434854,-0.10348854,0.27162364,-0.1531698,0.10971474,0.025801774,0.0247453,0.2715146,-0.7122357,-0.17045999,-0.19159585,0.15303177,-0.13015643,-0.08514956,-0.38926208,-0.04174065,-0.12791088,0.41077927,0.06779395,-0.0007258998,-0.18122011,0.26238582,-0.23147503,0.17224732,0.13638106,0.13713074,0.5325007,0.21490292,-0.26083505,0.7598883,0.3776859,-0.2916187,0.18773137,0.09908925,0.05411429,-0.06009358,0.25428414,0.13608551,-0.16903736,-0.017231788,0.21296121,-0.030525874,-0.015248662,-0.047021806,-0.040771917,0.11006211,-0.032549787,0.039723307,-0.44083434,0.34129786,0.1199023,-0.28342986,-0.11254917,-0.46959692,-0.0233959,-0.10772359,-0.026694482,0.20973814,-0.05517191,0.16415389,0.333498,-0.095536485,0.11688104,0.6203342,0.09610815,-0.0033695726,-0.054138295,0.29299885,-0.08470029,-0.14110187,-0.07134171,-0.0021296404,-0.1857906,0.053618595,-0.215682,0.2283504,-0.10836472,-0.3717081,-0.11371757,0.09986699,-0.12055507,-0.55682576,0.3666704,-0.09630522,0.04563289,-0.23927875,0.108580776,-0.013271367,-0.10547179,0.44861233,0.25677532,0.092018686,-0.07846975,-0.16502026,-0.042019002,-0.03125091,-0.14581107,0.041961417,-0.30639145,-0.062169388,0.3349442,0.37000632,-0.22198391,0.14215863,-0.070704095,0.018603126,-0.1604595,0.37077552,-0.32724285,0.15129918,-0.09105703,-0.019578177,0.5845322,-0.13161057,0.34406328,0.08698313,0.25749934,-0.1848425,0.17681706,0.070739396,-0.49050564,0.5533333,0.041495536,-0.11692825,0.3249144,-0.15130681,0.29256988,-0.32463574,0.21960145,-0.32206798,-0.3375848,-0.42831612,-0.07232983,-0.09267157,0.2510868,-0.3046665,0.07577828,0.022862796,-0.42019135,-0.21804017,0.33904457,0.26541227,0.022789711,0.059660465,-0.18728852,-0.40277314,0.35551086,-0.39874962,0.032663878,0.08922142,-0.18330526,0.07862578,-0.1580652,0.09237319,0.0053533576,0.009937093,-0.1751476,0.13718414,0.112875015,0.07182933,0.2695576,0.07276826,-0.4058454,0.58624434,-0.4606344,0.54300773,-0.027162561,-0.974746,0.25739926,0.3034246,0.17261392,-0.24927005,0.35383025,-0.6612432,0.033279117,0.010543475,-0.4024073,-0.16698164,0.24494576,-0.31401777,-0.32161206,0.61111176,0.09972736,0.070691526,0.17888474,-0.0703448,-0.15979815,-0.009317089,-0.26674384,-0.16520925,-0.6973766,-0.108071625,-0.04798519,-0.4094129,0.030571833,-0.43488464,-0.16796964,-0.3594508,-0.274019,-0.08196613,0.27441865,0.22771916,0.07113649,0.10930162,-0.010437503,-0.63609505,0.18516743,0.19739777,0.1834279,0.2594024,0.029784761,0.05354692,-0.056392223,0.67283094,-0.3000363,-0.06216149,0.3504951,-0.022891244,-0.031933017,-0.13325506,0.13465676,0.29578364,-0.25709718,-0.13899106,-0.088157535,0.056980982,0.35431036,0.059649866,-0.092769705,-0.054007184,-0.11175862,0.14740424,-0.4675915,-0.12650889,0.5135809,0.06293443,-0.024394333,0.4286487,0.24649274,0.0997319,-0.24725749,-0.4077188,0.17925209,0.0743148,0.1129947,-0.004899416,-0.1629293,-0.56097895,-3.1544633,-0.108943306,-0.09271638,-0.38843095,0.51756316,-0.26835722,0.17950958,0.014610445,-0.47372067,0.19194043,-0.08754218,-0.24876334,0.17601852,0.04180854,0.029940702,-0.07520077,-0.018221898,-0.13147023,0.12420646,0.31077814,-0.097402304,-0.9602607,0.12895714,0.18124066,0.240757,0.3072367,-0.56912696,-0.07420341,-0.25335655,-0.16682726,0.17884973,-0.28257447,-0.1155753,0.40205345,0.16746859,-0.010305844,-0.123613656,-0.27509752,-0.094972946,-0.66107297,0.24134606,-0.6607053,-0.13507073,-0.0065924497,0.7157917,-0.22787024,0.18497026,0.10715659,0.14354503,0.19327468,0.27593285,0.110318735,-0.2210528,-0.1691687,-0.0010256139,-0.2013599,0.5111103,0.17372215,-0.28550935,0.19379511,0.13624983,-0.21457726,-0.2727281,-0.078125976,-0.23030582,-0.14075561,-0.66524065,-0.3178913,-0.1546775,-0.09796041,-0.0030403696,0.69921196,-0.30008012,-0.24991414,-0.023053395,-0.6781268,0.42158687,-0.102136254,0.027312491,-0.2644249,-0.07411125,-0.27465963,0.23949358,-0.047232665,-0.10637088,-0.010973506,0.023626048,0.020063795,-0.6201366,-0.61960953,0.24886927,0.10976036,0.1673447,-0.049391504,0.17478816,-0.13394354,0.23147127,0.09098394,0.13831215,-0.39947277,0.11086498,0.14508295,0.6707338,-0.16589618,-0.035424743,-0.0916766,-0.32246995,-0.14663716,0.30761287,-0.076339275,0.059921313,-0.30449393,0.116323784,-0.2668866,-0.20209645,-0.0035044216,-0.042237632,0.7809981,0.042674493,-0.12625298,-0.112014525,0.29736024,-0.096196674,-0.14231071,-0.3337635,-0.031877715,-0.23031598,0.401877,-0.068566054,-0.03545347,-0.08654875,-0.15774491,-0.23929551,0.11900817,0.2737136,0.18661976,0.020172661,-0.40210727,-0.14871903,0.15859613,0.10681612,0.43380284,0.05892641,-0.19430387,0.086938664,0.18108627,-0.19229484,0.4233225,-0.19092569,0.1347196,-0.6435405,-0.2764615,-0.06692904,-0.46919787,0.1126558,0.5063567,0.18680261,-0.1234513,-0.013909273,-0.5471069,0.3177892,0.07012111,0.293089,-0.037252687,-0.1618202,0.6316621,-0.23241532,-0.14379226,-0.13407174,0.08559682,-0.19657402,-0.25217807,0.08132013,-0.46327662,-0.057004347,0.42410895,0.30806714,-0.114031024,-0.028494036,0.083746806,-0.076230645,-0.25735235,-0.20652339,-0.08863389,0.39808244,0.04142192,0.34364957,-0.4576633,0.02926441,0.11781372,0.09171207,0.41249713,-0.006278986,0.06545398,-0.014630623,-0.17625046,0.44301704,0.18756965,-0.17819703,0.20086367,-0.0068060346,-0.23365778,-0.3985663,-0.036543906,0.13297299,-0.3306015,0.040927038,0.37388423,0.09844877,0.011539061,-0.32934546,-0.0949799,-0.38462994,0.12903556,0.09428512,-0.6135212,-0.058149148,-0.065862894,-0.5034483,0.118221834,0.14289787,-0.17783305,0.097126886,0.025678435,-0.28298098,-0.08469636,-0.01042585,0.15770073,-0.37077814,-0.048536263,0.012196009,-0.89550996,0.15907928,-0.040421706,-0.09468088,0.14511047,-0.0954094,-0.8891538,0.26223615,-0.2756758,-0.29403114,-0.07091581,-0.21403816,-0.37161976,0.22274536,0.07645339,0.024301512,0.36300272,-0.08917615,0.5580515,0.07908802,0.042922303,0.03806902,-0.12795232,0.026427297,-0.24010724,-0.39409286,-0.06013538,-0.22923885,-0.04708325,-0.12717229,-0.08713561,-0.15447786,0.021478806,0.45546645,0.15845948,-0.10566105,-0.0077001043,0.025907211,-0.4718185,0.17229173,-0.31865954,0.105397284,-0.10011195,0.180626,0.026263937,0.20609322,-0.5345459,0.44637495,-0.31331939,-0.61286443,-0.09746992,-0.09684132,0.07444777,0.37237847,-0.45840558,-0.30800647,0.26403967,-0.1376461,-0.20044969,0.3213964,-0.1308863,-0.1954837,0.20610572,-0.54173267,0.3285241,0.82989216,0.20400171,0.09734602,0.25636977,0.14515755,0.22832194,0.35123172,-0.19891109,-0.06722815,0.38137084,0.047426417,-0.60824746,-0.058845118,-0.21910682,-0.11127254,-0.42039317,0.6524801,0.2832626,-0.34147394,-0.34108526,-0.35790688,-0.25052524,0.1368105,0.063094184,0.06389709,0.19254607,0.56663066,-0.062953696,0.38185436,0.483801,-0.091293365,-0.24498916,0.011510277,0.08432083,0.14833763,0.3887776,-0.16840151,0.1538986,0.03790891,0.06677075,-0.10745522,-0.1614347,0.0455395,0.0400733,-0.013998227,0.059228107,0.49990797,0.3846525,0.19767389,0.29284674,0.4784372,0.11024861,0.48423705,0.46675596,0.1817981,-0.062226765,0.34798014,-0.08251423,0.16412145,-0.0078009665,0.20142317,0.38205653,-0.020469725,0.5703182,0.20518827,0.27701756,0.6964537,-0.69661975,-0.2263975,-0.1340942,0.42187387,-0.45573956,0.21355388,0.29512578,-0.058352746,0.33114457,-0.5145691,-0.11482205,0.046285763,-0.047406644,0.1249658,-0.03237895,-0.10504143,0.08654364,-0.18221581,-0.34508994,-0.35186195,-0.25690377,-0.3302055,0.03940683,0.020545116,0.028001986,-0.06311602,-0.4091862,0.049853258,-0.13769102,0.19929835,0.040669896,-0.09076302,0.0023490377,0.3656062,0.102642745,0.7372813,-0.08709053,-0.03338992,-0.077238575,-0.09304802,0.053756002,0.3321086,-0.07969655,0.089480996,0.57785904,-0.43460777,-0.195261,-0.025268283,0.19689697,-0.3727275,-0.009573044,0.065168805,-0.07327843,0.0350898,0.26684996,-0.21612316,-0.11128533,0.029449666,-0.36481768,0.14055711,0.059765454,-0.37477225,-0.02713207,0.29614687,0.29525435,-0.15840364,-0.06657295,-0.2951214,-0.08717498,-0.057947908,0.30339944,0.007948255,-0.39216724,-0.2686164,0.3090104,-0.12601152,0.20963785,0.05394534,0.24146682,0.060126197,0.21241239,0.29941773,-0.047879376,-0.25450504,-0.40456182,-0.30634427,-0.16835657,-0.018028386,-0.34381402,0.082418144,-0.3084035,0.014364675,-0.43209332,-0.25033623,-0.24315754,-0.13636053,0.033661187
11637468.pdf,-0.5480824,0.11627698,0.3588739,-0.14836746,0.4457336,0.03869179,-0.11486782,0.27462107,-0.039935064,-0.15849,-0.032848313,-0.26075453,0.11244154,0.14436467,0.05636714,0.30639714,0.351152,0.014015609,-0.09077827,0.28529954,-0.21237987,-0.20343012,0.35727546,0.77089643,0.28984517,0.15356857,0.0724212,0.005578871,-0.19064645,-0.18997067,0.7385938,0.042738937,0.04945364,-0.2811243,0.2741664,-0.121891186,-0.14257406,-0.17907025,-0.28049394,0.14669463,-0.3199377,-0.18374014,-0.05355711,0.045404144,-0.29844978,-0.26816666,0.043022342,-0.1608961,0.09801618,-0.013029117,-0.34735906,0.13875696,-0.28926194,-0.35553482,0.232887,0.6975672,-0.06476625,-0.55763364,-0.3296001,-0.42773706,0.33171874,-0.100708075,0.19657904,-0.3314722,0.08980909,0.050694097,0.2117791,0.5773093,-0.8999548,-0.13956402,-0.21474475,0.121998,-0.10229725,-0.21133646,-0.2708191,-0.2973743,0.08696559,0.31741482,0.038382865,-0.12165044,-0.32588828,0.32778656,-0.24820976,0.32955974,-0.02534701,0.05007992,0.3601408,-0.064314865,-0.22657278,0.8714466,0.15638018,-0.27827954,0.26243255,0.0852548,-0.07929028,-0.12872854,0.26466972,0.18011576,-0.16435474,0.0366713,0.15634128,0.05716931,-0.028859206,0.07838851,0.069482476,0.056873277,0.19978032,0.05668542,-0.49730095,0.315804,0.089562036,-0.27486116,-0.27934387,-0.37940228,0.11070056,0.054869406,-0.03403881,0.037305824,0.017978616,-0.013036003,0.18628187,0.009490602,0.14457545,0.7148074,0.029890731,-0.23475373,-0.09488457,0.28583145,-0.20275515,-0.18279675,0.07432078,0.12272482,-0.26183334,0.118422955,-0.18931153,0.33292103,-0.18230551,-0.36431915,-0.19554803,0.15176114,-0.009638315,-0.625857,0.42902666,-0.16371891,0.12843353,-0.24029985,0.024264166,0.040697575,-0.30743283,0.27100527,0.21212222,0.100183286,-0.09308292,-0.20163926,0.058836304,-0.05962622,-0.2339299,0.18749425,-0.2650637,-0.01476998,0.35246807,0.28371263,-0.32367986,0.17770836,-0.116828755,0.104387164,-0.15629357,0.20248619,-0.32876378,0.09288627,-0.15793103,-0.13215154,0.5567996,-0.069870085,0.19680196,-0.06576974,0.25302374,-0.12954246,0.19741696,-0.0060155736,-0.567695,0.45472676,0.049580477,-0.05551198,0.30419695,-0.2714529,0.2873849,-0.23791656,0.2792197,-0.22399125,-0.1813162,-0.44223604,-0.09956977,0.006697895,0.11122636,-0.31906736,-0.018431703,-0.09251628,-0.3332941,-0.2923777,0.094997615,0.20363247,0.1472366,0.16438976,-0.17671284,-0.34199786,0.2196068,-0.5110735,0.076522626,0.17565237,-0.28863484,0.12264055,-0.068374395,0.142701,0.07491252,-0.025102597,-0.2768236,-0.030168891,0.102293395,0.045976326,0.15542345,0.14458641,-0.3831681,0.552433,-0.3613692,0.47864628,0.07355802,-0.9948634,0.22463754,0.6561442,0.10033641,-0.47068918,0.46206325,-0.50948066,-0.037132364,0.08260739,-0.5613961,-0.034591883,0.17088203,-0.25973654,-0.19249937,0.64697874,0.03719024,0.08973342,0.24027547,-0.09028175,-0.18792687,-0.0022504814,-0.2641186,-0.2028815,-0.6198305,-0.21682411,0.14030774,-0.5126422,0.12017312,-0.4228981,-0.12199415,-0.37888974,-0.05261682,-0.11964908,0.20246848,0.06396875,0.019417087,0.041970976,-0.11951183,-0.4816119,0.2207996,0.28090557,0.120597824,0.20798242,0.00081801414,-0.0068547204,-0.008664306,0.52857107,-0.2653513,-0.15237495,0.45803344,0.03142208,-0.09202383,-0.30630118,0.1367097,0.36377615,-0.28437743,-0.08213246,-0.0064394213,-0.089308366,0.41195625,0.15052736,-0.14011493,-0.20019609,-0.10642441,-0.025515478,-0.56317455,-0.090256944,0.34062237,0.13628925,-0.09675814,0.33416912,0.17117378,0.09421098,-0.34447923,-0.40184748,0.13413003,0.0395882,0.10261452,0.016162382,-0.13149714,-0.36571318,-3.181035,0.04248599,-0.19193426,-0.286767,0.29707485,-0.24978648,0.11019255,0.0076110754,-0.3566846,0.16938703,-0.15503943,-0.28897446,0.27096415,0.048399955,0.16657484,-0.046458937,0.04058615,-0.25152534,0.20789142,0.28177798,-0.03470608,-0.96044886,0.044900395,-0.07772244,0.34852308,0.4116783,-0.4473679,-0.049278453,-0.36378068,-0.24001995,0.20694044,-0.25153357,-0.099379264,0.3284282,0.310962,-0.08576077,0.0356728,-0.27606386,-0.09344583,-0.56818694,0.34826428,-0.7485204,-0.07313507,-0.058304835,0.7898575,-0.073171705,0.17207038,-0.06158979,0.05991917,0.26868084,0.4016559,0.02235159,-0.30563843,-0.06526224,0.051602244,-0.2251227,0.42527562,0.14614919,-0.36898434,0.056579765,0.1654982,-0.24487725,-0.47609743,-0.073093034,-0.12965421,-0.21594027,-0.60315955,-0.310759,-0.09825556,0.0067964904,0.05859813,0.68432456,-0.39394683,-0.26587147,-0.2982942,-0.62073094,0.39100724,-0.037655313,-0.009407619,-0.20698828,0.07778932,-0.3911987,0.08934004,0.02176975,-0.14906073,-0.19497801,0.13527235,0.09532471,-0.6090672,-0.5313895,0.16013995,0.20425278,0.25743908,0.015866749,0.20754474,-0.28423083,0.19070025,-0.006387214,-0.051178183,-0.4746619,0.23589417,0.18131511,0.45082316,-0.2868753,0.03832674,-0.13140887,-0.1319693,-0.20539507,0.23918647,-0.06769706,0.27218425,-0.3537543,0.22545895,-0.39376956,-0.051134624,0.123858616,-0.013257166,0.5703965,0.05761337,-0.10054539,-0.048263706,0.3871479,0.08436046,-0.22108436,-0.29969394,-0.09790869,-0.3086123,0.2522775,0.02485416,0.061554164,-0.045232352,-0.076495685,-0.24087363,0.17570083,0.21245313,0.21882978,0.08200515,-0.4274792,-0.121833,0.11909026,0.013617668,0.44363928,0.26100376,-0.24860896,-0.08231635,0.29495555,0.010253932,0.40035272,-0.11345416,0.0578081,-0.7154251,-0.1954673,-0.10399603,-0.31546453,-0.030836314,0.39786768,0.14636895,-0.21662314,0.03478515,-0.4169334,0.40188077,0.044332363,0.3396774,-0.033918507,-0.15136443,0.8288579,-0.19619879,-0.2208643,0.060352236,0.016018812,-0.168807,-0.38270158,0.0062258025,-0.5421092,-0.09020428,0.5436847,0.18663092,-0.24678758,-0.12076474,0.24389511,-0.08663332,-0.14046158,-0.24543421,0.0784713,0.37696397,0.23071527,0.13516726,-0.43650153,-0.06041026,0.19432902,0.02702893,0.36377847,-0.035739467,0.10875328,-0.17222862,-0.18900199,0.47851014,0.12700021,-0.2021065,0.17760307,0.089795664,-0.16617596,-0.3024773,0.023498664,0.12668708,-0.1747823,0.15967214,0.29655313,0.047345534,0.13079427,-0.31921124,0.04925353,-0.32905304,0.010776347,0.0447444,-0.6075411,-0.023574412,-0.04991918,-0.40177566,0.047776897,0.05203736,-0.09999752,0.10385223,-0.16109267,-0.31313396,-0.031946052,0.030354869,0.038078565,-0.3039432,-0.15018302,0.0492753,-0.976995,0.16251239,-0.03801575,-0.040788144,0.2246409,-0.057824872,-0.719468,0.22498503,-0.10367628,-0.21672076,0.07181183,-0.20133188,-0.29763088,0.20284161,-0.034476344,0.09133424,0.3569657,-0.09193976,0.7710743,-0.07091809,0.045457255,0.2757289,-0.1812447,0.18033464,-0.27256885,-0.36998153,-0.12857337,-0.16163762,-0.20660833,-0.096807,-0.14126608,-0.19936341,0.039877053,0.4876407,0.24179024,-0.16456729,-0.017832845,0.035742782,-0.47994432,0.30503505,-0.26111248,0.013780826,-0.098509476,0.1872547,0.11139468,0.07287236,-0.57076645,0.46398342,-0.4073088,-0.5000655,-0.106817335,0.026065841,0.03150735,0.49796903,-0.38313976,-0.2945121,0.24488923,-0.0530523,-0.15063542,0.49250314,-0.20059574,-0.091256745,0.0841811,-0.70541036,0.16131915,0.8154074,0.23041989,0.11445933,0.29699272,0.121999666,0.16181113,0.28893965,0.15843791,-0.30526865,0.37291023,0.14829761,-0.40716583,-0.064666905,-0.07979533,-0.13158762,-0.6111942,0.63885957,0.32791305,-0.48821908,-0.2549215,-0.27958497,-0.069969326,0.21388641,-0.10616287,0.12207733,0.14047699,0.5226691,-0.14324383,0.38528073,0.43027663,-0.19340456,-0.26328343,-0.037638497,0.21534808,0.07993294,0.3501132,-0.2944014,0.29248026,0.049628254,0.13922136,-0.16634265,-0.11140749,0.013302591,0.073007405,-0.017293774,0.15101656,0.46048546,0.4592806,0.35642713,0.23777516,0.3743325,-0.12868713,0.74265707,0.53951466,0.21991196,-0.15237433,0.15478203,-0.06230714,0.22687353,0.12415711,0.27838534,0.3901597,0.07101623,0.6557338,0.22801256,0.3412543,0.6174395,-0.5538429,-0.3367707,-0.120108545,0.35149008,-0.42610997,0.031179832,0.21507043,-0.02329394,0.31740123,-0.24797931,-0.25952715,-0.07700375,0.13208334,0.021253362,-0.047371287,0.05247906,0.25087962,-0.057941798,-0.26088306,-0.38080752,-0.30819437,-0.22478713,0.052777275,0.104870744,0.1741561,-0.087561965,-0.40748772,0.10040225,-0.30242282,0.17043002,-0.034554645,-0.10666475,-0.073454216,0.31847358,0.17411135,0.7592238,0.09284712,0.10981675,-0.18530455,-0.18980426,0.15073587,0.3086486,0.15408683,-0.019527862,0.23105371,-0.31810927,-0.073802345,0.09320812,0.2450954,-0.34652805,0.07711165,0.12150961,0.04500826,0.039139666,0.21302399,-0.32627344,-0.004496296,0.0112536065,-0.382007,0.0719998,0.0027881376,-0.38275412,-0.15098521,0.21506178,0.14187868,-0.082593925,-0.099841766,-0.34756798,-0.071563974,-0.036475223,0.2624718,-0.006597628,-0.24242961,-0.26799184,0.23886156,-0.1487713,0.32363945,0.10898398,0.36725813,0.0391617,0.1287165,0.35520512,-0.16816163,-0.26299247,-0.47540206,-0.2473584,-0.2855811,-0.122576535,-0.22765703,0.10563728,-0.20197491,0.103953965,-0.2983029,-0.34320742,-0.12709185,0.0046930015,-0.22469686
11672279.pdf,-0.48270178,0.085097894,0.31542453,-0.007402731,0.6283038,0.04342855,-0.066473395,0.1968808,-0.06357901,-0.102412865,-0.03179101,-0.23619266,0.11942914,0.11147084,0.061466917,0.41965047,0.20700899,-0.16292262,0.03541584,0.2204146,-0.07975037,-0.24895936,0.17639752,0.6278944,0.3752758,0.11613443,-0.0500357,-0.18440285,-0.3268314,-0.2596379,0.58208764,0.14509,-0.17881218,-0.31945172,0.21610703,0.21922648,-0.2416234,-0.075497545,-0.27950758,0.17320696,-0.48127383,-0.15969801,-0.14284231,0.17967695,-0.26493683,-0.30269545,0.0876865,-0.16403076,0.1088615,0.02630518,-0.43466485,0.19813582,-0.27387726,-0.37920833,0.2539229,0.74295044,0.041426104,-0.65845895,-0.35922828,-0.36653268,0.34062916,-0.16167231,0.27896118,-0.22324753,0.08581304,0.020769637,0.12119256,0.35370326,-0.85417867,-0.12755632,-0.27356,0.23168476,-0.28365612,-0.064234816,-0.19612107,-0.06854587,0.038593747,0.4155488,-0.05826953,0.13638502,-0.097010806,0.37607652,-0.09342162,0.2148532,0.15369284,0.065388344,0.41177768,0.16987716,-0.31893748,0.7203007,0.22835264,-0.14276789,0.25570196,0.19135883,-0.026902895,-0.01763778,0.17802308,0.20001331,-0.07945006,0.053861454,0.03560987,-0.025905415,-0.04213714,0.022307526,-0.016801521,-0.07080144,-0.04959245,-0.009268068,-0.5024229,0.35070026,0.16843224,-0.23890978,-0.1459836,-0.54205203,-0.07984725,0.013681628,-0.02981176,0.12542221,0.14205319,0.059067562,0.358962,0.034991156,0.18244016,0.7079034,0.17795125,0.014945699,0.050926127,0.26842847,0.031784147,-0.0659751,-0.20450316,0.184201,-0.19178408,0.09182365,-0.26532298,0.15124266,-0.20908815,-0.28393096,-0.09552241,0.11729327,-0.014943469,-0.67290163,0.36755517,-0.20458475,0.063270055,-0.2500241,0.04911362,-0.0520484,-0.21133515,0.4368255,0.1940274,-0.03649624,-0.07976044,-0.099770725,0.021485768,-0.17300944,-0.11966814,0.14275387,-0.33899325,-0.043987274,0.35609537,0.36335486,-0.3345518,0.20373246,0.043040995,-0.044056967,-0.16069639,0.22145486,-0.26687717,0.107675865,-0.10698197,-0.08710469,0.7118865,-0.05461282,0.37749112,0.06764862,0.11960787,-0.12539123,0.21303132,0.08514711,-0.5789834,0.32066405,0.050958566,-0.009607829,0.33633476,0.0068187625,0.39258462,-0.32967114,0.3712328,-0.27775764,-0.29632276,-0.37390214,-0.013990901,0.08186532,0.15763485,-0.3597154,0.13791418,0.024210706,-0.41024435,-0.37501094,0.2070249,0.26338172,0.08205515,0.093947254,-0.09597573,-0.35685444,0.20250136,-0.48605332,-0.21037439,0.07008079,-0.2934905,0.0506295,-0.2516898,0.17871419,0.097791724,-0.013809383,-0.3212903,0.0036155228,0.15428329,0.049899492,0.24237925,0.12709565,-0.37958276,0.56620014,-0.4091277,0.5239473,-0.019198073,-0.99780285,0.33054835,0.4518524,0.081367455,-0.43840694,0.42553338,-0.6155944,0.16002208,0.062904075,-0.5390924,-0.14429912,0.42530605,-0.25341898,-0.22361171,0.6236274,0.2115244,0.034266874,0.22246835,-0.14858294,-0.02181859,-0.043138195,-0.18073145,-0.102644585,-0.65502703,-0.08419721,-0.07894965,-0.4352253,-0.07373895,-0.3289289,-0.024172876,-0.4235679,-0.23834065,-0.15544994,0.2202198,0.1630537,-0.06765274,0.039574526,0.027585408,-0.712057,0.15855941,0.27704245,0.1827071,0.29645407,0.28980845,-0.09556778,0.0016167723,0.5470803,-0.34922945,-0.27793223,0.2804188,0.014990043,0.018768225,-0.2371934,0.21778095,0.27453682,-0.2687054,0.014431031,-0.019661227,-0.068926044,0.23506021,-0.036317002,-0.060175724,-0.1262289,-0.09206048,0.18882555,-0.5796945,-0.18728518,0.38993007,0.16240945,-0.040302917,0.3657168,0.22922954,0.10692473,-0.22222383,-0.30471563,0.3120516,0.08110186,0.12998849,0.074726045,-0.15295514,-0.54504776,-3.1506705,-0.13793772,-0.055371843,-0.33985025,0.314785,-0.19974858,0.23395045,0.014287505,-0.36469394,0.10084377,-0.08421174,-0.23606123,0.0969535,0.09720343,0.07821517,0.037881993,0.101246186,-0.367074,0.10872294,0.4312267,-0.18213856,-0.93785167,0.07812843,-0.0019840533,0.22658442,0.30874735,-0.53268313,0.032406583,-0.30322582,-0.21284434,0.094496444,-0.1912683,-0.15974766,0.30823836,0.08229917,-0.12179117,-0.07461744,-0.31154737,-0.21194041,-0.5746224,0.23950899,-0.6963837,-0.10844889,-0.034552682,0.69848263,-0.073146015,0.13498122,-0.001963405,0.15689941,0.11441536,0.3049028,-0.038353056,-0.3755432,-0.114620715,-0.13588975,-0.0717979,0.3805077,0.08291091,-0.42580068,0.13341409,0.31709182,-0.23475426,-0.3165082,-0.068748,-0.07034604,-0.17157465,-0.6449039,-0.24182838,-0.1343502,0.0032603564,-0.0023791138,0.7410902,-0.3400877,-0.31388056,-0.28364635,-0.500201,0.44670647,-0.16116104,0.00013400149,-0.33953813,-0.06780333,-0.31073612,0.40431988,-0.12308259,-0.19444375,-0.022348564,0.076169424,-0.021101534,-0.614342,-0.5214267,0.25596583,0.10119051,0.33584124,0.016159767,0.24209744,-0.2641922,0.43240416,0.06502852,0.021120906,-0.34663576,0.070478395,0.055149518,0.6321745,-0.39013982,-0.07159757,0.027132764,-0.30525395,-0.051412106,0.33860213,-0.08479179,0.15944034,-0.27318072,0.2860924,-0.42480156,-0.07119375,0.15328258,0.14283302,0.73466456,0.09646705,-0.15635265,-0.08157197,0.26582018,0.00075370446,-0.23356721,-0.28014886,-0.1570031,-0.29136148,0.4251011,0.10538572,-0.03497748,-0.1902267,-0.13781229,-0.28980693,0.16091779,0.35442147,0.06939226,-0.070721634,-0.30575502,-0.074239,0.18767753,0.121166006,0.4538651,0.13846372,-0.16187881,-0.08796576,0.21366742,-0.048987452,0.5064661,-0.12713665,0.13706097,-0.7659456,-0.22623092,-0.08899724,-0.16746129,-0.015570268,0.5232409,0.33363014,-0.15920238,-0.08215047,-0.6026921,0.26385432,0.023943,0.22577247,-0.19639285,-0.15224746,0.7333529,-0.05363699,-0.18037522,-0.00021124375,-0.0634996,-0.2959064,-0.3154177,0.22795951,-0.47749758,-0.06637298,0.5717282,0.23981978,-0.31078753,-0.21264592,0.405862,-0.05400555,-0.2372129,-0.25766122,0.13483341,0.21264908,0.15833119,0.3093455,-0.3540959,-0.06092315,0.091314815,0.07724886,0.17386359,0.03465136,0.1357735,0.006535154,-0.113288045,0.48578247,0.121142685,-0.13481924,0.17067614,0.16419297,-0.16212307,-0.3312145,0.049466982,-0.040864974,-0.30560005,0.039564468,0.29151207,0.13572575,-0.013195573,-0.31045166,-0.13557497,-0.5744108,0.056706376,0.16485241,-0.5667004,-0.13842204,-0.14073111,-0.51999426,0.20148838,0.13724273,-0.118096046,0.16793163,0.0013014958,-0.16232583,-0.05345125,0.029888202,0.113350436,-0.26925328,-0.042021036,-0.03653302,-0.83834386,0.08268255,0.009274803,-0.07975891,0.053735558,-0.08275563,-0.9184791,0.31106716,-0.22372939,-0.33852255,-0.062829494,-0.26286274,-0.31529975,0.094353884,-0.06355255,-0.09400593,0.3611344,-0.058144912,0.7006068,0.09620104,0.10272622,0.2401107,-0.13066232,0.15724272,-0.16893184,-0.33885884,-0.2408168,-0.39671814,-0.16353916,-0.15017167,-0.1215069,-0.17146331,-0.114427395,0.50606894,0.31985843,-0.06592856,0.101797536,0.08568697,-0.61283696,0.14328673,-0.4135949,0.08116682,-0.07383811,0.054454505,0.036101583,0.17854534,-0.42970067,0.512964,-0.3318994,-0.5743469,-0.25198275,0.034919992,0.0898377,0.3361346,-0.42797494,-0.30500948,0.23251578,-0.16859943,-0.16320786,0.48658055,-0.13761884,-0.2575732,0.07316209,-0.78110194,0.19360465,0.80004257,0.27206743,0.029225357,0.37918136,0.13855839,0.02129125,0.5024083,0.026353303,-0.20143658,0.39912918,-0.09107542,-0.56593347,-0.11262797,-0.20380358,-0.096744984,-0.577726,0.54888505,0.191004,-0.42690098,-0.32031313,-0.3169561,-0.14538133,0.27883703,-0.0919081,0.07965286,0.14427197,0.60647404,-0.14905071,0.40963215,0.49163944,-0.042850673,-0.13547567,-0.0031107124,0.21089691,0.24368858,0.31850162,-0.09097873,0.07552418,-0.050634693,0.12125692,-0.078820735,-0.28654474,0.04232211,0.14193201,-0.03325443,0.13609491,0.48846442,0.38067827,0.10476242,0.17608851,0.4381482,-0.08818683,0.5766083,0.6006743,0.10929957,-0.09482711,0.14960712,0.02439474,0.25530717,0.097970694,0.20475537,0.46034706,0.1335833,0.5092923,0.090223506,0.27334917,0.6459828,-0.58127046,-0.3712847,-0.04335925,0.50389785,-0.2892235,0.09430997,0.14749998,0.01052557,0.1829021,-0.573318,-0.13028385,0.1785942,-0.09518159,0.107646905,-0.0022324147,0.02241802,0.33859813,-0.049184244,-0.2600295,-0.31882182,-0.4867606,-0.20501634,0.06432609,0.14701545,0.11386134,-0.030150555,-0.27202976,0.034513615,-0.18192586,0.2923754,0.049382742,-0.13388261,-0.04346571,0.36664376,0.18649307,0.6681403,-0.044200867,0.2002496,-0.28763753,-0.08956102,0.08915217,0.31681627,0.068016455,-0.03616458,0.518667,-0.5148669,-0.2193662,0.026893003,0.14344777,-0.30080244,0.0744109,0.024017096,-0.13360594,-0.015803266,0.24005558,-0.39104903,-0.09289889,-0.16059464,-0.48049444,0.16431463,-0.0061663613,-0.41390353,0.030028164,0.41146618,0.31511346,0.0010098964,0.042795748,-0.3040638,-0.059807602,0.0087277135,0.3044913,0.026101504,-0.27717385,-0.26511878,0.3817491,-0.066954784,0.20264456,0.21038,0.3532272,-0.038679846,-0.055545703,0.41792846,-0.22419247,-0.39189395,-0.54466593,-0.18180773,-0.18312334,0.037038647,-0.11316542,0.08690867,-0.31103247,0.1012066,-0.43324137,-0.28065306,-0.1944162,-0.106760904,-0.018955983
11773925.pdf,-0.33520004,0.27301192,0.5695143,0.05935216,0.71417236,0.09781146,0.07772941,0.14869246,-0.009101296,-0.19294164,-0.038119573,-0.29867643,0.16165239,0.18406704,0.10901472,0.47512883,0.20327553,0.017424602,-0.05458398,0.340477,0.023906438,-0.3124693,0.12548862,0.7043997,0.3876965,0.0323821,-0.21342215,-0.09978098,-0.33695006,-0.25963488,0.49456835,-0.06678472,-0.116262436,-0.3452687,0.15416375,0.039913137,-0.25501767,-0.048451684,-0.12245398,0.10192787,-0.5362092,-0.16112536,-0.017561033,0.020764481,-0.3219007,-0.28285906,-0.008404084,-0.10168458,0.11325879,0.062106058,-0.51380765,0.39325732,-0.17206173,-0.34362155,0.14302069,0.7053517,0.12950104,-0.526973,-0.44496217,-0.4512216,0.16072716,-0.085559025,0.3064255,-0.084729016,0.19394219,-0.092547454,0.08301866,0.3996991,-0.7066654,-0.13459681,-0.32490736,0.20829906,-0.18378097,-0.041018955,-0.3297387,-0.13071702,-0.060029235,0.45232743,0.11949763,0.116459206,-0.2693836,0.19236675,-0.17750677,0.1892302,0.122269325,0.221955,0.4213341,0.1458119,-0.36588168,0.6089021,0.15512201,-0.23731628,0.32128182,0.11568312,0.07094406,0.11076494,0.2000331,0.13477314,-0.17820324,-0.049385812,0.17647994,-0.14436802,0.019652188,-0.03943642,-0.009561535,-0.023970442,0.103492856,0.12355852,-0.46380055,0.43658146,-0.088093765,-0.2867949,-0.21645927,-0.39413702,-0.04962964,0.10320609,0.00518612,0.21846826,0.12548876,0.06175545,0.29085302,-0.071787305,0.22685796,0.8976796,0.055148683,0.063041635,-0.1314471,0.27810568,0.027267907,-0.08465625,-0.027738068,0.12217489,-0.13527316,0.025454715,-0.23276523,0.2617246,-0.16450629,-0.25856376,-0.034466058,0.2070249,-0.095193654,-0.6224562,0.45786482,-0.18020183,0.14852104,-0.29455903,0.063131794,-0.005889602,-0.14960113,0.34542882,0.25360072,0.21384558,-0.108970195,-0.27781668,-0.027095342,0.2163181,-0.28697136,-0.010793276,-0.1040837,-0.11015812,0.41288972,0.3497963,-0.4472521,0.22415061,-0.18759614,-0.002510341,-0.16915587,0.18973726,-0.33431304,0.030062422,-0.04721663,-0.043123662,0.49422884,0.04545796,0.41640672,0.10523324,0.2739349,-0.12999624,0.13610946,0.15824397,-0.48785907,0.48524085,-0.16185746,-0.2878824,0.16912091,-0.22885928,0.41848692,-0.2907158,0.16150226,-0.23647062,-0.28571367,-0.39353037,-0.08036888,-0.031648364,0.27270192,-0.29769522,0.007066725,0.12921712,-0.48779595,-0.3468529,0.3448851,0.25913697,0.06830166,0.12466322,-0.15471987,-0.50651383,0.19406958,-0.4629448,-0.23510453,0.09603463,-0.36238575,0.05792673,-0.1288986,0.16670717,0.034280002,0.034408994,-0.26121956,-0.13395253,0.07050662,0.05390481,0.20358054,0.12322934,-0.38732302,0.55029017,-0.47367948,0.49221545,0.02940781,-1.0610657,0.31920677,0.3689924,0.08573105,-0.12157008,0.5257709,-0.55198824,0.090540946,0.014681672,-0.2673709,-0.13476606,0.23779519,-0.25021076,-0.28230798,0.53102267,0.23012525,0.10087308,0.22659984,-0.092994675,-0.09285468,-0.03241507,-0.19970563,-0.20545806,-0.73887753,0.10995692,-0.07079789,-0.36848503,0.009500109,-0.38959315,-0.09517464,-0.4179966,-0.27356595,-0.040246386,0.27211666,0.21988611,0.031493172,-0.017125273,-0.0534922,-0.66412413,0.055413745,0.20988879,0.31483096,0.32044497,0.09962042,-0.09030626,0.14509462,0.42830572,-0.39238966,-0.21244869,0.19969122,-0.031527035,-0.032945354,-0.1655907,0.15083332,0.19521822,-0.12927482,-0.030223336,-0.058895707,-0.0059840456,0.2786687,0.024100315,-0.08321826,-0.15564911,-0.20791185,0.28210703,-0.44824123,-0.10291366,0.48301983,-0.034916125,0.032350887,0.31116268,0.06824432,0.05793534,-0.22797237,-0.3254326,0.4250419,-0.0006431304,0.11591111,-0.008647893,0.023393918,-0.600034,-3.4916878,-0.11655958,-0.04160949,-0.33356115,0.41742164,-0.18993995,0.21397334,0.03511673,-0.38389707,0.13566095,-0.16218945,-0.062963024,0.060712215,0.17561996,0.1636941,0.13295782,0.06714287,-0.2486496,0.1657826,0.42426252,-0.113161184,-0.7557786,0.1238823,0.10203299,0.22758704,0.35919726,-0.52991414,0.0005033221,-0.34897354,-0.16542287,0.16256335,-0.13026461,-0.27368546,0.5082081,0.09605681,-0.08872238,-0.027608262,-0.38281423,-0.095669605,-0.608464,0.26114967,-0.68199337,-0.12908939,-0.009260372,0.663229,-0.13320725,0.23368582,0.13356742,0.12618811,0.108306885,0.29898584,-0.0880347,-0.27211824,-0.05605147,-0.035676975,-0.26347816,0.47783795,0.25187036,-0.2588364,0.011261998,0.1715081,-0.24474673,-0.49604133,-0.22583182,-0.24087465,-0.13149466,-0.6995172,-0.42377824,-0.22838336,-0.11797591,-0.072963886,0.65354437,-0.20042406,-0.27040988,-0.10453673,-0.49652013,0.34258813,-0.066045545,-0.11979447,-0.2656958,-0.09357044,-0.3355373,0.23508224,-0.032788754,-0.25738746,-0.09864542,0.030473389,-0.024701003,-0.51901174,-0.46575356,0.32604876,0.13737696,0.36648786,0.039617904,0.2964229,-0.015437049,0.4820633,0.010322787,-0.008293602,-0.40477464,0.03639824,0.13935556,0.5720673,-0.28964162,-0.055664502,-0.18608949,-0.31798497,-0.14800721,0.34366077,-0.15179425,0.09190688,-0.14301473,0.11519802,-0.31542385,-0.20188911,0.0034321174,0.061546728,0.8824804,-0.032211468,-0.22897686,-0.12369214,0.17253238,-0.20026198,-0.058017038,-0.066054806,-0.046103526,-0.292734,0.41398817,0.06887402,-0.040190905,-0.14734125,-0.12552728,-0.15464376,0.21045448,0.27023873,0.07395989,0.025458809,-0.48508433,-0.09036043,0.23187393,0.23792961,0.35477686,0.18848601,-0.13564733,-0.0051162206,0.16114517,-0.22533962,0.46060896,-0.12840398,0.27042797,-0.70969814,-0.27729344,-0.15658495,-0.26944435,0.10389951,0.39709407,0.27126682,-0.18579331,-0.02396118,-0.5194766,0.14988501,-0.10376924,0.21989366,0.027852736,-0.17763656,0.677394,-0.106547415,-0.10030265,-0.05517661,-0.07343779,-0.20037119,-0.32009733,0.1398231,-0.40352505,-0.080110215,0.48137036,0.39858782,-0.1384894,-0.03498744,0.39901233,-0.040581092,-0.41643983,-0.2549824,-0.02841911,0.31444505,0.18721318,0.22253782,-0.6315058,0.013172451,0.18709427,0.11875069,0.22820944,-0.10729994,0.11182893,0.04286538,-0.103675894,0.50686073,0.2705004,-0.07370309,0.023181733,0.08689499,-0.36694944,-0.47014117,0.0015836223,0.022806786,-0.28502524,0.010534283,0.30794162,0.040241893,-0.07811395,-0.37460488,0.022180445,-0.4160037,-0.023145435,-0.049968418,-0.6217848,-0.18407348,-0.15276939,-0.47242135,0.14737174,0.16102114,-0.18413922,0.023151342,0.0041948315,-0.2238333,-0.14789608,0.10314621,0.056476247,-0.3784657,-0.21812294,0.085994534,-1.0038985,0.103724994,0.081291355,-0.009876914,0.14255176,-0.13930029,-0.65690315,0.39030227,-0.40122074,-0.25295752,-0.08075209,-0.3642559,-0.28633234,0.17168885,0.061534803,-0.12364116,0.25143358,-0.05862166,0.5742316,0.038841594,0.003899348,0.2230576,-0.07942738,0.17612809,-0.281063,-0.5200638,-0.091365255,-0.32698482,-0.15812632,-0.189066,-0.023792325,-0.10612208,-0.01618088,0.5198091,0.31757632,-0.12736921,0.044478748,-0.042322636,-0.5212415,0.13137811,-0.24200949,-0.027528655,-0.12729053,0.17282565,0.07574411,0.1456991,-0.33151525,0.50776905,-0.31253824,-0.3893758,-0.2281918,0.013473142,0.23624733,0.5219279,-0.5314946,-0.144183,0.2705927,0.0006347485,0.07758974,0.46000946,-0.097486466,-0.13768989,0.12340431,-0.65553904,0.11948076,0.88098073,0.30500865,0.05834584,0.31174067,0.21680278,0.19320643,0.40887362,-0.08465193,-0.17049012,0.39933348,0.06963057,-0.5936196,-0.13174032,-0.19937402,0.01411007,-0.5595297,0.72511894,0.187502,-0.47032776,-0.29602733,-0.31276765,-0.05785492,0.34334716,-0.143877,-0.0010590062,0.14177847,0.5872934,-0.11404573,0.41015995,0.4967479,-0.036324434,-0.15812962,0.066149,0.13220549,0.2093043,0.35839742,-0.22232774,0.14844963,-0.039857633,0.12437272,-0.2491032,-0.07214025,0.13271907,0.07322099,0.036929786,0.10602531,0.52841765,0.45897698,0.18387249,0.2992171,0.42734134,-0.04749998,0.5094356,0.45295793,0.08547307,-0.0271968,0.14310712,0.11129949,0.17868242,-0.17018303,0.21630146,0.4748994,0.12808967,0.6033187,0.1642735,0.2483427,0.62426275,-0.5435054,-0.32762545,-0.104650706,0.6020044,-0.41342843,0.08354141,0.21575418,-0.08657954,0.33967364,-0.48803407,-0.24332017,-0.004335763,-0.15386216,0.13054939,-0.14237441,-0.07911642,0.17611842,0.005131524,-0.20536375,-0.37183422,-0.15819661,-0.24893077,0.13584533,-0.046449766,-0.04561489,0.071400665,-0.1515275,0.04872343,-0.036531523,0.32732117,-0.20296004,-0.1334045,0.050508086,0.31206024,0.006384387,0.62103814,-0.14404784,0.08569804,-0.111178964,-0.19783334,0.08107024,0.28530848,0.07669838,-0.0698186,0.36809665,-0.36569327,-0.23824984,-0.17162186,0.2559958,-0.31703323,0.0066064876,0.015398396,0.008648045,0.084154546,0.18217549,-0.33985344,-0.21176815,-0.17817345,-0.37368143,0.15781209,0.009101175,-0.32765698,-0.00014088675,0.35173473,0.23350933,-0.07756436,0.007617401,-0.22564289,-0.004098162,0.06013672,0.25703353,-0.03133012,-0.2685079,-0.35373324,0.382823,-0.038962077,0.16826972,0.012330214,0.3543545,-0.116861075,0.15732175,0.37058324,-0.08531311,-0.32037106,-0.54849523,-0.28516668,-0.1967521,-0.022550642,-0.17818815,0.13381201,-0.31226182,0.12587959,-0.36775392,-0.32119596,-0.24677128,-0.008980287,-0.08583992
11842348.pdf,-0.42166287,0.19261411,0.45925552,0.0065473095,0.534297,-0.044565294,0.16268918,0.16990891,-0.0717105,-0.28154522,0.0031504445,-0.26614213,0.12136856,0.18516964,0.14648162,0.28089374,0.36686745,0.06891513,-0.13643622,0.30395824,-0.20089689,-0.21244961,0.23840943,0.7434114,0.5277145,0.08042078,-0.13163239,-0.11377312,-0.22255252,-0.18896504,0.6948669,-0.038054843,-0.05608798,-0.36791915,0.20807776,0.016180899,-0.2032834,-0.13271406,-0.28593892,0.1684145,-0.41480616,-0.21404529,-0.026669618,0.07197827,-0.36098826,-0.56649077,0.099007145,-0.08580454,0.14922743,-0.03795829,-0.30969617,0.2849429,-0.34377724,-0.33499432,0.3001343,0.78221047,-0.0150958765,-0.66543293,-0.46781868,-0.45370707,0.124815814,-0.1922519,0.31639802,-0.32484698,0.08692518,0.07081435,0.10219237,0.38045973,-0.7636647,-0.1580617,-0.26362374,0.06397618,-0.13960269,-0.082353935,-0.5132443,-0.19110751,-0.08903492,0.40529346,0.02433191,-0.030819725,-0.40436015,0.39532906,-0.31021532,0.39788175,0.016592152,0.16242641,0.41943577,0.23811755,-0.37917972,0.7085781,0.37018692,-0.31109747,0.21669044,0.16945502,0.13388026,-0.05742616,0.28312892,0.07853486,-0.18707447,0.112690985,0.27419347,-0.10254054,-0.039520346,-0.17499259,0.050051488,0.074209295,0.11458247,0.06260299,-0.4885147,0.5012936,-0.044380423,-0.31208885,-0.3238474,-0.3445004,0.08716766,-0.09650597,0.022662925,0.12884231,0.102300726,0.06205974,0.165871,-0.11271614,0.24215429,0.7860043,0.0330235,-0.25922525,-0.19195181,0.2864326,-0.014747269,-0.10708466,-0.078951016,-0.0048651546,-0.12773907,0.009987658,-0.38847595,0.26544046,-0.13933381,-0.39013308,-0.35199088,0.28454,-0.011745536,-0.71378154,0.59402335,-0.10110815,0.18096763,-0.2784462,0.11292778,0.027031416,-0.15017557,0.18325257,0.19534174,0.026787847,-0.07063231,-0.17564206,-0.18831626,-0.032179464,-0.3669585,0.17058887,-0.03568668,0.015780332,0.257703,0.28914526,-0.39191884,0.15715946,-0.05288536,0.19326481,-0.19285485,0.4436291,-0.36875176,0.16645989,0.0058232546,-0.079979435,0.49988675,0.001605954,0.34255236,0.09096615,0.11744752,-0.12202014,0.11715684,0.03945736,-0.5411737,0.42988792,-0.017067125,-0.16298604,0.2724132,-0.13512437,0.09625013,-0.17329012,0.12615302,-0.18809968,-0.30444974,-0.45980686,-0.035787262,-0.026300032,0.25570932,-0.42080832,0.047165446,0.06495944,-0.41120017,-0.22965029,0.2607917,0.21506771,-0.06677855,0.19655028,-0.25153393,-0.4397235,0.28283507,-0.44989574,-0.15380713,0.057127375,-0.34872043,0.016239341,-0.0933731,0.14198768,0.017091066,-0.07668548,-0.24215463,-0.027132662,0.029081143,0.034924716,0.22531731,0.08951704,-0.4727789,0.73937964,-0.37845683,0.5347657,0.05879367,-1.1021969,0.32505542,0.4503823,-0.04048458,-0.35304958,0.45767152,-0.5427059,-0.11927216,0.014755063,-0.31758684,-0.17877004,0.1559607,-0.43270323,-0.32887098,0.5799482,0.029779714,0.127831,0.22091609,-0.1504647,-0.18694036,-0.0348129,-0.22411776,-0.21288869,-0.83244103,-0.04570183,0.08287024,-0.43473718,0.079712234,-0.5234744,-0.10874159,-0.25400388,-0.16938454,-0.33392817,0.17025755,0.18086562,-0.06909706,0.16347116,-0.10701735,-0.52671516,0.24502292,0.17497493,0.30110812,0.20670006,0.045991853,-0.020644952,0.071273305,0.7707872,-0.06840024,-0.22368562,0.29213065,0.09475492,-0.07024356,-0.41498375,0.30735722,0.45184782,-0.2695584,0.08768633,0.10695315,-0.06911097,0.38346285,0.11549196,-0.18542409,-0.21437109,-0.045162495,0.016875181,-0.34585568,-0.24990943,0.6513083,0.107018024,-0.013674643,0.3126235,0.13640034,0.017738618,-0.37332302,-0.31952626,0.17729619,-0.019149963,0.13568097,0.17918491,0.04379105,-0.5309143,-2.920377,-0.036588874,-0.058449738,-0.15497687,0.35645938,-0.2566688,0.11551575,0.06444414,-0.36359313,0.09394655,-0.09409164,-0.2738254,0.21319976,-0.03826665,0.041035175,0.07080029,0.17733242,-0.22075638,0.16727352,0.29616582,-0.15912455,-0.8495587,0.093591385,0.11664097,0.42104304,0.15037414,-0.60208774,-0.056096315,-0.31260538,-0.11916859,0.20829475,-0.33436018,-0.2764011,0.29507086,0.13909289,-0.14991267,0.09617696,-0.37300152,-0.25079542,-0.571663,0.14374031,-0.87782943,-0.17068401,0.060703456,0.5909085,-0.17076175,0.25053856,-0.040091664,0.10337113,0.17978199,0.2163344,-0.037177633,-0.34220332,-0.26603493,0.08320272,-0.0903154,0.70314974,0.28520232,-0.33067912,0.020834118,0.18871143,-0.14906028,-0.38283247,-0.11050686,-0.124807596,-0.16657136,-0.61805344,-0.4374138,-0.18002355,-0.079707876,0.011283699,0.7622131,-0.25183904,-0.117647186,-0.119035296,-0.5843278,0.43573782,0.11908349,-0.07168165,-0.20622668,-0.025608672,-0.30761224,0.1814636,0.01408471,-0.07759675,0.010318227,0.13134006,0.14189342,-0.41189277,-0.374744,0.32728583,0.17912528,0.2646474,0.21012367,0.34655106,-0.2987329,0.23114401,-0.0040343083,-0.04282032,-0.53655124,0.11136023,0.22961605,0.44867375,-0.15858671,-0.07934223,0.053775627,-0.22645082,-0.07495211,0.23381919,-0.08115308,0.27203098,-0.30290192,0.11550854,-0.27362227,0.031762,-0.06617763,0.16242781,0.8069273,0.050820574,-0.16725223,0.012866327,0.4341173,-0.07093893,-0.09811705,-0.33668742,-0.01686771,-0.22185683,0.40245056,-0.047398273,-0.12304275,-0.02807109,-0.25962007,-0.35231805,0.31386748,0.2714546,0.19742094,0.075673856,-0.7057736,-0.14907515,0.28380543,0.11893263,0.4045663,0.09993546,-0.28516877,-0.013626266,0.20769656,-0.18653947,0.4171825,-0.3474397,0.32159105,-0.76841176,-0.2980559,-0.15773726,-0.39655793,0.010359425,0.64210385,0.030173145,-0.24928132,0.11916228,-0.44161826,0.31036687,0.080369964,0.1416418,-0.0043569114,-0.1922575,0.690604,-0.08307401,-0.20723867,-0.0707388,0.092706054,-0.17833024,-0.34209028,0.017834358,-0.5613103,-0.17268291,0.49265188,0.16789603,-0.11941375,-0.061726823,0.2895321,-0.056341548,-0.22877848,-0.2349511,-0.08017114,0.45474964,0.11994392,0.30466455,-0.4067555,0.041305877,0.13158943,-0.15719321,0.45414436,-0.04458697,0.12257035,-0.008143429,-0.13612549,0.68531585,-0.08337087,-0.13556892,0.29650456,0.15052529,-0.3259581,-0.3094573,0.06116472,0.11426419,-0.24686395,0.032972615,0.4576616,-0.04851651,0.10949087,-0.30584985,0.060308337,-0.30218825,0.044483416,0.1127823,-0.77877235,-0.056937873,-0.039473627,-0.51802504,0.14479823,0.02509442,-0.13345139,0.23521274,-0.1747649,-0.28416955,-0.16596214,-0.018918991,0.2405594,-0.24123472,-0.08497616,0.0027706092,-0.79070294,0.2820135,0.07059572,-0.10129075,0.26897782,-0.01781303,-0.8449024,0.31139427,-0.227368,-0.300087,-0.09309538,-0.32204705,-0.463798,0.17075069,0.056822784,-0.028417885,0.341366,-0.022795903,0.5542035,0.025130287,0.06192312,0.16285601,-0.11851013,0.17593561,-0.2898491,-0.34359044,-0.20348272,-0.33137426,-0.24537578,-0.20854852,-0.120560974,-0.03827344,0.0931563,0.41913193,0.19015783,-0.22899447,-0.02832938,0.023429876,-0.54809797,0.20297074,-0.20446242,-0.03526285,-0.31707886,0.03159211,0.19044855,0.17283118,-0.42775965,0.30785814,-0.31690377,-0.57301086,-0.26242232,-0.09485054,0.013123695,0.43176782,-0.35961205,-0.18294425,0.14512813,0.020236902,-0.13880156,0.30385712,-0.15929592,-0.21614411,0.085623614,-0.57594347,0.32977635,0.8551073,0.26596034,0.047964692,0.43727788,0.11222908,0.14820005,0.21805191,0.020834416,-0.2832243,0.3751905,0.11675206,-0.53321034,-0.0987918,-0.121200174,-0.17680916,-0.5195101,0.7672435,0.24885914,-0.37843356,-0.43075764,-0.3184511,-0.15644974,0.22894156,0.080426976,0.0541731,0.034587324,0.61148524,0.009718059,0.40654606,0.6211976,-0.12656473,-0.26095942,-0.04806253,0.35366166,-0.023107588,0.37084085,-0.24733755,0.3345163,0.1219526,0.19605035,-0.1304374,0.0027629267,0.11368592,0.10114765,0.08719154,0.02827831,0.6672535,0.38291854,0.25052404,0.22021738,0.42798918,-0.04871391,0.63285494,0.56175375,0.34969127,-0.055590257,0.37786618,0.017880466,0.22820698,0.09627539,0.17382404,0.4288798,-0.08267556,0.7314429,0.31858537,0.29681426,0.63033235,-0.76278245,-0.32030493,-0.23757389,0.36164558,-0.48946756,0.111650355,0.23179016,-0.08112211,0.35708606,-0.4579913,-0.23091808,-0.033924755,0.022758074,-0.027237162,-0.14953202,-0.069167025,0.07939614,0.003331392,-0.29035223,-0.46395493,-0.3284088,-0.16354929,0.10419215,0.0086341435,-0.12970234,-0.045823526,-0.383694,0.056568593,-0.16832227,0.22624141,0.16920508,0.009151006,0.01027488,0.3001052,0.14838398,0.875234,-0.01835823,0.044985276,-0.25637257,-0.15613407,0.17493483,0.24823156,-0.030587377,-0.03823,0.28890842,-0.3395357,-0.32701015,-0.038422856,0.25931865,-0.43270862,0.07106848,0.016177677,0.114074714,-0.041122153,0.3218946,-0.17893812,-0.08233817,0.06764286,-0.44967815,0.120891675,0.19014043,-0.47464082,-0.09589348,0.025212713,0.15884997,-0.18824631,-0.083491676,-0.32187745,-0.09048999,0.111067064,0.4138205,-0.048024707,-0.2506662,-0.3206476,0.26090378,-0.06560121,0.267435,0.24232863,0.38549793,0.07555574,0.12815453,0.38786215,-0.03026635,-0.3356045,-0.4259819,-0.17225116,-0.22334851,-0.30996895,-0.36416268,0.32365137,-0.1393354,-0.08358548,-0.3259861,-0.25775933,-0.3123175,-0.12853673,-0.25565398
12021752.pdf,-0.36044213,0.15573774,0.29421178,-0.061495095,0.682845,0.015598778,0.113762185,0.23471236,0.026892394,-0.07051312,0.082903445,-0.36697406,0.15899765,0.15304974,-0.032432277,0.4172102,0.32983702,-0.09760989,-0.078160234,0.3322085,0.08429378,-0.19327787,0.21233776,0.55626374,0.40253472,0.08689739,-0.10541492,-0.2974512,-0.31247738,-0.17781076,0.57108235,0.070628844,-0.05558169,-0.3985343,0.19905718,-0.061390184,-0.17113587,-0.19599187,-0.26759315,0.17779621,-0.6312846,-0.22396742,-0.16151065,0.03430046,-0.2695706,-0.39158183,0.27488658,-0.06770371,0.13058454,-0.09688863,-0.35870647,0.20922753,-0.22661027,-0.37603825,0.2558592,0.8292173,0.07576201,-0.65434647,-0.43472284,-0.48628998,0.20763966,-0.12660761,0.33983696,-0.13947992,-0.05047058,0.024108447,0.12529768,0.48162818,-0.71690995,-0.28808498,-0.26024106,0.27300572,-0.16674225,-0.10547769,-0.26890033,-0.037943643,-0.14233004,0.49986124,0.10470522,-0.15343249,-0.39290732,0.3095089,-0.30898458,0.31783122,0.055416003,0.14912485,0.31816232,0.24017139,-0.4128384,0.6485797,0.3271016,-0.3359574,0.2273767,0.20917472,0.020910606,0.089458406,0.2792706,0.2639655,-0.21984428,-0.013679551,0.2973803,0.0050593344,0.104255,0.068757884,-0.020556655,-0.0025540497,-0.033616643,0.057601824,-0.4543419,0.49332365,0.12149246,-0.2673571,-0.3231337,-0.5276407,-0.0017920323,-0.16481492,0.110068426,0.08279651,0.1554142,0.031421103,0.03750354,-0.20192067,0.16576162,0.8557639,0.027413005,-0.11628102,0.011566444,0.25164223,-0.2026762,0.08617779,-0.05461213,0.051382683,-0.17953582,0.102493376,-0.39050296,0.26188216,-0.27522516,-0.3771138,-0.14420334,0.23914489,-0.06408657,-0.61418,0.4343151,-0.10369876,0.15196729,-0.31870562,0.0979538,-0.012927908,-0.16591138,0.41452524,0.30327827,0.05104756,-0.114867166,-0.1672352,-0.12332177,-0.07926628,-0.31106728,0.11324376,-0.085949495,-0.058343112,0.3680055,0.46871367,-0.43184358,0.26132268,-0.002030084,0.22190939,-0.22873771,0.43017036,-0.52155024,-0.08436144,-0.073760614,0.04306277,0.72900707,-0.079826325,0.28769192,0.22901383,0.08228825,-0.17985544,0.17323154,0.19677427,-0.54228616,0.27405387,0.04421453,0.03833781,0.37851295,-0.1456011,0.037432328,-0.38924354,0.25175375,-0.20596932,-0.32705325,-0.44507992,0.0324057,-0.08566445,0.14239444,-0.30469286,0.16396303,-0.01131691,-0.46904188,-0.4303475,0.2089967,0.20687869,0.08864319,0.112361714,-0.06632133,-0.54267466,0.33457357,-0.35244456,-0.12788221,0.2112202,-0.3386346,0.15379883,-0.19322565,0.3194465,0.11985699,0.014188484,-0.31063044,0.036652595,0.23253068,0.10612702,0.15523735,0.23624253,-0.5838748,0.4670913,-0.4508313,0.561672,-0.0057826955,-0.91389304,0.08775979,0.43963772,-0.048457187,-0.308313,0.529143,-0.6125878,0.15358844,0.0742633,-0.35872304,-0.13084933,0.2567469,-0.48034978,-0.19955486,0.66808105,0.33009812,0.058021486,0.33640158,-0.021101916,0.029742219,-0.12948337,-0.24201614,-0.27314097,-0.7308943,-0.052395254,0.08695158,-0.47365564,0.017818402,-0.30620047,-0.08660753,-0.4684973,-0.1221743,-0.3074473,0.4009555,0.123559035,0.19812441,0.07937787,-0.031286776,-0.5175903,0.17007574,0.27495426,0.109671086,0.20081984,-0.03388356,-0.0012475811,-0.026989577,0.7722913,-0.40220943,-0.04561773,0.32920033,-0.081891105,-0.065382265,-0.41495398,0.13788411,0.30770367,-0.35476094,0.09207213,0.0155648645,-0.20339283,0.21881284,0.12058575,0.019491099,-0.3459977,-0.046523143,0.056579817,-0.506804,-0.082614854,0.4114345,0.030730985,0.005791098,0.26587328,0.24893104,-0.00046758726,-0.3248381,-0.4713222,0.25983018,0.16348857,0.14867157,-0.011721,-0.057084925,-0.53152305,-2.2431197,-0.051934753,-0.014192235,-0.33692575,0.29668635,-0.28659868,-0.024884425,0.10836858,-0.45244277,0.087100506,-0.048842747,-0.33070093,0.118052945,0.15058154,0.26480606,-0.02431484,0.113458954,-0.18150021,0.05599706,0.34364074,-0.2966259,-0.878533,0.116577394,0.06586146,0.5029456,0.29883298,-0.52439666,-0.14224647,-0.29082036,-0.11061057,0.22838809,-0.22519553,-0.25002155,0.52416635,0.032733865,0.034394763,-0.03382618,-0.49110794,-0.15526547,-0.4250507,0.19562757,-0.73683465,-0.16113976,-0.025923053,0.73981595,-0.18575108,0.17535967,-0.11946202,0.064070344,0.090269215,0.3164671,0.09113177,-0.45201588,-0.11131455,-0.112993896,-0.03928306,0.5576389,0.17649928,-0.3472032,0.010824233,0.13660772,-0.2857605,-0.282175,-0.11428146,-0.2197969,-0.18321638,-0.638756,-0.2717147,-0.2295303,-0.020401105,-0.05560516,0.8021853,-0.36338982,-0.0059157684,-0.14516671,-0.49111396,0.33033425,-0.08584912,-0.05684457,-0.23066258,-0.089283116,-0.38292062,0.3497593,-0.09586798,-0.18869211,-0.008900844,-0.023869853,0.014242263,-0.54202056,-0.5342561,0.23503536,0.1827064,0.30837587,0.0059435666,0.35611373,-0.16040939,0.36656672,0.08758014,0.030926695,-0.32564223,0.19138362,0.23113865,0.61118644,-0.2785114,-0.06670472,-0.06891641,-0.33966625,-0.051447004,0.12248702,-0.09841433,0.08665744,-0.2250812,0.27326816,-0.30186814,-0.102779076,-0.093014896,0.30372983,0.8599385,-0.051448096,-0.2064169,0.02299232,0.20121491,-0.085571244,-0.43510777,-0.18302643,-0.14273818,-0.2884006,0.32408264,0.028676072,0.023638645,-0.22034264,-0.14907369,-0.31496108,0.32579732,0.2334585,0.09309493,-0.10440484,-0.69405687,-0.13282856,0.29405236,-0.019495374,0.28321874,0.17474395,-0.29512066,0.05936793,0.23270458,-0.07319656,0.45598513,-0.36158937,0.2448995,-0.98006016,-0.42460176,-0.026984965,-0.41307133,-0.04019227,0.60343385,0.24664193,-0.13981837,0.06950319,-0.5679784,0.28494832,0.06864898,0.33713967,-0.099033296,-0.20034856,0.84791434,0.0014536809,-0.13017088,-0.055092566,-0.19589974,-0.22449814,-0.542392,0.12762582,-0.44092107,-0.24229503,0.6710527,0.14483094,-0.26803803,-0.22871129,0.25117823,-0.09890391,-0.24986103,-0.33148646,0.001349831,0.4698356,0.12688832,0.25391883,-0.52199286,0.10727295,0.03641373,-0.1002875,0.38342535,0.095560715,0.026331058,-0.04515682,-0.10806894,0.726465,0.057885543,-0.07999899,0.20245646,0.16397475,-0.38202807,-0.38959575,0.08735725,0.26911485,-0.12735572,0.036763567,0.46347898,0.13132629,-0.046588983,-0.32254547,-0.012519192,-0.44966614,-0.017427739,0.35304397,-0.7066058,-0.1311442,-0.1440582,-0.55276823,0.1698624,0.10748353,-0.21001971,0.13577679,-0.08653766,-0.2274753,-0.1727955,0.11331154,0.10106352,-0.41620553,-0.18518004,0.06894041,-0.84064317,0.09964678,-0.040026594,-0.11274724,0.27855536,-0.12080964,-1.0555542,0.44476336,-0.29206902,-0.31592393,0.05527766,-0.3403565,-0.30167192,0.16107425,-0.059723713,-0.08793342,0.39535415,0.03342335,0.5614017,-0.07799588,-0.02384134,0.40470538,-0.1583702,0.04909078,-0.33152753,-0.452285,-0.0110238865,-0.41635254,-0.018082432,-0.21574031,-0.08802073,-0.12028479,0.041675508,0.46369025,0.25884944,-0.09954519,0.08581361,0.13270439,-0.638389,0.27065045,-0.4422481,-0.030671168,-0.3553353,-0.049876243,0.1389428,0.15734085,-0.5054883,0.49329558,-0.29422003,-0.684551,-0.34660894,0.0060165487,0.05356945,0.47518086,-0.230873,-0.28751826,0.2208523,-0.06722287,-0.17150146,0.49155232,-0.1017435,-0.17380676,0.005854115,-0.70661247,0.21383199,0.8468632,0.17708361,-0.01789568,0.3805381,0.14734517,0.048035316,0.3707999,-0.107840806,-0.20250082,0.34417665,0.11597639,-0.5697273,-0.111681715,-0.2099016,-0.047479965,-0.598202,0.65108335,0.29815435,-0.4345585,-0.33513695,-0.31736556,-0.030227937,0.33999437,0.06453104,0.069912165,0.25309953,0.7294555,-0.054106522,0.43447894,0.502387,0.12831247,-0.11785565,0.0077341367,0.25128493,0.14369752,0.12701982,-0.21381687,0.2816106,-0.006825216,0.19838583,-0.1653637,-0.0946797,-0.01129553,0.013047397,0.029652216,0.046842076,0.5061956,0.39088714,0.28227687,0.16559666,0.413683,-0.103698894,0.8262016,0.6157967,0.18851057,-0.09599665,0.2785205,-0.009783311,0.23591736,-0.02821492,0.1786333,0.51104796,-0.01396158,0.595621,0.25747457,0.32458928,0.56063783,-0.6855277,-0.2560688,-0.10674924,0.4528942,-0.40721214,-0.0044057895,0.19666332,0.07044312,0.21540013,-0.41547444,-0.35865352,0.022498297,0.12657392,-0.034921307,-0.112424135,-0.049354136,0.33773035,-0.057672065,-0.32947752,-0.36867228,-0.19530156,-0.27687952,0.09181853,0.079638325,0.111780696,0.02964236,-0.3376686,0.118167385,-0.16462986,0.3830216,-0.095287316,-0.10637925,-0.054352216,0.31497836,0.19336608,0.8773864,-0.1604511,0.15193221,-0.5441699,-0.31873012,0.11619345,0.38180065,-0.02408079,-0.06939319,0.62742794,-0.5021319,-0.21408802,-0.14603965,0.1246227,-0.37281996,-0.04693295,0.04575196,-0.174561,0.08201712,0.2770811,-0.19839351,-0.17381,-0.08608456,-0.4098823,0.045529056,0.04985229,-0.45032018,-0.0669781,0.20874533,0.1263774,-0.16312455,-0.112761796,-0.19798374,-0.18068238,0.026189562,0.3632009,0.014541345,-0.15772271,-0.2981906,0.37298808,-0.14801106,0.24094917,0.3078497,0.3355902,-0.12535372,0.0943116,0.48752916,0.012387823,-0.129172,-0.5362847,-0.064753406,-0.33874857,-0.18218009,-0.24589789,0.1761436,-0.20554549,0.025756389,-0.5258084,-0.27530575,-0.26215765,-0.005854074,-0.10131687
