,0,1,2,3,4,5,6,7,8,9,10,11,12,13,14,15,16,17,18,19,20,21,22,23,24,25,26,27,28,29,30,31,32,33,34,35,36,37,38,39,40,41,42,43,44,45,46,47,48,49,50,51,52,53,54,55,56,57,58,59,60,61,62,63,64,65,66,67,68,69,70,71,72,73,74,75,76,77,78,79,80,81,82,83,84,85,86,87,88,89,90,91,92,93,94,95,96,97,98,99,100,101,102,103,104,105,106,107,108,109,110,111,112,113,114,115,116,117,118,119,120,121,122,123,124,125,126,127,128,129,130,131,132,133,134,135,136,137,138,139,140,141,142,143,144,145,146,147,148,149,150,151,152,153,154,155,156,157,158,159,160,161,162,163,164,165,166,167,168,169,170,171,172,173,174,175,176,177,178,179,180,181,182,183,184,185,186,187,188,189,190,191,192,193,194,195,196,197,198,199,200,201,202,203,204,205,206,207,208,209,210,211,212,213,214,215,216,217,218,219,220,221,222,223,224,225,226,227,228,229,230,231,232,233,234,235,236,237,238,239,240,241,242,243,244,245,246,247,248,249,250,251,252,253,254,255,256,257,258,259,260,261,262,263,264,265,266,267,268,269,270,271,272,273,274,275,276,277,278,279,280,281,282,283,284,285,286,287,288,289,290,291,292,293,294,295,296,297,298,299,300,301,302,303,304,305,306,307,308,309,310,311,312,313,314,315,316,317,318,319,320,321,322,323,324,325,326,327,328,329,330,331,332,333,334,335,336,337,338,339,340,341,342,343,344,345,346,347,348,349,350,351,352,353,354,355,356,357,358,359,360,361,362,363,364,365,366,367,368,369,370,371,372,373,374,375,376,377,378,379,380,381,382,383,384,385,386,387,388,389,390,391,392,393,394,395,396,397,398,399,400,401,402,403,404,405,406,407,408,409,410,411,412,413,414,415,416,417,418,419,420,421,422,423,424,425,426,427,428,429,430,431,432,433,434,435,436,437,438,439,440,441,442,443,444,445,446,447,448,449,450,451,452,453,454,455,456,457,458,459,460,461,462,463,464,465,466,467,468,469,470,471,472,473,474,475,476,477,478,479,480,481,482,483,484,485,486,487,488,489,490,491,492,493,494,495,496,497,498,499,500,501,502,503,504,505,506,507,508,509,510,511,512,513,514,515,516,517,518,519,520,521,522,523,524,525,526,527,528,529,530,531,532,533,534,535,536,537,538,539,540,541,542,543,544,545,546,547,548,549,550,551,552,553,554,555,556,557,558,559,560,561,562,563,564,565,566,567,568,569,570,571,572,573,574,575,576,577,578,579,580,581,582,583,584,585,586,587,588,589,590,591,592,593,594,595,596,597,598,599,600,601,602,603,604,605,606,607,608,609,610,611,612,613,614,615,616,617,618,619,620,621,622,623,624,625,626,627,628,629,630,631,632,633,634,635,636,637,638,639,640,641,642,643,644,645,646,647,648,649,650,651,652,653,654,655,656,657,658,659,660,661,662,663,664,665,666,667,668,669,670,671,672,673,674,675,676,677,678,679,680,681,682,683,684,685,686,687,688,689,690,691,692,693,694,695,696,697,698,699,700,701,702,703,704,705,706,707,708,709,710,711,712,713,714,715,716,717,718,719,720,721,722,723,724,725,726,727,728,729,730,731,732,733,734,735,736,737,738,739,740,741,742,743,744,745,746,747,748,749,750,751,752,753,754,755,756,757,758,759,760,761,762,763,764,765,766,767
10041713.pdf,-0.17428781,0.20605364,0.3892259,-0.058964517,0.54103565,-0.061875347,-0.023279695,0.13197309,-0.1446136,-0.21588945,-0.027582584,-0.33168054,0.09623046,0.21169074,-0.048137628,0.5193704,0.45264566,-0.099882424,-0.19455525,0.32565448,0.2221506,-0.16806424,0.4001742,0.6830926,0.16041625,-0.04842296,-0.01695294,-0.034853294,-0.22382613,-0.023679722,0.45330334,-0.0059185848,-0.18665394,-0.29936787,0.2273564,-0.081150174,-0.32856208,-0.1059833,-0.10145964,0.12844509,-0.33705252,-0.34243083,-0.05580578,-0.13768841,-0.31188452,-0.27176234,0.09194736,-0.070307046,-0.049867243,0.0025510192,-0.14466302,0.31564957,-0.2191571,-0.32645214,0.1646649,0.86924136,0.05907429,-0.43910834,-0.37324262,-0.27549914,0.2957691,-0.19952105,0.19051826,-0.26005328,0.5141323,0.07639831,0.06843631,0.2647859,-0.5818758,0.10273303,-0.29301152,0.20515543,-0.15371971,0.16137019,-0.35356507,-0.23222387,-0.12591028,0.40145153,0.17849633,0.04246561,-0.09029749,0.29976153,-0.35053673,0.31621072,0.19086497,0.3973347,0.30167013,0.21552569,-0.42677975,0.6336727,0.2715944,-0.15663514,0.12252007,0.22575843,0.17416158,0.03713765,0.15403852,0.0020917915,-0.19296944,0.2501654,0.29480004,-0.062196147,0.02952387,0.15514043,0.10497005,-0.09548855,-0.054299187,0.2825092,-0.3102968,0.52490056,0.055145927,-0.26482216,0.036181938,-0.6530012,-0.13804154,-0.08229075,0.06042383,0.038915247,0.16636512,0.28133062,0.14654106,-0.052870855,0.21218143,1.0090082,-0.064588144,0.19844088,-0.11816431,0.47683775,0.038008433,0.034345858,0.014384099,0.14968671,-0.15770094,-0.1889157,-0.22966282,0.18171506,-0.10723959,-0.3466841,-0.29219145,0.25380543,-0.23922807,-0.6492447,0.6470973,-0.014505189,-0.030949596,-0.16175053,-0.06946464,0.04110644,-0.1230103,0.28734884,0.24214315,-0.046587028,-0.32388923,-0.20574838,-0.31906682,-0.00966336,-0.19121268,0.1545628,-0.06474104,-0.0612311,0.16367841,0.08253425,-0.4127816,0.35409698,-0.23175846,-0.14441425,0.052217185,0.3498308,-0.30815053,-0.007937832,-0.048232116,-0.23149768,0.3885454,0.062048465,0.20014417,-0.2346574,0.2792994,-0.18330994,-0.002043794,0.17946257,-0.6650707,0.44755942,-0.0015245657,0.094730884,0.33069724,-0.17778252,0.2705307,-0.27499974,0.23974365,-0.23790476,-0.15455602,-0.4256345,-0.1008943,0.051317964,0.31239128,-0.27420816,0.057625577,-0.06589457,-0.48575372,-0.0029970272,0.33752674,0.35878032,0.20987761,0.062066853,-0.29704008,-0.5094677,0.22256166,-0.19841902,-0.11915764,0.254022,-0.17466179,0.023433615,0.16161023,-0.021993842,-0.07891253,-0.18448009,-0.22648135,0.029023878,0.3669001,0.09071985,0.20656529,0.114815116,-0.4950384,0.6073617,-0.37911665,0.4451539,0.02364203,-1.1282383,0.31363475,0.3691344,-0.028786698,-0.30802828,0.6729873,-0.35779157,0.037203338,0.02668373,-0.29453623,0.048971064,0.17950246,-0.22774325,-0.34944266,0.668149,0.3713504,0.043069996,0.23330027,-0.10805709,-0.26608527,-0.21863602,-0.16363265,-0.2523299,-0.67737746,0.02074331,0.073574044,-0.478921,-0.1765616,-0.40410736,-0.18033592,-0.5466743,-0.1899461,-0.07145005,0.22106674,-0.0038877795,0.011100857,-0.023784988,-0.106330484,-0.53011024,0.12833492,0.24216765,0.22131516,0.17057434,0.11444904,0.03333031,0.11893042,0.6428789,-0.12642592,-0.29183507,0.23959343,0.13770804,-0.12638158,-0.1934495,0.20117158,0.28944284,-0.20094799,0.0827003,0.03841803,0.22480719,0.16456395,-0.1917104,-0.08444105,-0.3589248,-0.13249801,0.1260292,-0.48058453,-0.13680442,0.351273,-0.07066809,-0.07770287,0.083400175,0.23518944,-0.12500606,-0.2734366,-0.055447266,0.06290617,0.11531447,-0.058443535,0.06852607,-0.041354157,-0.44544792,-3.3489184,-0.077465475,-0.069933996,-0.25592974,0.3370064,-0.19314028,0.18914293,0.06284022,-0.41420525,0.12122634,-0.11946438,-0.2936883,0.3213278,0.13606645,0.07987783,0.1579316,0.11406598,-0.25492993,0.017018173,0.38717884,0.013928395,-0.76878244,0.10559157,-0.13091311,0.41692,-0.04863406,-0.5399927,0.06597026,-0.29477635,-0.1919221,0.15587388,-0.2739575,-0.06316606,0.51119566,0.13246557,0.014175313,0.2302265,-0.30598634,-0.17390728,-0.37988317,0.124068886,-0.7514304,-0.11201667,-0.058896843,0.63207865,-0.30274898,0.09402548,0.019437969,0.09721501,0.08020284,0.39770555,-0.06398089,-0.135782,-0.20688373,-0.16440587,-0.21161243,0.48462722,0.19629043,-0.39476925,-0.116176546,0.0049840584,-0.088329494,-0.4984665,-0.34461492,-0.14089327,0.076599196,-0.6360191,-0.41189003,-0.2423388,-0.15303433,-0.09451827,0.5359773,-0.28475145,-0.2586382,-0.19991526,-0.41675562,0.4832048,-0.1770385,-0.21576536,-0.17822993,-0.24471226,-0.48291942,0.18592083,0.064107254,-0.14411728,-0.01232346,0.24465221,-0.19050108,-0.3757568,-0.5179149,0.3676262,0.032675046,0.4808339,-0.0014370736,0.42058378,-0.053599946,0.33773175,-0.08692531,0.13807026,-0.60012007,0.088189796,0.29951772,0.512022,-0.22745112,-0.06629773,-0.12284961,-0.18101613,-0.14977083,0.25092763,-0.32020062,0.20624791,-0.43639302,0.25600252,-0.44518262,-0.099619605,0.060663737,0.20949519,0.7421305,-0.039548986,-0.21292116,-0.2092298,0.22159111,-0.22378385,-0.3790585,-0.16441314,0.07370081,-0.41166,0.51275563,-0.008297661,0.016913965,-0.40393317,0.07267558,-0.049379468,0.27359822,0.12767178,0.2657116,-0.028901082,-0.5545551,-0.07967074,0.2159936,0.21497732,0.21569176,0.23438463,-0.22192612,0.27361837,0.33719513,-0.14177097,0.2901703,-0.1458092,0.11292714,-0.7918252,-0.5032903,-0.1716091,-0.19821286,-0.119271114,0.41541034,0.21974276,-0.15560274,-0.033808198,-0.3552317,0.2876575,0.03294523,0.37834463,-0.032493785,-0.106642574,0.73759735,0.022452287,-0.22407731,0.033022057,-0.0013329433,-0.04413819,-0.042474974,-0.07539839,-0.4614606,-0.24644688,0.48646268,0.13166733,-0.2714904,-0.12506448,0.38595846,-0.12051275,-0.3042559,-0.20339173,0.06386216,0.4269849,0.07683423,0.17980352,-0.5243665,0.08931762,0.2187421,0.09407256,0.36361462,0.0081556775,0.059935607,0.08496539,-0.30258492,0.5764507,0.12657095,-0.23960559,-0.016253933,0.0986277,-0.22944903,-0.2672775,-0.00024483353,0.09102685,-0.28253907,-0.06919294,0.39579248,0.27739835,-0.1412681,-0.50057864,0.033663303,-0.24040884,-0.0146357715,0.08118521,-0.49070948,-0.0062643066,-0.19451723,-0.3921029,0.06046159,0.031123804,0.070434794,0.009505191,-0.047605947,-0.22106943,-0.23551163,0.24575156,0.042900927,-0.30788335,-0.19585761,-0.01710122,-0.7608761,0.19062775,0.014340778,-0.027000647,0.1631256,0.02637726,-0.73866034,0.24627551,-0.21324912,-0.4362948,-0.084387794,-0.30522513,-0.43972796,0.13851106,0.032538317,-0.09423278,0.4734972,-0.23008828,0.537082,0.022627432,-0.015549125,0.015448796,-0.20611678,0.06695338,-0.6022335,-0.3624894,-0.061499875,-0.09111801,-0.23678295,-0.39864892,-0.0018236414,-0.21735203,-0.16801783,0.32702544,0.24527942,-0.31275368,-0.08834486,0.12464423,-0.39892036,0.29586324,-0.3701353,0.019167563,-0.46602827,0.19741686,-0.035386708,0.111500986,-0.30430466,0.67568576,-0.31678748,-0.3860336,-0.09973025,0.2033583,0.17015092,0.40668046,-0.33619517,-0.10807628,0.28214735,0.0374818,-0.045824558,0.4203514,-0.20119616,-0.2832072,0.06203025,-0.61081076,0.20948935,0.73975444,0.32211202,0.17097534,0.14335088,0.053463805,0.0281807,0.29430848,0.09129363,-0.22300999,0.46023977,0.23213008,-0.408267,-0.117385864,-0.14158845,-0.12179767,-0.45674717,0.6905674,0.19501631,-0.4257261,-0.46567178,-0.32583058,-0.096324526,0.18176356,-0.06573399,0.14811662,-0.07900347,0.5800332,-0.03209749,0.34617192,0.5648272,-0.2487753,-0.1946916,0.068970874,0.27963728,0.2038171,0.16465798,-0.3071044,0.22419047,0.05634688,0.25276127,-0.34230298,-0.10086336,0.13072121,-0.03739617,0.09412104,0.09343765,0.37770092,0.34757164,0.32660824,0.3038525,0.24070129,0.013191836,0.5689117,0.57665694,0.048726927,0.11901435,0.2737361,-0.13459817,0.2613031,0.05248576,0.08164283,0.42152208,0.15380119,0.82529974,0.33678162,0.3538226,0.6492578,-0.45592168,-0.23564863,0.059008837,0.3991469,-0.45061862,-0.20304829,-0.04955309,0.026288753,-0.06161735,-0.48734254,-0.2434322,-0.2102781,0.20061348,0.012889679,-0.1519238,-0.06078042,0.15265986,-0.05810715,-0.23766448,-0.28820327,-0.26602238,-0.17679812,-0.15771455,-0.17485972,-0.0173596,-0.014535945,-0.2254996,-0.15797913,0.07767014,0.20185807,-0.080187984,-0.20429474,-0.12264461,0.30187362,0.07950481,0.671738,0.04488892,0.26829863,-0.24085592,-0.02121676,-0.056434695,0.29384384,0.13447765,-0.019054934,0.56678563,-0.3568293,-0.10243088,-0.22978684,0.36686426,-0.3387158,0.06344796,0.005193143,0.008996163,-0.097343095,0.08726892,-0.31646693,-0.11357273,-0.10649355,-0.4369905,0.08746431,-0.049133066,-0.29892886,-0.09921225,0.2730464,0.090047434,-0.1325123,-0.1108472,-0.09561627,0.12724206,0.078351825,0.2968717,-0.334227,-0.042475805,-0.2707648,0.30624104,-0.25423926,0.25148827,0.24505562,0.35108137,-0.118778944,0.13446718,0.39732823,-0.20386535,-0.17429502,-0.41625682,-0.003172271,-0.07536275,-0.0112045575,-0.009420937,0.29050392,-0.1848934,0.028596643,-0.3490011,-0.18229686,-0.39371857,-0.015787406,-0.17510895
10100240.pdf,0.019658277,0.4253189,0.3222206,0.028769225,0.78735507,0.16862403,0.05328582,0.1630126,-0.08569338,-0.44083947,0.08751586,-0.2361989,-0.029723998,0.11101025,-0.13174242,0.66858935,0.28874713,-0.12824087,-0.3061451,0.4883297,0.17062737,-0.35313946,0.19888878,0.66730756,0.19411248,-0.042082395,-0.09721591,-0.13361837,-0.21420097,-0.15564063,0.4990239,0.04230894,-0.0442185,-0.4959861,0.24138403,-0.1155851,-0.1379214,-0.04956281,-0.20300949,0.26532096,-0.4258857,-0.06464467,0.14777556,0.0382872,-0.23370294,-0.09353443,0.2077373,-0.19336785,-0.002273783,-0.11831306,-0.20584705,0.3265159,-0.09204841,-0.23021667,0.2704929,0.73637414,-0.03214907,-0.48110884,-0.35723034,-0.33747008,0.08117397,-0.12746571,0.19557735,-0.08386801,0.25147566,-0.08220913,0.08318641,0.27713597,-0.4743262,-0.055456065,-0.3329373,0.09506768,0.14935198,-0.2072765,-0.21638201,-0.07880377,-0.08977728,0.32116765,0.030032933,-0.08846699,-0.22737172,0.25614914,-0.2524049,0.3914977,0.3126831,0.31041163,0.26571888,0.12667418,-0.24960357,0.638579,0.30379435,-0.11881603,0.3440538,0.13560402,0.18500903,0.17885962,0.0060277767,0.31484184,-0.06200265,0.24872445,0.20343873,0.2944719,0.17648089,-0.0049936865,0.18252611,-0.2031346,0.05586274,0.4242404,-0.3330567,0.28894272,0.31441274,-0.32065716,-0.22651677,-0.4296167,0.029293574,-0.121893674,0.17895812,0.13289116,0.028156297,0.23242006,-0.1306331,-0.26181376,0.0046966095,1.1520696,-0.05596478,0.023276158,-0.25339073,0.4344529,-0.03242343,-0.069108605,0.038683098,0.32049072,-0.19835797,-0.072875306,-0.2287552,0.36264643,-0.29205817,-0.31168503,-0.17579158,0.29766053,-0.3054371,-0.6559724,0.6614747,-0.07473043,0.03340633,-0.17361121,0.14333095,0.08851322,-0.1439623,0.5429444,0.40299857,-0.11643462,-0.21429226,-0.19161925,-0.16115439,0.044147767,-0.14380793,0.03552222,-0.3330831,-0.23511672,0.29499558,0.26812422,-0.3509733,0.2524532,0.050203655,-0.09086092,-0.24122092,0.26828524,-0.11621135,0.33721375,0.07691854,0.24236557,0.5286609,-0.071870446,0.13928913,-0.19643907,0.219999,-0.16728342,0.05027384,0.099843964,-0.23407704,0.4987965,-0.10546658,0.23875108,0.45305783,-0.22529423,0.41096362,-0.25565848,-0.04024972,-0.40840077,-0.17507762,-0.5388645,-0.17278118,0.18717597,0.25839806,-0.0897285,0.17549609,0.20716467,-0.53376377,-0.11610652,0.35863197,0.3473099,0.094601646,0.18747917,-0.26757658,-0.47685868,0.29195553,-0.20347345,-0.093487255,0.06069969,-0.108022295,0.09218031,0.11206778,0.33802882,-0.0860773,0.01452139,-0.12510619,-0.12082308,0.17161354,-0.06471914,0.08269658,0.18326387,-0.44836506,0.48338634,-0.41970176,0.5308628,-0.20813245,-1.0345862,0.1937975,0.28931525,0.05474382,-0.2875266,0.5030104,-0.33703798,0.031025317,-0.06550418,-0.16264889,-0.16753773,0.30089283,-0.42315805,-0.29791883,0.53021044,0.4075361,-0.055810798,0.0957067,-0.13213615,0.09565468,-0.01641693,-0.10222891,-0.010656839,-0.66785586,-0.0023086127,-0.11953502,-0.47866672,-0.11775018,-0.61125994,-0.23116224,-0.47567594,-0.09543277,-0.108789295,0.33343688,0.15570587,0.0119409,-0.07635702,-0.057592936,-0.67485356,0.036718972,0.3193938,0.36371434,0.33966106,0.0059808977,0.08552505,0.0034301467,0.5558939,-0.3099664,0.079709575,0.16339812,0.047875896,0.0034305472,-0.16549009,0.058814406,0.317691,-0.15428673,0.038469102,-0.118274465,-0.075082034,0.20697969,0.07464438,-0.37492752,-0.2794938,-0.07763758,0.15416607,-0.5303688,-0.28376517,0.4764779,0.124834135,0.035255767,0.020391688,0.39303505,-0.16388407,-0.24148354,-0.20766374,0.080543146,0.11730996,0.13684984,0.07302119,-0.10592974,-0.7130427,-3.5816932,0.07204132,0.22228914,-0.32155898,0.47315213,-0.007247021,0.059898995,0.15125,-0.51620245,0.07486465,-0.14023566,-0.084129885,0.37372112,0.37959164,0.32997063,-0.021614823,0.074107766,-0.3393372,-0.018631943,0.32046992,-0.14303508,-0.88106644,0.15008062,-0.11636959,0.3007176,0.07014927,-0.48810208,0.04124417,-0.31741965,-0.08897976,0.10560129,-0.05532668,-0.33160332,0.34599566,0.20428933,-0.118040025,-0.01584139,-0.29689753,-0.15795563,-0.49046046,0.059335586,-0.8178505,-0.3443817,-0.091307975,0.6272315,-0.059074134,0.23055083,-0.32984266,0.13953651,0.09109037,0.22574994,0.10575229,0.025248744,-0.22851373,-0.034165103,0.017962102,0.79257166,0.2172681,-0.495321,-0.20156696,-0.083248466,-0.23517337,-0.36004895,-0.00048677064,-0.18575886,-0.046110712,-0.78020275,-0.23517364,-0.24799025,-0.27376708,-0.25092304,0.7470697,-0.23988307,-0.24615186,-0.06999893,-0.4386639,0.18336716,-0.37795264,-0.1324487,-0.26321834,-0.17484294,-0.3065927,0.112881415,0.013979679,-0.2151337,0.15028195,0.016906634,-0.24505195,-0.61295533,-0.570121,0.36832935,0.13978633,0.13757028,-0.13618825,0.3884455,0.1842356,0.39200932,-0.042856984,0.28521985,-0.5353602,0.0015309826,0.09720752,0.839036,-0.30253422,0.13569684,-0.091670066,-0.242282,0.03108201,0.23228788,0.024086675,0.16848016,-0.3326707,0.2761109,-0.2961526,-0.22886948,-0.14091927,0.2663551,0.5952132,-0.20569947,-0.28052014,-0.025133695,0.1471968,-0.2617961,-0.17086294,-0.010629191,0.04369669,-0.04455677,0.3863928,0.021999933,-0.119013414,-0.10387077,-0.029088188,-0.2290766,0.29352903,0.10120373,0.16338065,-0.17739555,-0.72215486,-0.34486374,0.31534445,-0.140909,0.06282362,0.1277444,-0.31619948,0.13870874,0.51948047,-0.1741431,0.24831721,-0.19483,0.15595083,-0.7220375,-0.48595017,-0.34524775,-0.43603605,0.21804792,0.5287639,0.09929472,-0.033304933,-0.033754498,-0.66146183,0.17200789,0.062324632,0.42546934,0.07804904,-0.2418808,0.5534568,-0.101788595,-0.24365658,-0.24935545,0.031573996,-0.19890095,-0.14699401,-0.024201272,-0.41829023,-0.05052384,0.55585146,0.21727988,-0.20035848,-0.11265923,0.109832555,-0.09706575,-0.103318945,-0.06312063,-0.018937314,0.12561722,-0.094905384,0.3357195,-0.3859128,-0.055909388,-0.04068346,0.18764263,0.10405993,0.13007243,0.27842915,-0.10676399,-0.0132122785,0.56392395,0.3296998,-0.027773438,0.06964885,-0.07216121,-0.3299033,-0.50994694,0.04751611,0.107845396,-0.13952498,-0.014877918,0.33652344,0.029326344,0.09001236,-0.20784351,0.06226255,-0.38541058,0.14176717,0.07639587,-0.6642834,-0.046187546,-0.069581315,-0.5556654,0.090996385,0.23167312,0.033395596,0.12527086,0.0228505,-0.16656008,-0.22239166,0.04136912,0.05192783,-0.21242264,-0.10815348,0.122817315,-0.9437337,0.13178925,-0.024955995,-0.06450439,0.11696318,-0.147435,-1.0859215,0.23826848,-0.3368225,-0.01876967,-0.04855372,-0.12400355,-0.34180275,0.008201478,0.034335945,-0.35146284,0.362265,-0.033590883,0.5782911,-0.031349048,0.0037442744,0.1854181,-0.23570153,0.021162491,-0.39262322,-0.3705747,0.03530014,-0.10327741,-0.227952,-0.38644403,-0.13834448,-0.29451257,0.36600086,0.41643906,0.14942546,-0.19012369,-0.035919197,-0.03295001,-0.5369582,0.24295217,-0.14109516,-0.0846394,-0.4037904,0.2665925,-0.025749166,0.17683807,-0.3560964,0.7917758,-0.30456114,-0.5568806,-0.11065832,-0.030150002,0.054974988,0.21313164,-0.24271747,-0.11853346,0.15517357,-0.23018023,0.04486757,0.48470068,-0.2073955,-0.19135389,-0.07946569,-0.4451177,0.34842965,0.6738118,0.43281,0.22143482,0.21879113,-0.13321346,-0.09185237,0.17488356,-0.014076807,-0.30455196,0.26221806,0.11325027,-0.406457,-0.19639829,0.12264776,-0.06079567,-0.5243201,0.7295846,0.25985074,-0.31824756,-0.5371015,-0.17448038,-0.18362683,0.19307953,0.07870901,0.014441755,0.021057442,0.5769601,-0.01139909,0.29430643,0.60346854,-0.09138525,-0.26687664,0.098484166,0.13475333,-0.042273737,0.37697232,-0.061424453,0.22791252,0.055704392,0.041655444,-0.42498603,-0.21695049,0.21515882,0.09693922,-0.157063,-0.012332719,0.61551505,0.57686543,0.37361023,0.23532939,0.205062,-0.08651992,0.5507401,0.6396788,0.0022407398,-0.14111325,0.28084493,-0.044489376,0.21131489,-0.24187547,0.3197052,0.5079315,0.041975025,0.5385971,0.2107268,0.33066636,0.39975858,-0.61282,-0.3544736,-0.12644504,0.5341021,-0.3859859,-0.13012546,0.20505705,0.05663486,0.03025637,-0.47605377,-0.21935347,-0.16917297,0.03923219,0.07309091,-0.14807688,-0.044945173,0.10576287,0.11880681,-0.2228967,-0.32219517,-0.2934184,-0.44336656,0.32972938,-0.05548803,0.0039369958,-0.017043287,-0.19001417,-0.19079033,0.033314604,0.18766385,-0.07731645,-0.28835908,-0.15847093,0.24001214,0.1193482,0.6447511,-0.118862495,0.06560221,0.046847623,-0.15571743,0.020155251,0.19170144,-0.062531225,-0.06896496,0.42555422,-0.15786943,-0.0077798036,-0.28577068,0.286972,-0.23646273,-0.05364318,-0.088008136,-0.1865125,0.06437124,0.009255264,-0.26564452,0.044371888,0.13411437,-0.50979877,0.027797263,0.2654051,-0.40684646,0.041083276,0.1702891,-0.03246438,0.024714861,0.08388292,-0.25775668,0.18014574,-0.23578455,0.092481226,-0.10533042,-0.14387242,-0.33507812,0.16932873,0.12861425,0.13211885,0.2148175,0.17052355,-0.22244683,0.01119031,0.5987127,0.009131134,-0.28539324,-0.3173502,-0.16123962,-0.23399517,-0.12348516,-0.102475874,0.23308349,-0.016725594,0.13967673,-0.37186453,-0.32567233,-0.19755925,-0.1750461,-0.19229975
10149490.pdf,-0.103367984,-0.21175545,0.8099596,-0.19374755,0.73678505,-0.2988936,0.015944608,0.10194659,0.08900726,-0.0058877952,-0.25677824,-0.16391113,-0.34026036,0.13155843,-0.039595928,0.4517969,0.3769635,-0.02271263,-0.16571787,0.21729964,0.51428103,0.21160829,0.27574188,0.2935075,0.2637117,-0.060768604,-0.10935101,-0.14968672,-0.32699907,-0.08997038,0.5200577,-0.3753242,-0.27545404,-0.414562,0.075757354,-0.15886393,0.19271925,-0.21820302,0.14186275,-0.19771591,-0.59242773,-0.3497867,-0.037524246,-0.27039722,-0.35783184,-0.18920238,0.17439637,-0.1475099,0.054524865,0.06948647,-0.5385077,0.3091731,-0.0688688,0.00016565435,0.092509374,0.72764695,0.10092096,-0.5976336,-0.69133437,-0.68945503,0.28334826,-0.26390642,0.23595685,0.05998371,-0.1638308,-0.1198978,0.33193177,0.32286358,-1.0015489,-0.11562136,-0.29938418,-0.1360898,-0.024086159,-0.14594632,0.16508767,-0.12705383,-0.11290384,0.34146494,0.20264804,0.3860745,-0.34174353,0.31693727,-0.35279238,0.42777634,-0.18140298,-0.006581789,0.007010743,0.05761844,-0.55839765,0.8441801,0.30243593,-0.3812679,0.37990633,-0.2954535,0.341551,-0.47358477,0.3245222,0.29609197,0.0026931018,0.4004806,-0.020670388,-0.6305033,-0.11719702,-0.08577212,-0.31924593,-0.31107777,-0.10268875,0.46070528,-0.3369483,0.52710867,0.06872472,-0.3566574,0.051426962,0.02569554,0.39482647,0.1310579,-0.056741573,0.15539058,0.1589359,0.2747215,-0.015798757,-0.26452407,0.25695062,0.4186697,-0.15567318,0.42187792,-0.29046774,0.27785018,0.10076818,-0.4199265,-0.16592203,0.30491948,-0.06632902,-0.010199681,-0.19153802,0.031677656,-0.6779889,0.15102646,-0.25749335,0.1291077,0.6755196,-0.87804306,0.36866072,0.14389436,-0.20500946,-0.5279908,-0.33201128,-0.34834337,-0.044979412,0.3800959,-0.046305176,0.1395615,0.089577876,-0.40705004,-0.047224056,0.31475765,-0.38991022,0.070506826,-0.40119737,0.022382347,0.2587558,0.34160337,0.031529102,0.13893063,-0.42438543,-0.3578025,0.14370811,0.44653457,-0.28015673,-0.2620601,-0.20086232,-0.72881794,0.8422814,0.03935545,-0.2331022,0.08753449,0.41646516,-0.45262164,0.26501018,-0.108650245,-0.50918454,0.82938075,-0.31921414,-0.014009707,0.15719832,-0.14697103,0.07178658,-0.1762704,0.15528348,-0.104309544,-0.05245517,-0.61778075,-0.2549884,-0.2243386,0.46093085,-0.36899,-0.063146815,-0.39532715,-0.19037896,-0.4711812,0.34787756,0.17409763,0.4217806,0.34034806,-0.19775063,-0.030284034,0.31086555,-0.24353245,-0.30208057,-0.20327316,-0.11905338,0.11966228,0.044833466,0.17120215,0.06710762,0.30502576,0.18586165,0.13112505,0.18852362,-0.06430804,-0.11082173,-0.090229586,-0.45212927,0.48334882,-0.35074124,0.58921885,0.3037045,-0.9751291,-0.13791284,0.3125952,-0.27873576,-0.7003334,0.42813718,-0.24793923,-0.007872863,0.25728202,-0.15729854,0.16949847,0.051029805,-0.50212735,-0.11670577,0.6813407,0.20068353,0.4021557,-0.29169935,-0.33940214,-0.1656566,-0.6859846,-0.05512173,-0.30678788,-0.31094795,-0.11427771,0.34986782,-0.29155803,-0.14538428,-0.25222564,0.16836941,-0.18496114,-0.15364473,0.10584976,0.3101381,0.043059096,-0.3608926,-0.18667284,0.22268891,-0.47454506,0.09624438,0.44055513,0.50665677,0.16325419,-0.043966487,0.16673678,0.15606594,0.4989606,-0.46644828,0.056810495,0.55868953,0.12981963,-0.15394469,-0.015973048,-0.2065795,0.47704303,0.004114393,0.17499804,0.2076902,-0.3008183,0.26319796,0.3304374,-0.1563771,-0.36443198,-0.03397008,0.7024148,0.018955924,-0.32438365,0.32702935,-0.025844354,-0.021307388,0.16001666,0.11022536,-0.010556793,-0.4333893,-0.523089,-0.26157805,-0.24188578,0.2985175,0.35043862,-0.2639455,-0.15074885,-3.6776092,-0.15877715,0.024270577,-0.11936289,0.08647023,-0.53442895,0.22544877,0.11036265,-0.6187544,0.24914977,-0.20988032,-0.011045383,0.36390105,0.47802395,0.5170568,0.2782194,-0.042610444,-0.34616065,-0.47352076,0.5278053,-0.4649583,-0.52739054,0.38696197,-0.07684351,0.43703723,0.42516655,-0.1837978,-0.03675225,-0.70354825,0.2040015,-0.36700505,-0.057501998,-0.4250055,0.3322304,0.0024745613,-0.035292916,0.27954957,-0.4195405,-0.20390143,-0.2659543,0.04303421,-1.1132399,0.16180573,-0.04253501,0.691952,-0.007361395,0.10842602,0.028252054,0.005111117,0.482561,-0.16931514,-0.05732058,-0.10639934,0.0032754028,-0.21858382,-0.33146337,0.7558235,0.37093592,-0.41630274,-0.4339941,-0.1003865,-0.028244317,-0.4626491,-0.024545316,-0.49999392,-0.33072218,-0.22703782,-0.061722565,0.0066999923,0.35643393,-0.14454688,0.8393537,-0.36192203,-0.17109865,0.14058219,-0.053855952,0.08849914,-0.15471879,0.07053101,-0.085956275,-0.17363688,-0.457245,-0.019838564,0.11480275,-0.13507521,-0.015258195,0.4156133,-0.21520324,0.034508828,-0.10118186,0.5388112,0.29548395,-0.0187786,-0.18872508,0.2514001,-0.0579696,0.60264343,-0.9629198,0.030747555,-0.45742202,0.116220556,-0.18203907,0.3603414,-0.19900109,-0.14524066,-0.08903293,-0.6018321,-0.06720001,0.06831504,0.015577,0.60472065,-0.11812827,0.5572387,-0.7542467,-0.42355,-0.19262677,0.0059562027,0.50819457,0.2895726,0.02452302,-0.097478956,0.33590826,-0.28580236,-0.41078317,-0.300627,0.036679227,0.017981471,0.025952969,0.13030177,0.069013424,-0.5147794,-0.17716101,-0.22068301,-0.12992495,0.16472867,0.26144093,-0.10390912,-0.26302928,0.10703056,-0.10024506,0.5232341,0.3248252,-0.44339558,-0.06354778,0.049954772,0.49350813,0.00726074,0.2681169,-0.4322604,0.20933202,-0.5130715,-0.44696334,-0.14445245,-0.3161309,-0.17791933,0.056481004,0.35269338,-0.040693212,-0.42385107,-0.64775825,0.26160735,0.2152736,-0.13995142,-0.040739037,0.28036863,0.98274916,0.26915547,-0.012522979,0.27822047,0.16014108,-0.12600479,0.072951406,-0.15840253,-0.4452678,-0.16808356,0.42167157,-0.020266972,-0.6396444,0.11362618,0.28379056,0.41693836,0.025398057,-0.11519459,-0.3415895,0.15463346,-0.101371326,0.41387263,-0.28667986,-0.0025936628,0.09202312,0.38853884,0.03412619,-0.14087158,0.14099556,0.06623102,0.21783207,0.52155244,-0.15046929,-0.02972484,0.24350841,0.06958617,-0.21030667,-0.59929967,0.21283148,0.13085377,-0.14071003,0.27740818,0.18320237,0.3845047,0.32937974,-0.6146537,-0.2739885,-0.10325935,0.014851011,-0.21925545,-0.77416635,0.08159816,0.08631983,-0.22842176,0.05786568,-0.21638972,-0.11310817,-0.1133073,-0.054040864,-0.10438212,0.04518448,0.20407617,-0.043109186,-0.13730444,-0.38305908,0.34240896,-0.55716974,0.045502,0.275657,-0.45911717,0.011167984,0.10888237,-0.6282729,0.25483868,0.046822365,0.21377888,-0.017796077,-0.33595362,-0.16475692,0.0704497,-0.2137,-0.46061584,0.4360937,-0.01698615,0.6405629,-0.13986115,0.18454596,0.09084451,-0.34829468,0.1735313,-0.26481676,-0.11536889,0.39301196,-0.07292679,-0.27669472,-0.35574797,-0.0105369175,-0.1335222,0.034653075,0.35435003,0.6963988,0.089902565,0.20495364,0.06569296,-0.20802633,0.057588365,-0.2834917,-0.30017734,-0.19274399,0.19709313,0.12818353,-0.03668691,-0.42355713,0.28376228,-0.5316479,0.11937517,-0.121057525,-0.026745997,0.3853088,0.17126766,-0.36881983,0.009286426,0.2822935,-0.050596207,-0.11047396,0.09326051,0.095282465,0.110871606,-0.180857,-0.46325445,-0.0028068684,0.7170209,0.3562184,0.030207792,0.22250652,-0.03641913,-0.090111144,0.09393865,0.061485376,-0.19456445,0.13625063,0.49392813,-0.88840294,0.12462976,0.2945257,-0.25630993,-0.3948903,0.57774466,0.14203878,-0.221739,-0.54783386,-0.13485906,-0.005484783,0.28981566,0.061470475,0.39185527,0.25422695,0.9216722,0.20101115,0.46568257,0.5798886,0.039163247,0.166296,-0.29071492,0.3540799,0.49968886,0.313783,-0.40555418,0.33752352,-0.45931056,-0.109737456,-0.019119505,-0.07976964,0.05156715,-0.20371242,-0.05917413,-0.023458164,0.6468756,-0.00234868,0.3821485,0.14229727,0.23136093,-0.30986312,0.80655336,0.8648344,0.21411629,0.17588636,-0.007061635,-0.488368,-0.12040273,0.19477235,0.31266207,0.596773,0.16456762,0.18450063,0.18512675,0.513888,0.74383646,-0.37793916,-0.18582165,0.20378323,0.40982276,-0.32342285,-0.20055182,0.06484154,-0.02382593,0.10264167,-0.26914695,-0.16061524,-0.2847461,0.30096358,0.23392317,-0.23692766,-0.020908685,0.16304952,0.0057312287,-0.09343122,-0.2616647,-0.29855418,0.17385344,-0.13527119,0.1273599,0.49203992,-0.11599589,-0.056798525,0.55898356,-0.08339277,0.2630684,-0.3608498,-0.25289932,-0.37937993,-0.1077618,-0.066993654,0.76237905,-0.30321848,0.32885826,-0.3956884,-0.08051645,-0.122183114,0.5387031,-0.27491885,-0.39535877,0.4977758,-0.58926105,0.035033323,0.28369996,0.14429444,-0.14443435,0.1321212,-0.06791568,0.43184492,0.045986786,-0.041387856,0.081754796,-0.031304285,0.03328136,-0.5901097,0.15711175,0.18744014,-0.24541938,-0.24873465,-0.017162241,0.14474283,-0.24625123,-0.17380604,-0.3165444,0.6014078,0.20913428,0.07416444,-0.29665107,-0.3361841,-0.23287371,-0.15585199,0.02306547,0.27602535,0.12806302,0.60358465,-0.32566476,-0.21176717,0.10856585,0.18317044,-0.24347185,-0.51179475,0.17163736,-0.42185676,-0.23334463,-0.4264961,0.15846205,-0.48724997,-0.16630115,-0.42922908,-0.15236804,-0.10061054,0.27119908,-0.24983016
10176013.pdf,-0.30969685,0.2587375,0.2726556,-0.005212151,0.6465881,0.14245954,0.14427453,0.1378472,-0.1186728,-0.3683669,-0.03352377,-0.11651766,0.029085612,-0.11842245,-0.055977006,0.5678935,0.46897352,-0.04736755,-0.202239,0.24909164,0.19575346,-0.29166704,-0.007868987,0.66760534,0.14399065,0.030521613,-0.15249732,0.03493289,-0.22594485,-0.18557602,0.35197073,-0.09745501,-0.100487724,-0.27153793,0.13156569,0.11927942,-0.04746043,0.08095094,-0.19308124,0.21802413,-0.43217072,-0.01251702,-0.008975748,-0.0732756,-0.2864806,-0.20369497,0.3236368,-0.21318837,0.09010837,-0.043414872,-0.32483506,0.4471507,-0.2408613,-0.19104576,0.13623112,0.6835129,0.051527195,-0.4633475,-0.4006651,-0.3578652,0.20484972,-0.14229918,0.3017748,-0.1495972,0.3247151,0.07965763,0.15559894,0.29716364,-0.62979287,-0.04107583,-0.3962886,0.16711845,-0.06637455,0.023638876,-0.3281565,-0.2400862,0.047652964,0.33395952,-0.07019262,0.21368185,-0.304399,0.41993102,-0.21888372,0.17248996,0.12547795,0.22411439,0.42840627,0.09828214,-0.33158663,0.6889827,0.3264123,-0.20887813,0.29179287,0.08403826,0.1285887,0.081462786,0.15279463,0.19779395,-0.227912,0.15594277,0.16096126,-0.0031771883,-0.054711886,0.06568,-0.02375969,-0.029604597,0.06273647,0.3123018,-0.5150517,0.47410303,0.08530262,-0.22924328,-0.20700654,-0.558291,0.040725227,0.047588266,-0.06476079,0.03510175,0.083950214,0.18172097,0.05978182,-0.17375186,0.108379826,0.8474685,-0.08634146,0.10846527,0.07565634,0.29998168,0.019110296,-0.1927968,0.046977438,0.33764693,-0.10737282,-0.14518985,-0.28593868,0.24516669,-0.1616256,-0.15732583,-0.29332823,0.15730135,-0.11925773,-0.7649659,0.6930555,-0.15190935,0.015243236,-0.18862695,0.24024746,-0.09692037,-0.17835909,0.4611796,0.34337917,0.024652243,-0.17651,-0.21903418,-0.05569646,0.072885096,-0.10045424,0.03751883,-0.27154502,-0.20604807,0.30838153,0.25525472,-0.44303006,0.19406298,-0.06473357,0.05068803,-0.18335855,0.37924802,-0.06417788,0.28278983,-0.031151317,0.14255601,0.70002484,0.14295544,0.22016291,-0.060099434,0.28263527,-0.1234317,0.23284522,-0.07106517,-0.40072516,0.41904405,-0.056844886,-0.0007459242,0.30861944,-0.25903267,0.5105307,-0.37997013,0.03540988,-0.37794608,-0.17016219,-0.43591118,-0.21496372,-0.013252731,0.18843737,-0.09895001,0.042742204,0.0335263,-0.4894223,-0.15393774,0.4712386,0.23853526,0.28496897,0.13147134,-0.068146385,-0.57547426,0.27606183,-0.30288285,-0.29795533,0.27376562,-0.21858221,0.1386428,-0.061812326,0.1393725,-0.24148835,0.06903578,-0.12642479,-0.091340646,0.30300114,-0.025973309,0.28556606,0.20939267,-0.45688355,0.42848063,-0.4808491,0.28596148,-0.059572067,-0.8764975,0.35834748,0.3122398,-0.055265132,-0.34060848,0.6073824,-0.3778457,0.08627401,-0.031505592,-0.35552686,-0.13696319,0.36332157,-0.32295975,-0.28317922,0.5503554,0.28837967,0.093553,0.1264809,-0.025053505,0.00019177794,0.032826923,-0.16069572,0.012831625,-0.7402264,-0.010492656,0.026047312,-0.46086907,-0.12885529,-0.549598,-0.00890434,-0.4638421,-0.28976554,-0.03052365,0.17740484,0.20324072,0.13156164,-0.0012987964,0.0075977454,-0.68054587,0.21758848,0.22090298,0.18399914,0.44547305,0.04170525,-0.120189555,0.06899731,0.5358499,-0.3606762,-0.16890994,0.18921702,-0.016111538,-0.10484218,-0.1214135,0.26968732,0.29235086,-0.17240585,-0.0775857,-0.088819325,-0.099466205,0.3843935,-0.108930014,-0.27790192,-0.27098867,-0.3533963,0.061278835,-0.52983177,-0.29991034,0.42920065,0.046000373,0.024929494,0.24838737,0.19058211,0.06724741,-0.23534998,-0.34100688,0.17304412,0.07281672,-0.024995476,0.11996799,-0.14431131,-0.5490889,-3.6594934,-0.110298485,0.12907392,-0.4672191,0.29833093,-0.019391108,0.20866916,0.08383505,-0.4257135,0.035037965,-0.13521022,-0.23952304,0.21030085,0.34382802,0.2736183,-0.11879684,0.097552,-0.35025585,0.007563155,0.30493265,-0.06941794,-0.8706924,0.07200186,-0.11230442,0.37806556,0.2568128,-0.6078903,0.057071242,-0.4340872,-0.20065789,0.20917705,-0.10307579,-0.1650311,0.30666348,0.22280663,0.0011427756,-0.0038695205,-0.19772474,-0.008455015,-0.5451925,0.033964437,-0.85187656,-0.36950433,-0.045499086,0.7016653,-0.030153085,0.33166948,-0.2520452,0.15622562,0.03887578,0.29753226,0.12241377,-0.052058764,-0.13711861,-0.042243615,-0.0050513186,0.72317684,0.22852592,-0.42579192,-0.07874284,0.103443034,-0.32446492,-0.35541964,-0.0097597465,-0.3167074,0.09266108,-0.48349297,-0.3033443,-0.30643034,-0.14465919,-0.017643124,0.6997379,-0.24255507,-0.3459059,-0.17088202,-0.4818171,0.20490192,-0.3243437,-0.010040484,-0.22345299,-0.24959835,-0.49639258,0.11820363,0.013008774,-0.14350668,0.17651068,0.09597561,0.059730057,-0.6191278,-0.61068213,0.21279734,-0.008752452,0.2958905,0.0044426527,0.29286736,-0.13510981,0.47474533,0.02134841,0.17514363,-0.51165926,-0.10568291,-0.04077267,0.6710768,-0.22459719,-0.012912826,-0.041327074,-0.37523773,-0.10162813,0.28409573,-0.078457594,0.20492083,-0.22278424,0.29295677,-0.40888798,-0.03124541,-0.031604163,0.22896424,0.7690321,-0.16086185,-0.1682589,-0.16219258,0.21851681,-0.12798823,-0.042689353,-0.040740944,0.03750745,-0.28619182,0.3302644,0.1449559,-0.04325387,-0.24844047,0.103448376,-0.14521015,0.2942248,0.15868664,0.07443636,-0.12178917,-0.4994418,-0.05684435,0.2431722,0.055179596,0.41326022,0.035024054,-0.28681177,0.14895384,0.3893693,-0.13988242,0.31225893,-0.11843191,0.2032342,-0.60579705,-0.3424512,-0.20540613,-0.47640723,0.012209365,0.45717448,0.027081704,-0.08316849,0.023789078,-0.5136007,0.1329785,0.100598305,0.38116467,-0.016251981,-0.23902169,0.58362937,-0.21830866,-0.15095739,-0.23287638,0.1022117,-0.05766542,-0.20469749,0.2548868,-0.42234126,-0.081933245,0.4383162,0.22437298,-0.11816217,-0.06362368,0.4186364,-0.17871054,-0.34392375,-0.1365231,-0.010645604,0.07822414,-0.12075207,0.2613117,-0.4226266,-0.0013107099,0.11080868,0.056684133,0.07032377,0.0036540385,0.081596956,0.02347959,-0.03959568,0.6259072,0.29517606,-0.06542473,0.07923967,0.07190976,-0.4013087,-0.46726713,-0.09758861,0.17159641,-0.106438,-0.082963645,0.21684736,0.036711894,0.0017654132,-0.49402416,0.08080724,-0.5733511,-0.044247214,-0.0010534208,-0.58289164,-0.1283035,-0.17183931,-0.39913195,0.13739043,0.1721717,0.02333425,0.1336058,2.0544976e-05,-0.1385132,-0.2769732,0.050451417,-0.0144898,-0.2252017,-0.08365229,-0.009187471,-1.1126592,0.16376412,-0.028798312,-0.07867925,-0.05116594,-0.09131113,-0.83198905,0.2676334,-0.28495905,-0.112295285,0.06515415,-0.16437507,-0.21535452,0.22182831,-0.06567354,-0.22935538,0.286107,0.01104679,0.5311383,-0.037037477,0.030738503,-0.026284438,-0.057385225,0.08829328,-0.38357043,-0.35825473,-0.134018,-0.06311294,-0.055082813,-0.32683504,-0.20237422,-0.23457627,0.16464001,0.5585785,0.20669094,-0.10561755,-0.054253764,0.06538622,-0.58879244,0.24574788,-0.4201421,0.043081433,-0.37486365,0.16386884,0.08012353,0.23313096,-0.3557819,0.73359704,-0.30544245,-0.51706314,0.01678506,0.010106001,0.057668976,0.29073685,-0.59000754,-0.3286537,0.25081813,-0.29809576,0.043039244,0.43537438,-0.160817,-0.32317632,0.14385921,-0.5417735,0.19062309,0.7072533,0.45843446,0.0056937244,0.27581847,0.091417,0.022198558,0.1537495,-0.11743261,-0.05925725,0.3046099,0.09978554,-0.51173496,-0.15206644,-0.061337583,-0.096893735,-0.42087233,0.6601167,0.26627332,-0.48637825,-0.49767178,-0.33629802,-0.104737386,0.31331295,0.08995084,0.30712008,-0.06434957,0.567777,0.14288378,0.35550648,0.6635245,-0.107571885,-0.1781108,0.15443249,0.22764929,0.1165367,0.36795598,-0.22991502,0.06573576,-0.24131322,0.07861467,-0.34287375,-0.11357409,0.2103028,0.054924842,-0.10503687,0.14345735,0.59118533,0.5700351,0.27296543,0.26307988,0.25123435,-0.02746037,0.46710747,0.6034776,0.026882216,-0.04869214,0.19471897,0.19392243,0.20872954,-0.15005195,0.26944992,0.4673114,-0.056966037,0.5973891,0.24342985,0.35111493,0.6336931,-0.5934658,-0.32865882,-0.1399777,0.41968095,-0.36573684,-0.03303263,0.18213764,-0.008786177,0.25910744,-0.5565232,-0.17415059,-0.10587321,-0.0032293843,0.21219108,-0.19904341,-0.081390545,-0.020786624,-0.036235467,-0.14439678,-0.19114277,-0.20873609,-0.28299913,0.19753686,0.003043388,0.026916876,0.11912425,-0.24515925,0.00083335117,0.0046238676,-0.0039048232,-0.057786193,-0.17427209,-0.0375781,0.2822085,0.06888321,0.83229786,-0.054353632,0.09154598,-0.14327534,-0.105657056,-0.014227419,0.10418212,0.07917121,-0.0045152167,0.43702167,-0.3285866,-0.15049562,-0.22696579,0.30971974,-0.2897996,0.12659329,0.003690049,-0.030981746,0.028002337,-0.022194676,-0.07510157,-0.14852282,0.0855108,-0.39603806,0.11635275,0.29552168,-0.44735527,-0.10375619,0.24260679,0.15373012,-0.04216268,-0.017350202,-0.38508004,0.046379037,0.05968805,0.16209328,-0.10084486,-0.16683307,-0.3271434,0.30174422,-0.030274253,0.1310664,0.28596798,0.19091709,-0.30132595,0.10318008,0.43558225,-0.1363023,-0.19050369,-0.33394718,-0.06605314,-0.013216324,0.12717608,-0.18525253,0.22462657,-0.41949505,-0.038649026,-0.39634848,-0.17540416,-0.14656776,-0.09245471,0.011321936
10281555.pdf,-0.09667022,0.31405303,0.36626238,-0.10533752,0.57404196,0.27590272,0.07087611,0.098901935,0.09952478,-0.32990772,-0.13888156,-0.1684818,0.0631089,0.02805669,-0.09450536,0.5161163,0.2812863,-0.039968807,-0.029009666,0.33362088,0.18498051,-0.23492238,-0.018249307,0.67800575,0.3276648,0.037332255,-0.0026638508,0.01519246,-0.15738371,-0.40643436,0.483429,-0.013142395,-0.12778783,-0.395114,0.16056603,-0.0238913,-0.15096062,0.06066274,-0.281596,0.12076607,-0.50000095,-0.038485292,-0.0062752888,-0.040498443,-0.37723505,-0.21665868,0.3544994,-0.22083017,0.094416656,-0.04087188,-0.30849475,0.51536155,-0.25161207,-0.22282013,0.27731282,0.7940968,0.059435464,-0.6011778,-0.44487146,-0.3245544,0.21405551,-0.14026594,0.25824016,-0.026154403,0.25923932,-0.003909493,0.06882185,0.29959852,-0.536324,-0.043715864,-0.45926785,0.09240854,-0.14003424,-0.024498362,-0.4875958,-0.12297632,-0.0042746086,0.4255423,0.012271866,0.061889492,-0.26126176,0.23837729,-0.33896825,0.17269358,0.26135302,0.22737691,0.41139382,0.19572966,-0.44406334,0.6793589,0.4099853,-0.16019703,0.29328212,0.041716058,0.19314422,0.18410817,0.06951511,0.32791317,-0.02118352,0.052282896,0.24291965,0.094669215,-0.020308368,-0.011874549,0.067791246,-0.04927492,0.04180595,0.20374395,-0.48180935,0.39313847,0.16906849,-0.37888283,-0.08540016,-0.4635414,-0.094306916,-0.16346948,-0.08335349,0.0925511,-0.0010292064,0.24039707,0.100341976,-0.2587456,0.07660584,0.83922625,0.029295081,0.04061564,-0.024967238,0.3628487,-0.11302325,-0.17883357,0.13484849,0.29898182,-0.27299494,-0.16479287,-0.26293564,0.24896625,-0.16370562,-0.22280452,-0.22934383,0.21174732,-0.10417596,-0.61302423,0.633087,-0.047251858,0.04961029,-0.21419123,0.07906389,-0.12424341,-0.12566596,0.3501123,0.36853456,-0.05581508,-0.0985039,-0.24081616,-0.011286888,0.19859205,-0.011090551,0.07594246,-0.45183766,-0.1605426,0.38948447,0.31188214,-0.440942,0.27214023,0.12835452,-0.0048033968,-0.280231,0.2740004,-0.0988097,0.2710973,-0.107109025,0.036976002,0.75595284,0.07363615,0.21990383,-0.050995737,0.2595563,-0.116074875,0.18280156,0.009924792,-0.42053056,0.5455495,-0.08038688,0.030795861,0.24699152,-0.18294477,0.39854056,-0.46325618,-0.08732911,-0.2548271,-0.24163102,-0.5062148,-0.107973136,-0.11542034,0.10867214,-0.23749593,0.1892466,0.07949631,-0.4949575,-0.20056263,0.42891467,0.30065608,0.26598465,0.254005,-0.05017619,-0.48549992,0.44827837,-0.31655008,-0.20620513,0.25481382,-0.23016931,0.058965523,-0.07418375,0.06479163,-0.17400818,0.07903663,-0.121380664,-0.05631496,0.22446015,-0.09843679,0.28768933,0.28084564,-0.49716392,0.5136582,-0.37001437,0.27776596,-0.047644798,-0.96265316,0.38103178,0.20398572,-0.02283915,-0.19365898,0.4961387,-0.41294485,0.14816277,-0.05053662,-0.3050462,-0.051014226,0.26576343,-0.19292693,-0.35439423,0.5207364,0.21521588,0.10124312,0.16070881,0.09734912,-0.09698972,-0.041589625,-0.1282098,0.1004115,-0.70772266,-0.018307734,-0.024874562,-0.4596809,-0.14943078,-0.6497637,-0.3211975,-0.5670338,-0.21277192,-0.057723433,0.08309949,0.0886505,0.061396964,0.06303306,-0.05503222,-0.7736418,0.14964767,0.22335169,0.18858583,0.36979726,0.072509915,-0.10993161,-0.034290466,0.5397879,-0.37013558,-0.1906134,0.28912508,0.017224483,0.06786005,-0.13997018,0.15896836,0.25787333,-0.17482686,-0.08526903,0.07927769,-0.09141716,0.30039102,0.030527432,-0.3452418,-0.25379664,-0.32168472,0.18405798,-0.6188744,-0.27428693,0.5832466,0.04999007,-0.04163204,0.24508902,0.3238373,0.007905815,-0.23471162,-0.12266114,0.21882617,0.2120943,0.08120522,0.13924444,-0.22486135,-0.7947706,-3.4649587,-0.1205181,0.1924519,-0.5028433,0.42877758,-0.07672529,0.36554918,-0.04146927,-0.51376724,0.05255222,-0.1623894,-0.18460408,0.17650305,0.26111403,0.36428887,-0.0018767193,-0.026722904,-0.36078465,0.17355692,0.34683603,-0.08985503,-0.85579896,0.14898519,-0.0736469,0.24389386,0.2259574,-0.5639118,0.018889006,-0.37057838,-0.21796611,0.18602324,-0.10950007,-0.25575778,0.30715108,0.16712002,-0.15437573,-0.14354277,-0.29805565,-0.10505201,-0.6182176,-0.0026351735,-0.7528775,-0.2617175,0.029440328,0.62821794,-0.04549416,0.20921868,-0.17983428,0.05692792,0.15585515,0.35717034,0.2296132,-0.15562142,-0.14211138,-0.093612745,-0.014632947,0.7286123,0.15277523,-0.5401297,-0.11465891,-0.043015637,-0.33349997,-0.37400097,-0.047009185,-0.30359435,0.10380605,-0.65346074,-0.4015689,-0.24611926,-0.25514507,-0.04472215,0.73315334,-0.30654857,-0.31515312,-0.25563428,-0.4929341,0.32607952,-0.2393361,0.09836917,-0.2540293,-0.19173986,-0.3685282,0.19219062,0.078151464,-0.21640709,0.047924932,0.12602165,0.014543945,-0.55583215,-0.6768716,0.33890235,0.05115481,0.22688639,0.02213322,0.3723923,0.016614234,0.47515285,-0.014460128,0.1172089,-0.5082884,-0.14745021,0.014214722,0.7311537,-0.23011157,0.040205732,-0.12399321,-0.4284387,0.00065323524,0.32156742,-0.22041193,0.34561574,-0.4200224,0.27666867,-0.2559952,-0.25338334,-0.1118617,0.099287905,0.8337712,-0.11707416,-0.21808001,-0.08106506,0.10828762,-0.23265818,-0.037987784,-0.20661464,0.07164333,-0.30637568,0.27109098,0.037174277,0.01372955,-0.22053006,0.08320558,-0.17153497,0.27384448,0.13266456,0.16860949,-0.18214959,-0.4293957,-0.029793689,0.2303685,0.009951727,0.3098595,0.14488164,-0.22313753,0.15196523,0.25058895,-0.23371755,0.38033697,-0.030621883,0.22400674,-0.76437986,-0.26931614,-0.20685418,-0.44078535,0.06767205,0.45389965,0.022317603,-0.17362003,0.011639589,-0.45717376,0.14551856,0.041480787,0.3689562,0.143505,-0.08761548,0.6510352,-0.17609122,-0.2487371,-0.17399262,0.09198348,-0.20284727,-0.1844005,0.024868011,-0.38025528,0.020636715,0.6131688,0.23411825,-0.11317931,0.040115,0.38223636,-0.23697785,-0.21332741,-0.19348831,-0.1067747,0.1656016,-0.047620345,0.21861686,-0.5377763,0.1457111,0.021689493,0.092170045,0.20857316,0.044357155,0.19414087,0.04664358,-0.022514444,0.60393465,0.26079935,-0.08880158,0.027592838,0.12640381,-0.3945219,-0.53979474,-0.030312464,0.09183186,-0.2112341,0.004396151,0.2096176,-0.0022996422,-0.035804026,-0.48512012,0.0123991035,-0.64738804,0.17700878,-0.07320188,-0.7129334,-0.041189548,-0.12036118,-0.45370585,0.13380677,0.15484469,-0.06368073,0.09138538,0.08190983,-0.1921766,-0.22454436,0.08764963,-0.1519698,-0.21515237,-0.007855078,0.024476256,-0.94381773,0.20051733,0.016888646,-0.074789956,0.033943016,-0.11368152,-0.9422327,0.34002462,-0.2100245,-0.18246253,0.09164361,-0.14410217,-0.32168877,0.1404755,0.014377837,-0.1828966,0.31756288,-0.13988215,0.59869653,0.07986283,0.019702427,0.14625621,-0.19572139,-0.07502954,-0.4041772,-0.45836386,-0.08887622,-0.12653787,-0.082909435,-0.20610923,-0.2261957,-0.12929602,0.05731243,0.5114363,0.20831344,-0.18093714,-0.0054722745,-0.0759154,-0.49236923,0.30060208,-0.3216836,0.19697058,-0.33907658,0.27751684,-0.06711229,0.2320138,-0.41777128,0.77916175,-0.2909309,-0.4221444,0.010041788,0.09411472,0.05761829,0.3455096,-0.54058874,-0.2922411,0.32210422,-0.25564897,0.07669202,0.42050245,-0.19186133,-0.33028927,0.16712315,-0.550539,0.275612,0.66954076,0.2459037,0.08712351,0.25069878,0.08154446,0.08438972,0.2645834,-0.115167834,-0.08709788,0.48948026,-0.005882513,-0.5306518,-0.051466934,-0.1014176,-0.11805245,-0.40535516,0.5997995,0.26762372,-0.5121433,-0.52877706,-0.2921032,-0.24566087,0.25365844,0.11332982,0.16725121,0.11114207,0.6658009,0.03705018,0.27608457,0.5237808,-0.12756293,-0.17397767,0.15013514,0.16989765,-0.09632134,0.5180875,-0.11239514,0.12113223,0.011429761,0.06552428,-0.28404984,-0.21772675,0.18285704,-0.010343887,-0.15696123,0.12545303,0.6067085,0.4917533,0.26232886,0.32426935,0.4142689,-0.023870992,0.51470363,0.7446358,0.0778272,0.038011566,0.14475547,0.05621981,0.15587986,0.02097195,0.15898733,0.55876946,0.021054145,0.6350131,0.29261583,0.29381618,0.5808399,-0.54717886,-0.3221959,-0.01483195,0.48119804,-0.3489544,0.123382166,0.269854,0.092244506,0.2308382,-0.5390711,-0.17935905,-0.07538602,-0.05181167,0.25301614,-0.15591434,-0.15387185,0.037338693,0.015892807,-0.11085074,-0.30353975,-0.28209543,-0.32315874,0.0838101,-0.0021281447,0.013022814,-0.00903631,-0.11915765,-0.115126595,0.014793497,0.117098644,-0.1603673,-0.3538459,-0.056328904,0.28655764,0.106993094,0.76614976,-0.11785715,0.08452226,-0.11376687,-0.047093958,0.044882633,0.2678589,-0.010484248,0.019539043,0.6669835,-0.34000683,-0.12531722,-0.20379552,0.3878619,-0.30988586,0.07041791,-0.11915616,-0.13581869,0.09644538,0.06495525,-0.19749099,-0.029159257,0.018292667,-0.52945876,0.27049395,0.19986019,-0.35923433,-0.12355892,0.21142933,0.3138323,-0.0007170439,0.021081924,-0.2357384,0.023392366,-0.0269056,0.2249669,-0.19133106,-0.12957294,-0.37597463,0.28863302,-0.00577797,0.14464921,0.23403253,0.07417199,-0.013702281,0.07999885,0.4217443,-0.15801251,-0.2710233,-0.36580202,-0.2914787,-0.06628524,0.1494932,-0.20661911,0.1988485,-0.41214985,-0.04345856,-0.37771732,-0.36866507,-0.2686318,-0.22219108,-0.02052069
10734870.pdf,-0.042122286,0.35526025,0.36593378,-0.05902744,0.5761267,-0.023387263,0.1603435,0.39144957,-0.12809464,-0.3735345,0.054541692,-0.30991602,0.04053738,0.18415579,0.021878399,0.49909842,0.29554525,0.116280854,-0.18328576,0.47556287,0.19137901,-0.27324665,0.20378329,0.62654126,0.31134242,0.087488055,-0.107736625,0.019827278,-0.33017525,-0.22246951,0.53190833,-0.04073769,-0.014725393,-0.28856933,0.12186164,-0.25312772,-0.17500615,-0.15347746,-0.15662095,0.18784413,-0.38108468,-0.16602784,0.0021143313,-0.053954303,-0.19995385,-0.22318232,0.10733424,-0.11461711,0.026752725,-0.02824507,-0.3912568,0.34427583,-0.24431248,-0.24947686,0.30988088,0.65305114,-0.14529912,-0.4356951,-0.38661116,-0.40232807,0.20632389,-0.22878656,0.17996517,-0.26870307,0.22920503,0.11575066,0.09499164,0.28809774,-0.60582674,0.09517011,-0.15144598,-0.035415597,-0.08074464,-0.17907707,-0.21813503,-0.09210168,-0.12011034,0.2646503,-0.0057682768,0.12082882,-0.19625214,0.24853358,-0.17219898,0.3889341,0.098228365,0.22183478,0.2125503,0.27142164,-0.2403535,0.4748326,0.26400143,-0.18746538,0.17373124,0.10132335,0.25708464,-0.13787591,0.24911995,0.056415264,-0.25355172,0.2061261,0.1818683,-0.051452532,0.15385216,-0.024709575,0.14644928,0.06704573,0.12770551,0.33104575,-0.22948098,0.45359206,0.17667423,-0.24610633,-0.2072778,-0.38836622,-0.07806139,0.034277864,0.24073434,0.10478729,0.11527647,0.17644006,0.124644265,-0.14443743,0.11383499,0.8591391,-0.025987439,-0.03476233,-0.23726097,0.21172419,-0.068775125,-0.09798969,0.104427546,0.11040349,-0.04809466,-0.01602643,-0.24994428,0.28061348,-0.22301203,-0.3814333,-0.31980518,0.19830325,-0.17900594,-0.49257618,0.48125225,-0.047629874,0.03748902,-0.2179972,0.03922845,0.086705446,-0.048878234,0.4133507,0.22100022,-0.05848755,-0.27955902,-0.30115673,-0.26816082,-0.08037641,-0.26249436,0.23991579,-0.04181142,-0.053132217,0.3045817,0.15206945,-0.30156136,0.3693893,0.06734888,0.08873086,-0.17318207,0.34804964,-0.31209895,0.22653456,0.07076724,-0.0905475,0.45676035,0.01964003,-0.016544979,0.0077329166,0.3053149,-0.030135844,0.046102338,0.08006756,-0.55934817,0.33766192,0.010683244,0.059316058,0.33626002,-0.25087535,0.19578168,-0.38127184,0.1200182,-0.2662434,-0.38144463,-0.53043497,-0.025015127,-0.056425977,0.3183876,-0.17903629,-0.024758972,0.09105814,-0.43906406,0.05322552,0.26781705,0.22727317,0.07431724,0.21620174,-0.15886837,-0.32104152,0.31163782,-0.2914042,-0.042250738,0.14543834,-0.2719906,0.16707063,0.14270502,0.111661464,-0.077829316,-0.0052244132,-0.110434525,-0.16940852,0.15169984,-0.0063448846,0.1710439,0.06580985,-0.59266436,0.5029336,-0.23666632,0.48193797,-0.091946654,-0.97471786,0.38693845,0.35652205,-0.014282549,-0.39174163,0.6120707,-0.37374982,-0.030890726,0.07589365,-0.1743547,-0.23170936,0.13665918,-0.26475295,-0.253672,0.4461379,0.17807852,0.17433938,0.11426908,-0.06071079,-0.071002595,0.09760679,-0.036714565,-0.19376452,-0.570703,-0.06844273,0.026554223,-0.39147037,0.059681416,-0.47730845,-0.18901804,-0.36766145,-0.10573943,-0.08837399,0.3212459,0.059325844,0.14391132,0.08066657,-0.1928356,-0.58030915,0.0917182,0.14578867,0.34556466,0.21435991,0.070232324,-0.02250832,0.07827532,0.62805843,-0.26598474,-0.028292116,0.17902817,0.048001092,-0.061768115,-0.24654326,0.1615664,0.43823454,-0.17931248,0.19602467,-0.063128024,-0.08251008,0.3562956,0.06418533,-0.36667484,-0.38819072,-0.13696551,0.122626886,-0.5192827,-0.16392744,0.5661628,0.050389577,0.15943325,0.05351556,0.30368823,-0.20780382,-0.23631528,-0.32532334,0.12455413,0.009195582,0.13540567,0.1277648,-0.010768966,-0.7679019,-3.415803,0.016732484,0.0018651448,-0.36370575,0.3624694,-0.08980876,0.08597657,-0.0072497143,-0.4402271,0.15552789,-0.1278764,-0.09214377,0.41706473,0.15026729,0.17914605,0.031266525,0.13465923,-0.26707876,-0.024469843,0.436858,-0.17059045,-0.5900353,0.26425695,-0.15595776,0.42442906,0.2571277,-0.4858776,-0.087999806,-0.30759373,-0.10327962,0.086942405,-0.23573022,-0.286217,0.29855245,0.16433777,-0.062679544,0.14694111,-0.4743791,-0.20989153,-0.50997114,0.14931422,-0.7334385,-0.16765723,-0.057684205,0.68997765,-0.20754293,0.094528034,-0.11540817,0.13307872,0.21003303,0.15061507,-0.009879563,-0.11199261,-0.19315797,-0.01276115,-0.11916109,0.6867785,0.3037759,-0.44626212,-0.23345853,-0.060959637,-0.22747588,-0.40476352,-0.15604642,-0.11368561,-0.2085988,-0.50181305,-0.36041278,-0.06856103,-0.22623909,-0.0001719608,0.6604284,-0.24248564,-0.22669387,-0.015100453,-0.43247393,0.2184937,-0.053262625,-0.005952955,-0.1577426,-0.18525898,-0.45973754,0.107408084,0.07347523,-0.1056972,-0.02265029,0.12738541,-0.026174169,-0.41901958,-0.40214038,0.5396633,0.24745812,0.20812568,0.11988653,0.29510218,0.059266858,0.36678636,-0.12328643,0.26201198,-0.5322196,0.11845692,0.2519946,0.6060363,-0.21875793,0.01848942,-0.0040885564,-0.2167853,-0.116385415,0.29876134,-0.09095515,0.24492642,-0.34445202,0.29647094,-0.20298868,-0.142619,-0.0922258,0.05929814,0.5112303,-0.0544853,-0.32929283,0.0466555,0.277582,-0.24546099,-0.20724998,-0.13614498,0.06513781,-0.16606638,0.39586747,-0.104493536,-0.12320613,-0.1986753,-0.016436301,-0.31144178,0.39996278,0.052107766,0.1965214,-0.14763579,-0.62995553,-0.20164877,0.29768687,0.074868895,0.20297554,0.025507277,-0.2531939,0.03914888,0.3583543,-0.20176978,0.16664681,-0.2274977,0.15622348,-0.53128076,-0.46687096,-0.26798004,-0.30331331,0.03622616,0.48875958,0.15687482,-0.076473385,0.071123526,-0.44269446,0.30129814,0.08110808,0.18749198,0.06254241,-0.119528584,0.47952497,-0.09477435,-0.14462513,-0.08584787,0.061918586,-0.21715423,-0.13172898,-0.028028026,-0.37808093,-0.041434933,0.36120403,0.12599394,-0.25609136,-0.023551263,0.08927105,-0.12836616,-0.28350946,-0.26801735,-0.06526938,0.34179792,-0.049777426,0.29586446,-0.5459463,0.0894659,0.059151433,0.054610845,0.2503478,-0.13175073,0.012758229,-0.14848542,-0.16285539,0.45443794,-0.009036433,-0.11450173,0.1623432,0.038099885,-0.37838554,-0.56580424,0.0156030925,0.0014171116,-0.18384048,0.016122738,0.31168407,-0.08664716,0.09753613,-0.36640573,0.017260928,-0.16285968,0.14284375,-0.0069091544,-0.60932946,-0.09422396,-0.015966434,-0.47133923,-0.0038432041,0.10390894,0.0006659366,0.2176656,-0.08434959,-0.2541967,-0.04568784,0.28273484,0.16266888,-0.0664594,-0.1353423,0.020793594,-0.8207487,0.25325793,-0.0050558764,-0.18977107,0.14088306,-0.06464677,-0.75326025,0.17629275,-0.27863374,0.026508646,-0.12557998,-0.19533747,-0.3959887,0.1530866,-0.071637005,-0.27637142,0.2883782,-0.049539763,0.5387883,-0.08891326,0.08075925,0.045305144,-0.26176,0.20518701,-0.6298206,-0.3706709,0.031897094,-0.14850459,-0.08149755,-0.18295953,-0.11085937,-0.05672705,0.28186023,0.27034935,0.04388719,-0.31266332,-0.023318654,0.05262631,-0.58589554,0.15082653,-0.047579903,-0.0137034245,-0.21771751,0.19258031,0.057189215,0.14232516,-0.39670515,0.52115846,-0.4271816,-0.37052417,-0.16787603,0.033704687,0.07420714,0.34062457,-0.3589985,-0.14469187,0.1621665,-0.10822964,0.06544124,0.26122233,-0.06027688,-0.15685439,0.016863456,-0.41048235,0.12667778,0.6516725,0.30106574,0.083478004,0.27468127,-0.017408427,0.11277901,0.3431888,0.08926395,-0.21473864,0.20465177,0.23426414,-0.5153481,-0.13810986,0.09718999,-0.21386382,-0.44876277,0.64642787,0.29596567,-0.32523194,-0.5245546,-0.037629478,-0.23466554,0.08891266,-0.0023081917,0.17244214,-0.17388938,0.60889983,0.020754807,0.15736578,0.589069,-0.12505698,-0.27784342,0.01753927,0.12494529,-0.11715835,0.30412787,-0.21487305,0.34247497,0.07928086,0.19034603,-0.17431048,-0.17687397,-0.024504848,0.16469538,-0.14840198,0.107452914,0.620718,0.4058017,0.43483323,0.3014383,0.2215908,0.01970746,0.70218474,0.43908677,0.14499417,-0.0026787966,0.26625434,-0.041555636,0.07449786,0.022951303,0.29628134,0.2909888,-0.10013143,0.80809784,0.23469132,0.21445581,0.62647057,-0.51722145,-0.34296143,-0.17835125,0.50478745,-0.5393275,-0.089334704,0.11153145,-0.0024643438,0.07510345,-0.40661538,-0.07964069,-0.15937118,0.24125633,0.052650087,-0.15153433,-0.04724845,-0.016141262,0.003672069,-0.0439376,-0.45357573,-0.29119128,-0.19409388,-0.013810515,-0.116457745,-0.16213578,0.009727861,-0.27117595,-0.120655164,-0.097581476,0.1971116,-0.1509008,-0.040334277,-0.13663235,0.33466604,0.0990232,0.73734474,-0.09060876,0.00211972,-0.091598526,-0.07408911,0.007771652,0.12732111,-0.004666159,-0.033054166,0.5011936,-0.41031075,-0.22572106,-0.14572105,0.4578413,-0.37397557,-0.0291215,-0.078897074,-0.017741568,0.0921669,0.05622053,-0.24586746,-0.06082637,-0.061168574,-0.50338155,0.04535523,0.24340695,-0.3173555,0.011614639,0.051757235,0.03850876,-0.13052534,0.097898975,-0.08896269,0.162043,-0.043272156,0.15358868,-0.12940341,-0.35667908,-0.2825096,0.10030473,-0.116974786,0.11023004,0.16829243,0.25263032,0.14178371,-0.020741455,0.46430248,-0.03260236,-0.15607128,-0.34980017,-0.105914526,-0.2597052,-0.1310618,-0.16412914,0.2386687,-0.20167798,0.08743647,-0.2223548,-0.17662951,-0.10223298,-0.06213522,-0.25207737
10820510.pdf,-0.26619586,0.22201553,0.27241182,-0.04167631,0.5583861,0.082744695,0.023463413,0.17277725,-0.026476488,-0.124508,-0.097883984,-0.13709573,0.057516996,0.15336038,0.03302477,0.5660367,0.18500055,-0.1283001,-0.18512163,0.41038564,0.16622408,-0.265011,0.20000112,0.6009917,0.15523091,0.092301786,-0.09374951,-0.051542323,-0.32630822,-0.034316517,0.36360657,-0.0036388468,-0.10294928,-0.42496943,0.13977139,-0.09507393,-0.14228445,-0.019612348,0.009737864,0.15546742,-0.3627365,-0.2070393,-0.025526427,-0.07637402,-0.27929085,-0.047851384,0.3128412,-0.17857663,-0.0024084132,-0.10873292,-0.5212981,0.3291125,-0.21112746,-0.18587857,0.30532607,0.5880798,0.034589916,-0.4277742,-0.33750194,-0.37928474,0.11014885,-0.12655734,0.20985614,0.08160941,0.22073245,-0.064708255,0.06818934,0.39818722,-0.67784333,0.003938187,-0.11871162,0.041543417,0.022223208,-0.01573899,-0.015650664,-0.19537309,0.029559534,0.253065,0.02439654,0.19118424,-0.117804624,0.24613328,-0.120370306,0.1856285,0.21274766,0.15490133,0.2617911,0.15700889,-0.3702333,0.72654337,0.25974497,-0.21155088,0.2997638,0.032254245,0.09153871,0.056566715,0.1343998,0.2300753,-0.0527225,-0.03346028,0.08807376,0.03832765,0.15139666,0.112882376,0.01719188,-0.102954425,-0.005533184,0.2616735,-0.3407218,0.39027613,0.13701296,-0.23502278,-0.14447293,-0.38429117,-0.0016932655,-0.14750591,0.07670836,0.0054117553,0.06598383,0.14544441,0.26804978,-0.12769806,0.16091129,0.7848738,-0.0051992945,0.07168955,-0.1408709,0.32126793,-0.040410906,-0.14487988,0.14304423,0.23135695,-0.10912928,0.03164027,-0.23089364,0.24282706,-0.32769006,-0.17678922,-0.12454844,0.16749871,-0.25389963,-0.5984177,0.42050543,-0.10838808,0.047150664,-0.24962933,0.02316124,0.12966073,-0.18974832,0.47894555,0.19687244,0.02545331,-0.04741586,-0.25160095,-0.10831562,0.15660784,-0.023383893,0.049653232,-0.19849932,-0.15059254,0.30698988,0.23854798,-0.38614964,0.48071563,-0.01062629,0.019839946,-0.24798922,0.07207624,-0.3687433,0.099610485,-0.09111917,-0.14835466,0.5427319,-0.0011853054,0.073614,-0.079324655,0.43157083,-0.09794613,0.27346832,0.056775667,-0.45385557,0.37135616,-0.034574207,0.02931137,0.23981594,-0.32323498,0.39125228,-0.4100224,-0.0303929,-0.35945094,-0.29177117,-0.5410769,-0.045532443,-0.00207044,0.1404144,-0.035831597,0.05494892,0.02185633,-0.38640168,-0.07172762,0.37479013,0.22042826,0.08028799,0.0782641,-0.16838841,-0.24242447,0.2636334,-0.3682164,-0.040738624,0.07246944,-0.22044933,0.054966755,-0.18024006,0.18091154,-0.0031180661,0.057837658,-0.12862171,-0.20946285,0.3631249,-0.21018669,0.19338909,0.14546771,-0.42790136,0.35393208,-0.47644758,0.5707148,-0.0557082,-0.9183204,0.2679401,0.2884907,-0.015198123,-0.31528217,0.43864766,-0.42147523,0.11605176,0.0024725143,-0.26038483,0.0051568598,0.37647396,-0.1915158,-0.22690229,0.6398387,0.31357622,0.00917951,0.18249974,0.006285686,0.09015688,-0.1279071,-0.121292904,-0.13402162,-0.5236645,-0.006346695,-0.008004943,-0.41100776,-0.061103545,-0.511608,-0.1517441,-0.49601835,-0.18021588,-0.030859727,0.14559662,0.011288269,0.06361235,-0.0662279,-0.1912741,-0.5656948,0.16648442,0.318633,0.25782198,0.3904226,0.08705637,-0.015917365,0.10908096,0.37893012,-0.33276254,0.02588976,0.24167627,0.037052874,-0.056638982,-0.27246752,0.15863939,0.31598693,-0.1587615,0.08365555,-0.08291226,-0.01656893,0.26363564,-0.11199267,-0.2334191,-0.37966105,-0.08635217,0.15652254,-0.51038194,-0.07481974,0.3742667,-0.02417888,-0.044750467,0.120857686,0.22133893,-0.08798307,-0.24596323,-0.14696285,0.05287392,0.06571406,0.1472246,0.031384226,-0.14498141,-0.6524055,-3.609515,-0.15221566,0.0024375888,-0.36656678,0.4449695,-0.152033,0.11861324,0.092190236,-0.3858851,0.13840348,-0.13628967,-0.14660048,0.25842577,0.25610417,0.20784637,-0.09093,0.023948766,-0.25649565,0.13059781,0.43567622,-0.16641307,-0.77378,0.2005873,-0.16622278,0.33706415,0.3837586,-0.6084418,-0.08151559,-0.2749925,-0.10111794,0.04521437,-0.10713419,-0.26182178,0.41321027,0.055996783,-0.19545794,0.009911044,-0.43806893,-0.06786962,-0.47188097,0.09889349,-0.75976574,-0.13860406,-0.047465324,0.6678138,-0.09825358,0.27221078,-0.19832063,0.21777543,0.2293039,0.33278012,0.03389959,-0.08892812,-0.089690745,0.033263788,-0.11331503,0.53390896,0.34064052,-0.4685754,-0.055968456,-0.016048547,-0.32391334,-0.37271017,-0.1532447,-0.29750717,-0.101496816,-0.58390844,-0.16202715,-0.08226221,-0.20259237,-0.07643033,0.58079696,-0.33478296,-0.30000973,-0.061715946,-0.49275947,0.26076043,-0.19602297,-0.05942415,-0.13749856,-0.17204665,-0.5363614,0.20748788,0.00600392,-0.147464,-0.10576814,0.063987285,-0.016947325,-0.3241924,-0.5074268,0.28018335,0.18775296,0.25339323,-0.20494863,0.30006188,-0.03217551,0.46447608,-0.06061863,0.28853178,-0.48832107,-0.050753266,0.018202519,0.53302205,-0.30541575,-0.080108106,-0.11470477,-0.22835174,-0.04015267,0.26336217,0.0010113982,0.25065047,-0.23272255,0.17627667,-0.44717875,-0.17876463,-0.0010842115,0.08735028,0.68770957,-0.07622604,-0.14789996,-0.20303318,0.16763735,-0.19095173,-0.27379864,0.036220193,0.054571923,-0.15549392,0.30015576,0.055502996,-0.09829556,-0.2113044,0.07607422,-0.15145253,0.21071811,0.090216815,0.18884805,-0.11976358,-0.37676486,-0.02584898,0.27548838,0.101578906,0.25650495,0.14099629,-0.15152448,0.11720307,0.3410642,-0.1611008,0.41404974,-0.10481076,0.15834507,-0.52937514,-0.33041114,-0.21262252,-0.33112133,0.05024412,0.4260311,0.11701485,-0.1237813,-0.0358437,-0.55091405,0.20057157,-0.025772981,0.3097902,-0.105833165,-0.10788806,0.57397187,-0.0006530769,-0.10666699,-0.0666071,0.006406258,-0.22857544,-0.24986905,0.07222155,-0.2976941,-0.14989316,0.46755314,0.26281533,-0.30922493,0.08367096,0.4492478,-0.035429753,-0.12957609,-0.0869559,-0.071071,0.14063165,-0.026578544,0.12975116,-0.38432539,0.022866877,0.15258147,0.21215075,0.1279276,-0.0839514,0.15366,-0.12634496,-0.11123135,0.45906162,0.37116033,-0.013582392,0.096455924,0.020445276,-0.3047021,-0.6014118,0.020969486,0.1437316,-0.17629191,0.0949257,0.27231115,0.110097095,-0.057631295,-0.3507265,-0.021658078,-0.37735742,0.16428962,-0.17726782,-0.5613941,-0.08381991,-0.019808471,-0.23407924,-0.061201505,0.030453138,0.046173498,0.112624586,-0.043413643,-0.24256733,-0.11083502,0.14118119,-0.038222358,-0.27819967,-0.15653631,0.2399081,-0.9890677,0.026614027,-0.017858837,0.03379493,0.13734148,-0.059205204,-0.7630655,0.23763609,-0.34947133,-0.03370749,-0.009411549,-0.21722332,-0.22013122,0.08769771,-0.18466394,-0.1863684,0.20025273,-0.08743949,0.60651904,0.036718443,-0.03487763,0.107091606,-0.20398824,0.27078056,-0.41840416,-0.3456373,0.101879016,-0.1268239,-0.05976312,-0.26042563,0.06448443,-0.2738999,0.04141844,0.37468642,0.21850832,-0.3444966,-0.06091112,0.015352882,-0.495949,0.18792549,-0.22657394,-0.05242888,-0.2489304,0.22665134,-0.048905768,0.048067324,-0.35581574,0.72707367,-0.26786917,-0.41873586,-0.04175245,-0.043689333,0.17755732,0.33951822,-0.39349118,-0.092019565,0.14785653,-0.22787833,0.025237925,0.5221162,-0.2010077,-0.29065427,0.12930804,-0.6708727,0.084620416,0.7308357,0.40713692,0.042719126,0.356064,0.10775532,0.14912796,0.14655122,0.0223079,-0.19040978,0.28426117,0.003285368,-0.50662947,-0.084146,0.0001661405,-0.043326307,-0.5161055,0.5883861,0.2530713,-0.36174756,-0.5331971,-0.088581674,-0.18282792,0.21217515,-0.14610934,0.20054212,-0.09016889,0.6161662,0.045803007,0.28166902,0.67761445,-0.07443866,-0.23973063,0.07678818,0.122104324,0.06451584,0.37769127,-0.08963747,0.10835755,-0.21809784,0.061451375,-0.21453851,-0.004750956,0.09528651,-0.046184786,-0.2500246,0.04231705,0.45772547,0.4202224,0.42719513,0.28846878,0.25877815,-0.14213715,0.6205193,0.57098126,0.0018492285,-0.16703829,0.10761647,0.03154251,0.08687066,-0.13617706,0.2605994,0.3171547,-0.007835379,0.6825843,0.26188868,0.2907561,0.6472245,-0.44726512,-0.43274206,-0.17824817,0.49686614,-0.4276814,0.06730149,0.24147227,0.04427314,0.19485992,-0.36567724,-0.046141088,-0.036631495,0.10703468,0.2407554,-0.13335524,-0.12032223,0.17500855,-0.06706432,-0.18880934,-0.3588791,-0.42179364,-0.2089857,0.1207495,-0.15236942,0.039740328,0.0101777455,-0.1288729,-0.026762761,-0.086283535,0.16876672,-0.108968005,-0.2297534,-0.3749919,0.35784477,0.04082591,0.5899043,-0.079020925,0.17558596,-0.05838181,-0.1129866,-0.08327861,0.24576232,0.054660406,0.06417607,0.6440461,-0.38905245,0.01782294,-0.10323791,0.3150817,-0.16676353,0.011810262,-0.0253748,-0.112101406,0.094905384,-0.04123892,-0.18124487,-0.085548885,-0.19200161,-0.4688744,0.13268748,0.19158296,-0.32322755,-0.031167261,0.38193068,0.16444339,-0.057470772,0.059482872,-0.15980652,0.119380474,-0.08106346,0.1755468,-0.11861563,-0.19500533,-0.37724817,0.29367024,-0.20345183,0.085030645,0.2422123,0.19427624,-0.1848645,0.1385696,0.33113214,-0.29841045,-0.34906605,-0.39260894,-0.15558724,-0.094463125,0.04790001,-0.12035839,0.18707687,-0.3016222,0.046132926,-0.31659636,-0.15944855,-0.025004718,0.0031800016,-0.07576126
11393213.pdf,-0.1772736,0.31043357,0.2814587,0.025882525,0.73687136,0.10283937,0.110711455,0.1702711,0.02820504,-0.29115477,0.04621642,-0.24878477,-0.08845273,0.033075448,-0.082474716,0.5576497,0.324666,-0.1010296,-0.32652557,0.4890235,0.17911199,-0.27860087,0.19527018,0.6087578,0.15946466,-0.031817667,-0.098002955,-0.039962403,-0.26600388,-0.013819709,0.40228954,0.0679506,-0.09140367,-0.42788815,0.10083604,-0.030207472,-0.15161833,0.024170296,-0.18327978,0.26606882,-0.345402,-0.1444492,0.023808232,-0.01797159,-0.14603713,-0.058633458,0.2647778,-0.17219204,-0.12741667,-0.09742284,-0.29364687,0.30950403,-0.14706594,-0.10321286,0.2507847,0.65838975,-0.12396926,-0.45970237,-0.35586888,-0.35376284,0.08006217,-0.08869225,0.12039746,-0.09210733,0.11884026,0.03671672,0.09993986,0.2845834,-0.47021648,-0.092837006,-0.20478374,0.23840016,-0.01909512,-0.15147664,-0.20504093,-0.17993115,-0.039009083,0.2110291,-0.011768242,0.06504408,-0.26010826,0.17655194,-0.2602381,0.2395268,0.22689068,0.19429952,0.19076923,0.18686259,-0.29442018,0.5255084,0.2605967,-0.15791416,0.3532083,0.30106598,0.1253273,0.1548686,0.012601245,0.21610616,-0.15117157,0.042238433,0.12957963,0.14375134,0.14197335,0.058985215,0.08342981,-0.104813,0.04425825,0.32807517,-0.3251034,0.3273418,0.18913129,-0.26594868,-0.13121766,-0.44628853,-0.09378532,-0.12638488,0.13994765,0.108262196,0.13565299,0.22277915,0.031444605,-0.26851264,0.032606572,0.93854535,-0.07363917,0.014056516,-0.11205834,0.33143145,-0.075952545,0.04982473,-0.0707649,0.28058982,-0.06652941,-0.027990393,-0.22904386,0.2834564,-0.15042622,-0.2647027,-0.15841962,0.31402785,-0.119229466,-0.66081345,0.6454253,-0.07810183,-0.038808916,-0.22028682,0.17296664,0.050138667,-0.03149249,0.41137803,0.3104921,-0.08555262,-0.20416352,-0.26153088,-0.08338334,0.08932177,-0.12227011,0.13393447,-0.24315104,-0.26307556,0.26183414,0.3352921,-0.44016185,0.32596943,0.08789116,-0.07149931,-0.25668857,0.3511063,-0.17350826,0.17290601,0.046552584,0.07098651,0.4534502,0.096640855,0.042723242,-0.026096206,0.253906,-0.12540674,0.09694998,0.06511058,-0.37204254,0.3814352,-0.1476351,0.15864727,0.4338754,-0.21160388,0.4087335,-0.2807659,0.013656914,-0.33523986,-0.22253022,-0.4334445,-0.03142543,0.04897149,0.16189763,-0.07849241,0.09819685,0.12013015,-0.43217456,-0.16185687,0.36978996,0.30050123,0.16378954,0.16026254,-0.15177615,-0.48401758,0.2699722,-0.2649134,-0.137407,0.05768423,-0.16324109,-0.006309252,0.004118034,0.30943424,-0.13864641,-0.00996821,-0.1865356,-0.0142628765,0.25460324,-0.10213996,0.025637325,0.2261324,-0.42306215,0.42805588,-0.55859476,0.4696881,-0.09677543,-0.85108405,0.31800076,0.2907152,-0.030444436,-0.34052628,0.43559784,-0.40451527,0.055022907,-0.12612508,-0.1205544,-0.10931701,0.27739245,-0.37524545,-0.32757455,0.5728046,0.2551018,0.054867025,0.15231653,-0.15174712,0.098814175,0.01145831,-0.115953445,-0.06426597,-0.65809727,-0.013151328,0.0013891836,-0.33578485,-0.005333679,-0.4813636,-0.18673983,-0.46680832,-0.11997004,-0.10696987,0.21468003,0.0015045023,0.115878135,-0.10161438,-0.10375863,-0.68291485,0.12219472,0.18284634,0.28695378,0.26794767,0.12207149,0.0017141805,-0.021412589,0.50487447,-0.29885027,0.06962545,0.23891607,0.063777864,-0.035814513,-0.091165364,0.19280313,0.40522876,-0.23412621,-0.0006782748,-0.14887235,-0.1224609,0.34730962,-0.03986829,-0.25285438,-0.25562844,-0.1706585,0.1393959,-0.49345165,-0.21916054,0.38213724,0.094577834,0.046077944,0.07041255,0.2771819,-0.05286751,-0.3483327,-0.2718152,0.011152463,0.15585546,-0.03349504,0.016750015,-0.102296956,-0.6472312,-3.6633554,0.062390096,0.15542695,-0.36138773,0.37305844,-0.011839526,0.09726994,0.21839863,-0.4461771,0.1623315,-0.049334124,-0.13681145,0.19413254,0.37540194,0.28219777,-0.19189157,0.06898486,-0.28514683,0.0815906,0.28718936,-0.054600492,-0.8548187,0.08649279,-0.14221859,0.23603773,0.23377046,-0.5290555,0.018885758,-0.29485342,-0.23037896,0.11314103,-0.16856527,-0.28978625,0.33031642,0.19190525,-0.0485112,-0.06022512,-0.30941114,-0.071751215,-0.45639473,0.029096037,-0.7959094,-0.2900064,0.045969963,0.632552,-0.033200122,0.27896506,-0.14936467,0.2116848,0.06507139,0.23227996,0.1326862,0.028517757,-0.2093157,-0.040474936,0.014151726,0.6809675,0.30987453,-0.45864373,-0.17280106,-0.1594598,-0.20789479,-0.3646638,-0.13334262,-0.19553106,0.053671386,-0.7011723,-0.25423262,-0.24236271,-0.23513553,-0.15234163,0.64597404,-0.3006571,-0.24887629,-0.07672043,-0.38987064,0.16874583,-0.34497118,0.026175566,-0.26348385,-0.24783805,-0.4934461,0.16377103,-0.020860014,-0.10715535,0.041434348,-0.015899967,-0.09594512,-0.44333738,-0.50625443,0.34886712,0.0951051,0.2681335,-0.045492448,0.38702697,0.12419204,0.4122151,0.003447798,0.29170495,-0.35762322,-0.027692154,0.08183144,0.6865814,-0.22747949,-0.050137397,-0.09675625,-0.32286847,-0.008144536,0.2548296,-0.15276155,0.16199838,-0.25701106,0.33699638,-0.22422701,-0.13972823,-0.08441132,0.20085832,0.6495472,-0.10984656,-0.2480338,-0.09347523,0.17551292,-0.17125788,-0.26841432,-0.00068642944,-0.02628645,-0.13786396,0.29436666,0.103298426,-0.081135474,-0.24294794,0.025577044,-0.10376224,0.2764199,0.19167793,0.077809945,-0.15984012,-0.7145456,-0.20134553,0.29717326,-0.10439454,0.16121355,0.1686497,-0.29244286,0.1557506,0.38658586,-0.046994727,0.24834082,-0.04715728,0.2042777,-0.62560904,-0.4458235,-0.2982467,-0.33857572,-0.02734432,0.58394015,0.16108915,-0.10078077,0.13552913,-0.59587413,0.2657076,0.105826125,0.28720957,-0.03351298,-0.31730497,0.5808068,0.04289822,-0.1885077,-0.24379648,0.035840865,-0.2141082,-0.25957072,0.066712834,-0.2774642,-0.12215545,0.49663204,0.2333268,-0.23628305,-0.088690214,0.18909219,-0.15199792,-0.15625745,-0.22103077,-0.0005506547,0.13499105,-0.19207764,0.24919227,-0.3532812,0.07071072,0.013491946,0.19935983,0.100850046,0.043525673,0.1384418,-0.13131961,0.031554587,0.5641428,0.39701435,7.002987e-05,0.12715806,-0.02377452,-0.3508951,-0.41612852,-0.0152267385,0.061281018,-0.10831745,-0.08106995,0.29128438,-0.014099799,-0.044874065,-0.29960582,0.04928196,-0.36533585,0.091675356,0.008676354,-0.55060303,-0.09737656,-0.14025053,-0.45982558,0.028288102,0.08533764,0.1408304,0.1600101,-0.05230799,-0.09342806,-0.3122596,0.16851997,-0.011020139,-0.23418124,-0.15308698,0.04980578,-0.8958638,0.105517775,0.036554687,-0.0057714395,0.1314458,-0.09341499,-1.0203708,0.23906213,-0.18494356,-0.021952748,-0.06714991,-0.22300881,-0.23191947,0.07158848,0.052155204,-0.15251434,0.29555857,-0.057204984,0.45802754,-0.06738418,-0.008029453,0.031464424,-0.17346787,0.11316699,-0.46796152,-0.30740023,0.005588969,0.01128063,-0.04555391,-0.38257506,-0.08071384,-0.21610582,0.21625641,0.41695064,0.22832008,-0.14572296,-0.00947679,0.13179873,-0.52703387,0.24925108,-0.3546173,0.047484826,-0.34026134,0.10062885,-0.056007855,0.18422258,-0.39014387,0.74718,-0.32214457,-0.47844052,-0.07229383,0.019658133,0.0213187,0.23981997,-0.34286082,-0.09913649,0.047524456,-0.2662615,0.046106197,0.4661053,-0.059643436,-0.12955181,-0.1980173,-0.47025827,0.27495322,0.5746981,0.47805944,0.11918415,0.15122762,-0.025785077,-0.05548342,0.18115747,-0.11893079,-0.17502034,0.24784793,0.15938383,-0.42850032,-0.26405278,-0.0033670552,-0.12509626,-0.41348243,0.63052344,0.19804893,-0.30655402,-0.3280776,-0.24423271,-0.22890598,0.23563784,0.09178012,0.22358082,0.073353976,0.5711937,0.023692071,0.22727618,0.65801966,-0.022228697,-0.26651478,0.04381576,0.21656567,0.076933116,0.3436211,-0.11055514,0.22021738,-0.124534264,0.04693074,-0.29867446,-0.19872335,0.07695391,0.13443635,-0.06833267,0.095264114,0.67228746,0.43430227,0.28452682,0.21592104,0.1769388,-0.044101432,0.552745,0.55045325,0.0371447,-0.13504514,0.114424706,0.00032730494,0.16292807,-0.24633622,0.25818458,0.57264686,0.014036491,0.52481973,0.18113494,0.39933172,0.43173426,-0.5071215,-0.3481292,-0.14006774,0.49541312,-0.37355343,0.059939656,0.20302238,0.16440246,0.13221061,-0.48434207,-0.17623612,-0.08758764,0.056969997,0.13571438,-0.037893053,-0.038414028,0.07275173,-0.060576186,-0.14947705,-0.3189655,-0.21435243,-0.35196057,0.25796103,-0.082690135,0.0507423,0.08940759,-0.15843248,-0.04377515,-0.07070362,0.2902444,-0.12548481,-0.33201587,-0.03079336,0.19498819,-0.0048073623,0.5624446,-0.10504487,0.18286854,-0.015233779,-0.08060277,-0.019789893,0.073015824,0.08114927,0.01240982,0.42694342,-0.21241453,-0.085463494,-0.16033427,0.29971015,-0.1850352,-0.013455444,-0.02774777,-0.14792839,0.075917155,-0.10835646,-0.21954629,-0.06596196,-0.032266967,-0.53444445,0.13009468,0.1860492,-0.386586,-0.12913656,0.30035245,0.014654379,-0.04376683,0.13899726,-0.19982028,0.14301726,-0.19627297,0.08412664,-0.05752728,-0.12983333,-0.2987321,0.20542517,-0.03642789,0.1056028,0.24082091,0.17081825,-0.20780978,-0.018366503,0.55122596,-0.0028832965,-0.27362913,-0.19597909,-0.18170275,-0.101303816,-0.1008292,-0.040019557,0.16797969,-0.21225387,0.10512115,-0.4810733,-0.20605512,-0.07394306,-0.1567817,-0.11838156
11650031.pdf,0.0053869113,0.25140056,0.34396154,0.064211026,0.61720705,-0.012067592,0.16444717,0.19230086,-0.054203913,-0.29666677,-0.09579337,-0.1713817,-0.05901047,0.12058585,0.021286387,0.5367576,0.3339323,0.05173055,-0.040723294,0.49592012,0.007944889,-0.3378672,0.21646021,0.448842,0.16742446,0.025935475,-0.036869783,0.12407527,-0.26527178,-0.15885107,0.48231763,0.03473772,0.08374589,-0.3284207,0.19826789,-0.01823308,-0.123746835,-0.006747339,-0.17031136,0.15111373,-0.3786239,-0.10214217,-0.009398242,-0.08735457,-0.15952453,-0.11829631,0.11262833,-0.23679942,0.0009638518,-0.025536977,-0.32842505,0.27054107,-0.16564594,-0.23495528,0.24924931,0.5551691,-0.07899158,-0.40432793,-0.3562232,-0.3328116,0.17386979,-0.18575197,0.121226355,-0.10315697,0.31431213,-0.013166413,0.020350687,0.15451273,-0.4695392,0.010469696,-0.18443279,0.12745999,-0.123578824,-0.046384986,-0.14760183,-0.05915654,-0.14484835,0.22117664,-0.009917116,0.08916448,-0.0060228296,0.15628812,-0.0694768,0.27275765,0.19841155,0.1933904,0.20872268,0.23829874,-0.03522259,0.4462338,0.18225232,-0.12739204,0.26878124,0.1324704,0.088953786,-0.058898725,0.049170233,0.01105505,-0.060661774,0.12935814,0.08259921,0.0024191253,0.14780161,0.12296445,-0.010875753,-0.06281897,0.12025766,0.3123816,-0.30584013,0.4188742,0.2362839,-0.2692793,-0.1441851,-0.37008166,-0.09404307,0.031411797,0.18301488,0.15517965,0.15915757,0.24451683,0.16885862,-0.16609515,0.024278065,0.8046924,-0.053667493,0.00064562657,-0.17807487,0.38440925,-0.05698681,-0.17329396,0.085693836,0.17627111,-0.0279556,-0.017516281,-0.15843084,0.24477893,-0.15978414,-0.27987656,-0.10906802,0.18016663,-0.16755566,-0.5390084,0.48357564,-0.17319053,-0.057039928,-0.17947516,0.1036386,0.17060527,-0.16519162,0.51978683,0.2782932,0.0054211393,-0.17838775,-0.26968354,-0.16753381,0.0058253594,-0.11776447,0.09192143,-0.25148976,-0.1819579,0.3154683,0.276343,-0.4181131,0.26866615,0.07296006,-0.12058065,-0.119406685,0.26884437,-0.0675915,0.20849511,0.05151096,0.023871131,0.442438,-0.0641975,0.14783442,-0.0064693447,0.29217798,-0.087696314,0.09671294,0.037676796,-0.43324035,0.46895814,-0.036901165,0.15955245,0.23431978,-0.1631343,0.30271897,-0.40652645,0.057467476,-0.35218254,-0.1599046,-0.5087608,-0.03415759,0.092984274,0.14208695,-0.17366496,0.1216386,0.031217381,-0.39601767,-0.09904926,0.37600866,0.26576757,0.04269404,0.14765605,-0.34257615,-0.37216812,0.18401095,-0.29481786,0.005261034,-0.0044908226,-0.17211473,0.026797775,-0.060380854,0.11765118,-0.029909391,0.037938885,-0.22874233,-0.1588231,0.07969163,-0.06577408,0.14623573,0.14172775,-0.5251867,0.49242824,-0.35221606,0.29081076,0.0305466,-0.7465988,0.1714209,0.16200054,0.11825584,-0.23797655,0.3662864,-0.30863678,-0.027391033,0.059364956,-0.1702677,-0.09591286,0.2731816,-0.33072722,-0.3712942,0.41994944,0.20251551,0.1271329,0.14967205,-0.015982073,0.050282367,0.09681176,-0.11496934,-0.05048299,-0.40661824,-0.054069832,-0.025127754,-0.2759314,0.05354969,-0.44750148,-0.117688686,-0.32268235,-0.17587006,-0.18247905,0.106161475,0.04032909,0.14778662,-0.07686666,-0.13089737,-0.56734115,0.0849864,0.30942333,0.18407173,0.21027821,0.0892324,-0.03810704,0.05239474,0.4135958,-0.1733069,-0.062224563,0.25592303,0.1516464,-0.07017411,-0.19256821,0.07671703,0.38160682,-0.18867077,0.07247561,-0.05894141,-0.12855051,0.258209,-0.027538106,-0.31543767,-0.2095443,-0.22520441,0.100965686,-0.37876317,-0.15127787,0.27628374,0.044264324,0.041511755,0.13162526,0.3224848,-0.1459676,-0.30043685,-0.31399626,0.046241038,0.101571925,-0.018574975,0.046568938,-0.124240786,-0.61216426,-4.2424536,-0.0163631,0.07087721,-0.28424123,0.3937981,-0.049294557,0.22450589,0.10226632,-0.37496707,0.27985653,-0.057909146,0.0037135053,0.25032982,0.2854831,0.19694878,-0.11664841,0.20398387,-0.29386535,-0.015269699,0.26375133,-0.084735945,-0.6861088,0.06814161,-0.1493786,0.3235122,0.20606463,-0.3432712,0.046213754,-0.27934402,-0.17901573,0.08153558,-0.11293055,-0.33052713,0.23010986,0.13411504,-0.12646063,-0.090400815,-0.2608587,-0.06848712,-0.31174764,0.12676302,-0.61716115,-0.30999422,-0.010929404,0.47458178,-0.113064304,0.22354224,-0.1772463,0.13662341,0.13758868,0.3130371,0.041082215,0.006736787,-0.19284885,-0.0037472183,0.06675023,0.6947895,0.2485497,-0.43235677,-0.18170333,-0.11878427,-0.18383539,-0.32953727,-0.09338886,-0.19466665,-0.058822215,-0.4386835,-0.3801663,-0.078944765,-0.17968372,0.003427565,0.5756403,-0.31567845,-0.29710746,-0.14090455,-0.35454226,0.2293495,-0.2676003,0.063861966,-0.3871154,-0.23667032,-0.2762599,0.15119176,0.093051136,-0.10560461,0.02285847,0.038923666,-0.11592582,-0.3775512,-0.4308837,0.5243447,0.09783378,0.27519646,-0.037604418,0.2027393,0.20942079,0.336479,-0.11319533,0.2122799,-0.46232817,-0.014082709,0.053030744,0.5820309,-0.32876924,-0.016028062,-0.03521814,-0.26297703,-0.08257459,0.18422146,-0.15945485,0.20831886,-0.25612855,0.29432955,-0.28072932,-0.12180771,0.008481047,0.078080624,0.58962286,-0.0027889945,-0.180719,-0.033988208,0.28440163,-0.29846126,-0.15353344,-0.09562262,0.04654903,-0.045288276,0.3509776,0.028809838,-0.084056206,-0.027364919,0.028606497,-0.14923178,0.21313915,0.18019444,0.14913853,-0.014538074,-0.5371154,-0.23507476,0.2388583,-0.02931935,0.15827516,0.06723933,-0.22398834,0.11929367,0.46564883,-0.1633757,0.25567973,-0.081006184,0.17244801,-0.38643488,-0.37272495,-0.20510648,-0.39472416,0.16379678,0.31690133,0.08847746,0.058848742,0.061413087,-0.52660584,0.18573578,0.13518311,0.21587652,-0.013273243,-0.36364746,0.63164556,-0.021173589,-0.08727926,-0.15415613,0.12668552,-0.16826715,-0.1425637,-0.061526246,-0.2874543,0.070042856,0.37304962,0.15494113,-0.17488655,-0.017386798,0.2271177,-0.030638264,-0.29487777,-0.13519108,-0.029961502,0.17632093,-0.08758429,0.24394454,-0.4049446,0.028030235,0.11643747,0.14998767,0.10419656,-0.025067337,0.060119797,-0.14146931,-0.05696669,0.39695203,0.37732083,-0.067551084,0.11971855,0.039467633,-0.29967856,-0.47638577,-0.07863684,0.077519216,-0.20961675,0.0023758076,0.29064187,-0.14279231,0.053678308,-0.23861682,0.04973853,-0.2876698,0.04975525,-0.1116484,-0.5290203,-0.035715856,-0.081237465,-0.29396075,-0.104656264,0.007827144,0.028717797,0.17608665,0.017994517,-0.15882216,-0.24402508,0.22340608,-0.025924377,-0.14039192,-0.08238536,-0.02957462,-0.6341663,0.1528362,-0.063054286,-0.034088302,0.20297673,-0.008598284,-0.60909647,0.12853928,-0.29351544,-0.15377106,0.0008111838,-0.264417,-0.19619466,0.10715841,-0.12171288,-0.25756058,0.30679303,-0.11463608,0.49736404,-0.0025480278,0.05596649,-0.012889049,-0.0978152,0.04073327,-0.5208602,-0.1708511,0.04449614,-0.07556474,0.009074931,-0.24861264,-0.052877262,-0.23929645,0.090709075,0.3180336,0.11635921,-0.20085591,-0.08633207,0.078260265,-0.4464426,0.20654461,-0.15545724,0.06440912,-0.26834852,0.25742486,0.021507189,0.1062786,-0.45083177,0.58470213,-0.29192615,-0.28195006,0.017568659,0.04555597,0.092276774,0.37724727,-0.34556404,-0.07664889,0.14704463,-0.30465662,-0.011229865,0.44463116,-0.07617533,-0.12668243,-0.06109941,-0.40344036,0.25624248,0.5443649,0.4163043,-0.023734944,0.27270833,0.01835172,0.062529534,0.20969252,-0.023119984,-0.17707086,0.19316897,0.075348645,-0.4731831,-0.12273294,0.13123941,-0.10607661,-0.32612395,0.48823988,0.27630797,-0.31723493,-0.37206113,-0.16254668,-0.15992408,0.11369614,0.04435221,0.09698783,-0.07488433,0.60323,0.02553874,0.0661546,0.4250253,-0.15057993,-0.17557344,0.16633168,-0.035177626,-0.058166414,0.2880124,-0.07217511,0.16772023,-0.008935675,0.134884,-0.15291543,-0.15385972,-0.13896674,0.030000947,-0.09366016,0.06290023,0.5635932,0.42863697,0.34781036,0.25099605,0.20028648,0.012374652,0.43974316,0.37949952,-0.022062285,-0.18743896,0.12698148,-0.056360215,0.10975617,-0.17605813,0.28310442,0.2952918,0.052963004,0.49664223,0.121749,0.13933927,0.36559266,-0.50104755,-0.22554016,-0.2237144,0.47039783,-0.445934,0.048979945,0.22987874,0.02422253,0.09974152,-0.46960706,-0.044924032,-0.09880145,0.08631774,0.036267962,-0.07682163,-0.035021972,0.036786307,0.0860109,0.04709554,-0.41875625,-0.32992622,-0.33601964,0.18023607,-0.12532713,-0.020301346,0.013483955,-0.13773474,-0.0749791,0.06323446,0.01647472,-0.073290296,-0.20175877,-0.072166234,0.26378587,-0.060854174,0.3841917,-0.1538494,0.123599134,-0.033809595,0.058648255,-0.037016787,0.051283512,-0.094315685,0.025282351,0.4711931,-0.19192892,-0.041289207,-0.11293119,0.33074015,-0.21805163,-0.030234788,0.023200776,-0.08861696,0.026567318,-0.083194174,-0.18705316,-0.12201196,-0.080920056,-0.37438878,0.14112705,0.38413352,-0.4009412,-0.041390114,0.14227206,0.08982183,0.0039342307,0.051100068,-0.26332137,0.13470016,-0.2864203,-0.0017548203,-0.07631157,-0.25561327,-0.31460628,0.13461904,0.02443711,0.18285412,0.19498709,0.08950099,-0.07612027,-0.01546175,0.46641234,-0.061864946,-0.2016888,-0.039759777,-0.08873532,-0.06314015,0.021176312,-0.04589145,0.115233295,-0.1316033,0.09005922,-0.37609962,-0.085446715,-0.1486406,-0.24976653,-0.08952019
12212468.pdf,-0.37894756,0.02265443,0.2532325,-0.12921911,0.5257888,0.10435726,-0.005282253,0.27345723,0.030494563,-0.3485754,0.061912365,-0.1882532,-0.033372205,0.085521504,-0.0047630724,0.53978455,0.40443802,-0.105649434,-0.115623705,0.31573513,0.14537352,-0.2618177,0.02350487,0.7766906,0.11154445,0.079122886,-0.1504852,-0.12202218,-0.22744486,-0.07463804,0.5167527,-0.14007936,-0.12013079,-0.34615937,0.17145756,0.082405604,-0.06502812,-0.16174465,-0.12369153,0.312914,-0.514425,-0.18125415,-0.14635795,-0.096171334,-0.2640533,-0.13198234,0.3255785,-0.057100993,-0.006033778,-0.21232519,-0.40279874,0.34206384,-0.41760394,-0.12189126,0.23973243,0.69645923,0.025902454,-0.50840485,-0.44130543,-0.3232155,0.17260286,-0.08037855,0.12959369,-0.24630922,0.1806878,0.021767586,0.044742838,0.44199315,-0.63037276,-0.12531298,-0.22608285,0.23797658,-0.06762063,-0.02267595,-0.37112483,-0.19089144,0.07057656,0.30771285,0.019266797,0.04915206,-0.17134115,0.49462026,-0.17030853,0.29094994,0.19525474,0.24444601,0.31091005,0.27101454,-0.29991162,0.5880339,0.19251086,-0.1455701,0.18263313,0.09356867,0.25649846,-0.19430816,0.22960645,0.14470166,-0.1367757,0.21851432,0.20834127,-0.13701192,0.13053519,0.07805837,0.041843653,-0.024368767,0.04050644,0.2208064,-0.3291083,0.39209855,0.15132484,-0.20038858,-0.3089859,-0.5725656,0.02035193,-0.054445285,-0.016347729,-0.067047656,0.10335186,0.014865161,0.07582263,-0.23596552,0.17049196,0.7533642,0.05267091,-0.05737748,0.08080835,0.3911233,-0.055716854,-0.0604221,0.079897076,0.18682846,-0.05407563,-0.038904823,-0.20469667,0.2554665,-0.3310318,-0.13514179,-0.20168567,0.30742425,-0.29197365,-0.6567001,0.6217893,-0.21700281,0.088988766,-0.102458164,0.1422765,0.023702223,-0.075843446,0.33490455,0.26086536,-0.07694335,-0.22044373,-0.16858688,-0.055570487,-0.055240132,0.0030618813,0.15078273,-0.16709542,0.016449569,0.46285787,0.37829375,-0.35216972,0.19470102,-0.044508714,0.24945602,-0.09452193,0.25472414,-0.24992666,0.09195509,-0.13780478,-0.095299415,0.57436705,0.06482664,0.14988382,-0.0032883983,0.3676324,-0.17307827,0.16029651,0.057483673,-0.62022394,0.33444512,0.07366894,0.15913987,0.29546487,-0.36655766,0.34147552,-0.36809006,0.016827043,-0.32694155,-0.29989028,-0.44962004,-0.1994879,-0.026867218,0.12514345,-0.11457052,-0.11016834,0.19260295,-0.31569096,-0.0066606384,0.32666057,0.22737584,0.13926765,-0.053273533,-0.16638651,-0.41361377,0.2423189,-0.34361017,-0.21757543,0.19889292,-0.19032943,0.10180995,-0.24400747,0.21946314,-0.09846356,-0.05620963,-0.05873085,-0.08267474,0.23660582,-0.07186832,0.22322176,0.21623711,-0.43947163,0.34067395,-0.5716135,0.42003995,-0.14634603,-0.7343236,0.31544617,0.46075803,-0.25122008,-0.36744827,0.47150218,-0.43378642,0.15900847,-0.13785642,-0.37995994,-0.047067378,0.3649559,-0.35913208,-0.23317075,0.607201,0.30642974,0.11266953,0.07246171,-0.14242381,0.040619537,-0.08304913,-0.08175887,-0.054769024,-0.6776712,-0.113049075,-0.07729058,-0.3495999,-0.097288236,-0.49221003,-0.085027814,-0.3783899,-0.15863529,-0.18537691,0.3199469,0.10098762,-0.033819586,-0.012362346,-0.1356359,-0.5355249,0.25443417,0.1583894,0.24009891,0.3599357,0.06990062,-0.013122195,0.14369145,0.5099907,-0.2563167,-0.10476017,0.3201356,0.026663452,-0.096905254,-0.23530097,0.2186212,0.34549385,-0.17115805,0.07836724,-0.008839078,-0.101932555,0.46048784,0.027547197,-0.28344113,-0.22196975,-0.17559996,-0.17793769,-0.5154731,-0.12356866,0.32727098,0.051803358,0.048717994,0.080811545,0.19693428,0.070807226,-0.23332968,-0.16424406,0.22613743,0.1708389,-0.16178885,0.12195875,-0.11839616,-0.52161586,-3.4419143,0.102411255,-0.017468203,-0.47304147,0.17810199,-0.045580138,0.09245466,0.14950971,-0.31234768,-0.017087057,-0.05166649,-0.30351686,0.1762826,0.09207375,0.1717742,-0.14831994,0.13948819,-0.25995776,-0.010881335,0.3127898,-0.11386286,-0.86388,0.14424297,-0.23882091,0.36348128,0.27885932,-0.6730885,-0.040368106,-0.28208774,-0.025813716,0.36981016,-0.25297737,-0.08864067,0.28626227,0.08614604,-0.08212291,0.04806213,-0.27919388,-0.17130265,-0.5575682,0.0136527065,-0.8677769,-0.10033144,-0.22174183,0.662023,-0.14379428,0.19110689,-0.3060214,0.24497753,0.031789627,0.31318545,0.13341145,-0.1922932,-0.09467842,-0.025267089,-0.084941134,0.52946913,0.16292983,-0.4496767,0.013426048,0.15090112,-0.34625858,-0.41005033,0.026662726,-0.12294378,-0.09291031,-0.4504878,-0.17284876,-0.20225589,-0.06596404,0.041386496,0.69189835,-0.37783396,-0.37986943,-0.1372218,-0.46633852,0.3342126,-0.08735983,-0.011526852,-0.26961273,-0.14031428,-0.5471567,0.22463235,-0.07405703,-0.14821848,-0.004328066,0.12088212,0.08801626,-0.41508693,-0.47850952,0.22013521,0.087409735,0.30642092,-0.022567883,0.28360307,-0.26488152,0.21312255,0.04030232,0.16040437,-0.39036041,0.13423482,-0.008674853,0.62703973,-0.24107954,-0.14355773,-0.15432519,-0.26026812,-0.04967823,0.18887247,-0.03845886,0.12504643,-0.19546953,0.50242877,-0.4970439,0.07070675,0.12997547,0.22316933,0.64970255,-0.1767872,-0.23547262,-0.002544403,0.28174818,-0.014988814,-0.18608929,-0.085564524,0.07338753,-0.28393942,0.24404949,0.035430577,-0.045876294,-0.36263686,0.088834584,-0.18925394,0.41779009,0.035145372,0.16592675,-0.122168094,-0.5157449,-0.043174367,0.22789323,0.04158934,0.34171075,0.059622675,-0.20689431,0.0049013826,0.40359685,-0.24942282,0.29312074,-0.1489099,0.13404393,-0.68851817,-0.4894302,-0.26103193,-0.4612205,-0.037417766,0.70669967,0.25370005,-0.10274653,-0.019011905,-0.4134084,0.14755516,0.08767079,0.3339333,0.10187535,-0.2716248,0.5876528,0.032839075,-0.15875608,-0.23667893,-0.10135998,-0.065373786,-0.29177648,0.047040924,-0.48299605,-0.2464706,0.574937,0.051535882,-0.38988614,-0.020645626,0.5087314,-0.1125288,-0.1955111,-0.18950216,0.0968153,0.24320476,-0.030051643,0.25061396,-0.43463677,-0.043456487,0.1949438,0.0384483,0.12894689,-0.13960779,0.12509029,-0.20091957,-0.16705456,0.48291177,0.26233417,-0.08126037,0.21947816,0.070694685,-0.19018033,-0.37865275,0.06799068,0.23853324,-0.24627578,-0.015055887,0.3432052,0.14674494,-0.061513625,-0.27217937,0.06749144,-0.28909066,0.16072616,0.13868903,-0.50074583,-0.19405258,-0.29178,-0.37179497,0.066817716,0.046756346,-0.03721232,0.19779962,-0.031841602,-0.15804255,-0.06633066,0.03825111,-0.100763604,-0.18430099,-0.16746788,0.06461531,-1.0376394,0.04307354,0.16890511,0.11015614,0.049520113,-0.10813321,-0.83068424,0.13802138,-0.083884485,-0.14381962,0.0005719934,-0.1338315,-0.22718716,0.13908184,-0.1697869,-0.18772092,0.2855963,0.0067961114,0.40782076,-0.17095277,0.0017531645,0.047707897,-0.06467495,0.30362266,-0.36763477,-0.2901745,-0.09234006,-0.19220196,-0.09970969,-0.23866603,-0.13715237,-0.19680145,0.15522039,0.4688894,-0.010056933,-0.10308303,0.008041769,0.13105413,-0.46266037,0.22576427,-0.3730253,0.115544945,-0.42533064,-0.055080663,0.069835335,0.22427878,-0.42583326,0.75127673,-0.35200232,-0.46612066,-0.05326929,0.01810592,0.10601699,0.4261283,-0.20452791,-0.122967795,0.18247196,-0.13137713,0.025217155,0.42093235,-0.118414775,-0.22916019,0.007195266,-0.576651,0.15939043,0.79557025,0.32464242,-0.0019922564,0.27411592,-0.08045021,-0.08027886,0.13701163,-0.03181561,-0.32947916,0.13331419,0.15090625,-0.3237962,-0.021433994,-0.113811284,-0.09593146,-0.4233475,0.6467175,0.5150424,-0.31596142,-0.31455654,-0.23689345,0.08372003,0.101716384,-0.036254913,0.11928006,0.058672503,0.5910122,0.07030599,0.35269642,0.6871192,-0.11048974,-0.26059783,0.07594385,0.34379888,0.031373803,0.28887764,-0.22186033,0.17248672,-0.07585084,-0.0022154981,-0.17153218,-0.06530776,0.10180673,0.02833108,-0.14303763,0.17308137,0.517342,0.4523246,0.3241896,0.14566724,0.19773242,-0.074094474,0.59968925,0.5238501,0.13149083,0.15527818,0.21049726,0.032438822,0.31391478,0.13663627,0.18963212,0.39808145,0.020374365,0.5559904,0.29140067,0.3499757,0.6252037,-0.47160572,-0.3658673,-0.33110106,0.2651137,-0.28755993,-0.028109774,-0.0010904483,0.11447871,0.20650122,-0.42170292,-0.24770722,-0.09850842,0.19352654,0.0772941,-0.10598652,-0.06176114,0.127882,-0.10568338,-0.24906953,-0.23708422,-0.20658734,-0.33874515,-0.05384964,0.038033135,0.01437371,-0.032952376,-0.14798966,0.13403308,-0.03139504,0.032705296,-0.03480415,-0.074205816,-0.19301222,0.36592853,0.011420762,0.6150316,0.12609166,0.26804066,-0.21642931,-0.06555343,0.14394274,0.19942595,0.16972485,0.10884728,0.37670338,-0.26037255,-0.121006474,-0.18533182,0.22407067,-0.39829922,0.06758329,0.012510041,-0.14723787,-0.039935343,0.12631263,-0.010423794,-0.25782812,-0.08254806,-0.4103733,-0.06522283,0.31369317,-0.35297856,-0.07533447,0.1309404,0.024251197,0.041364066,0.016276183,-0.14364743,0.12111462,0.036024578,0.084898,-0.105959214,-0.22830662,-0.3446909,0.24636066,-0.12826492,0.1558398,0.35428005,0.24221116,-0.25683698,-0.16495495,0.51767755,-0.29442182,-0.19860402,-0.4633746,0.0005933158,-0.08224371,-0.02949496,-0.066075005,0.16005439,-0.38462126,0.038199343,-0.42011073,-0.096534505,-0.009864566,-0.021307578,-0.022201154
