,0,1,2,3,4,5,6,7,8,9,10,11,12,13,14,15,16,17,18,19,20,21,22,23,24,25,26,27,28,29,30,31,32,33,34,35,36,37,38,39,40,41,42,43,44,45,46,47,48,49,50,51,52,53,54,55,56,57,58,59,60,61,62,63,64,65,66,67,68,69,70,71,72,73,74,75,76,77,78,79,80,81,82,83,84,85,86,87,88,89,90,91,92,93,94,95,96,97,98,99,100,101,102,103,104,105,106,107,108,109,110,111,112,113,114,115,116,117,118,119,120,121,122,123,124,125,126,127,128,129,130,131,132,133,134,135,136,137,138,139,140,141,142,143,144,145,146,147,148,149,150,151,152,153,154,155,156,157,158,159,160,161,162,163,164,165,166,167,168,169,170,171,172,173,174,175,176,177,178,179,180,181,182,183,184,185,186,187,188,189,190,191,192,193,194,195,196,197,198,199,200,201,202,203,204,205,206,207,208,209,210,211,212,213,214,215,216,217,218,219,220,221,222,223,224,225,226,227,228,229,230,231,232,233,234,235,236,237,238,239,240,241,242,243,244,245,246,247,248,249,250,251,252,253,254,255,256,257,258,259,260,261,262,263,264,265,266,267,268,269,270,271,272,273,274,275,276,277,278,279,280,281,282,283,284,285,286,287,288,289,290,291,292,293,294,295,296,297,298,299,300,301,302,303,304,305,306,307,308,309,310,311,312,313,314,315,316,317,318,319,320,321,322,323,324,325,326,327,328,329,330,331,332,333,334,335,336,337,338,339,340,341,342,343,344,345,346,347,348,349,350,351,352,353,354,355,356,357,358,359,360,361,362,363,364,365,366,367,368,369,370,371,372,373,374,375,376,377,378,379,380,381,382,383,384,385,386,387,388,389,390,391,392,393,394,395,396,397,398,399,400,401,402,403,404,405,406,407,408,409,410,411,412,413,414,415,416,417,418,419,420,421,422,423,424,425,426,427,428,429,430,431,432,433,434,435,436,437,438,439,440,441,442,443,444,445,446,447,448,449,450,451,452,453,454,455,456,457,458,459,460,461,462,463,464,465,466,467,468,469,470,471,472,473,474,475,476,477,478,479,480,481,482,483,484,485,486,487,488,489,490,491,492,493,494,495,496,497,498,499,500,501,502,503,504,505,506,507,508,509,510,511,512,513,514,515,516,517,518,519,520,521,522,523,524,525,526,527,528,529,530,531,532,533,534,535,536,537,538,539,540,541,542,543,544,545,546,547,548,549,550,551,552,553,554,555,556,557,558,559,560,561,562,563,564,565,566,567,568,569,570,571,572,573,574,575,576,577,578,579,580,581,582,583,584,585,586,587,588,589,590,591,592,593,594,595,596,597,598,599,600,601,602,603,604,605,606,607,608,609,610,611,612,613,614,615,616,617,618,619,620,621,622,623,624,625,626,627,628,629,630,631,632,633,634,635,636,637,638,639,640,641,642,643,644,645,646,647,648,649,650,651,652,653,654,655,656,657,658,659,660,661,662,663,664,665,666,667,668,669,670,671,672,673,674,675,676,677,678,679,680,681,682,683,684,685,686,687,688,689,690,691,692,693,694,695,696,697,698,699,700,701,702,703,704,705,706,707,708,709,710,711,712,713,714,715,716,717,718,719,720,721,722,723,724,725,726,727,728,729,730,731,732,733,734,735,736,737,738,739,740,741,742,743,744,745,746,747,748,749,750,751,752,753,754,755,756,757,758,759,760,761,762,763,764,765,766,767
10332998.pdf,-0.38821658,0.08277539,0.23142813,-0.10638111,0.5530029,0.09227298,0.03696647,-0.03884603,-0.11599393,-0.06341471,-0.027472727,-0.21256709,0.065361574,0.027926981,0.045759376,0.44838887,0.33184254,-0.03282722,-0.14064002,0.22655937,0.34959832,-0.17866334,-0.04937672,0.61926997,0.40861493,0.13539594,-0.26308364,-0.017173788,-0.32730392,-0.17074485,0.52028644,0.12887305,-0.26706153,-0.23254943,-0.026640147,0.08638138,-0.15151596,-0.08147925,-0.22886488,0.2698912,-0.36800388,0.0034294818,-0.32008386,-0.026332732,-0.07111489,-0.06425211,0.10356959,-0.12958182,0.104428805,0.17272027,-0.35236496,0.18940863,-0.34148902,-0.18636239,0.22160478,0.63815594,0.028591443,-0.67817914,-0.33373997,-0.45931277,0.20828435,-0.06997294,0.51122916,-0.30587834,0.13039923,0.25840354,0.096812606,0.4274675,-0.67565525,-0.22711146,-0.22675267,0.058143258,-0.09493823,0.041833263,-0.061820053,-0.027585765,0.08050201,0.27951297,-0.15965278,0.19178045,-0.108954675,0.26370555,-0.20230255,0.29285827,0.11367381,0.050378907,0.18413371,0.21711563,-0.42408738,0.5379882,0.10577287,-0.12594794,0.20479593,0.32159483,0.077910535,-0.050664783,0.26936752,0.0922858,-0.0987121,0.17470694,-6.470829e-05,-0.043897048,0.2529363,0.11118553,-0.12258045,0.08589363,0.06011952,0.08066401,-0.429639,0.4229676,0.19625866,-0.2464935,-0.20940857,-0.49536407,-0.15613449,0.0850426,0.11062377,0.094047904,0.10132633,0.14267893,0.19634226,-0.45798993,0.20177984,0.68902767,0.25492087,-0.07994717,0.05321782,0.16586928,0.015921444,-0.06974717,-0.21103203,0.11039973,-0.020224508,0.114645526,-0.20722117,0.26712424,-0.33237508,-0.43503666,-0.045458276,0.15362152,0.0076704416,-0.49557924,0.46168116,-0.22222589,0.14648117,-0.33794844,-0.015709406,-0.055637114,-0.23741879,0.35048276,0.17051768,0.058493763,0.0463275,-0.21322364,-0.007546939,0.0243062,-0.07569686,-0.018141648,-0.16152203,0.007163517,0.2824071,0.34482685,-0.4193406,0.23054315,0.0053620012,0.038251616,-0.23152912,0.1971873,-0.34183872,0.20300901,-0.16736346,0.054877087,0.7211835,-0.18975419,0.24535845,0.12317924,0.21904103,-0.1831305,0.2892836,-0.032230064,-0.5312786,0.2652379,-0.07747333,-0.13727504,0.18230791,-0.22172862,0.33820876,-0.3314905,0.372782,-0.20673823,-0.21502575,-0.26173306,-0.14990166,0.021571431,0.13108076,0.035034943,-0.05911097,0.11082479,-0.51230174,-0.19791342,0.3451951,0.31060225,0.37883344,0.092013545,-0.072532415,-0.40297395,0.26392525,-0.39573547,-0.26165348,0.17367482,-0.26830652,0.23234433,-0.20248342,0.10630229,0.0028835535,-0.0017097867,-0.13839348,-0.05710196,0.18420169,-0.10125495,0.17818709,0.16256504,-0.38229144,0.46552923,-0.49009782,0.59189355,-0.101475365,-0.5956105,0.32695895,0.39084858,0.047791008,-0.21626675,0.44817054,-0.56329155,0.19919042,-0.12892222,-0.4003561,-0.02966322,0.37345594,-0.34561387,-0.16677107,0.55651015,0.21813913,0.1695275,0.10420062,0.09077019,-0.117329866,-0.0073001394,-0.14209995,-0.12808883,-0.5493113,-0.12625423,-0.11442542,-0.4474401,0.12490451,-0.42145818,-0.044063263,-0.4046374,-0.045934703,-0.21897358,0.20826073,0.053264566,0.19428009,0.026939273,-0.17255965,-0.5830678,0.34200722,0.2437789,0.12710685,0.34045586,0.04729865,0.028400864,0.08822185,0.43309394,-0.40797257,0.11227783,0.10334073,-0.059648722,0.049308453,-0.094518006,0.23163748,0.32295188,-0.12867273,0.042723473,-0.058199488,-0.14901957,0.36261272,-0.20198113,-0.258857,0.0045084283,-0.13023433,0.0061982498,-0.44616598,-0.23158926,0.3056311,0.14548248,0.074645646,0.27101877,0.18532468,-0.14443526,-0.49074435,-0.38081765,0.042913016,0.15768291,0.18896589,0.18306953,-0.092434764,-0.4165069,-3.252038,-0.013882703,-0.17575082,-0.26365638,0.25752175,-0.18782404,0.19311959,-0.016418291,-0.29703206,0.1655046,0.008321732,-0.30981016,0.12417597,0.2940932,0.18539628,-0.17118116,-0.11457411,-0.19336398,-0.03576921,0.27586532,-0.100800276,-0.8405236,0.20399375,-0.07315625,0.46196738,0.42169717,-0.5443174,-0.035207864,-0.28731987,-0.3370788,0.14430815,-0.19182837,-0.21258137,0.33161214,-0.007006633,-0.011885699,0.024537794,-0.42462337,-0.2443043,-0.53373885,0.08919366,-0.742904,-0.33674473,-0.025598718,0.5776073,-0.15636349,0.044920675,0.01699547,0.14757684,0.18844426,0.18429352,0.08444438,-0.20606422,0.045335438,-0.023151446,0.072862536,0.3788203,0.012441844,-0.34235224,-0.033742018,0.31873897,-0.4090141,-0.40766063,0.014588609,-0.22011119,-0.264708,-0.5054468,-0.2960527,0.11756516,-0.07844808,0.12097681,0.90957695,-0.26606092,-0.26029646,-0.14169437,-0.44901258,0.23177516,-0.28528777,-0.06713398,-0.20128137,-0.15503953,-0.24448575,0.13657154,-0.019279387,-0.16995233,-0.019701399,-0.014194805,0.1429777,-0.48391986,-0.3752091,0.1976789,0.24300408,0.17090559,0.17990977,0.2809109,-0.12109661,0.3389004,-0.013015426,-0.034793727,-0.2639937,0.07755712,0.05084421,0.7356871,-0.34993556,-0.073202975,-0.0871037,-0.46672076,-0.0032934193,0.21502319,0.014135904,0.12882565,-0.24662158,0.4284607,-0.2592553,-0.039667133,-0.16944,0.17394572,0.7584561,0.02361941,-0.17741169,0.0606908,0.30067724,-0.18628038,-0.059006635,-0.31944296,-0.007941987,-0.2396356,0.2556587,-0.03206336,0.107311904,-0.25137725,-0.19898716,-0.26033196,0.14936161,0.2854924,0.03118568,-0.04854934,-0.5678383,-0.12932831,0.31879985,0.29438016,0.2915565,0.025970198,-0.26525322,-0.014988866,0.1927856,0.022121444,0.37630305,-0.278107,0.33275098,-0.66763496,-0.15814333,-0.05301966,-0.15200439,-0.0069582537,0.24923247,0.019704055,-0.044349197,0.085598126,-0.33164233,0.115730405,0.09424845,0.33881736,-0.21692868,-0.18720406,0.3996953,-0.13125698,-0.01968855,-0.021446053,-0.06529428,-0.22233403,-0.3237166,0.14258987,-0.35588393,-0.035804648,0.4997235,0.27204522,-0.15977758,-0.15153342,0.3632268,0.08680865,-0.36610645,-0.1956236,-0.021414194,0.29226908,-0.1919505,0.2998876,-0.44532824,0.030133147,-0.05255312,-0.029942332,0.017117532,-0.07472281,0.15888047,-0.06725013,-0.10604598,0.5242902,-0.16072258,-0.036409512,0.18077059,0.0052862037,-0.3041954,-0.47747126,0.05468966,-0.09307491,-0.29299462,-0.10601029,0.18880093,0.15610188,0.10492916,-0.32282507,0.11936271,-0.36368948,0.08659814,0.25539324,-0.5752667,-0.04733005,-0.10785805,-0.37771052,0.12229633,-0.0049739443,-0.2760518,0.13008764,-0.060639407,-0.2741577,-0.015598144,-0.1757058,0.1321246,-0.26007065,0.0136342915,0.03146845,-0.9596826,0.013757675,-0.005356025,-0.17356071,-0.0957974,-0.16592082,-0.8306575,0.23668267,-0.27016333,-0.05243013,-0.05333929,-0.17685825,-0.22180906,0.2865906,0.040846236,-0.11264922,0.34406596,-0.09981328,0.60239124,-0.057258483,-0.00027695205,0.0048532533,-0.122086644,0.18507558,-0.38236487,-0.24732234,-0.061001465,-0.28057718,0.14840737,-0.19482538,-0.0832476,-0.18562016,-0.21630892,0.32675636,0.04975869,-0.091625005,0.17277402,0.073139645,-0.60985017,0.027297784,-0.45464638,0.073033996,-0.2677831,0.06339684,0.23858362,0.16867143,-0.37046874,0.63924396,-0.3385555,-0.42796203,-0.067451075,-0.26700217,0.07724547,0.38134417,-0.39267448,-0.12193456,0.4523077,-0.36049914,-0.2999698,0.3392579,-0.06365364,-0.17239039,-0.0064187963,-0.6288718,-0.076647416,0.7499588,0.48881584,-0.045275472,0.22887528,0.03343037,0.02756564,0.3528617,-0.21327657,-0.022732632,0.28335172,-0.039950665,-0.61596805,-0.01885027,-0.021404661,-0.09496792,-0.52378124,0.7164068,0.08493657,-0.31517813,-0.22879073,-0.18364117,-0.24128455,0.3438626,-0.11174473,0.32065326,0.20258029,0.5947945,-0.043568574,0.45470798,0.3930447,-0.055066075,-0.07583089,-0.18886179,0.25413105,0.17857805,0.35110545,-0.24378026,-0.06693713,0.07102231,0.10524827,-0.0050717965,-0.1598382,0.03386642,0.081686266,0.11367699,0.08801997,0.30483574,0.45306772,0.19279838,0.17399111,0.35649395,-0.085547715,0.6886518,0.54332715,0.20786324,0.13303769,0.37753046,0.1919662,0.24684945,0.039135806,0.16964951,0.23775089,-0.13997662,0.47066647,0.23889236,0.28402585,0.6048155,-0.5848732,-0.2843806,-0.13099131,0.5111601,-0.41222662,0.07835151,0.042635683,0.040977784,0.12191902,-0.50917166,-0.19200324,0.16984215,-0.10707548,0.22630237,-0.15151772,-0.19235927,0.26574147,-0.04332129,-0.37542254,-0.35689276,-0.44270468,-0.08081829,0.07516402,0.093815364,0.113875344,-0.024170848,-0.14469875,-0.0015544295,-0.023518827,0.23191819,0.07418591,-0.009759403,0.22060901,0.46572542,0.20844725,0.61425275,-0.15021876,0.1768114,-0.12719889,-0.24065705,0.08471659,0.09105915,0.061605208,0.07293843,0.30765438,-0.4287274,-0.18000656,-0.2196981,0.33833492,-0.33022907,0.007236149,-0.07013351,-0.026242822,0.27289996,0.27714676,-0.031452797,-0.17410755,-0.13294451,-0.35276562,0.032415934,0.26433942,-0.5487228,-0.17397025,0.40215075,0.2252261,-0.06297483,0.053785235,-0.2050213,-0.02287114,-0.112787195,0.3849877,0.2877696,-0.39096886,-0.4546907,0.33652097,-0.2633165,0.046924036,0.16203502,0.18437052,-0.047651827,-0.086344495,0.3859075,-0.035024285,-0.27825472,-0.37202692,0.04625401,-0.37501594,-0.13183866,-0.26063475,0.13715512,-0.39509162,-0.16520894,-0.5814337,-0.10234407,-0.0457452,-0.007449872,-0.1317822
10984392.pdf,-0.60838246,0.19119683,0.3294297,0.012767466,0.6080675,0.20324777,0.21063626,0.04706424,0.0970477,-0.37541676,0.04167889,-0.31783098,0.038936436,0.12588274,-0.12602715,0.5303908,0.35818157,-0.018766228,-0.20197181,0.35472462,0.0904012,-0.19112363,0.040629286,0.68757814,0.4485852,-0.08281968,-0.22584906,-0.22080666,-0.2838344,-0.16034806,0.5064887,-0.022833869,-0.13167909,-0.42263773,0.0756224,0.05159127,-0.20087186,0.0146167,-0.26096755,0.106948644,-0.54492676,-0.13417818,-0.03949967,0.020173527,-0.2912565,-0.27227977,0.006028507,-0.126686,0.005210478,-0.112363726,-0.43987995,0.24919367,-0.33377624,-0.23986045,-0.0215477,0.7221152,0.05416756,-0.4474464,-0.442941,-0.37290892,0.15681037,-0.13181582,0.37269402,-0.2353351,-0.029779147,-0.013282261,0.05806369,0.25825083,-0.7076031,-0.014709964,-0.4505904,0.094916165,-0.27566642,0.020571746,-0.42749363,-0.16666043,-0.03491222,0.41245437,-0.026560651,0.049357202,-0.37677932,0.25492886,-0.2942488,0.09184629,0.11064859,0.12778527,0.46691328,0.36745858,-0.49645942,0.70738846,0.2742821,-0.4764037,0.36682665,0.2470797,-0.05916725,0.082440734,0.25337934,0.2558093,-0.14883126,0.10871915,0.23603007,-0.22947438,0.03168847,-0.039477963,0.004747547,-0.0233455,0.005923299,0.24097559,-0.50001544,0.34120578,-0.068139456,-0.2097847,-0.22303632,-0.41523492,-0.047734357,-0.013624806,0.12549025,0.14240399,0.3015806,0.12795195,0.28527188,0.035242863,0.0229568,0.84348977,-0.029293323,-0.012440882,-0.09245209,0.3757658,0.006238022,0.056486942,-0.07773773,0.13858286,-0.18578455,0.05820772,-0.48694742,0.4436742,-0.03043915,-0.116110146,-0.2023103,0.06642473,-0.010999098,-0.6201339,0.52563,-0.12336131,0.18705657,-0.36954373,0.16521701,-0.008137079,0.04699987,0.4012826,0.1780617,0.12357717,-0.28201154,-0.15299189,-0.07176936,0.15928443,-0.47438502,-0.018971592,-0.11735817,-0.028349798,0.2953657,0.28862822,-0.5031314,0.05476176,0.04342299,-0.05463385,-0.0436463,0.43794996,-0.3262287,0.100875095,-0.0365309,0.023151968,0.6642451,0.2368232,0.24770698,0.1805064,0.14749795,-0.18837056,0.12730895,0.16397859,-0.55105007,0.39359516,-0.030144759,-0.12877066,0.09514469,-0.19529454,0.26562452,-0.30671015,0.2344329,-0.2934818,-0.25265187,-0.25763714,-0.052077785,-0.018441077,0.2674369,-0.33461583,0.037627146,0.091690995,-0.4760406,-0.23898935,0.37445542,0.10307181,0.09146541,0.081915356,0.13367942,-0.55545616,0.21019071,-0.30895543,-0.19337237,0.25344557,-0.3070433,0.04892629,-0.073550925,0.21314234,0.14149943,0.0675654,-0.20726737,-0.035202354,0.2404938,0.05472598,0.24907479,0.21567331,-0.4607912,0.5590563,-0.40725818,0.32157475,0.16185501,-0.9545069,0.41230726,0.25408202,0.100215904,-0.40426838,0.3747239,-0.38425937,0.07785773,-0.020517854,-0.26647508,-0.055403564,0.25911438,-0.33835453,-0.26330945,0.540596,0.096028045,0.0872674,0.13407055,-0.26837844,-0.038881417,-0.078308105,-0.20436577,-0.20627995,-0.83330655,0.10017299,0.08053496,-0.44470078,0.0041841567,-0.40253633,-0.13804558,-0.39825404,-0.3159564,-0.15666988,0.21540532,0.19013646,-0.06525783,-0.021497894,-0.024412507,-0.58149254,0.07654063,0.2041056,0.33188927,0.20619422,0.18414626,-0.23206258,0.058020882,0.68840265,-0.23472455,-0.12940183,0.3229313,0.09145172,-0.12970543,-0.25329685,0.23247403,0.2760635,-0.19435734,-0.14092413,0.15932405,-0.20957454,0.38267964,-0.09036968,-0.12695809,-0.23824722,-0.32364464,0.2405314,-0.55547225,-0.14543253,0.49892366,0.16530569,0.058677,0.22908762,0.12249473,0.091927946,-0.36319304,-0.5049585,0.3968029,0.13981974,-0.053461794,-0.02095521,0.015146666,-0.4053086,-3.4185817,-0.20509022,0.13562939,-0.28559184,0.33725098,-0.20950812,0.08458196,0.12742735,-0.24366978,0.2506942,-0.07390029,-0.26238266,-0.008792911,0.2696596,0.109446235,0.06739472,0.30141425,-0.12464626,-0.034515657,0.32153726,-0.20713426,-0.88199633,0.08499235,0.06559902,0.19949596,0.14700994,-0.52148914,0.01535346,-0.45709586,-0.15765008,0.1192849,-0.3551997,-0.24318226,0.16192022,0.13099675,-0.15178566,-0.055715274,-0.3238572,-0.085802905,-0.41735274,0.11011717,-0.6762523,-0.19895656,0.19428913,0.71180606,-0.06539853,0.15657099,0.0005490724,0.15472895,0.028859163,0.26639697,-0.051312633,-0.13579938,-0.17304055,0.1177886,0.021909047,0.70661247,0.2308746,-0.25445175,0.11355466,0.12287083,-0.19052634,-0.29267517,-0.21738842,-0.17224309,-0.040650822,-0.6237865,-0.24110633,-0.27542883,-0.05838636,-0.05253327,0.71250165,-0.14071155,-0.2660691,-0.23052403,-0.48183382,0.33543214,-0.1705976,0.1056817,-0.23085335,-0.17099607,-0.3198294,0.32546496,0.0013657752,-0.10513853,0.035637137,0.06727374,0.049816515,-0.40754777,-0.32608086,0.3177728,0.029309183,0.3237653,0.10923016,0.4078187,-0.21325621,0.4784491,-0.11196503,-0.05894807,-0.41162506,0.08194828,0.033431966,0.42498723,-0.08695659,0.07706573,0.030131355,-0.30009604,-0.022157803,0.43862104,-0.14913711,0.21946733,-0.025748301,0.24210948,-0.42906663,-0.09270348,0.060910378,0.08270107,0.7355199,-0.06571464,-0.19459864,-0.070564434,0.15336095,-0.12785743,-0.094233185,-0.25367373,-0.017083758,-0.3791083,0.44645667,0.056736972,-0.1913974,-0.22641788,-0.08298516,-0.2115466,0.2708788,0.32276905,-0.1640042,0.20047562,-0.520947,-0.033564463,0.13862462,0.23405805,0.3693837,0.19315515,-0.4079446,-0.0124941245,0.3580819,-0.1572815,0.30545664,-0.16056141,0.21802443,-0.6484215,-0.22668858,-0.15403523,-0.24795845,-0.050644312,0.47805065,0.2074739,-0.23645708,0.08692645,-0.49205872,0.19593517,0.056611124,0.16062944,-0.16875786,-0.19476251,0.7481899,0.005774012,-0.13456507,0.04127394,0.027158476,-0.17821193,-0.47938156,0.17365903,-0.5474743,-0.053520586,0.4897092,0.18776214,-0.2639583,-0.22652707,0.44490293,0.015455069,-0.21175113,-0.37185112,0.029667906,0.3326113,-0.04243974,0.26257947,-0.44154698,-0.10880415,-0.008631301,0.01186653,0.30906737,0.099352196,0.22559717,0.15463063,0.10532865,0.6182005,0.25309005,-0.064847305,0.109365575,0.15726745,-0.2910067,-0.27301055,-0.010548431,0.17889787,-0.2209813,-0.07544371,0.39106733,0.009993106,0.04357213,-0.45410076,-0.2075862,-0.55795455,-0.09958233,0.2723369,-0.6403765,-0.18521139,-0.21832171,-0.5174447,0.25548115,0.1434439,-0.16190119,0.09107526,0.0708686,0.0073599443,-0.2310526,0.11503535,0.10927865,-0.33984804,-0.2523527,0.101789966,-0.97554594,0.11470051,0.16558914,-0.1402514,0.066345744,-0.091973215,-0.67432594,0.24562445,-0.40328878,-0.2294448,0.10232842,-0.31222066,-0.2502358,0.21210214,-0.008894812,-0.22169644,0.35732472,-0.06740957,0.54005027,-0.081554376,0.004840591,0.15450826,-0.024895448,0.2671066,-0.45805323,-0.4848019,-0.2306068,-0.41264534,-0.22055067,-0.19283193,-0.14764558,-0.1393688,-0.038744494,0.48359352,0.38587296,-0.011648066,-0.0330389,0.09456066,-0.6352868,0.3472259,-0.3645832,-0.20512292,-0.2953896,0.13145196,0.061967384,0.15744098,-0.3176517,0.5332666,-0.23200846,-0.46259594,-0.35822594,0.02605387,0.18907663,0.38761044,-0.48104852,-0.032959197,0.05612772,-0.048398454,-0.01682612,0.37006265,-0.13443238,-0.09440011,0.03352719,-0.59606737,0.30407825,0.721617,0.22360095,-0.023555249,0.41845813,0.25907466,0.052893106,0.37596846,-0.21152163,-0.194611,0.2581398,0.004654143,-0.61640316,-0.10623906,-0.31953084,0.06736803,-0.41431054,0.6368834,0.23887421,-0.40286437,-0.29206774,-0.36320066,-0.025300445,0.37412152,0.0062343646,-0.04634028,0.17793337,0.63693726,-0.11389426,0.44725734,0.5165823,-0.15566804,-0.15229727,-0.13034552,0.19417937,0.17977467,0.36234954,-0.32676178,0.17473367,-0.02434475,0.14782977,-0.039896294,-0.12851451,0.104557574,0.01336669,0.33202094,0.04055984,0.6793441,0.38919854,0.12465007,0.16104929,0.42787257,0.009331673,0.44131762,0.69449675,0.12960646,-0.03559547,0.113977745,0.025256567,0.3090847,-0.058172017,0.14039622,0.63264406,-0.099736854,0.6223975,0.2742262,0.35687697,0.58924735,-0.68530035,-0.2494713,-0.099546,0.46149766,-0.38255104,0.06715469,0.18221466,0.0024722677,0.26986656,-0.38082087,-0.39093435,0.07414202,0.07169902,0.106707804,-0.029693821,-0.113461435,0.18015856,0.066640876,-0.17721215,-0.27544922,-0.2516885,-0.3846612,0.2359862,0.021309271,0.05606024,0.09303914,-0.30455756,-0.0013785698,-0.08871157,0.15853845,-0.08912702,-0.16771549,0.11414259,0.293535,0.001424117,0.691734,-0.081715286,0.19959915,-0.20049983,-0.2783615,0.085132316,0.26920432,0.02001682,-0.108087,0.47773328,-0.34830868,-0.31189626,0.014479324,0.13647637,-0.3441791,-0.058219053,-0.050893605,0.02553089,0.07701125,0.096640185,-0.1371112,-0.29367787,-0.25367585,-0.35681164,0.11848875,0.048444472,-0.46712452,-0.12642638,0.2678628,0.23579629,-0.21171355,-0.021243274,-0.27746475,-0.012502465,-0.008168499,0.2415785,0.10791087,-0.078068234,-0.36142612,0.23297088,-0.082248695,0.31787324,0.23360986,0.23397793,-0.19812942,0.17537397,0.32508475,0.03978563,-0.24489927,-0.35948616,-0.08657561,-0.11718251,0.0108345905,-0.2776929,0.2005072,-0.30672938,0.003943898,-0.30878,-0.1437839,-0.45516062,-0.058817547,-0.044415817
11020140.pdf,-0.3987134,0.23721941,0.43704993,0.015922923,0.6229905,-0.0571006,0.024121426,0.21779096,-0.026890295,-0.15740058,-0.14027196,-0.30250332,-0.09897353,0.028159108,0.099995635,0.3766021,0.34760258,0.019116271,-0.21725143,0.39568758,0.138969,-0.20361793,0.015857412,0.6945644,0.2225684,0.029257057,-0.05451444,-0.15746556,-0.3856963,-0.17738295,0.48393852,-0.094825104,-0.019388705,-0.29898036,0.14178368,0.10371834,-0.22518143,0.1541827,-0.2075916,0.17417245,-0.45464662,-0.18965444,0.02310815,0.065627515,-0.20377865,-0.12116469,0.2387448,-0.22184888,0.08590613,-0.08035232,-0.6494715,0.42283165,-0.36539018,-0.2498452,0.41260132,0.6006745,0.0615391,-0.6661196,-0.4479853,-0.34058896,0.1668407,-0.13940617,0.06925684,-0.09584123,0.3541549,-0.13442698,0.11121875,0.38681823,-0.6650103,-0.18281421,-0.21779974,0.18161276,-0.16616678,-0.000579603,-0.25809094,-0.063576,0.1032048,0.4591762,-0.08360931,0.044419393,-0.27608222,0.29980755,-0.25213206,0.2279172,0.23804696,0.041012973,0.34084043,0.18044025,-0.35580832,0.5658489,0.4347499,-0.37562206,0.21374647,0.05295251,0.20143983,0.24916932,0.00088082347,0.28678498,-0.06693021,0.008896999,0.058153935,-0.029013753,-0.027522359,-0.04231333,0.022977596,-0.08055391,-0.005646024,0.32199872,-0.4654447,0.46296325,0.20657486,-0.29416373,-0.1323389,-0.5578141,-0.094813034,-0.06454446,-0.09265843,0.20117113,0.38682538,0.12913889,0.39460567,0.0050540604,0.19646859,0.9465995,0.017773548,0.044629075,-0.13562399,0.32443422,0.06550115,-0.07750562,-0.06288993,0.2841172,-0.095611066,0.08756834,-0.19898525,0.30382925,-0.14130424,-0.19872743,-0.17385882,0.21874863,-0.20459166,-0.57231295,0.48336554,-0.1436648,0.053012088,-0.24880421,0.035273813,0.073040776,-0.17225724,0.42092118,0.23889603,0.17140466,-0.07217182,-0.2870615,-0.067622066,0.30094773,-0.0985338,0.03589225,-0.39639962,-0.18700708,0.44809294,0.3540486,-0.4961068,0.3207737,0.065831564,-0.03397355,-0.19804667,0.20065206,-0.102438726,0.30295384,-0.12180813,-0.051375475,0.5952671,0.025316823,0.13895409,-0.07209329,0.4384682,-0.17432582,0.30552596,-0.018583456,-0.42880595,0.4129281,-0.13859373,-0.15397663,0.11521553,-0.12584049,0.63109493,-0.44154716,-0.011759486,-0.37520355,-0.3605823,-0.5632849,-0.16510868,0.03758934,0.39584517,-0.30870923,-0.036074657,0.21652976,-0.5457683,-0.11091199,0.41895133,0.20441598,0.06839739,0.17423743,-0.17425026,-0.5444088,0.19391051,-0.5288551,-0.28855228,0.1690774,-0.25692856,0.16858797,-0.19099292,0.20608154,0.06862454,0.15447547,-0.32374293,-0.22157764,0.26040077,-0.06827408,0.19834635,0.12658367,-0.4623288,0.70106196,-0.4063695,0.444487,0.06682965,-1.1312745,0.49846026,0.13366568,-0.031414337,-0.23165181,0.46645027,-0.4983911,0.0631479,0.010643257,-0.25267202,-0.098984495,0.21762833,-0.16885342,-0.32196248,0.746825,0.1822918,0.018138744,0.3184167,-0.04276694,-0.09405004,-0.05875607,-0.17884058,-0.17525885,-0.54327995,0.15326962,-0.014397742,-0.58592534,-0.039569087,-0.3783899,-0.2355416,-0.49059513,-0.34370193,0.18368514,0.12758332,0.30454153,-0.1222164,-0.048319872,-0.05188498,-0.75397974,0.015372433,0.2991213,0.24740869,0.4085971,0.07121005,-0.21886721,-0.012994751,0.44552666,-0.3985216,-0.2245696,0.20587903,-0.026846804,-0.0685734,-0.16427986,0.06523359,0.37273252,-0.077164486,0.12514846,-0.0042698495,-0.12948383,0.2947289,-0.15412663,-0.23559201,-0.13412842,-0.14437675,0.29364294,-0.61551857,-0.21404311,0.5022005,0.02176851,0.019409632,0.3601523,0.2995922,-0.030892182,-0.4166795,-0.19735774,0.3082826,0.05343806,0.09858092,0.10318978,-0.17883,-0.6307486,-3.13378,-0.11019049,0.14357176,-0.37902975,0.3156498,-0.1406427,0.19683392,0.03980722,-0.36760294,-0.05142697,-0.08782926,-0.07762407,0.0070569683,0.30206516,0.19485006,0.122382306,0.09931952,-0.19731839,0.12697464,0.40435302,-0.14924407,-0.8103156,0.13870963,-0.03760005,0.12011911,0.27366373,-0.6557479,-0.06354609,-0.33513427,-0.19705334,0.08065041,-0.13871686,-0.32832253,0.36982346,0.100429446,-0.14928374,-0.0992869,-0.42606202,-0.049677778,-0.6483517,0.2150069,-0.91419405,0.073118016,0.0034663416,0.63073575,-0.1484893,0.19891654,0.07692976,0.30588078,0.18157953,0.26946583,-0.11622585,-0.40642345,-0.20464186,-0.05217074,-0.19500363,0.59752184,0.34116542,-0.38842088,0.046296135,-0.085768774,-0.34815812,-0.538792,-0.28775826,-0.31866696,-0.09172275,-0.8097676,-0.28638792,-0.2203532,-0.10501638,-0.07283847,0.7730033,-0.29969293,-0.3721003,-0.11978449,-0.59648776,0.26348627,-0.2769313,-0.08897974,-0.26547822,-0.1910006,-0.25893638,0.33013964,-0.11216527,-0.2950595,0.043724157,0.047872953,-0.08823234,-0.4280287,-0.616009,0.31248122,0.06530147,0.39964563,-0.011049959,0.48632926,0.17294694,0.5955896,-0.13779593,0.088073015,-0.5326092,-0.12772408,0.14324613,0.7094828,-0.3366294,-0.0036732312,-0.01861525,-0.40299535,-0.14790413,0.33166695,0.0773301,0.18299724,-0.33559415,0.2167567,-0.44549185,-0.4434217,0.11696902,0.15781686,0.7951902,-0.027230095,-0.41768527,-0.24994461,0.2586946,-0.16668198,-0.21068116,-0.16891436,0.056848805,-0.22487187,0.31670845,0.18503374,-0.03911294,-0.35890684,-0.039813526,-0.14156191,0.34205443,0.23087084,0.1033598,-0.05182837,-0.29568338,-0.0769568,0.2611162,0.08234476,0.35277706,0.24359946,-0.2284945,0.07550232,0.29493827,-0.2090187,0.39057016,-0.07941554,0.07734385,-0.5986761,-0.2104333,-0.16755791,-0.31171185,-0.03665327,0.44362172,0.18957682,-0.12537934,0.11157371,-0.552779,0.3003656,-0.1255359,0.122438446,0.020997819,-0.040141392,0.7135964,-0.004661862,-0.10188103,-0.041909937,0.08390653,-0.33030215,-0.3351819,0.19116351,-0.45015547,-0.028195225,0.5583221,0.18997198,-0.1398607,-0.10782937,0.4186368,0.01349137,-0.32114133,-0.22690922,-0.1345784,0.19889203,0.18790822,0.18867771,-0.55820096,-0.06934026,0.06863544,0.1313888,0.4431908,0.030015469,0.21787876,-0.04574387,-0.13650325,0.55198026,0.21757935,-0.12559842,-0.13623175,0.15420564,-0.2884591,-0.4362273,-0.003977604,-0.03606354,-0.1840903,0.054132402,0.18614864,0.14418817,-0.003451798,-0.43770534,0.00513361,-0.4301707,0.0528499,-0.09252713,-0.5750357,-0.015052618,0.08231156,-0.47315878,0.14390868,-0.07645131,0.07278985,0.07641577,-0.01062046,-0.19123831,-0.2466406,0.2752444,-0.05995401,-0.32086676,-0.26895827,0.12515023,-1.0518439,0.14603591,-0.04870255,-0.19911379,-0.062997386,0.066434786,-0.765154,0.45812282,-0.37909043,-0.13136242,0.06395508,-0.20152639,-0.23871309,0.14584188,0.014972258,-0.2946688,0.30735752,-0.328521,0.6854367,0.1889853,0.11527151,0.21861506,-0.16152702,0.16776974,-0.34856963,-0.41043925,-0.25204352,-0.31123182,-0.16388205,-0.010565145,-0.05498865,-0.12319794,0.021939745,0.4460339,0.26434106,-0.18090564,-0.11940402,0.037651014,-0.41126603,0.09422791,-0.15885371,0.068670064,-0.12546194,0.3136834,0.038976215,0.21485494,-0.40940568,0.8524118,-0.04785079,-0.43294793,-0.10919401,0.15862626,0.11695557,0.45987517,-0.5453211,-0.041000187,0.26599216,-0.038675107,-0.024340147,0.2825663,-0.15932597,-0.18464881,-0.10138864,-0.6872784,0.115496114,0.7139026,0.26195273,0.1256805,0.15741874,0.2150842,0.2084277,0.42320958,-0.062263235,-0.35123968,0.40411434,0.032466255,-0.75635195,-0.25727397,-0.2437584,-0.17063949,-0.42805612,0.7721883,0.1537898,-0.40321478,-0.3989306,-0.24238484,-0.15772787,0.36111268,-0.05941257,0.07155576,-0.044582993,0.5900489,-0.034603428,0.360849,0.5042813,-0.080292806,-0.24472022,0.030077513,0.1925898,0.19540258,0.25439954,-0.12311076,0.089558214,-0.007226498,0.17937708,-0.28153068,-0.19733879,0.028938007,-0.13184161,0.021469226,0.114881665,0.6629823,0.52823377,0.2639797,0.43146473,0.35083753,-0.13261116,0.59164363,0.75687295,0.21926442,-0.014999362,-0.13152012,0.118806355,0.10256023,-0.117808364,0.35436612,0.48504096,0.09650314,0.7778913,0.22961232,0.34566602,0.67119086,-0.5028075,-0.3499887,0.02585018,0.60418034,-0.4905992,-0.009659097,0.13629578,-0.18994221,0.32678923,-0.43794376,-0.09677194,0.067288876,-0.10963166,0.23334675,-0.019416621,-0.11386238,0.062579855,-0.010431521,-0.324718,-0.2485311,-0.41043553,-0.25165275,-0.004561208,-0.053790934,-0.029420631,-0.046664886,-0.32352996,-0.16089645,-0.02334221,0.36489612,-0.17379893,-0.12351277,-0.20136422,0.16016877,0.14152706,0.76467586,-0.060950287,0.27529573,-0.24767336,-0.15137279,0.039100755,0.11081927,0.15201195,0.13557017,0.616874,-0.517272,-0.13559178,-0.0637836,0.39833254,-0.29150105,-0.11827232,-0.049748186,0.040837582,0.17703828,0.16130355,-0.34951422,-0.05165804,-0.21054618,-0.52974993,0.38766524,-0.11724886,-0.30075932,-0.14441434,0.37001473,0.29486665,-0.07017818,-0.052867115,-0.19749832,0.16732807,0.01592458,0.45494178,-0.16174725,-0.24059631,-0.39555502,0.3625688,-0.12380162,0.16148916,0.056455538,0.24959408,-0.09645638,0.112016,0.24893372,-0.10848902,-0.35241705,-0.4384462,-0.22959858,-0.2142143,0.010781486,-0.12084824,0.16821407,-0.34000582,-0.020215593,-0.23738606,-0.28602237,-0.25295746,-0.15339284,0.013316575
11333660.pdf,-0.3402335,0.07629252,0.30551702,-0.109501,0.53696597,0.062050004,-0.030242164,0.22437106,0.0193211,-0.06579163,-0.18920091,-0.3739174,0.054396335,0.07444404,0.19579382,0.55068195,0.33173722,-0.10677008,-0.24264005,0.41922826,0.3005715,-0.19274947,0.13723055,0.81266516,0.47202194,0.10212326,0.024847927,-0.019364052,-0.24224536,-0.20944116,0.585353,-0.043460824,-0.13945179,-0.29997188,0.2958482,0.06651437,-0.33935982,-0.048260882,0.033456847,0.4027497,-0.40286,-0.25398508,-0.16767734,-0.009038551,-0.36197034,-0.34082335,0.11805581,0.05916822,0.0670247,0.012286531,-0.4121632,0.46183902,-0.06721263,-0.5044171,0.34693894,0.9216559,0.024402019,-0.557539,-0.44425642,-0.40624106,0.019891651,-0.16564897,0.2517094,-0.21258295,0.08255831,0.033849813,-0.057689633,0.44589013,-0.70837206,-0.24634531,-0.29479718,0.17036356,-0.21497224,0.07228599,-0.3663355,-0.32056576,0.14129671,0.48965156,0.015667813,0.104012355,-0.11791064,0.3067154,-0.35741627,0.32628292,0.128202,0.30664575,0.28787273,0.25606224,-0.46603358,0.5922323,0.15427294,-0.28687382,0.28097254,0.22805846,0.23877226,0.033602204,0.10085324,0.10372837,-0.11567494,0.024626333,0.11259173,-0.1998504,0.1892388,0.15171292,-0.09499356,0.014651971,-0.13649602,0.18012074,-0.58178616,0.3723041,0.23433395,-0.28489518,-0.31191164,-0.6215839,-0.02112617,-0.08964987,-0.01703611,0.11521135,0.10762021,0.18067583,0.16936406,-0.06252466,0.11211747,0.983536,0.05019403,-0.09268586,-0.07943861,0.20324105,-0.009124637,-0.071169294,0.08517652,0.22756755,-0.18998256,0.013528742,-0.20488001,0.361139,-0.16343568,-0.33707172,-0.082441546,0.31655067,0.025200386,-0.5270411,0.58874094,-0.10631898,0.12599969,-0.23185089,-0.07938096,-0.075379334,-0.016163643,0.20978275,0.26965213,-0.08461962,-0.027079966,-0.19826838,-0.14273503,0.115421385,-0.22374752,0.02379418,-0.06870342,-0.0643446,0.36885107,0.26633447,-0.33464125,0.35115933,-0.15228993,-0.05209092,-0.27332082,0.13203938,-0.30938485,0.025718134,-0.05645603,0.0033471957,0.7322573,0.15929583,0.33123842,0.011216575,0.23080847,-0.11169064,0.031323843,0.2694389,-0.52098155,0.32822615,-0.16986305,-0.25369835,0.09538685,-0.09798706,0.16944894,-0.24854693,0.07801657,-0.14118719,-0.23603925,-0.41976154,-0.17570171,0.039557137,0.20722352,-0.28025392,0.21586072,0.16376303,-0.3668568,-0.22441399,0.22617686,0.2742295,0.19920035,0.24793378,-0.045256756,-0.57224333,0.22449422,-0.40154508,-0.22600079,0.12516841,-0.32698345,0.11167004,-0.11438617,0.24436088,0.046626687,0.10251546,-0.19340709,-0.09039036,0.011822858,0.03404206,0.1826329,0.18882713,-0.40754995,0.5562787,-0.41031548,0.47350493,0.14234376,-0.924382,0.34782368,0.3733129,0.096757606,-0.2609522,0.37464255,-0.37060326,0.0862516,0.03802467,-0.39850247,-0.05148664,0.36571717,-0.34023976,-0.21847492,0.54014933,0.21753788,0.13595578,0.2140309,-0.033288274,0.040949933,0.018739771,-0.066914916,-0.2686054,-0.6127454,0.06544291,-0.0843108,-0.45297557,-0.13443905,-0.37257427,-0.17994502,-0.47547534,0.08231136,-0.022073857,0.23038742,0.25955713,-0.008955749,-0.1746537,-0.0653109,-0.5400681,0.06830835,0.036489777,0.3144797,0.29599524,0.17385855,0.04711107,0.21753335,0.44021213,-0.25146532,-0.149701,0.2696057,0.10652043,-0.0110552255,-0.20846437,0.0850223,0.1817375,-0.3486225,-0.08929572,-0.16801968,0.0165717,0.17202859,0.09855767,-0.11806934,-0.13742134,-0.16263163,0.31501395,-0.42225024,-0.012456342,0.47242695,0.21132967,0.067775555,0.13896474,0.10469555,-0.07329939,-0.37249935,-0.32602897,0.32954824,0.14134741,0.25547048,0.091676496,-0.015788538,-0.52340835,-3.2800918,0.0122519,0.071657546,-0.24532092,0.29839122,-0.14697449,0.14110294,-0.029704928,-0.47210357,0.018184721,-0.29745972,-0.17478618,0.11931342,0.104112655,0.25096148,0.07667313,-0.024528207,-0.19539455,0.042427883,0.5019065,-0.21156743,-0.7020677,0.25077748,0.07285554,0.27553052,0.21160495,-0.6135948,-0.06133946,-0.25792018,-0.24609676,0.26452303,-0.28435767,-0.20936224,0.2807622,0.1489222,-0.05178952,-0.054956228,-0.37053525,-0.19088092,-0.38729417,0.040931344,-0.7965668,-0.1110541,-0.0047591133,0.76915586,-0.11527997,0.25567624,-0.16977972,0.13450253,-0.0018986701,0.18877791,-0.085048124,-0.38575482,-0.16154528,-0.118942425,-0.06570103,0.41670072,0.2016064,-0.3554195,-0.12581676,0.1418572,-0.2639683,-0.40616697,-0.13514428,-0.23443896,-0.102121934,-0.6869601,-0.55640465,-0.02703813,-0.1663162,-0.14720699,0.64771944,-0.25422046,-0.33135223,-0.19550619,-0.5879354,0.35436076,-0.29406732,-0.08784284,-0.21173444,-0.18759051,-0.33810347,0.16444772,-0.06532974,-0.25916535,-0.24256091,0.13786359,-0.22002521,-0.41214502,-0.67906183,0.2588688,0.058277003,0.17845345,0.06575243,0.46991616,0.013874904,0.33789745,-0.01960931,0.053591322,-0.40122133,-0.025601769,-0.055048775,0.57303,-0.53996515,0.107683845,-0.09708302,-0.33994287,-0.02676491,0.20637667,-0.08877354,0.22636285,-0.22005513,0.23511463,-0.38524824,-0.10162614,0.050173018,0.29897243,0.77034724,-0.110571966,-0.24338205,-0.09670893,0.3696716,-0.04899165,-0.055708773,-0.09736151,0.016748,-0.40061074,0.20767939,0.1265277,-0.11329925,-0.2379469,-0.21278737,-0.18630919,0.30504608,0.38499212,0.028388118,-0.07255825,-0.4388362,-0.096618466,0.5087457,0.20717847,0.27439654,0.22700715,-0.17022169,0.056097187,0.3402894,-0.16030045,0.60732734,-0.19345307,0.23516911,-0.87906814,-0.109692514,-0.22747329,-0.38055718,0.0444525,0.44247794,0.19518942,-0.100109465,-0.039552778,-0.4648568,0.19988601,-0.0785124,0.27828825,0.037547424,-0.058801837,0.7195338,-0.13580774,-0.12861663,-0.059197005,-0.1799902,-0.36304504,-0.3416432,0.046465073,-0.51653934,-0.118454896,0.5253883,0.19480509,-0.22814177,-0.13646993,0.45861492,-0.041637585,-0.19636431,-0.13699153,0.089613184,0.47473833,0.21445347,0.26685396,-0.6285825,-0.003548814,0.11338659,0.07043573,0.24884811,0.118942335,0.23188654,-0.10010151,-0.14802577,0.53996444,-0.016906755,-0.07609688,0.167509,0.034247648,-0.2616077,-0.44476122,0.24670158,-0.10277941,-0.22876859,0.00013683457,0.14409104,0.1791684,-0.08175092,-0.51696444,0.008908797,-0.38436964,0.0984578,0.19667964,-0.6384846,-0.3265062,-0.17702968,-0.46498644,0.12244321,0.018804688,-0.16213286,0.0137343425,-0.021498676,-0.094210394,0.015495101,0.1784253,0.035934784,-0.4542961,-0.16273135,0.055759106,-1.0535852,0.15324625,0.15797247,-0.009601154,0.12742454,-0.0030537583,-0.9275968,0.30150446,-0.2566109,-0.022090402,-0.13080956,-0.19296873,-0.4487537,0.0032479586,0.14133057,-0.06814552,0.5990833,-0.112059526,0.4461043,0.041207254,-0.03177763,0.12870449,-0.2393628,0.1501633,-0.4639929,-0.4190398,-0.12414317,-0.34702945,-0.110607974,-0.12350798,-0.150325,-0.28087735,-0.026781064,0.36884043,0.15344527,-0.12091788,-0.20260276,0.100141875,-0.457115,0.0043072132,-0.23688301,0.04072661,-0.0349406,0.10449271,0.2959928,0.04630243,-0.41592562,0.5090661,-0.3085709,-0.2982234,-0.17774317,0.0060750833,0.044427767,0.59349227,-0.5378445,-0.1342229,0.3780796,0.037466172,-0.024256265,0.5214164,-0.22334129,-0.22598569,0.00091722514,-0.5571672,0.10860445,0.5862901,0.25032854,-0.07114478,0.22688906,0.17714263,0.12144557,0.2966436,-0.017563727,-0.12424868,0.29512042,-0.04437857,-0.55829275,0.05667888,-0.16231099,-0.004806876,-0.49745208,0.696221,0.13585179,-0.24563786,-0.32288307,-0.2968902,-0.07628384,0.29860473,-0.032851353,0.063698806,0.24739432,0.60722136,-0.023400594,0.4177969,0.48393303,-0.26545057,-0.1529841,-0.0010036454,0.20776434,-0.06339418,0.40583235,-0.34384716,0.1777897,-0.0048489533,0.19984174,-0.044024292,-0.04772701,0.118804276,0.14103904,-0.05338411,0.10658357,0.41858643,0.37903404,0.36923963,0.270768,0.2838282,-0.03660351,0.66209036,0.57880926,0.28284186,0.13760343,-0.011657137,-0.067715146,0.2508932,-0.12134437,0.20367071,0.390818,0.10204587,0.54420686,0.15590239,0.21776754,0.6004686,-0.54546106,-0.17172578,-0.042008992,0.5905824,-0.44286096,0.13959971,0.15518764,0.06553521,0.18281856,-0.44662905,-0.19747041,0.08915326,-0.029221144,0.0073995832,-0.11287309,-0.14909607,0.2890187,-0.07883802,-0.33573937,-0.40522364,-0.19959053,-0.16809371,-0.018724648,-0.026578845,-0.031867705,-0.23275453,-0.18993348,-0.0074554197,-0.07999835,0.20728256,-0.047816344,-0.18710005,-0.09797634,0.4468992,0.07097849,0.5428416,-0.09638825,0.09383772,-0.2508452,-0.25964394,0.19786628,0.31517744,0.056854814,0.007384588,0.35160547,-0.3781803,-0.22585456,-0.07261455,0.29483992,-0.4027645,0.07320466,-0.056446776,0.22004572,0.05975818,0.22911462,-0.1840185,-0.093873166,-0.088387646,-0.5538551,0.21570742,0.08573982,-0.30027077,-0.088370256,0.22307645,0.27054676,-0.10825522,-0.10174604,-0.16532326,0.031788137,-0.066472515,0.20921347,-0.09028861,-0.12980318,-0.37857217,0.578703,-0.23251316,0.2298549,0.245682,0.23419502,-0.040086918,-0.05173195,0.4812399,-0.074549474,-0.22741422,-0.4391009,-0.14708981,-0.19602509,-0.017851189,-0.1811287,0.2083862,-0.36385056,0.05430121,-0.44150224,-0.28809685,-0.21011257,-0.12112756,-0.21079442
11415967.pdf,-0.28098923,0.250511,0.37825757,-0.045612067,0.62822914,0.009279888,0.11992164,0.17414784,-0.007997709,-0.14034984,-0.03505324,-0.21001907,0.14571291,0.09955852,0.10935791,0.5148788,0.2786647,0.0155208,-0.16059107,0.25185215,0.14027686,-0.26474214,0.016845103,0.6702496,0.41472518,0.14107266,-0.08454169,-0.05934038,-0.31729096,-0.26766264,0.5710961,0.0048834532,-0.15598887,-0.13952574,0.13998704,0.04163423,-0.3080066,0.027495496,-0.2241078,0.19213381,-0.37876397,-0.04749707,-0.11827449,0.056269407,-0.29180083,-0.29028863,0.21721624,-0.17989516,0.104551055,0.08104488,-0.3315951,0.36721867,-0.31156576,-0.40245652,0.34938616,0.7073095,0.030216828,-0.54882497,-0.46186084,-0.4393114,0.2887144,-0.22457385,0.3035205,-0.008165246,0.29762465,-0.11437255,0.14940181,0.33953324,-0.75811803,-0.11549343,-0.26983222,0.145363,-0.13644561,-0.05084829,-0.37439388,-0.1641356,0.01132473,0.35266125,-0.0575992,0.14474168,-0.10808344,0.29808313,-0.26352787,0.21261153,0.08161022,0.20508195,0.25522584,0.22397442,-0.47172052,0.61146224,0.42122447,-0.23636875,0.2844473,0.10340035,0.13582489,0.113299444,0.08375717,0.12888746,-0.046725735,-0.007800095,0.14117807,0.076386414,0.024149025,0.019059744,-0.08946712,-0.079597875,-0.010872662,0.20948507,-0.4093222,0.47056997,0.10340628,-0.3389455,-0.15345863,-0.4857597,-0.017469253,0.002795115,-0.054494515,0.11381472,0.20388566,0.29843444,0.13097143,-0.115107134,0.19037382,0.7453313,0.12606385,0.037121877,-0.14462465,0.3754135,-0.09523394,-0.17331712,-0.04737115,0.29404426,-0.2060429,0.12997484,-0.3205708,0.30356127,-0.2569102,-0.27668622,-0.11988874,0.14861318,-0.14641494,-0.6652297,0.4121445,-0.14164323,0.00930425,-0.27975684,-0.060018543,-0.0005481951,-0.20179847,0.3246262,0.28785306,-0.024546947,-0.035415307,-0.17427996,-0.08005518,0.097892225,-0.13610157,0.01657319,-0.3527838,-0.18739693,0.36787486,0.3038055,-0.40826136,0.4085269,-0.08390603,0.01856459,-0.261234,0.32831943,-0.23879315,0.093775064,-0.11030544,-0.055625394,0.62103975,0.02286319,0.22287367,0.08613011,0.19692165,-0.14648214,0.14331494,0.051505595,-0.49033713,0.3197854,-0.1621854,-0.042338498,0.24325933,-0.037975993,0.437284,-0.32158634,0.11999702,-0.25817776,-0.24630746,-0.46110615,-0.0014720224,-0.036938764,0.21910325,-0.28239805,0.1419944,0.0004645586,-0.5278003,-0.21421447,0.2574062,0.367228,0.1973477,0.16583806,-0.025714371,-0.49478266,0.2508402,-0.3280451,-0.23790997,0.20800045,-0.3378541,0.08666201,-0.08884795,0.08952521,0.018429188,0.031717982,-0.2503563,-0.0794293,0.21243063,-0.060342953,0.18676832,0.22573014,-0.5357885,0.6503769,-0.36210316,0.41969848,0.009810658,-0.9389411,0.33470044,0.31097856,0.021586418,-0.2931745,0.58815634,-0.35446498,0.17705376,0.103063844,-0.4708909,-0.069413595,0.22481222,-0.22006315,-0.2591502,0.6244296,0.17418632,0.034077562,0.18178278,0.06926033,-0.068733394,-0.062477596,-0.20739001,-0.03534914,-0.5882386,0.105685815,0.03541468,-0.49282637,-0.056080226,-0.53263175,-0.08465235,-0.4616566,-0.2163448,-0.0007228404,0.18055715,0.1591513,0.06959438,-0.0045031607,-0.09249993,-0.6536491,0.16410358,0.21614222,0.13772716,0.34800828,0.16713107,-0.06262383,-0.012474831,0.50092137,-0.27597445,-0.202119,0.28583276,0.0050242133,0.0069891475,-0.1219835,0.14665388,0.26550734,-0.26600367,0.04105305,-0.04240419,0.029904466,0.29493415,0.063201316,-0.21793479,-0.15756272,-0.10762139,0.20517656,-0.59596205,-0.3367737,0.5079947,0.08387281,-0.040781487,0.3013348,0.23343351,0.02068225,-0.2818445,-0.16080591,0.19689107,0.05205081,0.17279577,0.093492754,-0.11769694,-0.5314726,-3.414237,-0.11864491,0.049958646,-0.33993965,0.1919304,-0.08682631,0.18092528,0.040833835,-0.4391476,0.11200915,-0.14874882,-0.24137405,0.21523601,0.28955126,0.3128934,0.045292523,0.13231644,-0.2650578,0.15242788,0.43626043,-0.1475649,-0.94750375,0.09700124,0.007828668,0.30858898,0.2684203,-0.5200794,-0.12934522,-0.39071673,-0.15036151,0.09733412,-0.098267615,-0.2154924,0.38409212,-0.028467013,-0.14295925,-0.15123558,-0.40610665,-0.11180623,-0.5581703,0.12277769,-0.82742923,-0.17488384,0.010096699,0.6079856,-0.1832796,0.20801575,-0.058995422,0.19586731,0.23361428,0.26015288,-0.047225,-0.38924205,-0.12509286,-0.14797837,0.023527132,0.5697454,0.21188092,-0.49142373,-0.011363241,0.18776983,-0.34213704,-0.38599297,-0.18317616,-0.29422677,0.06090989,-0.57396674,-0.49738187,-0.12176442,-0.21336344,-0.02379423,0.6874777,-0.35170233,-0.22268556,-0.30465156,-0.54578245,0.35773346,-0.15030634,-0.011425592,-0.28960544,-0.1720126,-0.36986482,0.24626231,0.11598489,-0.30901155,0.067966014,0.08270959,-0.091666505,-0.54886246,-0.61104846,0.43775332,-0.0026703365,0.25052807,0.1720501,0.29984385,-0.009775981,0.36948425,-0.064465806,0.03339403,-0.49037582,0.022470744,0.19347167,0.67811584,-0.23162207,-0.027638268,-0.08932877,-0.21799679,-0.07931807,0.25398403,-0.1330297,0.23747733,-0.22811417,0.317972,-0.3032693,-0.19342396,-0.040433772,0.17373931,0.73610985,-0.01730702,-0.21014376,-0.104188345,0.23164833,-0.2907716,-0.122739136,-0.25419226,-0.02739656,-0.27529114,0.40878925,0.15418594,-0.06267114,-0.28076792,-0.06750125,-0.16393983,0.21699974,0.3017585,0.098086946,-0.058848623,-0.4069115,-0.10231589,0.26557493,0.100898005,0.32341433,0.11372877,-0.20034239,0.05994776,0.18431126,-0.120156474,0.46007347,-0.08932615,0.20819032,-0.82272923,-0.3067296,-0.1988231,-0.26387224,-0.03444702,0.40032852,0.14317012,-0.13286334,0.04323066,-0.4993837,0.13899907,-0.08908117,0.27912176,-0.09943653,-0.13467403,0.7360196,-0.05675549,-0.15279534,-0.056493156,0.0032504457,-0.25751674,-0.24949914,0.06777244,-0.3871344,-0.13765015,0.5473976,0.20714852,-0.22430184,-0.10830881,0.41571605,-0.13895226,-0.23518611,-0.17233989,-0.02531254,0.16794588,0.092918955,0.21664849,-0.54528546,0.009162897,-0.056659147,0.10976465,0.29325634,0.11048998,0.11053457,0.03002797,-0.09600204,0.5281086,0.090795614,0.0115917325,0.1375888,0.23466903,-0.34436753,-0.33444494,-0.05985132,-0.12302434,-0.24465701,-0.031223334,0.22257595,0.021395404,0.033565857,-0.3599981,-0.062227324,-0.6150166,0.073715724,0.027065147,-0.65323585,-0.08329268,-0.10148187,-0.4570516,0.13069686,0.15552682,0.07798243,0.11031253,0.041638363,-0.19561407,-0.18276688,0.2165654,0.024137892,-0.30740786,-0.14052391,0.06421459,-0.9463098,0.1431797,-0.07889365,-0.17737594,-0.015885614,0.016886715,-0.79409146,0.44025934,-0.31356364,-0.19577459,0.02707063,-0.30109608,-0.34852123,0.15936667,0.018537557,-0.12101793,0.25094935,-0.2297035,0.649627,0.041238345,0.13114694,0.18973303,-0.2464638,0.15665902,-0.3377347,-0.2884161,-0.0023150425,-0.23770891,-0.059369747,-0.21059117,-0.023732455,-0.1456397,-0.027718557,0.51187897,0.27209997,-0.2958581,-0.014197379,-0.006577586,-0.46231544,0.29088432,-0.34965804,-0.03390141,-0.31573498,0.2873137,0.08709723,0.15276128,-0.4002487,0.6530031,-0.261043,-0.45087594,-0.1531459,0.037879154,0.116207145,0.27584863,-0.524186,-0.19750357,0.28662452,-0.08270479,0.03898614,0.4445205,-0.11096983,-0.40012714,0.04019009,-0.6260961,0.12436479,0.6859108,0.3117471,0.09625401,0.2841101,0.13214883,0.0611134,0.30034935,-0.053218134,-0.24768269,0.43860868,0.045201294,-0.5215431,-0.12777737,-0.048041068,0.03494481,-0.39872092,0.6416502,0.23421592,-0.35735512,-0.48321748,-0.32327622,-0.1924416,0.4187046,-0.04202632,0.19495547,-0.07204063,0.5433746,-0.039010912,0.33233047,0.5088645,-0.10850042,-0.106618926,0.075727634,0.263798,0.06752312,0.2923122,-0.11379008,0.11651156,-0.009064889,0.14819333,-0.18340318,-0.18989354,0.12201479,0.0011085742,-0.10009656,0.085245416,0.5610653,0.46050456,0.28657573,0.31839228,0.37507015,-0.17920472,0.6281303,0.6873581,0.10658473,-0.028231084,0.12488849,0.070876,0.21993957,0.016581818,0.22873315,0.46093714,-0.052221574,0.7158482,0.16511045,0.288521,0.5404968,-0.49281383,-0.30546045,-0.072765276,0.604178,-0.3808838,0.18085137,0.24112003,-0.10194746,0.13011006,-0.54306483,-0.31338888,0.048104424,-0.033182666,0.26933002,-0.11476978,0.0066103693,0.12607199,-0.045934923,-0.093542606,-0.34816048,-0.47368956,-0.18718782,0.070496604,-0.08565697,-0.058378614,0.06789089,-0.15313014,-0.036544614,-0.062301576,0.2637526,-0.057013538,-0.1484043,-0.07203878,0.2876426,0.13211048,0.7278948,-0.17853767,0.15108256,-0.24629599,-0.14270657,-0.007054927,0.31942567,0.04563414,0.017850783,0.64266026,-0.3817328,-0.24953514,-0.26849157,0.30924755,-0.32574227,0.027316805,0.11998452,-0.045665067,0.021299805,0.109305434,-0.3010459,-0.1446932,-0.16608825,-0.4250282,0.13118398,0.06454326,-0.30061808,-0.085248105,0.2979776,0.26853886,-0.07539074,-0.013478815,-0.18261355,-0.008257954,0.008061819,0.24571066,-0.13077682,-0.1510047,-0.3763367,0.32118142,-0.082081646,0.318716,0.18007444,0.26493776,-0.046782635,-0.004879225,0.28793126,-0.13555163,-0.20306921,-0.33674023,-0.18845561,-0.11230102,0.06534311,-0.15288737,0.2496511,-0.3164673,-0.0057989266,-0.54827046,-0.3541565,-0.3004006,-0.09570369,-0.12000567
11835339.pdf,-0.3941275,0.34146327,0.36883804,0.10574307,0.7035221,0.098564945,0.07227705,0.4314807,-0.07200443,-0.32129565,-0.05412785,-0.20385297,-0.056161113,0.096799895,0.045057,0.5615048,0.3956694,0.019017244,-0.14845614,0.38478643,-0.028748367,-0.2817843,0.21591817,0.6228067,0.2681996,0.09285459,-0.08130306,0.12946725,-0.28845602,-0.22613278,0.6033238,0.20307046,-0.11272302,-0.40924585,-0.012879372,-0.13495307,-0.02317785,0.101783626,-0.1975393,0.18277918,-0.39200106,-0.02626303,0.026865873,-0.25967738,-0.27973133,-0.1261677,0.33328086,-0.28003055,0.18469319,-0.022136774,-0.27730054,0.21214134,-0.24154401,-0.14382604,0.30870908,0.7206925,-0.19882353,-0.38610148,-0.5895193,-0.38195798,0.3347541,-0.068310544,0.35601825,-0.2279445,0.21694648,0.0058388505,0.2505071,0.18295106,-0.3907041,-0.1264757,-0.2934514,0.14817405,-0.113462195,0.026531927,-0.22875378,-0.11214684,-0.06510719,0.1643784,-0.112828575,0.12834322,-0.34923398,0.35122865,-0.07853875,0.28630626,0.014279153,0.077658035,0.30006045,0.12761879,-0.24276339,0.72813034,0.18754326,0.023496214,0.43314558,-0.14045237,-0.13974571,-0.034381524,0.18417762,0.0840258,-0.026500385,0.21382421,-0.028850392,-0.057978,-0.01810923,-0.024391137,-0.057309635,-0.12506226,0.1377545,0.22173642,-0.26612473,0.48639387,0.1303181,-0.27812853,-0.19938296,-0.3438235,-0.11620125,0.07012845,-0.020949582,-0.05835045,-0.035823405,0.086451225,0.13247828,-0.18691361,0.23841578,0.6674676,0.043585896,0.007782918,0.17097613,0.19966002,-0.10254776,-0.3033939,-0.0012730919,0.18333286,-0.09923364,0.084120765,-0.2701171,0.16841583,-0.25580072,-0.3030824,-0.22371739,0.23170796,-0.17302433,-0.576337,0.32311118,-0.2275573,-0.06158225,-0.32482654,0.0065563843,-0.049529485,-0.17357853,0.520778,0.39333123,0.1232159,-0.19959158,-0.21852279,-0.054446172,-0.042954024,-0.37778193,0.30467334,-0.50113976,-0.29569405,0.39981845,0.3865254,-0.5662347,0.33602837,-0.20479694,0.046954174,-0.45704225,0.4639668,-0.17454371,0.18217033,0.025520869,0.17308073,0.60497284,0.12688649,0.23620786,-0.01883257,0.32864636,0.004061224,0.05581844,-0.13539475,-0.5200244,0.4079284,-0.092143565,0.07469417,0.25122166,-0.37855148,0.47896057,-0.43122256,0.13930021,-0.35200405,-0.33188576,-0.4180873,-0.11787623,0.05229113,0.18121572,-0.17257124,0.09408744,0.035470724,-0.49079,-0.22628203,0.26988488,0.27422774,0.24393356,0.1523128,-0.28093243,-0.54554665,0.06847252,-0.46840963,-0.1477534,0.3150155,-0.3206891,0.19813187,0.0019096062,0.119369,-0.08581331,0.07030695,-0.17865983,-0.1259056,0.3581811,-0.32837284,0.28889108,0.29521373,-0.53459805,0.57415414,-0.47142628,0.41759652,-0.06139547,-0.8445165,0.31271505,0.4203906,0.089946344,-0.44997093,0.5719732,-0.28110945,0.20802209,0.15655403,-0.29807818,0.04483056,0.18294097,-0.2695952,-0.18165866,0.526215,0.1196188,0.042432357,0.12835237,0.09826891,-0.12721568,0.16340804,-0.0877354,-0.16923846,-0.5618351,-0.1355463,0.044440594,-0.42953292,-0.026278365,-0.42296648,0.073038645,-0.2975038,-0.121626854,-0.01946941,0.20510906,0.09049809,-0.003794116,-0.0900144,-0.16118512,-0.765653,0.16422342,0.25744647,-0.022507843,0.39936674,0.21417838,-0.09176198,0.057086304,0.4644659,-0.39912164,-0.17972824,0.36548516,0.07991667,-0.029603615,-0.1530205,0.08072188,0.21144795,-0.2612998,0.09761469,-0.01160679,-0.18577224,0.33533862,-0.10131607,-0.3671295,-0.18506613,-0.1806576,0.14583579,-0.517566,-0.43556967,0.39642558,0.049218595,-0.12492001,0.4036926,0.1820782,-0.02659715,-0.20150727,-0.3367982,0.38763788,0.16919488,-0.023466244,0.038072437,-0.16413058,-0.67917454,-3.7895746,0.022102771,-0.09133181,-0.30213535,0.25064018,0.04442934,0.26943406,-0.11075202,-0.3029679,0.24435654,-0.22025743,-0.14164284,0.1918309,0.38874692,0.33739683,-0.03594873,0.07486355,-0.39191508,0.13281876,0.43780506,0.008799525,-0.9424057,0.11648828,-0.058666293,0.19989987,0.44009686,-0.40630287,-0.1545672,-0.50763655,-0.04300509,0.024914986,-0.06752529,-0.23916657,0.17641853,0.3014863,-0.1873213,-0.11977911,-0.40187234,-0.19442397,-0.6470979,0.182567,-0.7158136,-0.24441093,-0.14575747,0.6021761,0.050633382,0.14480634,-0.18909986,0.09301366,0.3271622,0.38505048,0.103471756,0.079316735,0.051123515,-0.18715212,0.0648442,0.6239871,0.1321432,-0.27604795,-0.25649664,0.059155032,-0.38630337,-0.46670467,0.09684124,-0.24213706,-0.031059917,-0.48754022,-0.21208307,-0.17253283,-0.013166763,0.054279525,0.48688632,-0.29963523,-0.2731803,-0.18959548,-0.4423219,0.13899344,-0.11105624,0.028923132,-0.20926502,-0.09704126,-0.31251144,0.05204674,0.05056721,-0.096065685,-0.19853368,-0.036334462,-0.020238537,-0.56412375,-0.6879678,0.33531135,0.10650056,0.24062414,0.049937174,0.1420445,-0.047322806,0.46301788,-0.12053655,0.09980801,-0.56910634,0.021512598,0.066454604,0.77293897,-0.21530895,-0.07951854,-0.08957523,-0.15021181,-0.1253379,0.2087352,-0.051211916,0.29017216,-0.36146104,0.28251874,-0.54607344,-0.11234129,-0.033985414,0.24343574,0.6198609,-0.114873976,-0.19341756,-0.06811121,0.27330014,-0.30190936,0.0020553465,-0.15437469,0.0037172623,-0.122043625,0.29460955,0.20661727,0.0646722,-0.17640579,-0.037251342,-0.01012891,0.25111347,0.21144429,0.28391027,-0.0094592525,-0.6294976,-0.10025582,0.13844387,0.1436888,0.39045376,-0.08096759,-0.2775883,-0.05835279,0.35232043,0.03390123,0.24956392,-0.08178887,0.18794696,-0.68568224,-0.2754181,-0.19306064,-0.17477074,-0.038286097,0.3141479,0.11026197,-0.03540983,-0.08691511,-0.38579893,0.16180937,-0.08109365,0.29374877,-0.008883642,-0.3394672,0.78900415,-0.059004463,-0.29350817,-0.1191713,0.3245694,-0.1613618,-0.07817406,0.27650616,-0.17147928,0.09457979,0.19317482,0.23084213,-0.11779007,-0.099064834,0.36032584,-0.18758166,-0.24098337,-0.20542511,-0.015202124,0.12933314,-0.058151178,0.24006881,-0.5396788,0.03233447,0.030597925,0.112618476,0.22865477,0.0033473298,0.065087214,-0.03257359,-0.19417843,0.33608308,0.26970077,-0.12692708,0.22114389,0.24639943,-0.23308262,-0.5346377,-0.0640976,-0.013076635,-0.08909331,0.068853006,0.25496,0.017132174,0.17373389,-0.4681864,0.24941128,-0.4676034,0.053287715,-0.29389262,-0.6146956,-0.26673353,-0.15658614,-0.2578954,-0.049100194,0.1359779,0.0042303447,0.07913762,-0.053579222,-0.18660545,-0.2962271,0.2786593,-0.18438357,-0.19292182,-0.07918071,0.06366875,-0.89753133,0.21388716,0.0012121145,-0.2113723,0.09324327,0.075132675,-0.72037435,0.21960121,-0.14652854,-0.36136213,0.07997254,-0.20168966,-0.13388126,0.11112426,-0.026324656,-0.13579355,0.31526524,0.0465438,0.7568221,-0.08267354,0.12659684,0.059111785,-0.21729654,-0.082882315,-0.37455612,-0.24619834,0.08385664,0.05810061,-0.0083754165,-0.21642545,0.07179329,-0.16662222,0.040163226,0.45485002,0.29972398,-0.32067674,0.022169977,0.035398662,-0.47014195,0.37492484,-0.29408947,-0.03498191,-0.33870518,0.51266164,0.10106144,0.10268622,-0.40137562,0.6567538,-0.321567,-0.34050894,-0.17263815,0.08410265,0.090155676,0.2921961,-0.6527503,-0.22993544,0.31688476,-0.30920917,0.12805232,0.42571938,-0.0061263293,-0.11690947,0.03346909,-0.6152768,0.06689547,0.8633168,0.44024718,-0.02758784,0.27624327,0.05467154,-0.073295265,0.22736678,0.0058896877,-0.32361478,0.39039826,0.13647434,-0.634584,-0.174714,0.029134933,0.015773749,-0.59273285,0.7403401,0.116146445,-0.38748038,-0.47064972,-0.20588297,-0.19888547,0.2397683,-0.011392533,0.26358837,-0.22191712,0.46895453,0.029703554,0.14715365,0.556283,-0.20547715,-0.16982904,0.057414975,0.067371875,-0.06349174,0.4363593,-0.26546192,0.0061310716,-0.047058765,0.13731235,-0.52734125,-0.24643967,-0.06005114,0.23795274,-0.17703319,0.16133183,0.76363194,0.4428383,0.40232605,0.44204462,0.37835062,-0.1744918,0.6965391,0.44907373,-0.007819526,-0.1686668,0.15449195,0.29593652,0.32076743,0.08738452,0.23706315,0.34254056,-0.09276854,0.63230294,0.1669718,0.3867154,0.53982633,-0.48074657,-0.27344322,-0.032950293,0.35824832,-0.5733464,0.045510717,0.28087795,-0.0419762,0.1573889,-0.5695959,-0.28766674,-0.13686338,0.10515859,0.16711861,-0.042565912,0.017600328,0.24512202,0.070172355,-0.030559571,-0.26265678,-0.5821812,-0.17204987,0.241389,-0.09419199,-0.021920294,0.09643156,-0.07404814,0.15462203,-0.13797754,0.07639298,-0.22903463,-0.16155782,0.092115305,0.28739834,0.12648289,0.6752478,-0.38405222,0.06933852,-0.11032502,-0.16771592,-0.04271694,0.1586867,0.10559157,-0.031740144,0.33384824,-0.3182056,-0.089755595,-0.18955483,0.33958477,-0.22600979,-0.03802172,0.09739198,-0.09576742,-0.057362795,-0.0068045743,-0.23614492,-0.20728403,-0.042884737,-0.34575883,0.10514636,0.20898928,-0.23670939,-0.07929075,0.2310382,0.15800978,-0.10809702,0.17852682,-0.19454288,-0.108822264,0.05045632,0.11031861,0.09411661,-0.13490292,-0.30864233,0.12895575,0.041340098,0.17444059,0.2483458,0.34309834,-0.07278156,0.010392921,0.5705124,-0.14312607,-0.19482607,-0.2981062,-0.3106299,-0.034700602,-0.060818877,-0.2504686,0.18573838,-0.1902093,-0.060594182,-0.45740816,-0.15027417,-0.06488655,0.06560667,-0.0903445
12251115.pdf,-0.1961841,0.2366325,0.3180871,-0.14152968,0.6958225,-0.01034013,0.111637756,0.2103171,-0.031680964,-0.12339021,0.06282825,-0.24541634,0.013260597,0.29682827,0.18085074,0.69955677,0.23232967,-0.020667735,-0.1855604,0.45625547,0.20871595,-0.18909645,0.25826198,0.69627666,0.35279226,0.09530114,-0.22486344,-0.21081194,-0.33155942,-0.14694917,0.6158392,-0.008871406,0.05823481,-0.35822913,0.35189524,-0.021171067,-0.30329072,-0.08389248,-0.1233063,0.23753679,-0.5853205,-0.3752613,-0.15863106,0.04693174,-0.2550258,-0.28416103,0.079010084,-0.12959978,-0.086888835,0.07418712,-0.46783847,0.26436064,-0.21702716,-0.33844978,0.27264464,0.78709114,-0.074569404,-0.502635,-0.38585067,-0.4588254,0.04823225,-0.041826256,0.2336638,-0.029794611,0.0435516,-0.016990768,0.06895879,0.39132565,-0.6458547,-0.2477867,-0.1523033,-0.0063552167,-0.017600518,-0.05321882,-0.073242836,-0.11310903,-0.07063126,0.3282979,0.12791091,0.061816633,-0.15890285,0.243718,-0.2489191,0.34413302,0.1133565,0.10059016,0.20051828,0.19611287,-0.22118601,0.43127126,0.25193816,-0.26443106,0.28785387,0.0115843825,0.06350176,0.034046948,0.036706377,0.08934815,-0.25045657,0.027421221,0.21634762,0.21091521,0.27476472,0.11021742,-0.013405691,-0.022444936,0.00061342306,0.26176447,-0.35934275,0.40616643,0.029596638,-0.22795995,-0.23323011,-0.5282098,0.028603114,-0.10822602,0.16943745,0.17430088,0.14368849,-0.045641437,0.19756411,-0.29070932,0.16619784,0.8700374,-0.019711994,-0.03309466,-0.19579874,0.1133551,0.00495694,0.082556434,0.0517893,-0.0148046445,-0.12474948,-0.050441153,-0.2510126,0.3349073,-0.34972155,-0.17810908,0.027359545,0.2784832,-0.3129545,-0.49614894,0.30252418,-0.0086969305,0.06112992,-0.2981918,-0.17006394,0.13839571,-0.06805177,0.47587246,0.068436086,0.07200602,0.079724245,-0.31526405,-0.07325663,0.019905824,-0.167241,0.06486619,-0.034503743,-0.19903395,0.3619802,0.37795073,-0.30619198,0.35417753,-0.018925404,0.011970989,-0.35486108,0.15336844,-0.47482944,0.10946482,-0.17032126,-0.2513951,0.4594757,-0.13063738,0.13035329,0.15251899,0.22080028,-0.18638527,0.13198261,0.14400794,-0.52195233,0.5174495,-0.15916565,-0.09097572,0.10263194,-0.21126664,0.39107108,-0.2906432,0.13068603,-0.28483796,-0.28768653,-0.50872755,0.018818133,0.06633165,0.21290691,0.029097084,0.0026392336,0.12205486,-0.41469014,-0.30854157,0.25911736,0.20042098,0.0134111,0.16740862,-0.3307741,-0.2419866,0.29179215,-0.51541364,-0.06649021,0.06583405,-0.23923782,0.008091405,-0.14535406,0.26899412,0.072475396,0.015169152,-0.2570238,-0.14246853,0.26627597,-0.056471236,0.046105366,0.038454894,-0.42007673,0.53900546,-0.4378004,0.6743261,0.09102396,-0.9706671,0.2534328,0.26302576,-0.0047974307,-0.28411204,0.5311172,-0.6759968,0.15389144,0.106568635,-0.17912252,-0.017073292,0.21456493,-0.35045916,-0.26751778,0.45800716,0.26370656,0.09688274,0.24333028,-0.009526502,-0.18469079,-0.09541227,-0.12153356,-0.35119128,-0.63439083,0.1428408,0.034963146,-0.38039982,0.011845823,-0.5029619,-0.2325182,-0.3361637,-0.03161192,-0.123578385,0.24708422,0.20296082,0.09389374,-0.053275827,-0.17566504,-0.53571326,0.020842442,0.2346091,0.27074808,0.10940553,0.041495517,0.118376225,-0.085329294,0.48120242,-0.35257035,0.10528201,0.21023554,-0.011811357,0.04193263,-0.29775777,0.11357896,0.16794094,0.0013842322,0.14986354,-0.13360828,-0.07521039,0.09538877,0.24570137,-0.13166037,-0.3119917,-0.16202661,0.28339916,-0.5742464,-0.02652869,0.45016277,-0.017877871,0.044405133,0.19652495,0.38769668,-0.16709912,-0.3211168,-0.15026316,0.11355223,0.1574717,0.22371274,0.032289267,0.0821566,-0.71582377,-2.81837,-0.04893242,-0.15373462,-0.30124164,0.46964824,-0.30110055,-0.06338398,0.13919723,-0.60121346,0.21714571,-0.12811342,-0.17374772,0.16276346,0.048029393,0.34829944,0.13322929,-0.042510517,-0.26156816,0.0009681694,0.5005745,-0.16728061,-0.73045033,0.21676967,0.09109645,0.3108709,0.3942392,-0.513708,-0.003477862,-0.43933678,-0.11031232,0.025422156,-0.16891578,-0.44482267,0.4065264,-0.02649039,-0.12423981,-0.05227358,-0.5377139,-0.29971454,-0.5499623,0.14397521,-0.8093423,-0.08129044,0.024182424,0.633947,-0.07232711,0.15238112,0.087317735,0.13447289,0.14195192,0.21375811,-0.03233029,-0.22264919,-0.17964754,-0.044123974,-0.16495141,0.45042917,0.43236327,-0.26530936,-0.08195423,0.05754024,-0.26271966,-0.4360936,-0.08931197,-0.23106429,-0.12523165,-0.5842221,-0.22714357,-0.06716837,-0.052235126,-0.066347525,0.6273054,-0.34638026,-0.13879625,-0.07472813,-0.387343,0.23942417,-0.06126111,-0.124961935,-0.13891706,-0.1658196,-0.25715095,0.46121213,0.079512894,-0.14906141,-0.16670755,-0.013809727,-0.018146519,-0.4127478,-0.24926105,0.30202156,0.36118272,0.29226613,-0.094399065,0.3889268,-0.07568078,0.39932352,-0.062056094,0.19909856,-0.49407405,0.15153036,0.19179392,0.63115597,-0.31845725,-0.021770552,-0.14537698,-0.35770047,-0.07413989,0.2431059,-0.15420648,0.1351578,-0.1808257,0.16682091,-0.36105695,-0.2065526,-0.16983463,0.14545387,0.93803585,-0.06674406,-0.18901314,-0.18418151,0.27209312,-0.13125531,-0.3812563,-0.040763933,-0.03872448,-0.11948611,0.34561715,0.12263608,-0.039893456,-0.25576168,-0.22666216,-0.23025337,0.22484261,0.09806853,0.2681922,-0.038995445,-0.5941086,-0.11077165,0.23600386,0.05184736,0.1468264,0.22479968,-0.06314987,0.06612682,0.3079003,0.0057558306,0.43913192,-0.27627292,0.209409,-0.64156514,-0.27818257,-0.13715075,-0.21158782,0.020842971,0.39171886,0.19978052,-0.036816306,0.06526167,-0.46590567,0.283878,-0.05976269,0.3357988,-0.11791379,-0.087807715,0.6755234,0.019019956,-0.09006834,-0.0530004,-0.055578914,-0.16712475,-0.3073976,-0.16448294,-0.31746268,-0.18497121,0.5722039,0.2199031,-0.28125185,-0.18523839,0.38878855,-0.006943575,-0.28116718,-0.32278758,-0.13955058,0.37608212,-0.026293676,0.25765517,-0.68541133,0.12957266,0.112433895,0.13658468,0.31171727,0.017364841,0.1999664,-0.12353721,-0.12487809,0.5485069,0.102046795,-0.06981993,0.24950764,0.052213997,-0.43418366,-0.49256533,0.098805174,0.16434991,-0.22306007,0.06459006,0.33878994,0.090593055,-0.00023021456,-0.2895062,0.0038762502,-0.18599749,0.23147683,-0.08874032,-0.5786565,-0.086001515,0.017238498,-0.539143,-0.024661507,0.1026216,-0.09099137,0.030017827,-0.14752729,-0.18629965,0.07945295,0.20604935,-0.014740139,-0.30755064,-0.15421566,0.18073979,-0.86386967,-0.057630453,-0.045363102,-4.7245994e-05,0.33386546,0.051399317,-0.80125177,0.368841,-0.28371364,-0.14497778,0.049235076,-0.36557013,-0.38717753,0.13148357,-0.014086947,-0.06439062,0.22978553,-0.11530693,0.61831975,0.040398687,0.016321605,0.26809418,-0.38263515,0.33934575,-0.42151892,-0.31449455,0.2400007,-0.19750567,-0.15546933,-0.19012177,0.05771315,-0.08674078,-0.15724415,0.448201,0.11576481,-0.42552972,-0.09151093,0.13007025,-0.63049614,0.28694403,-0.25876504,-0.012316658,-0.025455225,0.18492682,0.011680737,0.07875213,-0.3842736,0.55533683,-0.2577693,-0.45531923,-0.20587684,-0.07317622,0.23266906,0.5696856,-0.32999504,-0.21474475,0.14818802,-0.20250392,0.031386156,0.4843391,-0.17124793,-0.15150476,-0.05769177,-0.73637545,0.14486867,0.74522257,0.16652751,-0.050112247,0.25494897,0.056412727,0.19688897,0.2985676,-0.12546322,-0.29100525,0.24560928,0.060979903,-0.687793,-0.23389022,-0.21149507,-0.062902026,-0.5861861,0.68588185,0.11513103,-0.3025692,-0.53829193,-0.06195825,0.021979662,0.26029944,0.024252553,0.08122991,0.19703305,0.6301609,-0.090762734,0.4365725,0.55961466,0.045273982,-0.10984281,0.016048335,0.05731055,0.07361291,0.23114894,-0.17397758,0.36825207,-0.0032927245,0.16421819,-0.14078137,-0.15240976,-0.140632,0.025751963,-0.14486948,0.1294767,0.49656022,0.43930835,0.38824177,0.23321922,0.32054704,-0.10972976,0.6597352,0.35882646,0.13739079,-0.035155185,0.15178509,-0.06193544,0.06457459,0.059819475,0.16573192,0.1069669,-0.07373722,0.63487965,0.15925291,0.30201364,0.5537967,-0.41399902,-0.27713978,-0.15923694,0.54476464,-0.609162,0.009902269,0.37054372,0.10322625,0.1831108,-0.3400585,-0.07164045,0.02009707,-0.028849628,0.21652426,-0.11295396,-0.01594884,0.26965782,-0.03136781,-0.25962976,-0.29270998,-0.34855333,-0.12665832,-0.053431835,-0.06563604,-0.020169774,-0.12086854,-0.14827892,0.018926281,-0.067714624,0.36355942,-0.33289915,-0.17256844,-0.0549061,0.119452596,0.033439126,0.725302,-0.247121,0.16481662,-0.30614352,-0.22210318,0.0601151,0.17354763,-0.01798062,-0.07588588,0.4899011,-0.3467086,0.015003782,-0.27173972,0.28281814,-0.29655087,-0.017282857,-0.10818308,0.038908005,0.1974611,0.10017781,-0.36816797,-0.1000315,-0.21383622,-0.44598538,0.13424282,0.15141742,-0.31609708,-0.12753397,0.21344817,0.17552942,-0.1738558,0.020326678,-0.16112377,0.002404185,-0.095400855,0.2783869,-0.12584093,-0.20654216,-0.32089096,0.53343326,-0.15380232,0.2793207,0.24591057,0.38351554,0.038117997,0.07448546,0.42052674,-0.09421349,-0.30078563,-0.57815003,-0.0718704,-0.29741052,-0.2442375,-0.2474059,0.046657234,-0.19740775,0.154445,-0.3438127,-0.3459348,-0.13570711,0.023307877,-0.20345551
12374933.pdf,-0.48731178,0.20420639,0.44316348,0.14505151,0.7605518,0.04253244,-0.11428821,0.3320459,-0.11527255,-0.1310949,-0.087442115,-0.2533368,-0.14662065,0.086735554,0.19295225,0.36322707,0.30124348,0.04798508,-0.23216,0.46987593,0.29439843,-0.14334218,0.12865731,0.7373836,0.10182938,-0.027948562,-0.11868642,-0.19589773,-0.40454793,-0.0954712,0.34899002,0.015547542,-0.12807043,-0.3486443,0.21112049,-0.072560154,-0.211003,0.10964592,0.04792152,0.25690788,-0.42227632,-0.4009537,0.06955562,0.0575709,-0.04614337,-0.0011618249,0.31201708,0.061558764,-0.13400847,-0.07439083,-0.5882087,0.35274574,-0.18081301,-0.30339196,0.3586008,0.5133352,0.069161214,-0.6073867,-0.2847974,-0.24160798,-0.096683234,-0.23039994,0.14648561,0.00037035905,0.35234296,-0.1552356,0.071158715,0.41666543,-0.61396056,-0.15467413,-0.1435551,0.044242613,-0.110269725,0.025051609,-0.07862456,-0.1417104,0.06259315,0.37593392,0.04628935,0.21851057,-0.105295725,0.20596927,0.12696391,0.31586564,0.271662,0.047111746,0.17852667,0.22467953,-0.51454365,0.37747377,0.17118707,-0.058109716,0.43916672,0.16331185,0.19469155,0.104643494,-0.11826736,0.17522517,-0.058282364,-0.032857075,0.024810717,-0.116403684,0.08615228,-0.1550881,-0.10547946,-0.09537662,-0.07531589,0.46715134,-0.36020252,0.4376043,0.29225212,-0.09918303,-0.08690539,-0.50785583,-0.12298604,0.05940844,-0.007826842,0.0034753662,0.47833186,0.004860744,0.36317992,-0.0008382909,0.122351855,0.94828826,0.08602649,0.065057114,0.05585494,0.21801366,0.13951737,-0.06570869,-0.08494628,0.3004037,0.048845455,0.18584129,-0.10953529,0.18263909,-0.14061202,-0.16938484,-0.1265592,0.120734006,-0.14930613,-0.47392768,0.3287502,0.15144661,0.19242921,-0.10897695,-0.042080104,0.112467945,-0.08556405,0.46531817,0.06390696,0.20456652,0.0117081255,-0.25526312,-0.0448286,0.2408589,-0.077295296,0.116467044,-0.10170916,-0.17644799,0.454759,0.2046127,-0.42215198,0.38664645,-0.033849467,-0.11997975,-0.20297703,0.10555993,-0.1393768,0.10237379,-0.18155102,-0.13815343,0.44906458,0.065649725,0.3190865,0.09172228,0.32914484,-0.22566867,0.14602509,0.23913491,-0.53851414,0.23517145,-0.12691225,-0.21144038,0.17324814,0.06217828,0.51844954,-0.17424819,0.1573049,-0.32210475,-0.4800833,-0.5300199,-0.15422916,0.17066324,0.2899297,-0.18214303,-0.08366581,-0.05869459,-0.42790645,-0.10716884,0.35917723,0.19489975,0.07139998,-0.048049584,-0.18259965,-0.4935904,0.054218885,-0.6058618,-0.2407887,0.10191895,-0.4392171,-0.0007253401,-0.26887316,0.25183526,0.080529675,0.14142625,-0.32209194,-0.2998024,0.29269516,-0.0904864,0.13924265,0.05686257,-0.31722143,0.6344383,-0.4104639,0.8408582,0.027535018,-0.8690078,0.41833204,0.19221346,-0.080757864,-0.13351092,0.38957733,-0.54024225,0.26328942,0.12129602,-0.1841,-0.26107004,0.24130635,-0.20947681,-0.27944195,0.6520823,0.31262618,-0.114056006,0.30266076,-0.12070666,-0.038400337,-0.15481673,0.008017827,-0.25996742,-0.44930542,0.12474128,-0.094799384,-0.43934554,-0.10569301,-0.25048256,-0.056748338,-0.28012887,-0.42743677,0.26924765,-0.0058246087,0.26720017,0.040047646,0.047613893,-0.052341472,-0.8861856,-0.029461056,0.26496658,0.34625742,0.30474335,0.18301901,-0.21206988,-0.04186029,0.42714268,-0.32243672,-0.18502858,0.12668711,0.17524722,0.0017234299,-0.19280574,0.21675771,0.40201512,-0.062388893,0.043141942,-0.10551776,0.026762143,0.25205296,-0.12105698,-0.35477865,-0.27079296,-0.019637391,0.25633308,-0.42117876,0.031217897,0.28262457,0.18645251,0.22844772,0.21851006,0.3090657,-0.016548155,-0.14864826,-0.29863027,0.20629238,0.106573075,0.216402,-0.024866492,-0.10178657,-0.7006836,-3.1629286,-0.15948345,0.015662294,-0.30131137,0.3034169,-0.08043015,0.17202137,0.13089994,-0.36465776,0.21922007,-0.10622104,-0.08274363,0.116230465,0.16536164,0.14138179,0.064766645,0.11334353,-0.1686421,0.10088505,0.2552722,-0.2087413,-0.823486,0.11985712,-0.14511749,0.12112276,0.50644773,-0.32646307,-0.043035805,-0.13413419,-0.13961737,-0.074706376,-0.11260247,-0.23837078,0.4747337,-0.016107677,-0.17941909,-0.00064170733,-0.36027634,-0.19181506,-0.61613846,0.25715026,-0.8028312,-0.02892377,-0.08166998,0.5293848,-0.18981913,0.2916925,0.13457298,0.23009214,0.34179968,0.038410034,-0.04928341,-0.28814834,-0.121210545,-0.040478628,-0.254071,0.27577078,0.34068352,-0.3610791,0.15348624,0.093936935,-0.1837305,-0.3056401,-0.40082768,-0.113315724,-0.20983773,-0.7591834,-0.34145772,0.016396498,-0.05399879,-0.22105095,0.7050197,-0.25850382,-0.33799607,-0.081182405,-0.63033307,0.23151478,-0.18283457,-0.26392096,-0.22374956,-0.11917619,-0.37815452,0.18487397,-0.10698526,-0.45907,-0.11893582,-0.10630357,-0.27545303,-0.24228348,-0.44682568,0.42277545,0.12333456,0.37238258,0.031944275,0.3852763,0.12130976,0.45866257,-0.0615647,0.19239925,-0.5240352,0.15176079,0.1244866,0.6670815,-0.4624975,-0.18175368,0.08061867,-0.3472449,-0.16593654,0.21968013,0.14372289,-0.05345816,-0.22760393,0.2768405,-0.78231514,-0.38602632,0.07963854,0.22931352,0.8038545,0.026665308,-0.40425742,-0.3277922,0.3889231,-0.04609906,-0.1732598,-0.1437314,0.081656404,-0.1435758,0.3247963,0.16772398,-0.16569233,-0.24399173,0.10812749,-0.07649781,0.15760358,0.29197544,0.054320976,-0.14149001,-0.5343575,-0.14294896,0.34377939,0.0752037,0.19493885,0.10745645,-0.08055657,0.13149242,0.24216992,-0.14703421,0.2755175,-0.08254035,0.03732405,-0.68870413,-0.22170731,-0.15273893,-0.06238453,-0.06519264,0.43228447,0.2543646,-0.05885231,-0.117332704,-0.51837295,0.36156148,-0.19795693,0.28681934,0.0254888,-0.12254232,0.5051451,0.061161805,-0.12177442,-0.12092036,-0.19574252,-0.3192984,-0.1751911,0.11965753,-0.28044087,0.0110325385,0.52133095,0.17077273,-0.29172462,-0.18286659,0.31513584,0.16350879,-0.07689203,-0.3126477,-0.048019886,0.25932038,-0.01272939,0.2236101,-0.46522287,-0.07397172,0.12103252,0.13250837,0.34950173,-0.13659167,0.14800343,-0.03702566,-0.28562886,0.45616192,0.10022276,-0.12515506,-0.06845252,0.045701247,-0.110004954,-0.414401,0.15725058,-0.031529136,-0.17429504,-0.017310014,0.108433,0.2596276,-0.1439095,-0.21414489,-0.0022023972,-0.4285705,-0.09450155,0.091527484,-0.1896356,-0.014799118,-0.0070826686,-0.6379412,-0.021327153,-0.2877489,0.0065524774,0.012192566,-0.027899172,-0.37677673,-0.108786665,0.1701526,-0.043171033,-0.29049683,-0.22190365,0.13882168,-0.95103526,0.10252632,-0.089278944,-0.048740715,0.05661412,-0.11458431,-0.80293393,0.15647139,-0.23708382,-0.14525323,-0.10526369,-0.3240261,-0.28466642,0.12420629,-0.07456441,-0.23920202,0.34285858,-0.28483766,0.45928946,0.056101397,0.06732486,0.2186242,-0.18567446,0.17728552,-0.3529479,-0.24202818,-0.16577995,-0.3510973,-0.3105265,-0.22347969,0.026390227,-0.0176889,0.0052459147,0.39289093,0.11019024,-0.039922968,-0.14942744,0.04804335,-0.33598194,0.091642186,-0.13731265,-0.015323486,-0.028887337,0.04232294,0.05281542,-0.02081982,-0.40847975,0.5491173,-0.1399178,-0.44075105,-0.21556644,-0.09585905,0.19972429,0.09266373,-0.553123,0.12355882,0.20915392,0.033172525,-0.009797616,0.34241602,-0.0023960005,-0.117711045,-0.06937755,-0.5781509,0.033100232,0.67393047,0.3155998,-0.16339453,0.26381582,0.16521668,0.22242206,0.4403022,0.028718088,-0.18494493,0.24467286,-0.042441845,-0.6894933,-0.21249327,-0.28009593,-0.090887144,-0.54241186,0.7131256,0.12215459,-0.6072952,-0.34654438,-0.0711879,-0.05518436,0.21230564,-0.16830486,0.15397076,-0.049280733,0.45947403,-0.14606588,0.43288064,0.59671783,-0.13480385,-0.33422285,-0.12162523,0.18941133,0.31852219,0.18205538,-0.152394,0.16471237,0.0011014286,0.14123239,-0.29753798,0.04846776,-0.14024904,-0.008743014,0.06533533,0.07516387,0.42457688,0.48976403,0.10841608,0.4956511,0.40384877,-0.09955065,0.65034205,0.46227545,0.16640864,-0.01081224,-0.07501487,0.30579442,0.09713305,-0.18042047,0.2599914,0.2994213,0.21425352,0.716628,0.18894954,0.18675826,0.6544719,-0.57043684,-0.41931036,-0.056517273,0.58369166,-0.435141,-0.019632049,0.109573096,-0.04260967,0.4541291,-0.39948356,0.06662547,0.20084605,-0.18720378,0.071870804,-0.09823921,-0.28918558,-0.011828475,-0.21178399,-0.28897256,-0.17174014,-0.45238996,-0.27993095,0.091752574,-0.22300538,-0.0795054,0.037649207,-0.3118262,0.020360973,-0.12009658,0.34014815,-0.13084057,-0.035635617,-0.13030262,0.288046,0.07560587,0.59221816,-0.13625011,0.33820474,-0.17547454,-0.23745698,0.025716383,-0.028783184,0.12824313,0.05647902,0.4593752,-0.51876855,0.004552627,-0.14900723,0.35221633,-0.238648,-0.2935468,-0.09469708,0.11860916,0.21396253,0.046613052,-0.49143744,0.08773306,-0.3939594,-0.58028984,0.3855754,-0.10890113,-0.0055240206,-0.050935976,0.6093383,0.20614558,-0.017684173,0.055391975,-0.12538917,0.15730454,0.17830858,0.2924345,-0.07134644,-0.15212037,-0.26257032,0.38179067,-0.21700574,0.063815616,-0.024198368,0.23464067,-0.060869705,0.067209914,0.20473292,-0.34443098,-0.3463485,-0.50372183,-0.21094541,-0.34328425,-0.047226332,-0.046164416,0.103073254,-0.35022968,0.17912894,-0.16411458,-0.22343215,-0.10360767,-0.06309859,0.11743652
12526702.pdf,-0.28010413,0.26932687,0.33275354,0.021125883,0.64414513,0.13422483,0.06660151,0.014873948,0.066564724,-0.21611726,-0.19097674,-0.17523038,0.061205722,0.05991354,-0.017182764,0.48109707,0.33708224,-0.052063614,0.027412765,0.38634908,0.14541733,-0.24598914,0.13817541,0.5491048,0.15225238,0.07252247,-0.03642074,-0.14614275,-0.30507696,-0.028047973,0.38925153,0.054467175,-0.2293444,-0.2495225,-0.002931246,0.11660759,-0.20365383,-0.038363233,-0.19059168,0.22638315,-0.52692187,-0.2059511,0.018432982,-0.00076662283,-0.16464683,-0.15505032,0.1858913,-0.03218061,0.04820941,0.09262888,-0.36606172,0.47730413,-0.3085962,-0.09156283,0.29334566,0.6336286,0.006855529,-0.59130645,-0.36313704,-0.2760238,0.12550528,-0.013859395,0.262385,-0.023093482,0.24985357,-0.07139412,0.14925611,0.3915413,-0.55671823,-0.11733693,-0.37938595,0.24811625,-0.120665744,-0.12691727,-0.20278604,-0.16794997,-0.0076521197,0.29231393,-0.14040537,0.057777744,-0.21237856,0.25765347,-0.13040537,0.114457786,0.18452361,0.1712229,0.3094687,0.20686899,-0.45282948,0.4984336,0.19612807,-0.18270028,0.2935456,0.22079343,0.04860884,0.17427713,0.006194164,0.13969034,-0.15862128,-0.11957377,0.19622153,0.024555236,0.09396777,0.055475075,-0.032707807,-0.104384266,0.008496478,0.21762724,-0.50755596,0.50804454,0.06473295,-0.33227724,-0.13419855,-0.5325722,-0.12258028,0.022495622,-0.051360033,0.04581327,0.27354333,0.21509728,0.21341228,-0.17901465,0.027218226,0.80033696,0.04069408,0.15058663,-0.042686895,0.4042794,0.087975405,0.091793954,-0.12333024,0.34677517,-0.15285093,0.0526705,-0.27528128,0.2612766,-0.12324984,-0.17640877,-0.12544224,0.2426365,-0.11681221,-0.71368927,0.52875984,-0.23145391,-0.050160624,-0.29396003,-0.05512319,0.06842453,-0.12558308,0.3314352,0.324807,0.008365719,-0.22300777,-0.26110822,0.024622085,0.19715321,-0.16936821,0.12598856,-0.3699491,-0.16575444,0.35446614,0.36159346,-0.5717794,0.32759124,0.085339375,-0.0978854,-0.16043997,0.3391049,-0.14907566,0.0740246,-0.0087670535,-0.043492123,0.5305823,0.042468563,0.2038808,0.04578869,0.32624727,-0.19109786,0.1878803,0.070674285,-0.6552812,0.41178378,-0.09948543,-0.08486735,0.3155392,-0.0772908,0.5944803,-0.43731308,-0.0737925,-0.36505306,-0.22325304,-0.4325053,0.012560399,-0.08160348,0.25506052,-0.17852953,0.03957695,0.05298478,-0.5114379,-0.1954909,0.39861357,0.2633899,0.23963311,0.11644484,0.10848957,-0.46869257,0.23395199,-0.43943536,-0.20337924,0.054788023,-0.1760436,-0.077370405,-0.067396075,0.19436112,0.052317686,0.010408903,-0.28001404,-0.120159104,0.27452907,-0.122764826,0.042113423,0.17649347,-0.43539298,0.49692255,-0.46337345,0.3743708,0.13454619,-0.81249666,0.4526276,0.31209344,-0.07460646,-0.29296052,0.41230214,-0.42576605,0.076620996,0.026646137,-0.29060817,0.038047835,0.31668958,-0.18759973,-0.3704282,0.72340834,0.18956693,0.06313814,0.19777891,-0.14020924,0.02224502,-0.11585553,-0.10658305,-0.11997916,-0.615342,0.11380018,0.08931823,-0.3586406,-0.19000551,-0.34973478,-0.082465544,-0.4321969,-0.25920182,0.04424596,0.09703288,0.08115841,0.07749661,0.00425471,-0.017608112,-0.7577663,0.043169763,0.17346406,0.18532285,0.4522828,0.1560967,-0.14584878,-0.08916522,0.39353025,-0.37936825,-0.20491184,0.33740416,0.07158337,-0.112530425,-0.0789075,0.17798129,0.45966518,-0.10574227,0.00275613,0.025628965,-0.08075078,0.3113143,-0.11590714,-0.18027332,-0.34419605,-0.17893642,0.11519703,-0.6023457,-0.23521729,0.38261408,0.029754171,0.04052277,0.3065025,0.2699413,0.08123022,-0.31093514,-0.35948688,0.10669447,0.18987377,0.0687315,-0.0013048816,-0.23660347,-0.5280663,-3.445428,-0.10870835,0.100691676,-0.31849205,0.3975165,-0.024039455,0.3373534,0.13972874,-0.34196925,0.19702971,-0.1583122,-0.14044544,0.014617762,0.3981602,0.24857286,-0.05468182,-0.008905573,-0.43595916,0.20875284,0.43251187,-0.04816681,-0.9757677,0.06300812,-0.09240651,0.22537424,0.1824871,-0.7342534,0.1676834,-0.336752,-0.15105242,0.19450636,-0.15663794,-0.36167026,0.33621168,0.20132089,-0.16544954,-0.098959975,-0.30666846,-0.0042352723,-0.4631412,0.1571148,-0.6030605,-0.07074108,0.11552787,0.54564476,0.006988719,0.22001915,-0.038836945,0.21974489,0.30405098,0.303212,0.09599483,-0.04933421,-0.1428271,-0.055106662,-0.11953619,0.6118648,0.19340836,-0.39635128,-0.08037937,0.05007737,-0.31582737,-0.43816137,-0.24137416,-0.29024255,0.119438976,-0.6176535,-0.36417657,-0.24488807,-0.18048355,-0.115705095,0.8662989,-0.3800915,-0.20528612,-0.1341287,-0.5457616,0.26175344,-0.3875245,-0.02521544,-0.34916037,-0.26607737,-0.5476014,0.3748353,0.09166849,-0.17990519,0.21046832,0.13009539,-0.1526215,-0.3815967,-0.5335088,0.34096915,0.093272895,0.29876113,-0.119987324,0.37770832,-0.062006693,0.64401555,0.110489935,0.05325903,-0.55199695,-0.15039739,-0.08175276,0.625805,-0.19485159,-0.25302583,0.006724841,-0.38699692,-0.19465905,0.2392225,-0.14936939,0.14513935,-0.25481653,0.24129552,-0.4253425,-0.077414095,0.02762052,0.13436076,0.77421963,0.05569453,-0.29758817,-0.041006427,0.24349894,-0.1731695,-0.14307567,-0.04287582,-0.010895205,-0.32476145,0.35274732,0.10933569,-0.14775468,-0.2482121,0.14771733,-0.24181849,0.27944887,0.26175028,0.0130525455,-0.16343862,-0.38290998,-0.12343608,0.25422832,0.14178316,0.28096956,0.19847845,-0.350784,0.06483032,0.23223786,-0.13851961,0.46457934,-0.07248691,0.20007399,-0.5719383,-0.23607668,-0.25994325,-0.20667344,-0.17607495,0.5329034,0.24210249,-0.12960769,0.07409409,-0.55774677,0.2505138,0.09450264,0.17964913,-0.09987387,-0.18897876,0.6269579,0.066687055,-0.35400528,0.029070599,-0.061074503,-0.1770968,-0.29422665,0.2908867,-0.3779826,-0.027257042,0.44556972,0.20916814,-0.2785032,-0.13478991,0.4163852,-0.0011021178,-0.27036488,-0.27972424,0.013518914,0.15042111,-0.020403456,0.044405892,-0.37861496,-0.00033104792,-0.03183575,0.18908705,0.107150525,0.02967969,0.08056615,-0.15278663,-0.067755476,0.494555,0.19033688,-0.12653805,-0.037210457,0.13310644,-0.2865346,-0.49634615,0.054432094,-0.08077954,-0.1160986,-0.007071933,0.31519333,0.050815582,-0.059102856,-0.32421264,-0.09423557,-0.48215604,0.032430585,-0.044312976,-0.5135364,-0.058039863,-0.09764903,-0.43672788,0.1113818,-0.04748958,0.0231569,0.08506225,0.008080117,-0.122360244,-0.26361734,0.07036343,-0.08605377,-0.20786941,-0.04554318,-0.030586142,-0.9646839,0.10228337,-0.050519604,-0.016654857,-0.04537746,-0.2572565,-0.7138468,0.34522393,-0.2773178,-0.1738904,0.04954517,-0.36502475,-0.13883801,0.16272992,-0.21790347,-0.17780574,0.23187806,-0.14351945,0.5661971,-0.08878164,0.082076125,0.010835659,-0.13761789,0.20127651,-0.40476936,-0.34458685,-0.115845874,-0.23322691,-0.017045546,-0.30071992,-0.025807649,-0.188041,0.14960977,0.3182584,0.12594776,-0.15133227,0.049153786,0.08730362,-0.49047017,0.31740966,-0.35540676,0.15428334,-0.09623321,0.114910744,-0.081881635,0.31251425,-0.35987568,0.7338803,-0.17914408,-0.4564515,-0.18964225,0.0035154847,0.17702727,0.33141768,-0.33463162,0.04875283,0.062597126,-0.19733188,0.06278336,0.4121776,-0.14852758,-0.31186596,-0.09062209,-0.659688,0.11185732,0.6493459,0.4457051,0.069294706,0.24403836,0.11483523,0.10474926,0.3146327,-0.0011217706,-0.09872592,0.4347735,0.09814416,-0.5388359,-0.32948703,-0.06246441,-0.03720291,-0.3276621,0.51630276,0.17912006,-0.4894849,-0.29789406,-0.23133345,-0.24182054,0.368037,0.03150285,0.13612863,0.057111464,0.610412,0.017715674,0.34992197,0.5707342,-0.0019758306,-0.21140254,0.02590117,0.29449457,0.20091516,0.38634485,-0.024027463,0.024276474,-0.13015859,0.182496,-0.16568607,-0.23977129,-0.01706001,-0.008852679,-0.06775262,0.16949764,0.7210022,0.37418598,0.14917979,0.33074668,0.30389968,-0.17728275,0.5874706,0.59049475,-0.010116376,-0.113179415,0.18721916,0.11130841,0.1567069,-0.12132332,0.23802021,0.47762358,0.002906559,0.633639,0.1673393,0.4249019,0.72797227,-0.56151855,-0.33220983,0.06372887,0.41202217,-0.3738472,0.13030133,0.23029326,0.031596117,0.27301776,-0.53543913,-0.17186242,-0.009181375,-0.021171236,0.20465684,0.012775892,-0.09235453,0.115970954,-0.07385402,-0.0038038082,-0.18885088,-0.47519875,-0.25982845,0.18697399,-0.12331736,0.0449858,0.22351718,-0.16898358,-0.0035034418,-0.093882985,0.31749833,-0.2093117,-0.2601702,0.008335732,0.3355045,0.14153685,0.6127927,-0.13865928,0.18773326,-0.21927413,-0.23139875,-0.0059700934,0.08667479,0.14884558,0.09565171,0.6509181,-0.38038504,-0.1952297,-0.19305785,0.33489832,-0.20316479,-0.13357176,-0.1179384,-0.1710551,-0.0904547,-0.054002136,-0.27264693,-0.24866901,-0.1941649,-0.5632204,0.20588817,0.03343208,-0.4463067,-0.12241623,0.4778169,0.29011065,-0.01862561,0.06134201,-0.113860376,0.015161606,-0.11948544,0.3073988,-0.025805019,-0.12628758,-0.20486006,0.304367,-0.12004708,0.152284,0.17474002,0.14566463,-0.23720285,0.06847601,0.2639304,-0.09896986,-0.31665018,-0.4240116,-0.13817534,0.07733843,0.04890431,-0.17429523,0.05771402,-0.31306118,-0.053349968,-0.5102785,-0.14312255,-0.18860593,-0.15826368,-0.0018122531
12897903.pdf,-0.5702244,0.2817923,0.1787547,-0.056533344,0.59130865,0.08159747,0.23224339,0.26424474,-0.005822531,-0.38321674,-0.012191518,-0.2746036,0.09930025,-0.007644157,0.030003484,0.55742615,0.23422113,0.031905863,-0.1687299,0.21911728,-0.011841347,-0.3644327,0.091600746,0.58465123,0.34726852,0.22977439,-0.09760645,-0.21079871,-0.16479327,-0.18694079,0.50542176,-0.0113626495,-0.10187805,-0.39131778,0.055185612,0.089292616,-0.19495058,0.02399306,-0.27463534,0.20818394,-0.53282666,-0.11345031,-0.11858338,-0.117733,-0.12682755,-0.28271696,0.24939257,-0.24828449,0.17051908,0.03747151,-0.4627445,0.21064821,-0.22692221,-0.29112357,0.12253101,0.73403656,0.075955674,-0.50490737,-0.54223406,-0.41379285,0.21689649,-0.050585467,0.39605364,-0.19401899,0.05968731,-0.01549368,0.23893857,0.3409086,-0.5701474,-0.17585728,-0.44645488,0.2659196,-0.07282688,0.092343874,-0.342597,-0.1841082,0.008394228,0.3071023,-0.05572243,0.0044823587,-0.26776564,0.41434854,-0.17829481,0.2453355,0.10983893,0.10087523,0.29289556,0.16358471,-0.34710246,0.7259753,0.16688979,-0.33304638,0.34647363,0.267276,0.07544806,0.09357449,0.26919153,0.065204486,-0.18427786,-0.017187968,0.09451798,-0.080560565,0.018702822,0.048592117,-0.064076565,-0.025903083,0.0982572,-0.11755232,-0.5097268,0.4469915,0.023267187,-0.18369952,-0.35639924,-0.36405706,0.05850129,0.18552415,0.101038925,0.1356021,0.1702382,0.12638576,0.2829247,0.011826925,0.106467985,0.70713747,0.13908783,-0.026237844,0.08647976,0.13864228,-0.25009933,-0.16612223,-0.15844643,0.1288396,-0.17423588,0.005881072,-0.35191438,0.31935963,-0.1788334,-0.19575073,-0.10893587,0.23559731,0.18262954,-0.5953321,0.53133297,-0.34442437,0.11426184,-0.38336253,0.24389917,-0.1279316,-0.23273245,0.3210975,0.3530919,0.042744543,-0.06620533,-0.20075697,0.006835131,0.084156275,-0.3230283,0.1044389,-0.15459174,-0.12748182,0.39618158,0.3523641,-0.5686846,0.23493633,-0.099144064,0.092298925,-0.3109999,0.3571995,-0.20963112,0.11607231,0.0030415338,0.10730526,0.6429939,0.12288438,0.31208634,0.10433911,0.19114126,-0.105271064,0.057189308,0.1022067,-0.4539871,0.25358117,-0.123812765,-0.14652133,0.21121559,-0.28286803,0.40821964,-0.39522514,0.1973016,-0.18662733,-0.28767192,-0.38030457,-0.025576644,-0.03692388,0.23209405,-0.29132065,0.15667078,0.043977715,-0.41051048,-0.39437425,0.3449014,0.17859474,0.26128843,0.14948255,-0.024752097,-0.43139195,0.15843165,-0.45920473,-0.3366781,0.32765356,-0.2727815,-0.0058915378,-0.06299009,0.1742067,0.06144227,0.06237585,-0.28615475,0.038635634,0.027251193,0.00082271546,0.19802581,0.19434252,-0.4876141,0.48732385,-0.50353205,0.35138845,-0.018145917,-0.7847656,0.3050968,0.4680658,0.10636842,-0.48424906,0.25646564,-0.3750023,0.078990236,0.05051679,-0.48879233,-0.13777703,0.2972738,-0.44430608,-0.13948838,0.54255366,0.105999835,0.1544711,0.13115412,0.057745203,0.07257458,0.007411914,-0.07597053,-0.07730041,-0.70789206,0.0045366846,0.102245666,-0.36917326,0.077133395,-0.38318402,-0.0393537,-0.5591176,-0.15211117,-0.25478083,0.31791556,0.103691354,0.10932095,-0.057378396,0.07462208,-0.8436327,0.37016368,0.19337615,0.1305298,0.2828795,0.21866369,-0.14832273,-0.03190495,0.4666334,-0.34727398,-0.20810977,0.36081702,-0.038002502,-0.15157701,-0.21853098,0.15847173,0.3281604,-0.22173569,-0.06662682,0.0026725214,-0.23180136,0.33937174,-0.11862613,-0.33665055,-0.06628287,-0.21501991,0.126284,-0.5027634,-0.24915282,0.4707535,-0.019291542,-0.032932915,0.3663976,-0.009883923,0.1789302,-0.4036705,-0.56630003,0.34457678,0.043419145,0.064142115,0.10637845,-0.074344695,-0.5742236,-3.50174,-0.110170424,-0.04186265,-0.2773646,0.29268262,-0.026701143,0.18377222,-0.023621086,-0.33415994,0.21358514,-0.16739757,-0.17893896,-0.002981863,0.3510498,0.09775683,-0.024711668,0.009961389,-0.3678704,0.019728925,0.35571557,-0.06487832,-0.874839,0.06880207,0.0443878,0.37965724,0.30644977,-0.55641717,-0.013308169,-0.45489407,-0.21213573,0.24207518,-0.17196289,-0.24531266,0.28558993,0.09788881,-0.060653105,-0.16741657,-0.25816488,-0.030365765,-0.6285851,0.19425583,-0.70548177,-0.33946666,0.034562208,0.6946997,0.06649734,0.30378148,-0.019529507,-0.013221826,0.10232623,0.4212088,0.048911795,-0.033204302,-0.13512254,-0.04430572,0.03057019,0.61452544,0.09237282,-0.1749972,-0.034398437,0.38811436,-0.34623125,-0.43830743,0.005221436,-0.1508926,-0.08343169,-0.5231173,-0.3372603,-0.27331415,-0.041133497,0.005502913,0.846405,-0.28024206,-0.23532179,-0.17437844,-0.58263886,0.3031363,-0.30429715,0.08426272,-0.2404329,-0.2465937,-0.3096502,0.2178449,0.14776725,-0.117685646,0.106530316,0.15899058,0.15465367,-0.5820766,-0.51169217,0.22462791,0.07625519,0.29107714,0.03661939,0.24729809,-0.25537732,0.47852188,0.057387024,-0.111646175,-0.31111592,-0.03592322,0.0444963,0.39125368,-0.06581335,-0.12009013,0.043813407,-0.28209513,-0.22287676,0.42733172,-0.11064968,0.10215449,-0.08868641,0.14359932,-0.31539124,-0.009499595,0.04134081,0.15019998,0.75633776,-0.037500545,-0.20020607,-0.069727026,0.20425043,-0.08653859,0.17807908,-0.10114969,-0.22536993,-0.31783208,0.26373702,0.081445485,-0.090316415,-0.083851084,-0.14058974,-0.19883642,0.2156564,0.23262404,0.05184139,-0.0067874445,-0.49248004,-0.29839772,0.28685158,0.05493572,0.61320627,0.20278504,-0.3545345,0.025482584,0.33174807,-0.034289464,0.48741418,-0.3740661,0.26925594,-0.67016363,-0.24558944,-0.23763424,-0.37980288,-0.055416495,0.4947903,0.25814036,-0.14933449,0.19553334,-0.5209807,0.17123382,-0.0036390387,0.053228676,-0.1192652,-0.254785,0.8127211,-0.10050157,-0.20934533,-0.0033194115,-0.012535863,-0.12826031,-0.3168519,0.3125816,-0.560775,0.058072105,0.45020494,0.31565702,-0.21055743,-0.16759893,0.34269917,0.024595963,-0.4029566,-0.31034288,-0.10359095,0.12110132,-0.04018131,0.10542385,-0.36951756,-0.004689647,-0.046944138,0.08701998,0.12849528,-0.056010745,0.19240564,-0.043415353,0.06888399,0.6127571,0.18315606,0.035169266,0.054175913,0.19680206,-0.35042048,-0.40852517,0.058087498,-0.10977237,-0.19634704,-0.122851565,0.22198701,-0.024815165,0.070194244,-0.316343,0.14264196,-0.44926423,-0.1437306,0.12711886,-0.6086811,-0.35735497,-0.19760042,-0.490984,0.17176384,0.08219488,-0.15642846,0.16364929,0.008408677,-0.18686059,-0.31716016,0.0367495,-0.025548797,-0.29475874,-0.2805388,0.1313429,-0.96541536,0.13137451,0.1302093,-0.18872099,0.019787764,-0.18935925,-0.7405816,0.478206,-0.1958906,-0.26788887,0.10345714,-0.27120972,-0.14387481,0.104888804,-0.011192874,-0.24024104,0.40513766,0.10796391,0.65575325,-0.08343451,-0.011214878,0.16529463,-0.041717242,0.22593305,-0.4677751,-0.41604412,-0.16570076,-0.28700116,-0.15045436,-0.17626809,-0.025999743,-0.27362448,0.098010376,0.44971544,0.33710697,-0.01386706,-0.07409265,0.12753013,-0.6530002,0.28410977,-0.2918674,-0.09960008,-0.23768795,0.18138671,0.12397041,0.21742743,-0.36799642,0.5878143,-0.25903144,-0.4097581,-0.18578812,-0.05713378,0.108171955,0.5084373,-0.6765708,-0.24925692,0.0898498,-0.18465655,-0.109636776,0.46110237,-0.14067937,-0.28791896,0.15970722,-0.69194186,0.28484166,0.6583792,0.365745,-0.053871185,0.41947365,0.23996064,0.19448243,0.4593913,-0.0883265,-0.22920522,0.4546862,-0.029404024,-0.6532372,-0.083576635,-0.07239945,-0.0104262065,-0.44325566,0.5901158,0.22427806,-0.5463289,-0.2547061,-0.39868623,-0.13128838,0.47595796,-0.040639862,0.13277149,0.19847076,0.70950794,-0.023058133,0.38741913,0.46828887,-0.049021237,-0.13194671,0.103871986,0.24864048,0.045028877,0.37615937,-0.23157565,0.109345116,-0.034902167,0.085886404,-0.14938235,-0.0254579,0.07419103,0.06838313,0.05949189,0.21999271,0.7205284,0.5191959,0.35321084,0.18237655,0.33589852,-0.13352889,0.4914006,0.5118245,0.08285964,-0.20024869,0.13342717,0.11693831,0.31508732,-0.018851493,0.18005478,0.57086426,-0.025703615,0.41099912,0.11874154,0.2995287,0.5279814,-0.6899819,-0.25787807,-0.11118701,0.44891578,-0.2922526,0.07464516,0.3063373,-0.043592133,0.28956538,-0.5080418,-0.4936905,-0.00295664,0.10571437,0.17052215,-0.3098956,-0.041866414,0.3977229,0.02711145,-0.27300933,-0.2057206,-0.35897768,-0.23753728,0.3896063,-0.039298236,0.07439442,0.19804117,-0.32684088,0.072776794,-0.19876832,0.21963948,-0.0020747185,-0.10996452,0.09873521,0.45029908,0.14495547,0.68555593,-0.072920695,0.16063653,-0.14658523,-0.28005755,0.21138921,0.20404133,0.06678971,0.04154396,0.35500276,-0.23975748,-0.23002714,-0.109742455,0.2445175,-0.26774645,0.07084739,0.14649801,0.07051505,0.24151102,0.05565059,-0.14076108,-0.2326774,-0.1443603,-0.39364427,0.11426427,0.30937678,-0.477422,-0.12877035,0.36979824,0.20748094,-0.10940954,0.035308175,-0.31992036,-0.11121183,-0.10840304,0.25877288,0.046092637,-0.20737162,-0.3500134,0.35850227,0.055881307,0.22620429,0.11562769,0.31816718,-0.29325497,0.08669065,0.4145757,-0.031029882,-0.18031773,-0.33249912,-0.20843953,-0.015679602,-0.016453262,-0.23361406,0.110111624,-0.3268987,-0.040765464,-0.49277604,-0.10400931,-0.2893858,-0.07544496,-0.115129635
