,0,1,2,3,4,5,6,7,8,9,10,11,12,13,14,15,16,17,18,19,20,21,22,23,24,25,26,27,28,29,30,31,32,33,34,35,36,37,38,39,40,41,42,43,44,45,46,47,48,49,50,51,52,53,54,55,56,57,58,59,60,61,62,63,64,65,66,67,68,69,70,71,72,73,74,75,76,77,78,79,80,81,82,83,84,85,86,87,88,89,90,91,92,93,94,95,96,97,98,99,100,101,102,103,104,105,106,107,108,109,110,111,112,113,114,115,116,117,118,119,120,121,122,123,124,125,126,127,128,129,130,131,132,133,134,135,136,137,138,139,140,141,142,143,144,145,146,147,148,149,150,151,152,153,154,155,156,157,158,159,160,161,162,163,164,165,166,167,168,169,170,171,172,173,174,175,176,177,178,179,180,181,182,183,184,185,186,187,188,189,190,191,192,193,194,195,196,197,198,199,200,201,202,203,204,205,206,207,208,209,210,211,212,213,214,215,216,217,218,219,220,221,222,223,224,225,226,227,228,229,230,231,232,233,234,235,236,237,238,239,240,241,242,243,244,245,246,247,248,249,250,251,252,253,254,255,256,257,258,259,260,261,262,263,264,265,266,267,268,269,270,271,272,273,274,275,276,277,278,279,280,281,282,283,284,285,286,287,288,289,290,291,292,293,294,295,296,297,298,299,300,301,302,303,304,305,306,307,308,309,310,311,312,313,314,315,316,317,318,319,320,321,322,323,324,325,326,327,328,329,330,331,332,333,334,335,336,337,338,339,340,341,342,343,344,345,346,347,348,349,350,351,352,353,354,355,356,357,358,359,360,361,362,363,364,365,366,367,368,369,370,371,372,373,374,375,376,377,378,379,380,381,382,383,384,385,386,387,388,389,390,391,392,393,394,395,396,397,398,399,400,401,402,403,404,405,406,407,408,409,410,411,412,413,414,415,416,417,418,419,420,421,422,423,424,425,426,427,428,429,430,431,432,433,434,435,436,437,438,439,440,441,442,443,444,445,446,447,448,449,450,451,452,453,454,455,456,457,458,459,460,461,462,463,464,465,466,467,468,469,470,471,472,473,474,475,476,477,478,479,480,481,482,483,484,485,486,487,488,489,490,491,492,493,494,495,496,497,498,499,500,501,502,503,504,505,506,507,508,509,510,511,512,513,514,515,516,517,518,519,520,521,522,523,524,525,526,527,528,529,530,531,532,533,534,535,536,537,538,539,540,541,542,543,544,545,546,547,548,549,550,551,552,553,554,555,556,557,558,559,560,561,562,563,564,565,566,567,568,569,570,571,572,573,574,575,576,577,578,579,580,581,582,583,584,585,586,587,588,589,590,591,592,593,594,595,596,597,598,599,600,601,602,603,604,605,606,607,608,609,610,611,612,613,614,615,616,617,618,619,620,621,622,623,624,625,626,627,628,629,630,631,632,633,634,635,636,637,638,639,640,641,642,643,644,645,646,647,648,649,650,651,652,653,654,655,656,657,658,659,660,661,662,663,664,665,666,667,668,669,670,671,672,673,674,675,676,677,678,679,680,681,682,683,684,685,686,687,688,689,690,691,692,693,694,695,696,697,698,699,700,701,702,703,704,705,706,707,708,709,710,711,712,713,714,715,716,717,718,719,720,721,722,723,724,725,726,727,728,729,730,731,732,733,734,735,736,737,738,739,740,741,742,743,744,745,746,747,748,749,750,751,752,753,754,755,756,757,758,759,760,761,762,763,764,765,766,767
10005171.pdf,-0.25747,0.17571093,0.25907034,0.0028636828,0.44843477,-0.0052572004,-0.006916957,0.2787394,-0.06300846,-0.24132249,0.038473643,-0.25466394,0.026436951,0.2156691,0.06028285,0.55689836,0.24394037,-0.054219127,-0.36696416,0.2651844,0.13259791,-0.22603995,0.2378092,0.7540512,0.3479972,0.16409458,-0.10368976,-0.015214902,-0.09543507,-0.063195795,0.5541742,0.0059654564,-0.057194695,-0.17022473,0.08139035,-0.060236186,-0.032397464,-0.18465641,0.038977027,0.36780342,-0.5175101,-0.3541417,-0.17108065,-0.21854009,-0.24564224,-0.17741315,0.16769375,0.02902563,-0.071815066,-0.07393898,-0.499861,0.32168296,-0.16227655,-0.21653056,0.17688124,0.8838612,0.09143862,-0.45432413,-0.49520105,-0.40207502,-0.14160834,0.12061234,0.10366469,-0.1507447,0.015249342,-0.060896374,0.12677404,0.40150183,-0.60391444,-0.2416166,-0.21752849,0.24921972,-0.03674083,-0.048051484,-0.13695045,-0.29665712,0.086280316,0.37082422,0.060763013,-0.13819626,-0.18378443,0.28797632,-0.09425359,0.46967924,0.090317935,0.1094878,0.20479861,0.12341045,-0.3828532,0.6147845,-0.03858229,-0.282548,0.28407848,0.07925803,0.24080408,0.07634306,0.15140241,0.026619282,-0.17303224,0.09822239,0.018367179,-0.07093035,0.30241033,0.16968644,-0.15904336,-0.017088639,-0.007847302,0.15333384,-0.4903863,0.38594067,0.1886709,-0.253604,-0.34622312,-0.5757065,0.08684595,-0.13258654,0.16000667,0.15395704,-0.027914766,0.14104497,0.04960896,-0.06529609,0.16956224,0.83661234,0.010291999,0.0027278606,-0.031645253,0.040871266,-0.12166114,-0.07652035,0.08645785,-0.0445997,-0.09855035,0.10797148,-0.012707021,0.36590412,-0.20179534,-0.3436838,-0.20000316,0.20845932,-0.106943056,-0.33296496,0.2370227,-0.13627946,0.08335705,-0.26553872,-0.04658854,-0.012908056,-0.057522148,0.22935271,0.32280552,-0.07565126,-0.045700625,-0.12935364,-0.11494552,0.012291143,-0.19855854,0.1792664,0.012739137,-0.05373966,0.32682514,0.23977934,-0.43446708,0.32183582,-0.12264386,0.0435909,-0.22375676,0.20004044,-0.3487271,0.04229325,0.0498853,-0.069737636,0.5689291,-0.013658805,0.053060256,-0.10633655,0.22215392,-0.00050371443,0.095781416,0.19031698,-0.5497212,0.21338457,-0.036947466,-0.13195035,0.30671528,-0.28080252,0.3140765,-0.30554646,0.035900436,-0.21688183,-0.22508907,-0.40456182,-0.23171091,0.18257666,0.36554664,-0.031735174,-0.045926686,0.07578908,-0.31929967,-0.15432507,0.23119807,0.13440207,0.3061735,0.11209278,-0.1548559,-0.557992,0.20898262,-0.366853,-0.1629936,0.04142788,-0.23587257,0.14573166,-0.0639681,0.3365625,0.052418925,0.07482551,-0.22954684,-0.022770194,0.07854371,-0.1334596,0.0966967,0.1658429,-0.5011038,0.3782327,-0.4335462,0.5768043,-0.008874822,-0.88246226,0.31010878,0.5373527,0.037983127,-0.30842608,0.33729252,-0.3877776,0.109949365,0.06276828,-0.33167267,-0.10534343,0.33644274,-0.4089627,-0.1500427,0.58476996,0.28441867,0.18438622,0.059949167,-0.06608724,0.02765802,-0.0029327367,0.006215509,-0.30053505,-0.5842924,-0.036392882,-0.0016099345,-0.3297813,0.040109288,-0.2025784,-0.08921854,-0.58850425,0.17568015,-0.0053432845,0.43090197,0.22240986,0.06793842,-0.097738445,-0.17762735,-0.5583638,0.09863048,0.24081661,0.06197382,0.24075377,-0.059802957,0.020111926,0.12338419,0.35080332,-0.40150607,-0.033638053,0.32453245,-0.04192615,-0.056963135,-0.35218474,0.03420939,0.21134217,-0.21572238,-0.016761363,-0.12419072,-0.10949221,0.2502875,0.115138456,-0.14204141,-0.11900936,-0.124688014,0.23335266,-0.36786807,-0.075441025,0.36177772,0.103213884,0.13347304,0.036888212,0.16098726,-0.13653624,-0.5089009,-0.38860077,0.14839387,0.1064021,0.15598947,0.19164354,0.07896802,-0.41643143,-3.475368,-0.046689153,0.061735455,-0.24050222,0.2563755,-0.2348965,-0.01312262,0.042012617,-0.3979628,0.19939938,-0.11055259,-0.14015147,0.04407157,0.34742063,0.2042026,-0.041996684,-0.07368383,-0.27633172,-0.09173952,0.4023677,-0.13239688,-0.7393692,0.25404644,-0.049330518,0.30804145,0.4394729,-0.5340228,-0.07062034,-0.18248598,-0.33758467,0.23106232,-0.22141904,-0.14316425,0.49050638,0.17460588,-0.06964462,0.06820516,-0.45479062,-0.32075197,-0.3453465,0.14986108,-0.8382975,-0.23736003,-0.1836715,0.7473827,0.006253388,0.2470044,-0.15420377,0.07840273,0.05373676,0.24416777,0.036364652,-0.24906969,0.031384554,0.037684802,0.0204673,0.5050488,0.22438835,-0.22837119,-0.19546537,0.12724416,-0.28361768,-0.42759967,-0.06529237,-0.12747768,-0.2319394,-0.5972476,-0.035095867,-0.084526606,-0.07715165,-0.1127267,0.71550477,-0.3849302,-0.2743737,-0.18468174,-0.3976367,0.26378328,-0.13957301,-0.13305059,-0.1361912,-0.1967746,-0.27315763,0.20809543,0.058824785,-0.2460275,-0.20759124,0.14916448,-0.10323062,-0.3221265,-0.5901774,0.29524213,0.17511585,0.07975177,0.015770935,0.3200689,-0.075618334,0.39677584,-0.07597001,0.12152965,-0.36362627,-0.09647204,0.02666156,0.6223428,-0.39417028,-0.063935645,-0.11125116,-0.28228545,-0.0039425287,0.15533204,-0.022654634,0.1222563,-0.26081276,0.0629603,-0.38808477,0.07092042,-0.05060502,0.32667366,0.84223837,-0.07815639,-0.13533415,-0.11189548,0.42386407,0.07784654,-0.18197994,-0.045220528,0.045071136,-0.25933924,0.08499272,0.070304036,-0.0034198733,-0.14112522,-0.21865301,-0.07862629,0.42243898,0.26660722,0.18624398,-0.04073478,-0.6126157,-0.14519358,0.19998892,0.04773751,0.24309124,0.22595423,-0.34231865,0.105240494,0.22953661,-0.13082404,0.4565975,-0.1788338,0.041748285,-0.78363013,-0.26468477,-0.10957967,-0.40719095,0.09904191,0.38298312,-0.04076179,-0.08492874,-0.062800504,-0.42846608,0.20603353,-0.06903941,0.2678439,0.07651363,-0.1773904,0.66960967,-0.091365084,0.021658957,0.05036942,-0.18757282,-0.11515647,-0.4272353,0.08374465,-0.41522193,-0.15505672,0.48954853,0.25260878,-0.26733103,-0.19562721,0.3804382,0.106639266,-0.29647884,-0.030419054,-0.16702525,0.3171634,0.2264381,0.084302396,-0.38080704,-0.013200654,0.102529496,0.057422284,0.20204511,0.07698975,0.00031473115,-0.21752319,-0.10857488,0.43428957,-0.04171369,0.03772566,0.04515512,0.15811418,-0.29994985,-0.44342226,0.22942615,-0.015276063,-0.2307894,0.11601958,0.18063262,0.1327695,-0.039034396,-0.3620417,0.113659434,-0.22913328,0.09257382,0.13645068,-0.57028496,-0.27037072,-0.24053681,-0.4151777,-0.008883057,-0.0053371117,-0.088809356,-0.019010095,0.02902238,-0.15407982,-0.027361313,0.14854166,-0.203019,-0.30650717,-0.319046,0.3017721,-0.82387197,-0.10062139,0.18059376,-0.035940822,0.12381077,0.07934467,-0.9378936,0.2916467,-0.06374472,-0.13728327,-0.021128833,-0.3220278,-0.1906697,0.14228699,0.08324908,-0.062231086,0.4477655,0.0065561747,0.4056934,0.12218159,-0.0139836315,0.10849339,-0.16333845,0.04500331,-0.48730606,-0.3110816,0.10226839,-0.25728568,-0.12035654,-0.10098102,-0.007355391,-0.27503264,-0.0012532556,0.12683174,0.19785638,-0.040154908,-0.08154197,0.13530575,-0.44905412,0.26678982,-0.16568865,0.05941166,-0.010559887,0.13069636,0.19601154,0.047828235,-0.40932202,0.5864918,-0.39151952,-0.2273091,-0.09560755,-0.23440395,0.023147766,0.48684907,-0.3737582,-0.115780644,0.31940848,-0.015571661,-0.11096756,0.49604157,-0.24531874,-0.12188653,-0.12060491,-0.77598745,0.056502163,0.81007063,0.2747753,-0.08284718,0.1279031,-0.033973373,-0.015753336,0.30891895,-0.021075636,-0.18797754,0.16647333,0.07736406,-0.6022185,-0.21096033,-0.018992253,-0.09993938,-0.5395893,0.6336466,0.24006417,-0.34429687,-0.22335169,-0.047426622,-0.0699417,0.39142025,-0.11061419,0.013096787,0.26996893,0.5644238,0.05992224,0.38021335,0.45345488,-0.05711714,-0.19646639,-0.1021335,0.06314994,0.09430006,0.48083788,-0.3528961,0.2530199,-0.041936465,0.12205383,-0.14072993,-0.073993556,0.06646463,0.030090142,-0.29728723,0.2289221,0.5151507,0.4657421,0.3771648,0.1687063,0.28125072,-0.023514062,0.7039871,0.34674177,0.076154344,0.005512934,0.12123011,0.08475206,0.28843758,0.028926037,0.21089396,0.32037205,0.03801482,0.4172958,0.1391747,0.28501487,0.51062447,-0.50729716,-0.26853776,0.0033445284,0.44434443,-0.33226523,-0.078967124,0.20290038,0.11724318,0.1126822,-0.34767285,-0.33261845,-0.039319765,0.2361859,0.15775262,-0.2815462,0.004991766,0.29672658,-0.08408866,-0.45617545,-0.17717192,-0.25833797,-0.25311083,0.010526678,-0.04609848,0.16940829,-0.028660335,-0.36427867,0.034441628,-0.13705021,0.37290955,-0.16624568,-0.21103841,-0.041652806,0.38418323,0.15070629,0.45890313,-0.1251295,0.2437639,-0.29373977,-0.33632553,0.048173405,0.24832903,0.03381024,0.11682308,0.24424654,-0.44407815,-0.026155364,-0.16204363,0.18964863,-0.3885224,-0.022914896,0.037138853,0.013030885,0.2673872,0.33380264,-0.22145256,-0.18255581,-0.13974543,-0.3340894,0.16928707,0.311038,-0.3693769,-0.044458516,0.24758531,0.18669327,-0.046574548,-0.1353293,-0.110520765,0.059362058,-0.30078778,0.3029385,-0.10062573,-0.12725165,-0.34891742,0.48208356,-0.058237944,0.07394877,0.15988046,0.4243685,0.034210138,-0.025447551,0.5217792,-0.0015012547,-0.12004999,-0.35530126,-0.09332724,-0.3330366,-0.3098616,-0.31104553,0.11857238,-0.11035876,-0.14728013,-0.25841573,-0.2623113,-0.020890461,0.04878901,-0.07509993
10515955.pdf,-0.24016115,0.24242434,0.36562407,0.06996211,0.52617157,0.0026427228,0.042954925,0.28606987,0.10586159,-0.2822922,0.06480731,-0.2698446,0.0663078,0.12825987,0.011049489,0.50406873,0.13834436,0.09256155,-0.11655042,0.3379733,0.13830258,-0.22958691,0.19211859,0.5275245,0.29817173,0.057886943,-0.077756934,-0.05686952,-0.30184007,-0.06858852,0.40336603,0.11608268,-0.019193392,-0.27418336,-0.015307281,-0.15715714,-0.043180082,-0.15850659,-0.074507765,0.22367942,-0.47698224,-0.2618035,-0.16373971,-0.06535916,-0.25407523,-0.27297318,0.21764134,-0.21735373,0.12343388,-0.057485737,-0.38959318,0.36578304,-0.22498068,-0.09274784,0.22159827,0.70126975,0.22992583,-0.51126224,-0.4665587,-0.32048023,0.06240273,-0.10824615,0.18323162,-0.15968211,0.1285002,0.05920769,0.16899125,0.42093778,-0.62095666,-0.2472637,-0.25956875,0.003945805,0.123437956,-0.10090557,-0.16006869,-0.07757102,-0.06405523,0.4595718,0.16229208,-0.087715626,-0.31521904,0.2746488,-0.17364302,0.2972619,0.044434167,0.075654395,0.19881314,0.038832337,-0.3008446,0.6825065,0.123683356,-0.36758488,0.31390405,0.09018178,0.037970223,-0.00761988,0.21041231,0.10138085,-0.14445712,0.028707325,0.17296408,0.11354864,0.215548,0.06530921,0.0741528,-0.05474516,0.022363745,-0.016143128,-0.34008712,0.54824924,0.050063692,-0.24801959,-0.22024557,-0.36039966,0.033332117,-0.16579929,0.020647194,0.01720962,0.12510987,-0.046778455,0.17090762,-0.108976826,0.09802665,0.66592515,0.056283727,0.004814692,-0.089269154,0.102371715,-0.2310193,-0.04250048,-0.013091939,0.03777612,-0.19341063,0.11948053,-0.18394844,0.22654375,-0.26364914,-0.26068842,-0.011045679,0.21628183,-0.024459254,-0.34188712,0.31692603,-0.11887185,0.113039546,-0.38174766,0.07750959,-0.0507368,-0.18462768,0.31789193,0.3719774,0.04554889,-0.02477327,-0.15874848,-0.040257566,0.049959864,-0.23902231,0.11987822,0.024577007,-0.05307521,0.4693081,0.4375587,-0.3916239,0.22471912,-0.15057884,0.19608682,-0.27362412,0.27454934,-0.3562432,-0.05836979,0.058378804,0.043632485,0.58261967,0.11690383,0.098351724,0.23864478,0.34021536,-0.042025585,0.11583386,0.071163036,-0.42906415,0.24877566,-0.07193905,-0.037720636,0.2507238,-0.31504762,0.3249567,-0.25412926,0.088882476,-0.20593835,-0.37747467,-0.55806994,-0.14693189,-0.10480568,0.3004619,-0.07842945,-0.036352843,0.121295065,-0.3896938,-0.2517761,0.27832463,0.17605275,0.3037238,0.1254964,-0.12231162,-0.40760678,0.17220807,-0.35060626,-0.07151112,0.20288438,-0.34761745,0.1641767,-0.042251546,0.38947865,-0.079303406,0.051202867,-0.111414604,-0.1152108,0.18459888,-0.08343356,0.12639531,0.16661167,-0.56641024,0.38584477,-0.48392037,0.5465039,0.0080796145,-0.93013144,0.14366576,0.38547993,0.047063746,-0.21049754,0.39545184,-0.49236357,0.051993113,-0.029841311,-0.16930419,-0.07991384,0.10645427,-0.32760942,-0.15413354,0.60346556,0.2940524,0.24253328,-0.008798482,0.046177756,-0.10102684,-0.09956245,-0.18168133,-0.24542838,-0.62555236,0.00081771985,-0.017142378,-0.4852442,0.16747728,-0.36505887,-0.29786506,-0.28789076,-0.044956375,-0.039780237,0.3959316,0.054740056,0.070435084,0.13870203,-0.20478648,-0.61429477,0.17531255,0.36275345,0.027971523,0.36037052,0.026766267,0.039717793,0.16593419,0.570076,-0.36068386,0.06417408,0.2562127,-0.07702233,-0.022069529,-0.33688384,0.08789128,0.41128796,-0.12657815,0.11274847,-0.042776734,-0.2376593,0.2745802,0.115657695,-0.26908687,-0.056375686,-0.15296881,0.1913437,-0.46613446,-0.11582749,0.3747314,-0.05810339,0.030533776,0.138172,0.09427179,-0.03260132,-0.38232568,-0.26743183,0.2070049,0.070087574,0.23727594,-0.0032604057,0.014233067,-0.5925658,-3.2466521,-0.047594424,-0.011716947,-0.39127982,0.28784478,-0.27006882,-0.1412236,0.012639231,-0.45317405,0.25003314,-0.10858913,-0.15741062,0.010886982,0.13166943,0.27945012,-0.11696218,0.023440663,-0.26480192,0.10075203,0.41118318,-0.23479593,-0.75450075,0.25628674,0.008087188,0.38033116,0.41834864,-0.4532928,-0.15754035,-0.23612566,-0.23839886,0.25301588,-0.20426363,-0.12100333,0.5339342,0.12408027,-0.23648502,-0.053105645,-0.4725389,-0.21801075,-0.58193576,0.24152863,-0.76989055,-0.34659934,0.05104913,0.75590116,-0.14410067,0.13993464,0.1328718,0.10440388,0.1911053,0.35914272,-0.020711876,-0.3085396,-0.002547523,-0.021746365,-0.07395917,0.44878763,0.09201907,-0.23540857,-0.094614506,0.05820841,-0.37658256,-0.40547383,0.06542443,-0.277036,-0.2734235,-0.63789797,-0.20788077,-0.123090066,-0.056352437,-0.21412043,0.7288095,-0.25273985,-0.13055912,-0.06480099,-0.4749436,0.3131104,-0.12839207,-0.14661202,-0.098854296,-0.12647569,-0.30163336,0.27549678,-0.048278324,-0.16441843,-0.28887945,0.035535987,0.049255107,-0.3320902,-0.6248605,0.41971725,0.11695121,0.22773506,-0.10054727,0.38793135,0.049081277,0.5768274,-0.03056166,0.014724366,-0.34693646,0.1153323,0.10203903,0.5118339,-0.27929828,0.010071804,-0.19678554,-0.23706867,-0.22263148,0.17841831,-0.12949523,0.05333626,-0.21992728,0.0968825,-0.17172593,-0.28252077,-0.120234326,0.23070416,0.7424661,-0.1326257,-0.19757283,-0.0072580557,0.15621835,-0.19530118,-0.27771887,-0.06095565,-0.036162797,-0.27934843,0.28332105,0.08128919,-0.026042297,-0.096306786,-0.29991302,-0.2752064,0.14377952,0.2212934,0.15199137,-0.02966302,-0.5495779,-0.16490458,0.3317129,0.054478142,0.30208707,0.19524011,-0.123596646,0.1492728,0.16670251,-0.060953137,0.32359332,-0.35511506,0.21111435,-0.8254317,-0.30016065,-0.09523231,-0.47491774,-0.032697916,0.40840825,0.2105546,-0.04643105,-0.024046676,-0.57928646,0.17421769,-0.19586617,0.2991901,0.016544886,-0.13902566,0.65108824,-0.0036967918,-0.09386878,0.06775771,-0.028407317,-0.20062037,-0.3153075,0.16019633,-0.3744757,-0.167008,0.5568212,0.26472405,-0.1994092,0.052683983,0.34264478,-0.20428392,-0.18149644,-0.23675007,-0.15610176,0.38193282,0.14878187,0.1726692,-0.35434473,0.071717955,0.022658639,-0.008854362,0.22919063,-0.008286555,0.040757664,-0.16333029,-0.09390245,0.57371783,0.16512986,0.024446636,0.097678676,0.04140068,-0.39572197,-0.5743817,0.18185405,0.059719235,-0.16313858,0.08027688,0.3305074,0.07151863,-0.012315331,-0.33549166,0.15746218,-0.39919668,0.098399565,0.11985075,-0.7465494,-0.19000758,-0.17587209,-0.4235613,0.08919275,-0.0037669204,-0.120031625,-0.013222797,-0.019541718,-0.01943189,-0.17236032,0.2309637,-0.022259884,-0.21037316,-0.35303617,0.26751438,-0.66271436,0.15427302,0.023419688,0.026402963,0.16717014,-0.045570366,-0.8436767,0.3892961,-0.1971263,-0.11657364,-0.12261729,-0.37831682,-0.28484124,0.24762282,0.09957552,-0.093985274,0.25808334,-0.014947595,0.6161051,-0.06514678,0.03237145,0.16062884,-0.18385147,0.20852458,-0.60182977,-0.5086612,0.1386634,-0.29074678,-0.00247881,-0.15455203,0.04347969,-0.032016065,0.14928454,0.3094908,0.29948536,-0.24549486,0.002929525,0.0752639,-0.56661344,0.18960486,-0.16915992,-0.09975954,-0.14619507,0.09332469,0.112105064,0.047246095,-0.3810282,0.35292158,-0.29062182,-0.41084135,-0.17560427,-0.15244125,0.07207255,0.48744813,-0.39973778,-0.1301937,0.18592498,-0.02763459,0.0072937794,0.5228085,0.07227931,-0.1393254,0.02879883,-0.71203214,0.12365106,0.7879971,0.20518416,-0.00040074345,0.28197944,0.20802064,0.09748497,0.28319496,-0.07944091,-0.27983737,0.3364224,0.10393392,-0.57501465,-0.07420408,0.07206171,0.013400331,-0.49059868,0.5931598,0.19709572,-0.40881202,-0.4392493,-0.18596822,-0.093747586,0.38334817,0.06656527,0.06488527,0.18300924,0.5696038,0.05113242,0.24400164,0.50653803,-0.028890435,-0.11391965,-0.040589146,0.022188194,-0.0001298897,0.430898,-0.35622698,0.24007192,0.008525,-0.03652799,-0.21031837,-0.022255912,-0.05189965,-0.047527187,-0.16832015,0.037140433,0.5947068,0.46397045,0.3823403,0.28637832,0.31680286,-0.13134055,0.74232435,0.48344573,0.08663388,0.014548533,0.09065849,0.04041006,0.030207012,-0.11749704,0.15529984,0.42212838,-0.1274699,0.644775,0.17506783,0.306126,0.4873219,-0.55832833,-0.20338413,-0.07102938,0.4868174,-0.35738373,0.04111445,0.13380678,0.051423013,0.09800311,-0.21055833,-0.38820097,-0.14754815,0.038174063,0.12693094,-0.13181111,-0.13113968,0.17734429,-0.085569546,-0.17103168,-0.4125453,-0.2523326,-0.12732212,0.031132253,-0.05934587,0.06560385,0.060070165,-0.35674033,0.059950367,-0.25165534,0.24524556,-0.14439148,-0.14216185,-0.10091597,0.37295172,0.16876653,0.60646844,-0.07678155,0.124810375,-0.2648519,-0.2255574,0.11884297,0.22362053,0.05239597,-0.009187784,0.41497087,-0.39121032,-0.14427234,-0.17791727,0.34209776,-0.3287105,0.03334098,-0.13295037,-0.18539475,0.28176302,0.11900155,-0.15238084,-0.105231486,-0.092170365,-0.32594168,0.11003145,0.16188793,-0.27351022,-0.06661722,0.17813154,0.050862424,-0.022702066,-0.054338254,-0.27819246,0.013514902,-0.118416175,0.29323238,-0.072030075,-0.15691797,-0.2775458,0.27279449,-0.02301796,0.20756945,0.24101572,0.2970197,-0.1227204,-0.0026564524,0.4642462,0.10486703,-0.17813212,-0.47266483,-0.26914766,-0.066570856,-0.13847059,-0.2777899,0.0041006543,-0.22109109,0.054593127,-0.27019143,-0.2829489,-0.064729095,0.10784516,-0.26240122
11005406.pdf,-0.4214217,-0.10908935,0.4115221,0.110255174,0.46775404,-0.03826181,-0.11045567,0.25331455,0.061919436,-0.21953286,-0.055707775,-0.38470107,-0.13622448,0.18322921,-0.0102275275,0.24939033,0.25800782,0.019744532,-0.20172274,0.4261747,0.29356754,-0.02980847,0.10519594,0.5641209,0.0265283,-0.060093045,-0.057776745,-0.15414047,-0.19699503,0.07526698,0.4638776,0.04187527,0.0008017216,-0.3733868,0.28341168,-0.16355465,-0.13741976,0.047045894,-0.08643251,0.1087174,-0.51748705,-0.39258957,0.08914677,0.052643213,-0.058918938,0.07150278,0.3554814,0.018607765,-0.1392122,-0.027167592,-0.68506825,0.1699799,-0.15814172,-0.10034135,0.16211644,0.56892186,0.15721421,-0.50736314,-0.20772362,-0.21190009,0.006428946,-0.19034153,0.051748876,0.0011176032,0.12945797,-0.23954234,0.11011325,0.4336332,-0.59897816,-0.05723072,-0.0978452,0.17046274,0.0053653405,-0.030289676,0.055513516,-0.15280414,0.061990768,0.3991063,0.31485862,0.12913893,-0.32042795,0.17751515,-0.050767466,0.2936939,0.28697163,-0.058529958,0.20451787,0.027276937,-0.525792,0.7526405,0.1661824,-0.27134973,0.39645463,0.171011,0.049836278,0.13852483,-0.14031503,0.21804507,0.14902747,-0.0053252866,0.07376884,-0.06442332,0.040850215,-0.052778997,-0.011060249,-0.1593582,-0.07008669,0.36517894,-0.11727017,0.19476733,0.096646026,-0.12431295,-0.0582797,-0.4047547,-0.17983271,-0.16420098,-0.015388589,-0.086572275,0.49356782,0.027164893,0.35262644,0.18840736,-0.011987429,0.9916661,0.0029972114,0.07628006,-0.11643714,0.24990825,0.025305007,0.047781218,0.0909354,0.30034426,-0.045253374,0.0008957274,-0.11083792,0.2083849,0.06101653,-0.0859686,-0.081581496,0.037343316,-0.18733841,-0.3332719,0.28662425,0.35591048,0.14055185,-0.021276169,0.02841688,-0.10363127,-0.14151509,0.4035086,-0.14557683,0.26101458,0.018954126,-0.19521415,-0.04037954,0.1413159,0.033845957,0.18798265,-0.13304837,-0.15535948,0.5377306,0.27303153,-0.40739202,0.24105233,0.22729589,0.030730354,-0.112176895,0.11724104,-0.22583206,0.04794167,-0.124572076,-0.2130247,0.32621074,0.13706577,0.10649738,0.10312185,0.1646535,-0.21433407,0.045707803,0.21165952,-0.5451,0.35891205,0.004302709,-0.12445614,0.17728472,0.03995226,0.41642103,-0.18857327,0.05294911,-0.21843675,-0.55327034,-0.36248446,-0.016255926,0.114743315,0.35750753,-0.34721857,-0.050790437,0.0063913474,-0.4113865,-0.0003730897,0.28799108,0.044032697,0.16400298,-0.040176317,-0.2338928,-0.28568417,-0.0026456164,-0.5240917,-0.18545946,-0.01748418,-0.3198049,-0.06559075,-0.124016196,0.25357676,0.12285286,-0.017990371,-0.37479913,-0.39449367,0.5232673,-0.054356392,0.20004141,0.014923219,-0.18337652,0.54126525,-0.47030205,0.75481737,0.17184845,-0.87929845,0.33137277,0.29370305,-0.16923869,-0.41267598,0.20144752,-0.66453993,0.27241072,0.16515034,-0.15544358,-0.14113292,0.19995144,-0.18987116,-0.17945248,0.6137545,0.31869453,-0.04659257,0.19487894,-0.19008721,-0.11652394,-0.43274695,0.045299806,-0.38017726,-0.42645758,0.25069106,-0.027069353,-0.533065,-0.039200783,-0.34123868,-0.008174593,-0.34201312,-0.3779871,0.17493248,0.09078479,0.15831394,0.034847885,-0.02492579,-0.029872537,-0.7359346,0.030452555,0.24521656,0.35318026,0.036160275,0.18719274,-0.25242886,-0.0075256624,0.36096042,-0.35917836,-0.094268575,0.2129052,0.21464539,0.116140425,-0.2534522,0.17751697,0.4102764,-0.02846669,0.044018693,-0.03716305,-0.040762283,0.15683937,-0.109173775,-0.31266072,-0.47208095,0.11628492,0.29355627,-0.4368899,0.131509,0.3594182,0.2035568,-0.036696985,0.13589473,0.2923125,-0.0592238,-0.3582139,-0.21332553,0.08845515,0.1701904,0.06914226,-0.16358784,-0.028499356,-0.5789635,-3.4692059,-0.15068224,-0.10849708,-0.32490465,0.33925688,-0.2812607,0.11236021,0.09599321,-0.26834494,0.15993255,-0.032171115,-0.052786343,0.12737891,0.04608953,0.21138307,0.12207885,-0.034918215,-0.14941871,0.117153704,0.13633052,-0.35538182,-0.7626238,0.24996713,-0.27794793,0.19496897,0.3324658,-0.43215632,-0.0719064,-0.20272079,-0.1412635,0.031360585,-0.19718766,-0.08089311,0.31928676,0.07699859,-0.24773115,0.13512123,-0.34238383,-0.26469257,-0.58989227,0.2023524,-0.7395202,-0.076663196,0.08865931,0.65572417,-0.09408027,0.20568225,0.17099832,0.13363369,0.27580696,0.11264594,-0.048317175,-0.33486366,-0.25559306,-0.16292647,-0.25633758,0.15878475,0.45705026,-0.25421262,0.1014805,0.095854,-0.18715093,-0.3458978,-0.49586958,-0.089291036,-0.054227464,-0.6067573,-0.17134361,-0.00299073,0.028825305,-0.24890369,0.67545336,-0.206734,-0.32031202,0.016834307,-0.51863,0.13540022,-0.1533184,-0.034923304,-0.0037755184,-0.060195453,-0.3915849,0.17280218,-0.13530074,-0.30406624,-0.1280058,-0.046413023,-0.21523061,-0.13284834,-0.33403945,0.32072443,0.10367046,0.35339123,-0.18346784,0.449799,-0.047264315,0.54438514,-0.09019266,0.096437074,-0.4886215,0.15635818,0.059510782,0.47768164,-0.26566935,-0.022496168,-0.0063342564,-0.21422498,-0.15358597,0.2163926,0.032665767,0.089348644,-0.3533229,0.25851876,-0.47872823,-0.39213413,0.0087435,0.086113065,0.67982435,0.056434773,-0.37529233,-0.3124451,0.34857523,0.1045756,-0.5865533,-0.2854946,0.051204693,-0.25293642,0.3418839,0.105446205,-0.17490967,-0.41138172,0.048565667,0.052818216,0.15049857,0.14537245,-0.042384677,-0.11028316,-0.41611698,0.07614167,0.15322107,0.05034312,0.18502975,0.1118602,-0.054497246,0.17265862,0.3778373,-0.06698119,0.20258757,-0.04644742,-0.019905165,-0.53046334,-0.52033293,-0.09305544,-0.017026683,0.029875627,0.38522118,0.2986733,-0.1818276,0.06406298,-0.55916363,0.36542255,-0.08732698,0.14375934,0.011076737,0.019371558,0.6785114,0.11163564,-0.19893984,0.03093256,-0.11966869,-0.31341356,-0.45318556,0.03187207,-0.21949372,-0.06477609,0.6762612,0.18811998,-0.36711273,-0.12383855,0.42258006,0.18600455,0.018289294,-0.31823018,-0.014240291,0.37528464,-0.16637266,-0.040094733,-0.3702255,0.029949704,0.16395369,0.15792878,0.3924582,0.0020261724,0.2918381,0.025068153,-0.2295196,0.38436338,0.2750678,-0.14392136,-0.19540673,-0.0051714107,-0.02935971,-0.30031088,0.25330114,0.188746,-0.09783887,0.115863845,0.316172,0.19701213,-0.16929707,-0.18168569,-0.15014228,-0.3997525,0.095479205,0.09535977,-0.40231568,0.16207841,-0.027153952,-0.47213405,-0.03872724,-0.16815391,0.0950445,0.08540434,-0.17026961,-0.34015805,0.12958714,0.23452023,-0.059451073,-0.29954103,-0.31384367,0.19445811,-0.8018675,0.0130377095,0.102589786,0.07619941,0.17327376,-0.1104691,-1.0252676,0.23745257,-0.09075983,-0.17319477,-0.07633492,-0.44767165,-0.32800168,0.06143808,-0.0691875,-0.12894422,0.34155834,-0.2824816,0.4620644,0.05532376,-0.10977281,0.30095524,-0.24849907,0.3150552,-0.45703346,-0.37629855,-0.13310954,-0.41695136,-0.458725,-0.33595204,0.04443843,-0.036442805,0.07487179,0.38232738,0.23848435,-0.09565808,-0.025694147,0.019764166,-0.47584105,0.16877103,-0.3298141,-0.06681868,-0.06974858,0.13228397,-0.11570456,-0.058067717,-0.43632442,0.5476145,-0.1997246,-0.47966808,-0.2120626,-0.044608712,0.17747848,0.18101144,-0.37908733,0.17286325,0.12365472,0.20436275,-0.031063955,0.40874326,-0.058747888,0.010078052,0.0044758557,-0.7164253,0.05484069,0.47587946,0.13817611,-0.03547983,0.29750678,0.13037212,0.030910518,0.3629193,0.05151096,-0.19701481,0.26905733,0.10143702,-0.56788385,-0.20091973,-0.27695808,-0.058351442,-0.41799402,0.5117112,0.17735371,-0.5926745,-0.22102197,-0.045863193,0.0013451679,0.115719676,-0.2153734,0.18162102,0.14540388,0.5315486,-0.07114037,0.41840327,0.5482751,-0.13233837,-0.28551877,-0.1729447,0.1742199,0.2208893,0.17760238,-0.1994538,0.32004023,0.080560796,0.14113432,-0.21341419,0.1164813,-0.22265315,-0.10336042,0.06958602,0.08745222,0.35301027,0.34841657,0.055159446,0.4227994,0.39272952,-0.023908505,0.63110447,0.586645,0.14208412,-0.017834377,-0.116891354,-0.02848291,-0.032459617,-0.030073704,0.04806118,0.35695782,0.18861079,0.65174365,0.35079625,0.2598468,0.634601,-0.478348,-0.42048028,-0.05159549,0.36192667,-0.46792823,-0.102939114,-0.029221315,-0.048670843,0.32681805,-0.105077595,0.014313039,0.14977555,0.07485067,0.025836904,0.006888341,-0.18649624,0.12380265,-0.1219613,-0.28463292,-0.12448318,-0.47424412,-0.2804148,-0.0024445802,-0.14343387,0.17371657,0.045529082,-0.3930843,-0.03543129,-0.22628453,0.40883994,-0.21850583,-0.23012501,-0.19775298,0.24885537,0.050675698,0.55284196,0.05361382,0.39033192,-0.24162126,-0.21552585,-0.051879577,0.19209892,0.24800387,0.024980692,0.43900836,-0.47870392,0.2116282,0.108254254,0.21605647,-0.13561527,-0.25506577,-0.038304325,0.115537085,0.2888075,0.095830224,-0.4530723,0.15160987,-0.47163552,-0.53440917,0.36050516,-0.2663846,-0.024742387,-0.18094286,0.5438012,0.25565997,0.15254563,0.07542592,0.015945267,0.3066515,0.0721453,0.23922102,-0.16200915,-0.057344295,-0.3760038,0.3374804,-0.22235239,0.16663486,0.13052948,0.22954684,-0.041437108,0.12695739,0.073173076,-0.3621412,-0.27262703,-0.48208934,-0.48765817,-0.30846763,-0.05977278,-0.14626324,0.10815309,-0.33504355,0.0990507,0.07724572,-0.24851242,-0.11753654,0.06253977,0.012032539
11270462.pdf,-0.124456204,0.20524736,0.28755596,-0.013443673,0.38607594,-0.026403014,0.00045327097,0.4189844,-0.014666819,-0.39758587,0.11115666,-0.45750844,-0.079044566,0.112692505,0.2169733,0.409631,0.21643987,0.13017377,-0.14224145,0.5097001,0.14734584,-0.17977382,0.083134726,0.58918893,0.48003042,0.10855695,-0.021545827,-0.16553845,-0.20608848,-0.26965365,0.6235876,0.009842403,0.12946548,-0.30467016,0.087915294,-0.124193385,-0.040629633,-0.21637914,-0.06421519,0.28855765,-0.59347296,-0.27820072,-0.015839115,-0.034703776,-0.28090528,-0.33562624,0.30334094,-0.060500674,0.15670626,0.056486785,-0.46957552,0.31115076,-0.08669124,-0.1050901,0.29683867,0.7626955,0.030472849,-0.6697714,-0.59409046,-0.5035366,0.09834203,-0.040319677,0.19221073,-0.3776065,0.2014952,0.06338233,0.16413867,0.38845736,-0.7012989,-0.12419512,-0.27862188,0.062017143,-0.19268101,-0.031252038,-0.19699894,0.009306437,0.068185985,0.42198884,0.1310947,-0.03592608,-0.21654032,0.32438865,-0.27942857,0.55521303,0.1115869,0.10312998,0.26811847,0.16834699,-0.2639789,0.5047141,0.16791525,-0.3113185,0.30063504,0.020198302,0.29386127,-0.11128336,0.32673377,-0.005438936,-0.38767323,0.19061394,0.22276476,-0.21489167,0.011055858,0.031957667,0.03524366,0.057567235,0.057367224,0.15673344,-0.23572873,0.46132216,0.099044636,-0.13826717,-0.28038922,-0.47021508,-0.037684064,0.013427779,0.17587169,0.1273069,0.03446863,0.036993,0.099517226,0.05479762,0.23906092,0.8231642,-0.050252203,-0.06049439,-0.18976022,0.21817933,-0.17392252,-0.19383527,0.11318745,0.06616405,-0.051998913,-0.24053803,-0.19842985,0.17357054,-0.2888221,-0.22415158,-0.16480787,0.28502125,0.060764227,-0.3780324,0.4284212,-0.012693857,0.19262555,-0.17497961,0.0058698244,-0.13458122,-0.15438162,0.24718487,0.22564253,-0.044261456,-0.066684544,-0.13470155,-0.15087846,-0.021083582,-0.385723,0.049580112,0.08256939,0.046828683,0.4324435,0.21778518,-0.45703363,0.3214074,-0.028431723,0.22243777,-0.1654703,0.27908558,-0.21469535,0.13023707,0.102345906,0.10615227,0.61914897,0.055008687,0.22797196,0.053067505,0.22404894,-0.12373767,0.16961361,0.1243545,-0.5504068,0.20298372,0.060314506,-0.064994305,0.2628621,-0.22947645,0.079091676,-0.36014998,0.14568013,-0.20066044,-0.34015238,-0.46788967,-0.27089414,-0.08639783,0.32592794,-0.32001144,0.0016533006,0.1679326,-0.32162413,-0.22997469,0.094675675,0.044652518,0.16111945,0.16095215,-0.31008804,-0.43336812,0.22646162,-0.4480814,-0.22593713,0.05120805,-0.26267087,0.21816634,-0.047122434,0.09668681,-0.17394231,0.05694803,-0.19037095,-0.16662753,-0.07886113,0.045289263,0.1475017,0.16527341,-0.5351155,0.4892945,-0.26895842,0.46180022,-0.1353706,-0.9056504,0.2580077,0.41842157,-0.00021971855,-0.26204488,0.4052438,-0.34735098,0.013386349,0.008886059,-0.16091132,-0.32864767,0.21729197,-0.3971094,-0.2029735,0.5432105,0.19194442,0.22960588,0.09929098,0.113283485,-0.06698099,0.076662585,0.023478432,-0.120543726,-0.5539894,-0.07355429,0.0055827396,-0.5320163,0.17674547,-0.30896813,-0.13946202,-0.4178359,-0.23687848,0.016764741,0.30956888,0.2338059,0.019620642,0.20766127,-0.2124086,-0.78717506,0.13593718,0.25409982,0.26339588,0.25128078,0.06274614,0.009088147,-0.048951264,0.54633445,-0.14354086,-0.12267381,0.04614693,0.13377684,0.049820457,-0.35403776,0.07722332,0.3309281,-0.1984371,0.02518231,-0.032794874,-0.21415447,0.27245164,0.2506804,-0.3840456,-0.16153729,-0.13425562,0.20960951,-0.31259876,-0.18784156,0.50164133,0.13739385,0.23836845,0.09366133,0.17702523,-0.058340706,-0.29856405,-0.40433377,0.46704048,-0.023287207,0.19910955,0.20861599,-0.014139759,-0.7615386,-3.2698708,0.01212161,0.12998402,-0.27854064,0.2929415,-0.053460047,0.11543512,-0.15935703,-0.42059097,0.05487711,-0.27180588,-0.017387085,0.2832594,0.108581886,0.1871356,0.1493836,0.21637976,-0.26201624,-0.04328376,0.32493246,-0.23914644,-0.5055139,0.20028767,0.0732496,0.43653184,0.47181517,-0.47650078,-0.21193075,-0.1757134,-0.06851609,0.2573665,-0.11068257,-0.16918936,0.27813053,0.10653451,-0.044652794,-0.0584642,-0.49623227,-0.38155025,-0.54354525,0.07974219,-0.85006166,-0.25346842,-0.21229106,0.70226985,-0.16716117,0.14802563,-0.06562214,-0.087918445,0.10835081,0.18267867,-0.02155754,-0.20931804,-0.048536137,0.014932242,-0.15205944,0.61733484,0.26747316,-0.2959273,-0.23960817,0.11956079,-0.30463338,-0.47013843,-0.022742217,-0.17583288,-0.37047157,-0.4805137,-0.3021273,-0.031136457,-0.0835818,-0.086580336,0.7595875,-0.30627924,-0.25072291,0.05958307,-0.35845977,0.29298022,-0.12058833,-0.007184632,-0.10493128,-0.2683619,-0.2969681,-0.05258672,-0.15510845,-0.2784347,-0.21217209,0.07689153,-0.052524928,-0.41637135,-0.5755753,0.3094288,0.24484736,0.31557858,0.053042956,0.40977132,-0.055047143,0.45054322,-0.08578922,0.03735718,-0.28891522,0.20615497,0.19000907,0.5922419,-0.34085488,0.100051455,-0.11329374,-0.27572897,0.05833029,0.21872099,-0.057847805,0.0989486,-0.39214537,0.11755467,-0.3908181,-0.1987733,-0.03612769,0.20653698,0.7300118,0.036435805,-0.29343852,-0.046793584,0.35429525,-0.20307106,-0.08250573,-0.151537,-0.026650101,-0.20289925,0.17423743,0.04694495,0.103699595,-0.0002529407,-0.28834444,-0.25819963,0.39582902,0.15376362,0.12361946,0.050792675,-0.65974265,-0.18120724,0.21220729,0.021138798,0.32337922,-0.12062015,-0.2266928,0.002599787,0.36310714,-0.16136031,0.28131858,-0.23701161,0.23554273,-0.6414094,-0.20551917,-0.27904898,-0.43573302,0.2019195,0.41052634,0.1411966,-0.1440881,0.088449806,-0.49380833,0.20893392,-0.0071865413,0.24459468,0.14628161,-0.26784107,0.5114257,-0.2191402,-0.06791386,-0.112528875,-0.067022175,-0.27000397,-0.1296119,-0.020204896,-0.46489316,-0.08589356,0.3297504,0.16818857,-0.063776046,-0.14895149,0.10726016,-0.11930123,-0.30909616,-0.13862813,-0.28794044,0.33550432,0.05044335,0.29590183,-0.36750555,0.023344483,0.20781916,-0.1357124,0.3457895,-0.18240447,-0.09832069,-0.13459858,-0.13805974,0.52936894,-0.09863421,-0.07813113,0.11362609,0.13832337,-0.35980883,-0.6890173,0.034221675,-0.06743359,-0.1767241,0.12022403,0.2037636,-0.0022891052,0.081346974,-0.38890755,0.050363995,-0.2238253,-0.06541156,0.061733857,-0.6536073,-0.2532224,-0.08536391,-0.42147523,0.1302503,-0.088910654,-0.1934735,0.14422327,0.04732428,-0.23195247,-0.065582,0.12919208,0.093937695,-0.21717612,-0.24660963,0.15270624,-0.8881315,0.1516709,0.12483535,-0.2797579,0.13869385,-0.051330928,-0.80944216,0.28612733,-0.13389048,-0.13331187,-0.011342323,-0.37063658,-0.32609257,0.25017023,0.021448677,-0.31521976,0.43826666,0.02909967,0.44529396,0.043202758,0.13025007,0.06924741,-0.16750634,-0.0022041723,-0.5245805,-0.5272316,0.020960936,-0.16613074,-0.11743142,-0.01096004,-0.12971771,-0.12784895,0.12677972,0.25368032,0.07397087,-0.11501595,-0.0060137967,-0.057456188,-0.54598707,0.080700435,0.014057398,0.07316193,-0.12465933,0.0684982,0.28436905,0.03887806,-0.3546617,0.44486988,-0.41143984,-0.4219584,-0.15188015,0.0031820536,0.065406404,0.54753244,-0.5042307,-0.18583655,0.39708894,0.019090388,-0.10662596,0.3196931,-0.041971695,-0.1829943,0.12913561,-0.40037212,0.2342569,0.83900374,0.14859709,0.101844616,0.23758674,0.0066779032,0.16648743,0.34884953,0.091396116,-0.22317848,0.18459004,0.054022536,-0.6580789,-0.14594482,-0.009231143,-0.104318514,-0.5760701,0.70237726,0.26909274,-0.4228813,-0.36234164,-0.18610525,-0.09042745,0.15048969,-0.00012552319,0.089746304,-0.059975352,0.7064359,0.012406956,0.21884608,0.41699487,-0.10341978,-0.18102188,-0.011816267,0.24503352,-0.17549422,0.51483613,-0.35543007,0.2849565,0.04163794,0.016623447,-0.29448193,-0.0024337023,-0.06363464,0.09804594,-0.23252971,0.02790078,0.48001963,0.49884364,0.39446333,0.29086435,0.24673463,0.031769216,0.51295817,0.4042592,0.15634426,0.23354803,0.0799067,0.11679837,0.121771984,0.037969425,0.37860274,0.35271078,0.094632655,0.72469413,0.27166772,0.12959117,0.4398567,-0.6144072,-0.31933844,0.03141495,0.44386488,-0.4852726,-0.036868427,0.18583786,0.09340412,0.22126473,-0.4314118,-0.20407087,-0.21176757,0.124553286,0.110973015,-0.34961158,-0.15170448,0.0005556736,-0.06529307,-0.16163822,-0.38191193,-0.12563361,-0.22876148,-0.011683103,-0.043342486,-0.110240445,0.005279786,-0.36439806,0.099892184,-0.12678234,0.29246747,-0.112696014,-0.058098786,-0.08444204,0.35932627,0.18873179,0.74236476,-0.069572166,0.022965223,-0.176209,-0.15674686,0.19933464,0.23830792,0.026678685,0.08384429,0.2865801,-0.40435565,0.0150676,-0.11924694,0.3276737,-0.42862365,0.122678585,-0.037321944,0.059834585,0.20666906,0.24516068,-0.23137741,-0.15524313,-0.019009955,-0.21500507,0.20911801,0.32176083,-0.19893786,-0.070045985,0.11674364,0.141997,-0.03738098,-0.08502601,-0.13003995,0.067979604,0.040894322,0.293257,-0.12623961,-0.21111143,-0.24932182,0.3178754,-0.08908944,0.17467792,0.17100598,0.3796659,0.13896048,-0.083635464,0.6102748,0.047494102,-0.086992815,-0.2370869,-0.33650917,-0.33062154,-0.16103272,-0.115136124,0.13803437,-0.21180077,0.011256811,-0.27983308,-0.1899338,-0.124163985,-0.087547734,0.0052438155
11677012.pdf,-0.37249115,0.2071704,0.3175286,-0.035029564,0.44762903,0.025435366,0.27543774,0.25022373,-0.0994557,-0.26504353,-0.0734335,-0.1815674,0.056034304,-0.0005716942,0.19516842,0.2905981,0.29577994,0.046202853,-0.1775913,0.2504038,0.0066962466,-0.10478988,0.19780068,0.5112852,0.42817557,0.02969456,-0.15351367,-0.08025734,-0.17020622,-0.1955301,0.47671,-0.024641413,-0.022416733,-0.10186079,0.057736114,-0.038200192,-0.08332485,-0.089410715,-0.103712976,0.26831228,-0.41073984,-0.2626325,-0.098933816,-0.009936981,-0.24540213,-0.3586094,-0.11837796,0.07492396,0.052535154,0.004543796,-0.38013336,0.37180847,0.054345675,-0.24825965,0.03304325,0.6944396,-0.023785375,-0.36340612,-0.31356263,-0.45112753,-0.06159021,-0.06163759,0.27123776,-0.1555885,0.123900905,-0.07587696,0.16374862,0.3609116,-0.64353096,-0.088040374,-0.35194737,-0.016599905,-0.06419913,-0.018319443,-0.40968293,-0.33885685,-0.0074263997,0.41361794,0.09867635,-0.05679321,-0.121148065,0.25640205,-0.079913504,0.25400105,0.06915733,0.21537712,0.13066775,0.16802551,-0.31977367,0.41248482,0.13606071,-0.2709911,0.36238807,0.223135,0.19163603,-0.004426077,0.18584211,-0.0029840395,-0.21754605,0.01658504,0.17975684,-0.103340894,0.12283604,0.11898525,-0.07794361,0.060913272,0.11901981,0.089737445,-0.39305514,0.33040398,-0.008756161,-0.113972515,-0.21776266,-0.4365707,-0.017422192,0.025771992,0.093883544,0.25832662,0.10834648,0.12444926,0.108136706,0.0043978076,0.09761419,0.6942239,0.08590752,0.058444805,-0.14241807,0.06578026,-0.049912617,-0.20286933,0.02751562,-0.013821457,0.040661953,0.05854395,-0.23310149,0.27636763,-0.20635197,-0.2839325,-0.066187456,0.09198262,-0.1647213,-0.4824152,0.40640837,-0.08624703,0.2638236,-0.16681036,0.0074956454,0.04692518,-0.1255272,0.28581536,0.23194498,0.0020411946,-0.060853913,-0.12966076,-0.12271549,0.08609495,-0.27011216,0.09448685,0.04435201,-0.11000228,0.2915316,0.2804474,-0.41813534,0.34037784,-0.13601992,-0.001552362,-0.20086057,0.29706258,-0.23976511,0.06920252,0.04454147,-0.08342698,0.505506,0.06971052,-0.0011885017,0.0262442,0.17299753,-0.12234878,0.06680952,0.086248346,-0.40246364,0.25223994,-0.014838088,-0.1636451,0.1506201,-0.19197479,0.16613823,-0.21498567,0.013382711,-0.0797949,-0.2951163,-0.4185143,-0.103996694,0.017223377,0.3592519,-0.24282132,0.01908877,0.13788126,-0.2307433,-0.21065259,0.2284674,-0.0056668334,0.22536924,0.2230275,-0.18442723,-0.43882608,0.20030883,-0.2633116,-0.26692826,0.09931962,-0.28632924,0.04067891,0.04826841,0.22761178,0.070061445,0.037548326,-0.09698209,0.030009285,0.1634989,0.109705426,0.3133117,-0.06693386,-0.42645487,0.45906168,-0.24320072,0.4226161,0.19674525,-0.7495057,0.26186112,0.30065435,0.082139194,-0.312877,0.4923985,-0.2974165,0.05360474,0.06421926,-0.25141245,-0.1392046,0.20715022,-0.42848957,-0.18068199,0.51057905,0.122354284,0.29336935,0.06987527,-0.016124174,0.07651779,0.01612196,-0.078550436,-0.19812278,-0.466578,0.030454857,0.08190653,-0.3892069,0.049059935,-0.49471283,-0.043268256,-0.25665548,-0.012307227,-0.16361307,0.27786604,0.098600194,0.18099865,-0.025284035,-0.062787786,-0.54677564,0.110792175,0.075927146,0.23198046,0.15394215,0.11338596,-0.03749409,0.09813608,0.51051825,-0.21421774,-0.091761045,0.25059798,0.04217116,-0.10870509,-0.27267623,-0.036773145,0.38051963,-0.1870559,-0.050623775,-0.04893749,-0.09954652,0.22568205,0.08669146,-0.19103822,-0.19008197,-0.038882732,0.21664953,-0.3735898,-0.18164036,0.5034375,0.10296061,0.077676915,0.29894662,0.10895316,0.030912116,-0.27820858,-0.27345824,-0.017299175,-0.03998436,0.24846116,0.07893267,0.03412336,-0.4204242,-3.8379164,-0.064584315,0.0556458,-0.19300541,0.23416355,-0.19846013,0.090081036,0.0563901,-0.34220025,0.17156374,-0.14670557,-0.14933454,0.07355209,0.23306508,0.054384112,0.13006103,0.01095378,-0.3059364,-0.10476757,0.35979033,-0.22414292,-0.60966533,0.08467973,0.1401498,0.36472934,0.17248927,-0.47890323,-0.07096307,-0.30221117,-0.21439156,0.21449435,-0.15328117,-0.23272783,0.20824754,0.13061385,-0.056760408,0.10044038,-0.28267485,-0.16569754,-0.38425145,0.15547973,-0.58180726,-0.21936142,0.089268416,0.6250585,-0.080178596,0.2564867,-0.004986709,0.13702676,0.04306049,0.12698236,-0.02525239,-0.23551938,-0.11735749,0.04724116,-0.12930672,0.39641678,0.16861814,-0.19620259,-0.15851673,0.21402168,-0.19308361,-0.24175754,-0.14123607,-0.29346126,-0.10488091,-0.5731008,-0.306894,-0.14537473,-0.146966,-0.0046166405,0.611815,-0.18096063,-0.1159091,-0.12432103,-0.45142382,0.29874006,-0.13344221,-0.00073069334,-0.1532488,-0.19391505,-0.22789314,0.2376206,0.048799917,-0.11427644,-0.11196836,0.17902198,-0.033860702,-0.46567106,-0.38114798,0.33365017,0.08629458,0.12699051,0.20027967,0.39285082,-0.011149067,0.2792585,0.0031572413,0.10878685,-0.35715094,0.0036424831,-0.022588994,0.4288795,-0.16107272,0.05907309,0.08011902,-0.27784032,-0.12772481,0.33170092,-0.1569721,0.107558526,-0.108742476,0.0718261,-0.26750594,-0.004397844,-0.0014444515,0.11261839,0.6587757,-0.011032826,-0.20511377,-0.21989354,0.3380956,-0.047696766,0.0037930096,-0.19586056,-0.011543064,-0.18738723,0.20690493,-0.012631673,-0.040332954,-0.15468088,-0.14306322,-0.1650152,0.18279621,0.4135521,-0.0020675953,-0.043239076,-0.4145748,-0.13146374,0.15675648,0.10817978,0.17852081,0.12164792,-0.14388707,0.03804265,0.15910573,-0.30104896,0.35360515,-0.30906034,0.23441845,-0.5293151,-0.32113963,-0.055963404,-0.2515729,0.0413208,0.31322736,0.1268805,-0.007998403,0.016292658,-0.37890083,0.2888621,-0.115069315,0.12594144,0.06306608,-0.15233985,0.61032784,-0.019179434,0.05417322,-0.1298915,-0.036678974,-0.101008534,-0.27467287,-0.043576743,-0.51385385,-0.14700219,0.37836757,0.18595535,-0.08778034,-0.056854524,0.28468108,0.09687725,-0.3840953,-0.15192892,-0.03821114,0.20192556,0.21660456,0.23857257,-0.35494643,0.021956552,0.01237275,-0.047385655,0.22911632,0.04447423,0.050819565,-0.07593101,-0.17186233,0.5128,-0.032130808,-0.04143123,0.18201183,-0.024517167,-0.31069243,-0.45142537,0.053622294,0.17725438,-0.25960782,-0.038425148,0.16748802,0.010380658,-0.0033402592,-0.44308925,-0.082294166,-0.39872545,-0.03136063,0.1589231,-0.44793564,-0.30322078,-0.15129605,-0.48355997,0.1713168,-0.021977726,-0.08849339,0.044117555,-0.06684612,-0.05302481,-0.041543636,0.08770659,0.06460938,-0.13629144,-0.19362518,0.09215975,-0.7517268,0.110677496,0.10944673,0.0012242217,-0.015392296,-0.034447987,-0.6489966,0.23759231,-0.092370935,-0.25684357,-0.12787314,-0.3430652,-0.35655135,0.11674495,0.0737854,-0.17896667,0.30999413,-0.04269946,0.3437454,0.013549373,-0.061321277,0.09054428,-0.16370814,0.11889705,-0.36937892,-0.20727684,-0.09649299,-0.32510972,-0.17437088,-0.11816651,-0.039406132,-0.14098823,0.007622594,0.23542726,0.2054806,-0.07394129,-0.25218648,0.011772781,-0.36618993,0.22009262,-0.3186224,-0.02960626,-0.06549016,0.0064645,0.13413584,0.08782908,-0.2777898,0.3547216,-0.14897768,-0.35066542,-0.15272577,-0.060142305,0.114877135,0.53238356,-0.43740556,-0.17435592,0.08862319,-0.13455954,0.0018403307,0.4364974,-0.09557145,-0.17621398,0.15601256,-0.59995925,0.07236533,0.5463267,0.13235967,-0.10326187,0.1445608,0.1271093,0.11015266,0.4113322,-0.012810903,-0.21605106,0.16064376,0.01627075,-0.6173341,-0.0878217,-0.114364,-0.20136552,-0.38718122,0.6159515,0.23319755,-0.36262977,-0.27808732,-0.19161066,-0.2109517,0.3032374,0.09109807,0.07000379,0.0636546,0.5353402,-0.037696864,0.41873425,0.49357575,-0.12760617,-0.07959706,-0.01921417,0.20107947,-0.002319742,0.4375208,-0.20205718,0.26404747,0.09124658,0.104616694,-0.089702636,-0.12880433,0.011531705,-0.012681913,0.052469213,0.17272955,0.41880673,0.42613518,0.29827976,0.26068932,0.24631363,-0.0030076038,0.44421935,0.3531081,0.22589946,0.14554478,0.19025683,0.095584296,0.15393783,-0.025082042,0.13710716,0.28820083,-0.19586723,0.5365914,0.23579961,0.29347962,0.55165875,-0.44559723,-0.26805413,-0.13042378,0.4338314,-0.40320835,0.048324794,0.16693532,0.07022044,0.18276301,-0.34942824,-0.12611666,-0.040148124,0.054407164,0.15124431,-0.19572136,-0.07416277,0.09862439,-0.17420784,-0.19671905,-0.35898072,-0.11328455,-0.25853375,-0.05333352,-0.14953262,0.10530326,0.01679952,-0.2084444,0.052134857,-0.09189698,0.27387697,-0.10106023,-0.10322961,0.0003473051,0.2731613,0.1511231,0.56406254,0.00074768905,0.12127742,-0.2704777,-0.13622087,0.02529424,0.14511663,-0.04949514,0.06078313,0.3157488,-0.38788158,-0.17911923,-0.11747176,0.23445669,-0.39269432,0.090076625,0.08234812,0.26489052,0.1741201,0.24133717,-0.18893802,-0.16709462,-0.036178097,-0.3059154,0.10135559,0.1707287,-0.3147263,0.05535549,0.010674596,0.18868011,-0.16077285,-0.16070911,-0.27265066,0.041976094,0.051209595,0.35318428,-0.14085966,-0.099415116,-0.25347006,0.29961768,-0.042169094,0.21381325,0.034980886,0.21763042,-0.01208518,0.07238565,0.24438325,0.08796999,-0.22810505,-0.33345956,0.01444024,-0.23817758,-0.05600192,-0.25089943,0.15859616,-0.23048516,-0.08305514,-0.30864573,-0.2268165,-0.30143946,-0.008917274,-0.17952025
12085736.pdf,-0.38364062,0.2045992,0.48287463,0.10143629,0.50845844,0.116718665,0.009697339,0.08713116,0.09471235,-0.20812908,-0.122387886,-0.39406943,0.07589856,0.12698922,0.15268528,0.38359678,0.18843433,0.10893303,0.04648704,0.23764405,0.06688912,-0.30571717,0.03653767,0.6492183,0.34575206,0.1031272,-0.13246466,0.04791195,-0.27275229,-0.09372018,0.4772794,0.10083738,-0.18906331,-0.467757,0.019468274,0.14799675,-0.22489211,-0.024460515,-0.22121693,0.1316966,-0.6092412,-0.2267748,0.016850624,0.027716199,-0.12717113,-0.30770385,0.07184253,-0.004831519,0.0868431,-0.009510934,-0.49775636,0.3471735,-0.27804965,-0.21161422,0.23842417,0.74789965,0.20329525,-0.57463026,-0.35188037,-0.26306865,0.058655206,-0.09914897,0.35264677,-0.2342934,0.14908764,-0.13414553,0.020393632,0.44290197,-0.7397933,-0.14641266,-0.33175445,0.1762473,-0.12953623,0.044417087,-0.3085907,-0.13942172,0.011201942,0.4848687,-0.0862571,0.026072867,-0.3001939,0.27496046,-0.20620283,0.27619737,0.17678066,0.13004929,0.33233556,0.15493473,-0.43179867,0.71151567,0.19206612,-0.27082235,0.47928113,0.20470065,0.14728603,0.15994893,0.17118835,0.10050169,-0.14704156,-0.03068496,0.14489493,-0.096974924,0.072869666,-0.026846036,-0.09822845,-0.061701365,0.022372544,0.007821621,-0.34370697,0.45003027,0.18726276,-0.15239458,-0.16396114,-0.46599618,-0.013605689,0.038160093,-0.20637566,0.21330404,0.22459707,0.15380202,0.31114167,0.16442826,0.052934982,0.73629713,0.14849958,-0.027076226,0.033619482,0.351462,0.025081882,0.046591762,0.0051081884,0.123373285,-0.00833237,0.001536807,-0.34040353,0.20908563,-0.113873854,-0.3259125,-0.09260579,0.09856715,-0.16778858,-0.5436553,0.4559002,-0.061867774,0.13186537,-0.19133703,0.23788756,-0.14746118,-0.16003567,0.3154988,0.23276344,0.051176317,-0.09759481,-0.21569599,-0.09878839,0.22180209,-0.17148447,0.09841758,-0.20096079,-0.109232455,0.3636273,0.3201849,-0.52404225,0.3144149,-0.14058581,0.0115583055,-0.17077689,0.3938054,-0.24007985,-0.08773601,0.05185567,-0.026146961,0.48443595,0.19652495,0.3962825,0.106891654,0.2897483,-0.124817595,0.084062025,0.2049785,-0.6105862,0.3284471,-0.0023281425,-0.11441858,0.25516218,-0.16330874,0.57605374,-0.40682876,0.04161922,-0.1986351,-0.47844976,-0.44973734,-0.22828704,-0.0017257687,0.3366608,-0.32227832,-0.056860175,0.11119915,-0.33339933,-0.25425816,0.30391654,0.20300452,0.099953815,-0.07305905,-0.122446895,-0.6051423,-0.043181125,-0.42762572,-0.30224392,0.06827761,-0.46005908,0.0987273,-0.09481397,0.16867772,0.07576771,-0.0009515099,-0.2779392,-0.006442153,0.09029775,0.05238159,0.15352204,0.14022958,-0.4991732,0.44248495,-0.5537097,0.48291865,0.015361128,-0.9832605,0.48651943,0.29213136,0.04173378,-0.17761663,0.36156464,-0.57761437,0.010998219,0.035633605,-0.27202252,-0.050286785,0.2721398,-0.3218287,-0.28034574,0.7497755,0.20721889,0.022537295,0.12033284,-0.0065859472,-0.039763696,0.011006959,-0.2276549,-0.20652527,-0.6227521,0.045502037,-0.13755938,-0.48289445,0.076805435,-0.3355546,-0.078101635,-0.46977097,-0.2814439,-0.04747425,0.37458667,0.17080234,0.1264348,0.082738176,-0.064071804,-0.67585546,0.061999004,0.21123505,0.12911277,0.44312537,0.13518561,-0.16264045,-0.025032967,0.52536273,-0.29980856,-0.19854516,0.34479406,-0.061676808,-0.08045311,-0.2581052,0.1695182,0.30047047,-0.27809733,-0.056257308,0.048984602,-0.15799259,0.37864602,-0.182953,-0.26364693,-0.12575138,-0.06850827,0.31759325,-0.47260213,-0.056854587,0.26998827,0.070983894,0.066400975,0.37210968,0.046990395,0.13261873,-0.35314226,-0.4093687,0.21339694,0.10336613,0.053041022,-0.008525923,-0.07774784,-0.63701177,-3.3276324,-0.18943578,0.16042802,-0.21147785,0.2588709,-0.19789885,0.035636395,-0.023347406,-0.2224462,0.25473318,-0.19584632,-0.23607999,-0.028922616,0.04462668,0.081049785,0.024958964,0.04773301,-0.26912293,0.1269238,0.31898326,-0.35604706,-0.79257125,0.24283841,-0.021516217,0.23032719,0.19073814,-0.60625887,0.00056872424,-0.21197298,-0.17560829,0.2528392,-0.22882305,-0.20089392,0.4642511,0.14063832,-0.09856423,0.074780025,-0.3082882,-0.05613686,-0.6123079,0.3436188,-0.46575016,-0.12371303,0.048527285,0.7892206,-0.19541736,0.19739315,0.07912403,0.06705264,0.16369648,0.41630596,-0.13476762,-0.30555478,-0.06693119,0.060603887,-0.20333888,0.4243083,0.061662085,-0.23856455,0.07320597,0.20897323,-0.34119916,-0.3724491,-0.20582826,-0.18378434,-0.19179109,-0.6881715,-0.28043562,-0.17637625,-0.14030764,-0.08361587,0.76621425,-0.24412292,-0.25134063,-0.022984784,-0.5220417,0.41235688,-0.2383005,-0.13105059,-0.25498867,-0.27959087,-0.37173387,0.38401914,-0.07545969,-0.30887145,-0.0028646644,0.07785497,-0.05656576,-0.3695072,-0.4752829,0.30241376,0.06934991,0.19696188,0.048044633,0.3587099,-0.07322921,0.53720796,-0.02138146,-0.002509348,-0.30686307,0.037359126,0.052874256,0.42694497,-0.32751924,-0.17358488,0.11447141,-0.26859516,-0.17353153,0.29989427,-0.13052852,-0.025783304,-0.09522614,0.10175998,-0.30125466,-0.19294637,0.046448927,0.046840895,0.7815274,0.003479179,-0.23304042,-0.10531687,0.249399,-0.04840563,-0.05091637,-0.15070933,-0.00034744758,-0.38014907,0.35960576,0.10118376,-0.2109184,-0.064607635,-0.25364137,-0.2254734,0.15344828,0.3722842,-0.07115966,-0.047908112,-0.444584,-0.06833847,0.17812318,0.15846011,0.53573537,0.26792186,-0.22161701,-0.013701588,0.16564088,-0.23773375,0.3433782,-0.20409714,0.14936215,-0.8079022,-0.14182527,-0.20990422,-0.3051483,0.027034853,0.34049168,0.27196807,-0.13045798,-0.014094983,-0.5294504,0.27316803,-0.005423044,0.2034103,0.01892908,-0.26687446,0.55669534,0.041988898,-0.13190636,-0.06463691,-0.11874965,-0.18777981,-0.3346321,0.27816272,-0.46610963,-0.18409902,0.37523633,0.30711108,-0.21648906,-0.0719396,0.54474664,-0.13705483,-0.2017406,-0.23091424,-0.102595,0.31783906,0.16544786,0.13396217,-0.3953814,0.003148631,0.06276278,0.0076181367,0.33829874,0.015141431,0.0049076155,-0.075749636,-0.23811275,0.5647286,0.17055759,-0.10487174,0.041323412,0.07969354,-0.26058984,-0.5260769,0.047030807,0.0058050863,-0.23231205,0.13280857,0.25667286,0.065777555,-0.112204015,-0.26222518,-0.046507806,-0.59758806,-0.036164653,0.14527558,-0.4535174,-0.20088074,-0.15953767,-0.31717172,0.0986063,0.076717794,-0.16413805,0.05069783,0.14304751,-0.111428656,0.016928598,0.1646823,0.03764058,-0.42286658,-0.28282773,0.1332367,-0.9481323,0.16139142,0.18235502,-0.009678561,-0.026941797,-0.20198545,-0.7771125,0.27413154,-0.22170937,-0.3125433,-0.019775424,-0.30901057,-0.16491966,0.17702925,0.058267765,-0.23109789,0.3250645,-0.1894838,0.480443,-0.13208035,0.031892255,0.11208633,-0.026846193,0.18644556,-0.3874783,-0.45278502,-0.12799177,-0.47769183,-0.047082294,-0.26205975,-0.06564718,-0.110743865,0.056643046,0.3329719,0.28495032,0.020127289,-0.15003972,0.02131534,-0.52021706,0.17062226,-0.27352256,0.06469208,-0.058612023,0.03794418,0.12782276,0.17208225,-0.35905707,0.48953587,-0.19139299,-0.426852,-0.41476944,0.08814682,0.15652625,0.50995344,-0.49837273,0.034315813,0.16353717,0.062162206,-0.02885726,0.35758868,0.06781412,-0.12657915,0.014559532,-0.5722465,0.10557568,0.749317,0.17408359,-0.03510101,0.26767343,0.2599395,0.075693846,0.48394108,-0.055144906,-0.07088005,0.3928644,-0.008440949,-0.5668228,-0.15311888,-0.20637316,-0.006356852,-0.4491232,0.5861175,0.10887112,-0.58904636,-0.13164257,-0.22923799,-0.16633299,0.41148782,-0.028760478,0.009784898,-0.062437624,0.6424339,-0.092332885,0.4054737,0.503292,-0.07848441,-0.12744242,-0.04000886,0.1389,0.11858666,0.3864637,-0.28515574,0.10857801,-0.057849143,0.012785325,-0.22509193,0.074993946,-0.048009247,0.055251162,0.032517828,0.14822142,0.43697608,0.44629195,0.1886906,0.2682434,0.43672186,-0.057801303,0.4945152,0.6373909,0.14832321,-0.014640637,0.060054854,0.3967114,0.2997272,-0.17133829,0.27328798,0.48081684,-0.031327937,0.7014221,0.19506136,0.29401094,0.57196724,-0.64264405,-0.36687237,-0.0089656245,0.49965355,-0.3306139,0.13975474,0.17893906,0.07561341,0.42303848,-0.36603108,-0.17998731,-0.045209426,0.024110412,0.20819215,-0.1425443,-0.17946765,0.19149771,-0.11616832,-0.24561939,-0.2501107,-0.22540517,-0.22062704,0.14794803,-0.053546593,0.057838306,0.117308095,-0.35579944,-0.03348802,-0.1888685,0.41223818,-0.11501394,-0.13496941,0.050587744,0.4626929,0.1642552,0.60195506,-0.014535438,0.12272249,-0.1817083,-0.2460154,0.08257763,0.23793328,0.2709967,-0.025985247,0.37938458,-0.4175322,-0.09969613,-0.072564244,0.26198864,-0.34666252,-0.0983023,-0.07594034,-0.113460556,0.14129393,0.22179523,-0.21159968,-0.13131166,-0.12015122,-0.40885323,0.2019485,-0.083758466,-0.38046706,-0.009351514,0.34169874,0.36459264,-0.08063513,0.036636464,-0.15313116,-0.027502803,0.018500157,0.3281162,-0.11058548,-0.12450018,-0.39979777,0.37448412,-0.07815774,0.116407566,0.11688988,0.31537992,-0.08196533,0.1454452,0.24332224,-0.07619569,-0.16859221,-0.3071589,-0.23135899,-0.07838245,-0.09136569,-0.24253896,0.09802513,-0.33512384,-0.018335529,-0.21448995,-0.10933242,-0.26019263,-0.021031478,-0.05740669
13328680.pdf,-0.3636068,0.14211746,0.42922595,0.04165116,0.50609493,0.088432044,-0.00069950894,0.22504456,-0.0238037,-0.27867407,-0.04273883,-0.2935483,0.1384227,0.020725332,0.12023665,0.39511093,0.22604448,-0.09704403,0.0014897045,0.20518789,0.10618044,-0.2593574,0.18975288,0.7367947,0.3246885,0.0064245593,-0.09960957,-0.037712142,-0.21753271,-0.12144959,0.4802644,0.0135310255,-0.21105188,-0.21454906,0.07034177,0.06970427,-0.25130606,-0.07859469,-0.13435975,0.15545052,-0.5031823,-0.22854874,-0.05185476,-0.10034063,-0.26620042,-0.29562536,-0.08794176,0.017771067,0.022176897,-0.076263696,-0.5183181,0.35195643,-0.16422695,-0.28130528,0.07409066,0.85371876,0.012732558,-0.403086,-0.43159693,-0.2488459,0.110988945,-0.1430347,0.22172257,-0.16214323,0.2936054,-0.12769665,0.016714798,0.43207192,-0.70388794,-0.24795839,-0.30907106,0.14956447,-0.14543198,-0.12760416,-0.42751363,-0.2557037,-0.0010449933,0.50081384,0.048063114,-0.016916696,-0.22882892,0.20080765,-0.22007257,0.30101907,0.10893835,0.31441092,0.35867178,0.12747891,-0.37608212,0.5027232,0.18527448,-0.39602992,0.45041925,0.24779159,0.26276892,0.038619623,0.104944125,0.18997267,-0.2417695,0.03606403,0.19525698,-0.19909558,0.09605423,-0.103382334,0.022484245,-0.07663624,-0.015586667,0.039289992,-0.43736494,0.3789669,0.08417253,-0.17565712,-0.21162179,-0.45221782,0.0008875355,-0.11689362,0.0025665816,0.29921675,0.24659756,0.1461338,0.21662986,0.011627728,0.13613343,0.7544866,0.057209555,-0.009121951,-0.077171475,0.26096117,0.004619118,-0.023433346,0.026151214,0.08770415,-0.06815756,-0.04318068,-0.24634571,0.17338875,-0.0780098,-0.36611658,-0.14425835,0.12650406,-0.035688125,-0.46000367,0.46275127,-0.100508034,0.15002885,-0.2875207,0.06497303,-0.23209867,-0.17065091,0.1250581,0.26965302,0.06908791,-0.09481623,-0.22590706,-0.07178263,0.17679912,-0.2404201,0.04327088,-0.20407021,-0.074900374,0.30368727,0.24764481,-0.3504317,0.2351292,-0.13449329,-0.0037329514,-0.067388155,0.41635126,-0.25034007,0.015074499,0.034580123,-0.057218343,0.49129617,0.115086034,0.21986055,0.03139554,0.22650898,-0.069319695,0.007712746,0.22843494,-0.52813256,0.252656,-0.049045008,-0.253592,0.28052688,-0.16601212,0.4518399,-0.2503023,0.08835155,-0.08719882,-0.33408347,-0.39233744,-0.16706839,-0.058546633,0.2579016,-0.3496788,0.09993205,0.103763804,-0.33735797,-0.16594048,0.10215452,0.36631745,0.108848594,0.09554827,-0.09772411,-0.47940683,0.054033168,-0.38648736,-0.16094702,0.17290369,-0.4223172,0.10744564,0.049225476,0.14589304,0.041136447,-0.014690157,-0.22917125,-0.12250261,0.17610061,0.034494534,0.18423793,0.10502103,-0.46982348,0.49409437,-0.42792702,0.4470626,0.10553867,-1.0856135,0.36331266,0.2370618,-0.073622815,-0.20004566,0.439914,-0.452766,0.049047284,0.0658065,-0.30303994,-0.13666266,0.21243629,-0.30378443,-0.11527267,0.5857848,0.25852776,0.068790965,0.16976783,-0.035429765,-0.03547752,0.0047362354,-0.24321532,-0.21989709,-0.6419904,-0.0019896217,-0.11252535,-0.39137566,-0.0064842766,-0.33348173,-0.11991291,-0.4311151,-0.13996403,0.04859247,0.3469028,0.21541086,0.08807173,0.0564975,0.055033833,-0.53510827,-0.037882637,0.08416359,0.10268438,0.27797094,0.16376378,-0.07546114,0.09803806,0.55458504,-0.2151642,-0.2353298,0.38054746,0.005281632,-0.057341143,-0.24098948,0.11176783,0.26277268,-0.17289531,-0.052352645,-0.045590494,-0.011434529,0.3019297,-0.043136626,-0.19445714,-0.12369603,0.045125622,0.21098512,-0.48016742,-0.12138283,0.3935918,0.062680416,0.004630978,0.22770323,0.051360935,0.14176263,-0.22154501,-0.22255188,0.24265517,0.019210523,0.24089926,0.05394762,-0.00023980835,-0.501407,-3.6586952,-0.19730636,0.14244923,-0.25749266,0.26659182,-0.25212866,0.07787628,0.04957251,-0.24547085,0.09971634,-0.19318697,-0.18247066,-0.13238645,0.061777085,0.09270877,0.10205676,0.036674812,-0.20059639,0.14938577,0.37261212,-0.2384435,-0.80817294,0.24217558,0.063427806,0.33252484,0.15399416,-0.5339637,0.06592077,-0.3116575,-0.17193133,0.21934208,-0.17297545,-0.2070632,0.46235892,0.19121727,-0.12985517,0.09830979,-0.45070052,-0.15273279,-0.5299649,0.24846926,-0.5359771,-0.09625599,0.10746242,0.68001294,-0.21288548,0.23228967,0.078647435,0.13902318,0.09244298,0.3422786,-0.10177581,-0.39078796,-0.13791804,0.012621608,-0.25908774,0.47635373,0.20175207,-0.18795547,0.060027856,0.1377936,-0.18872124,-0.46736223,-0.1675658,-0.080344975,-0.0696933,-0.70157546,-0.35929322,-0.17301351,-0.122897014,-0.17717677,0.535928,-0.2495277,-0.25301412,-0.17459625,-0.4493845,0.39135373,-0.1777865,0.0017744265,-0.15689766,-0.14959717,-0.3436967,0.36169904,-0.021008696,-0.29270515,-0.13100949,0.05991761,0.034260575,-0.36300534,-0.50054353,0.2855834,0.030434255,0.1567954,0.079572365,0.36680838,-0.1294752,0.406065,0.0092566945,-0.051414065,-0.4804023,0.005447708,0.043984435,0.44654393,-0.26430658,-0.07422472,-0.0038323402,-0.24111313,0.023150655,0.30249232,-0.2056959,0.112491965,-0.007507069,0.021348597,-0.23018155,-0.09213504,0.039721005,0.041706048,0.63484,-0.052600108,-0.19513379,-0.15424733,0.31989622,-0.062870055,-0.057804782,-0.1276751,0.03802134,-0.29431027,0.3680293,-0.044079848,-0.117656544,-0.129222,-0.26297075,-0.18762851,0.18468776,0.38884348,0.021701707,-0.05597236,-0.46958226,-0.009682976,0.20949629,0.13783565,0.4625369,0.40152842,-0.217033,0.019077927,0.20936,-0.16971193,0.3133629,-0.3166079,0.24399543,-0.75070643,-0.25698915,-0.29287636,-0.3701648,0.10359864,0.4817269,0.2507004,-0.18851951,0.0796926,-0.56092155,0.2764191,-0.1352658,0.23713128,0.04777798,-0.043260135,0.5879478,0.0064151306,-0.108537085,0.0152827725,-0.15254575,-0.16100496,-0.3441485,-0.007627568,-0.47763813,-0.2939765,0.4363606,0.23554978,-0.26247162,-0.108219445,0.473153,-0.21758845,-0.21556178,-0.19017154,-0.09157039,0.32039326,0.26063335,0.10542819,-0.44588053,-0.025093822,0.072238274,0.0132747665,0.45940328,0.05012684,0.11057235,-0.112014115,-0.157868,0.5944593,0.11981118,-0.20156416,0.031550333,-0.008986498,-0.2448512,-0.35072255,0.15622395,0.070441894,-0.3119645,0.03807958,0.42149934,0.023982566,-0.10578075,-0.40094268,-0.08301465,-0.59559464,0.006264539,0.12202145,-0.5283197,-0.13243176,-0.17122695,-0.37081447,0.15880132,0.08423175,-0.18812504,-0.046297938,-0.02872138,-0.2003069,-0.06238138,0.15460528,0.025950216,-0.22386809,-0.26896998,0.14857858,-0.931378,0.23271775,0.18559405,-0.030342001,0.16064447,-0.13086385,-0.6895621,0.35447916,-0.2012026,-0.2780801,-0.12968448,-0.28308752,-0.19080417,0.15348542,0.14161377,-0.09909711,0.34306824,-0.1822067,0.48514897,-0.20663428,0.06636069,0.22357109,-0.08087243,0.21904042,-0.37128508,-0.3919202,-0.07760421,-0.3603382,-0.10716614,-0.17572257,-0.045601375,-0.08010702,0.015740061,0.42855987,0.33308542,-0.08487733,-0.1696127,0.018443674,-0.336823,0.26741046,-0.18808986,-0.07164549,-0.062311172,0.07748374,0.12497982,0.15265349,-0.34888655,0.52557826,-0.27602875,-0.41536862,-0.29033652,0.09868857,0.11132907,0.49080884,-0.4505963,-0.15285562,0.20405424,0.10188021,0.02587549,0.46735543,-0.10098622,-0.18064824,0.10001252,-0.6393385,0.076456904,0.7327348,0.15649389,-0.082111046,0.25202805,0.33186954,0.038347244,0.3427801,0.07422063,-0.14486808,0.37950832,0.1506052,-0.51645625,-0.15208338,-0.32108742,-0.106947005,-0.4581313,0.6049141,0.16320303,-0.513897,-0.1937525,-0.18188456,-0.10300734,0.37510294,0.030304804,0.046141002,0.07275563,0.58455193,-0.18532905,0.38336405,0.6336762,-0.08362309,-0.11853313,0.033113897,0.20440227,0.14153573,0.55579865,-0.38265502,0.27697366,-0.061167553,0.099715374,-0.09155327,-0.034804367,0.13070327,-0.013205528,0.1081989,0.14111094,0.43591076,0.3912903,0.28403848,0.24055737,0.35453135,-0.10706374,0.59776807,0.5511198,0.13641453,0.012547011,0.11919588,0.11337833,0.22471336,-0.1805116,0.18122931,0.45604378,-0.042695303,0.64105266,0.2767071,0.32086498,0.58355546,-0.5090363,-0.30742925,-0.034986068,0.49273062,-0.27066243,0.10729052,0.14852192,-0.017313238,0.25948417,-0.3800208,-0.25235343,0.0050232364,0.08727047,0.14335951,-0.22811711,-0.08619258,0.33647043,-0.051571142,-0.2639051,-0.2937813,-0.118358314,-0.2666158,0.060237404,-0.19641303,0.05666214,-0.023703028,-0.23380038,-0.029560808,-0.112187855,0.29893935,-0.1498538,-0.1987466,-0.13867325,0.31105775,0.1290469,0.5644518,0.026089227,0.22946118,-0.1977856,-0.121480435,0.09980196,0.28282157,0.048504435,-0.098185584,0.4314715,-0.40707782,-0.19089395,-0.008386232,0.1675505,-0.3619607,-0.11891316,0.013462715,0.05269835,0.044343136,0.20185831,-0.20278639,-0.06488556,-0.1750325,-0.48825383,0.09164397,0.09150855,-0.2704655,0.079193674,0.32246774,0.20283684,-0.20285852,0.014953968,-0.18161175,-0.03335138,0.04677841,0.37836578,-0.13573098,-0.129788,-0.35041153,0.3576979,-0.15029773,0.18804395,0.16563134,0.31319138,-0.059827372,0.074988395,0.16010393,-0.083860755,-0.17438017,-0.32289475,-0.2290557,-0.09267296,-0.037563782,-0.26951313,0.16881746,-0.2206748,0.0763787,-0.24777432,-0.22317886,-0.330644,0.035057478,-0.13845828
13343786.pdf,-0.35333717,0.33533394,0.39151683,0.013434704,0.5952974,0.017700959,0.13497686,0.16685912,-0.08576378,-0.23314175,-0.057651088,-0.18827856,0.11481098,0.0026733242,0.116592914,0.4073729,0.283663,-0.019095235,-0.20815949,0.20898606,0.21513543,-0.21234064,0.1469602,0.62137103,0.21516654,0.13780212,-0.19891717,-0.18401363,-0.3260616,-0.2468221,0.45814532,-0.0011638142,-0.08128236,-0.21029246,0.10004586,0.018580444,-0.24640535,-0.09071424,-0.06818333,0.14684147,-0.36913875,-0.041586887,-0.22002074,0.01852024,-0.1818532,-0.23549208,0.23379174,-0.21500687,0.014287781,-0.0024960283,-0.45381635,0.20209098,-0.22252677,-0.23607837,0.22690026,0.5864671,0.06295409,-0.542363,-0.46821547,-0.36139935,0.22706231,-0.16082963,0.25823745,-0.11002165,0.30293584,0.031260774,0.23304012,0.3766425,-0.62026846,-0.109431006,-0.2876109,0.01045792,-0.05423645,0.028991431,-0.19964427,-0.19484743,0.0178269,0.293995,-0.02489467,0.11218397,-0.13176452,0.320047,-0.16431823,0.095394604,0.1964576,0.0899602,0.15905355,0.14167283,-0.3101829,0.73861396,0.26962313,-0.12578024,0.34543863,0.21129292,0.06787501,0.052595574,0.15329522,0.10271528,-0.13544378,-0.013421527,-0.021874629,0.0038428982,0.09639447,0.05837909,0.008563954,-0.09937805,0.12531872,0.2303022,-0.38818553,0.28381193,0.108548,-0.1525865,-0.2482642,-0.38389462,-0.09168534,0.081368096,0.1582174,0.09774239,0.056785494,0.1506136,0.17194726,-0.1490339,0.27431497,0.6385148,0.14681602,0.1162614,-0.049420364,0.11577572,-0.027833864,-0.18199942,-0.08624176,0.16534412,-0.1407021,0.029137414,-0.24374294,0.26735252,-0.2979458,-0.2210628,-0.09794432,0.19265546,0.053681105,-0.48972958,0.33461666,-0.060837917,0.007999527,-0.27099305,-0.10000849,-0.017791476,-0.15325192,0.42757046,0.25936675,0.03707414,0.02439326,-0.23586872,-0.13184987,0.09099209,-0.1044885,-0.016547365,-0.11126466,-0.13179706,0.32457942,0.3071295,-0.44978234,0.29427296,-0.049367685,0.02003774,-0.26420575,0.21086206,-0.15413168,0.1609449,-0.13542426,-0.021150652,0.61108255,-0.10274255,0.21803775,0.10816933,0.22821292,-0.11633316,0.20048778,0.035300553,-0.4440108,0.32160085,-0.08260918,-0.10388826,0.24367201,-0.18389058,0.4960129,-0.38119453,0.27164364,-0.2447088,-0.27559212,-0.43034825,0.002541123,-0.04416063,0.1563773,-0.20214203,0.12203921,-0.03300567,-0.4014423,-0.27107412,0.2153747,0.16520366,0.30653355,0.18967515,-0.16180107,-0.25179726,0.22128779,-0.36155295,-0.20985502,0.15740332,-0.2345362,0.13600302,-0.145064,0.15034819,-0.013522502,0.050220165,-0.14430372,-0.19206804,0.18983991,-0.14128025,0.19169568,0.17106795,-0.38991368,0.46244016,-0.3948412,0.39229584,0.041957244,-0.8358334,0.32589746,0.3293432,0.14096653,-0.39372092,0.44075763,-0.2756123,0.12941003,-0.040255055,-0.39215857,-0.1427738,0.30635422,-0.30357343,-0.26858497,0.57580197,0.42267054,0.08462424,0.08587495,0.02428139,-0.040101297,0.029916331,-0.14086263,-0.039107587,-0.51404214,0.048324525,0.014104869,-0.40911818,0.010517925,-0.4069656,0.056566287,-0.3869615,-0.20696333,-0.14481568,0.18689232,0.11306722,0.12630056,0.043531626,-0.06680837,-0.6748787,0.13192095,0.2691754,0.07863804,0.2779894,0.21839267,-0.15124232,-0.03370653,0.3469749,-0.25829434,-0.09351608,0.2593097,0.0836332,-0.026097486,-0.122288436,0.17765176,0.36112157,-0.1382678,0.03717709,-0.122634925,-0.10159513,0.3159033,-0.06427639,-0.27556545,-0.17063363,-0.15118769,0.2517566,-0.40590313,-0.19319792,0.44215506,0.01702938,-0.03811068,0.32198852,0.23861921,-0.039390735,-0.26366636,-0.36792624,0.13447891,-0.025976641,0.11018613,0.014404406,-0.09310268,-0.6021085,-3.5766559,-0.0069841174,-0.17621933,-0.29458708,0.33304155,-0.12757216,0.38220218,0.028687138,-0.3867486,0.25583085,-0.07592292,-0.1679291,0.2137161,0.37596202,0.12135222,-0.031448454,-0.059791304,-0.36672384,0.007638097,0.33017182,-0.041706137,-0.8429262,0.077165216,0.13699874,0.30862418,0.42220753,-0.46799988,-0.0060700625,-0.33308536,-0.22138551,0.19290933,-0.020038802,-0.10307331,0.2438741,0.04355111,-0.11427504,-0.14220664,-0.27293506,-0.12814853,-0.658651,0.13904545,-0.6766188,-0.22854826,0.045444272,0.5565357,-0.04081013,0.18605012,-0.06109876,0.16232029,0.20855604,0.2770117,0.049457412,-0.15385039,-0.009252045,-0.081068516,-0.10964235,0.5364066,0.34341902,-0.3608613,-0.03655047,0.26451474,-0.28639135,-0.2872295,-0.1144901,-0.1844092,-0.079915315,-0.59305876,-0.3766036,-0.17170842,-0.20455489,-0.06253551,0.5679062,-0.35870683,-0.26461458,-0.15099065,-0.5003696,0.21785656,-0.18138722,0.039999366,-0.22016217,-0.13565493,-0.30305356,0.17819583,0.07512897,-0.20580304,0.053161267,0.10585587,0.08411741,-0.53698826,-0.53624266,0.30179855,0.14967185,0.24157858,0.018457536,0.2211074,-0.13210306,0.41419774,0.02635501,0.1385898,-0.4195388,0.08869746,0.035185155,0.62595046,-0.28077367,0.006296452,-0.12531182,-0.18923429,-0.11125134,0.25768405,-0.13077287,0.16061543,-0.25637558,0.262506,-0.47554028,-0.0842479,-0.027687922,0.16209894,0.77330923,-0.053722363,-0.081782036,-0.1599126,0.15976621,-0.17684337,-0.057778507,-0.18593703,-0.0820684,-0.2823898,0.24425733,0.18732183,0.07390906,-0.19044614,-0.049270872,-0.21111268,0.11052373,0.26527664,0.07485158,0.05575469,-0.2638686,-0.12613192,0.24624087,0.14034984,0.28854948,0.085272655,-0.25141674,0.070115566,0.23545307,-0.08437355,0.43509066,-0.20525827,0.20209299,-0.6252533,-0.252297,-0.17499697,-0.2570106,-0.047358133,0.41521153,0.20069617,-0.17361383,0.01163961,-0.49399245,0.11522499,-0.08658768,0.14007875,-0.11606072,-0.21119975,0.511207,-0.08806318,-0.23633847,-0.08499223,0.08952682,-0.29212177,-0.18218623,0.15187752,-0.31946614,-0.08771428,0.45621616,0.2739011,-0.21267292,-0.0369234,0.36277175,-0.09961083,-0.27525926,-0.2560844,-0.05127258,0.009088129,-0.07103854,0.27223447,-0.41288126,-0.080700226,0.0033458713,0.12175901,0.08144997,-0.17774537,0.09143164,-0.06570178,-0.052934244,0.4009157,0.24462754,-0.061022185,0.20166586,0.1341159,-0.32219446,-0.43780625,-0.13177708,-0.050517514,-0.27023596,-0.12834048,0.33418173,-0.0029424857,0.034263633,-0.4696529,0.082954936,-0.49175954,0.065823644,0.08808486,-0.65328205,-0.14712721,-0.05454366,-0.42388707,0.025318116,0.087400965,0.021942116,0.13518521,-0.026222346,-0.20042153,-0.19364142,0.06847618,-0.03852224,-0.20189738,-0.12185122,0.08565631,-0.94824,0.0510037,0.010221258,-0.14854151,0.0074553075,-0.16321187,-0.6882639,0.42642033,-0.22360173,-0.26639473,-0.075016625,-0.3083359,-0.29921353,0.19975767,0.040839598,-0.04655476,0.20541108,-0.03316853,0.6784715,-0.038459867,0.03556458,0.16978332,-0.08722573,0.1688686,-0.39402783,-0.37831682,-0.012887111,-0.15889427,0.03883577,-0.19895127,-0.055322926,-0.13342938,0.0023895036,0.4225188,0.17224404,-0.14830914,0.050189648,0.048448704,-0.5766636,0.16209634,-0.41580868,0.0013138959,-0.26128656,0.22765218,-0.047670454,0.17924127,-0.36144796,0.7224176,-0.32426605,-0.42107886,-0.079296954,-0.1105066,0.08681017,0.3437993,-0.5917047,-0.13876042,0.2265222,-0.30164245,-0.0052598827,0.56243604,-0.123623475,-0.3394263,0.062782876,-0.7015704,0.06260871,0.6731282,0.48581624,-0.07743494,0.3171706,0.04858167,0.06944399,0.21075413,-0.11359633,-0.28317553,0.32313898,0.050932616,-0.5342343,-0.18193233,-0.00924414,0.023537725,-0.41358516,0.6669906,0.20835733,-0.31755197,-0.38182774,-0.32658374,-0.15741009,0.3005881,-0.069277555,0.07016863,0.0017501377,0.5960007,0.016153267,0.34259802,0.46151257,-0.015361939,-0.017013125,0.099460974,0.24825925,0.14170358,0.37152433,-0.085794926,0.03224365,-0.05239682,0.05762217,-0.09628808,-0.16578168,0.035965763,0.057225864,-0.05296369,0.20163625,0.5808134,0.4583903,0.26205376,0.25053418,0.31525493,-0.06115506,0.5950263,0.4722637,0.03204844,-0.11534254,0.18672395,0.028210152,0.252976,-0.119123854,0.24011867,0.33012295,-0.058553748,0.48974022,0.065093815,0.19470322,0.46838832,-0.506986,-0.35930198,-0.26958504,0.4486962,-0.35904378,0.14198142,0.27506137,0.060348466,0.12201613,-0.5590673,-0.26335302,0.0680863,-0.087756604,0.32666317,-0.2682673,0.032137092,0.22650917,-0.017355435,-0.18173373,-0.30984664,-0.5023218,-0.24276952,0.14438751,-0.061652318,0.09029481,0.20470606,-0.12483688,0.0005579982,0.0018803147,0.1444671,-0.034189112,-0.021642849,0.0013232753,0.356834,0.027931135,0.69876003,-0.20846853,0.20756933,-0.03790934,-0.18179727,-0.048010968,0.25375023,0.066275366,0.13328682,0.47596756,-0.30666766,-0.22068536,-0.1308862,0.3226365,-0.28257924,0.08867083,0.16015184,0.0126527455,0.13052899,0.05934113,-0.26624778,-0.076637365,-0.08731447,-0.3728987,0.15801783,0.09960188,-0.32437783,-0.039642595,0.37143886,0.23554781,0.016116312,0.13285312,-0.25764892,0.010439338,-0.15808171,0.17431918,0.082910106,-0.15017247,-0.3587789,0.3649239,-0.06791236,0.13970605,0.20965499,0.17168938,-0.106666796,0.12956828,0.43439922,-0.07383764,-0.32775152,-0.36434364,-0.21685,-0.25141358,0.038293708,-0.18963146,0.17342208,-0.30870217,-0.039844766,-0.4613275,-0.2502728,-0.11664073,-0.056064993,-0.006803415
13503650.pdf,-0.40093613,0.15667182,0.4042853,0.018421365,0.6866348,0.17621627,0.087702826,0.19021848,0.0051198006,-0.2960611,0.045798823,-0.3415048,0.07096858,0.11893667,0.08285068,0.44895476,0.39211148,0.0222002,-0.30468965,0.28861916,0.1628242,-0.30817395,0.030496018,0.6052542,0.2644179,0.06923407,-0.21681325,-0.18062654,-0.26290306,-0.22278886,0.6456964,0.099424295,0.016071323,-0.2510563,0.095182374,-0.05692491,-0.13163397,0.055047445,-0.14169726,0.18852267,-0.3978778,-0.14989978,-0.16937694,-0.07020383,-0.17646359,-0.20958641,0.1925317,-0.18261814,0.07729365,0.10878134,-0.5324702,0.24763286,-0.35218343,-0.21516354,0.11242703,0.7216176,0.030739885,-0.5571745,-0.425104,-0.36559552,0.2586359,-0.19515523,0.34388596,-0.0795746,0.14458434,0.0239381,0.21362105,0.4456709,-0.6361894,-0.097385615,-0.3011213,0.1826421,-0.031917524,-0.09856324,-0.19715926,-0.11426026,-0.029599264,0.3727873,0.056882486,-0.0068026483,-0.2544065,0.30254793,-0.23681544,0.24764287,0.13947423,0.07150765,0.21311615,0.051213413,-0.43658382,0.6766294,0.15005475,-0.31153542,0.2782154,0.13548705,0.0483814,0.13782899,0.077549905,0.13520212,-0.21357295,-0.023730353,0.12814838,-0.045017585,0.105362356,0.059225954,-0.05952185,-0.014725981,-0.05738651,0.22563078,-0.42234817,0.48121917,0.031625748,-0.29509833,-0.25648817,-0.45042568,-0.087636836,0.0679982,0.18222633,0.20163697,0.10118266,0.07394432,0.113357954,-0.054236136,0.21358319,0.8956462,0.07506517,0.086359926,-0.010522507,0.15493542,-0.1276231,-0.034268197,-0.17389166,0.16288234,-0.17841136,0.043107394,-0.25309294,0.30089527,-0.22401863,-0.2688028,-0.17950317,0.1400838,-0.0017735809,-0.5077628,0.41482008,-0.070405215,0.12244713,-0.19896397,0.09104962,-0.00036690012,-0.1367785,0.47074306,0.24259208,0.045213506,0.035423826,-0.09960956,-0.06905476,0.20909914,-0.23358761,0.12060754,-0.03814577,-0.13960099,0.41026378,0.48972315,-0.4615764,0.23815586,-0.058776285,0.09090674,-0.24027276,0.27997446,-0.1293861,0.14402962,-0.048507784,-0.031589765,0.65434444,-0.03404441,0.23129778,0.09028364,0.18860185,-0.112213895,0.0962958,0.070865475,-0.4741395,0.39095873,-0.16247714,-0.18261209,0.19872683,-0.23409921,0.3885273,-0.34039307,0.28419405,-0.17317666,-0.24092025,-0.3936074,-0.03917979,0.101298675,0.35927993,-0.1786528,0.11979863,0.05713494,-0.49820492,-0.27959204,0.37080878,0.23652764,0.2609542,0.15356347,-0.1267603,-0.45109046,0.17850757,-0.42531854,-0.21258533,0.22250594,-0.2390526,0.22492793,-0.17799844,0.32973644,0.042263992,0.104839146,-0.16029361,-0.14788342,0.19360825,-0.08831598,0.12312201,0.12844634,-0.39075464,0.6178388,-0.50890076,0.5279273,-0.10160719,-0.8734419,0.26430804,0.455909,0.040695302,-0.3089147,0.51138544,-0.4163134,0.13177489,0.016507389,-0.33344132,-0.1795147,0.2969129,-0.43672508,-0.3000294,0.5652909,0.38650876,0.0469523,0.19000405,-0.0035435297,-0.07141537,0.034430265,-0.06285684,-0.117444456,-0.63819337,0.042721815,-0.059105404,-0.38826644,0.10045972,-0.37510586,0.029885039,-0.43658933,-0.28609508,-0.15679483,0.19165406,0.27674675,0.10658768,-0.10696699,-0.04345274,-0.89722276,0.2147759,0.36806166,0.14602634,0.19467178,0.056163874,-0.22870153,0.017865777,0.45147485,-0.36597416,-0.044786867,0.21336249,-0.0032577664,0.012072248,-0.2889797,0.17398506,0.27093846,-0.18557653,0.019990465,-0.032934815,-0.17087467,0.21035108,-0.005182281,-0.22201578,-0.1694222,-0.29992563,0.26810217,-0.50529605,-0.12433905,0.52006114,0.09995882,0.010533884,0.31244308,0.14394417,-0.028147401,-0.38576615,-0.4099024,0.3362864,0.020263653,0.06423979,0.08148882,-0.096272424,-0.5104694,-3.4579215,-0.14799228,-0.059475332,-0.32120347,0.41383642,-0.116202235,0.18205254,0.054405127,-0.35320687,0.22170094,-0.01823375,-0.055956155,0.075199224,0.4289502,0.24604706,0.018105567,0.0012249071,-0.2855354,0.055232603,0.25961155,-0.20706868,-0.91354626,0.11944978,-0.021985548,0.21525851,0.33458346,-0.5377384,0.008849388,-0.30819005,-0.22357331,0.18379115,-0.043895084,-0.2283895,0.3325699,0.12329169,-0.1714865,-0.06753068,-0.3227827,-0.22081293,-0.5739578,0.16145408,-0.8529471,-0.29953122,0.029458977,0.59840894,-0.022811443,0.33051854,0.019406307,0.20675266,0.17348747,0.33993876,-0.057469852,-0.16931862,-0.03323717,-0.11282484,-0.019424437,0.5363837,0.2513676,-0.4898891,-0.0864689,0.11599875,-0.29040694,-0.35829818,-0.07993284,-0.20826238,-0.10809759,-0.60447705,-0.30430478,-0.2533208,-0.04047314,-0.12442933,0.8637195,-0.32666802,-0.31055605,-0.25242138,-0.46715987,0.30981773,-0.097948834,-0.06811774,-0.18496361,-0.27741012,-0.2538617,0.22868301,0.009295955,-0.092795044,0.10550971,0.097729266,-0.026157064,-0.5113199,-0.48763347,0.21690448,0.007999817,0.33360144,0.13482419,0.3392195,-0.003204044,0.40042335,-0.026259433,0.08355694,-0.33321452,0.09035582,0.09587782,0.637277,-0.35703248,-0.03002934,-0.12013853,-0.4260705,-0.17456445,0.23573557,-0.1429609,0.07462079,-0.23589504,0.36440408,-0.35906023,-0.22009069,0.05781439,0.2734875,0.80561775,-0.040475383,-0.23027626,-0.090118915,0.19754493,-0.13390478,-0.20136423,-0.061710306,-0.03652912,-0.3199554,0.22138508,0.21230611,0.0716434,-0.21283081,-0.116206825,-0.17822677,0.2642092,0.34298593,-0.042633057,-0.06744815,-0.43228465,-0.11013441,0.24717405,0.032003805,0.23963384,0.124980874,-0.09906853,0.03271358,0.19314168,-0.10920316,0.37743378,-0.25785908,0.18327633,-0.61801195,-0.3713392,-0.19768852,-0.2999951,-0.05081343,0.39744794,0.13002233,-0.15376768,0.0046396293,-0.55347717,0.10401043,0.031382352,0.24795541,-0.1076163,-0.30081916,0.5518626,-0.057896152,-0.061071713,-0.110760204,-0.008641211,-0.2255407,-0.30247083,0.2379105,-0.28790098,0.028711695,0.4968633,0.28784263,-0.15115216,-0.033919595,0.44623876,-0.06004775,-0.37846166,-0.17626172,-0.10190794,0.3511348,0.030327957,0.20424017,-0.41445097,0.0055550355,0.068225786,-0.04112316,0.15530314,-0.12222718,0.045144655,-0.029034995,-0.057940517,0.5420934,0.1655068,0.12975891,0.18520653,0.114546165,-0.37970245,-0.37276968,-0.05912225,0.054213982,-0.16711527,-0.06271459,0.32386994,-0.0046156757,0.024490055,-0.33900163,0.039222315,-0.48176825,-0.02709095,0.16221412,-0.541858,-0.17642939,-0.14309223,-0.43573433,0.21102923,0.1725179,0.028427597,0.12465658,-0.10443458,-0.08508934,-0.31771973,0.22747718,-0.07303962,-0.28148764,-0.14448747,0.078050286,-0.9942496,0.08180529,0.051904127,-0.13016593,-0.05046293,-0.08214339,-0.7702067,0.34296465,-0.39274633,-0.262358,-0.17163065,-0.358312,-0.3067788,0.16303898,0.10377473,-0.16111806,0.2818048,0.06701945,0.7441939,0.07013797,0.031357575,0.15446647,-0.13451715,0.080100745,-0.32474774,-0.41203344,-0.060947023,-0.31084472,0.03837917,-0.21828234,-0.11037004,-0.08571094,0.124188244,0.47343972,0.2264833,-0.026321897,-0.012641642,0.05330868,-0.5456737,0.20312059,-0.44916666,0.019150112,-0.27793056,0.10399304,0.04232742,0.17185959,-0.44615477,0.66246176,-0.27434486,-0.4502159,-0.15357366,-0.04872156,0.2630263,0.3765692,-0.5015995,-0.23827803,0.25170907,-0.16468808,-0.041295063,0.5387856,-0.0070778187,-0.2801986,0.06989457,-0.6318325,0.22390364,0.5514261,0.35351396,-0.07399163,0.34252995,0.12485516,0.10318092,0.4045916,-0.06088844,-0.30046478,0.36938047,-0.02271715,-0.6094121,-0.10878448,-0.097365364,0.06892008,-0.53306746,0.72916436,0.21860561,-0.546363,-0.39220458,-0.3837631,-0.13349098,0.37167645,-0.032637477,0.110490784,0.11343293,0.5874459,-0.004428137,0.2364855,0.47531027,-0.040404074,-0.07732147,-0.029626992,0.26835525,0.22069609,0.32350272,-0.24082966,0.03604567,0.0629985,0.12773582,-0.21011944,-0.15870559,0.023117583,-0.0055009313,-0.02088138,0.0037385803,0.6245147,0.4884879,0.21617185,0.34151843,0.28304678,0.064146295,0.71660113,0.49077302,0.12237844,0.019456586,0.1601756,0.11123478,0.12502252,-0.039770525,0.22677398,0.42762408,-0.12544215,0.3812973,0.043463368,0.16379896,0.29481173,-0.5936034,-0.3137129,-0.16232744,0.59386754,-0.4260481,0.047126785,0.18391699,-0.04044142,0.29009217,-0.4841135,-0.122136205,0.050151873,-0.11391643,0.2381675,-0.25134575,-0.05338331,0.18752035,-0.053260423,-0.33391088,-0.28174883,-0.42860603,-0.32114464,0.10446785,0.0167331,0.04762614,0.17944726,-0.23235749,-0.10179502,0.007034382,0.29188332,-0.1977303,-0.12433334,0.13922068,0.3051905,0.043754026,0.6991005,-0.21325162,0.16821656,-0.33823296,-0.14224266,-0.036514603,0.2641758,0.13780713,0.10338082,0.46494943,-0.46759412,-0.19731204,-0.16970462,0.33584827,-0.33211207,0.006217858,0.106212854,0.00489264,0.23470917,0.24001935,-0.27069253,-0.23689008,-0.0012914762,-0.2898255,0.12323099,0.1909193,-0.41946197,-0.18155894,0.26788333,0.25959212,0.04274194,-0.10413179,-0.32620943,-0.08242213,-0.103100695,0.085904405,0.0297585,-0.2259334,-0.48375747,0.32241368,-0.11298252,0.2710456,0.11810116,0.11234045,-0.12322122,0.1579288,0.4025703,0.035063498,-0.2147922,-0.45591423,-0.20738295,-0.29805887,0.0023102416,-0.14598435,0.113060795,-0.31271297,0.009442022,-0.32711893,-0.33732325,-0.10932674,-0.03512816,0.0011601523
13837784.pdf,-0.07413563,0.31136814,0.5942643,0.014581869,0.4851098,0.11655471,0.14594528,0.23407122,-0.031378318,-0.15703443,0.018888157,-0.19981195,0.11894117,0.1127554,0.31332684,0.4127323,0.02352361,0.06203235,-0.10016542,0.29084906,0.20484005,-0.29544353,0.31177592,0.39346838,0.3628174,0.072408356,-0.083249986,-0.19342104,-0.27792817,-0.048378542,0.49660054,0.00048538018,-0.0106715355,-0.19711462,0.16680048,-0.115608454,-0.2362636,-0.08289968,-0.12872021,0.23538041,-0.53481925,-0.3489703,-0.081319325,-0.011894049,-0.26080948,-0.31126183,0.02584358,0.12243428,0.011594713,0.06704262,-0.5023979,0.37403747,-0.010768559,-0.33602023,0.13127714,0.7574067,0.14425044,-0.5253494,-0.42381406,-0.28724384,-0.015052574,-0.065283224,0.1877836,0.076338366,0.08317986,-0.2271578,0.0920184,0.43263087,-0.6684262,-0.18453103,-0.2298454,0.09702046,0.06877524,0.0020535067,-0.24321765,-0.071892306,0.011080586,0.46442077,0.22636062,-0.05865552,-0.20555721,0.26902744,-0.11785308,0.34590486,0.04716097,0.1616412,0.20102645,0.049720965,-0.32159197,0.4150586,0.21937576,-0.3873192,0.50131935,0.13183478,0.2075357,0.08527742,0.029588845,0.067221776,-0.22248818,-0.08488824,0.23964871,-0.030687671,0.13048722,0.016863698,-0.0316263,0.012022606,-0.117568664,0.09932246,-0.20304012,0.43454084,0.0837879,-0.0871322,-0.28055233,-0.47609133,0.05963215,-0.0153080225,0.013269553,0.26105496,0.18231131,0.03905542,0.03938379,-0.06498698,0.18948856,0.7365829,0.137606,-0.005743989,-0.03438376,0.123025894,-0.23196223,-0.050927076,-0.006686866,0.058054604,-0.0061809644,0.0809374,-0.22462468,0.2151367,-0.05310438,-0.39936203,0.036472097,0.17627601,-0.035136543,-0.42709154,0.2816137,0.03445207,0.20370573,-0.23723602,0.03421027,-0.13245502,-0.17925258,0.18393975,0.16539818,0.0088531505,0.022478234,-0.22317427,-0.03898364,0.042090084,-0.1502474,-0.019087438,-0.025634311,-0.10969222,0.3516177,0.47508943,-0.3663244,0.51278263,-0.17295037,0.015165305,-0.23602608,0.31610757,-0.42296368,-0.21354774,0.06640143,0.12523654,0.4774959,0.13141951,0.2305103,0.18609422,0.16853261,-0.06348846,0.02436518,0.20287779,-0.324023,0.18283615,-0.050628018,-0.10676485,0.37037256,-0.22957253,0.43414995,-0.17868535,0.103388675,-0.20081584,-0.4837097,-0.39579505,-0.07003436,0.031857446,0.3505802,-0.25593507,0.060288817,0.071380265,-0.1627217,-0.28377002,0.1617108,0.26759025,0.056905456,0.001114808,-0.3329937,-0.5083764,0.121800214,-0.43786207,-0.1720069,0.02319108,-0.4061553,-0.023253284,-0.10921517,0.25436753,-0.029983718,0.05715671,-0.27596605,-0.1574444,0.062543616,0.0007418506,0.17375645,0.09616383,-0.43045956,0.503543,-0.4370745,0.5655234,0.1508699,-0.9132138,0.14513901,0.11526032,-0.01628046,-0.12997124,0.41396695,-0.40252143,0.05653077,0.15172334,-0.15181679,-0.17561987,0.20236775,-0.45744115,-0.19702922,0.592823,0.30959484,0.026746986,0.13813859,0.15949777,-0.05514445,-0.13337307,-0.23980978,-0.2370938,-0.5255092,0.17525122,-0.056240473,-0.39100248,0.062357053,-0.30486578,-0.024467872,-0.29641643,-0.03486589,-0.022272542,0.32733005,0.27005047,0.1838361,0.07202286,-0.08306363,-0.641388,0.016203858,0.19124065,0.05821365,0.2932188,0.114583716,-0.1373409,-0.10373463,0.6470652,-0.050436243,-0.089017235,0.25593206,-0.1336901,0.06844454,-0.364014,0.04512476,0.31915975,-0.065606244,-0.08556886,-0.08596465,-0.09422737,0.20681204,0.16848269,-0.21241295,-0.2237351,0.025886334,0.31633508,-0.292653,-0.04961679,0.46875662,-0.013097474,0.08328615,0.24672198,0.12641844,0.038766798,-0.15152903,-0.13917515,0.048511807,-0.04847408,0.33715934,0.045730375,0.05183357,-0.54671454,-3.6411412,-0.26146907,0.05755215,-0.35511002,0.26276582,-0.33138955,0.089601636,0.018206315,-0.49341136,0.24015328,-0.100429505,-0.11936545,0.049722757,0.04669199,0.092553586,0.19377941,0.06322769,-0.16312857,0.052814875,0.44368488,-0.37221217,-0.70609814,0.20252986,0.14526233,0.38634923,0.30999458,-0.4161021,-0.11122908,-0.20819241,-0.10457319,0.20449002,-0.10181271,-0.3196321,0.5470183,-0.04719271,-0.19513154,0.14078298,-0.42219144,-0.21920313,-0.51582307,0.19258192,-0.6066936,-0.19481903,0.0105405655,0.6667687,-0.16745195,0.20260747,0.04042252,0.026421417,0.12375653,0.2551278,-0.22198826,-0.35748875,-0.21246983,0.038657285,-0.15829192,0.34465206,0.21375997,-0.24905536,-0.04651904,0.1962875,-0.27942884,-0.37883937,-0.2187605,-0.18491709,-0.20292306,-0.6217724,-0.32756758,-0.09603326,-0.10866706,-0.19926353,0.6460698,-0.24871252,-0.07971701,-0.15704075,-0.42016697,0.4083923,-0.1096866,-0.155553,-0.15967439,-0.19453539,-0.22905532,0.22302142,-0.070539005,-0.44355002,-0.14378127,0.09716976,-0.037725534,-0.34694535,-0.3962844,0.31367078,0.020672664,0.10320105,0.000818599,0.53925616,-0.08252671,0.48363015,-0.016676506,-0.008739595,-0.42441455,0.05889764,0.19141248,0.4832,-0.3763743,-0.095753625,-0.052929077,-0.27206624,-0.13071772,0.17352715,-0.086394936,-0.05519359,-0.030589232,-0.15505111,-0.17728932,-0.11518375,-0.13619007,0.11510162,0.6482244,-0.0543793,-0.1796581,-0.22901341,0.18149641,-0.19009575,-0.2149311,-0.19298086,-0.026491346,-0.12169651,0.25101122,-0.026173038,-0.07571252,-0.13484843,-0.3011494,-0.19547006,0.12767777,0.4540617,0.076675184,0.00528528,-0.5581578,-0.11106376,0.23967732,0.049427636,0.30753863,0.22182971,-0.045264766,0.2241128,0.16430172,-0.34192854,0.42255208,-0.33125418,0.1941852,-0.85409987,-0.33138502,-0.17347676,-0.2874989,0.050165273,0.28443956,0.083675094,-0.14889608,0.053154033,-0.54257,0.19930436,-0.29086828,0.19513965,0.058527056,-0.15752637,0.55203897,0.010085313,0.01884767,-0.0110521475,-0.1612702,-0.15781568,-0.22324611,-0.02638457,-0.41540563,-0.25461522,0.5197806,0.29013497,-0.2022978,0.041848667,0.3725473,-0.10639761,-0.18227826,-0.14075068,-0.1482772,0.26780587,0.24453202,0.16174439,-0.2999672,0.045797974,0.22839984,-0.033298314,0.44849586,0.0019493038,-0.0050671054,-0.0015853457,-0.2291811,0.58956456,0.17324725,-0.053405695,0.16528267,0.03133965,-0.2244071,-0.431003,0.16680278,0.16094145,-0.16494149,-0.04698793,0.25052625,-0.054754827,-0.16430828,-0.21235293,0.002728507,-0.4888715,-0.009075455,0.15715197,-0.52738845,-0.2111772,-0.102620214,-0.3024733,0.08731823,0.036692716,-0.13333325,-0.09251404,-0.0283245,-0.14009276,-0.045326978,0.1947309,0.07554576,-0.26980695,-0.38270795,0.27776933,-0.6601838,0.0754368,0.08984457,0.12269181,0.08701481,-0.17527628,-0.7887274,0.34287518,-0.17541587,-0.32396555,-0.11881803,-0.3921219,-0.31371838,0.14762288,0.16712785,-0.13017346,0.27145714,-0.16784033,0.4583684,0.0018451512,0.120618016,0.22020671,-0.10278609,0.063815705,-0.3332949,-0.28175575,0.041988365,-0.37939963,-0.07774024,-0.16311869,0.25308543,-0.040011615,0.034482308,0.42465258,0.366565,-0.043699153,-0.19711278,0.036764376,-0.4078926,0.23722067,-0.22565506,-0.14794065,-0.061059814,0.029323729,0.23618402,-0.079531714,-0.36128443,0.35290068,-0.11508712,-0.30892077,-0.29124004,-0.123334326,0.15010446,0.4764378,-0.4069782,-0.09817707,0.16345964,-0.029993067,0.0318215,0.48618484,0.08421061,-0.16552117,0.056296412,-0.7171604,0.07363574,0.66333014,0.10333392,-0.16865838,0.33505136,0.25907803,-0.06932614,0.39286095,0.012951009,-0.12686816,0.355671,-0.025435537,-0.6016128,-0.11269492,-0.24956635,-0.11007085,-0.4871875,0.66280794,0.045865107,-0.49687004,-0.3060006,-0.104737036,-0.07987113,0.3220629,0.05476046,-0.04239595,0.077426426,0.5770563,-0.09340548,0.3807673,0.47966462,-0.079513,-0.067592025,-0.019729946,0.1612024,0.0770463,0.431918,-0.38238096,0.2634533,0.11849445,0.029936694,-0.14162159,0.06825945,-0.097978316,-0.12016838,-0.037834197,0.11115227,0.40678477,0.4286482,0.29117376,0.1197473,0.31821603,-0.10507783,0.59340394,0.47261417,0.15935287,0.01308431,-0.020740677,0.115254454,0.19519833,-0.27222556,0.2433568,0.31628352,-0.09426814,0.5936985,0.1138167,0.26273066,0.44005924,-0.5133455,-0.37124324,-0.011605967,0.6249056,-0.40038186,0.060774535,0.3021454,0.10842822,0.28991562,-0.33393323,-0.16007866,-0.0064160554,-0.025630249,0.13505465,-0.1582897,-0.11391913,0.20785068,-0.08687715,-0.23616326,-0.17580609,-0.12338514,-0.18025649,0.14738,-0.27205247,0.056187764,0.07376947,-0.36678457,0.074971706,-0.14299391,0.35327038,-0.008555707,-0.23608714,-0.070119284,0.2197747,0.23301657,0.5540085,-0.0076609263,0.14788102,-0.30948743,-0.23974064,0.1441825,0.27552858,0.13346651,0.022448301,0.31941628,-0.46076998,-0.12898132,-0.24117811,0.14683829,-0.33368728,-0.03784212,-0.014716044,0.1484485,0.13625903,0.22065847,-0.24840216,-0.13638732,-0.076846555,-0.27627528,0.11769441,0.17033628,-0.27710363,-0.021268394,0.14593568,0.08073887,-0.00060803443,-0.16380426,-0.35380918,-0.014022451,0.057332575,0.40712848,-0.18310739,-0.056118168,-0.35122532,0.37213784,-0.051117692,0.14910886,0.123932645,0.31745782,-0.031981185,0.086784944,0.24185106,0.09177822,-0.19174838,-0.2926369,-0.33244956,-0.33443803,-0.16995028,-0.28787965,0.1311372,-0.1619487,0.08006482,-0.37101698,-0.2543744,-0.2692604,0.02614725,-0.22906652
