,0,1,2,3,4,5,6,7,8,9,10,11,12,13,14,15,16,17,18,19,20,21,22,23,24,25,26,27,28,29,30,31,32,33,34,35,36,37,38,39,40,41,42,43,44,45,46,47,48,49,50,51,52,53,54,55,56,57,58,59,60,61,62,63,64,65,66,67,68,69,70,71,72,73,74,75,76,77,78,79,80,81,82,83,84,85,86,87,88,89,90,91,92,93,94,95,96,97,98,99,100,101,102,103,104,105,106,107,108,109,110,111,112,113,114,115,116,117,118,119,120,121,122,123,124,125,126,127,128,129,130,131,132,133,134,135,136,137,138,139,140,141,142,143,144,145,146,147,148,149,150,151,152,153,154,155,156,157,158,159,160,161,162,163,164,165,166,167,168,169,170,171,172,173,174,175,176,177,178,179,180,181,182,183,184,185,186,187,188,189,190,191,192,193,194,195,196,197,198,199,200,201,202,203,204,205,206,207,208,209,210,211,212,213,214,215,216,217,218,219,220,221,222,223,224,225,226,227,228,229,230,231,232,233,234,235,236,237,238,239,240,241,242,243,244,245,246,247,248,249,250,251,252,253,254,255,256,257,258,259,260,261,262,263,264,265,266,267,268,269,270,271,272,273,274,275,276,277,278,279,280,281,282,283,284,285,286,287,288,289,290,291,292,293,294,295,296,297,298,299,300,301,302,303,304,305,306,307,308,309,310,311,312,313,314,315,316,317,318,319,320,321,322,323,324,325,326,327,328,329,330,331,332,333,334,335,336,337,338,339,340,341,342,343,344,345,346,347,348,349,350,351,352,353,354,355,356,357,358,359,360,361,362,363,364,365,366,367,368,369,370,371,372,373,374,375,376,377,378,379,380,381,382,383,384,385,386,387,388,389,390,391,392,393,394,395,396,397,398,399,400,401,402,403,404,405,406,407,408,409,410,411,412,413,414,415,416,417,418,419,420,421,422,423,424,425,426,427,428,429,430,431,432,433,434,435,436,437,438,439,440,441,442,443,444,445,446,447,448,449,450,451,452,453,454,455,456,457,458,459,460,461,462,463,464,465,466,467,468,469,470,471,472,473,474,475,476,477,478,479,480,481,482,483,484,485,486,487,488,489,490,491,492,493,494,495,496,497,498,499,500,501,502,503,504,505,506,507,508,509,510,511,512,513,514,515,516,517,518,519,520,521,522,523,524,525,526,527,528,529,530,531,532,533,534,535,536,537,538,539,540,541,542,543,544,545,546,547,548,549,550,551,552,553,554,555,556,557,558,559,560,561,562,563,564,565,566,567,568,569,570,571,572,573,574,575,576,577,578,579,580,581,582,583,584,585,586,587,588,589,590,591,592,593,594,595,596,597,598,599,600,601,602,603,604,605,606,607,608,609,610,611,612,613,614,615,616,617,618,619,620,621,622,623,624,625,626,627,628,629,630,631,632,633,634,635,636,637,638,639,640,641,642,643,644,645,646,647,648,649,650,651,652,653,654,655,656,657,658,659,660,661,662,663,664,665,666,667,668,669,670,671,672,673,674,675,676,677,678,679,680,681,682,683,684,685,686,687,688,689,690,691,692,693,694,695,696,697,698,699,700,701,702,703,704,705,706,707,708,709,710,711,712,713,714,715,716,717,718,719,720,721,722,723,724,725,726,727,728,729,730,731,732,733,734,735,736,737,738,739,740,741,742,743,744,745,746,747,748,749,750,751,752,753,754,755,756,757,758,759,760,761,762,763,764,765,766,767
10030015.pdf,-0.113142416,0.4239973,0.23071927,0.060255084,0.6111766,-0.07976341,0.16600934,0.053604715,-0.011055017,-0.34131232,-0.11824576,-0.17338529,0.016393453,0.07594796,0.02089009,0.51938665,0.33172882,-0.1203309,-0.03465966,0.4931835,0.045673966,-0.25105387,0.1759375,0.55235493,0.17503572,0.05681389,-0.013032947,0.05413232,-0.3007366,-0.064716995,0.25330448,-0.0145734735,-0.026333502,-0.3283373,0.12615888,0.049337137,-0.110737845,0.056079935,-0.018772552,0.13214487,-0.49081817,-0.36107308,0.0021603461,-0.171229,-0.14232251,-0.15322751,0.2825396,-0.12871209,0.009669572,0.07021561,-0.36020076,0.38581997,-0.3080537,-0.26762056,0.35971615,0.5562314,-0.17404805,-0.55518365,-0.3350998,-0.4177656,0.034659605,0.014338624,0.16747682,-0.09568423,0.22901838,-0.049592867,0.058734477,0.16108498,-0.56223005,-0.19904783,-0.22699314,0.19531342,-0.10477663,-0.11880979,-0.07616228,-0.1363316,-0.032179523,0.25939584,-0.029086024,0.08638924,0.0014395891,0.30675417,-0.06926878,0.22764528,0.09261298,0.24391085,0.15695024,0.20117037,-0.29588485,0.4763385,0.16155884,-0.23080513,0.118269615,0.2288666,0.108964145,0.03669542,0.09582857,0.19294961,-0.2693728,0.008999043,0.17791788,0.016596898,0.27317125,0.14150065,0.018755093,-0.07118772,-0.08952457,0.16142754,-0.5763687,0.45887685,0.12942196,-0.30029488,-0.14256994,-0.5075666,-0.083080485,-0.05049093,0.19638108,0.007598158,0.24222639,0.23839507,0.32337368,-0.07194855,-0.049460545,0.89595133,-0.043891996,0.021026589,0.033659335,0.22418112,-0.13143267,-0.07952799,-0.053482227,0.23242253,-0.08753672,0.12089631,-0.3402865,0.31550497,-0.16892126,-0.25951025,-0.1844259,0.33377993,-0.25767332,-0.59153336,0.47821754,-0.20152465,-0.046143025,-0.20879641,-0.1749884,0.32077748,-0.19578575,0.42767847,0.24989635,-0.039259024,-0.18798772,-0.20454535,-0.18966755,0.009503569,-0.14896178,0.17917055,-0.17211461,-0.13242842,0.22058852,0.2495541,-0.43722403,0.3650169,0.021245189,0.030677773,-0.1618897,0.29983884,-0.27521172,0.09419294,0.083014585,-0.07157822,0.500373,0.065154396,-0.06346054,-0.037855536,0.27083886,-0.06661046,0.20553872,0.14428338,-0.47364974,0.28603783,-0.121077016,0.010305129,0.20477529,-0.15729234,0.30293658,-0.48942235,-0.099951684,-0.3296519,-0.29058814,-0.47347325,0.06281114,-0.048189916,0.2723594,-0.051170457,-0.029456928,0.046727728,-0.4485424,-0.15321206,0.4187923,0.20046575,0.18247002,0.09916331,-0.07517619,-0.34778538,0.22598043,-0.3065158,-0.01777067,0.06387436,-0.21619633,0.0050409324,-0.22680394,0.26228032,-0.021217927,0.10938338,-0.37038332,-0.11210072,0.28163671,-0.17000706,0.11276289,0.034391455,-0.5377419,0.3178789,-0.3532312,0.38218528,-0.07123564,-0.78547084,0.20212168,0.32703596,0.040858906,-0.3398766,0.39769483,-0.46159175,-0.050493043,-0.027779993,-0.21908785,-0.03772921,0.28891796,-0.25316164,-0.30361632,0.58299434,0.12891275,0.094868764,0.22221002,-0.08160945,0.20548528,-0.051575318,-0.0621562,-0.13946192,-0.47529936,0.070445895,0.09418809,-0.3260244,0.026626583,-0.24532439,-0.108516335,-0.2688084,-0.19860607,-0.21700352,0.19579053,0.14628941,0.31127408,-0.08380165,-0.079493225,-0.67763865,0.112290904,0.13027224,0.13736668,0.25564146,0.20520368,-0.07559414,0.12024203,0.42828146,-0.40122324,-0.04591613,0.090543225,-0.011551838,-0.08438254,-0.26768684,0.18708542,0.45468855,-0.20528471,0.10911544,0.12239693,-0.078364626,0.33972389,-0.100902714,-0.17467205,-0.4388708,-0.18771842,0.029605847,-0.54457307,-0.1380348,0.21875888,0.04152479,0.047513,0.14854199,0.40476936,-0.10789451,-0.35142052,-0.22376114,0.052144147,0.0346557,0.13159393,-0.046202626,-0.043394074,-0.4996239,-3.4695022,0.007079445,0.034123488,-0.31133288,0.49575493,-0.03589891,-0.048430715,0.01788149,-0.45031863,0.039572414,-0.036397867,-0.092639446,0.15173954,0.2350013,0.19914219,-0.13690312,0.15811376,-0.4485981,0.08865335,0.520131,-0.05410534,-0.690732,0.17658728,-0.11268309,0.36410618,0.22997428,-0.58317786,0.058081128,-0.33517882,-0.026242286,0.07838985,-0.12157273,-0.27549508,0.3759655,0.18166621,-0.11227927,-0.047035888,-0.3414044,-0.04911686,-0.3398138,0.22512424,-0.64980376,-0.21986395,0.05793641,0.46150014,-0.17973654,0.30372977,0.09289525,0.27015296,0.26349849,0.36865866,0.050158933,0.0031378432,-0.12920773,0.0126921125,-0.005228066,0.53162694,0.29432872,-0.3384971,-0.13551717,-0.12739617,-0.4082603,-0.3904057,-0.033403214,-0.21697757,-0.13715315,-0.59151924,-0.1910527,-0.1156929,-0.12635098,-0.07771553,0.70466304,-0.45551038,-0.1761848,-0.0025166683,-0.3533774,0.27669066,-0.36721754,-0.054445975,-0.20028897,-0.12064125,-0.4627053,0.35810602,-0.073445365,-0.16564378,-0.019148778,0.03943396,-0.02177756,-0.30399805,-0.4975146,0.40316498,0.08539708,0.35729235,-0.16002725,0.41465363,-0.013976684,0.45524758,0.012487054,0.23289281,-0.42549837,-0.12702125,0.010141093,0.5374396,-0.27982503,-0.18346086,-0.152408,-0.14430346,-0.050258473,0.15568277,0.045661338,0.20453411,-0.20653902,0.3076799,-0.3472005,-0.094843455,-0.09075945,0.12707072,0.6857812,-0.07801969,-0.27459663,-0.15558994,0.21815974,-0.22006616,-0.20050201,-0.028322004,-0.056393333,-0.2543031,0.4302805,0.029308323,-0.14620101,-0.13809659,0.08130577,-0.22420484,0.35236132,0.20991716,0.13372618,-0.041511558,-0.45061576,-0.18415931,0.27794337,-0.02703619,0.14964321,0.15512854,-0.31154117,0.08832116,0.36051643,-0.04711117,0.34505922,-0.12402786,0.096313804,-0.4497386,-0.28063872,-0.24550255,-0.22643569,-0.09071237,0.49937248,0.13212328,-0.093498915,0.26000422,-0.5233379,0.27303872,0.09528535,0.089016765,-0.2142534,-0.18446764,0.6670667,0.03698044,-0.13791831,0.023825038,-0.122662365,-0.19778709,-0.38872766,0.15506054,-0.47234392,-0.0070973346,0.37871957,0.19732232,-0.33996236,-0.008634949,0.3000421,-0.09147161,-0.21372902,-0.2988178,0.020773955,0.022812393,-0.047770254,0.12933189,-0.5407623,0.021337567,-0.0855871,0.0013753381,0.098181464,0.14341709,0.050442345,-0.33003125,-0.027261479,0.3739584,0.23347923,-0.09925054,0.12755793,0.14797279,-0.37020445,-0.4239738,0.1297814,0.17814378,-0.029918507,0.013216078,0.16805118,0.14626451,0.0005005989,-0.22762978,-0.025382206,-0.21252643,0.17946802,-0.09811172,-0.63967574,-0.17678371,0.07086399,-0.23764268,0.042457115,-0.09507447,0.12855011,0.17251204,-0.068507254,-0.24052614,-0.17483538,0.17564544,0.06765518,-0.07719145,-0.07833223,-0.08997388,-0.7002032,-0.037795674,-0.09803435,0.06022397,0.06787996,-0.04178542,-0.84406877,0.2652821,-0.3013362,-0.015319919,-0.030926835,-0.261598,-0.0822781,0.055609263,-0.0999898,-0.075926505,0.17318815,-0.051045556,0.5503355,-0.08147428,0.14685282,-0.1074318,-0.12487556,0.16944456,-0.44880342,-0.26165125,0.03027509,-0.11024504,-0.03874389,-0.24375966,-0.0049490817,-0.23297516,0.08388982,0.16722015,0.113716334,-0.25150728,0.002277188,0.15403283,-0.5424514,0.2504077,-0.17997542,0.12638167,-0.16494061,0.047323495,-0.008769473,0.20119035,-0.36041594,0.6156616,-0.23093387,-0.37863892,-0.17688498,-0.005372567,0.10475804,0.39469254,-0.3519736,-0.024953086,0.11149908,-0.27793175,0.0754054,0.45101923,-0.13142383,-0.19042775,-0.15952101,-0.5413006,0.21770723,0.58527553,0.4228155,0.13697527,0.3153879,-0.0073104054,0.11972259,0.3437693,-0.1164221,-0.14935006,0.11908916,0.10918845,-0.4483083,-0.22355402,0.042435296,-0.19233704,-0.36992955,0.4417603,0.19440149,-0.36771867,-0.42130512,-0.034777213,-0.19747864,0.29280365,-0.020888966,0.089328244,-0.02402239,0.58521044,0.068024874,0.145508,0.5574987,-0.14722109,-0.26971024,0.049294695,0.12494532,0.07189821,0.16726917,-0.09032825,0.24640393,-0.15694201,0.18892592,-0.15438579,-0.06719597,-0.055224128,0.082143374,-0.23369724,0.11329201,0.6251017,0.43913287,0.28878474,0.14907534,0.14750606,-0.03350069,0.66213185,0.46476227,-0.0327319,-0.055647098,0.096340835,0.1046299,0.103355706,0.034368027,0.26936895,0.24287495,-0.053862702,0.5790449,0.08262344,0.38558698,0.6572628,-0.45496845,-0.30836713,-0.18670356,0.5525191,-0.54529274,0.10121604,0.21139945,0.05392257,0.22638856,-0.32873103,-0.12192477,-0.0729197,0.28894287,0.092667975,-0.078166336,-0.004951868,0.061951257,-0.108327195,-0.18081318,-0.34629905,-0.32607123,-0.28316075,0.21098793,-0.15375337,-0.04527628,0.14258344,-0.15860674,0.022975083,-0.1185149,0.19840375,-0.21957652,-0.20945711,-0.019353375,0.35539615,0.0052608103,0.61502934,0.004460208,0.099864915,-0.121583715,-0.19626626,-0.0870657,0.022576397,0.063971296,0.112045415,0.58943486,-0.25187254,-0.042927086,-0.23186567,0.17110315,-0.20581624,-0.056834377,-0.13741831,-0.06787204,0.0060798805,-0.002035834,-0.10615569,-0.17843914,-0.16349036,-0.42950404,0.13703814,0.23215657,-0.36151075,0.011046931,0.22853452,0.14026488,-0.2455939,0.054663148,-0.16625333,0.06007017,-0.089031555,0.23009959,-0.060305927,-0.2562708,-0.2568409,0.29987827,-0.19274822,0.09874797,0.36662793,0.2521593,-0.05671671,-0.09384578,0.56273115,-0.15974887,-0.26215887,-0.29823458,0.047046646,-0.012441253,-0.0042826086,-0.14693673,0.120043404,-0.3068246,0.021530744,-0.3802087,-0.05672259,-0.013454535,-0.098845236,-0.08195414
10219099.pdf,-0.22564499,0.41652852,0.38521826,0.023239395,0.74234086,-0.0771419,0.2255877,0.12198144,-0.069264576,-0.42683116,-0.14280616,-0.16329852,-0.01856602,0.10238437,0.024867356,0.58745086,0.38647163,-0.021714086,-0.17356655,0.3891638,0.04464224,-0.22914158,0.25879985,0.58814585,0.24063873,0.036477055,-0.08363584,0.059922647,-0.29048502,-0.15665391,0.39436662,-0.1417736,0.03946894,-0.39516526,0.015353147,-0.06074825,-0.113109395,0.06498464,-0.060955726,0.08325789,-0.31988928,-0.12243196,-0.026648033,-0.17592987,-0.17776248,-0.16618761,0.114348456,-0.19097793,0.12427138,-0.027255956,-0.31135476,0.46109295,-0.21425566,-0.14942628,0.27122036,0.6391516,-0.08706,-0.50467145,-0.371426,-0.40651828,0.06442196,-0.14371516,0.24666846,-0.10696043,0.31348544,-0.005489393,0.11457564,0.24206717,-0.5583268,0.040282626,-0.262378,0.06448574,-0.06038028,-0.12192732,-0.28054968,-0.23570183,-0.06288675,0.27238572,-0.093660325,0.19446152,-0.19305192,0.29929963,-0.16786692,0.23054484,0.20656617,0.15507281,0.2400071,0.19259456,-0.33007583,0.63709533,0.26918253,-0.19757843,0.19818372,0.092580125,0.111559644,-0.0022164043,0.1505579,0.15891096,-0.18754873,0.0828882,0.102537535,0.0499101,0.09159548,0.05336661,0.016900502,-0.021184921,0.22861613,0.24479218,-0.4090839,0.4984283,0.12836945,-0.315603,-0.07609143,-0.37322444,0.006812103,-0.007856581,0.08223717,0.030425915,0.13021672,0.25749317,0.24912596,-0.14410222,0.08088291,0.8643419,0.028267015,0.15986195,-0.13962443,0.3181227,0.010179892,-0.1945144,0.029284928,0.18700442,-0.040637568,-0.022848757,-0.2666559,0.31998044,-0.25948822,-0.22504656,-0.27854818,0.30880088,-0.17664146,-0.58013403,0.5405555,-0.16183214,-0.0055065993,-0.28261095,0.0762984,0.10861266,-0.07276638,0.5210453,0.18755063,-0.038337864,-0.32181725,-0.32857803,-0.23712726,0.06685975,-0.2310065,0.13282429,-0.35941312,-0.19757782,0.23870037,0.2239686,-0.5590122,0.40809244,-0.047891133,-0.07429494,-0.16527304,0.39351082,-0.19762857,0.24350333,0.04215523,-0.016185898,0.5029955,0.13111278,0.025445484,-0.044208065,0.34501606,-0.17815237,0.12015227,0.015461396,-0.5315637,0.59143406,-0.1443761,-0.007527896,0.10252391,-0.22070388,0.45404541,-0.4516657,-0.05317609,-0.31915075,-0.17583121,-0.4671723,0.04962563,-0.036461618,0.23846824,-0.09579859,0.01652343,0.051034085,-0.575815,0.013127089,0.41822833,0.22977008,0.23425867,0.16941231,-0.16422749,-0.3066161,0.29847154,-0.30324167,-0.108994015,0.008211675,-0.23716763,-0.0036866344,0.05913441,0.10069055,-0.1993866,0.1033978,-0.13176066,-0.11214693,0.2214045,-0.084369294,0.19871937,0.1558542,-0.4453195,0.42188036,-0.30672765,0.3381862,0.06420771,-0.8700136,0.33021116,0.26500165,0.061114002,-0.39255202,0.42095566,-0.31839496,0.0078802705,0.035134565,-0.25472176,0.0179305,0.27307138,-0.17584942,-0.26331007,0.59908766,0.17092371,0.19897795,0.1450651,0.046933003,-0.08151097,0.11390888,-0.03431525,-0.04241194,-0.5602646,-0.02688628,-0.017801628,-0.43591622,-0.16148427,-0.5206016,-0.094758004,-0.45488638,-0.18288225,-0.10962936,0.16127226,-0.0081148995,0.05716457,-0.03234106,-0.04629543,-0.72114,0.054710258,0.21234123,0.200077,0.33388346,0.14517097,0.020397842,0.12586017,0.41191444,-0.3588761,-0.05044309,0.26800227,0.07356277,-0.14733484,-0.15331,0.10058226,0.32132575,-0.16482596,0.1035211,0.04506311,-0.051258948,0.40232652,-0.08429615,-0.35793364,-0.26621544,-0.21725462,0.025587842,-0.56784767,-0.22196206,0.4390571,0.054963287,0.041530497,0.20294002,0.24977154,-0.0379615,-0.2705155,-0.27161115,0.012373929,0.038426843,0.10667295,-0.010829114,-0.1559124,-0.7381066,-3.7771397,-0.022842376,0.022951048,-0.29646933,0.428617,-0.027388558,0.21952407,0.18976519,-0.42486906,0.15891734,-0.19962871,-0.06541031,0.25438404,0.36631048,0.18587977,-0.078909,0.053498533,-0.3595669,0.0583392,0.3695829,-0.11855384,-0.8341532,0.16383882,-0.095970914,0.3731599,0.23457363,-0.66322106,-0.011481901,-0.4629415,-0.083655134,0.033750046,-0.09227112,-0.35795617,0.2665016,0.24235493,-0.1508422,0.034839477,-0.39803243,-0.053368628,-0.47755146,0.12962706,-0.6750311,-0.21428873,0.062782034,0.56145465,0.005086506,0.18179765,-0.11156215,0.14119801,0.19552591,0.24964952,0.10401515,0.059364792,-0.18872342,-0.019060463,-0.037418634,0.7243384,0.32300153,-0.40053383,-0.1780484,-0.11519139,-0.35978177,-0.43580925,-0.10350124,-0.267627,0.044410236,-0.5587632,-0.33361337,-0.16011956,-0.25309077,-0.026072871,0.6562016,-0.300238,-0.3190772,-0.11062096,-0.4582464,0.16445556,-0.092762455,0.08723854,-0.28646046,-0.36216548,-0.44928247,0.20852268,0.08719314,-0.057033353,0.07411974,0.063262455,-0.07262191,-0.4035142,-0.43057057,0.46278858,0.15254967,0.25955018,0.018467693,0.32147187,0.026396137,0.50377226,-0.10158357,0.18792333,-0.49915987,-0.033269867,0.02075011,0.6508161,-0.20164545,-0.13652316,0.024213525,-0.25780833,-0.10602548,0.35034245,-0.029494867,0.22304136,-0.32233745,0.29772532,-0.3755089,-0.109759234,-0.05967978,0.088811636,0.73448503,-0.05262371,-0.2409161,-0.15186863,0.25578794,-0.23273677,-0.0626925,-0.16822916,0.06059703,-0.24857265,0.430478,0.15074381,-0.17458782,-0.19729239,0.036175825,-0.12449014,0.26597655,0.063223965,0.20961386,-0.08021121,-0.40542907,-0.20055386,0.23812757,0.059809722,0.33386117,0.08337323,-0.37136865,0.13980219,0.2956511,-0.1497939,0.19079646,-0.1988166,0.21676274,-0.41975945,-0.37417233,-0.27863258,-0.41284916,0.043387897,0.5052843,0.033890493,-0.09757209,0.04688078,-0.40475965,0.26534346,0.03356633,0.21515125,-0.09326065,-0.17945385,0.5706583,-0.00030393526,-0.2536263,-0.13493463,0.08259495,-0.11944251,-0.06882754,0.1832792,-0.39088482,-0.045593005,0.39119923,0.17039627,-0.16125025,0.03290933,0.23660879,-0.03970841,-0.33951783,-0.16171575,-0.005639136,0.08833774,-0.18805379,0.2743925,-0.4998631,0.07482539,0.00042666122,0.18709815,0.10733843,-0.101214364,0.14890912,-0.115980186,-0.004162414,0.46277222,0.28526983,-0.12547974,0.14428642,0.05652745,-0.27590612,-0.6186712,-0.04343285,0.09729345,-0.17508297,0.11066112,0.2481617,-0.015249683,0.012541042,-0.47979212,0.03767153,-0.3695379,0.09374653,-0.16133587,-0.6694461,-0.11121741,-0.061526317,-0.38901702,-0.01920465,0.07705638,0.15881829,0.07054951,-0.0034880564,-0.088970445,-0.31125993,0.24067403,0.06239131,-0.13947278,-0.08854208,0.012976499,-0.89328927,0.18450344,-0.07821326,-0.2517367,0.0632324,-0.081473805,-0.69459903,0.23779374,-0.3684293,-0.103526495,-0.029078245,-0.2035754,-0.20229235,0.17522289,-0.15997933,-0.24755219,0.23950365,0.0033094264,0.5638734,0.014942264,0.026386613,-0.0017312933,-0.15151763,0.04358756,-0.4902736,-0.38867098,-0.045195915,0.061245106,-0.05818192,-0.26547843,-0.11749694,-0.19987956,0.07186043,0.18713892,0.17704697,-0.32815218,-0.15493463,0.023227103,-0.46843505,0.2502598,-0.25664702,0.046011843,-0.23101579,0.32175654,-0.013549803,0.31318536,-0.2357631,0.6208662,-0.26934004,-0.3085319,0.005912792,-0.013475963,0.18942088,0.3595913,-0.44871765,-0.1286921,0.15395102,-0.27203417,0.13811174,0.29745758,-0.12801409,-0.16000752,-0.01191042,-0.45411056,0.20404585,0.75693357,0.43735635,0.15596065,0.23345096,0.05303128,0.21312082,0.33035094,-0.1349102,-0.2592431,0.29462224,0.028160233,-0.57801974,-0.24953294,-0.032771185,-0.1269387,-0.38256323,0.54405034,0.24592079,-0.33465534,-0.51348484,-0.24849942,-0.17840084,0.080069885,0.024520367,0.21955577,-0.13832691,0.6559517,0.08686121,0.2084226,0.57631004,-0.06319505,-0.22466189,0.089495674,0.15246499,0.0544136,0.3597832,-0.04924538,0.11632603,0.042078875,0.123542,-0.16528587,-0.18058643,0.043966576,0.16984327,-0.12270623,0.13945502,0.81921625,0.4434063,0.32525694,0.28497502,0.2504237,-0.107962996,0.4907148,0.568058,0.11447359,-0.0884513,0.15566806,0.064374104,0.18202776,-0.036185905,0.26463172,0.4226396,-0.027179182,0.67097825,0.16717032,0.27155495,0.62636644,-0.61677265,-0.39682138,-0.16560301,0.49659675,-0.47173393,0.002208002,0.22000812,0.08060998,0.12149307,-0.5866395,-0.10791981,-0.12671636,0.06878188,0.2597121,-0.14261973,-0.101911776,0.07806618,0.07196764,-0.028878964,-0.37331387,-0.33690512,-0.2566415,0.16249265,-0.12525153,-0.05944399,0.09558492,-0.16315812,-0.063147575,-0.0032678265,0.08560251,-0.21899842,-0.12356254,0.017145127,0.20369172,0.071588956,0.559919,-0.18642905,0.12316935,-0.057957776,-0.079282105,-0.063260704,0.16015542,-0.03886865,0.056689385,0.54487747,-0.28322792,-0.18345553,-0.13197654,0.43605587,-0.25510913,0.030469377,0.03036488,-0.012039352,0.0826481,-0.0843782,-0.19780208,-0.18845186,-0.0807212,-0.4811478,0.23680435,0.3597243,-0.35785154,-0.07807851,0.20604432,0.22210127,-0.19670819,0.07567562,-0.1377948,0.0142826475,-0.11596678,0.13776639,-0.042684026,-0.32361916,-0.4006309,0.16782208,-0.09718162,0.077260345,0.108047,0.15930295,-0.093405515,0.11366236,0.4148166,-0.09212433,-0.2466941,-0.18616657,-0.09485896,-0.02228461,0.0016437322,-0.09329709,0.26719308,-0.31253293,0.05327719,-0.3484562,-0.1459037,-0.2082484,-0.116894096,-0.052475173
10624813.pdf,-0.28395462,0.32812452,0.43763047,-0.059933238,0.4301706,-0.028063204,0.05828969,0.13514778,0.0034649977,-0.20736735,-0.23564464,-0.3070342,0.08864702,0.104206674,0.12716137,0.34520718,0.299442,-0.015489351,-0.21185738,0.29312468,0.15227698,-0.15576331,0.050422046,0.66626984,0.42365938,0.019822352,-0.113693304,-0.06198649,-0.24126199,-0.05030623,0.54966843,-0.033183463,-0.11285184,-0.41636154,0.119267665,0.08108866,-0.25994635,-0.018540181,-0.1714097,0.070988126,-0.43274426,-0.2845316,0.057901744,0.104035355,-0.30707097,-0.1529738,0.04511383,-0.07644447,-8.161366e-05,-0.012369111,-0.6656395,0.24605387,-0.32969135,-0.35683998,0.11113143,0.65685266,0.1654745,-0.579072,-0.42269704,-0.4260081,0.09254171,-0.17025578,0.120398074,-0.14174327,0.19741008,0.043093104,-0.06699809,0.4591313,-0.73611665,-0.015342618,-0.095845535,-0.00054223975,-0.18545175,-0.04990691,-0.44203743,-0.15481575,-0.13061291,0.4180735,0.046363115,0.09917459,-0.27664426,0.3305304,-0.16882676,0.26810682,0.15087643,0.23177195,0.4606717,0.2555284,-0.5936542,0.650317,0.09811082,-0.38457805,0.37505567,0.20692065,0.17884764,0.12278097,0.13513619,0.187635,-0.1299184,-0.041893944,0.10117113,-0.1612365,-0.11440929,-0.058728047,-0.024021141,0.050126947,0.11672844,0.18423101,-0.3714644,0.356597,0.15652846,-0.26494718,-0.15953486,-0.3375736,-0.05006747,0.025010161,-0.05423624,0.1037036,0.22292772,0.05266405,0.4201672,0.06669331,0.09864186,0.6922254,-0.028918449,-0.011696143,-0.19118431,0.25557894,0.071227014,-0.08867794,0.10670981,0.09067127,-0.108222686,-0.058847357,-0.20995715,0.47902125,-0.1107286,-0.24158393,-0.12003696,0.029751118,-0.09638885,-0.48628616,0.5119792,-0.12069842,0.12539102,-0.12873885,0.16265452,0.083129644,-0.09050447,0.26452985,0.0064739846,0.1881939,-0.27689153,-0.35208002,-0.117126465,0.10635806,-0.2227081,0.13873684,-0.22317436,-0.052542094,0.24287547,0.28347802,-0.2661664,0.1700581,-0.004880253,-0.061273817,0.0092432685,0.2458275,-0.40375587,0.07749946,0.07377137,-0.20399718,0.5889375,0.24741319,0.14966767,0.07169029,0.4245872,-0.19471048,0.22992364,0.13713203,-0.5968637,0.33899966,-0.0048717223,-0.07462418,0.12283694,-0.18044285,0.2914669,-0.3604927,0.16287778,-0.12379471,-0.410867,-0.39832133,-0.18352884,-0.072997615,0.16320586,-0.3264929,-0.1481822,0.08013832,-0.42909378,-0.14526048,0.19917887,0.26056504,-0.082163736,0.01338757,-0.016320385,-0.4257049,0.20404066,-0.41916776,-0.31070188,0.048019215,-0.32097846,0.034037467,0.029157061,0.073893085,-0.01625692,0.083706245,-0.13225618,-0.117582,0.13837767,0.014691319,0.23159347,0.050219156,-0.358329,0.44630527,-0.32965162,0.5004416,0.20038575,-1.0281689,0.5800776,0.28327635,0.13310036,-0.29315338,0.3508206,-0.43417135,-0.10681004,0.036077112,-0.34215122,-0.24457249,0.26192948,-0.16960627,-0.32213873,0.5723642,0.08501624,0.10516369,0.2697159,-0.20716554,-0.09245582,0.0049498975,-0.2034961,-0.18400162,-0.6736151,-0.056610476,-0.07444527,-0.4051031,-0.09949705,-0.39445233,-0.10063718,-0.44618806,-0.31298706,0.047209688,0.21562427,0.12708382,-0.05260289,0.048535652,0.12841012,-0.59158397,0.048774403,0.089786395,0.46143624,0.24266535,0.021812461,0.10421832,0.056440108,0.6338717,-0.39976403,-0.26097584,0.35851696,-0.03727569,-0.15663704,-0.16808563,0.19052592,0.3294841,-0.30661827,-0.06573755,-0.064296946,0.05455957,0.42462543,-0.068366855,-0.21510041,-0.108288914,-0.12098212,0.13131285,-0.46433896,-0.058835566,0.51269627,0.06503609,0.06517598,0.31808272,0.12356554,0.01599297,-0.43246734,-0.34725255,0.17199565,0.10116496,0.12237287,0.053247925,-0.07990534,-0.52762926,-3.2319188,-0.058049515,0.06070535,-0.31779748,0.285079,-0.14388305,0.05274722,0.052254695,-0.2927727,0.08072205,-0.069304265,-0.0939342,0.0916404,0.21437618,-0.018437784,0.06324696,0.12217079,-0.0708155,0.056232464,0.24510069,-0.26558512,-0.7571265,0.20991561,-0.106951766,0.27559856,0.15780947,-0.50692165,0.093208544,-0.3432569,-0.27310407,0.021054462,-0.2533331,-0.21663508,0.28913027,0.2660107,-0.05983923,0.02122871,-0.4081111,-0.10831583,-0.49800766,0.31340626,-0.7271168,-0.049966097,-0.06486193,0.7125557,-0.19643506,0.11348017,0.13483644,0.1889767,0.09761519,0.30012572,0.00754722,-0.2223244,-0.24323688,0.002618967,-0.17853284,0.6363046,0.12534359,-0.2510176,0.13950212,0.24188969,-0.115112774,-0.3993426,-0.17402408,-0.11118056,-0.13273251,-0.4791415,-0.267341,-0.30364573,-0.14392212,-0.18455933,0.8745972,-0.30760604,-0.34558067,-0.050346002,-0.6885361,0.34866518,-0.052370403,0.001271042,-0.2985586,-0.29343855,-0.45706236,0.22774178,-0.12429038,-0.14318603,-0.12368863,0.11412649,-0.0022324026,-0.24343441,-0.36378247,0.41204205,0.20177624,0.3802848,0.09018524,0.28008622,-0.024893973,0.3316642,0.030978326,-0.017783657,-0.39597222,-0.0027196072,0.016764127,0.4846632,-0.18634477,-0.09346783,0.114262626,-0.36066574,-0.18479945,0.4196228,-0.009384524,0.10920292,-0.016862419,0.338953,-0.2657606,-0.19082381,0.08020591,-0.03359796,0.80881476,-0.08453523,-0.4058004,-0.26635376,0.45408168,-0.12261791,0.031971693,-0.23375005,0.15585363,-0.28521484,0.37228668,0.06589788,-0.21317977,-0.29495537,-0.13496336,-0.15182182,0.14951655,0.18665847,-0.034257967,-0.09909659,-0.37284765,-0.3144461,0.19254875,0.2653646,0.53611267,0.15104663,-0.31629586,0.005209625,0.2612325,-0.22953302,0.2732822,-0.175123,0.17779216,-0.48707104,-0.24890387,-0.10975269,-0.45727646,0.054979745,0.45570612,0.16379583,-0.09119563,-0.015590258,-0.552752,0.33597213,0.13990915,0.14289844,-0.06000459,0.07276763,0.66892046,0.056085154,-0.097566664,-0.16844586,-0.101419255,-0.16853221,-0.23593652,0.17514604,-0.5368637,-0.092830606,0.44818228,0.20624335,-0.35532552,-0.09922323,0.24081503,0.11273827,-0.19411129,-0.27923214,0.10023901,0.33961758,0.1004139,0.16655183,-0.3785178,-0.05557275,0.07597737,0.09691399,0.34310883,0.096500956,0.21436062,-0.118057884,-0.12695402,0.4526712,0.17307818,-0.15792042,-0.08091669,0.051132545,-0.2438889,-0.41577464,0.050452024,0.12496464,-0.2958505,-0.04680612,0.2836793,0.1449659,0.022017023,-0.40420532,-0.19319448,-0.34009516,0.04190934,0.12485623,-0.466412,-0.027201692,-0.022856453,-0.519683,0.06667353,-0.04741327,-0.1998097,0.13902473,0.021584801,-0.20462874,-0.14276779,-0.024758771,0.24198908,-0.27934644,-0.50504977,0.14190784,-1.0334574,0.14687155,0.0008493066,-0.046996012,0.11088103,-0.121297784,-0.6604289,0.18437208,-0.44253862,-0.15421623,-0.030889833,-0.3065139,-0.15060183,0.16434883,-0.21115115,-0.30959696,0.42511892,-0.20533833,0.40313727,-0.062259562,0.11426537,0.15406069,-0.13400847,0.13713877,-0.26028082,-0.50169617,-0.32362092,-0.35190758,-0.29104427,-0.087573774,-0.13600999,-0.021593168,0.0533154,0.33510917,0.29839566,-0.09832675,-0.2004365,0.068244055,-0.56734043,0.1308399,-0.16988738,-0.016671706,-0.12806274,0.16034731,0.1186223,0.17811364,-0.4598339,0.4776268,-0.14931694,-0.46597445,-0.12769452,0.098250724,0.1194246,0.3902539,-0.5913609,-0.007903231,0.30109134,0.10501782,-0.08885521,0.24519843,-0.028897177,-0.0632388,0.1383292,-0.55951107,0.08434567,0.7090926,0.14744458,-0.0074618384,0.25411144,0.13944462,0.22717059,0.52086157,-0.17588648,-0.1134498,0.29315668,0.057974905,-0.63336015,-0.1263238,-0.18413836,-0.16588834,-0.2588781,0.63142204,0.32898498,-0.35343254,-0.24697056,-0.23197746,-0.14260933,0.295923,-0.09612495,-0.038642522,0.16095197,0.560501,-0.10968591,0.39417967,0.5500522,-0.16299897,-0.2556784,-0.19373284,0.23432508,0.09137671,0.28590542,-0.05222699,0.096410245,0.06212618,0.10229477,-0.03032179,0.029129015,0.040988874,0.012395337,0.28476804,0.0605386,0.44083825,0.41572884,0.22014001,0.36475646,0.39337033,0.01594502,0.36913368,0.6337582,0.3839823,-0.01925289,0.1589225,0.038720947,0.19084288,-0.07199337,0.19800578,0.6183076,0.13625468,0.743011,0.20741631,0.31713265,0.8610671,-0.6527581,-0.4211287,-0.19378951,0.5767579,-0.33755928,0.07559295,0.24881738,-0.04070896,0.29826394,-0.39748344,-0.061100796,0.027627116,-0.036940686,0.08528766,-0.08413295,-0.1115533,0.1966445,-0.20921054,-0.20734893,-0.22373629,-0.19835363,-0.3323823,0.07642455,-0.06266413,0.0016062185,-0.08424697,-0.30899346,-0.050746668,-0.06899902,0.16636448,-0.031938873,-0.13762543,-0.117533006,0.21684444,0.21418095,0.53920066,0.006432524,0.12623875,-0.111880004,-0.25223386,0.18843748,0.20053929,-0.008055005,0.0073572947,0.42170233,-0.26941934,-0.13782969,0.040055066,0.2679843,-0.35577852,0.13174163,-0.10457292,-0.025267474,0.04256737,0.20632875,-0.17811956,-0.09650035,-0.11451861,-0.5141566,0.23013133,-0.13412666,-0.30576432,-0.05250706,0.24774444,0.40089107,-0.2010749,0.041708227,-0.16561992,0.07921739,0.030138137,0.28561133,-0.19626933,-0.41316715,-0.26081795,0.20755264,-0.21353361,0.19884646,0.043122344,0.47183633,0.057119407,0.06088331,0.3523745,-0.030825738,-0.3165839,-0.22430658,-0.23039663,-0.15242866,-0.120217875,0.09035756,0.15236998,-0.35819867,0.15806358,-0.37738475,-0.081159316,-0.37203515,-0.03355284,-0.07485232
10712803.pdf,-0.3789911,0.23628761,0.357113,-0.00023829006,0.63721955,0.076364666,-0.03744091,0.19705543,-0.07052633,-0.34669226,-0.18906535,-0.23433568,0.021147067,0.13030311,0.07286965,0.5940455,0.29982048,0.01457379,-0.11218131,0.3851655,0.1928969,-0.180835,0.21355408,0.7401447,0.08062546,0.052044664,-0.03843708,-0.06840836,-0.2508458,-0.06583135,0.43581396,0.039996635,-0.06297579,-0.33630925,0.18184316,0.001518203,-0.26866946,0.06508988,-0.2256852,0.106021896,-0.5342165,-0.19919497,0.009847775,-0.15819806,-0.22788188,-0.081751116,0.3080154,-0.14608648,-0.025368296,-0.042338993,-0.4191038,0.2762903,-0.27679214,-0.18942425,0.28477752,0.5533477,-0.067776866,-0.4423072,-0.38907743,-0.39401165,0.025295421,-0.18006225,0.13734029,0.056370407,0.31976262,-0.08399758,0.16794884,0.34356165,-0.5930562,-0.074837856,-0.30168867,0.11537718,-0.10084337,-0.1255432,-0.18546344,-0.25029638,-0.019204132,0.28203744,-0.045355935,0.1971748,-0.1301648,0.22913039,-0.15535714,0.24161342,0.16619357,0.22426155,0.26406407,0.19141263,-0.41463026,0.58634037,0.25342315,-0.24778812,0.34002072,0.10805716,0.08770712,0.098808,0.0980483,0.20367572,-0.10421247,0.033406615,0.15511723,0.1485593,0.040398374,-0.06770556,0.07877858,-0.11858202,0.06657103,0.22201206,-0.27699792,0.2982174,0.10330988,-0.21421738,-0.18456496,-0.4685522,-0.104817286,0.01870602,-0.06018605,0.048890993,0.3384548,0.24261169,0.3660015,-0.11599955,0.09636988,0.88816,-0.014392428,-0.021612868,-0.008009504,0.3531655,0.0634746,-0.10134789,0.07720438,0.34644097,-0.10308847,-0.023489509,-0.3028427,0.4006831,-0.16714087,-0.13704562,-0.18158545,0.20242718,-0.16028836,-0.64757127,0.54207325,-0.16729662,-0.06292062,-0.26492524,0.043922484,0.09433529,-0.15271305,0.32073438,0.22856574,-0.026961904,-0.22817978,-0.257133,-0.015245376,0.039424866,-0.061591253,0.15854785,-0.3164879,-0.24374945,0.27421027,0.24773721,-0.48340252,0.31510463,0.012300096,-0.11729959,-0.10550054,0.28162977,-0.18349747,0.074537836,0.039333142,-0.10743345,0.5231261,0.0856449,0.13789593,-0.069385305,0.2877042,-0.13758358,0.17683454,0.051212125,-0.553371,0.42495567,-0.05239716,0.08668524,0.21940488,-0.14800537,0.44385517,-0.44456598,0.013707915,-0.36640278,-0.32066393,-0.43881196,-0.042167,-0.014028344,0.15957257,-0.14205672,0.027481573,0.065819085,-0.50701183,-0.075730145,0.28932345,0.21139586,0.15692371,0.116546035,-0.20978683,-0.51934975,0.22981805,-0.4081571,-0.23147005,0.0492664,-0.27539423,-0.12896752,0.028193753,0.11146222,-0.15924038,0.013749283,-0.30999604,-0.106551304,0.3380832,-0.11781157,0.19582036,0.24151555,-0.3662879,0.4728185,-0.39017797,0.4312337,0.061996248,-0.8335031,0.39227143,0.3169852,-0.017403644,-0.3859704,0.38248605,-0.40223372,0.06393487,0.010427814,-0.28139138,0.064539246,0.29266912,-0.19691344,-0.24968404,0.74644756,0.16164416,0.020660717,0.2513822,-0.07363328,-0.075881146,0.024223786,-0.10859035,-0.080692105,-0.58081913,0.059903815,0.07554473,-0.38928884,-0.10463821,-0.5382676,-0.077092916,-0.3260063,-0.24397746,0.018497746,0.11671419,0.011051469,0.08451952,-0.043206125,-0.042891227,-0.6827524,0.048763625,0.07895709,0.18719429,0.29171044,0.17165619,0.053105082,0.008965325,0.40518296,-0.4217009,-0.24575165,0.24619773,0.02279061,-0.1627061,-0.13977888,0.18561545,0.3624264,-0.19347519,0.017029852,-0.05195105,0.02057493,0.4331128,-0.034586016,-0.26171318,-0.2517021,-0.11648902,-0.01996708,-0.6780722,-0.2062436,0.39841765,0.13982086,-0.0041203983,0.25276014,0.17906646,-0.0769085,-0.31149212,-0.3148346,0.16375329,0.17912093,0.025062736,-0.044231545,-0.09379551,-0.7210811,-3.4742775,-0.058622207,0.09843946,-0.24399322,0.4320125,-0.0013309792,0.2280159,0.1351181,-0.48159426,0.1795478,-0.13466893,-0.07070583,0.099855594,0.2688158,0.19586745,-0.022904854,0.0932287,-0.36033306,0.15531935,0.32705486,-0.1122745,-0.9275221,0.05718924,-0.14528525,0.24723089,0.21431465,-0.53060144,-0.08239165,-0.4609391,-0.20753922,-0.011244256,-0.23800606,-0.2928023,0.21956989,0.21814117,-0.20854601,-0.03896917,-0.31369725,-0.08262542,-0.6152024,0.3532044,-0.6217078,-0.11441495,0.058769308,0.5893232,0.04194174,0.19913413,-0.07754278,0.09031232,0.27701882,0.2936317,0.14374731,-0.049897358,-0.19596261,-0.07141397,-0.06481718,0.62916887,0.28765953,-0.36423302,-0.03118242,-0.05960019,-0.31210917,-0.44157523,-0.13492407,-0.2565933,0.12788224,-0.60402,-0.30068433,-0.1703499,-0.14326948,-0.02601495,0.6384485,-0.26268983,-0.30758464,-0.19808419,-0.4871187,0.19894451,-0.19400713,-0.054775678,-0.30577666,-0.2554774,-0.47071737,0.20472214,-0.0032857442,-0.14733481,0.0151467845,0.018772062,-0.16933692,-0.3020891,-0.48398077,0.4021475,0.14360543,0.35293025,-0.13346335,0.28174564,-0.0623576,0.43728045,0.09243324,0.08734006,-0.45424026,-0.14387096,0.019440118,0.5759144,-0.18792346,-0.04014366,0.07498339,-0.24126942,-0.24163054,0.31854755,-0.11471992,0.28263417,-0.26720375,0.37263215,-0.5371864,-0.11667803,0.0051381667,0.06886034,0.7554143,-0.061486207,-0.27897617,-0.19749144,0.27177572,-0.24268492,-0.19718806,-0.18031141,0.017661668,-0.27612692,0.4593315,0.08300403,-0.1902147,-0.26045823,0.06928057,-0.17072758,0.24258047,0.1250641,0.14879033,-0.14727508,-0.35564953,-0.2082814,0.257419,0.084218994,0.31602904,0.22418937,-0.3342982,0.14765346,0.32797498,-0.02262352,0.42170417,-0.023106148,0.107151434,-0.47898623,-0.31976503,-0.25160652,-0.2824708,-0.022893682,0.5509527,0.14890836,-0.09384925,0.12554014,-0.47979534,0.32491255,0.077388145,0.16912046,-0.06855844,-0.11783647,0.77938545,0.029683698,-0.26831,-0.030004777,0.038493715,-0.17764384,-0.17081374,0.10394615,-0.44476724,0.042921796,0.43762127,0.2428006,-0.20853604,-0.11925106,0.42554855,0.012372933,-0.1140019,-0.27554506,0.009928038,0.055067588,-0.14110994,0.14344695,-0.41026348,0.034777116,0.030609664,0.18241279,0.24900118,0.0062866323,0.06467636,-0.076636136,-0.104956806,0.40700376,0.224758,-0.19119868,-0.14082304,0.1209715,-0.31586462,-0.5325367,0.016405933,0.0062073804,-0.090862736,0.05916382,0.28778526,0.07182358,0.10524972,-0.40617,-0.04377824,-0.36463362,0.14271444,-0.21439907,-0.46794128,-0.027718376,-0.0673299,-0.36416683,-0.015200796,-0.03370235,0.09747614,0.14844021,0.03750269,-0.10142285,-0.24829109,0.21617784,-0.0156787,-0.26709402,-0.1627823,-0.048899714,-0.9249427,0.1440643,-0.05132276,-0.064247936,0.12034613,-0.019775301,-0.76579005,0.14556587,-0.18912481,-0.09237346,0.06699061,-0.27604905,-0.14850387,0.15915442,-0.09186317,-0.11570017,0.25613046,-0.13887776,0.532725,-0.038404495,0.08598454,0.08604268,-0.17016405,0.22019793,-0.54473054,-0.22274321,-0.105967246,-0.08489945,-0.17570685,-0.34596023,-0.018664971,-0.15166962,0.116556086,0.36765426,0.21895224,-0.3969129,-0.118021205,0.073678695,-0.45945323,0.3287748,-0.30501345,0.033277497,-0.29302865,0.3181729,0.031537034,0.2078,-0.30420634,0.71641153,-0.2992102,-0.42643315,-0.111586034,0.17486934,0.122062564,0.36028612,-0.4557435,-0.12463761,0.06859897,-0.13734496,0.14680663,0.45126408,-0.14146572,-0.14224948,-0.095100805,-0.6185726,0.14950687,0.6777801,0.30907503,0.11389138,0.17807323,0.1327479,0.122556165,0.36248392,0.057107992,-0.20857462,0.38004458,0.062411144,-0.50180435,-0.24216878,-0.195813,0.00080979615,-0.38522783,0.6215431,0.1853459,-0.40586185,-0.4135922,-0.12799573,-0.21152775,0.2158514,-0.063592605,0.20387173,-0.06152342,0.51190025,-0.075216025,0.23985739,0.65113306,-0.08302827,-0.25360256,0.15649015,0.15645847,0.08312896,0.3536135,-0.1459788,0.24535844,0.012846921,0.14583257,-0.24321431,-0.17808683,-0.016734948,0.08366874,-0.04652309,0.17015323,0.5777414,0.49238646,0.27482292,0.29613718,0.27745712,-0.07925618,0.52177596,0.58735,0.08503808,-0.14968845,0.18639839,0.10285114,0.103886075,-0.11256038,0.22181414,0.47682163,0.09075936,0.6741017,0.1431694,0.3823871,0.6461954,-0.5334507,-0.3787287,-0.14412606,0.4329902,-0.48557496,-0.008921746,0.17809284,0.10379829,0.28514925,-0.37658015,-0.20209435,-0.0019450542,0.10842693,0.1454466,-0.069281414,-0.08924502,0.112357914,-0.06988201,-0.09183021,-0.24671516,-0.35255617,-0.33054978,0.119758874,-0.121722475,-0.029219542,0.07152887,-0.13160732,-0.032321602,-0.03543669,0.18782604,-0.25250548,-0.24767187,-0.12540233,0.23543471,0.09964349,0.6065991,-0.12605348,0.26972255,-0.101715036,-0.13293225,0.05819184,0.16678348,0.13559188,0.052892983,0.54113686,-0.3408407,-0.025123399,-0.14313169,0.24390692,-0.1932566,-0.08046063,-0.031009506,0.026960151,-0.04696387,-0.11331987,-0.21757029,-0.15563701,-0.1279736,-0.5285615,0.29148522,0.10763854,-0.31214213,-0.04915973,0.4853204,0.25282106,-0.1587115,0.12324877,-0.20746776,0.16309261,-0.06561938,0.30753654,-0.15996873,-0.11909787,-0.36009306,0.19387738,-0.21497895,0.1312109,0.09599918,0.2933479,-0.051180195,-0.031742096,0.35537797,-0.21854143,-0.31084707,-0.3448205,-0.14622174,0.050404426,0.022732131,-0.16014677,0.18469606,-0.25065273,0.048530184,-0.3971012,-0.14011322,-0.11922891,-0.16812931,-0.010716803
10985403.pdf,-0.36331928,0.09535316,0.26054507,0.025499536,0.52267003,0.24106485,-0.052518226,0.030060558,0.06904189,-0.21786922,-0.0021731686,-0.25022689,-0.0043631117,0.22330457,-0.07839841,0.64347196,0.29138187,-0.19203705,-0.26130924,0.45993996,0.29652745,-0.18142152,0.38131124,0.66965854,0.12239738,-0.1014622,-0.012020812,0.033586495,-0.27648255,0.06750842,0.33701897,0.16551797,-0.18524137,-0.3444494,0.19282381,-0.10887704,-0.16571274,-0.057705775,-0.08122617,0.21441665,-0.47090608,-0.30417538,0.014910895,-0.045872465,-0.15144917,-0.044300705,0.20154418,0.11910924,-0.040686898,-0.038957916,-0.35895976,0.37275088,0.061894655,-0.22353397,0.105317734,0.7396575,-0.07855078,-0.3865555,-0.29544416,-0.27570888,0.123655766,-0.09647429,0.13649511,-0.089653656,0.1511681,-0.0021804702,0.045476787,0.30603075,-0.54286563,0.11912881,-0.2895382,0.23389424,-0.1410704,0.122276485,-0.1666323,-0.25159854,-0.046260793,0.36832234,0.089392275,0.074550375,-0.07193361,0.22569373,-0.076080464,0.20015502,0.22607756,0.16193296,0.15091608,0.27436844,-0.49718827,0.4668532,0.11705174,-0.22193816,0.3106217,0.29677898,0.13090253,-0.062192217,0.13538793,0.18335293,-0.13946803,0.16622631,0.17934811,-0.09611103,0.06998249,0.0871414,0.105509564,-0.17632332,-0.0066081593,0.34512264,-0.33839062,0.39298558,0.058636118,-0.1299356,0.046568953,-0.6084054,-0.20404507,-0.2170848,-0.048730597,0.13524088,0.35312888,0.29597986,0.11723844,0.010630048,0.08981774,1.0878447,-0.048580345,0.15789005,-0.15213296,0.5051474,0.0694534,0.036515728,0.078936055,0.32741773,-0.13678247,-0.028515074,-0.2370691,0.24643591,-0.16739942,-0.27903295,-0.09752345,0.17168418,-0.22082657,-0.6397956,0.4293501,-0.02261522,-0.03160908,-0.22173467,-0.13457456,0.0859098,-0.096493445,0.3439831,0.16593558,0.058530413,-0.31945756,-0.15051128,-0.16570264,0.07304265,-0.2736293,0.19443698,-0.21853589,-0.18260507,0.2651407,0.1662064,-0.3830654,0.35702512,-0.079611056,-0.2964459,0.116459414,0.27197585,-0.31017113,0.040522873,-0.13265714,-0.185795,0.5819049,0.10668656,0.22459084,-0.010230665,0.27482614,-0.22279176,0.05734328,0.31909788,-0.59347063,0.43319118,-0.0060368106,0.26150444,0.24521676,-0.17120832,0.47917366,-0.3315583,0.053573072,-0.29961962,-0.28183976,-0.4045986,-0.19426975,0.031694543,0.30249673,-0.17709322,0.0054531693,-0.098312,-0.48286575,0.10212782,0.20227747,0.1370717,0.1852434,0.060480304,-0.024901569,-0.4352529,0.19507353,-0.33981723,-0.09122993,0.049294025,-0.16557005,0.058919225,0.022389026,0.079250485,-0.017295875,-0.0110787265,-0.26294518,-0.004444497,0.42702347,0.04491061,0.20780165,0.07009481,-0.5171674,0.53006196,-0.38866806,0.6080827,0.054132774,-0.92828214,0.28240818,0.34084105,0.029509274,-0.3638234,0.56263113,-0.3693076,0.008350937,0.062055357,-0.13753037,0.11434367,0.27077997,-0.1764821,-0.2905656,0.8199767,0.3042047,0.09066738,0.095097676,-0.21031545,0.061387204,-0.1347715,-0.15900019,-0.2033343,-0.5612666,0.014986193,0.06958862,-0.4259799,-0.28728884,-0.40803772,-0.02041577,-0.5270134,-0.13130957,0.06571175,0.042505182,-0.053126223,0.18531558,-0.2237781,-0.1672823,-0.5700474,0.04631514,0.23390397,0.36285713,0.14890237,0.20920962,0.08541367,0.064019635,0.41967037,-0.24562156,-0.12317677,0.26288003,0.14123198,-0.17991062,-0.16468447,0.12858517,0.6352658,-0.26444262,0.06515007,-0.10291959,0.13062397,0.17201315,-0.058548115,-0.26722285,-0.46016204,-0.13036737,0.13490626,-0.525121,0.021839786,0.2190514,0.1467979,0.17097065,-0.019292139,0.24976431,-0.26000148,-0.23253232,-0.33630437,0.035812333,0.14620847,0.03483016,-0.06708427,-0.040336583,-0.47252584,-3.7280908,-0.15609962,0.19528815,-0.20447233,0.44543058,-0.030381367,0.04840284,0.080681756,-0.3314343,0.26014185,-0.18985212,-0.15473169,0.15723233,0.228006,0.21618794,-0.050796628,0.13002598,-0.22426778,0.062267344,0.5360099,-0.09411158,-0.7736339,0.024044944,-0.18899694,0.27573663,0.09544259,-0.49730408,-0.052891728,-0.40484798,-0.084563315,-0.02723145,-0.34519124,-0.11201629,0.46590447,0.20368388,-0.024893366,0.020539742,-0.35614896,0.12435522,-0.095154315,-0.07410481,-0.60731864,-0.026259612,0.08555642,0.50278115,-0.09991598,0.29561308,-0.049748845,0.26664588,0.28557393,0.3265791,-0.10160475,-0.08014252,-0.10960041,-0.071449816,-0.0512084,0.42907733,0.2991283,-0.27545363,-0.122954145,-0.15275192,-0.1509304,-0.5657619,-0.33477467,-0.27208865,-0.05640104,-0.56019986,-0.28235868,-0.07821387,-0.14651874,-0.114516154,0.6665441,-0.3410375,-0.3020591,-0.08464846,-0.34054384,0.39681223,-0.39216596,-0.18727666,-0.1893296,-0.43560636,-0.54736745,0.28389588,0.035683572,-0.12728049,0.009012323,0.10149548,-0.38253105,-0.32195026,-0.38638908,0.49370798,0.07425263,0.28177404,-0.19004735,0.43468267,-0.037797898,0.3546769,-0.07868673,0.15563776,-0.5247866,-0.042889837,0.12811853,0.5286241,-0.2768483,-0.095417246,-0.049839944,-0.35908437,-0.07984725,0.20333067,-0.0070624156,0.16300914,-0.27347568,0.35839579,-0.36169827,-0.060133737,0.045581736,0.16630472,0.60472786,0.041305806,-0.35268235,-0.2577074,0.12727782,-0.21694192,-0.39805526,0.0935941,0.13936907,-0.2991253,0.48920256,0.013061178,-0.12519735,-0.2718106,0.07072613,-0.22246814,0.21893598,0.24840811,-0.1732578,-0.18615142,-0.48075068,-0.09512623,0.14422823,0.21868911,0.08819866,0.12759398,-0.43009746,0.09568425,0.42001498,-0.04147548,0.24124789,-0.014776293,0.0049948655,-0.5746021,-0.43284422,-0.25209823,-0.15548828,0.04877802,0.47460157,0.22329673,-0.18404648,-0.0529842,-0.5527073,0.40425953,0.07733782,0.27959818,-0.084034264,-0.26813596,0.7551553,0.07840567,-0.26081836,0.08390701,-0.07934829,-0.24522445,-0.3143751,0.12249033,-0.44374472,-0.04313269,0.40421933,0.13779163,-0.3820249,-0.215335,0.30601904,-0.05975224,-0.07112119,-0.07176764,0.15612431,0.26658535,-0.16371487,0.14961003,-0.49720746,-0.027473437,-0.013246683,0.11924609,0.25244412,0.09372905,-0.052693788,-0.11178088,-0.14665765,0.49755237,0.085601315,-0.23112622,-0.056303907,-0.044114236,-0.23859131,-0.40395316,0.101861596,0.15354787,-0.17602196,-0.09090234,0.36688215,0.07302193,-0.08669915,-0.24063273,-0.2391023,-0.3894684,-0.14786905,0.023738343,-0.32459253,-0.09218838,-0.18407604,-0.28589156,0.08429311,-0.0799911,-0.009534232,0.04464841,0.065109685,-0.1988668,-0.2124229,0.21391377,-0.04987946,-0.15590231,-0.016321702,0.016458567,-0.8199732,0.027542252,0.015965343,-0.09401284,0.031470533,-0.13924898,-0.75790274,0.13246252,-0.34194154,-0.047687136,-0.010019843,-0.3310692,-0.11517388,0.13068491,-0.086666144,-0.16531435,0.31846055,-0.17045443,0.47809303,-0.01774431,-0.0014343052,-0.052403755,-0.27556515,0.12136296,-0.2521737,-0.32600057,-0.08391871,-0.22995728,0.003927053,-0.38632047,-0.015927894,-0.30273297,-0.0424716,0.30892116,0.21216583,-0.10828408,-0.23659895,0.19771384,-0.35926932,0.39826536,-0.30400357,-0.022853754,-0.2569013,0.09278165,0.095791996,0.05302672,-0.33546248,0.7100497,-0.4026603,-0.33960032,-0.122300595,0.068546355,0.18952517,0.28807873,-0.25122675,-0.033813335,0.07962757,-0.057928417,0.07971591,0.59082663,-0.09975575,-0.1349068,0.048989773,-0.43989378,0.06589505,0.5557508,0.35118103,0.09476379,0.04040782,0.08126755,-0.06910454,0.32033765,0.11174928,-0.08109091,0.18559766,0.12134152,-0.40964484,-0.19960344,-0.17231813,0.012400702,-0.27957344,0.49859893,0.22831176,-0.38060528,-0.2354703,-0.13388158,-0.07110137,0.21024844,-0.12069362,0.16420765,0.10141179,0.50297177,-0.21745446,0.30429396,0.5714172,-0.3458063,-0.23618193,-0.088329546,0.23394151,0.27459556,0.19767582,-0.20822912,0.34268445,0.0723283,0.15039311,-0.059816394,-0.2072088,0.019792154,-0.06914334,-0.031118533,0.024321737,0.447215,0.4496344,0.2932467,0.29618528,0.3696992,0.0931264,0.47414184,0.5803459,-0.024278354,0.010014159,0.1440765,0.0788925,-0.020422125,-0.11138504,0.33882242,0.4918234,0.06230849,0.8208095,0.23631926,0.453089,0.5308931,-0.52251923,-0.23619872,0.05996289,0.5018811,-0.36209065,-0.014613487,0.07239579,0.1270123,0.13405813,-0.3270107,-0.08540186,-0.081702724,0.095919356,0.10588666,-0.05128877,-0.2502654,0.04583422,-0.07947188,0.069171906,-0.3673432,-0.41034943,-0.3726974,0.023225985,-0.20414841,0.11787336,0.06741281,-0.22737604,-0.119697794,0.12947427,0.31623873,-0.22451316,-0.30487853,-0.278216,0.2245967,-0.0326378,0.5338305,0.01937208,0.27445132,-0.09433822,-0.1758439,-0.15297756,0.073943384,0.119756326,-0.0030161468,0.5905633,-0.34166127,0.03688375,-0.042873137,0.31763452,-0.16538963,-0.07969317,-0.052143797,-0.21987711,-0.01617903,-0.1547279,-0.27718526,-0.14543709,-0.18531221,-0.47945952,0.12653974,-0.01759714,-0.30571488,-0.100580916,0.5481219,0.144231,-0.10379023,0.025712304,-0.14140251,0.2898483,-0.011463683,0.20836276,-0.18228617,0.00025615096,-0.19397378,0.22006562,-0.3019048,0.27630898,0.29423156,0.25552052,-0.22323722,0.11244396,0.23764402,-0.10703803,-0.2945548,-0.23944452,-0.10813643,-0.15098809,-0.017231826,-0.029601306,0.114244066,-0.2441091,0.06456724,-0.43177536,-0.25451452,-0.30400264,-0.1882452,-0.025488775
11890896.pdf,-0.4436695,0.28826427,0.28379422,0.040837552,0.51400864,0.033058666,0.13692504,0.2956007,-0.011418184,-0.20971364,-0.07095675,-0.36831313,0.0036900751,0.054764863,0.13587078,0.45811942,0.35291913,-0.080054455,-0.28250366,0.49156687,0.10664793,-0.12733474,0.17497234,0.603813,0.40339607,0.059770443,-0.1705829,0.022863736,-0.2719197,-0.2376192,0.39941323,0.0070489794,0.040755495,-0.2349578,0.14430045,0.009785147,-0.20395757,-0.112488836,0.02323244,0.25245994,-0.4404102,-0.23457286,-0.12692417,-0.03304045,-0.2678252,-0.26958326,-0.0022099614,-0.10208085,-0.05199784,-0.055218242,-0.5689124,0.4217141,0.05022418,-0.2986895,0.09102212,0.7630571,0.02028127,-0.5038864,-0.47154665,-0.43108135,0.0926124,0.0035233404,0.07706745,-0.22492418,0.18841797,-0.006226927,0.049580764,0.3696758,-0.7513279,-0.1819366,-0.31475586,0.18636277,-0.22754845,-0.033472687,-0.2324447,-0.20417035,0.15275775,0.40573275,-0.034362953,0.052679263,-0.1898962,0.2931656,-0.043762658,0.1863972,0.181347,0.20304546,0.14260705,0.16697791,-0.30539018,0.36250237,0.0790107,-0.265276,0.2913804,0.13168603,0.20767753,0.10556787,0.15043998,0.15551509,-0.2284385,0.14279816,0.09809536,-0.23725975,0.23514882,-0.024295224,-0.0074944273,-0.0060695703,0.10864411,0.17802432,-0.51808923,0.4158581,0.050514787,-0.1932077,-0.09373773,-0.48261917,-0.06876523,-0.06653989,0.17067191,0.35469794,0.15142164,0.22149812,-0.06340286,-0.11881525,0.20013055,0.91045845,0.045329046,0.08823497,-0.16726905,0.1583626,-0.02828574,-0.15123403,0.13803005,0.09883098,0.09466189,0.07381945,-0.30833155,0.25436798,-0.22913146,-0.260903,-0.23755948,0.25102073,-0.18158817,-0.483294,0.54723465,-0.08691318,0.12134371,-0.32248533,-0.092358835,0.1479332,0.04026889,0.35372186,0.2519982,0.006794513,-0.21306813,-0.19491066,-0.05253772,0.2594599,-0.4255846,0.035342664,-0.0900219,-0.12051991,0.2381489,0.22911468,-0.49852735,0.26963204,-0.11071965,-0.0050213225,-0.0049322434,0.2683354,-0.3563301,0.18453935,-0.042965233,-0.14298198,0.5769404,-0.013146305,0.018911375,-0.075421855,0.19644946,-0.11076589,0.29354084,0.10409774,-0.5056009,0.25662702,-0.11092536,-0.16111664,0.24262144,-0.23171505,0.35190395,-0.34867108,0.12519507,-0.11892601,-0.3257516,-0.2946243,-0.20627882,0.06441129,0.33808044,-0.1769804,-0.0995456,0.120578595,-0.49563447,-0.14353001,0.18283856,0.13868985,0.09458717,0.13145077,-0.06953965,-0.46331686,0.22711095,-0.34055483,-0.2786566,0.15894768,-0.37853542,0.10308006,-0.04001466,0.32518166,0.035108246,0.003158506,-0.27541465,-0.1306961,0.19666186,0.04093782,0.22943783,0.081310436,-0.416237,0.54467565,-0.29697108,0.64420456,0.2515437,-0.9090668,0.40944767,0.36518812,0.0936248,-0.31022072,0.57732254,-0.4171552,0.037569344,0.058910653,-0.2649896,-0.22237927,0.27176282,-0.3220107,-0.29127437,0.6310134,0.13145204,0.17347595,0.3220607,-0.07510446,-0.12287556,0.006202232,-0.24625374,-0.29794163,-0.57502663,0.15881857,-0.03518398,-0.4062783,-0.122152895,-0.30734786,-0.18899529,-0.45362112,-0.101649925,0.13026991,0.20605491,0.2595767,0.1301135,-0.00071885064,-0.11564386,-0.6403817,0.004929833,0.14222765,0.26522416,0.2493143,0.09206426,-0.099353366,0.061412096,0.4752834,-0.49317086,-0.3567081,0.1416443,0.0439852,-0.18016496,-0.27751645,0.059405632,0.40354425,-0.20156246,0.00042006187,-0.09282276,0.016986012,0.2705151,0.12730387,-0.023114491,-0.24353792,-0.0495764,0.26041594,-0.47057056,-0.21225242,0.62173784,0.075628474,0.12603357,0.0038838815,0.4157164,0.017385075,-0.30021322,-0.24237938,0.104338385,0.10667676,0.121904224,0.07882187,-0.0017778296,-0.4502746,-3.2883515,-0.1653188,0.101725645,-0.21901366,0.27009234,-0.15956542,0.05215202,-0.0062306924,-0.5311597,0.22900555,-0.1724851,-0.105314426,-0.037809268,0.30422592,0.16819559,-0.056463063,0.15522605,-0.27233905,-0.12375745,0.5343395,-0.030011822,-0.57224524,0.080807954,0.15392478,0.304555,0.34349287,-0.3899516,-0.029729016,-0.32883996,-0.16818213,0.17086336,-0.27263105,-0.22375862,0.47495735,0.122260556,-0.03275877,0.10811282,-0.33370537,-0.12156975,-0.27656233,0.04888647,-0.8189102,-0.11652967,-0.019268733,0.7450427,-0.12625286,0.22990176,-0.018851196,0.14371182,0.15298147,0.19037768,0.027901571,-0.13857862,-0.0457088,-0.08568065,-0.04276838,0.51606554,0.27617276,-0.17074844,-0.096447386,0.1751832,-0.21862875,-0.47574788,-0.36181945,-0.21977922,-0.27479306,-0.642432,-0.28791526,-0.120751895,0.019917445,-0.059295107,0.5968791,-0.2877562,-0.23272261,-0.10412123,-0.4306875,0.30129486,-0.26275632,-0.04020079,0.011095989,-0.19615047,-0.45601112,0.07611531,0.045146726,-0.1142025,-0.088050626,-0.051534235,-0.19399738,-0.4121825,-0.5419835,0.43075567,0.041812833,0.26271316,0.18427196,0.47697386,0.13632712,0.37158948,-0.06019566,0.16037002,-0.48795718,-0.01309024,0.056713015,0.7338697,-0.22073105,0.07505293,-0.078708395,-0.2660718,0.12755348,0.1863991,-0.058015145,0.1429548,-0.20315233,0.14655194,-0.30163407,-0.099824004,0.06768677,0.09640611,0.7314607,0.019197583,-0.3119899,-0.2744341,0.29070652,-0.05669552,-0.21121669,-0.29791957,0.08360122,-0.24304295,0.15312964,0.10653925,0.001707539,-0.27443346,-0.044613637,-0.11265884,0.37781262,0.34164336,0.0021191258,-0.098108344,-0.60335124,-0.15601635,0.13694552,0.22085612,0.18609121,0.18010062,-0.3463037,0.06756042,0.25611585,-0.24127993,0.25247312,-0.23360701,0.17207019,-0.6344154,-0.342618,-0.050346762,-0.315785,0.13038525,0.41965777,0.10280024,-0.01657135,0.17266063,-0.434362,0.4800079,-0.08862636,0.18988135,-0.07125381,-0.20808172,0.6909818,-0.11682232,-0.087997526,-0.08353278,-0.089068145,-0.14431775,-0.33154383,0.0713132,-0.53963715,-0.12597783,0.40718776,0.2751854,-0.26903194,-0.22890997,0.121283114,0.0052481927,-0.4476639,-0.13296175,-0.0664653,0.22852455,0.21142708,0.28229165,-0.42698234,-0.08995988,0.0067277746,-0.059681416,0.18187141,0.1003616,0.005580336,-0.16462871,-0.08014219,0.58509517,0.14303285,-0.06856121,0.064979,0.091482416,-0.36148387,-0.3940218,0.018226046,0.19871399,-0.2723207,-0.04981965,0.2046544,-0.056987166,-0.013684689,-0.46477807,0.009172548,-0.41298535,-0.22834335,0.094469294,-0.5883586,-0.22921254,-0.14919534,-0.50767624,0.09672719,-0.05417337,-0.05538292,-0.0045351824,-0.05434265,-0.15517852,-0.3073359,0.16265768,0.09438484,-0.2872333,-0.22581524,0.19103895,-0.9277239,0.077533185,0.034103967,-0.08840038,-0.013601932,0.05096428,-0.7154144,0.32031775,-0.34142515,-0.1284781,-0.10126726,-0.30763727,-0.31821847,0.33301252,-0.023876566,-0.20136252,0.3118829,-0.086039186,0.5121923,0.15844439,0.042645,0.08535201,-0.15451232,0.13313508,-0.32610875,-0.29582992,-0.10156861,-0.15714833,-0.11957455,-0.09997791,-0.020809367,-0.2898312,0.049720168,0.31239304,0.24133061,-0.09640016,-0.12765685,0.1261708,-0.5003431,0.20081158,-0.36144418,-0.1160948,-0.08557142,0.17389104,0.11339241,0.11309433,-0.3063571,0.5128882,-0.37323856,-0.3539128,-0.030828476,-0.11528796,0.058442805,0.3892651,-0.40854287,-0.09495084,0.3167439,-0.090625614,0.13960673,0.3056937,-0.11458872,-0.20068276,0.1234399,-0.5816965,0.14802593,0.8173806,0.26747525,0.027422981,0.081015125,0.17218712,0.14606372,0.29470205,0.027819397,-0.23865175,0.38131434,0.158384,-0.5296148,-0.11249782,-0.1346415,-0.17370519,-0.3790396,0.62783724,0.22850654,-0.38022307,-0.39382178,-0.123739846,-0.18466507,0.38472533,-0.049980566,0.072811544,0.070849925,0.63080156,-0.12415614,0.28792676,0.49862927,-0.07976116,-0.32338625,0.010731605,0.21192154,0.15540215,0.42092645,-0.27612913,0.26840997,-0.047202446,0.12401753,-0.20534311,-0.2229211,0.28175625,-0.05096451,0.063238084,0.11038962,0.5829946,0.5160204,0.20601219,0.44397932,0.29302654,0.0026511108,0.47539097,0.4678276,0.12505724,0.18579221,0.07710561,0.008525188,0.19507755,0.0006467113,0.2051931,0.36663622,0.056350518,0.71885645,0.24093387,0.39839822,0.73485625,-0.6011864,-0.3829759,0.03002052,0.57430506,-0.42327964,-0.045844022,0.22289395,-0.24634612,0.19963658,-0.5023138,-0.24440216,-0.0017465949,0.010731609,0.044480875,-0.054722697,-0.027754787,0.21057363,-0.008053935,-0.21037304,-0.34934127,-0.30159485,-0.26066607,-0.02037144,-0.12749203,-0.0016543148,-0.1532602,-0.2517345,-0.03192137,-0.039308235,0.310538,-0.15774676,-0.19471315,-0.010066491,0.25619635,0.18559039,0.6292896,-0.033430386,0.22036304,-0.3530188,-0.18657342,-0.11425245,0.024112478,0.015544349,0.017209042,0.521761,-0.4069498,-0.12808907,-0.1321322,0.18221855,-0.31061187,-0.14264005,-0.07025654,0.1499965,0.1585789,0.12980722,-0.29256952,0.011857817,-0.18269075,-0.34121585,0.25135136,0.05604159,-0.24575724,0.1268084,0.2500877,0.15572137,-0.2244021,-0.08872987,-0.19851132,0.08809053,-0.02525886,0.38853693,0.01920876,-0.2246622,-0.3431182,0.29735056,-0.15163615,0.0853106,-0.0077025965,0.4115064,-0.21140802,0.13326305,0.27165425,0.09712583,-0.29789186,-0.35770598,-0.080403894,-0.38854733,-0.04834014,-0.103143334,0.11797735,-0.24582738,-0.017493892,-0.2815011,-0.23277077,-0.27323303,-0.017697092,-0.02744715
11981094.pdf,-0.36669892,0.11178429,0.505319,0.05600416,0.4102434,-0.074707955,-0.15522347,0.08726481,0.0038968273,-0.11980312,-0.25216293,-0.3182919,-0.17848471,0.24945182,0.23022321,0.25724125,0.19049308,0.03991747,-0.06348151,0.27996683,0.2715973,-0.08529435,0.002726635,0.51935905,0.19726282,-0.068016216,-0.09166557,-0.21632497,-0.3517084,-0.09894431,0.2595307,-0.04425067,-0.18817496,-0.4223917,0.09805213,0.017622996,-0.17148572,0.08915166,0.041872635,0.17519292,-0.45098782,-0.49767947,0.18241397,0.065276444,-0.030177997,-0.076470256,0.3218517,0.04227501,-0.057690714,-0.03997164,-0.50946367,0.32563478,-0.21373197,-0.17822096,0.27093637,0.53108,0.19968557,-0.6239016,-0.24647313,-0.24583994,-0.025513306,-0.15434635,0.26805812,-0.01769729,0.3192832,-0.16512594,-0.029261285,0.38260615,-0.6207448,-0.05118674,-0.059877705,0.17735541,-0.18990225,-0.1254538,-0.0068704593,-0.20137763,-0.03517086,0.41749656,0.07869989,0.16302492,-0.15722558,0.2974701,-0.00442216,0.3494772,0.26751882,-0.04409014,0.30693254,0.25798604,-0.4876081,0.491432,0.13171759,-0.19091727,0.42889136,0.11141137,0.32651758,0.14913937,-0.122354455,0.13174053,-0.059931256,-0.05645039,-0.031484123,-0.13974598,0.057248443,0.0023098146,-0.18131718,-0.09987378,-0.12579156,0.37835467,-0.21783546,0.42282045,0.3579592,-0.19851245,-0.10317327,-0.4241253,-0.03237485,-0.16111131,-0.09259542,0.022588389,0.4129656,0.0021856986,0.26312774,0.19709532,0.08886302,0.84403133,0.06104213,0.10386774,-0.024952391,0.28928304,0.17501375,-0.19314484,0.048974838,0.123949006,0.07528408,0.06994749,-0.0592157,0.19044815,-0.094913736,-0.17945917,-0.11078362,-0.04196588,-0.2325621,-0.42144695,0.34543222,0.16709712,0.16843747,-0.00761595,-0.10595177,-0.068225496,-0.18911603,0.4011905,-0.0061558485,0.32008868,-0.07258617,-0.23622692,-0.08259684,0.2817979,-0.01714891,0.09332117,-0.14897758,-0.14448187,0.5151483,0.40121704,-0.4068327,0.2674219,-0.032778814,-0.017830001,-0.21054396,0.12085081,-0.13341941,-0.008427132,-0.058212705,-0.17299566,0.32060385,0.11478248,0.26429152,-0.014176583,0.37023693,-0.23637426,0.09878051,0.055323143,-0.6357019,0.20341538,-0.11868348,-0.17191271,0.042762216,-0.029609557,0.45597133,-0.17698067,0.04673072,-0.25908226,-0.42568564,-0.5142194,-0.26176256,0.21145761,0.42356312,-0.3020354,-0.10936846,0.08259486,-0.32003492,-0.066318765,0.3543771,0.14361092,0.060574442,-0.17870782,-0.10439823,-0.50345397,-0.043745495,-0.40989944,-0.28259057,-0.02723707,-0.32581168,0.060358997,-0.06991195,0.14482528,0.11719689,-0.022105426,-0.19682346,-0.2005252,0.31036252,0.0475598,0.19735453,-0.006289535,-0.3429861,0.5543574,-0.5578644,0.73709357,0.21923645,-0.8129133,0.3957739,0.22737244,-0.021202786,-0.17368904,0.18145494,-0.4818724,0.18426518,0.10772847,-0.15851331,-0.116205476,0.18905646,-0.20344615,-0.17947134,0.7076893,0.34727713,-0.22496313,0.14244694,-0.21638899,0.034840964,-0.15059748,-0.13335034,-0.35009396,-0.50080323,0.16116959,-0.096427724,-0.48382226,-0.08172892,-0.19245459,-0.092369504,-0.4369749,-0.4000616,0.19307163,0.23191904,0.14289017,-0.03176813,0.0012816004,-0.07154906,-0.62818253,0.01942204,0.24385607,0.49748665,0.29921943,0.17401946,-0.067492835,-0.081786305,0.42451388,-0.31225607,-0.13783522,0.25330073,-0.002980778,0.013284748,-0.23908699,0.14186336,0.22202988,-0.07315708,-0.0047237845,-0.060219582,0.025330279,0.27049068,-0.18175498,-0.27669254,-0.32477352,0.005909277,0.3497516,-0.42431593,0.15200438,0.4265786,0.19489533,0.113525644,0.22951733,0.21191695,-0.02433969,-0.40489143,-0.28824744,0.11265808,0.09818779,0.20494823,-0.02944417,-0.17003672,-0.49490243,-3.3006349,-0.22528607,-0.03269726,-0.16985929,0.2872299,-0.2539767,0.01874803,0.13956852,-0.1330482,0.28464544,-0.1598016,-0.13535887,0.08399469,0.15012634,0.17071283,0.21071738,0.032315545,-0.00837668,0.012002127,0.2201069,-0.37993062,-0.77505165,0.18572265,-0.22721255,0.20505989,0.19196819,-0.35433203,0.09024462,-0.19277444,-0.16232154,0.04027503,-0.22350806,-0.107801616,0.40081683,-0.050806187,-0.17778179,0.21710984,-0.22198874,-0.21145217,-0.6011684,0.20434971,-0.65790296,-0.03441221,-0.13419016,0.6061039,-0.21885368,0.15657805,0.1280635,0.18387811,0.16474682,0.06587228,-0.11627592,-0.31889313,-0.17326848,0.034017168,-0.3340543,0.2101852,0.39860538,-0.34406924,0.12914063,0.23773812,-0.25859278,-0.30368808,-0.42995307,-0.16120112,-0.13962929,-0.55708295,-0.21434794,-0.10824826,0.01733846,-0.26643106,0.6724737,-0.14053673,-0.3500143,0.11170998,-0.5610738,0.19415607,-0.12736368,-0.22990471,-0.11596842,-0.2110106,-0.37096554,0.4036439,0.02302517,-0.3684482,-0.029500423,0.021279449,-0.31540933,-0.039224025,-0.3703487,0.29674867,0.018945724,0.27652806,-0.006837759,0.35305268,-0.0038545784,0.42200607,-0.12433399,0.16097325,-0.50357264,0.1566653,0.02957033,0.4521839,-0.3203712,-0.14784333,0.10424314,-0.33676812,-0.15517715,0.29570276,0.11589849,0.00218454,-0.118935764,0.18332595,-0.628822,-0.23425184,0.15809047,0.115362465,0.69262683,-0.034645773,-0.2944642,-0.24714567,0.3552816,-0.021057274,-0.21464363,-0.22805756,0.09101299,-0.19134569,0.27924216,0.07710967,-0.20314437,-0.2633224,-0.10273375,-0.020266116,0.122351475,0.27141613,-0.03398331,-0.21729779,-0.39104074,0.11212813,0.120432205,0.2163423,0.2934044,0.050221696,-0.1269131,0.11272723,0.34737927,-0.1411084,0.32569334,-0.19393273,0.009206897,-0.6119768,-0.2613087,-0.17210515,-0.091569304,-0.1577314,0.2606748,0.23135814,-0.105711564,-0.11672588,-0.3954553,0.30281588,-0.13725626,0.21047759,0.064251065,-0.11531349,0.5833721,0.06804079,-0.13434944,-0.03145202,-0.19241804,-0.28798997,-0.2684834,0.11337049,-0.41927356,-0.12650327,0.43832302,0.20793527,-0.3592651,-0.06283328,0.44462985,0.1924491,-0.08332899,-0.27087423,-0.017216021,0.25001985,0.13548976,0.16073586,-0.3429468,-0.10289286,0.17562786,0.09748122,0.41013712,0.042403582,0.1650919,-0.055504896,-0.28159013,0.5742398,0.13100754,-0.16204101,-0.25829652,0.028425151,-0.14480537,-0.49355173,0.22449344,-0.0065786713,-0.24081185,0.14925103,0.13725066,0.34486693,-0.22153986,-0.06559006,-0.083111234,-0.3693031,-0.059087135,0.12635241,-0.32482582,-0.009284778,-0.06340453,-0.45845717,-0.0038336292,-0.18430655,-0.05889911,-0.004559871,0.0083978735,-0.26949248,0.016268583,0.04938479,0.034192644,-0.43729198,-0.3827328,0.37897468,-0.879066,0.09527655,0.0944703,0.08743173,-0.1224896,-0.29571825,-0.764898,0.20548272,-0.28770727,-0.121067934,-0.03173475,-0.24325906,-0.37629437,0.082678646,-0.13545614,-0.34764338,0.44368768,-0.35605484,0.32427388,0.060603656,-0.119335145,0.0912985,-0.23565564,0.33618647,-0.2165414,-0.36863798,-0.12123403,-0.48376197,-0.354014,-0.18044922,0.07445308,-0.112369865,0.010061774,0.41422412,0.21689095,-0.049598124,-0.2262507,0.024993893,-0.28004616,0.041524574,-0.14798209,0.09408137,0.004649147,0.101934776,-0.008906236,-0.056175984,-0.26186347,0.59111536,-0.1609464,-0.39748478,-0.21215233,-0.16421045,0.27215365,0.22155717,-0.39579412,0.22942412,0.16446133,0.18213646,-0.017169185,0.17711425,-0.015163068,-0.105470344,0.073361784,-0.59274995,0.09935565,0.64222556,0.07906235,-0.16985092,0.3050822,0.20335329,0.29159617,0.32771432,-0.039031345,-0.13494107,0.25241506,0.048036017,-0.5578169,-0.1487705,-0.10927743,0.118389495,-0.27299595,0.61256754,0.14087906,-0.5465257,-0.27204394,-0.068436176,-0.09680056,0.33323646,-0.17434695,0.08185446,0.008299205,0.52409756,-0.044651963,0.42933902,0.46199825,-0.04932811,-0.27906534,-0.14815763,0.19394502,0.31321576,0.23415902,-0.27009988,0.03948953,0.009184269,0.08900327,-0.1437116,0.27629152,-0.09746685,0.014574446,0.1301711,0.08440762,0.22436398,0.3399448,0.16914758,0.34001815,0.35410717,-0.042183474,0.4896277,0.59238684,0.20763633,0.073494546,0.05819764,0.17338431,0.07222761,-0.026066164,0.25193685,0.4355693,0.19295606,0.6094358,0.24151403,0.29604644,0.7098303,-0.5817083,-0.3850693,-0.14696454,0.4766769,-0.2795862,-0.10597168,0.059261072,-0.07183947,0.39332122,-0.32329082,-0.04687324,0.031509995,-0.122086674,0.14354265,-0.06186939,-0.2709028,0.15684742,-0.14374574,-0.37864047,-0.09614609,-0.43034273,-0.21102932,0.033067133,-0.13737048,0.03226899,-0.02222925,-0.4174737,-0.0990455,-0.26287362,0.28931352,-0.19951037,-0.12981,-0.2474521,0.2934727,0.15169956,0.68846124,-0.013454637,0.2987719,-0.18258289,-0.3324729,0.1328416,0.13069703,0.17841235,0.003977984,0.4061458,-0.43137825,0.08123323,-0.058419272,0.2462053,-0.22790368,-0.20084694,-0.06460167,0.18415225,0.18988433,0.068165496,-0.31717294,0.07942186,-0.33645654,-0.4750459,0.29641396,-0.054201845,-0.09138954,-0.045680054,0.36514977,0.17732975,-0.053167548,-0.041173656,0.033375014,0.10544808,0.16349737,0.44470453,-0.09777975,-0.11775129,-0.35312426,0.45741427,-0.107216924,0.12810954,-0.085430786,0.4005341,-0.10571145,0.11999736,0.023604825,-0.10360982,-0.25998998,-0.42106897,-0.28948423,-0.2068642,0.033438522,-0.037355892,0.09259492,-0.34327978,-0.03188204,-0.13786177,-0.18480918,-0.08956075,-0.043612517,-0.0065064356
12011623.pdf,-0.30709112,0.21615851,0.37644136,0.100434095,0.5912559,0.060200796,-0.1022657,0.21392107,-0.022421774,-0.24891493,-0.06928341,-0.29121608,-0.07246854,0.14095706,0.094893724,0.57954013,0.21012643,-0.007742554,-0.1485718,0.44316828,0.21649332,-0.20197055,0.0009763278,0.6741613,0.32167137,0.010120343,-0.07973517,-0.06704482,-0.48038295,-0.12124101,0.41333783,0.07225784,-0.11470984,-0.33872136,0.1503774,-0.017936438,-0.30141342,0.047126118,-0.14360008,0.13424347,-0.48814964,-0.24344161,0.008366207,-0.0004892051,-0.314587,-0.22286472,-0.06430506,-0.054097593,-0.007896677,-0.050005972,-0.53702563,0.4199127,-0.10446654,-0.2643343,0.19450685,0.71191186,0.088336155,-0.49934393,-0.3634603,-0.4560736,0.16756885,-0.17122018,0.09616396,-0.20476158,0.27548707,-0.06048713,0.082749695,0.26638013,-0.66293836,-0.11669071,-0.25179744,0.17879854,-0.28759697,0.011123477,-0.39084953,-0.05839746,-0.003854139,0.42785054,-0.053093586,0.12145132,-0.21438459,0.23658395,-0.18788347,0.23416308,0.17326757,0.1666612,0.26420537,0.34546202,-0.5079396,0.38035432,0.1655213,-0.17954239,0.3545478,0.2638343,0.26836175,0.17021623,0.08311473,0.19648837,-0.13461524,0.12941869,0.06248793,-0.21662974,0.14890985,-0.06915351,-0.024992365,-0.016460802,-0.031747833,0.33175784,-0.443205,0.35090876,0.11794984,-0.20711288,-0.16949564,-0.53015125,-0.0936506,-0.06385792,0.059026953,0.229192,0.28601256,0.1695122,0.1005813,-0.04926868,0.12999022,0.9093474,0.038266797,0.1417473,-0.13178104,0.3250413,0.109081686,-0.11504908,0.09614042,0.17126667,0.021268789,0.017281216,-0.28514817,0.17839596,-0.3148977,-0.24019593,-0.118599355,0.08133024,-0.096813284,-0.7238585,0.5976628,-0.080000855,0.13886425,-0.29359487,-0.04168954,-0.064426705,-0.07762491,0.4262525,0.20094864,0.16768299,-0.3042549,-0.36206782,-0.05177752,0.27381685,-0.40367913,0.14405808,-0.16371432,-0.093318716,0.33039427,0.25895414,-0.53691745,0.22788598,-0.05188904,-0.22542779,-0.07421252,0.34620756,-0.33567286,0.13664785,-0.067873605,-0.06707875,0.5411793,0.17269596,0.24892548,0.043932572,0.28102112,-0.14291677,0.25442427,0.100384645,-0.5650443,0.42085633,-0.05314959,-0.19619939,0.18128417,-0.035498586,0.5815336,-0.31586045,0.014464689,-0.32892042,-0.37940013,-0.4698797,-0.18363792,-0.047130313,0.2733741,-0.28228575,0.009403107,0.14332828,-0.5839964,-0.20211226,0.13480017,0.13754432,0.104170986,0.13268754,0.01711763,-0.68460464,0.10178593,-0.43372494,-0.3557882,0.09578693,-0.3672729,0.06412021,0.0009211623,0.14586264,0.010698546,0.11302118,-0.37869763,-0.02481183,0.21854939,0.018473234,0.2507608,0.12112281,-0.5067594,0.4729516,-0.39344054,0.558759,0.19380271,-0.8842684,0.574984,0.17865294,-0.042717032,-0.24461918,0.453866,-0.39675573,0.04759673,0.11550772,-0.063898206,-0.06837637,0.24559967,-0.16920595,-0.35720193,0.64906955,0.1760824,0.07998646,0.21141805,-0.14204293,-0.07874398,-0.0522687,-0.24304801,-0.21146208,-0.5336219,0.20032975,-0.08744642,-0.4571203,-0.020330092,-0.27260044,-0.18576309,-0.4758479,-0.20893273,0.27146465,0.14864404,0.15191182,-0.037189618,-0.027942585,-0.04264364,-0.65150374,-0.035287995,0.10447015,0.4376264,0.44446737,0.21248353,-0.17788474,0.10684898,0.49422637,-0.39422774,-0.36552465,0.17519185,-0.021656312,-0.08595503,-0.17880973,0.09474023,0.35806972,-0.22541788,0.10104875,0.035354245,-0.102751255,0.33378118,-0.027264638,-0.232025,-0.24887693,-0.10951191,0.3772822,-0.59774005,-0.28925043,0.44918746,0.20190564,0.12336369,0.13955706,0.30384487,-0.04374574,-0.28124252,-0.36272913,0.21754244,0.15913832,0.17215414,0.065868385,-0.045028284,-0.6347743,-3.228189,-0.14660032,0.191632,-0.27151412,0.26135755,-0.1102848,0.072170496,0.06293058,-0.4551945,0.07619952,-0.17813942,-0.11675947,-0.054628458,0.28105783,0.2709077,-0.010938728,0.1621084,-0.22203144,0.056399353,0.49184185,-0.1661049,-0.7417019,0.050170787,0.033990413,0.15823388,0.19230282,-0.46412677,-0.044288322,-0.3211164,-0.261151,0.04789541,-0.21458063,-0.30441502,0.44107562,0.16200626,0.012736394,-0.00043560937,-0.28423747,-0.046424426,-0.514271,0.092356816,-0.59150016,-0.07849365,-0.059947927,0.74828243,-0.12622894,0.29920378,-0.04036292,0.24749756,0.1339099,0.18934804,0.024075503,-0.16528341,-0.16350242,-0.117519796,-0.22295848,0.65506566,0.2738619,-0.23708904,0.0350703,0.17803344,-0.30359495,-0.35109532,-0.35187542,-0.26690593,-0.14524005,-0.62414813,-0.33003956,-0.21867904,-0.08909099,-0.062463395,0.60414,-0.29057467,-0.23224851,-0.10583962,-0.53427935,0.26049024,-0.33114803,-0.029525347,-0.20459402,-0.32527345,-0.5777628,0.3105194,-0.05459546,-0.23361623,0.00041465042,0.046798058,-0.08758497,-0.46439958,-0.5899333,0.28438115,0.14808702,0.34139323,0.06253934,0.42488462,0.04760132,0.5257466,-0.10583031,0.14514674,-0.4877739,0.030232321,0.104475714,0.5813813,-0.22112614,-0.1225568,0.020135831,-0.28340837,-0.0910516,0.34719592,-0.06457943,0.1203257,-0.03646331,0.25204659,-0.4130633,-0.15087384,0.098921746,0.10672666,0.7185118,0.03183954,-0.22239834,-0.12569706,0.3249938,-0.26959333,-0.13788307,-0.046639673,-0.003605539,-0.14619884,0.44932064,0.021535102,-0.21700399,-0.28576854,-0.07148346,-0.111823894,0.26663536,0.2888221,-0.03330593,-0.10352461,-0.3400431,-0.08609394,0.23658045,0.33782387,0.28690514,0.18836161,-0.21348736,0.04512418,0.32478416,-0.15183595,0.34964418,-0.1979894,0.19874021,-0.7734506,-0.24000871,-0.1883881,-0.31757897,0.15112959,0.44301283,0.12576418,-0.095432654,0.058750212,-0.5375453,0.38428846,0.07235503,0.30143097,-0.03541026,-0.20453566,0.7394166,-0.053099692,-0.078652926,-0.012232535,-0.056268163,-0.29859763,-0.33378744,0.14428475,-0.39197505,-0.12778579,0.4316281,0.28793073,-0.23829094,-0.2421403,0.28458932,-0.017820558,-0.19158041,-0.18681315,-0.0527255,0.2146179,0.2141311,0.122601695,-0.3855825,0.011054484,0.098223865,0.031293437,0.29266125,-0.0032484923,0.1500273,-0.13813278,-0.041212846,0.52718115,0.18646924,-0.06980716,-0.028655006,0.07288641,-0.350193,-0.5381584,0.0522393,0.0016748952,-0.26150307,0.023973348,0.28625953,0.02465519,-0.120866254,-0.43076015,-0.045697473,-0.45341474,-0.13430856,0.026170991,-0.49928552,-0.075622946,-0.11801627,-0.38254833,0.05620456,0.060055044,-0.06776818,0.050296776,0.08041979,-0.19550768,-0.19031234,0.20515305,0.09818638,-0.2955003,-0.2384131,0.13379328,-0.92128736,0.07417212,0.09147796,-0.13740027,0.031205155,-0.11574353,-0.6983526,0.30564803,-0.43553478,-0.094222546,0.01414641,-0.27719828,-0.20361094,0.28096798,-0.025747385,-0.30716768,0.33642268,-0.27081394,0.4751897,-0.028953737,-0.023417652,0.15493184,-0.06056229,0.17198023,-0.29635644,-0.36621875,-0.16986775,-0.34919047,-0.18776198,-0.1345593,-0.16021554,-0.07507253,0.13342908,0.47367045,0.28631595,-0.10350267,-0.15373121,0.14626646,-0.5321964,0.20966208,-0.26716992,-0.05106493,-0.03651916,0.17934684,0.040285062,0.13618124,-0.26861906,0.66445327,-0.3674881,-0.4169663,-0.23598112,-0.0062542967,0.07939215,0.2728254,-0.38443315,-0.04558923,0.2752186,0.026323533,0.072806805,0.27179193,-0.044711247,-0.15722497,0.05688971,-0.5146285,0.08788911,0.7958691,0.25953066,0.10011574,0.08612327,0.21116558,0.14917094,0.34420025,0.023306219,-0.09247747,0.29439864,0.065471105,-0.51659584,-0.12161507,-0.14106874,-0.08873549,-0.39350373,0.56400645,0.22815305,-0.39491084,-0.46611953,-0.08381189,-0.06518839,0.574185,-0.052242603,-0.06766754,-0.017675184,0.6037202,-0.17658606,0.22095507,0.62241125,-0.11452558,-0.31208092,0.0026098015,0.22758369,0.1115772,0.44678238,-0.27477843,0.19175091,-0.048762303,0.07957847,-0.1620668,-0.026187036,0.20497707,-0.03663546,0.08883166,0.013360262,0.48287082,0.5424261,0.1838128,0.40333173,0.30930433,-0.106812626,0.35496497,0.6265074,0.14564748,0.016152566,0.21577215,0.17217271,0.07781696,-0.047136173,0.29353014,0.4933486,0.09192418,0.80820894,0.17817111,0.35841164,0.6636107,-0.6779902,-0.4410645,-0.07544901,0.6301112,-0.3663144,0.01804516,0.19895217,-0.10814005,0.23681806,-0.5093009,-0.18092333,0.019509116,-0.008564287,-0.027962575,-0.066620775,-0.163207,0.19488439,-0.06084849,-0.03983229,-0.21448775,-0.27543852,-0.20734344,0.100016676,-0.13429508,0.06506792,-0.010736767,-0.19693778,0.02658761,-0.067963645,0.32222468,-0.23731115,-0.1442751,-0.064355746,0.15479897,0.07185699,0.6302843,-0.12977615,0.14462352,-0.08534436,-0.21099684,0.003530826,0.0073673753,0.11907003,-0.012037165,0.5129021,-0.34812766,-0.23504744,-0.047199562,0.19940618,-0.33563426,-0.17967552,-0.14051172,0.047181986,0.006312456,0.037289463,-0.3181758,0.004973024,-0.31612486,-0.48380834,0.32817692,-0.0758628,-0.22296447,0.1416067,0.40646714,0.15673903,-0.19577795,-0.014174614,-0.08988747,0.18071298,-0.10439334,0.30945247,-0.005805243,-0.27526265,-0.37432718,0.27149466,-0.034454115,0.18947938,-0.08340118,0.26625714,-0.08370561,-0.011422098,0.28321368,0.13150701,-0.28523183,-0.32839513,-0.137584,-0.14800335,-0.0015419684,-0.055863295,0.05338891,-0.2832979,0.0026697777,-0.37121618,-0.19257745,-0.29397658,-0.08309324,-0.059946865
12022566.pdf,-0.37247682,0.13281675,0.3534549,0.11444034,0.5210535,0.14540651,-0.08309552,0.114449695,0.002997268,-0.29507655,0.05416902,-0.32714164,0.031944025,0.21499093,-0.021345098,0.6598767,0.21368043,-0.16709235,0.018431177,0.39242262,0.23535362,-0.19306986,0.3768237,0.556586,0.199064,-0.12482664,-0.06727037,-0.12402734,-0.3385343,-0.0842866,0.45306307,0.22917981,-0.10927705,-0.38198978,0.106131524,-0.030261897,-0.22651428,-0.12966599,-0.11440727,0.25553533,-0.605641,-0.37224203,-0.14685836,-0.038245447,-0.21234521,-0.22773546,-0.006707035,-0.1034056,-0.18614835,-0.20747435,-0.479922,0.35009342,-0.1805656,-0.28614327,0.035363056,0.7658349,0.0088835675,-0.3804584,-0.3490981,-0.2786755,0.054324973,-0.15545326,0.21585357,-0.053804345,0.13609557,-0.20316052,0.035088427,0.31345874,-0.49034935,-0.13309638,-0.32505518,0.23246995,-0.25128382,0.09626871,-0.29303378,-0.26778024,-0.034646787,0.48853242,-0.007727299,-0.04348759,-0.2095553,0.21016246,-0.14467831,0.105280146,0.18748987,0.14412652,0.3697983,0.32129502,-0.51944745,0.424825,0.25488374,-0.21848746,0.40124118,0.16528258,0.10860697,0.022718595,0.008689109,0.12766202,-0.13603258,0.17952213,0.17985523,-0.15724766,0.14077888,0.04590685,-0.064602114,-0.25727913,-0.03436952,0.281404,-0.32041973,0.26838982,-0.06802855,-0.05617827,-0.06694015,-0.54733515,-0.12825534,-0.0914163,0.08749671,0.24527228,0.325612,0.18162845,0.2287787,0.100448295,0.15961722,0.9847164,-0.0075389855,0.15492406,-0.12086505,0.23189008,0.13305521,0.12802632,0.0817017,0.14450052,-0.05056069,-0.09566024,-0.34070176,0.2133526,-0.22811395,-0.17435856,-0.18161914,0.107331894,-0.34955037,-0.57924044,0.5417719,-0.040577427,0.06862887,-0.26770228,-0.17600995,-0.06375702,-0.021599311,0.40353656,0.21703379,0.12570429,-0.25777584,-0.19306533,-0.12798716,0.15907988,-0.36733007,0.19585791,-0.17396837,-0.07062295,0.29843634,0.23813185,-0.4704465,0.33561492,0.10985091,-0.22033116,0.13747644,0.43905848,-0.26530856,0.011695046,-0.059521206,-0.2774378,0.49990398,0.06562309,0.2336739,-0.008645123,0.16833423,-0.24182728,0.041917324,0.34597817,-0.52767766,0.44969153,0.021881286,-0.050154205,0.13873506,-0.15286483,0.43831757,-0.27820575,0.09139766,-0.21005714,-0.28431576,-0.40431583,-0.14952523,-0.05664642,0.345415,-0.23616561,0.064830475,0.08182929,-0.52485585,-0.027887411,0.20794979,0.064605154,0.21852198,0.1612153,-0.04666344,-0.49187884,0.13748124,-0.36067408,-0.22622265,0.16356732,-0.13075443,-0.026270922,0.118442394,0.060265422,0.099515006,-0.09123175,-0.29676074,-0.044749625,0.3930183,0.047824115,0.21483934,0.1128616,-0.40114397,0.57370406,-0.298418,0.5820292,0.23664472,-0.93646705,0.3587522,0.33447313,-0.10031613,-0.2532037,0.44940275,-0.3776388,0.18859658,0.14264262,-0.09202726,0.047674816,0.27437985,-0.22925049,-0.28020918,0.6432959,0.3161437,0.10578378,0.2019536,-0.20644465,-0.11280538,-0.14160885,-0.20099595,-0.38557017,-0.6275848,0.19162214,0.07684998,-0.34608752,-0.117918044,-0.3358707,0.03707738,-0.4936974,-0.1805976,0.11564169,0.18364212,0.30111858,-0.015831938,-0.14775199,0.044226553,-0.6320671,-0.098515145,0.088377565,0.29762006,0.2578605,0.25073758,-0.1607747,-0.06416183,0.43487573,-0.36621302,-0.3273325,0.30791503,0.12263738,-0.2217538,-0.24119046,0.09182204,0.41471484,-0.074046336,0.022385824,0.11639664,-0.08593094,0.16400976,0.06351111,-0.14253713,-0.3258663,-0.10193402,0.2670086,-0.562188,-0.18845838,0.42406967,0.10586244,0.10201556,0.13092324,0.29333138,-0.13654289,-0.29742917,-0.3955661,0.3235476,0.2806502,0.00866086,-0.12322608,0.06352682,-0.37695622,-3.6286492,-0.24374655,0.09842083,-0.22258954,0.24965201,-0.14981368,0.06841955,0.07802909,-0.32444978,0.06448877,-0.21114641,-0.2342206,-0.028411511,0.19895189,0.13943183,0.035119914,0.12703523,-0.22856042,0.101830736,0.48898506,-0.076680414,-0.7500579,0.086105764,0.05369888,0.12880103,0.027207049,-0.48718396,-0.05142004,-0.36851144,-0.14036101,0.06958458,-0.27825803,-0.23300378,0.3067433,0.15538299,-0.08444654,0.041181542,-0.3520835,-0.024902062,-0.34045032,-0.02828115,-0.5550144,0.07550484,0.1206162,0.6398872,-0.04824079,0.28831333,0.1600472,0.22294983,0.08196796,0.29674816,0.03283967,-0.1276285,-0.15494315,-0.19709729,-0.16073579,0.425474,0.20850258,-0.14874695,-0.11037323,0.0012314506,-0.105368756,-0.4572944,-0.37074673,-0.17998837,-0.036738023,-0.5931417,-0.13002297,-0.09876913,-0.06458745,-0.1879896,0.5608852,-0.30479753,-0.20896813,-0.22389658,-0.4412111,0.29899985,-0.18870527,-0.0074712103,-0.20444712,-0.45032936,-0.41456103,0.3455894,0.06325425,-0.15676337,-0.11336099,0.05534197,-0.2685334,-0.36691087,-0.41291866,0.35897475,0.042806607,0.37782577,-0.045221984,0.37493175,-0.007215958,0.48928598,-0.13829452,0.094557434,-0.47875887,-0.03377651,0.1948565,0.48015103,-0.24262676,-0.0144992415,0.064300224,-0.28853434,0.026153674,0.2909845,-0.090753675,0.11763616,-0.18693152,0.28890184,-0.48251516,-0.16560826,0.10679099,0.12561592,0.6616944,0.10366775,-0.32190365,-0.18831146,0.24166642,-0.23901637,-0.37780067,-0.086357415,0.04062027,-0.2783711,0.45719242,-0.016402023,-0.08332533,-0.3349973,-0.080264725,-0.2848082,0.25714827,0.3067788,-0.059053726,-0.1358505,-0.33521745,-0.043343633,0.14706162,0.15274651,0.19978705,0.20486051,-0.28147423,0.028940372,0.20985171,-0.051291294,0.32288435,-0.15901488,-0.038875587,-0.5941411,-0.3765106,-0.0838382,-0.16913998,0.018125098,0.41628617,0.2577199,-0.21201137,-0.048762232,-0.50043416,0.44453645,-0.040234707,0.18324517,-0.12540127,-0.18844339,0.8391075,0.14824022,-0.2585741,0.13646562,-0.10495357,-0.34558457,-0.42855477,0.019531514,-0.383314,-0.1021556,0.44867617,0.2040112,-0.3362667,-0.4279207,0.38808197,-0.0060211755,-0.09623519,-0.16739431,0.026263075,0.28997973,0.047174115,0.16042012,-0.41969943,0.019574303,-0.021220792,0.061942462,0.32767034,0.16889778,0.09756725,-0.0064702374,-0.19709101,0.5110158,0.13261026,-0.19419652,-0.07932695,0.14698428,-0.22410475,-0.29101816,0.1389817,0.051052015,-0.25746068,0.018035984,0.41288924,0.037803896,-0.12660967,-0.55557823,-0.26869828,-0.36301997,0.018586058,0.07610173,-0.49627453,-0.09112345,-0.22760358,-0.40588373,0.14214888,0.20729762,-0.014760648,-0.16968489,0.040552616,-0.058688186,-0.18553242,0.31383306,-0.17539026,-0.24732684,-0.14648616,0.02038801,-0.8326513,0.09788008,0.17418353,-0.1550282,0.030789405,-0.008236449,-0.6991682,0.2088627,-0.2764022,-0.21875942,-0.015736643,-0.26661092,-0.2760762,0.17185156,0.11536068,-0.052185815,0.39257008,-0.22326627,0.5471147,0.018473094,-0.060989656,0.07779567,-0.23167571,0.2358366,-0.37505084,-0.28414908,-0.050445765,-0.34038037,-0.18612157,-0.29014617,0.05748234,-0.114950515,0.054305796,0.41941106,0.3079572,-0.07668292,-0.15199809,0.0662559,-0.43278146,0.4521218,-0.3329966,-0.045567185,-0.033343058,0.2715422,-0.020982433,0.064431444,-0.20376042,0.73444486,-0.22428179,-0.386139,-0.19037662,0.12237184,0.06456496,0.26510575,-0.29865772,0.014269829,0.13652003,0.0903527,0.116848215,0.5559994,-0.22025749,-0.15228724,-0.14986989,-0.53178716,0.17259297,0.583725,0.20341355,-0.017868033,0.06531427,0.07484321,0.15236658,0.4471117,0.061746858,-0.2047427,0.2715384,0.19239932,-0.6504639,-0.2352795,-0.18690386,0.041282706,-0.2625447,0.5601902,0.17345019,-0.33733833,-0.27895772,-0.21204382,0.01845645,0.23608318,-0.013203883,-0.060268946,0.1936048,0.6187786,-0.24583289,0.25939378,0.49098492,-0.08385186,-0.32043102,-0.095659226,0.28988582,0.38983178,0.37199843,-0.16996467,0.34557867,-0.048798475,0.27748618,-0.22649297,-0.2656653,0.096777886,-0.06328616,0.045215175,0.07303132,0.5492623,0.45468742,0.26977795,0.34444666,0.38287586,-0.03757376,0.529516,0.5461465,0.043412946,0.0044159084,0.12840587,0.069060914,0.096919,0.028113663,0.12611723,0.5277878,0.11748256,0.77356327,0.20949769,0.42900312,0.6094577,-0.6638547,-0.3051523,0.09569273,0.42102876,-0.3440771,-0.10095157,0.11835694,0.003399007,0.08388756,-0.40732026,-0.19222173,-0.037719723,0.30583096,-0.06326943,-0.062094662,-0.08436135,0.34175628,-0.035634033,-0.14526731,-0.23174755,-0.3043978,-0.4161596,-0.08846965,-0.2096053,0.1333654,-0.06457524,-0.2508601,-0.08584458,0.011869417,0.48290616,-0.2776047,-0.3072837,-0.06747027,0.19054511,0.010784011,0.701439,-0.08243482,0.20746382,-0.291119,-0.20648819,-0.11150178,0.21144158,0.09061904,-0.04520934,0.7509308,-0.40800047,-0.08866136,-0.005050916,0.2228302,-0.3137005,0.039375085,-0.11487113,-0.061562598,0.0770053,0.0637531,-0.3221718,-0.21269116,-0.36437333,-0.5771264,0.12405503,-0.027341867,-0.3484255,-0.115116455,0.38073558,0.18946636,-0.13595863,-0.05741533,-0.12699175,0.13918772,-0.028328206,0.28383052,-0.23424914,0.028062383,-0.18139338,0.29672587,-0.11338636,0.26004004,0.09214107,0.28782177,-0.0842906,0.23202442,0.24883309,0.010849512,-0.21550336,-0.3169102,-0.13775516,-0.21791904,-0.025845148,-0.120270774,0.23171508,-0.07070026,-0.033217214,-0.41264886,-0.3307751,-0.43199423,-0.047312617,-0.014056344
12472574.pdf,-0.44748852,0.25335523,0.34879395,0.012181375,0.67591107,-0.0047744997,0.018368274,0.15578008,0.01985157,-0.28398585,-0.056655347,-0.21892896,0.033136826,0.036382515,-0.02403156,0.49881753,0.37740833,-0.019233698,-0.21773526,0.44253808,-0.015039708,-0.21484126,0.07429648,0.7867063,0.27299258,-0.12416795,-0.11434577,-0.034644563,-0.28273532,-0.24862373,0.4175303,-0.023299126,-0.12607788,-0.37161297,0.09642953,0.035085917,-0.14808685,0.06866704,-0.09909627,0.13374431,-0.45961148,-0.17496043,0.05624888,-0.039684918,-0.20501737,-0.17563751,0.037784074,-0.2288487,0.055648766,0.06263971,-0.3622443,0.4369296,-0.39103436,-0.20452917,0.34088477,0.69622874,0.016756648,-0.60088605,-0.33033386,-0.3277799,0.16976878,-0.12971696,0.20712367,-0.2716389,0.37467414,-0.13776284,0.02484318,0.33468312,-0.7531891,0.005095101,-0.2976078,0.0881266,-0.36798078,-0.13306743,-0.39035007,-0.12973976,-0.054993995,0.38750857,-0.090758994,0.08219259,-0.30075765,0.2827736,-0.30503583,0.23743057,0.20830044,0.16296948,0.3960271,0.271531,-0.3677435,0.6344929,0.33216736,-0.3244989,0.3216452,0.13413402,0.16450495,0.03164926,0.021840625,0.26762334,-0.18654546,0.17213133,0.19750357,-0.13367265,-0.04753654,-0.05614606,0.14436811,-0.06882898,0.1375537,0.36906326,-0.46320885,0.4807459,0.18828508,-0.22856182,-0.11571946,-0.39488637,-0.19476563,0.019385142,-0.059152413,0.04807606,0.38998854,0.1402676,0.1491668,-0.059177853,0.044334278,0.94578177,0.0065283007,0.04733655,-0.06593696,0.3650513,0.15202487,-0.17064725,-0.026834555,0.2616294,-0.0019318955,-0.06511069,-0.29912356,0.4429837,-0.123954356,-0.19294868,-0.3459093,0.16466764,-0.19084097,-0.62256044,0.48679423,-0.21648605,0.17086846,-0.1469937,0.09188442,-0.018254485,-0.15530731,0.30134743,0.27110958,0.034206666,-0.20856032,-0.25139126,-0.08836402,0.13758348,-0.2421819,0.050900567,-0.34463322,-0.12825032,0.36118668,0.19551212,-0.52075696,0.27725637,-0.0978357,-0.03688564,-0.1618355,0.43057057,-0.08789839,0.12785722,0.07694525,-0.023880193,0.5372653,0.16318592,0.008039362,-0.034317277,0.39339054,-0.13149592,0.18131326,0.1526864,-0.58975714,0.3711784,-0.17508583,-0.009158601,0.047137916,-0.115053326,0.42273545,-0.32363474,-0.15560266,-0.29755825,-0.2591899,-0.46818057,-0.22786082,-0.0071038418,0.36661643,-0.3149467,0.0049952697,0.13759005,-0.6046381,-0.10760948,0.4344356,0.34895208,0.1384845,0.16282532,0.008508427,-0.56091213,0.10570697,-0.3836952,-0.42679852,0.19644079,-0.31252784,0.17166004,0.02596727,0.0765932,0.020557115,0.18180469,-0.23038393,-0.0809081,0.259661,-0.0074935555,0.06817335,0.15704358,-0.43277603,0.5698174,-0.34652197,0.33776388,0.0078089666,-1.043077,0.52290714,0.3895992,-0.032711286,-0.40189844,0.6417475,-0.3916914,-0.019024558,-0.024597846,-0.20927644,-0.15618761,0.22572717,-0.14906058,-0.3075906,0.593572,0.18276927,0.13961606,0.21866024,-0.26571935,-0.1185337,0.099159546,-0.07321714,-0.13143507,-0.5885025,0.0688843,-0.035423607,-0.44406864,-0.1425155,-0.54666924,-0.15243882,-0.41034603,-0.31334567,0.12836151,0.20498617,0.16734388,-0.11129783,0.059597913,-0.13141596,-0.7054342,0.025010947,0.19033733,0.35012108,0.2995234,0.13999707,-0.08405203,-0.017290132,0.5298705,-0.28919125,-0.2404955,0.15762123,0.13903409,-0.09102343,-0.12394151,0.26535356,0.41211358,-0.17413409,0.13109224,0.07838201,-0.09510603,0.42699218,-0.14469181,-0.34850928,-0.2526225,-0.12798037,0.17727634,-0.6767529,-0.19508716,0.55699265,0.20770347,0.1336648,0.30828148,0.22750303,-0.035216175,-0.29059938,-0.3526758,0.30860868,0.1458101,0.059624515,0.003882911,-0.15369044,-0.7328949,-3.3585775,-0.027559575,0.11386244,-0.4113739,0.2368837,-0.09504047,0.22207114,-0.041929696,-0.33865556,0.16621605,-0.19036324,-0.19411883,0.043986455,0.30211163,0.18509984,0.043175977,0.12690493,-0.29366088,0.0881664,0.37343603,-0.07492384,-0.8711554,0.13040715,-0.051213272,0.13675152,0.24313986,-0.44871056,0.032479066,-0.28557736,-0.141364,0.1279028,-0.24243951,-0.30252105,0.26123735,0.20388012,-0.14636227,0.06278823,-0.4026503,-0.024463264,-0.48386258,0.16256735,-0.7331151,0.07302787,0.08161146,0.6113665,-0.15711816,0.2414028,-0.015189711,0.2832284,0.11407278,0.21853909,-0.003916758,-0.24092114,-0.15695432,-0.10075541,-0.25164175,0.7258574,0.20612001,-0.35410333,-0.011557806,-0.014814559,-0.36990657,-0.5089016,-0.26386198,-0.27011582,-0.011629153,-0.754557,-0.39604247,-0.17195435,-0.035506174,-0.053317823,0.73199916,-0.23727459,-0.3928517,-0.049752474,-0.45842674,0.21554244,-0.20282884,0.09933366,-0.269626,-0.33045942,-0.35286063,0.19386168,0.010302607,-0.1708754,0.039053198,0.10089129,-0.10662621,-0.42530173,-0.5040723,0.41592872,0.089762345,0.3418722,0.11763662,0.32846498,0.06278458,0.46405,0.021757789,0.17916594,-0.5894241,0.07083378,0.111034825,0.77115273,-0.25961834,-0.10656982,0.1773017,-0.37848687,-0.28157002,0.50821054,-0.18120924,0.15026608,-0.2804827,0.3164518,-0.5233736,-0.2749987,0.09342309,0.1311558,0.76712126,-0.007469789,-0.3434683,-0.124657646,0.3681597,-0.1514724,-0.07261473,-0.059696678,0.14638552,-0.2487865,0.39555535,0.053131707,-0.18594368,-0.24268937,-0.024559762,-0.088924535,0.38735503,0.26465374,0.0512334,-0.113408,-0.4085735,-0.16155387,0.18181702,0.111715645,0.25884512,0.13341483,-0.2973929,-0.014527518,0.24301831,-0.20380642,0.34019715,-0.14619894,0.1316694,-0.60235834,-0.26204312,-0.23150736,-0.26260465,-0.05219314,0.47732,0.1259598,-0.0777787,-0.10412222,-0.45097035,0.38203484,0.050675355,0.26560706,0.054994054,-0.022797083,0.55836976,-0.13902558,-0.15306002,-0.04657095,-0.02492065,-0.21864167,-0.27959427,0.19012502,-0.47423807,0.03703535,0.5555632,0.2971453,-0.17685288,-0.16233015,0.41327065,-0.019124791,-0.38107026,-0.2419298,-0.049652155,0.28253376,-0.019854546,0.31568432,-0.50559205,-0.08456819,-0.054683454,0.055599224,0.35038593,-0.033611577,0.08816195,-0.1254938,-0.09513633,0.5291625,0.15008053,-0.20720789,-0.011904746,0.11853597,-0.36429787,-0.4797147,0.04319539,-0.052124687,-0.18369105,0.078684226,0.21349499,0.06907584,0.011431919,-0.5305034,-0.13445923,-0.43166375,-0.0042410884,0.106116615,-0.5569697,-0.08309239,-0.05237089,-0.5891788,0.29016024,-0.018483318,-0.0049520857,0.15255244,0.08775089,-0.21537013,-0.21234912,0.25767446,0.023630984,-0.2519427,-0.11832564,-0.021683156,-1.082838,0.26844078,-0.009393111,-0.1960073,0.028304433,0.011757897,-0.79701376,0.30776316,-0.36765563,-0.07113662,0.0032556169,-0.2147597,-0.2946812,0.10022181,-0.09919895,-0.20730245,0.2816872,-0.22065777,0.5697657,-0.05636008,0.07629296,-0.028676776,-0.27017316,0.154128,-0.37459958,-0.5064268,-0.16191462,-0.2806602,-0.1748627,-0.10967206,-0.29820368,-0.23193909,0.060728583,0.4223223,0.1824475,-0.099582866,-0.038053866,-0.02680714,-0.31361884,0.18543988,-0.2532201,0.058051586,-0.20158549,0.18759637,0.015487395,0.2586758,-0.3473573,0.65162504,-0.14862314,-0.41159403,-0.175788,0.19344887,0.10640138,0.30515516,-0.48257565,-0.13295801,0.12537313,0.03110535,0.09906146,0.3003533,-0.18966934,-0.16031697,0.030574571,-0.59264827,0.14146651,0.81656384,0.2936334,0.078820825,0.10971406,0.14953692,0.23866338,0.49189115,-0.06844394,-0.104904026,0.296286,0.10476021,-0.560488,-0.2204292,-0.10981627,-0.084696986,-0.4526042,0.64583737,0.2387895,-0.30360937,-0.43654454,-0.2279838,-0.22548714,0.29036355,-0.048795756,0.08980366,-0.102763176,0.5376866,-0.06953779,0.29890367,0.58705026,-0.122570194,-0.3834815,0.016457032,0.20920233,0.19089594,0.33060822,-0.117693946,0.089929044,-0.054277074,0.16871686,-0.2954501,-0.21072999,0.023596,0.14127395,0.045942746,0.061336778,0.624216,0.46255982,0.1770784,0.4876284,0.39954534,0.06998612,0.6017354,0.7007718,0.28113255,0.04729187,0.20080063,0.16337906,0.16072994,-0.08879029,0.44226485,0.4717694,-0.00579232,0.8452475,0.21547207,0.41760892,0.8250899,-0.6166735,-0.34768856,0.14077365,0.5357039,-0.45352763,0.055012178,0.06634754,-0.18136114,0.3011998,-0.5155034,-0.2663818,-0.07518321,-0.084264606,0.12916219,-0.058821335,-0.117948,0.1695767,-0.15159601,-0.16067293,-0.32534134,-0.15312813,-0.24452788,0.1947143,0.016522981,-0.040450282,0.011054805,-0.31759602,-0.07964269,-0.08541958,0.3011291,-0.10701795,-0.24773003,-0.12504044,0.23469603,0.118775964,0.766491,0.0027752817,0.17226985,-0.23932053,-0.14215788,0.046933427,0.05088908,0.05394835,0.050840706,0.5718724,-0.546968,-0.13598907,-0.029938959,0.41016483,-0.28342265,-0.07955902,-0.13265906,-0.08605169,0.07101108,0.100561574,-0.11047037,-0.07185128,-0.16923632,-0.6861664,0.28583372,-0.11455059,-0.29920888,-0.038895905,0.33621615,0.23849148,-0.09270641,0.015703984,-0.17856476,0.1818575,0.14277163,0.20689645,-0.07122821,-0.21836641,-0.2886538,0.21416084,-0.0694478,0.19794102,-0.05737595,0.30287153,-0.036844674,0.15702018,0.3290242,-0.11117072,-0.37278855,-0.45855725,-0.11516372,-0.13092412,0.061932355,-0.08259313,0.27764288,-0.33245683,-0.035302687,-0.33619702,-0.11885513,-0.36102498,-0.1819739,-0.0411956
