,0,1,2,3,4,5,6,7,8,9,10,11,12,13,14,15,16,17,18,19,20,21,22,23,24,25,26,27,28,29,30,31,32,33,34,35,36,37,38,39,40,41,42,43,44,45,46,47,48,49,50,51,52,53,54,55,56,57,58,59,60,61,62,63,64,65,66,67,68,69,70,71,72,73,74,75,76,77,78,79,80,81,82,83,84,85,86,87,88,89,90,91,92,93,94,95,96,97,98,99,100,101,102,103,104,105,106,107,108,109,110,111,112,113,114,115,116,117,118,119,120,121,122,123,124,125,126,127,128,129,130,131,132,133,134,135,136,137,138,139,140,141,142,143,144,145,146,147,148,149,150,151,152,153,154,155,156,157,158,159,160,161,162,163,164,165,166,167,168,169,170,171,172,173,174,175,176,177,178,179,180,181,182,183,184,185,186,187,188,189,190,191,192,193,194,195,196,197,198,199,200,201,202,203,204,205,206,207,208,209,210,211,212,213,214,215,216,217,218,219,220,221,222,223,224,225,226,227,228,229,230,231,232,233,234,235,236,237,238,239,240,241,242,243,244,245,246,247,248,249,250,251,252,253,254,255,256,257,258,259,260,261,262,263,264,265,266,267,268,269,270,271,272,273,274,275,276,277,278,279,280,281,282,283,284,285,286,287,288,289,290,291,292,293,294,295,296,297,298,299,300,301,302,303,304,305,306,307,308,309,310,311,312,313,314,315,316,317,318,319,320,321,322,323,324,325,326,327,328,329,330,331,332,333,334,335,336,337,338,339,340,341,342,343,344,345,346,347,348,349,350,351,352,353,354,355,356,357,358,359,360,361,362,363,364,365,366,367,368,369,370,371,372,373,374,375,376,377,378,379,380,381,382,383,384,385,386,387,388,389,390,391,392,393,394,395,396,397,398,399,400,401,402,403,404,405,406,407,408,409,410,411,412,413,414,415,416,417,418,419,420,421,422,423,424,425,426,427,428,429,430,431,432,433,434,435,436,437,438,439,440,441,442,443,444,445,446,447,448,449,450,451,452,453,454,455,456,457,458,459,460,461,462,463,464,465,466,467,468,469,470,471,472,473,474,475,476,477,478,479,480,481,482,483,484,485,486,487,488,489,490,491,492,493,494,495,496,497,498,499,500,501,502,503,504,505,506,507,508,509,510,511,512,513,514,515,516,517,518,519,520,521,522,523,524,525,526,527,528,529,530,531,532,533,534,535,536,537,538,539,540,541,542,543,544,545,546,547,548,549,550,551,552,553,554,555,556,557,558,559,560,561,562,563,564,565,566,567,568,569,570,571,572,573,574,575,576,577,578,579,580,581,582,583,584,585,586,587,588,589,590,591,592,593,594,595,596,597,598,599,600,601,602,603,604,605,606,607,608,609,610,611,612,613,614,615,616,617,618,619,620,621,622,623,624,625,626,627,628,629,630,631,632,633,634,635,636,637,638,639,640,641,642,643,644,645,646,647,648,649,650,651,652,653,654,655,656,657,658,659,660,661,662,663,664,665,666,667,668,669,670,671,672,673,674,675,676,677,678,679,680,681,682,683,684,685,686,687,688,689,690,691,692,693,694,695,696,697,698,699,700,701,702,703,704,705,706,707,708,709,710,711,712,713,714,715,716,717,718,719,720,721,722,723,724,725,726,727,728,729,730,731,732,733,734,735,736,737,738,739,740,741,742,743,744,745,746,747,748,749,750,751,752,753,754,755,756,757,758,759,760,761,762,763,764,765,766,767
10504237.pdf,-0.19189784,0.17743604,0.28340518,0.15107395,0.7813004,-0.06726387,0.39291292,0.27476794,0.06694565,-0.2430982,-0.04124759,-0.30587128,0.019666312,0.061946213,-0.012063988,0.51007974,0.42791235,-0.14752899,-0.08404223,0.44922486,0.0032872707,-0.2530886,0.14074439,0.6218183,0.27463722,0.1434363,-0.02099701,-0.1268427,-0.29741132,-0.18693355,0.54458016,0.11509975,0.026127081,-0.31509647,0.14030106,0.02918386,-0.24997476,-0.1648839,-0.125745,0.14699855,-0.5727534,-0.2661259,-0.21535291,-0.1599538,-0.17475015,-0.33745807,0.1236112,-0.021980181,-0.042056322,0.07260607,-0.49175042,0.4140039,-0.21468312,-0.2550285,0.14376967,0.49290156,0.014869748,-0.6031021,-0.24114676,-0.39794737,0.1424409,0.10666911,0.19161773,-0.15565892,0.16985102,-0.050980724,0.17610629,0.404353,-0.76508886,-0.25997853,-0.2658158,0.328487,-0.0249546,-0.18717809,-0.047801718,-0.16081214,-0.015007146,0.34140712,0.12814972,-0.08994694,-0.10897927,0.2569355,-0.16068369,0.313753,0.18588875,0.14592794,0.22888222,0.22804275,-0.20724425,0.4012013,0.10078349,-0.20185898,0.18971455,0.23580205,0.25488716,0.14348517,0.08799053,0.03772102,-0.29524153,-0.010531619,-0.021009944,-0.071566194,0.19199622,0.15418285,-0.11968201,0.052003067,-0.0043160655,0.064587,-0.39491844,0.5425435,0.13991614,-0.2600032,-0.22078109,-0.47218418,-0.045275908,-0.044456214,0.22968072,0.23504408,0.030275686,0.22605103,-0.09883781,0.011790502,0.22612292,0.80425644,0.114759475,0.09437106,-0.053322025,0.14358556,0.02172777,-0.12035281,0.05012095,0.13508528,0.078397505,0.02140844,-0.24584834,0.15336916,-0.27016795,-0.35215712,-0.14748855,0.35151893,-0.0333867,-0.56920606,0.47756135,-0.087015875,0.16986139,-0.32059065,-0.088971354,0.18396255,-0.15130326,0.44628468,0.26104957,0.0908311,-0.14923215,-0.26911074,-0.08831732,0.1106257,-0.37527162,0.2966249,-0.20305273,-0.03945019,0.33202702,0.3302843,-0.4855063,0.31203824,0.063256204,0.13738248,-0.1761386,0.3215646,-0.28485006,0.09709838,0.03125394,-0.28678128,0.53688854,0.058523826,0.17289042,0.01221141,0.15326786,-0.27008697,0.2267302,0.006173998,-0.54063547,0.26958072,-0.20955035,-0.1833241,0.17887513,-0.19329411,0.31447,-0.40249866,0.025504932,-0.1773749,-0.21877578,-0.34706932,0.09806033,0.08924773,0.34951597,-0.16574447,0.07249022,0.20573923,-0.51611984,-0.21629512,0.20845869,0.17328677,0.18029916,0.16725965,-0.065931246,-0.46690863,0.12878974,-0.4316278,-0.16295168,-0.1340667,-0.23862441,0.13370094,-0.10642837,0.41473663,-0.030593904,-0.02839659,-0.21347511,-0.061509002,0.14451048,-0.051231343,-0.004714821,0.004287432,-0.33154702,0.31569344,-0.41688788,0.5994824,-0.019408787,-0.75140285,0.327232,0.5312383,-0.057978563,-0.34145403,0.44412827,-0.35539085,0.09297106,0.09370269,-0.33779782,-0.13491839,0.39594054,-0.44409186,-0.3349676,0.56839716,0.26478297,0.0956753,0.31238085,0.002055177,-0.09959303,0.19287634,-0.13569623,-0.2907668,-0.62412196,-0.017996265,-0.007966882,-0.2806641,0.06760064,-0.21843594,-0.16166505,-0.47322273,-0.0941784,-0.10239218,0.14648424,0.23393077,0.27984464,-0.03511204,-0.078321785,-0.7217741,0.12013514,0.18094322,0.1934282,0.1306697,0.09686394,-0.15787087,-0.0037495587,0.420928,-0.5217463,-0.055891674,0.2889514,-0.010511059,-0.019006763,-0.29647362,-0.05622375,0.31265074,-0.24262273,0.079215124,-0.08500933,-0.055517342,0.40363282,-0.07981813,-0.093397476,-0.15773547,0.08183803,0.3155874,-0.5668195,-0.2830403,0.39052716,0.05854528,0.031411063,-0.0033094138,0.33143485,0.053736173,-0.40175247,-0.35878253,0.20433438,0.20397899,0.14297265,0.14624453,-0.021128666,-0.5498106,-3.1527672,-0.0854603,-0.008045342,-0.19258678,0.2604493,-0.19042656,0.062048532,0.046385273,-0.5056678,0.2048787,-0.099971525,-0.26625586,0.08246704,0.3302608,0.17578688,-0.13111074,0.018915884,-0.35667408,0.00991048,0.44191396,-0.28082505,-0.6127813,0.10706367,0.09639041,0.35180938,0.3658761,-0.5579779,-0.11119854,-0.25934103,-0.2522909,0.24043533,-0.22190832,-0.22910264,0.3323853,0.09616218,0.02711582,-0.029937794,-0.28256783,-0.16302402,-0.39901316,0.2101447,-0.7857406,-0.28673822,-0.19619137,0.44224304,0.06345155,0.34164995,-0.0037840828,0.15673208,0.15917543,0.23450679,0.1568326,-0.11443704,-0.111294195,-0.14585966,0.017435372,0.4323006,0.26110247,-0.373868,-0.23321852,0.16946083,-0.16201496,-0.5410898,-0.21273671,-0.025377812,-0.25030783,-0.6885945,-0.2830956,-0.1493532,0.004653986,-0.054645453,0.49505863,-0.39854902,-0.13309066,-0.039996885,-0.40999895,0.12056255,-0.2543531,-0.072406724,-0.12525019,-0.33456755,-0.39206064,0.25493455,0.22177824,-0.107776254,0.011150885,-0.089213334,0.08724946,-0.43781507,-0.54371494,0.35863337,0.2417693,0.07966046,0.03965526,0.4067395,-0.12870549,0.38196045,0.055749573,0.14650938,-0.2934532,-0.023641732,0.12772577,0.5967994,-0.19666788,-0.07344486,0.023267962,-0.1993281,-0.0042990567,0.29372376,-0.079328984,0.054354366,-0.2622894,0.17212768,-0.18508716,0.03808988,-0.063297234,0.19901307,0.7396908,-0.043011088,-0.24070425,-0.16615906,0.29996586,-0.23372272,-0.25461382,-0.14450921,-0.13063778,-0.2416259,0.1691828,0.11179147,-0.022138096,-0.13701884,-0.10127887,-0.25132352,0.2432625,0.28970924,0.10025418,-0.15005633,-0.5082846,-0.30593997,0.23464301,0.043292772,0.20028426,0.2874178,-0.2467328,0.10188087,0.17462683,-0.06539925,0.28430268,-0.35651642,0.10658255,-0.4399358,-0.28267503,-0.20123172,-0.27632856,0.06976198,0.5916823,0.2324096,-0.10221766,0.23713797,-0.516964,0.28747728,0.061257143,0.06982326,-0.15052733,-0.3066967,0.72330606,0.006478145,-0.062996514,0.0011095554,-0.28597265,-0.11528708,-0.42783535,0.19568333,-0.41185933,-0.18223855,0.32810038,0.20435262,-0.35853204,-0.118930414,0.19087094,0.0011227047,-0.5017447,-0.2095869,-0.07445693,0.22792846,-0.105497286,0.16799642,-0.36623877,0.076246895,-0.0360812,-0.018070374,0.20824467,0.0287163,0.025704011,-0.29782334,-0.03348893,0.5087418,0.02662837,0.054938216,0.22295536,0.13130984,-0.41131574,-0.41751117,0.023075238,0.077887975,-0.21333191,0.0026737005,0.34169033,-0.09330891,0.09035185,-0.3289449,-0.0708202,-0.36630583,-0.10013291,0.15152797,-0.6301488,-0.28797612,-0.027987272,-0.4361223,0.04904844,0.08586234,0.050945625,0.24585466,-0.14190178,-0.056221977,-0.32131773,0.094068564,0.0055489466,-0.23089582,-0.15981786,0.19373797,-0.8721372,0.023183085,0.019081967,-0.14445266,0.023477288,-0.18202266,-0.6692561,0.47843453,-0.35788387,-0.1643573,-0.16935232,-0.438368,-0.18203472,0.1405822,0.11696026,-0.22607762,0.39469153,0.026684377,0.47562528,-0.025736272,-0.0022938615,0.095053986,-0.13893361,0.14775527,-0.3425637,-0.22423196,-0.016126815,-0.15173502,0.026385594,-0.19769266,-0.1402686,-0.1845255,0.11483413,0.23928013,0.23668152,0.0074001816,-0.06522092,0.080505185,-0.50658274,0.16832031,-0.29916716,0.010755379,-0.20160109,0.005896724,0.01582499,0.10262239,-0.3648132,0.5523027,-0.3372389,-0.3662551,-0.12809579,-0.14407817,0.11255026,0.35824972,-0.2844125,-0.037200794,0.23866972,-0.076129764,-0.043924764,0.31277448,-0.16293715,-0.2555234,-0.08485533,-0.46512324,0.322501,0.5942427,0.3397757,0.13081332,0.053631194,0.15874735,0.23105617,0.48029193,-0.021162437,-0.27842426,0.36832345,0.1557533,-0.42933905,-0.10089953,0.05580428,-0.10921087,-0.39255017,0.5796508,0.21175762,-0.44930714,-0.23904076,-0.19407412,-0.17289102,0.33569527,0.0075831246,0.17934918,0.08816982,0.77352077,0.0020732675,0.083284296,0.5164402,0.009895366,-0.28187367,0.035433616,0.2802651,0.1110158,0.31135312,-0.17361787,0.19667372,-0.050240397,0.08508203,-0.18251398,-0.031263866,0.07237459,0.117444694,-0.033004165,0.0077711158,0.5474422,0.36473358,0.2698246,0.21483989,0.22838041,-0.0030881343,0.55960894,0.48370716,0.021025473,-0.04266549,0.10607892,0.09946631,0.27000943,-0.11021435,0.34470075,0.27742466,0.0500774,0.31185144,0.14726417,0.24793315,0.5032528,-0.5930326,-0.30753702,-0.017530834,0.51965314,-0.2553458,-0.023875678,0.3030374,0.06436311,0.12852736,-0.38227284,-0.30980062,0.022986991,0.22199616,0.1931385,-0.16854058,-0.012089292,0.22538544,-0.063506305,-0.36479902,-0.43760762,-0.40696722,-0.14953431,0.07799485,-0.111530945,0.120452285,-0.18699357,-0.17580192,-0.03947764,-0.11704848,0.44807523,-0.23698655,-0.2851594,0.043735024,0.37705308,0.1588395,0.5963236,-0.15273447,0.3125124,-0.22794603,-0.26681808,0.010503437,0.06983789,0.055649392,0.064832956,0.5046317,-0.33033514,-0.09795871,0.041758407,0.20355083,-0.25802255,-0.18198258,0.16870807,0.06770737,0.034673408,0.13450643,-0.34210196,-0.11821109,-0.058330305,-0.4289986,0.116423726,0.20258078,-0.42947006,0.031008182,0.2575426,0.15887623,-0.19953267,-0.15527724,-0.1127796,-0.063725494,-0.0039380454,0.23446715,-0.027826482,-0.38503087,-0.40253943,0.3068877,-0.17240797,0.283974,0.11813821,0.23802239,-0.03381684,0.099002585,0.37747812,0.06625523,-0.093038976,-0.26906157,-0.052551154,-0.34997338,-0.22043994,-0.029630098,0.03666199,-0.20264626,-0.055778988,-0.4320513,-0.16452096,-0.13828723,0.016059482,0.014835458
10527994.pdf,0.01907511,0.23699594,0.25891832,0.12955415,0.5586734,0.06324592,0.114059135,0.2454026,0.13769361,-0.3415025,-0.118407406,-0.11885673,0.011454875,0.08285917,0.05547981,0.3607607,0.1962972,0.05229741,0.03861095,0.36459923,-0.018716019,-0.3051745,0.08555495,0.17890123,0.25759143,0.07491957,-0.030310472,-0.036572028,-0.3252952,-0.15671773,0.34840518,0.061518975,0.0704521,-0.23091508,0.003071949,-0.039003216,-0.028419467,-0.038439244,-0.19886196,0.090343446,-0.39906198,-0.10623874,0.024784438,-0.12773994,-0.16337739,-0.12650138,0.13958754,-0.09968306,-0.1778569,-0.10426366,-0.3302629,0.28733283,-0.00824178,-0.10215572,0.08759706,0.29151526,-0.07553845,-0.5062406,-0.1426077,-0.24801636,0.15425876,-0.008571647,0.23306125,0.20912364,0.1794928,-0.1551277,0.14341152,0.16156292,-0.31963003,-0.06922756,-0.24667746,0.22376318,0.012572205,-0.13445403,-0.07880262,-0.075209826,-0.031763766,0.2702823,-0.011144824,-0.08198392,-0.08899493,0.26499358,0.00896899,0.086481735,0.04243149,0.11262803,0.18973282,0.12930983,-0.12478131,0.3810823,0.26815355,-0.23410472,0.28834784,0.010257538,-0.0281627,-0.0225387,0.013221107,-0.039275333,-0.07067155,-0.06943538,-0.11981353,-0.010194927,0.15064205,0.14162274,-0.09007043,-0.051926434,0.05211283,0.19708402,-0.18751237,0.34833327,0.012384649,-0.11822395,0.014682673,-0.26471293,0.025248952,0.16458684,0.08780488,0.14681444,-0.034369767,0.17391762,0.05947888,-0.060319573,0.06642575,0.4602114,0.047899853,0.08680241,0.07038158,0.14321434,-0.17998399,-0.16723967,0.02010062,0.14214572,0.031129576,0.03236663,-0.16317342,0.22428793,-0.21497741,-0.15514609,0.058789454,0.102766074,0.039131515,-0.3237837,0.37434977,-0.11142093,-0.075345755,-0.12672883,0.042129196,0.13644245,-0.19978817,0.4518186,0.27735472,-0.0672567,-0.07091662,-0.14942998,-0.027279437,0.12639448,-0.19447073,0.18654764,-0.30858096,-0.00055384263,0.33769068,0.37642866,-0.4391652,0.23700815,-0.048651263,0.03232924,-0.30018634,0.20129076,-0.11718996,-0.025091432,-0.007888105,-0.012948798,0.3307749,-0.026666567,0.03633365,0.17944641,0.14504048,-0.15155475,0.04815636,0.0008136218,-0.31689984,0.2102248,-0.05240863,-0.021202536,0.13534172,-0.16743755,0.2116802,-0.15059967,0.026385691,-0.27030367,-0.205975,-0.3949368,0.09663876,-0.013644904,0.16590786,-0.045823365,0.12009475,0.030386558,-0.2075871,-0.15430233,0.33905548,0.22146106,0.14824581,0.061244216,-0.107433,-0.40807652,0.1149911,-0.3072064,-0.015279537,0.036864392,-0.24649215,-0.07644268,0.043647937,0.31401554,0.16192503,0.00043768188,-0.022033192,-0.10695584,0.041535776,-0.08055319,0.11170242,0.107948706,-0.3332686,0.37894297,-0.39282423,0.25974533,0.0487111,-0.42917174,0.19717616,0.16026525,0.022893544,-0.18355568,0.2823241,-0.26209474,0.19657442,0.076665506,-0.22896191,-0.05764889,0.17933944,-0.20433676,-0.2940725,0.35485348,0.14710608,0.036215868,0.14011525,0.022374196,0.09528167,0.04623526,-0.021000817,-0.18060912,-0.3886009,0.09293412,0.11856966,-0.21604837,0.14155185,-0.3577174,-0.011834346,-0.21912809,-0.02965254,-0.18092881,0.16433129,0.1276332,0.29474396,-0.13861783,-0.074443,-0.5926752,0.12003219,0.16186096,0.016630357,0.20544958,0.09518847,-0.15692402,-0.018347038,0.33975127,-0.17315723,-0.09059267,0.3760609,0.10851082,-0.027423777,-0.16284499,0.07591246,0.12147879,-0.122224,-0.11367608,0.086496264,-0.0709859,0.19994837,-0.0820676,-0.29860818,-0.18704063,-0.15870845,0.26345485,-0.3655236,-0.14402983,0.41149154,0.11806251,-0.048808437,0.17433137,0.29937518,-0.021697214,-0.19596234,-0.116666146,0.04990673,0.04066232,0.08109138,0.0043530855,-0.018728089,-0.57200533,-5.0709996,-0.10609635,0.107206896,-0.25045404,0.20481575,-0.048458386,0.1737541,0.104697384,-0.24214152,0.29143712,-0.09953825,-0.09502709,0.045052916,0.28623688,0.16523446,0.0790994,0.21801923,-0.20171627,-0.055551387,0.25502896,-0.16673453,-0.58244896,0.0862223,0.074819475,0.1333314,0.25403938,-0.28227922,-0.031942323,-0.19257393,-0.20704705,0.19998053,-0.072732784,-0.30225512,0.25109,0.04293474,-0.13034675,-0.11651032,-0.12257253,-0.1905571,-0.29771093,0.26736736,-0.2965149,-0.12041895,0.038815908,0.32739484,-0.0027699396,0.23650056,-0.08351041,0.09667985,0.19265997,0.18166456,0.057872362,0.027568452,-0.15967983,0.01362334,0.08311804,0.35309398,0.16093312,-0.3775525,-0.08698756,0.06794754,-0.23971416,-0.23709035,-0.09074956,-0.17555593,0.037928827,-0.38004473,-0.18082239,-0.1520629,0.06109983,-0.054426193,0.4275867,-0.12252518,-0.1696213,-0.07383719,-0.18139476,0.12625034,-0.14049095,0.012586795,-0.26953426,-0.12799297,-0.13133636,0.18125595,0.15174937,-0.1948407,0.026873697,0.0016252548,-0.038858294,-0.38467127,-0.2801279,0.36419266,0.078249685,0.033276536,-0.01175696,0.2119829,0.0023917686,0.3502286,0.012651227,0.19078957,-0.25445932,0.062095314,0.047117926,0.43539914,-0.11358796,-0.28430122,-0.06311466,-0.14730218,-0.1573365,0.21443744,-0.23254687,0.16460302,-0.1899445,0.06790156,-0.21587451,-0.09275546,-0.010681642,0.061576553,0.62173754,-0.004444599,-0.08410711,-0.037535656,0.05373114,-0.2948303,-0.087922364,-0.2288551,-0.048701193,-0.052131515,0.07825607,0.047443766,-0.12251311,-0.091299005,0.008484632,-0.10273586,0.093688294,0.3085703,0.12313503,-0.1554588,-0.39157006,-0.17728978,0.12628648,0.03277895,0.09853806,0.1684858,-0.07421215,0.21954411,0.1391349,-0.14694808,0.29237616,-0.07273301,0.05771532,-0.3229351,-0.39171058,0.02364901,-0.0582617,-0.053411562,0.33507156,0.114169195,-0.077837005,0.012414158,-0.34509635,0.09229251,-0.03411239,0.2225102,-0.025561893,-0.19494013,0.5476344,-0.056244742,0.033676364,-0.0237167,0.03607363,-0.027482888,-0.18847112,0.007939424,-0.2059131,0.057357494,0.24907807,0.301481,-0.18850474,0.113425344,0.14515188,-0.03218358,-0.34040844,-0.09319819,-0.09686157,0.12995802,-0.09423746,0.06374915,-0.23199877,0.044210125,0.0009910036,-0.018808397,0.050118007,0.07815835,0.07772663,-0.051053543,-0.07240607,0.33856136,0.2362442,-0.03826662,0.05497262,0.10345409,-0.26879352,-0.42271668,-0.07185669,0.10912426,-0.06562356,0.07587279,0.0587691,-0.11277744,0.0131170545,-0.3080057,0.007294388,-0.38977993,-0.061402965,0.04687363,-0.40360576,-0.22381827,-0.053777922,-0.24641141,-0.007769744,-0.005809138,0.027781386,0.08959199,-0.1083789,0.021204263,-0.14465976,0.11572838,-0.10549569,-0.14950828,-0.16591646,0.024712713,-0.49698102,0.049684655,0.1212533,0.08876315,-0.046264008,-0.18972722,-0.51940906,0.26872876,-0.071041666,-0.3008352,-0.13174322,-0.30629247,-0.18601444,0.038684145,0.029297926,-0.07803965,0.28992236,0.009341288,0.43405962,-0.10160808,0.009127347,-0.0022868542,-0.1405174,0.09410528,-0.37940544,-0.17208819,0.0018519545,-0.056712437,0.020319613,-0.28547296,0.022851326,-0.11216018,0.23098761,0.23106387,0.2006616,-0.07570378,-0.14727037,0.0040558716,-0.31455967,0.17722031,-0.16994114,0.13127464,-0.10004844,0.124209836,-0.16888756,-0.049137566,-0.3573717,0.4288237,-0.19726536,-0.2097227,-0.07095581,0.020681921,0.1908667,0.23451513,-0.26151043,-0.12603322,0.030351624,-0.29698098,0.08022467,0.23716003,0.059593223,-0.16714755,-0.045817554,-0.36111033,0.23088244,0.48435184,0.276783,-0.009250732,0.23252104,0.035675313,0.08697133,0.26504272,-0.17422163,-0.07070784,0.33028919,-0.05570188,-0.4754882,-0.10432528,-0.045361422,-0.07410804,-0.27800047,0.35145476,0.22319531,-0.37457156,-0.3646127,-0.05955124,-0.21829668,0.13988136,0.048002917,0.19188619,-0.04426113,0.5122812,-0.0025344566,0.010244478,0.45632607,-0.018658787,-0.06765618,0.21171296,0.08154851,-0.07226752,0.26263225,-0.064186014,0.11248545,0.0056085847,0.099505134,-0.23457836,-0.1455828,-0.08657431,0.0058094114,-0.1222798,0.08218948,0.43758422,0.29232952,0.13744302,0.14662896,0.21221204,-0.11459687,0.41216916,0.28763044,-0.058378115,-0.014118299,0.052184366,0.033160545,0.1030594,-0.060300823,0.1817159,0.20111606,-0.034129277,0.2668863,0.14144523,0.19315645,0.27366686,-0.45012882,-0.24511477,-0.18112773,0.2531739,-0.29392955,0.05553065,0.23376545,0.0852179,0.17184296,-0.4304471,-0.187592,0.0049711633,0.17742765,0.23316884,-0.14324383,-0.03330272,0.13403991,0.0868034,-0.05551397,-0.22949782,-0.23984542,-0.13693558,0.074948765,-0.16181478,0.03308402,0.1512268,-0.18266755,-0.04242924,-0.16706939,0.18045051,-0.09719408,-0.18128306,-0.044744033,0.15347461,-0.008327645,0.42222017,-0.11531478,0.19908771,-0.20720428,-0.087193176,0.002777161,0.115239576,0.026453737,0.07371668,0.4577972,-0.40126172,-2.7740374e-05,-0.15408316,0.17915118,-0.1303917,-0.042433817,0.10853598,0.008192396,0.12315652,0.008904126,-0.08557709,-0.16809702,-0.050739642,-0.311166,0.063029066,0.33880097,-0.43952665,0.002958905,0.04025047,0.17987737,-0.05861894,0.019271784,-0.034407385,-0.098384075,-0.105272315,0.09914682,-0.01052987,-0.08032735,-0.31442264,0.28021097,0.029982826,0.1268754,0.034838967,-0.014515944,0.034223914,0.10987315,0.20108639,0.06679184,-0.05779059,-0.10255793,-0.17634279,-0.052748308,-0.094998315,-0.18393783,0.09679861,-0.086468905,0.018509306,-0.44566214,-0.13041341,-0.013671527,-0.014184339,-0.12504716
10909720.pdf,-0.428537,0.13257425,0.15643618,0.13306248,0.527394,0.057482503,0.44679803,0.39022544,-0.062154964,-0.27681646,0.047301896,-0.35159165,-0.09503877,-0.01972375,-0.10235511,0.4579822,0.45373386,0.029115956,-0.25095525,0.48034,0.008427268,-0.2827015,0.13121817,0.7181727,0.30905473,0.049506143,-0.056833915,-0.06963969,-0.099396855,-0.16400829,0.5527548,0.22157258,0.07555524,-0.20810705,-0.025229583,0.010835437,-0.09454395,-0.05937799,-0.08069318,0.16476281,-0.48820353,-0.3345848,-0.41192308,-0.32786,-0.06599019,-0.33714974,0.2308203,-0.08012049,0.23457804,-0.064844795,-0.63887393,0.33124638,-0.01987983,-0.27453434,0.049832966,0.5901393,-0.07966007,-0.58816457,-0.3155472,-0.42771184,0.08498311,0.036675815,0.33249927,-0.19272368,-0.033142235,-0.0392458,0.15852548,0.39688534,-0.5687043,-0.26892832,-0.44892052,0.31736314,0.0003209524,-0.17116418,-0.14459673,-0.14603028,0.09071846,0.25032473,0.07646029,-0.037057623,-0.38970268,0.32705837,-0.15951627,0.30647567,0.13109158,0.046109747,0.27996278,0.06705004,-0.25599837,0.40433547,0.08258336,-0.2485424,0.22675224,0.18124607,0.13347116,0.22035979,0.26596916,0.19436428,-0.16460353,0.08082474,0.16918421,-0.083202645,0.14336967,0.03359575,-0.17385852,0.0109758135,0.20354949,-0.10032573,-0.51441014,0.4893554,0.0010611052,-0.34875843,-0.27359667,-0.31740165,-0.0040431675,-0.096184835,0.13424736,0.2715904,0.035051502,0.18097666,-0.20391807,-0.1589678,0.13917203,0.78184104,-0.109741375,0.071742505,-0.22989172,0.073879056,-0.17095508,-0.16896059,0.0908738,0.12538408,0.13619186,-0.036300078,-0.41110015,0.21981066,-0.10801329,-0.36885658,-0.33999842,0.32113695,0.14462796,-0.6011883,0.50538427,-0.04648197,0.19784041,-0.45748752,-0.038245395,0.17945783,-0.06426245,0.39870125,0.25338057,0.022964,0.0070559513,-0.24693784,-0.093825646,0.09705137,-0.48264745,0.30975175,-0.12645611,0.0065551978,0.4088484,0.35055017,-0.4937814,0.24813145,0.06898248,0.25907567,-0.36919641,0.46579254,-0.31158152,0.2633884,0.06555354,0.03134294,0.5903173,0.027889514,0.060108125,-0.06940495,0.010003477,-0.07048893,0.1165969,-0.022452513,-0.401964,0.09406179,-0.14314635,-0.1304551,0.21990311,-0.327958,0.20276886,-0.47739607,0.026563602,-0.1601563,-0.22009462,-0.2723348,0.09203613,0.10024671,0.41647628,-0.22482905,0.11638459,0.0027671293,-0.4470863,-0.31847042,0.29787672,0.10448879,0.25680763,0.27837163,-0.04997121,-0.4717457,0.05849735,-0.44610584,-0.25642893,0.08401219,-0.37996745,0.150443,-0.18197703,0.6010497,-0.044032324,-0.016232107,-0.085176595,0.11506678,0.26002902,-0.111749545,-0.10618612,0.002381057,-0.47442707,0.48642728,-0.41629806,0.618051,0.090637304,-0.85044676,0.26679397,0.50534064,-0.111977234,-0.43449265,0.4861163,-0.44800234,-0.020568125,0.06829104,-0.25946116,-0.21809301,0.25684595,-0.5740341,-0.40613103,0.5771314,0.21968086,0.16858114,0.263925,0.062676065,0.117088005,0.23057091,-0.18990013,-0.265538,-0.6752276,0.0057212114,0.15470144,-0.3363437,0.092685595,-0.440833,-0.216218,-0.5116384,-0.11334353,-0.0073826816,0.22190621,0.2672431,0.11080817,0.0029148525,-0.1723701,-0.88543385,0.34777054,0.2848775,0.10457677,-0.016547162,-0.0128082605,-0.32397068,0.010410156,0.5185207,-0.48868656,-0.13703817,0.3006582,0.05896475,0.05679797,-0.323085,-0.012947058,0.42117184,-0.24339758,0.10003467,-0.03425932,-0.25674158,0.2432844,0.10404427,-0.28220302,-0.28913695,-0.008299772,0.20916817,-0.42740557,-0.3185475,0.37666932,0.21093601,-0.029993733,0.17518088,0.41740966,0.039296556,-0.4114709,-0.34650174,0.16208485,0.20124476,0.14855158,0.111943334,0.02733932,-0.6343977,-3.2402883,0.05543634,0.1735157,-0.16029236,0.30520046,-0.15318581,0.04447127,-0.022386115,-0.51767296,0.3178451,-0.08790575,-0.15897177,0.13785632,0.27002272,0.3353933,-0.09128269,0.19154134,-0.31955266,-0.003838256,0.3658567,-0.18893613,-0.52379346,0.032311402,0.12951954,0.40499055,0.27746248,-0.45124245,-0.114638865,-0.43080896,-0.16226529,0.20177203,-0.22027048,-0.29965305,0.32251975,0.18101996,0.05218523,-0.046602875,-0.34035668,-0.27322933,-0.38666862,0.045205086,-0.99825346,-0.17970303,-0.1951226,0.4777248,0.20351478,0.16964811,-0.2643704,0.098602206,0.23536351,0.2446514,0.10157539,-0.26871163,-0.0965051,0.0063217347,-0.029028187,0.6342107,0.19116473,-0.34431252,-0.27109885,0.07068831,-0.041614786,-0.5930817,-0.24335055,-0.05694879,-0.23651534,-0.7380599,-0.20114705,-0.2110185,0.04435922,-0.06799986,0.7049512,-0.4311387,-0.11267081,-0.11955472,-0.3619717,0.19124621,-0.30830044,-0.035249803,0.100356996,-0.256285,-0.31946784,0.17463048,0.10724664,0.025166303,0.005651025,0.009221576,0.01268857,-0.46644342,-0.44277638,0.32478297,0.18537977,-0.05300555,0.17225271,0.39074895,-0.13751413,0.4103617,0.10201891,0.058260396,-0.486825,-0.08570493,0.25238198,0.6212665,-0.122115806,0.07037931,0.09571022,-0.2400741,-0.03258965,0.17330454,-0.03768058,0.13396704,-0.27660364,0.18635832,-0.17509678,-0.13567469,-0.12216494,0.35471284,0.8382249,-0.1219746,-0.2380806,-0.1986092,0.3475191,-0.09669303,-0.18255588,-0.20448038,-0.108780295,-0.18421993,0.05042526,0.162806,0.050102714,0.0048979726,-0.13188256,-0.12122831,0.4048492,0.2504893,-0.122722015,-0.028665684,-0.73002505,-0.28451663,0.14219359,-0.12541217,0.38040185,0.11439899,-0.33173746,0.14698097,0.24184653,0.0004911423,0.22862315,-0.3717354,0.2490682,-0.42773628,-0.24910462,-0.1576512,-0.17450988,0.15005381,0.6221906,0.11881697,-0.103328735,0.25298166,-0.47627765,0.3037895,0.16143872,0.21970072,-0.16497639,-0.26141715,0.6595329,-0.1293099,-0.0795369,0.04996278,-0.10080851,0.046433233,-0.47521698,0.11124108,-0.25794238,-0.057941906,0.49550962,0.2310884,-0.31609276,-0.2323466,0.19854519,-0.17954294,-0.42694694,-0.3207413,-0.25444195,0.23338965,-0.012284217,0.26167965,-0.26820624,0.04934059,0.033070583,0.0062086456,0.2581963,-0.008920267,0.15500917,-0.17958874,0.030051919,0.59745574,0.021613888,0.119254604,0.31563884,-0.016847812,-0.35080546,-0.4119648,0.06656323,0.052317966,-0.23332305,0.017616585,0.39641118,-0.23575218,0.16088009,-0.37007588,0.06859484,-0.52098805,-0.12274224,0.3884858,-0.6726105,-0.2913255,-0.12677462,-0.36632705,0.21258965,-0.040880002,-0.05667218,0.01356989,-0.1968818,-0.13465507,-0.32228506,0.13154748,0.0070776157,-0.24520457,0.16761999,0.24068187,-0.8471813,0.16912267,0.00088810734,-0.20784831,0.014441706,-0.06142626,-0.8893371,0.4997146,-0.2245154,-0.028604982,-0.08090049,-0.3314556,-0.24658099,0.31980768,0.05332485,-0.1628305,0.32293025,0.050545283,0.5982541,0.010070703,0.022852335,0.05135508,-0.18978173,0.04857039,-0.48846465,-0.4708671,-0.058411058,-0.07823284,0.14477234,-0.13176103,-0.216954,-0.2586173,0.24253732,0.43292373,0.2385386,0.053845212,0.00044538546,0.014576234,-0.5588123,0.18570149,-0.39057046,-0.06797546,-0.250815,-0.011031594,0.14907488,0.19438384,-0.39741108,0.47009555,-0.40611142,-0.36905962,-0.16016841,-0.14501038,-0.006652998,0.3281613,-0.4193501,-0.2684731,0.1605357,-0.08203732,-0.093125716,0.39448106,-0.12555528,-0.3164879,0.00148651,-0.49854147,0.30318817,0.5763113,0.40104604,-0.057591483,0.19417006,0.17190436,0.15218979,0.21964405,0.012185404,-0.2406519,0.3293929,0.07487484,-0.5475721,-0.19451742,0.07651428,-0.2537251,-0.43368292,0.6755973,0.11346735,-0.6073966,-0.18354827,-0.17995492,-0.1018495,0.45334065,0.04666865,0.34212852,0.2627129,0.61018807,0.0523571,0.14146243,0.59562,0.08310097,-0.29883367,-0.09870654,0.39216745,-0.021154396,0.27516633,-0.1877271,0.26447234,0.083813354,0.065437004,-0.20850089,-0.0031875744,-0.009880951,0.07206553,0.0566071,0.0049235914,0.68111527,0.42867327,0.32392308,0.21815991,0.45846233,0.042662986,0.6837964,0.39806244,0.11607235,0.019131707,0.24065514,0.09634666,0.19449542,-0.089742176,0.44041768,0.24717745,-0.22319025,0.3632936,0.22461207,0.28352845,0.5262605,-0.6666597,-0.24048442,0.08867857,0.52582395,-0.39953363,-0.039785612,0.3390993,0.015311394,0.23421542,-0.34522483,-0.27132174,0.02059742,0.18967685,0.10022227,-0.29794243,0.011876635,0.11100722,-0.031260006,-0.20030719,-0.3517408,-0.45833164,-0.07307864,0.15274262,-0.06578119,0.09999931,-0.10520385,-0.28621525,0.0009720125,-0.15330118,0.3641455,-0.2170827,-0.19390085,0.10112715,0.3297803,0.20233317,0.7246985,-0.17927192,0.22419295,-0.40642554,-0.20943187,-0.06346276,0.17681608,-0.11613382,0.07996442,0.24374455,-0.39427578,-0.16612357,0.097768545,0.23406744,-0.27956215,-0.08903571,0.105028994,0.0801208,0.17302822,0.035551887,-0.2839067,-0.1847553,0.04136964,-0.3272863,0.20134112,0.25570416,-0.4792568,-0.06153525,0.20191634,0.1286763,-0.2432364,-0.16966766,-0.25640714,-0.1373016,0.037923023,0.21685326,-0.07886179,-0.25723583,-0.3285317,0.28778726,-0.07648548,0.09342625,0.35837355,0.16582546,0.05756037,0.09506888,0.46162724,0.048470885,-0.05997266,-0.27052444,-0.13831536,-0.4699847,-0.20488994,-0.1672625,-0.0013600104,-0.13749598,0.017210487,-0.37872985,-0.22646756,-0.10745825,-0.018581657,-0.026875192
11336022.pdf,-0.24721244,0.3779518,0.37464893,0.052374303,0.72493804,0.13393123,0.23052888,0.37465233,-0.013404968,-0.4328209,0.028953157,-0.2710128,0.006741464,0.018403344,0.008711848,0.4039535,0.32839006,0.05072107,-0.26086032,0.4280092,0.07834303,-0.29228228,0.25917193,0.5924373,0.4392062,-0.036636267,-0.12435715,-0.016587859,-0.33465582,-0.3557778,0.46053094,0.02409771,-0.009652231,-0.27778533,0.01872472,-0.1280365,-0.11344644,-0.12934902,-0.0021266676,0.15092026,-0.46622336,-0.2809674,-0.17698544,-0.1561538,-0.23534203,-0.20860802,0.22030367,-0.063326545,0.11699588,-0.0041319206,-0.41877156,0.31212792,-0.07031113,-0.23179284,0.1933012,0.6326173,-0.05956624,-0.42555016,-0.53820646,-0.32683074,0.20033467,-0.04717649,0.27808738,-0.18955624,0.22903591,-0.033766598,0.17704558,0.19469899,-0.6342715,-0.069031216,-0.35511515,0.0013425387,-0.042551868,-0.09184433,-0.19727954,-0.11822877,-0.020083398,0.3421668,0.096666485,0.04037073,-0.23518974,0.24735674,-0.16247046,0.29365766,0.08844237,0.1555948,0.2626416,0.07108389,-0.24054623,0.36566085,0.24590136,-0.17896304,0.23107518,0.14659347,0.17694166,-0.081432976,0.08125388,-0.0037506062,-0.23518601,0.15951337,0.11277798,-0.17327894,0.16634995,0.00765789,0.019494463,-0.107937954,0.22556342,0.30360895,-0.37358326,0.4508754,0.06524825,-0.2444211,-0.22085738,-0.3224265,-0.08627055,5.608797e-05,0.18704747,0.20055592,0.061395295,0.22869551,-0.04640173,-0.08751826,0.21606015,0.87674856,-0.03878322,0.097987294,-0.2372773,0.06815161,-0.07168187,-0.25541937,0.10317688,0.11259117,-0.011359576,0.05866377,-0.24447495,0.27772158,-0.28381768,-0.31132555,-0.2167196,0.309455,0.011402838,-0.47071758,0.43071735,0.0014059898,0.18094163,-0.27299547,-0.037462033,0.11608719,-0.14072546,0.5359494,0.14310075,0.062607996,-0.03725952,-0.22429395,-0.09085538,0.024123475,-0.4315504,0.123679295,-0.08530913,-0.056434914,0.39360526,0.21573663,-0.48839653,0.3119867,-0.07312895,0.181623,-0.24952531,0.27392235,-0.1934029,0.029824704,0.057270586,-0.041877665,0.596787,0.10458336,0.049893685,-0.0015438572,0.13503559,-0.13080937,0.034781598,0.08134014,-0.46093214,0.3019147,-0.25495732,-0.073743,0.14624497,-0.23236981,0.29059958,-0.1579997,0.102947205,-0.21793893,-0.21053642,-0.43745166,-0.10417066,0.017380659,0.334386,-0.3229323,0.04864779,0.078797534,-0.53843355,-0.18473777,0.29475552,0.12446298,0.14328784,0.21950662,-0.18130404,-0.31733054,0.101942554,-0.35517275,-0.10769428,0.07525302,-0.36040998,0.22640651,-0.029424028,0.38958868,0.002494786,-0.086712934,-0.13851663,-0.07977171,0.15625197,-0.0093261,0.10389319,0.2281929,-0.4409753,0.45974696,-0.31873962,0.5980937,0.09254797,-0.79298604,0.21606997,0.346764,0.0090074325,-0.32053167,0.5227218,-0.17164649,0.043584123,-0.0061026327,-0.09672417,-0.13099606,0.23793405,-0.32606608,-0.30176246,0.51108325,0.266194,0.053041324,0.110541865,-0.017221142,-0.080662064,0.081983805,-0.12196138,-0.1857293,-0.5794333,-0.07105182,-0.11746903,-0.40822363,0.04455764,-0.39095148,-0.14839628,-0.36567393,-0.2086559,0.05022234,0.14242706,0.22960111,0.02898929,0.03770573,-0.23812714,-0.7811701,0.12924342,0.29189825,0.2720669,0.24849151,0.26557487,-0.17840031,0.060139067,0.46916008,-0.36471015,-0.1291942,0.32446757,0.19957766,0.10390849,-0.2844115,0.06716434,0.41188693,-0.06857997,0.14377564,0.0774425,-0.16152856,0.22888698,-0.039198134,-0.36365682,-0.30503705,-0.023911294,0.3165965,-0.38824132,-0.30408502,0.41767198,0.18150577,0.12027808,0.1976067,0.34396484,-0.027805705,-0.17163026,-0.26625645,0.21071713,0.059445493,0.13112822,0.08472111,-0.100768775,-0.742831,-3.6223302,-0.03639388,0.024896083,-0.30514774,0.27519912,-0.19353513,0.32875663,-0.011342224,-0.34159237,0.40878126,-0.15910426,-0.10214383,0.12290178,0.22892694,0.13609941,0.14081502,0.12648858,-0.41496468,-0.043616887,0.44987136,-0.18837324,-0.6471129,0.12688872,0.10817753,0.3129962,0.39729762,-0.34832156,-0.13770005,-0.3572395,-0.12905964,0.17918828,-0.14057794,-0.29986057,0.2115065,0.20070574,-0.12415972,-0.04327578,-0.26981142,-0.16503847,-0.4634391,0.08033565,-0.81775904,-0.27956837,-0.15886348,0.6055869,0.022561714,0.15610565,-0.114624746,0.17966586,0.2252298,0.23388001,0.031875804,-0.1104161,0.022653658,-0.06150616,-0.03676452,0.5643681,0.36514783,-0.45309094,-0.27585343,0.020044224,-0.19554484,-0.45026034,-0.20164222,-0.14402868,-0.23211467,-0.6553922,-0.2854484,-0.11255507,-0.05215354,-0.1447415,0.4647477,-0.30660087,-0.288323,-0.14907266,-0.38106734,0.23695731,-0.10307066,-0.1012038,-0.14035982,-0.19248182,-0.34598532,0.04444549,0.11105057,-0.15776798,-0.15890452,0.047014207,0.0035358132,-0.42763484,-0.4630307,0.5297102,0.14150402,0.07614572,0.18467596,0.3289795,-0.011299323,0.31019765,-0.1693243,0.25139886,-0.4625891,0.07064836,0.2544517,0.6567975,-0.32530934,0.0005965512,-0.085774146,-0.12758039,-0.038885657,0.27707613,-0.11972406,0.1783585,-0.3711498,0.10336287,-0.47923267,-0.18000014,-0.055511367,0.28088176,0.6898207,-0.04965756,-0.248124,-0.20008421,0.15764728,-0.3292505,-0.17695823,-0.29072988,0.056926228,-0.2714816,0.30164015,0.100246474,0.013381762,-0.12190738,-0.13148408,-0.10839878,0.26096374,0.30940235,0.06900522,-0.023184206,-0.5646796,-0.09919236,0.18865556,-0.0057115406,0.14603028,0.08667866,-0.25114897,0.12953618,0.25195846,-0.23629552,0.17846394,-0.20613942,0.12844929,-0.48134437,-0.26282448,-0.22437629,-0.14556232,0.060882762,0.43495023,0.282795,-0.057507873,-0.022757329,-0.44097206,0.22833577,-0.1013889,0.26167795,0.038366444,-0.23895082,0.50108564,-0.11377829,-0.07737047,-0.09611653,0.010807527,-0.09284608,-0.2802366,0.028940463,-0.29965532,-0.023541993,0.38689232,0.17860478,-0.17824474,-0.0051804464,0.21749653,-0.16037667,-0.3947392,-0.25202256,-0.16480827,0.14151454,0.10658281,0.4342826,-0.4690445,-0.0020456892,0.02773286,-0.055509806,0.2542221,-0.20434181,0.11458543,-0.061603453,-0.10680722,0.47202736,0.12797217,-0.010506887,0.32709193,0.048230592,-0.4015879,-0.5225016,-0.0860465,0.04595997,-0.17693347,-0.033739507,0.2972146,-0.01734001,0.031574428,-0.51278716,0.05557372,-0.3618155,-0.17006306,0.0420124,-0.5390264,-0.21699622,-0.09473344,-0.4621309,0.1306541,-0.012416063,0.0058192424,-0.01053541,-0.07233585,-0.12009849,-0.2407513,0.24872506,0.05230066,-0.18365565,-0.17479134,0.15453085,-0.8256496,0.03602132,0.112570524,-0.17409137,0.016409295,-0.101575,-0.7985808,0.35521653,-0.24816695,-0.0879337,-0.16310357,-0.23821388,-0.28075528,0.23833075,0.11947809,-0.31655848,0.34146598,-0.033275824,0.5665287,0.110480934,0.055847615,0.1408088,-0.12790874,0.055484116,-0.34813324,-0.42007944,0.12704675,-0.08771894,-0.003911959,-0.11370682,-0.09756194,-0.1930656,0.16962,0.45161948,0.18871802,-0.14620867,0.02621465,-0.06546072,-0.53775465,0.20367756,-0.14115852,-0.08536737,-0.21567653,0.09647745,0.018459314,0.0023675715,-0.27353042,0.6187376,-0.3341914,-0.22320905,-0.103231825,-0.08954875,0.08086869,0.20530164,-0.43889564,-0.04065,0.31490368,-0.18340349,0.040015947,0.38536716,-0.07609211,-0.3076312,0.032779623,-0.42167968,0.2600615,0.7033191,0.28489715,0.16534422,0.20343983,0.021553475,0.15485483,0.25104475,0.06463365,-0.38760543,0.24426499,0.19324063,-0.5559697,-0.14660095,0.07830191,-0.109641224,-0.65268755,0.71118146,0.2476668,-0.4507895,-0.39198035,-0.15784298,-0.078151494,0.2528395,-0.05809243,0.11674313,-0.07797438,0.5907023,-0.09877203,0.15635614,0.4808221,-0.044834886,-0.30477157,-0.017475467,0.30595905,0.1725615,0.33217943,-0.12694408,0.2627439,0.110650904,0.09540442,-0.23888394,0.005878521,0.0051486213,0.12712693,-0.06471839,0.102060854,0.5578506,0.4218155,0.4114454,0.46355468,0.31028008,0.05928657,0.69092536,0.52269435,0.052004963,0.11997196,0.09561892,0.07250717,0.18208304,0.036654823,0.38360947,0.34412825,-0.20128435,0.6028815,0.15011953,0.23653226,0.48978886,-0.5669018,-0.30016652,-0.03937428,0.46961486,-0.37849194,-0.051890492,0.23015635,-0.06797037,0.18268375,-0.52315927,-0.333411,-0.16696985,0.03914822,0.1544459,-0.23256569,-0.0831161,0.12013464,0.048155844,-0.19656622,-0.40127605,-0.3387276,-0.23009232,0.06662342,-0.08964226,-0.05572098,-0.043338828,-0.2780028,-0.032053832,-0.07058359,0.24006337,-0.090078145,-0.23065571,0.016364643,0.23994236,0.08301491,0.60499936,-0.17588487,0.13585953,-0.18929724,-0.15038249,-0.17727017,0.18262252,-0.011427993,-0.039334342,0.36183065,-0.36723506,-0.15636092,-0.031348236,0.306164,-0.3031203,-0.06709181,0.236298,0.30906034,0.14496024,0.1558801,-0.23582414,-0.10360789,-0.10187744,-0.3480534,0.05447153,0.21543327,-0.21493831,-0.06065555,0.15612781,0.07211166,-0.1579952,0.037186984,-0.13054398,0.022840396,0.06100986,0.15871464,-0.0005721506,-0.17860016,-0.39964062,0.3173888,0.022677492,0.20980877,0.12135758,0.21805543,0.012415831,0.15524293,0.4858533,-0.075709805,-0.17494607,-0.31573132,-0.2729355,-0.36768347,-0.1045659,-0.056646742,0.18732922,-0.26365328,0.003295876,-0.23696065,-0.3484748,-0.21534553,0.06876676,-0.12568983
11616482.pdf,-0.30329508,0.17149937,0.42004246,0.04625556,0.5613097,-0.0010191277,0.30621707,0.29359823,0.097818315,-0.3259496,-0.012144426,-0.38436118,0.115829796,0.24393262,0.08454248,0.47319037,0.2747428,-0.008355733,-0.18560004,0.36714214,0.07189045,-0.29987848,0.08310503,0.7448703,0.3270804,0.14923877,-0.16300187,-0.08242932,-0.20313755,-0.13436262,0.58460385,-0.01585143,0.007922925,-0.32022604,0.19949168,0.034278944,-0.15176569,-0.09170585,-0.13835415,0.14558768,-0.48078334,-0.29212004,-0.06679312,-0.09171922,-0.23753402,-0.31990445,-0.034970324,-0.08697267,0.03509795,0.049346246,-0.41131133,0.3148168,-0.33841297,-0.28415325,0.19212122,0.7670079,0.016042579,-0.5703367,-0.32189846,-0.4185993,0.18299603,0.05667283,0.2312743,-0.23654655,0.044561714,-0.0589993,0.028254472,0.35061833,-0.6360111,-0.12952235,-0.33003002,0.25552,-0.026436716,-0.10285205,-0.31678343,-0.06328795,-0.080864005,0.45607108,-0.009754872,-0.093581066,-0.28865105,0.21024957,-0.17348325,0.30082446,0.115863435,0.18599887,0.3848738,0.14975806,-0.2309842,0.69369125,0.036152635,-0.29126287,0.4027884,0.17754254,0.0699461,-0.06674096,0.25124168,0.06881767,-0.11683668,0.051224492,0.23783132,-0.05653998,0.13424489,-0.023689074,-0.04470249,0.08261487,0.03156118,0.022732042,-0.4762233,0.3750301,-0.044374112,-0.21985099,-0.21316281,-0.2704396,0.0037083747,-0.04907371,0.023102544,0.19460508,0.25524104,0.057451233,-0.015465948,-0.073899865,0.10772929,0.9370876,0.035006247,-0.0070810653,-0.19352956,0.073406346,-0.16536452,-0.073286936,-0.0011596382,-0.025190588,-0.051261052,-0.02257536,-0.35694167,0.46232823,-0.114233166,-0.3954854,-0.101280436,0.1917032,-0.16434334,-0.5919396,0.5179434,-0.13703945,0.18311588,-0.3265518,0.15149207,-0.019540496,-0.21548352,0.27749515,0.17670952,-0.0046293745,-0.059522226,-0.19352959,-0.0054282416,0.07068892,-0.29361254,0.29165006,-0.06877634,-0.070931174,0.28983498,0.38572815,-0.4626238,0.2648131,-0.081592776,0.08948336,-0.22069038,0.31628555,-0.40128592,0.12282622,0.1020693,-0.00924024,0.51034313,0.07027245,0.08495373,0.024371231,0.1150341,-0.076218225,0.06485524,0.23753354,-0.5397736,0.16107722,-0.059622854,-0.15162252,0.11921892,-0.3543561,0.20330936,-0.3845882,0.059113014,-0.22098632,-0.23394293,-0.40048516,-0.019956108,-0.0036686342,0.23867114,-0.27959448,0.030768894,0.07656171,-0.41419154,-0.23304664,0.14331001,0.2524673,0.036955975,0.13236207,-0.1365566,-0.390095,0.17188421,-0.41325396,-0.23357847,0.115518406,-0.3720674,0.04419548,-0.061191164,0.34817764,0.112655595,0.02392828,-0.14183545,0.017866354,0.11204139,0.019643523,0.2097427,0.13703808,-0.4318867,0.45822567,-0.39961553,0.47546268,0.038471587,-0.9111323,0.301499,0.4780912,-0.022708844,-0.3890685,0.513056,-0.4217074,0.20548947,0.117032595,-0.2639355,-0.12202086,0.26712054,-0.430891,-0.19053815,0.51335233,0.123078644,0.20928118,0.21757686,-0.07260641,-0.08356285,0.057325058,-0.19349778,-0.31079644,-0.6081688,-0.03261196,-0.0013101147,-0.29134968,0.07672769,-0.46284515,-0.2722923,-0.45233834,-0.15613362,-0.27084747,0.35885236,0.1946789,0.028523147,-0.043906383,-0.06162625,-0.6245836,0.15773249,0.09916591,0.21642305,0.13185783,0.03536345,-0.068297595,0.03817486,0.5203381,-0.29930973,-0.050614342,0.2045511,-0.105101794,0.042787462,-0.27444512,0.06194622,0.23022795,-0.2813632,-0.039256968,-0.04572874,-0.04275237,0.29424626,0.06891435,-0.23978864,-0.29585317,0.055300165,0.20016344,-0.47271663,-0.1313638,0.48887712,0.050768875,0.053528048,0.25962144,0.11405208,0.078927696,-0.37306124,-0.36470896,0.35179183,0.14701153,0.26782468,0.064648055,0.057829656,-0.5203251,-3.2127056,-0.065043844,-0.08586354,-0.2566835,0.29144472,-0.2335527,0.03663189,-0.023272436,-0.4657003,0.16687751,-0.16627398,-0.16692317,-0.0019926652,0.08748071,0.20480762,0.06614153,0.1910728,-0.1954123,-0.048443668,0.39145952,-0.2116923,-0.83293355,0.13346529,0.073120035,0.35546297,0.263613,-0.5384468,-0.080759525,-0.36822665,-0.11447132,0.17638133,-0.25035498,-0.3305785,0.26975232,0.17768374,-0.06720857,-0.0290628,-0.42767167,-0.22255665,-0.46781734,0.21327534,-0.7181591,-0.18961093,0.025271306,0.62129915,-0.09687686,0.20142427,0.04248088,0.052027415,-0.06597819,0.3135362,0.028980898,-0.23590112,-0.14952365,-0.025583755,-0.14255284,0.4467879,0.0839364,-0.18488285,-0.0661514,0.042841543,-0.24566133,-0.4097893,-0.06732369,-0.17352566,-0.12902899,-0.7327286,-0.23185772,-0.14947583,-0.026627494,-0.035826307,0.67802227,-0.22089326,-0.23654723,-0.11322509,-0.45736575,0.3418005,-0.25407904,-0.006573137,-0.11829637,-0.1285721,-0.21688952,0.22003824,0.07046596,-0.07259532,-0.14262885,0.15130596,0.09931454,-0.49706587,-0.42663163,0.30345294,0.21394232,0.19690792,0.22759147,0.3831722,-0.11725231,0.28870255,0.007648117,0.110727265,-0.39048252,0.08423386,0.03871712,0.5849533,-0.13042894,-0.022470701,-0.007425446,-0.13686581,-0.17931083,0.29527038,-0.14056683,0.15022561,-0.052630614,0.12784271,-0.25940853,-0.061693627,-0.08647883,0.18667966,0.78435206,-0.1288383,-0.16986676,-0.035178732,0.3547509,-0.021034112,-0.08094479,-0.16059926,-0.016984317,-0.23765242,0.332311,0.09046884,-0.08681147,-0.21674617,-0.3389929,-0.06780572,0.28912348,0.2720306,0.034932084,-0.10933422,-0.6170704,-0.23404214,0.17592898,0.14133996,0.3567779,0.30057058,-0.24060158,0.12717451,0.2661535,-0.13402265,0.38676983,-0.36029077,0.2845244,-0.6325619,-0.34356293,-0.1312499,-0.35486844,0.0053338013,0.46421757,0.1547672,-0.0815635,0.13552517,-0.37199104,0.34865367,-0.04109226,0.2217199,0.06796479,-0.16660297,0.80228996,-0.06774432,-0.067775115,-0.1396023,-0.15344748,-0.09551064,-0.32429034,0.092021056,-0.5409317,-0.07699415,0.54513973,0.20224951,-0.2744676,-0.12096086,0.2341858,-0.043066796,-0.25728992,-0.294378,-0.07761379,0.2746534,0.08201103,0.17385495,-0.43773538,0.09773505,0.07244295,0.07981084,0.28128165,0.029137846,0.17941631,-0.19360983,-0.022765364,0.53363967,0.15334788,-0.08005643,0.14777006,0.072853655,-0.4305659,-0.37103125,0.053743463,0.21698175,-0.19862157,0.079307415,0.33921188,-0.056052536,0.040312126,-0.411484,-0.085826576,-0.33177924,0.053030062,0.30396956,-0.58240825,-0.2145493,-0.172038,-0.51491916,0.18966678,0.1858282,-0.19626555,0.08876866,-0.13166127,-0.13877743,-0.053978764,0.115476176,0.07495807,-0.2550872,-0.2250275,0.16866088,-0.9113655,0.15674038,0.030142212,-0.03027904,0.15425049,0.028642867,-0.7275566,0.44681,-0.24970064,-0.14408569,-0.06993926,-0.21778184,-0.3234201,0.06642111,-0.050477743,-0.14539158,0.39690235,-0.09565467,0.49027324,-0.0010322891,-0.105616726,0.10426097,-0.13906,0.24687636,-0.36971003,-0.30963522,-0.06863896,-0.40620297,-0.19461003,-0.16213068,-0.10805318,-0.22355837,0.04351576,0.32524332,0.23854792,-0.052143216,-0.1538612,0.02611816,-0.5384278,0.3483737,-0.32712752,-0.08327061,-0.25007755,0.05011858,0.09898923,0.17658694,-0.5415206,0.4225459,-0.2244659,-0.38039765,-0.30503738,-0.081403464,0.08287264,0.4914,-0.41566738,-0.29916596,0.18908742,-0.059115745,-0.008521665,0.41929245,-0.22446363,-0.10869659,0.030917633,-0.6484685,0.20463386,0.769792,0.17341182,0.018683929,0.40743768,0.054587837,0.19383241,0.31084466,-0.057643205,-0.33959982,0.17415182,0.06803384,-0.59311545,-0.08389902,-0.23124407,-0.0012279903,-0.4889769,0.65487254,0.1832433,-0.4396024,-0.22248447,-0.15951195,-0.06330466,0.29074007,0.025470883,0.12962684,0.17688277,0.6945869,-0.13157107,0.43434495,0.46387064,-0.011368129,-0.24117844,-0.030201225,0.22330163,0.05212923,0.20260921,-0.31800663,0.25303367,0.071010314,0.14690217,-0.19245912,-0.09264021,-0.067631125,0.050636116,0.086725384,0.044484198,0.56210256,0.42151397,0.2447416,0.21422759,0.34338257,-0.07619246,0.5393708,0.4958427,0.22126245,-0.08766793,0.16917618,0.057087302,0.26821622,-0.041257598,0.16835323,0.35134405,-0.15791586,0.6076623,0.16161358,0.30996272,0.6830118,-0.64825,-0.28020212,-0.07576386,0.4048755,-0.41342825,0.043040182,0.27366033,0.050765734,0.31801122,-0.3562672,-0.2496874,0.006586088,0.032478705,0.107009165,-0.1683194,0.010210466,0.26906317,0.024199042,-0.36517763,-0.256467,-0.33192283,-0.08822943,0.18984866,-0.05709146,0.103238285,-0.17947906,-0.31162405,-0.015525291,-0.09880477,0.41907075,-0.12086092,-0.17221187,0.10092418,0.33774906,0.0701794,0.6597664,-0.13286069,0.25014585,-0.34846622,-0.16541183,0.0077368356,0.22153065,0.04579179,-0.046924092,0.36691365,-0.26635447,-0.1795893,-0.15794693,0.15969697,-0.33564392,-0.050259642,-0.09102199,0.06156452,0.22004157,0.24970263,-0.14656723,-0.10454924,-0.10710418,-0.38890886,0.114526615,0.16500527,-0.39871675,-0.047099374,0.1396226,0.10946814,-0.124574974,0.019082176,-0.17533281,-0.12874918,0.010435825,0.39377102,-0.07228615,-0.19638553,-0.4548112,0.3562378,-0.04120742,0.22126047,0.17829035,0.3776553,-0.060944907,-0.054677725,0.3903365,0.030246247,-0.1835761,-0.46499354,-0.11676471,-0.22674254,-0.12052225,-0.17618307,0.13821897,-0.19444174,0.12285265,-0.3751344,-0.16515592,-0.24582659,0.063469626,-0.17956334
11943065.pdf,-0.3882984,0.18852754,0.21623838,0.07981008,0.68087685,0.06957572,0.39487877,0.29325265,-0.09569992,-0.23028226,0.033103656,-0.3280182,0.03861591,0.053120106,0.05880026,0.5311227,0.39891174,-0.07148017,-0.27696052,0.34164777,-0.01904393,-0.37876233,0.22853073,0.73955566,0.34402752,0.1532435,-0.13338551,-0.14431041,-0.12572153,-0.20191117,0.6131473,0.07023238,0.09955748,-0.2698748,0.14021188,-0.0652763,-0.17817982,-0.056107342,-0.070351124,0.2353563,-0.521072,-0.21043333,-0.31206807,-0.21826944,-0.10537291,-0.27510846,0.0197527,-0.09518107,0.11654354,-0.07022616,-0.50333726,0.35890105,0.011016376,-0.34793618,0.090553045,0.6446876,-0.052766006,-0.5923531,-0.33958247,-0.4688464,-0.015535529,0.07994851,0.18800116,-0.18486342,0.036685158,-0.056864806,0.2547922,0.36597714,-0.6684877,-0.25049257,-0.39428383,0.2638138,0.029898763,-0.18428522,-0.19175322,-0.25377885,0.106712535,0.3270812,0.16087729,-0.15028203,-0.15998428,0.2785859,-0.19472444,0.33826783,0.16078117,0.16252485,0.27675584,0.12047772,-0.17204127,0.35861573,0.15305442,-0.32955223,0.2239933,0.20754161,0.20823762,0.12489685,0.1139096,0.10895985,-0.27059823,-0.06351055,0.120164745,-0.062150486,0.22803399,0.15604708,-0.053564873,0.05166079,0.1676366,0.11943644,-0.518054,0.44212365,0.05124001,-0.2154324,-0.2763844,-0.4515013,0.012090467,0.008203823,0.13729922,0.36304125,0.18926145,0.2833451,-0.12969854,-0.084028296,0.12137911,0.9255581,0.03972166,0.122408666,-0.21915755,0.10989344,-0.10836208,-0.13348693,0.043908365,0.060411163,0.06263535,0.019323036,-0.17965281,0.42810193,-0.16504626,-0.37520817,-0.15721193,0.37103188,0.002597644,-0.538614,0.5204915,-0.16580081,0.25034982,-0.32754606,-0.03230653,0.16571549,-0.029215029,0.38171095,0.24294737,0.050868154,-0.013928805,-0.18448323,-0.0913306,0.07860768,-0.38434207,0.10380119,-0.16080326,-0.06656691,0.31047302,0.3942273,-0.54431754,0.28408659,0.056649245,0.18168968,-0.40465343,0.2555855,-0.2873327,0.16235171,0.06704011,0.047249526,0.5083732,-0.054076552,0.077126056,-0.07488128,0.057205103,-0.2121731,0.11802159,0.11148957,-0.33103162,0.29280037,-0.24591078,-0.19417149,0.19069621,-0.24592686,0.2985288,-0.30414662,0.0996917,-0.017643616,-0.13034233,-0.38633177,-0.011514672,0.1086788,0.42933095,-0.21650274,0.09813626,0.06863426,-0.37810138,-0.21599902,0.3639717,0.15774512,0.20257017,0.21982825,-0.11373285,-0.41908005,0.19847286,-0.4306257,-0.26439166,-0.021535013,-0.36716682,0.14322965,-0.10590467,0.5384115,-0.013979914,-0.011026446,-0.16931579,0.021228053,0.26119372,-0.018752012,-0.011719463,0.037139595,-0.34846157,0.40711856,-0.4823162,0.5750836,0.014733115,-0.8925507,0.28741106,0.43098444,0.039048254,-0.403756,0.45472324,-0.261758,0.09663285,0.011646746,-0.33921853,-0.20068252,0.4280706,-0.48201632,-0.30384827,0.590338,0.19393349,0.29526138,0.18403989,-0.0020926027,-0.09521247,0.29580694,-0.019059949,-0.18382108,-0.67626554,-0.0041678543,0.020219702,-0.2549554,-0.06545702,-0.31291264,-0.21871744,-0.6301663,-0.15575375,-0.034091324,0.21401605,0.29172462,0.22961496,-0.09865785,-0.054866314,-0.8426525,0.26819885,0.31768185,0.23960048,0.07974136,-0.024590103,-0.18528914,-0.0051477957,0.42788237,-0.45198327,0.08103936,0.32608962,0.054681614,-0.014269334,-0.2378945,0.022381159,0.30564392,-0.23882084,-0.11589223,-0.07535574,-0.15730467,0.32167375,0.0636736,-0.17393062,-0.15958425,0.06149242,0.21383956,-0.5208675,-0.306908,0.5742979,0.1504919,0.019585554,0.19377267,0.31470305,0.15266857,-0.37459874,-0.3293227,0.03710726,0.1525074,0.19173905,0.11702618,-0.062441725,-0.64981496,-3.59234,0.037589684,0.10992674,-0.1278565,0.30750865,-0.19322184,0.27213967,0.00578063,-0.57456654,0.3366797,-0.2294585,-0.09902713,0.102849804,0.40449983,0.31183493,-0.0022215992,0.0575431,-0.34706807,-0.07718583,0.33258796,-0.11166954,-0.5190868,0.02932478,0.086962864,0.41386214,0.31310242,-0.50106466,-0.0001662341,-0.28014106,-0.2105066,0.3204068,-0.16388915,-0.3146848,0.27226415,0.1768367,-0.08026038,-0.053706788,-0.36019862,-0.23972219,-0.44779158,0.11581439,-0.99210227,-0.26068783,-0.09766602,0.51742446,0.12243289,0.31612694,-0.19819197,0.03471412,0.1146823,0.15057442,0.15052138,-0.0038873777,-0.1820183,-0.061599325,-0.020841487,0.63583994,0.26817748,-0.3310355,-0.22021306,0.12045977,-0.14722373,-0.5719546,-0.1766551,-0.16228205,-0.17692475,-0.71677387,-0.34973544,-0.1436074,-0.09637208,-0.12240292,0.61997545,-0.34751904,-0.22589283,-0.12903751,-0.45870894,0.16840778,-0.30638123,-0.06111005,-0.095762536,-0.32705188,-0.29259807,0.23650709,0.17700876,-0.07034606,0.05362962,0.03801349,-0.026647259,-0.4901055,-0.44980815,0.23247285,0.21463503,0.07373957,0.10744132,0.49364293,-0.026025161,0.35655332,0.08490057,0.10114443,-0.38536787,-0.005318353,0.16536197,0.70141757,-0.2389424,0.10026911,0.023844298,-0.2518393,-0.10640826,0.28136832,-0.035688456,0.050356746,-0.18564934,0.17737508,-0.1689201,-0.071481675,-0.1151224,0.21156263,0.7901425,-0.07229541,-0.36956295,-0.15748736,0.317917,0.014740424,-0.17464936,-0.3340814,-0.07734195,-0.2217508,0.10918971,0.11824207,0.048203,-0.1873083,-0.19921504,-0.21211168,0.2854855,0.318257,0.0077380026,-0.107262686,-0.63661987,-0.346182,0.23453134,-0.09288278,0.23370889,0.24182339,-0.34968087,0.09510036,0.21248111,-0.13851148,0.42479753,-0.28971726,0.19734102,-0.47995195,-0.2436095,-0.13446201,-0.2685538,0.10325228,0.5013354,0.20367107,-0.123086214,0.22041966,-0.46016705,0.2583485,-0.020044038,0.19302315,-0.1001797,-0.1789797,0.61626935,-0.15752783,-0.0013561416,-0.010278001,-0.1208742,0.01612419,-0.40783584,0.18908882,-0.4180342,-0.027466495,0.37975717,0.2227442,-0.30263495,-0.20352185,0.25585365,-0.081266366,-0.41171747,-0.23988985,-0.18147808,0.24884209,-0.03529045,0.1383884,-0.4241107,-0.0010424908,-0.0054822676,0.050136503,0.2047683,-0.059698075,0.20344356,-0.18886556,-0.06563973,0.5480327,0.010895762,0.14175852,0.20519267,-0.026294457,-0.33138657,-0.37239876,0.028853403,0.016398456,-0.25524426,-0.0036869412,0.2619242,-0.10763879,0.22138943,-0.32888085,0.037461042,-0.39020663,-0.09156445,0.25703984,-0.6701322,-0.33242232,-0.098789215,-0.47974312,0.14172223,0.04963336,0.025877861,0.055909913,-0.10838289,-0.1506306,-0.25546694,0.11501506,-0.018744059,-0.34461015,-0.038268093,0.19098476,-1.0008204,-0.015153411,-0.005565821,-0.22760302,-0.009866953,-0.24133068,-0.77415323,0.53341675,-0.24908443,-0.1928226,-0.14941317,-0.286074,-0.348606,0.1894759,0.088622816,-0.19104138,0.40731323,0.04866281,0.48869234,0.0013732202,-0.01989619,0.15204537,-0.22680393,0.17893626,-0.43428653,-0.27167737,0.0205894,-0.0221661,-0.028520595,-0.2089507,-0.24167466,-0.37549466,0.03489431,0.31469697,0.22451608,0.009131864,-0.14379501,0.010848024,-0.65119565,0.106749594,-0.27927217,-0.0153085515,-0.11434412,0.15278602,-0.0024484666,0.16192439,-0.48621285,0.6632136,-0.2596037,-0.34944123,-0.06545915,-0.18708545,0.14784023,0.39424115,-0.36034155,-0.16881387,0.22990724,-0.13453116,-0.0871469,0.49103492,-0.2411486,-0.29086176,0.026806943,-0.6193665,0.33759812,0.5023616,0.26569432,0.10880097,0.062201504,0.05860798,0.22895575,0.28853917,-0.0379075,-0.31399554,0.2991538,0.09900667,-0.62272847,-0.11010663,0.036248542,-0.076389864,-0.5288548,0.6552641,0.20546307,-0.36464676,-0.24001038,-0.2354649,-0.14338231,0.41953924,0.0033471952,0.25269863,0.27938694,0.7440458,0.0020463713,0.36603093,0.4802186,0.0023714085,-0.29805169,-0.095722325,0.24853277,0.09904021,0.3070811,-0.24769081,0.20155814,-0.011620576,0.1656124,-0.09149758,-0.02967203,-0.007424865,0.15446624,-0.11132803,0.088021606,0.77880704,0.44703716,0.43120402,0.2862432,0.29294795,0.059739597,0.5807062,0.3318299,0.092440985,0.058326,0.159473,-0.06688489,0.2624416,-0.14808446,0.39696544,0.31816658,-0.119736105,0.33873773,0.14643282,0.18907113,0.51623416,-0.6037674,-0.31215745,2.3599714e-06,0.5083831,-0.33741614,-0.03076023,0.43493128,-0.019212209,0.124323234,-0.4388787,-0.30178082,-0.07363961,-0.032751754,0.28638408,-0.33880803,0.03869363,0.2293752,0.033509277,-0.31065482,-0.31632167,-0.35537818,-0.065845996,0.116393685,-0.007876959,0.16116776,-0.032350797,-0.25506303,-0.068682864,-0.07704644,0.30609357,-0.15755053,-0.22290531,0.10423559,0.31164455,0.1155741,0.62326884,-0.13655156,0.2248501,-0.21713978,-0.27307683,-0.012368871,0.15169948,-0.11660829,0.083984196,0.37521118,-0.36159745,-0.16411467,0.017296348,0.31420815,-0.27217808,-0.05643816,0.10600654,0.1652374,0.23757409,0.1666511,-0.33626062,-0.1051026,-0.03856046,-0.32585102,0.18943703,0.32081524,-0.49592623,-0.15757874,0.18593031,0.08090047,-0.15475735,-0.057009403,-0.2413055,-0.048495695,-0.15556927,0.24788068,-0.030554552,-0.24373493,-0.35339716,0.41500697,-0.031740017,0.18982421,0.1053459,0.15532215,-0.051676698,0.15911585,0.45357916,0.094882905,-0.1376772,-0.29940325,-0.13740174,-0.397421,-0.17984319,-0.17073137,0.088362515,-0.27694544,0.008120477,-0.47881308,-0.3327359,-0.26555455,-0.07362098,0.028726041
12467531.pdf,-0.28393728,0.35337052,0.37178725,0.10941884,0.66547644,0.16028318,0.24705148,0.20216812,-0.02804203,-0.47902277,-0.041095667,-0.27635503,0.13271296,0.08662242,-0.010396359,0.53447497,0.3048476,-0.084136665,-0.17773627,0.39443868,-0.03360423,-0.25594142,0.2401697,0.62460065,0.44408906,0.060523447,-0.13611925,-0.12468128,-0.16002844,-0.35614818,0.49568903,0.021699589,0.06603383,-0.29687062,0.10183708,0.0058510676,-0.2672706,-0.10768936,-0.11440231,0.17197752,-0.57813466,-0.2649268,-0.26306826,-0.1640395,-0.21945333,-0.31234848,-0.08096314,-0.09528273,0.12617008,0.015997123,-0.4706006,0.2931249,-0.1727209,-0.3656029,0.10259938,0.6234385,0.0913306,-0.644505,-0.39395708,-0.45454523,0.10846971,0.008621523,0.19082244,-0.13268092,0.057454966,-0.1284804,0.07406398,0.2409515,-0.6769395,-0.17388412,-0.40758717,0.14895585,-0.10998274,-0.19129428,-0.3311897,-0.11584076,-0.005815492,0.44085854,0.0028384489,-0.119552895,-0.14023753,0.23741561,-0.18852407,0.2836336,0.24543473,0.13392067,0.430834,0.21357004,-0.2993595,0.40546605,0.2817275,-0.19082192,0.37416196,0.1938647,0.2821566,0.09184706,0.0053060018,0.076663755,-0.21981762,0.12095959,0.11810924,-0.038634386,0.055188492,0.032933474,-0.08363737,-0.024637694,0.13760126,0.15402755,-0.523223,0.28942615,0.07466869,-0.2272142,-0.27460337,-0.34745005,0.065446876,0.024174787,0.17326996,0.40096152,0.096674874,0.2130025,-0.038526494,0.051115144,0.16676232,0.792991,0.038647745,0.14295864,-0.1928108,0.06196187,0.08063839,-0.26278672,0.026081705,0.05138033,-0.14148189,0.06902455,-0.3065161,0.39625305,-0.23747906,-0.29026985,-0.21235867,0.19952828,0.03609222,-0.5529958,0.5804546,-0.052187704,0.18602355,-0.2894926,0.090054035,0.13306691,-0.03793552,0.42298067,0.18915677,0.06878195,-0.22284952,-0.12625322,-0.10421111,0.07535435,-0.31587878,0.17342421,-0.2570968,0.028604165,0.24992077,0.38424706,-0.4900782,0.233774,0.054788165,0.046289235,-0.25192663,0.3140891,-0.22135007,0.041429818,0.036748394,0.10424198,0.6798843,-0.02933672,0.39171973,-0.014353741,0.06756496,-0.11264257,0.0773573,0.18351112,-0.40630904,0.26397842,-0.22427633,-0.076074734,0.10300603,-0.17113888,0.22567898,-0.2977962,0.09855692,-0.23325178,-0.17189679,-0.4153514,-0.0059652813,0.10633497,0.4566813,-0.2987485,0.17027919,0.040052533,-0.40712208,-0.19354793,0.25483745,0.13274284,0.10297891,0.19368757,-0.052746385,-0.49530855,0.20164132,-0.37912467,-0.41822448,-0.09381032,-0.2692631,0.1736997,0.039032802,0.3311093,0.04916934,0.018727478,-0.24777323,0.056742474,0.011182651,0.059981216,0.05329682,0.118312836,-0.29749957,0.5152261,-0.4007657,0.55042917,0.081536144,-0.93806815,0.2687385,0.33611548,0.047319412,-0.37231135,0.32564005,-0.27387398,0.11735595,0.093206525,-0.26918507,-0.26079643,0.4344323,-0.42474446,-0.37233037,0.60523224,0.19508767,0.23230538,0.1356941,-0.084415875,-0.13498098,0.26741856,-0.10691945,-0.19692782,-0.69308627,0.002603286,-0.08199379,-0.3228858,-0.1634426,-0.37318277,-0.12063263,-0.5105171,-0.24161056,-0.092545584,0.199005,0.32148796,0.05682329,-0.028254468,0.04535173,-0.8917787,0.11707261,0.19635248,0.29905647,0.16721958,0.03292558,-0.25213572,-0.024047017,0.45411146,-0.4229712,-0.1252781,0.26852703,0.0713819,0.011535512,-0.24157952,-0.0016864352,0.24123785,-0.18221925,-0.027494404,0.09061623,-0.15211104,0.28687525,0.06879924,-0.23251796,-0.17826185,-0.10526277,0.3030304,-0.4494404,-0.24316508,0.60705495,0.32486606,0.033958223,0.20997036,0.3081538,0.061236784,-0.33189175,-0.2922628,0.2653871,0.043478925,0.16085428,0.11493025,-0.060580783,-0.5970434,-3.685522,-0.09977256,0.085670725,-0.14246348,0.25067547,-0.2928908,0.37654582,0.05891003,-0.38625073,0.15514109,-0.19175711,-0.066670895,0.12493133,0.33694035,0.10295543,0.11916717,0.19394526,-0.28267857,-0.05065671,0.3632312,-0.15558045,-0.5829804,0.015164783,0.19215447,0.16249473,0.12764841,-0.35463995,0.012370417,-0.39359182,-0.18420084,0.22992855,-0.19967206,-0.36397266,0.19081229,0.11221552,0.013971172,-0.05264937,-0.24310715,-0.19315532,-0.44550705,0.09500155,-0.85010684,-0.2685518,-0.12211916,0.4485435,0.13097942,0.2469711,-0.08650822,0.22889325,-0.032893308,0.17279795,0.09098627,-0.18812224,-0.17363712,-0.11773057,-0.049989574,0.6825346,0.26782286,-0.27765015,-0.070856385,0.20258886,-0.14429191,-0.39672476,-0.22533435,-0.05497787,-0.13449019,-0.6537323,-0.32089671,-0.21074519,-0.097194046,-0.15344045,0.6766211,-0.28435028,-0.2681358,-0.073174775,-0.42806593,0.26759773,-0.24451761,0.018046096,-0.19539472,-0.35912287,-0.12026794,0.26520708,0.12453744,-0.13463508,0.06115951,0.1661259,-0.02462025,-0.53887224,-0.3575608,0.4201073,0.122555636,0.17532042,0.09822275,0.4508108,-0.07126896,0.36495513,0.0056232405,0.0044559985,-0.35466075,0.07614983,0.12381391,0.6431282,-0.31935844,0.05270408,0.0031600446,-0.1879623,-0.043659583,0.44186395,-0.08837439,0.08241062,-0.16351539,0.095510885,-0.4330791,0.0019688476,-0.028331997,0.046809603,0.8943913,-0.030325007,-0.26112387,-0.16398545,0.22228612,-0.095507845,-0.042161733,-0.40273762,-0.0541419,-0.21246648,0.21534023,0.07074644,-0.079096474,-0.13054635,-0.16181965,-0.3231355,0.26315582,0.24801482,0.012563281,-0.008896548,-0.38888955,-0.29958534,0.12526402,0.019994397,0.33859253,0.19310358,-0.34341422,0.083501734,0.23889747,-0.23371716,0.43441254,-0.31617254,0.20528334,-0.4940576,-0.30144453,-0.28659487,-0.27915728,0.18200423,0.6265516,0.10874205,-0.22301874,0.03273455,-0.3980626,0.2603078,0.14215735,0.108253494,-0.044950534,-0.17648816,0.6385417,-0.1912167,-0.1802581,-0.06956929,-0.095975086,-0.12799083,-0.33512053,0.1359461,-0.5975492,-0.00029395428,0.35957587,0.24014524,-0.30123556,-0.18385893,0.13549858,-0.0070181563,-0.34078455,-0.2549535,-0.074012905,0.14011943,0.007756343,0.29326463,-0.37488034,-0.013984797,-0.022379462,-0.03246319,0.23481655,-0.042494703,0.18258867,0.0046419185,0.0648344,0.55716956,0.08138775,-0.0023777336,0.1323492,0.0760706,-0.26144075,-0.4295382,0.023880666,-0.03572187,-0.24510242,0.017339796,0.23159787,-0.10265142,0.09032404,-0.41744268,-0.12005776,-0.39139628,0.027223218,0.32258508,-0.7782887,-0.35101575,-0.1080365,-0.6208501,0.33358568,0.1906861,-0.048374984,0.09891452,0.04617302,-0.08640307,-0.20614548,-0.008579963,0.097809635,-0.21991661,-0.09163597,0.14673264,-0.88572836,0.025656788,0.035472423,-0.22901252,-0.047958057,-0.2316989,-0.8120903,0.37000984,-0.30261517,-0.2525456,-0.13712564,-0.31182188,-0.39836386,0.12527457,0.044429272,-0.2710324,0.49206403,-0.071473055,0.5057833,0.16283245,0.11361976,0.14454964,-0.12533726,0.17451704,-0.26445377,-0.39692575,-0.16311483,-0.22928588,-0.1548382,-0.19522566,-0.24153414,-0.26614392,0.09616323,0.30548173,0.25687492,0.04141389,-0.11935818,-0.009409553,-0.56390977,0.108625144,-0.23410717,0.0033755638,-0.046354227,0.22024512,0.025896892,0.16945998,-0.28384063,0.5732649,-0.2894012,-0.32839215,-0.13961376,-0.13639525,0.06597493,0.31025428,-0.37533465,-0.11801029,0.28899622,-0.103448994,-0.04714633,0.42262882,-0.22194952,-0.30575854,0.091560096,-0.57207525,0.34956592,0.738106,0.14488962,0.077537954,0.19016445,-0.007823478,0.22619846,0.47955167,-0.04860141,-0.3013873,0.28356162,0.025617514,-0.6455565,-0.23401451,-0.12136462,-0.052613437,-0.4926865,0.6412037,0.25698888,-0.4221675,-0.2483283,-0.19223896,-0.09220894,0.29124084,0.0011353646,0.01594414,0.18665126,0.70378345,-0.060032785,0.3996877,0.38532484,-0.03215903,-0.30364978,-0.005211521,0.3080356,0.032216568,0.33787334,-0.12291033,0.30740306,0.115459785,0.15620151,-0.18332922,-0.1690799,0.058761332,0.23547617,0.038162276,0.084498554,0.8072927,0.33446145,0.2972082,0.20918527,0.35413855,0.098972425,0.4244781,0.48093402,0.047594972,-0.048347406,0.18113649,0.029115843,0.22619066,-0.19417545,0.40574682,0.48262572,0.10573928,0.34759292,0.10207225,0.17208005,0.56954896,-0.7012313,-0.27604684,-0.07774817,0.49807978,-0.2589841,-0.0354091,0.42300087,-0.028546426,0.13904807,-0.4931543,-0.3615312,0.034131356,0.007793058,0.17390577,-0.3165704,0.025075853,0.3720703,0.02646338,-0.27146232,-0.2282879,-0.3113572,-0.21034041,0.20305751,-6.3724816e-05,0.06316729,-0.21969646,-0.33139703,0.002983829,-0.06870276,0.34356764,-0.06689069,-0.26939544,0.16938776,0.24561186,0.046331376,0.7112936,-0.068016216,0.21013054,-0.19582531,-0.16250792,0.06412049,0.29123592,-0.17450386,0.013222924,0.33179477,-0.3120612,-0.21660434,0.09885252,0.14959341,-0.3619758,-0.078372665,0.06493653,0.22763495,0.09025693,0.21335074,-0.299141,-0.13279876,0.02301958,-0.37629884,0.16517657,0.29212463,-0.42991883,-0.015697485,0.18697232,0.24661301,-0.05896686,-0.0777265,-0.16356835,-0.0016364767,-0.06845919,0.38560838,-0.0060233464,-0.20889843,-0.34850478,0.44336405,0.13832384,0.23719752,0.07832027,0.20962477,0.14382666,0.10812028,0.40157372,0.09296511,-0.14869758,-0.22360426,-0.23245862,-0.34915665,-0.13173881,-0.13477813,0.17660388,-0.20321049,0.031307366,-0.4482789,-0.321388,-0.3778574,-0.21735638,0.06205613
12587973.pdf,-0.42370313,0.26724374,0.35157523,-0.004285369,0.59016895,0.040738195,0.28610644,0.24982044,-0.03304883,-0.41276997,0.080888204,-0.28513402,0.13475256,0.009196507,0.004307227,0.4598115,0.3924855,0.058859915,-0.19500268,0.2617895,0.010346193,-0.38954887,0.18040761,0.7419473,0.37383413,0.12598416,-0.15829912,-0.18089552,-0.26697448,-0.21417421,0.5461312,-0.105119616,0.05681787,-0.27402058,0.10905139,-0.027658759,-0.06973715,0.013994536,-0.10279698,0.090103485,-0.45054764,-0.19608793,-0.13757858,-0.07404387,-0.21380676,-0.21652019,0.107229635,-0.24130559,0.14203703,0.007030219,-0.46677572,0.35392112,-0.16755795,-0.26164672,0.13445634,0.7032858,0.0025406256,-0.5265446,-0.5055435,-0.38489753,0.20980105,-0.067250885,0.23612063,-0.21928394,0.11726993,-0.07219306,0.20695476,0.29862887,-0.6325233,-0.22739676,-0.4646417,0.10726422,-0.11964248,-0.18281399,-0.39688438,-0.18048735,-0.09691681,0.38573313,0.09401994,0.026720468,-0.35114425,0.25902462,-0.3244751,0.32053274,0.10657125,0.140233,0.44887537,0.05259264,-0.30088973,0.7209946,0.22712077,-0.34697688,0.3290082,0.2494148,0.09831965,0.14814247,0.268223,0.15274459,-0.20736066,0.0120181665,0.2617824,-0.13755982,0.029807407,-0.0065497905,-0.020866703,-0.03146123,0.14980684,0.07236281,-0.54369086,0.35820675,0.00727945,-0.26835462,-0.28847414,-0.16345608,-0.003944706,0.04267087,0.056589566,0.17697035,0.17312971,0.098969206,0.07738245,-0.05855891,0.13726293,0.9192074,-0.041798342,0.040531244,-0.15095216,0.21609367,-0.14549346,-0.09184252,-0.08652316,0.13556483,-0.074436,0.105491534,-0.24876705,0.31392723,-0.15419342,-0.28278553,-0.110782355,0.24727848,0.035504926,-0.53247535,0.603156,-0.17220119,0.16026941,-0.36608946,0.15167317,-0.12327983,-0.16344498,0.36939144,0.29978424,0.08128795,-0.12312283,-0.33183664,0.07056989,0.12701511,-0.33032176,0.091952704,-0.19562295,-0.123676665,0.32772216,0.312224,-0.5322639,0.3373438,-0.017101396,0.13913547,-0.16005433,0.37853187,-0.26946077,0.16768722,0.029833969,0.05559166,0.5271031,0.16976044,0.1407026,0.06964603,0.1407457,-0.06010342,0.082549796,0.10588877,-0.44579083,0.4324863,-0.09621875,-0.11912512,0.24865668,-0.2920357,0.24053013,-0.41886985,0.0040412247,-0.2326676,-0.1683178,-0.44037282,0.051809892,-0.12445167,0.29932797,-0.24013174,0.10851312,-0.014397286,-0.5403865,-0.28059494,0.23585993,0.17116842,0.2468544,0.2276398,-0.000105425715,-0.39896214,0.09634184,-0.35750192,-0.26483047,0.26646873,-0.3653764,0.08278737,-0.009857187,0.28163335,-0.15475658,0.109585285,-0.16194755,-0.032803535,0.16937861,0.039588675,0.07259665,0.17861614,-0.46940184,0.48247212,-0.44786102,0.41480148,0.0072178617,-0.9920755,0.22359885,0.552268,0.12140846,-0.2473788,0.50273836,-0.28902337,0.05422798,0.06109136,-0.301332,-0.20522214,0.22486897,-0.43298972,-0.29965442,0.6239973,0.18198964,0.18838216,0.12422182,0.0060225967,-0.008097144,0.0965612,-0.13529707,-0.15808475,-0.72952694,-0.0007878691,-0.055225387,-0.3828787,-0.004669734,-0.474393,-0.19859283,-0.44493923,-0.2606744,-0.14223713,0.34225106,0.16560964,0.071070194,-0.009266216,-0.03700892,-0.75878507,0.18734294,0.2287367,0.28109127,0.26180908,0.009700773,-0.1418679,0.14625591,0.5363244,-0.46503583,-0.069722585,0.28099024,-0.040100772,-0.025962703,-0.3343916,0.13814811,0.32202238,-0.36374125,-0.02441884,0.04491639,-0.18632211,0.2814775,-0.030890642,-0.23362213,-0.22262922,-0.12518379,0.21323273,-0.5318725,-0.3190387,0.52513134,0.11325358,0.106384866,0.34543258,0.2670558,0.16072592,-0.27324966,-0.48892206,0.20288599,0.079537004,0.1227736,0.029120266,0.029280137,-0.70997036,-3.5071588,0.008636533,-0.008889956,-0.2615211,0.32647258,-0.1339623,0.18015465,0.021808624,-0.43189484,0.18010667,-0.27054065,-0.11804214,0.054446355,0.3089604,0.16920868,0.028364591,0.1496037,-0.36147612,0.107531525,0.3229478,-0.17230317,-0.7848429,0.038601343,0.07602215,0.4731359,0.2974015,-0.43362463,-0.053213183,-0.45325452,-0.04365373,0.2573986,-0.16357079,-0.27879077,0.34936422,0.21391577,-0.039176162,-0.090374954,-0.4744069,-0.11336521,-0.6145959,0.21824832,-0.74690706,-0.32477266,0.12211964,0.7077458,0.051671058,0.31629294,-0.15273783,0.1440048,0.061434086,0.25089693,0.08454245,-0.15556544,-0.12438701,-0.052772336,-0.09925656,0.66525954,0.23674707,-0.24700001,-0.043564633,0.037049398,-0.27225667,-0.43712306,-0.0838656,-0.21127157,-0.12772685,-0.6128399,-0.3867656,-0.3117944,-0.20412585,-0.15626842,0.69998074,-0.24876747,-0.18884537,-0.13335288,-0.5253682,0.25184378,-0.097730234,0.008328704,-0.17213741,-0.1586096,-0.30075783,0.20662278,-0.0399745,-0.08498956,0.0038174316,0.09851873,0.15394977,-0.5110952,-0.46051115,0.35316938,0.10619481,0.26375216,0.12701434,0.41207844,-0.09167473,0.48141658,-0.025022952,-0.106439084,-0.38438797,0.041062325,0.1602983,0.5047355,-0.12339257,0.1150223,-0.032526232,-0.2594148,-0.09818153,0.32568294,-0.11351807,0.1975177,-0.23527145,0.072361484,-0.24863523,-0.15496556,-0.07407474,0.19541961,0.80261576,-0.08200088,-0.20434172,-0.07592575,0.22422192,-0.15025836,-0.0022840481,-0.16533516,-0.039787404,-0.2664532,0.36649168,0.02139966,-0.072760254,-0.11546779,-0.17762585,-0.23441705,0.15550566,0.22986093,0.057053935,-0.018721394,-0.5750303,-0.22541875,0.2799679,0.02837861,0.37735426,0.24795552,-0.19765413,0.19034448,0.21622011,-0.016475888,0.21223982,-0.2975904,0.29693228,-0.59527147,-0.22510913,-0.2581048,-0.4047888,0.13633163,0.4687007,0.1794086,-0.111584365,0.09689629,-0.5468789,0.28068975,-0.0836376,0.20511957,-0.07204736,-0.17925557,0.60278773,-0.08812134,-0.15758875,-0.11506001,-0.010214344,-0.052516736,-0.44203314,0.24888046,-0.4984238,-0.14972669,0.38193423,0.30985016,-0.056060847,-0.11536411,0.24048002,-0.07969791,-0.34976405,-0.28224698,-0.21449123,0.2272645,0.107283145,0.18871023,-0.40086672,-0.008243572,-0.019915037,-0.023358952,0.22415638,-0.17094173,0.18749215,-0.07997993,-0.036511697,0.6148909,0.18136907,0.01209102,0.101814605,0.09376065,-0.408642,-0.5112067,0.033340268,0.09312854,-0.14818957,-0.05555645,0.35311294,-0.15247548,0.088052556,-0.3904742,0.06268665,-0.546278,-0.016830562,0.14154321,-0.7309591,-0.26120245,-0.042261094,-0.4171713,0.22929692,0.12150109,-0.095607325,0.078543894,-0.039655544,-0.18109715,-0.3388611,0.06700659,0.020969199,-0.30746317,-0.25425255,0.13674511,-0.9729861,0.23299977,0.061885275,-0.18440236,0.099803895,-0.20333235,-0.67064834,0.5139291,-0.30230343,-0.2387706,-0.09606394,-0.26953065,-0.27610788,0.30141807,-0.014683582,-0.25428066,0.2845049,-0.030840829,0.6019997,-0.057414595,0.02422459,0.20684049,-0.016244773,0.08684609,-0.42432326,-0.43940863,-0.15750787,-0.25384957,-0.07625389,-0.20244801,-0.11092763,-0.22662671,0.08036682,0.39555794,0.3260259,-0.113767266,-0.029349156,-0.027466,-0.5881156,0.12051672,-0.35138676,-0.10597454,-0.1932631,0.20521855,0.15361726,0.18149212,-0.37293375,0.3917027,-0.28364366,-0.43471968,-0.18009806,-0.09044609,0.09548733,0.39061984,-0.53182757,-0.14281216,0.25446016,-0.095450774,0.008072175,0.4305625,-0.13373229,-0.09909938,0.06706472,-0.63190174,0.17153838,0.8056802,0.27762452,0.014130711,0.22947504,0.25271305,0.21778229,0.35038114,-0.07032586,-0.29467458,0.31165555,0.10353993,-0.6765337,-0.12347151,-0.12786362,-0.09953644,-0.49865252,0.6533978,0.2112106,-0.49502265,-0.35154083,-0.26384288,-0.09456289,0.37427026,0.06812372,0.060819384,0.024417039,0.71148276,-0.008757934,0.4052187,0.49993652,-0.027777389,-0.19731581,-0.0019473284,0.27495024,0.027646134,0.3346302,-0.17707936,0.23229703,-0.0007008519,0.1423038,-0.21832708,-0.09219545,0.07570396,0.028405419,0.059111014,0.081046134,0.72043526,0.4885255,0.33005232,0.24525698,0.36875862,-0.0817642,0.6133338,0.54522216,0.049668405,-0.07631562,0.18360656,0.094216004,0.21379447,-0.102739036,0.25679418,0.601215,-0.16278769,0.5524371,0.16374668,0.2406761,0.56127924,-0.64131993,-0.26621377,-0.07934364,0.6050736,-0.37108332,-0.004305616,0.22954372,-0.081538096,0.26775342,-0.31432956,-0.4215027,-0.031244975,0.062105343,0.16168547,-0.2192179,-0.047202863,0.21750218,0.011649631,-0.10906151,-0.2832433,-0.24694665,-0.23509924,0.3227526,-0.07623987,0.033156693,0.016665824,-0.3181696,0.0014027194,-0.042652342,0.27722543,-0.10288977,-0.16161466,0.13728762,0.31640342,0.11052115,0.7329422,-0.11019713,0.08272267,-0.14819154,-0.18083425,0.10335295,0.1945457,-0.045956157,-0.043340374,0.37034315,-0.22921127,-0.31677252,-0.03919951,0.26960796,-0.3136021,-0.088861585,0.019251253,0.10814612,0.16152015,0.105208635,-0.22088182,-0.13639387,-0.03807036,-0.33754224,0.06567772,0.22963522,-0.32677412,-0.017474167,0.252222,0.15183522,-0.108003885,0.07312594,-0.25077677,-0.03505312,-0.040029366,0.24932201,0.038550816,-0.28236154,-0.32379174,0.2524828,-0.05023696,0.17824969,0.18771482,0.17941889,-0.12571514,0.059860375,0.38984102,0.12489672,-0.21366309,-0.3465072,-0.16940412,-0.12869012,-0.03976965,-0.24303247,0.15711898,-0.2411722,0.08013327,-0.3114837,-0.21999088,-0.29795027,-0.059076782,-0.13204974
13087952.pdf,-0.35991383,0.13576378,0.3014204,0.06252168,0.6353667,-0.075267695,0.29064038,0.3818162,0.043448653,-0.15638335,0.03692109,-0.27089053,0.057994924,0.05434644,0.052308768,0.39654592,0.45907077,0.030646823,-0.19046448,0.3543496,0.02249347,-0.22558814,0.16296822,0.7808703,0.28875312,0.19063787,-0.10776709,-0.14938053,-0.22426218,-0.14975873,0.49099815,-0.00054504164,0.060773797,-0.1494186,0.21401818,-0.11012243,-0.1483367,-0.0012127878,-0.096135445,0.26606864,-0.43536654,-0.23477411,-0.2520501,-0.11488613,-0.22084866,-0.23731546,0.04925541,0.07093642,0.04470878,0.027378045,-0.39644265,0.29147935,-0.14181533,-0.23966828,0.14049989,0.5736927,-0.023936536,-0.44956297,-0.39668888,-0.47791195,0.010295839,0.074659474,0.13842231,-0.0976411,0.21332932,-0.016006187,0.17983311,0.41838032,-0.71775573,-0.22884159,-0.29199722,0.2162658,0.034320533,-0.21877845,-0.2236343,-0.21827653,-0.11376682,0.3551464,0.1310306,-0.066578224,-0.15121578,0.21252106,-0.044913664,0.3423733,0.11647776,0.13194355,0.2227057,0.12875913,-0.19640782,0.46758303,0.076919034,-0.17948648,0.1692828,0.20453754,0.16892336,0.0069062114,0.05745246,0.08399963,-0.28143635,-0.061294056,0.09026385,-0.1434378,0.1559186,0.20469967,-0.124408245,0.014594492,0.014415285,0.119827725,-0.41990286,0.5732429,0.13305302,-0.21067417,-0.29850304,-0.4811933,0.0069445055,0.064227134,0.21558735,0.16074836,0.17279239,0.11602938,-0.0027078167,-0.16964997,0.19362447,0.8120059,0.07163294,0.19643489,-0.17258903,0.10234906,-0.03843912,-0.16474034,0.01521553,0.008972727,0.04790054,0.058259856,-0.15979847,0.22796896,-0.25493467,-0.31680644,-0.15839127,0.32132983,-0.03140308,-0.6202935,0.5272206,-0.11183874,0.31927538,-0.3710364,-0.13318962,0.16008288,-0.043289248,0.4380598,0.28795025,0.15635398,-0.16336483,-0.34782296,-0.13287109,0.10314988,-0.3683933,0.22040877,-0.009257167,-0.119928986,0.33157927,0.27156958,-0.41432846,0.2829603,-0.076708116,0.17149699,-0.22640903,0.29239547,-0.361601,0.15598466,0.006495867,-0.12610237,0.51756346,0.15887189,0.075610206,0.018489469,0.13927615,-0.19317088,0.16797234,-0.021223003,-0.4627107,0.24167329,-0.19091472,-0.20609279,0.19374852,-0.20695856,0.18903512,-0.3961941,0.17418498,-0.15889433,-0.22075646,-0.36121106,0.043217108,0.1216602,0.3448981,-0.1936774,0.15103102,0.06347333,-0.41592634,-0.21220815,0.24722071,0.1165457,0.18161435,0.16514978,-0.066458285,-0.41098952,0.16244453,-0.3954147,-0.13414541,-0.0009944271,-0.33677378,0.15334186,-0.11304267,0.4956616,-0.14305174,0.06343562,-0.17866462,-0.039031386,0.18868649,-0.062202133,0.010799451,0.002849346,-0.47392625,0.34592062,-0.44501844,0.5392866,-0.028409183,-0.7232989,0.21759623,0.48390433,-0.012345236,-0.40225926,0.45554852,-0.3685336,0.17007141,0.022436056,-0.35972852,-0.15117368,0.25932932,-0.4837423,-0.21202901,0.58033276,0.24012971,0.27366474,0.20433576,0.038152292,0.021552889,0.15225771,-0.038760178,-0.35622752,-0.5520756,-0.13705072,0.08810833,-0.34276003,-0.1413837,-0.36597896,-0.15895614,-0.41917375,-0.03321804,-0.078240596,0.30886286,0.16014872,0.18219718,-0.09589577,-0.12521075,-0.7162756,0.21025197,0.21784076,0.29648262,0.1096018,0.049713306,-0.08192469,0.067165,0.41000724,-0.5701963,-0.14141586,0.28430068,0.057946518,-0.043624494,-0.3949364,0.00093761086,0.35928345,-0.19696961,-0.008703551,0.010972973,-0.10082407,0.37539434,0.07716966,-0.15921657,-0.26700407,0.05032157,0.20227048,-0.52773255,-0.25664258,0.42286834,0.037926953,0.057681605,0.02808002,0.2841281,0.010235004,-0.36015305,-0.3604727,0.21106559,0.17967565,0.27038038,0.098242216,0.026262559,-0.624289,-3.144082,-0.04822024,-0.09008538,-0.20352048,0.34635493,-0.17707439,0.10599047,0.08706641,-0.47407496,0.29904816,-0.16637951,-0.14934193,0.14249006,0.32680005,0.38628808,0.02281595,0.035814475,-0.33170038,-0.121597536,0.39577594,-0.17552608,-0.53439856,0.113255456,0.1122895,0.52314496,0.4693879,-0.6004056,-0.074984975,-0.21967322,-0.23198903,0.23692998,-0.1677431,-0.22495416,0.33075872,0.09699002,-0.090394765,-0.06965229,-0.3381372,-0.33484048,-0.27859172,0.16698235,-0.9208853,-0.30251437,-0.09957968,0.5601845,0.09048353,0.32874596,-0.1340115,0.09038681,0.13291557,0.08781566,0.057694905,-0.048321795,-0.14146942,-0.0547711,-0.067377865,0.44748157,0.30702808,-0.39008033,-0.29088077,0.09285224,-0.18613404,-0.43398583,-0.11021059,-0.10323634,-0.22992076,-0.59813964,-0.36845917,-0.30279848,0.005578272,-0.0244873,0.5044148,-0.39416635,-0.16127829,-0.029388355,-0.37596554,0.12808475,-0.15322903,-0.057051815,-0.08078927,-0.25523376,-0.37236226,0.26733053,0.19618681,-0.017652944,-0.04101813,0.021259855,-0.010852976,-0.4252733,-0.485968,0.33822912,0.14577651,0.20939642,0.09182595,0.39767343,-0.13689724,0.301315,-0.052436188,0.23356134,-0.37774324,0.04169117,0.22629364,0.6165713,-0.2464886,0.04464998,-0.0716804,-0.20363808,0.05725557,0.14392172,-0.048790656,0.06760339,-0.12630576,0.1424714,-0.26600534,0.044174504,0.0022165142,0.21005365,0.7943048,-0.1621221,-0.24331212,-0.22568741,0.35225964,-0.089961156,-0.19300145,-0.14533535,-0.018641146,-0.24705458,0.11128302,0.12133619,-0.06047206,-0.22828227,-0.10546262,-0.20955169,0.3366835,0.2643034,0.062067088,-0.0808585,-0.5909742,-0.28286746,0.23337425,0.026517753,0.14812005,0.10373391,-0.28317744,0.13529754,0.16727483,-0.044886157,0.41717917,-0.31692874,0.17461501,-0.5155866,-0.2780059,-0.12311603,-0.31515712,0.0033932617,0.59675235,0.1291618,-0.099112466,0.14913374,-0.48381215,0.2632173,-0.08996752,0.10730907,-0.1002986,-0.110191956,0.70111346,-0.02842581,-0.09580279,-0.14953709,-0.16838561,-0.046082262,-0.35849738,0.11762419,-0.33123177,-0.19939923,0.36876443,0.22707772,-0.3246271,-0.096000224,0.19894013,-0.0133617185,-0.4227261,-0.3153512,-0.07912563,0.1492235,0.010339441,0.19620152,-0.36382526,0.010912085,0.025761973,-0.03621345,0.22216128,-0.13417408,0.00048820674,-0.24940631,-0.08895493,0.52254367,-0.101148844,0.094941035,0.16691348,0.057545774,-0.36284077,-0.4825715,0.08039231,0.18487626,-0.18817887,0.01141864,0.46844772,0.02509731,0.13804483,-0.32274485,0.020840893,-0.2751733,-0.06085207,0.14947458,-0.62050974,-0.2749602,-0.13109627,-0.4819258,0.019537102,-0.04477174,0.064621516,0.17136598,-0.14585873,-0.13803914,-0.18691264,0.19191702,0.09119398,-0.22980323,-0.18193218,0.2162759,-0.87549746,0.10651551,0.028015384,-0.12333426,0.08864814,-0.025556972,-0.6699782,0.4063481,-0.24395736,-0.16896066,-0.20448935,-0.3743507,-0.25739443,0.17858212,0.024104925,-0.13699648,0.4117943,0.02030084,0.4481502,0.120926276,-0.043195043,0.09622618,-0.21378912,0.12483495,-0.3881242,-0.2577678,0.054838695,-0.13933039,-0.003823359,-0.21755636,-0.0627729,-0.24040818,0.11993514,0.23962866,0.22064234,-0.1215271,-0.09026179,0.04951661,-0.48731184,0.12654471,-0.3979266,-0.060857356,-0.18820001,0.11159511,0.11114582,0.0068542114,-0.4788177,0.45863912,-0.2957781,-0.42499718,-0.056508992,-0.16834243,0.09858274,0.33732885,-0.35242122,-0.18247002,0.15985227,-0.09380917,0.086854786,0.300001,-0.19587663,-0.25229704,-0.08999311,-0.62151116,0.28102443,0.62858105,0.3063977,0.06546771,0.14041921,0.19496511,0.2836939,0.36741766,0.049070712,-0.32015258,0.37103677,0.13635792,-0.58791244,-0.06266916,0.08527138,-0.17812069,-0.5083227,0.6710574,0.24829704,-0.35035253,-0.30674767,-0.1646708,-0.121391214,0.34015957,-0.047870502,0.2350169,0.039206613,0.59485847,0.10229713,0.30977803,0.55065507,-0.06783994,-0.3180138,-0.055495154,0.19784807,0.106190905,0.39683935,-0.26763684,0.16331498,-0.030024804,0.12718597,-0.17143315,-0.03608504,0.13405344,0.16920903,-0.08286948,0.06863047,0.65630805,0.451417,0.3216674,0.27630174,0.19285515,-0.012443451,0.6072648,0.39593723,0.041786905,-0.074219525,0.07665999,-0.06870089,0.20341988,-0.018218882,0.37565947,0.2589945,-0.0053976206,0.5011991,0.09900782,0.23761591,0.5588375,-0.46597326,-0.32818848,-0.063298434,0.5685451,-0.36610353,-0.096217416,0.33841538,0.028669247,0.08014437,-0.32264394,-0.33134484,-0.016741937,0.047756948,0.17408375,-0.22099563,0.019133275,0.27074,-0.05807375,-0.40269873,-0.4295448,-0.3379333,-0.04835548,-0.04777998,-0.12544842,0.10330883,-0.15324043,-0.19650386,-0.013541948,-0.07897241,0.23025268,-0.2505876,-0.22222522,-0.014135685,0.45442384,0.12060222,0.6240532,-0.15846664,0.16078386,-0.288123,-0.2962042,0.043279648,0.14458105,-0.04478979,0.012989365,0.35512245,-0.28235546,-0.09724331,-0.10310866,0.21860038,-0.33910894,-0.15816626,0.16225499,0.13322178,0.19954547,0.10873659,-0.27596295,-0.1356947,-0.043739937,-0.3971538,0.054018404,0.32010883,-0.35182405,0.045976106,0.14416352,0.121019736,-0.2301862,-0.1441939,-0.14504325,-0.024404362,-0.031052567,0.1920966,0.101313055,-0.30530953,-0.38151085,0.27683538,-0.17874748,0.20241594,0.110377975,0.3260185,-0.14849776,0.068397544,0.37283552,0.17924444,-0.16625576,-0.38373244,-0.03771086,-0.3892694,-0.16955832,-0.05222912,0.11843714,-0.19970089,0.0059675053,-0.48613086,-0.2822916,-0.11169985,0.056465372,-0.017262457
13296856.pdf,-0.326434,0.19505256,0.24937312,0.07828603,0.60875803,0.08001942,0.34368604,0.2478083,-0.14783414,-0.337713,-0.07735791,-0.31349468,0.05332648,0.1464222,0.19778776,0.461788,0.263462,-0.078403436,-0.18857677,0.5501386,0.043208033,-0.23137802,0.15846446,0.8462835,0.44881922,0.13777551,-0.24111944,-0.28735155,-0.22444786,-0.23237652,0.581746,-0.020396955,-0.046238285,-0.37724385,0.13177626,0.056280825,-0.27345026,-0.18822694,-0.04381597,0.35088027,-0.46546912,-0.3914925,-0.20144436,-0.1894732,-0.20069006,-0.45597306,-0.062159188,0.029607996,0.14329353,-0.10592696,-0.58132946,0.19809744,-0.07518337,-0.35539728,0.2766613,0.7857306,-0.006010648,-0.6589614,-0.35617495,-0.5077429,-0.14483593,0.032188743,0.26393247,-0.26271337,-0.025408506,0.0025703944,0.04771816,0.49992472,-0.6245322,-0.3318205,-0.398904,0.23544818,-0.11462265,0.015907912,-0.30663544,-0.2932487,-0.037145905,0.45204794,0.062995255,-0.08979572,-0.17128047,0.4019993,-0.16776489,0.2862988,0.1601617,0.11925028,0.27247146,0.264723,-0.2903352,0.4053722,0.07838985,-0.292026,0.31287336,0.33199584,0.31823444,0.22621359,0.2830179,0.13088772,-0.2582514,0.052437644,0.17900693,-0.05538475,0.31413856,0.07627235,-0.0725031,-0.053605366,0.035113573,0.05402192,-0.45361495,0.44096035,0.12695335,-0.29444534,-0.37210926,-0.502755,0.099278614,-0.109539025,0.11100647,0.40543902,0.11748993,0.099031016,-0.18438227,-0.11394708,0.18503873,0.9268292,0.03006247,0.065477006,-0.22019932,0.093793474,-0.049236916,-0.03212291,0.06905743,-0.08071038,-0.09063868,0.035714954,-0.3111531,0.2856843,-0.30278182,-0.39502683,-0.13659015,0.24476689,-0.1586344,-0.5197325,0.57226086,-0.08600381,0.21702181,-0.30502665,-0.0152695775,0.09680791,0.017424889,0.27166194,0.29331535,0.0014651641,-0.029287808,-0.19987792,-0.14407247,0.027253428,-0.3642413,0.30257004,0.099471025,0.077809274,0.28298414,0.3439911,-0.439037,0.28625613,-0.10498291,0.039450727,-0.45673308,0.1684484,-0.34297884,0.22599056,-0.015265295,0.017105367,0.6101438,-0.071486264,0.27215675,0.03369465,-0.012434915,-0.10117365,0.07781544,0.20862025,-0.4793905,0.19773759,-0.17520514,-0.15087746,0.29036805,-0.20997813,0.22387828,-0.28854203,0.10512335,-0.08010747,-0.29547635,-0.45476478,0.03409353,0.07091506,0.3447097,-0.22184172,0.044442695,0.047375258,-0.44215623,-0.21668491,0.26366448,0.023769058,0.13291104,0.19369328,-0.1802131,-0.46928543,0.17502809,-0.4325924,-0.2722295,-0.03259179,-0.2830767,-0.037219554,-0.08808636,0.4664784,0.10358319,0.019278698,-0.25894853,0.023454547,0.095078796,0.026662905,0.16361958,0.10100053,-0.37172064,0.4422411,-0.40390623,0.584629,0.1465754,-0.8146889,0.33224657,0.549314,0.087793276,-0.28201777,0.26005065,-0.48869962,0.1451967,0.09415789,-0.19349448,-0.15427113,0.40852708,-0.48644605,-0.31270063,0.6056827,0.28525203,0.24730772,0.16110662,0.005326746,-0.05803418,-0.016360875,-0.05478563,-0.2752464,-0.72615933,0.083041884,0.0070504625,-0.28809708,0.048123736,-0.3649034,-0.18949744,-0.54350185,0.05671451,-0.2663517,0.42897034,0.2553583,0.08408125,-0.018985245,0.038751144,-0.76594627,0.20409656,0.21933328,0.31096968,0.10072296,-0.02610895,-0.036127027,0.11705301,0.5205904,-0.36683983,0.018859996,0.16551107,0.048138782,0.0052593835,-0.39329296,0.016101455,0.24741527,-0.33846188,-0.030495055,0.032812435,-0.052453727,0.20854129,0.05375874,-0.33830133,-0.13343292,-0.0008770395,0.1700249,-0.39753634,-0.20944083,0.6116224,0.088176355,0.10565998,0.17309009,0.29728204,0.07611587,-0.48173094,-0.356336,0.050217047,0.162155,0.3140841,0.07604926,0.060078185,-0.6544707,-2.68783,0.035303954,0.017470134,-0.14240801,0.29414418,-0.32428846,0.15335664,0.087609336,-0.49388677,0.15877387,-0.22211027,-0.24172358,0.045875087,0.2623641,0.10391088,0.06632363,0.09623057,-0.2874931,-0.11195866,0.42897472,-0.143004,-0.66066134,0.06787021,0.25051564,0.556838,0.065419585,-0.55012536,0.04915208,-0.31166363,-0.25426218,0.29122955,-0.22795478,-0.30896175,0.29856056,0.05051937,-0.06931149,0.03212484,-0.31936428,-0.28256238,-0.49779165,0.07516248,-0.93814844,-0.15276308,-0.111878335,0.47809702,0.048898645,0.17623833,-0.1164093,0.059208076,0.048040945,0.22233725,0.23335777,-0.15780193,-0.23205626,0.0018595494,-0.09371595,0.5513172,0.28266022,-0.20514446,-0.06928842,0.23799673,-0.098086625,-0.34294042,-0.27096647,-0.1360467,-0.1977262,-0.8583716,-0.35430586,-0.11945749,-0.17762603,-0.19598085,0.8142508,-0.39424667,-0.08220029,-0.08827208,-0.5631763,0.31108522,-0.2684206,-0.011738332,-0.09055169,-0.30816364,-0.3032211,0.43996146,0.22209755,-0.14999166,0.13607088,0.04823822,-0.0071396474,-0.45417494,-0.39166948,0.29062098,0.1890545,0.064333625,0.13113646,0.55924773,-0.11736598,0.25426477,0.110167585,0.006631349,-0.34442285,0.014803112,0.07601069,0.44140166,-0.12540239,0.1689913,0.049034752,-0.27898186,0.10432619,0.30319366,-0.13374542,0.010665461,-0.035379745,0.07916143,-0.4379541,0.112362094,-0.10854523,0.3251053,0.9196397,-0.025079979,-0.19712766,-0.06929751,0.34285492,0.122244604,-0.09633273,-0.2776466,-0.06111474,-0.3936783,0.19691257,-0.024147782,-0.067147784,-0.16748443,-0.2683903,-0.33051866,0.2737031,0.24652517,0.14910424,-0.1169965,-0.6795857,-0.37470186,0.2858046,0.09565891,0.2922144,0.30576986,-0.33555084,0.1443819,0.25321665,-0.26685968,0.44793025,-0.54572654,0.31491506,-0.7199733,-0.23302454,-0.09459546,-0.29883438,0.08337876,0.5781282,0.2108061,-0.067925155,0.11615128,-0.51785797,0.32658368,-0.036599897,0.14655069,-0.026373819,-0.11905567,0.7382853,-0.02183682,-0.11992267,-0.02020427,-0.14402446,-0.09864525,-0.42739266,0.030993417,-0.48367733,-0.17595923,0.365937,0.2554621,-0.2333037,-0.26116884,0.17890766,0.0777825,-0.32635504,-0.22817473,-0.108679116,0.28734916,0.07907742,0.11020131,-0.5000161,0.04341409,-0.10194416,0.0874675,0.17574912,-0.0031222878,0.11854724,-0.21402939,-0.01903761,0.68023634,-0.15909535,0.04906266,0.27155536,-0.00541219,-0.38250947,-0.40551913,0.23043092,0.028226968,-0.23797229,-0.0006905906,0.25988853,0.03352188,-0.09413265,-0.46256196,0.0016876683,-0.24280006,-0.022840027,0.4517288,-0.700933,-0.37263542,-0.060706735,-0.6847301,0.12198393,0.09713189,-0.24787992,0.07053478,-0.075776994,-0.039062604,-0.06968511,-0.11664605,0.12204008,-0.44339442,-0.108431354,0.06847422,-0.8915179,0.09294163,0.08965974,-0.14477737,0.16976608,-0.15074056,-1.0174485,0.4670382,-0.2349088,-0.14051291,-0.11393267,-0.2801792,-0.4913051,0.09216059,0.15773872,-0.21881509,0.5016345,0.007712789,0.4463351,-0.05282321,-0.10903199,0.21691659,-0.30782637,0.24065755,-0.36990678,-0.3398846,-0.08420262,-0.2825363,-0.15972573,-0.22421286,-0.16393054,-0.18083318,0.04128303,0.21494871,0.24993213,0.078910686,-0.273873,0.15991697,-0.6291009,0.051121783,-0.31122342,0.05241159,-0.120944485,0.11424062,0.07347898,0.17126797,-0.34416258,0.52763593,-0.33044323,-0.47222298,-0.24339595,-0.42222518,0.049490888,0.5713434,-0.2983653,-0.16928515,0.25217247,-0.13548335,-0.1496697,0.34074053,-0.27886388,-0.19747481,-0.012664973,-0.7633947,0.20983672,0.72641325,0.15565875,-0.12088881,0.16852856,0.118447594,0.23514554,0.3549834,-0.12859161,-0.16746902,0.24954475,0.05240139,-0.5404979,-0.19391084,-0.0955765,-0.11204915,-0.50930667,0.7147287,0.22683552,-0.5038065,-0.22526704,-0.15413722,-0.11540383,0.43332887,0.034500018,-0.030741058,0.2553102,0.74681276,-0.037801042,0.52698225,0.49347946,0.064182684,-0.24674109,-0.06503004,0.28334922,-0.04932097,0.2848601,-0.2304821,0.31380367,0.06975524,0.23822534,-0.09744887,0.0034959987,0.11790722,0.10315439,0.05402478,0.18781662,0.7014741,0.4505745,0.32119295,0.20169592,0.31058565,-0.026728768,0.6477964,0.3750726,0.2578451,-0.016636662,0.3365764,0.064692125,0.26055276,-0.13887484,0.20562056,0.38249683,-0.05406712,0.40540022,0.1655657,0.24779151,0.61313355,-0.741964,-0.2649913,-0.20301642,0.48497948,-0.5367614,0.095336445,0.41681445,0.017155422,0.2696352,-0.44833568,-0.36742267,0.071924694,0.037903693,0.12090933,-0.38952994,0.0018457831,0.41321993,0.010791626,-0.340405,-0.24726494,-0.2792388,-0.03488969,0.21934003,-0.035952553,0.19698164,-0.21895707,-0.2659461,0.09135717,-0.082019806,0.4469622,-0.11581684,-0.101148605,0.07045527,0.31363076,0.16494149,0.7565329,-0.18205701,0.23186362,-0.32520437,-0.22607213,0.08824043,0.20518164,-0.22308932,0.04863887,0.37099084,-0.33259648,-0.15715969,-0.090349115,0.19176853,-0.2724979,-0.12176657,-0.0337336,0.22490422,0.21720412,0.35542688,-0.26589978,-0.13411479,-0.01601775,-0.45995232,0.17339583,0.1806236,-0.36825448,-0.1914888,0.11997247,0.18846688,-0.12760451,-0.050497383,-0.21975794,-0.13183787,-0.1352669,0.35537985,-0.016395122,-0.10680256,-0.3327127,0.53228956,0.05649551,0.14350149,0.14046478,0.27150643,-0.12653728,0.07978598,0.45895034,0.15239969,-0.23508987,-0.40443248,-0.028910208,-0.3889597,-0.2594883,-0.3946665,0.07835904,-0.2777412,-0.048317194,-0.512104,-0.2583499,-0.2571743,-0.09033616,-0.0733942
